Layer: fc1.weight
Shape: torch.Size([128, 300])
Values:
{
  {0.031417, -0.019682, 0.005711, 0.036144, 0.031315, -0.029648, -0.035601, -0.037822, -0.019847, 0.026833, 0.035651, 0.004339, 0.030192, -0.055659, -0.028741, 0.023621, 0.021835, 0.064656, -0.012661, 0.013685, 0.016591, -0.015173, 0.008568, 0.006336, -0.015668, 0.027171, -0.020371, -0.015306, 0.005449, 0.062519, 0.037632, -0.007838, -0.056338, -0.051251, -0.024077, 0.019790, -0.004601, 0.008083, 0.008589, 0.014544, 0.038769, -0.014155, 0.025489, 0.029336, 0.005699, -0.031406, -0.007295, -0.006779, 0.005350, 0.027912, -0.049601, -0.006487, 0.021625, 0.011877, 0.058951, 0.030440, -0.019784, 0.074816, 0.089149, 0.008090, -0.028932, 0.018243, -0.031100, 0.004884, 0.053433, -0.017518, 0.043584, 0.045276, 0.018390, 0.067942, 0.063828, 0.052832, 0.000325, -0.016337, 0.018318, 0.017573, 0.039153, -0.012778, -0.042214, -0.037048, -0.056811, -0.021403, -0.066111, -0.051821, -0.053711, 0.042960, -0.049608, 0.023661, 0.022682, -0.055014, 0.006594, -0.038687, -0.057666, -0.061371, -0.005451, -0.041711, -0.017721, -0.015981, -0.024442, -0.042566, 0.050059, 0.038903, 0.081436, 0.071501, -0.013478, -0.002461, -0.053218, -0.025235, -0.003963, 0.007029, -0.006193, 0.067448, 0.037169, 0.025798, 0.046712, 0.034772, 0.021612, -0.024644, 0.038457, 0.036558, -0.001912, -0.020994, -0.054234, -0.058525, -0.042796, 0.017479, -0.031110, -0.051565, -0.004359, 0.026376, 0.005139, 0.024598, 0.009077, -0.005152, -0.021492, -0.033429, -0.065810, -0.046631, -0.065735, -0.025250, -0.030188, -0.002168, -0.035318, -0.067369, 0.047607, -0.036145, 0.025355, -0.091207, -0.039549, 0.041840, 0.077810, 0.053623, -0.011871, -0.017762, 0.043072, 0.049118, 0.041496, 0.025820, 0.014846, 0.036810, 0.045444, 0.028261, -0.017772, 0.016581, -0.043293, 0.023580, -0.010610, -0.049803, -0.024588, 0.024537, 0.027045, 0.044152, 0.042577, 0.056769, 0.077165, 0.044717, 0.037058, 0.032508, 0.066337, -0.030797, 0.062930, 0.076915, 0.062444, 0.078416, 0.051918, 0.012708, 0.014343, 0.085371, 0.056095, -0.026903, 0.007652, 0.024797, -0.068438, -0.107906, -0.080768, -0.078747, -0.062735, -0.087207, -0.112575, -0.027909, -0.021640, 0.015917, 0.034051, 0.090392, -0.025293, 0.035406, -0.032397, 0.012178, -0.020668, -0.014738, 0.030807, 0.004896, 0.039139, 0.044916, 0.009360, -0.036837, -0.035872, 0.014047, -0.060821, 0.030737, -0.046695, 0.023000, 0.027585, 0.040076, 0.048305, 0.080508, 0.046255, -0.026811, -0.040550, 0.007806, -0.035269, -0.059804, -0.013522, -0.037542, -0.049620, -0.004534, -0.086979, -0.025866, -0.079463, 0.023375, -0.001924, 0.002557, -0.039146, 0.008659, -0.072112, -0.032403, 0.017836, 0.003660, -0.048751, -0.068461, 0.034288, 0.049427, 0.016132, -0.018071, 0.002748, -0.032379, 0.021310, 0.005642, 0.048813, -0.018706, 0.046965, -0.034511, -0.012212, -0.002870, -0.003553, 0.057034, 0.040147, 0.033656, 0.038417, -0.035028, -0.040092, -0.062034, -0.013206, -0.000123, -0.015161, 0.004076, -0.039723, -0.010052, 0.040465, 0.055920, 0.003225, 0.038925, 0.051569, 0.049172, 0.027312, 0.049237, 0.000470, 0.034032, 0.031335, 0.044412, 0.046813, 0.031704, -0.035161, 0.038887, 0.034376, 0.050980, 0.026134, -0.018478, 0.042300, 0.036847},
  {0.104868, -0.012235, -0.022669, -0.013617, -0.014844, -0.036991, 0.047060, -0.046535, 0.006450, -0.047324, -0.050546, -0.022065, 0.035217, 0.018742, 0.053896, -0.032770, -0.005530, 0.042957, 0.001744, -0.040111, -0.026623, -0.033213, -0.024168, -0.061564, -0.000083, -0.005198, -0.036827, -0.030356, -0.021899, 0.009360, 0.051468, 0.021850, 0.031176, -0.051078, 0.036374, -0.054370, 0.045872, -0.025197, -0.021874, -0.004869, 0.032095, -0.048169, 0.041694, -0.029841, -0.037780, -0.057706, -0.024629, -0.060513, 0.033802, 0.016084, -0.064973, -0.016721, -0.005321, -0.031965, -0.009629, -0.019013, 0.007955, -0.044281, 0.022199, -0.013426, 0.033335, 0.020580, 0.062719, 0.013788, 0.033860, -0.030724, 0.009603, 0.008748, -0.007894, -0.013870, -0.005968, -0.025749, -0.004379, -0.013563, 0.035624, 0.015385, -0.035418, 0.019534, 0.011746, -0.035305, 0.020047, -0.000882, 0.030097, -0.050973, 0.052645, -0.008001, 0.005802, -0.016035, -0.013907, -0.022081, 0.049725, -0.043099, 0.002143, -0.055028, 0.028051, -0.003363, 0.050119, -0.026464, 0.031980, 0.055208, -0.000840, -0.063162, 0.019602, -0.051970, 0.018287, 0.056719, -0.004677, 0.055225, 0.073804, 0.020285, -0.019837, -0.026886, 0.033276, 0.039571, -0.062763, -0.021442, 0.054080, -0.036396, 0.033343, 0.025082, -0.058753, 0.006088, -0.028152, 0.033355, -0.008810, 0.028880, -0.032727, -0.008273, -0.022065, -0.048176, -0.025541, 0.013499, -0.030941, -0.029778, -0.090718, -0.102735, -0.093613, -0.021544, -0.050804, 0.018141, 0.027364, -0.058500, 0.015991, -0.056713, -0.016591, 0.006843, 0.006073, -0.019183, 0.023834, 0.020900, -0.072137, 0.023985, -0.013417, 0.010031, 0.056721, 0.006147, -0.033506, -0.058976, 0.006161, 0.035374, 0.009287, -0.027678, 0.038789, -0.017588, 0.003491, -0.010637, -0.047723, -0.055691, 0.006494, 0.024314, -0.046580, -0.000213, -0.022180, 0.005756, 0.047920, -0.000194, 0.000559, 0.002199, 0.032727, -0.039422, -0.028101, -0.055927, -0.004571, -0.024701, 0.006073, -0.035810, 0.027343, -0.032289, -0.030076, -0.061354, 0.006092, -0.064686, -0.017630, -0.040429, 0.060729, 0.003753, -0.002729, 0.057615, 0.056127, 0.046336, 0.019304, 0.014963, -0.014082, 0.006769, 0.027542, -0.011314, 0.049999, 0.045228, 0.001585, -0.020815, -0.001826, 0.043944, -0.063803, -0.004167, 0.029584, -0.003050, -0.054169, -0.029997, -0.028562, 0.027856, 0.072897, 0.079905, -0.006710, -0.012440, 0.095496, 0.017651, 0.063662, -0.036733, -0.033861, -0.075016, 0.007841, 0.009534, 0.015192, -0.013120, -0.101321, -0.052798, 0.000873, -0.039603, -0.025089, 0.024087, 0.072170, 0.073186, 0.016106, 0.053456, 0.062351, 0.092533, 0.079778, 0.108152, 0.050127, 0.025022, 0.032594, 0.014046, 0.012547, 0.022153, -0.040426, -0.023398, 0.053549, -0.042179, -0.015191, -0.005963, 0.054575, 0.038583, 0.013808, 0.025197, -0.065168, 0.003812, 0.033767, -0.037166, -0.049095, 0.014706, -0.014095, 0.027794, -0.000148, -0.054710, -0.030461, 0.040496, -0.039441, 0.048097, 0.045178, 0.000159, -0.032257, -0.038686, 0.016949, -0.039366, 0.017362, 0.060091, -0.002878, -0.032174, -0.025827, -0.026692, 0.015912, -0.044598, -0.008923, -0.044421, 0.033634, -0.064109, -0.050160, 0.030823, -0.003018, -0.034990},
  {-0.118780, 0.006817, -0.008057, 0.003670, 0.002772, -0.030869, -0.022270, -0.025151, 0.047026, 0.042308, -0.011013, 0.006515, -0.092238, -0.049534, -0.037096, -0.005896, -0.085274, -0.013658, 0.008729, -0.062800, -0.012437, -0.013978, -0.022157, -0.003022, -0.056453, -0.013354, -0.061318, -0.042431, 0.031148, -0.035081, 0.044411, -0.024371, -0.050196, 0.046093, -0.035306, -0.018037, -0.013289, -0.010769, -0.029251, -0.006731, -0.050390, -0.041647, -0.029885, -0.077004, 0.025563, -0.046271, -0.030450, 0.017385, -0.037028, 0.046930, -0.027961, 0.014175, -0.047042, -0.036129, -0.097228, -0.026295, -0.006961, -0.009044, -0.027544, -0.061432, -0.048716, 0.008091, -0.026640, -0.013090, 0.016822, -0.027775, -0.038235, 0.030245, -0.065292, 0.009174, -0.041188, -0.088839, -0.050458, -0.030228, 0.023992, 0.023748, -0.004452, -0.020748, -0.033461, -0.073111, -0.030780, -0.018807, -0.009734, -0.062016, -0.020670, 0.022598, -0.021289, 0.037783, 0.006348, 0.011599, 0.007100, -0.036645, 0.021006, 0.005707, -0.013613, -0.071115, 0.030438, 0.037827, 0.032983, -0.068888, -0.026253, 0.034885, -0.000770, -0.056124, -0.018045, -0.078599, 0.020720, 0.001187, -0.009246, -0.075217, 0.042091, -0.007793, -0.042480, -0.014890, -0.008942, -0.045900, 0.033229, 0.009256, -0.047374, -0.031635, -0.016062, -0.027501, 0.041972, -0.028500, 0.050357, -0.026136, 0.057560, -0.045392, 0.055452, 0.048075, -0.009082, 0.074417, -0.012320, 0.060203, 0.083401, 0.084610, 0.036976, 0.047224, 0.022073, -0.013555, 0.013742, -0.016638, -0.031762, -0.007694, -0.034172, 0.024843, 0.021111, -0.019255, 0.001910, 0.062898, 0.010716, 0.017132, 0.004161, -0.025581, 0.026174, 0.020810, 0.082224, -0.017678, 0.052719, 0.008409, 0.051618, 0.018182, 0.002187, -0.016870, -0.013308, -0.062182, 0.016210, 0.042662, -0.012925, 0.004403, -0.065958, -0.023570, -0.047856, -0.056299, 0.034728, -0.053735, 0.004534, -0.047497, -0.009582, -0.049624, 0.020341, -0.029152, 0.028971, 0.035969, -0.054099, 0.006781, -0.010586, -0.001086, -0.004252, 0.001438, -0.003892, 0.020598, -0.001525, -0.029705, 0.011465, 0.036640, -0.021868, 0.008224, 0.062052, 0.011968, -0.086804, -0.065860, 0.019118, 0.027680, 0.065958, -0.029274, 0.012420, 0.043347, 0.076530, 0.070016, -0.017777, 0.045718, 0.024231, -0.002010, -0.039693, -0.024379, 0.007179, -0.009456, 0.055116, 0.022750, -0.026584, -0.007717, 0.012501, -0.057571, -0.053790, 0.047835, 0.037587, 0.001662, -0.010666, -0.025239, 0.061739, 0.012716, 0.062267, 0.071535, 0.013306, -0.007931, 0.043621, -0.055593, -0.029244, 0.007842, 0.044894, 0.037479, -0.019408, 0.040412, -0.026020, -0.037149, -0.000314, -0.019605, 0.030854, -0.020896, 0.050782, -0.022433, 0.038062, 0.011455, -0.045478, -0.077135, 0.016271, 0.011060, -0.038127, -0.021122, -0.044061, 0.022091, 0.033313, -0.055511, 0.004850, -0.031687, 0.022054, -0.017271, 0.023768, 0.046913, 0.052999, -0.001524, 0.063839, 0.009848, 0.044852, 0.058549, 0.008880, 0.046186, 0.042809, -0.023540, -0.023758, -0.035429, -0.052096, -0.067180, 0.008641, -0.002977, -0.031085, 0.009820, 0.049581, 0.069667, 0.033208, -0.040230, -0.046510, 0.046163, -0.032778, 0.008493, -0.042117, -0.043673, -0.046100, -0.020712},
  {0.049166, 0.031596, -0.069436, -0.034607, 0.004942, -0.026959, -0.035478, -0.041108, 0.026446, 0.039243, 0.032138, 0.041805, 0.025064, -0.036246, 0.033297, -0.047294, 0.061384, -0.023306, 0.036711, -0.018093, 0.023422, -0.023828, -0.052426, -0.019498, -0.035285, 0.060035, 0.047128, -0.008242, -0.033883, -0.026441, -0.017153, 0.037931, 0.032501, 0.013276, -0.021011, -0.026759, 0.018608, 0.020129, -0.030536, 0.054278, 0.041725, 0.001650, 0.045265, 0.012561, -0.005015, 0.019752, -0.036933, 0.052949, 0.019545, 0.026815, -0.006102, -0.037929, -0.040166, 0.015627, -0.030028, 0.011615, -0.016875, 0.024109, 0.010485, 0.020805, -0.017342, 0.066757, -0.018006, -0.020934, 0.038196, 0.029818, 0.044683, 0.038945, 0.048199, -0.008731, -0.046818, -0.004749, 0.019460, 0.010429, 0.060883, 0.003362, 0.004645, 0.000979, 0.016220, -0.011376, -0.000280, -0.049082, 0.057092, 0.044509, 0.000719, -0.050331, -0.002803, -0.057122, -0.062484, -0.031592, -0.064977, -0.026430, 0.017764, -0.008059, 0.046714, -0.037677, 0.042463, -0.015390, -0.029417, 0.020112, 0.083014, -0.028594, 0.050653, 0.033165, -0.016582, -0.043495, 0.004735, 0.079921, 0.001794, 0.060056, 0.084699, 0.068003, 0.054506, 0.052425, 0.020119, -0.040458, -0.064672, -0.042882, -0.024285, 0.026733, 0.017443, 0.026202, -0.035471, 0.034105, -0.015461, 0.018329, 0.027462, -0.060023, -0.029671, -0.007622, -0.061561, 0.000727, -0.093084, -0.066277, -0.112561, -0.056227, -0.030386, -0.006086, -0.087990, -0.027312, -0.096725, -0.065680, 0.012149, -0.087628, -0.000934, 0.033949, -0.042050, 0.019361, -0.053753, -0.057472, -0.080276, 0.033465, -0.068186, -0.061149, 0.047102, 0.024852, -0.023379, 0.004471, -0.000810, 0.026614, 0.029073, 0.080421, -0.006540, -0.007633, 0.056820, 0.005146, -0.037037, 0.039573, -0.024669, 0.086566, 0.064963, 0.052097, -0.001084, 0.072330, -0.031482, -0.034012, -0.048515, -0.037473, 0.054493, 0.000134, 0.014575, -0.050977, 0.016153, -0.029362, -0.056223, -0.031715, -0.070881, -0.066131, -0.045836, -0.081719, -0.034577, -0.073689, 0.014020, -0.007781, -0.076033, 0.018527, 0.015386, -0.032783, -0.040851, 0.013023, 0.012149, 0.063108, 0.030232, 0.122878, 0.069583, -0.022729, -0.020452, 0.010623, 0.013915, -0.040553, -0.028621, 0.034860, -0.018755, -0.044676, -0.039157, 0.006085, 0.011380, 0.048568, 0.060477, -0.004946, 0.006199, 0.037019, 0.009973, 0.006260, 0.076937, 0.058193, -0.045247, -0.005908, -0.017822, -0.064570, -0.059045, -0.074210, -0.003680, -0.078276, -0.067034, -0.030652, -0.022276, -0.005135, 0.022693, -0.017440, 0.010300, -0.038737, -0.021985, 0.069301, 0.065558, -0.002057, 0.056159, 0.000433, 0.024639, 0.030027, -0.077127, 0.002948, 0.073010, 0.007792, 0.011739, 0.053536, -0.017748, 0.009614, 0.006915, 0.092262, 0.048658, 0.036609, -0.017227, -0.013047, 0.082879, 0.040532, 0.066231, 0.056499, 0.020220, -0.003722, -0.063033, 0.037982, -0.019269, -0.044404, 0.033583, 0.022497, -0.023882, 0.064364, -0.039975, -0.018218, 0.041105, 0.059048, -0.022588, 0.038462, -0.002986, 0.048579, 0.012545, -0.005109, -0.010610, 0.045421, -0.067644, -0.072035, -0.029396, -0.024186, -0.027658, -0.073025, 0.025507, -0.058377, -0.042318, -0.069628},
  {-0.018783, 0.006991, 0.004212, 0.024002, 0.057084, 0.006659, -0.025961, 0.024696, -0.029684, 0.037832, -0.039485, 0.009418, -0.028586, 0.048201, -0.016041, 0.037077, 0.051326, -0.023634, 0.055376, 0.055531, 0.037662, 0.076453, -0.002392, 0.016375, -0.008112, -0.002245, 0.036290, 0.009843, -0.025305, -0.011573, 0.009573, 0.032616, 0.033719, 0.061803, -0.021476, -0.037216, -0.023737, -0.052109, 0.002364, -0.003764, -0.054586, -0.014059, 0.002361, -0.022123, 0.064500, 0.056454, -0.046802, -0.024539, 0.031716, 0.055764, -0.043865, -0.010164, 0.006648, -0.011617, -0.029094, 0.003414, 0.005147, 0.051656, -0.019976, 0.011848, -0.017302, 0.024135, -0.009735, -0.043427, 0.075979, 0.014000, -0.070740, -0.002092, -0.054088, -0.037466, -0.031783, -0.049031, -0.028988, -0.068557, 0.009412, -0.043971, 0.033343, -0.031635, -0.009565, 0.005017, -0.048025, -0.041114, -0.024249, -0.070323, 0.020091, -0.046599, -0.056306, -0.065875, 0.000258, 0.012987, -0.024341, 0.000308, -0.021359, -0.033059, 0.031261, 0.012272, -0.002516, -0.011622, -0.022082, -0.029144, -0.080582, -0.003156, 0.072506, 0.048372, 0.062724, 0.049407, 0.039540, -0.028384, -0.033646, -0.021957, -0.032425, 0.037418, -0.017359, -0.063494, -0.027482, -0.004515, -0.033303, 0.036103, -0.056380, 0.024868, 0.030502, -0.077666, -0.009106, -0.046462, 0.030686, -0.044350, -0.021937, 0.044321, 0.035539, -0.027071, 0.000985, 0.007303, 0.042795, 0.008114, 0.043272, 0.023275, 0.005728, -0.013167, 0.038831, 0.001060, -0.003672, 0.026056, 0.009297, 0.024550, -0.002443, -0.027822, 0.066040, 0.006212, -0.005522, -0.001550, -0.013685, -0.057375, 0.055372, -0.009216, 0.038613, -0.011951, 0.002583, -0.034095, -0.003762, -0.017517, 0.040151, 0.025567, 0.029051, 0.060670, 0.016589, -0.034687, -0.047679, -0.013862, 0.006641, -0.034803, -0.033105, -0.094800, -0.083161, -0.039932, -0.091723, -0.061117, -0.037074, -0.023885, -0.057073, -0.023588, -0.023554, 0.070669, 0.036271, 0.015487, 0.000454, -0.037406, -0.041719, -0.017853, 0.021269, 0.017063, 0.006017, 0.014584, 0.034937, 0.021674, 0.060743, 0.056101, -0.012800, 0.068234, 0.026332, 0.030433, 0.026119, 0.032533, -0.028491, -0.083525, -0.108441, -0.058777, -0.115848, -0.087540, -0.002227, -0.063979, -0.051101, -0.014183, -0.041629, -0.084458, -0.033554, -0.068696, -0.028457, -0.089318, -0.010260, -0.112524, -0.030506, -0.093613, -0.025656, -0.024634, -0.074244, -0.009868, -0.052936, -0.040300, 0.052839, 0.024297, -0.028344, 0.074588, 0.024093, 0.077722, 0.063659, 0.004750, -0.007731, 0.011900, 0.059637, -0.013499, 0.054917, 0.043335, -0.017923, 0.028079, 0.017080, -0.003067, 0.022825, 0.064863, -0.020370, 0.021481, -0.033444, -0.072095, 0.017316, 0.038826, 0.018394, 0.015570, 0.079950, 0.062981, 0.059155, -0.038226, 0.043276, -0.030523, -0.058593, -0.026154, -0.008024, -0.020713, 0.023378, -0.008611, 0.061355, 0.012922, 0.041240, 0.009489, -0.022973, 0.050082, -0.041167, -0.011943, -0.021446, 0.038572, -0.024648, 0.011464, -0.064480, -0.066805, -0.043763, -0.028945, -0.077659, -0.069033, -0.031371, -0.054066, 0.013368, -0.058896, -0.016293, 0.020168, 0.000534, -0.000367, -0.062438, -0.071065, 0.042549, 0.004455, 0.009592, -0.002618},
  {0.100115, 0.015810, -0.026469, -0.016965, 0.006005, 0.002420, -0.002668, -0.001006, -0.024137, -0.017108, 0.004233, -0.009463, -0.033914, 0.009342, 0.054727, -0.056360, 0.025536, -0.020763, -0.027640, 0.055352, -0.033106, 0.000907, 0.033360, 0.048386, 0.057318, -0.001625, -0.048952, 0.002064, 0.010699, 0.047670, 0.009083, 0.016394, -0.003222, 0.040373, 0.027952, 0.011138, 0.048354, 0.039764, 0.008585, -0.055387, 0.047456, -0.016253, 0.015874, -0.014527, 0.027582, 0.032845, -0.048335, 0.053895, -0.051232, 0.040414, 0.005361, 0.050504, -0.038482, -0.033403, 0.052232, -0.049900, -0.035373, -0.036103, 0.027302, -0.043012, -0.019383, -0.007907, -0.003960, -0.011981, -0.033100, 0.034112, -0.023742, -0.031188, 0.050801, 0.046204, 0.042126, 0.018548, -0.016539, 0.006701, 0.067252, -0.042896, 0.023635, 0.061125, -0.020548, -0.011929, 0.034195, -0.020725, 0.000803, 0.021193, 0.017608, 0.005211, -0.026885, 0.001024, -0.045688, -0.052173, 0.029221, 0.009445, -0.020568, 0.008751, -0.012312, -0.057004, 0.028682, -0.001467, -0.039729, 0.039714, 0.032765, -0.039895, 0.055822, 0.043572, 0.018458, 0.057178, -0.030118, 0.058280, 0.012148, -0.010586, 0.034831, -0.006609, -0.008008, -0.026156, 0.074072, 0.030001, 0.008209, -0.010431, -0.023810, 0.032167, -0.031448, 0.040969, -0.013048, -0.031547, -0.028638, -0.041730, -0.046096, -0.025952, 0.024995, 0.024736, -0.009609, -0.053453, -0.045173, -0.054878, -0.036968, -0.021290, -0.039074, 0.017120, -0.057122, 0.031455, 0.002003, -0.035250, 0.030211, -0.018205, -0.012562, -0.001335, -0.028509, 0.020089, -0.043238, -0.037233, -0.045790, -0.006507, -0.062476, 0.022089, -0.024676, -0.002481, -0.007796, -0.006544, 0.035849, 0.052626, 0.016634, -0.059497, -0.049088, -0.045545, 0.052872, -0.043505, 0.017742, -0.043039, 0.067086, -0.040662, 0.050311, -0.027279, -0.018900, 0.021940, 0.031723, 0.031203, -0.018747, -0.036349, 0.054725, 0.037186, -0.039494, -0.062242, 0.005949, 0.045810, -0.062032, -0.027110, -0.025126, 0.062960, 0.048606, -0.015626, -0.028138, -0.091911, -0.003921, -0.040899, -0.010759, 0.014408, -0.075301, -0.084333, -0.058597, -0.017272, -0.034242, 0.072020, 0.007718, 0.011527, 0.052145, 0.068565, -0.016074, 0.005264, -0.038642, -0.036937, 0.041820, -0.026231, 0.040163, -0.048863, 0.003781, -0.047683, 0.058118, -0.012358, 0.069186, 0.034160, 0.066121, -0.027505, 0.001937, 0.011140, 0.045390, -0.033417, 0.011806, 0.064361, -0.035661, -0.010457, -0.020169, -0.036384, 0.025376, -0.045663, 0.020159, -0.025440, 0.029358, -0.049874, -0.007018, -0.041363, -0.066149, -0.060943, -0.084195, -0.069521, -0.073733, 0.008225, -0.074514, 0.028070, 0.004240, 0.022063, 0.034210, 0.068305, 0.030300, 0.054846, 0.011889, -0.007399, 0.016080, 0.040551, 0.048052, 0.054243, 0.001739, -0.001293, 0.050898, 0.028810, 0.051861, -0.019811, -0.041710, -0.001248, -0.026894, -0.017736, -0.040630, -0.026492, 0.016729, -0.049761, -0.012188, -0.015167, 0.011732, -0.039359, 0.052753, 0.048610, -0.044404, 0.016573, 0.068571, -0.028970, 0.076335, 0.046900, 0.006100, 0.066863, 0.042099, 0.058457, 0.018386, -0.006393, 0.005087, -0.041783, 0.007123, 0.040183, -0.019241, -0.057873, 0.026301, 0.000682},
  {0.013815, -0.064088, -0.060272, -0.049019, 0.035693, -0.008478, -0.039597, -0.026879, 0.057467, 0.006289, 0.052498, 0.035795, 0.020571, -0.042795, 0.001907, -0.040574, -0.014100, -0.055841, 0.024171, -0.035622, 0.007811, -0.011893, -0.034187, -0.016061, -0.003846, 0.036663, 0.012138, 0.017044, -0.010632, 0.022028, -0.013689, 0.055528, 0.009756, 0.053573, -0.017762, 0.068606, 0.034956, -0.030819, 0.047425, -0.037448, 0.053327, 0.019943, 0.000524, 0.064982, 0.032797, -0.035310, 0.065807, 0.002540, 0.050972, 0.048643, -0.052260, 0.022010, 0.004258, 0.018013, -0.015931, -0.053027, 0.053004, -0.010680, -0.040131, 0.009776, -0.046041, 0.029835, -0.035797, 0.048324, -0.028230, 0.046948, 0.047992, -0.018705, -0.015065, 0.068923, -0.009095, 0.058308, 0.027701, 0.036322, -0.035777, 0.030092, 0.015319, -0.032802, 0.002557, -0.034343, 0.004280, -0.006862, 0.032535, 0.051778, -0.002395, -0.009033, -0.050329, 0.019785, 0.047001, 0.020194, 0.043571, 0.051522, -0.034007, 0.004053, -0.016706, 0.009926, -0.028332, 0.052251, -0.028423, 0.044012, -0.012681, -0.055282, 0.010044, -0.047585, -0.031277, -0.043959, -0.029110, -0.049947, 0.047249, 0.037206, -0.039209, 0.038300, 0.044497, -0.022714, -0.027691, -0.021306, -0.045249, 0.049484, 0.059241, 0.003616, -0.004500, 0.068803, 0.057422, -0.027634, 0.045252, -0.024046, 0.026779, 0.039491, 0.007428, 0.043732, 0.055080, 0.067471, -0.039843, 0.021193, 0.048882, -0.013396, -0.012193, 0.024312, 0.023707, 0.035010, 0.007082, 0.034123, 0.043075, -0.016634, 0.044620, 0.007999, 0.058831, 0.004525, -0.021391, -0.014608, -0.029133, -0.061503, -0.036087, -0.070044, -0.033766, -0.001485, 0.023711, 0.025421, -0.020400, -0.015541, 0.043820, -0.047903, 0.010884, 0.025261, -0.003462, -0.009689, 0.060514, -0.029917, -0.003168, 0.030444, -0.049572, 0.020080, -0.026417, 0.023375, -0.038421, -0.051516, 0.001779, 0.022498, -0.020767, -0.040724, 0.039049, -0.016089, -0.027943, -0.041813, 0.039147, -0.007819, -0.029498, 0.017010, 0.020496, 0.065424, 0.055179, 0.031072, -0.025267, -0.017348, 0.039752, -0.005532, -0.024685, 0.032939, 0.023546, 0.066703, -0.062918, -0.004882, -0.072812, 0.046472, 0.084938, 0.010991, 0.027788, 0.074767, 0.054588, 0.024027, 0.083297, 0.028750, 0.014539, 0.013443, 0.046773, 0.012520, 0.086405, -0.019466, 0.018399, 0.075866, 0.038737, 0.063951, 0.063490, 0.070684, 0.051859, -0.051418, -0.038262, 0.043496, 0.004983, 0.010024, 0.013009, 0.013046, 0.045641, 0.043226, 0.013947, 0.001088, -0.026362, -0.051079, -0.002624, 0.017711, -0.012715, 0.015326, -0.066674, 0.041639, -0.025316, 0.023635, 0.019780, -0.021905, -0.017071, 0.007874, 0.073551, -0.035346, 0.015589, 0.011166, -0.024506, -0.091813, -0.027271, -0.057240, -0.080219, 0.007718, -0.022890, 0.008739, 0.020722, -0.069386, -0.047540, -0.072927, -0.069589, -0.055419, -0.063608, -0.055617, -0.012743, -0.013618, -0.019867, -0.011487, 0.022175, -0.019063, 0.037578, 0.004517, 0.021752, 0.024476, -0.013124, 0.033534, 0.016334, -0.003348, -0.028429, 0.022831, -0.028473, 0.028843, 0.015250, -0.024933, 0.046123, 0.027593, 0.040515, 0.044806, 0.046449, -0.040513, 0.002449, 0.028274, 0.056789, -0.014653},
  {-0.073597, 0.026786, 0.110085, -0.018854, -0.037021, -0.014061, -0.040328, 0.039780, -0.046379, -0.061035, 0.002194, 0.040118, 0.056661, 0.058896, 0.000142, 0.040040, 0.042840, 0.059398, 0.048289, 0.010769, 0.070558, 0.043415, -0.022125, 0.068443, -0.017571, -0.023536, 0.005664, -0.049058, -0.032335, -0.028802, 0.008433, 0.004605, -0.002763, 0.026448, 0.015844, 0.022902, -0.061622, 0.020405, -0.020079, 0.006546, 0.024371, -0.021506, -0.048924, -0.039188, -0.029331, 0.017728, -0.012804, 0.021272, -0.040244, -0.053802, -0.023040, -0.049244, -0.035727, 0.057130, 0.019878, 0.037222, 0.010397, 0.043603, -0.012622, -0.028760, 0.023652, -0.016150, 0.033475, -0.045394, -0.036120, -0.020132, -0.065391, -0.025339, 0.003840, -0.040669, 0.008154, -0.049037, -0.060770, -0.020048, 0.011006, -0.082462, -0.039899, -0.070473, -0.056122, -0.058908, -0.059972, -0.067364, -0.011300, -0.024172, -0.039305, 0.049956, -0.056083, -0.020722, 0.042257, -0.045449, -0.050879, 0.027577, -0.017859, 0.021215, 0.040872, -0.035166, 0.018070, -0.060468, -0.046108, 0.018099, -0.055554, -0.032948, 0.034993, 0.029587, -0.018276, 0.023718, 0.059117, -0.016567, 0.002663, 0.001548, 0.001672, -0.000589, 0.047503, 0.012444, 0.033879, -0.040101, 0.012549, -0.076323, -0.084850, -0.022580, -0.078418, -0.045500, -0.026847, 0.047747, 0.018641, 0.018445, -0.018776, 0.035647, 0.046170, -0.055762, 0.031903, 0.030018, -0.019782, 0.023925, 0.043551, 0.075809, 0.018600, 0.000268, 0.019640, 0.044226, 0.091366, 0.067421, 0.001824, 0.000823, 0.014716, 0.050682, -0.005017, -0.052150, -0.041041, -0.045587, 0.031356, -0.021000, 0.016891, 0.027150, -0.058410, 0.065932, -0.019761, -0.070816, 0.034281, -0.025553, -0.031925, 0.015124, 0.009233, -0.021601, -0.010617, -0.028252, 0.045306, -0.047679, -0.027570, -0.025103, 0.007481, -0.085932, 0.002809, -0.011025, -0.040881, -0.050446, 0.033962, -0.027817, 0.003256, -0.045235, 0.006048, 0.030211, -0.036383, 0.048755, 0.061144, 0.025523, 0.005586, -0.003712, -0.003316, 0.023129, -0.016840, 0.060810, -0.026550, -0.000814, -0.025727, -0.000597, -0.037264, 0.027316, -0.014775, 0.051959, 0.080098, 0.065808, 0.007382, 0.025751, -0.082782, -0.054196, -0.068308, -0.033260, -0.071306, 0.004306, -0.003642, -0.078766, -0.049532, -0.013413, -0.083445, -0.077990, 0.016861, -0.002340, -0.039225, -0.073730, 0.004656, 0.018519, 0.026143, -0.050757, -0.075138, -0.063396, 0.007562, -0.023975, -0.041926, -0.032077, 0.017907, -0.036453, 0.064617, 0.052061, -0.006602, 0.020680, -0.024250, 0.060249, 0.038877, 0.039689, 0.019907, 0.035824, 0.042570, 0.041994, -0.002941, -0.032505, -0.010608, -0.012483, 0.059387, 0.016993, -0.052935, -0.089369, 0.002782, -0.071749, 0.043522, 0.104240, 0.030019, 0.001292, -0.011321, 0.071837, -0.021315, 0.065428, -0.044392, 0.009137, 0.045253, 0.013631, 0.062679, 0.003718, 0.015281, 0.020937, -0.026983, 0.024328, 0.050260, 0.044407, 0.008706, 0.001559, -0.012036, -0.003216, -0.063308, -0.076766, -0.054006, -0.063309, 0.016039, 0.002294, -0.043592, -0.077107, -0.046540, 0.034016, -0.003631, -0.033151, -0.008359, -0.014416, 0.021283, 0.035195, -0.026851, 0.026954, -0.027772, -0.002696, -0.014563, -0.038119},
  {-0.044462, -0.071570, -0.037920, -0.025216, -0.066350, 0.002514, 0.047274, -0.010740, 0.056808, 0.071475, -0.002558, 0.006532, 0.051588, 0.032508, -0.014374, -0.059496, -0.063410, -0.011524, -0.067445, -0.076500, 0.022510, -0.045726, -0.002140, 0.025727, -0.020579, -0.000806, 0.025155, -0.057751, -0.080904, -0.016764, -0.055188, -0.023196, 0.063121, -0.003078, -0.018204, 0.013152, 0.027305, 0.062635, 0.007534, -0.003961, 0.042940, -0.039051, -0.047854, 0.022035, -0.001710, 0.050738, -0.016057, -0.008496, 0.041646, -0.044538, 0.055218, 0.003693, 0.066664, 0.019850, -0.042857, 0.026437, -0.069553, -0.068334, -0.019905, -0.059720, 0.000231, -0.013561, -0.087136, -0.043048, -0.060693, 0.002772, -0.097547, -0.034220, 0.030624, -0.005572, -0.032790, -0.059109, -0.035256, 0.035231, 0.000696, 0.000516, 0.018246, 0.043983, 0.009239, -0.005447, 0.053664, 0.039711, -0.021443, -0.018037, 0.012513, 0.077363, 0.047922, 0.045122, 0.012558, -0.035371, 0.000626, -0.047633, 0.057441, 0.054345, 0.011278, -0.030501, 0.034483, 0.025251, 0.018400, -0.026740, -0.048825, -0.015432, 0.008850, -0.067816, -0.070568, -0.063762, -0.093290, -0.042776, -0.075099, -0.061869, -0.097395, -0.032412, -0.043455, -0.005162, -0.047508, -0.069694, 0.010036, -0.030256, 0.027595, -0.008479, 0.009392, 0.029780, 0.023809, -0.000273, -0.024095, 0.038411, -0.001167, 0.048379, -0.010444, -0.018030, 0.048306, 0.038382, 0.017448, 0.050246, 0.070106, 0.043066, -0.012917, -0.014355, -0.041773, -0.028339, 0.022350, -0.005623, -0.004859, 0.013072, 0.000527, -0.011704, -0.046145, -0.034896, -0.013941, -0.073765, -0.077818, -0.067282, 0.025836, 0.031267, 0.060361, -0.014699, -0.023287, -0.014774, -0.005115, 0.026686, -0.008261, 0.016604, -0.010059, 0.024641, -0.027026, 0.016574, -0.042504, 0.075985, 0.006572, -0.034537, 0.020028, 0.041854, 0.019327, 0.007127, 0.019182, 0.042329, 0.018338, 0.046850, 0.052313, -0.031007, 0.033489, -0.044105, 0.017465, 0.058671, 0.021360, 0.042256, 0.040930, 0.055235, -0.023877, 0.003914, -0.003987, -0.038653, 0.046445, 0.010262, -0.023403, 0.041578, -0.024113, 0.021762, -0.004485, 0.022872, -0.008554, -0.014147, 0.016599, -0.001243, 0.052841, 0.053107, 0.061947, 0.069477, 0.028251, 0.023224, 0.066892, 0.103629, 0.026098, 0.038177, 0.064298, 0.065043, 0.082428, 0.079045, 0.016690, 0.038260, 0.080558, 0.053574, 0.076873, -0.041443, 0.005842, 0.002482, 0.040629, -0.028787, -0.012004, 0.034161, 0.079035, 0.014269, 0.017521, 0.076842, 0.050667, 0.057531, -0.037290, 0.017219, 0.011899, -0.000354, -0.008310, 0.003444, 0.034125, 0.007335, -0.045219, 0.033103, -0.008319, 0.016656, -0.024477, 0.023007, 0.026116, -0.032314, 0.011005, 0.039527, 0.051778, -0.017681, -0.008062, 0.004610, -0.019378, -0.019164, -0.015872, 0.037304, 0.046194, -0.015515, -0.020105, 0.016472, -0.040371, 0.064173, -0.014009, -0.012010, 0.035956, 0.067497, -0.020461, 0.006418, -0.012906, 0.060438, -0.035374, -0.011635, 0.008329, -0.019605, -0.055183, -0.068595, -0.054730, -0.059196, -0.059368, -0.047571, 0.040309, 0.012338, 0.028372, 0.050540, 0.020597, -0.011455, -0.025278, -0.017210, -0.057650, -0.001360, -0.056104, -0.031000, -0.010655, -0.000290},
  {0.121498, -0.039440, 0.041539, 0.040210, -0.028058, 0.038809, -0.064317, 0.033639, 0.022753, 0.018701, 0.013807, 0.053170, -0.018773, -0.033660, -0.015577, 0.029473, -0.008019, -0.004510, 0.047262, 0.002679, 0.041840, -0.059533, -0.045169, -0.032413, -0.036643, -0.063043, -0.006554, 0.032781, -0.028075, 0.007474, 0.022052, 0.004474, 0.008715, -0.027078, 0.020345, 0.016784, -0.005003, -0.002502, -0.056693, -0.034533, 0.006331, 0.020153, 0.032750, 0.025200, -0.018327, -0.001069, 0.023480, -0.027264, 0.012991, -0.056437, 0.032596, -0.066176, -0.023162, 0.064157, 0.009024, -0.002856, 0.045214, 0.003213, 0.016361, 0.077094, 0.064186, 0.054062, -0.022374, 0.059235, 0.017784, 0.028277, 0.016790, 0.045140, -0.031666, -0.021242, -0.028855, -0.024705, -0.029607, 0.070087, -0.007595, 0.007493, 0.003157, -0.037189, 0.005804, 0.036342, -0.033096, 0.010489, 0.021108, 0.024432, 0.005628, 0.044581, -0.051110, 0.007922, 0.004702, -0.044041, -0.010119, -0.016346, 0.033757, -0.059844, -0.040899, 0.031161, -0.020366, 0.061675, 0.041574, 0.015941, 0.023452, -0.020297, -0.023103, 0.015654, -0.011846, -0.042981, 0.029619, 0.027020, 0.006993, 0.092119, 0.024227, 0.072710, 0.020809, -0.017991, 0.010573, 0.040191, -0.028949, 0.011583, -0.053820, 0.012030, -0.076690, -0.025352, -0.061059, -0.014157, 0.006668, 0.007763, 0.015065, -0.048686, -0.006374, 0.000015, 0.057710, 0.002100, -0.023856, -0.018564, -0.048141, -0.084566, -0.021611, -0.071245, -0.056765, -0.084770, -0.034395, 0.018573, -0.041349, 0.035150, 0.014898, -0.017299, 0.021875, -0.035526, -0.053726, 0.046780, -0.028066, -0.006893, -0.017363, -0.015819, -0.017160, -0.031128, -0.000010, 0.037838, 0.054631, 0.029690, 0.066001, 0.045089, 0.016895, 0.052371, -0.006210, -0.008515, 0.047428, -0.017699, 0.050336, 0.042460, 0.027387, -0.011991, 0.015072, 0.057365, 0.086178, 0.029128, 0.032759, 0.011094, -0.041935, 0.006993, 0.037557, -0.010922, -0.030966, -0.037469, -0.051529, -0.054040, -0.037140, -0.003008, 0.012485, -0.009011, -0.009757, 0.071966, 0.046404, 0.055967, 0.016997, 0.085755, 0.077983, -0.008224, 0.066854, 0.021532, -0.015300, 0.053500, 0.078627, 0.042139, -0.013992, 0.028673, 0.018662, -0.055077, -0.049185, -0.009945, 0.015696, 0.013762, 0.031768, -0.018909, 0.026655, 0.029824, -0.040148, -0.064135, -0.065089, -0.054864, -0.035159, 0.045388, -0.031385, 0.060807, 0.032226, -0.043356, 0.019327, -0.010187, -0.050287, -0.005435, -0.048769, -0.034671, -0.012060, -0.011833, -0.002575, -0.060071, -0.031220, 0.006858, -0.008763, -0.001135, -0.064066, 0.003777, -0.015896, -0.014133, 0.047811, 0.091538, 0.096985, 0.001104, 0.101369, 0.107070, 0.023127, 0.006210, 0.039338, -0.007429, 0.027756, -0.052111, -0.000278, -0.003581, 0.000886, 0.057492, 0.013623, 0.066590, 0.027501, 0.007538, 0.043211, 0.063286, -0.021410, 0.022772, 0.005282, 0.011899, -0.032866, -0.052646, -0.018336, -0.043146, -0.009474, 0.018267, 0.029508, -0.057358, -0.041928, -0.039017, -0.062847, 0.029477, 0.027087, -0.014221, -0.006973, 0.051235, -0.040815, 0.010243, 0.050770, 0.079585, 0.082863, 0.064470, 0.052359, 0.079631, 0.035759, 0.022105, 0.052650, -0.036879, -0.005655, 0.021570},
  {-0.015366, 0.046863, 0.005675, 0.035436, -0.000494, 0.015091, 0.013259, -0.063689, 0.003413, -0.041874, 0.033506, -0.046130, 0.049001, 0.020369, 0.042903, 0.003287, 0.041981, 0.004798, 0.034431, -0.029017, -0.014820, -0.041675, -0.065604, -0.005330, -0.027132, 0.018863, 0.001627, -0.017394, 0.046810, -0.052280, -0.064320, -0.022362, -0.057096, -0.050783, -0.064321, -0.013136, -0.010033, -0.003708, -0.054656, -0.023894, -0.043683, 0.035817, 0.031546, -0.011993, -0.010605, -0.000265, -0.022724, 0.025816, -0.031276, -0.016033, 0.046929, -0.037543, -0.014258, -0.004586, 0.002205, -0.003996, -0.002473, -0.058597, -0.034603, 0.056861, 0.048582, 0.035520, 0.045886, -0.000557, -0.050182, -0.016897, 0.060513, 0.006267, 0.007344, -0.000320, 0.032618, 0.016527, 0.027639, 0.046837, 0.017532, -0.027299, -0.030747, -0.039949, 0.023584, -0.049878, -0.009497, -0.004844, 0.036449, 0.049223, 0.052088, 0.044216, 0.009118, -0.026837, -0.052665, 0.023614, 0.015455, 0.024936, -0.014181, -0.040102, 0.052472, 0.022067, 0.030504, -0.030180, -0.023758, -0.034632, -0.012404, -0.049118, -0.024879, -0.039149, 0.006427, -0.031159, 0.003774, 0.051903, 0.045102, -0.006971, 0.058757, -0.027848, 0.038349, -0.022071, 0.011590, 0.018799, -0.015725, -0.036970, -0.015102, -0.010954, 0.021491, -0.010878, 0.041858, 0.059901, 0.033934, 0.022190, -0.012089, 0.017516, 0.019525, 0.019798, -0.060886, -0.016571, -0.008128, -0.026576, -0.027551, -0.002202, -0.054881, -0.046815, 0.028869, 0.019112, -0.046181, -0.026460, -0.000145, 0.056955, -0.047068, -0.028052, -0.007116, -0.012794, 0.015676, 0.011233, 0.016123, 0.047175, -0.003654, -0.003459, -0.030240, 0.041168, -0.013587, 0.025445, 0.050582, -0.043406, 0.001567, -0.016577, 0.039233, 0.057291, -0.020323, 0.032857, 0.023167, 0.033487, 0.057831, 0.047892, 0.015829, -0.009760, 0.086036, 0.005026, -0.012160, 0.023354, -0.038834, -0.065490, -0.013824, -0.015487, -0.034275, -0.048626, 0.000627, -0.060621, -0.061853, -0.037556, 0.023462, -0.068960, 0.032657, -0.016225, -0.071353, -0.011410, -0.002867, 0.039936, 0.035751, 0.058386, -0.039946, 0.044511, -0.028677, 0.015088, 0.049458, 0.031285, -0.021231, 0.007370, 0.029000, 0.028794, -0.002538, -0.011228, -0.038319, 0.007865, 0.030648, -0.052401, 0.016059, 0.039648, -0.037988, -0.033086, -0.046979, 0.062411, 0.036092, -0.022191, -0.024517, 0.076314, 0.068221, 0.000291, -0.012108, 0.017404, -0.082566, -0.097717, -0.097114, -0.032449, -0.022478, -0.034397, -0.031870, -0.044424, -0.063215, 0.042398, 0.053090, 0.041604, 0.080298, 0.007590, 0.092786, 0.070985, 0.039005, -0.002710, 0.020419, 0.039596, -0.011288, 0.027899, -0.027313, 0.020303, 0.030653, 0.022490, 0.033276, 0.001915, 0.033671, 0.017133, 0.029401, -0.045882, 0.008979, 0.037507, 0.015233, 0.011385, 0.025279, 0.041145, -0.012762, 0.026400, 0.008356, -0.044007, -0.041792, -0.019477, 0.013872, -0.059524, 0.020427, -0.025508, 0.048566, -0.020794, -0.000254, 0.004194, -0.038862, 0.000437, 0.015915, -0.003627, -0.042265, -0.030091, -0.027038, -0.052482, 0.027708, -0.000455, 0.064407, -0.017887, 0.037097, 0.045804, -0.026839, -0.006156, 0.011870, 0.070454, 0.011399, -0.014985, 0.056664, -0.030837},
  {0.089086, -0.044981, 0.012232, 0.001601, 0.047131, 0.028502, 0.034467, -0.049437, -0.004081, 0.050763, 0.029026, 0.036260, 0.002856, 0.039842, 0.043525, -0.029473, -0.037819, 0.049133, 0.019849, -0.029055, -0.056363, 0.015439, -0.067137, 0.015252, -0.020501, 0.011123, 0.017049, -0.005168, 0.036907, -0.020130, -0.016289, 0.013042, -0.027185, -0.022318, -0.018244, 0.020804, 0.010617, -0.046241, 0.014203, -0.038794, 0.000720, 0.021617, 0.008283, 0.034683, 0.004485, 0.022113, -0.012268, -0.029617, -0.062251, -0.015971, -0.054142, -0.004330, 0.000355, 0.016633, -0.048385, -0.012566, -0.022099, -0.025701, 0.031020, -0.052548, 0.012080, 0.021039, 0.004483, -0.044330, -0.017717, -0.051799, -0.046138, 0.003835, -0.064059, -0.050204, 0.004730, 0.038057, 0.071529, -0.030606, 0.018125, 0.031730, -0.034090, -0.033056, -0.003137, 0.071613, 0.011889, 0.000745, 0.060746, 0.031791, -0.022623, 0.017326, -0.056193, -0.035600, -0.007729, -0.018806, 0.030381, -0.079501, 0.016638, -0.016182, -0.038402, -0.009703, 0.029446, 0.044638, -0.054422, -0.028887, -0.048250, 0.045326, 0.029748, 0.010329, 0.038482, -0.063020, 0.023583, 0.049415, -0.018162, -0.017876, 0.005580, -0.019962, 0.053333, -0.028453, -0.004461, 0.041118, 0.021982, 0.042471, -0.050726, -0.006579, 0.020388, -0.006525, 0.010341, -0.069092, 0.029723, -0.013221, 0.003737, 0.019051, -0.077871, -0.039713, 0.021776, -0.032091, -0.016083, -0.049691, -0.005971, -0.016714, -0.024614, 0.005565, -0.005655, 0.035426, -0.013201, -0.044650, -0.050852, 0.012345, -0.005596, -0.000539, 0.025920, 0.035719, -0.063282, 0.041738, 0.018918, 0.049639, -0.023415, -0.056353, -0.037666, -0.037219, 0.013278, -0.062714, 0.042842, -0.029788, 0.037866, 0.041087, 0.012476, 0.022300, 0.046701, 0.051216, -0.008336, 0.035634, 0.046776, -0.037367, 0.015262, 0.049896, -0.022789, 0.022083, -0.047730, 0.009452, -0.085105, -0.012615, -0.011417, -0.050767, -0.096333, -0.100615, -0.060050, -0.091862, -0.006964, -0.083256, -0.010456, 0.015811, -0.071229, -0.000433, -0.030221, 0.039192, -0.040528, -0.037655, 0.007425, 0.058010, -0.018640, 0.067013, 0.006036, 0.057524, 0.025152, 0.033342, -0.008223, 0.025975, 0.002197, 0.033519, 0.042676, -0.058352, -0.010283, -0.018214, 0.037980, -0.031926, 0.021561, 0.048134, -0.031764, -0.013689, -0.026826, 0.062986, 0.008587, -0.022385, 0.059158, -0.042846, 0.011551, 0.004814, -0.017889, -0.072039, 0.001895, -0.005161, -0.089246, -0.031989, -0.005462, -0.018545, -0.026134, 0.011228, -0.023522, -0.044871, 0.043666, 0.051593, 0.035344, -0.021407, 0.020091, 0.080532, 0.028885, 0.077671, 0.083234, 0.086688, 0.077124, 0.061974, 0.034585, 0.035322, -0.022478, -0.027426, -0.000802, 0.087026, 0.039755, -0.008764, 0.050517, 0.023994, -0.004256, 0.025114, 0.025737, 0.000533, -0.014994, -0.002131, -0.045346, -0.024466, -0.036520, 0.015759, -0.054225, -0.059853, -0.025890, -0.052718, -0.005938, -0.020896, -0.009497, 0.028736, -0.018942, -0.042984, 0.029452, -0.057400, 0.011520, -0.027168, 0.054531, -0.052312, -0.025729, 0.063287, 0.051137, 0.000121, -0.040735, 0.032318, 0.008631, 0.019033, -0.023608, 0.039279, 0.027678, -0.014548, 0.002121, -0.040233, -0.050271, -0.057427},
  {0.006270, 0.039289, 0.026614, 0.064795, -0.025141, 0.002566, 0.046474, 0.044820, 0.038991, -0.045366, 0.012697, -0.049958, 0.009731, 0.030177, -0.073450, 0.015507, -0.019021, -0.018347, -0.071031, -0.000527, 0.008888, -0.008615, 0.003046, -0.003764, -0.004840, 0.039244, -0.038409, -0.046316, 0.028170, 0.004655, -0.022786, -0.010725, -0.006758, -0.018626, -0.006048, 0.052474, 0.008108, -0.014988, 0.026066, -0.023132, -0.018094, -0.005236, -0.056016, -0.001832, -0.037015, -0.013808, -0.008935, 0.011026, -0.052953, -0.041862, -0.041384, 0.051160, 0.029864, -0.032206, 0.018711, 0.039644, -0.007156, -0.060158, -0.097527, 0.004052, -0.040151, -0.068752, -0.039681, 0.009311, -0.008544, -0.004273, -0.040008, 0.015279, -0.017575, -0.037688, 0.030080, 0.011357, -0.070271, 0.030037, 0.051072, 0.046779, -0.037820, 0.027047, -0.025105, -0.000644, 0.040081, 0.058045, -0.042914, -0.018410, -0.000788, 0.028427, -0.011108, 0.006798, 0.050373, 0.029414, 0.053876, -0.006682, 0.008922, 0.000605, -0.068092, -0.043437, 0.032414, 0.047108, -0.046194, -0.008218, -0.036419, -0.026046, -0.024058, -0.000374, 0.001719, -0.023555, -0.061564, -0.014607, 0.025667, -0.075434, -0.038902, -0.035317, 0.017881, -0.015752, 0.014606, 0.033021, 0.018445, 0.036923, 0.086696, 0.029007, 0.038496, -0.013313, 0.040284, 0.072253, 0.042967, 0.069669, 0.033671, 0.059327, -0.005000, -0.040708, 0.018693, -0.014016, 0.026555, 0.039132, 0.040796, 0.078215, 0.069790, -0.021484, 0.051891, -0.029288, 0.053577, -0.047931, -0.044658, 0.038548, 0.026592, -0.034692, -0.034959, 0.067541, -0.037995, -0.023907, -0.075500, -0.006365, -0.034303, 0.032133, -0.021156, 0.024745, -0.002868, -0.046993, -0.004855, -0.054772, -0.007192, -0.035888, -0.018157, 0.012315, 0.025156, 0.021467, -0.031053, -0.045892, -0.010826, -0.013286, -0.059139, 0.020497, 0.021166, -0.086658, -0.025690, -0.068448, 0.027888, -0.023716, 0.036872, -0.028548, 0.028271, 0.023580, -0.000711, 0.013685, 0.036274, -0.012918, 0.023539, 0.037050, 0.045604, 0.032688, -0.031135, 0.027325, 0.039815, 0.032349, 0.023626, -0.051209, -0.001720, -0.046238, -0.022086, 0.002830, -0.035798, -0.043429, -0.024515, -0.001697, 0.048362, -0.018001, 0.017471, 0.049464, 0.013523, 0.040849, 0.090932, 0.055505, 0.060722, 0.063383, 0.030485, 0.044494, 0.081416, 0.063285, 0.001407, -0.014664, 0.065312, -0.032933, -0.030821, -0.036939, -0.014188, 0.053203, 0.020254, 0.005260, 0.014678, -0.026891, 0.037179, 0.040768, 0.014091, 0.014117, 0.028862, -0.024312, -0.012552, 0.017788, 0.005449, -0.027560, 0.014478, -0.050901, 0.021099, -0.061203, 0.042425, 0.049525, -0.047562, -0.024107, 0.023156, -0.054620, 0.074992, 0.050514, -0.082371, 0.006236, -0.037601, 0.005615, -0.078586, -0.074129, -0.020177, -0.035689, -0.096557, -0.071080, 0.004196, -0.007489, -0.029388, -0.004810, 0.009758, -0.071149, -0.004011, 0.005253, 0.033211, -0.031567, 0.028943, 0.054591, -0.038991, 0.070610, 0.038624, -0.020440, 0.042297, -0.025998, -0.061739, -0.068706, 0.003920, 0.027705, 0.038766, -0.050789, -0.021297, 0.019981, 0.054608, 0.011723, 0.062371, -0.051513, 0.004873, -0.038323, 0.023276, -0.018953, -0.041180, -0.024508, -0.032686, 0.066950},
  {-0.000110, 0.038132, 0.035725, 0.032951, -0.035327, -0.006925, 0.045609, 0.032076, 0.030440, -0.062737, 0.030755, 0.051976, 0.043344, -0.029804, 0.004089, 0.016994, -0.022554, 0.040567, 0.072753, 0.047703, 0.022727, -0.015578, 0.023859, -0.012824, 0.048761, -0.015027, 0.000411, 0.009275, 0.074572, -0.022241, 0.037501, 0.003536, 0.039344, -0.029440, -0.039619, -0.063301, -0.046258, -0.040164, -0.067811, -0.030962, 0.001089, -0.056681, -0.044487, -0.026529, 0.039937, 0.042548, -0.007617, 0.005360, 0.022557, -0.025587, 0.041624, -0.029159, 0.034318, 0.015326, 0.009419, 0.000423, 0.024137, -0.005986, -0.026308, -0.003573, 0.055449, 0.032961, 0.045027, -0.017767, 0.030392, 0.056780, -0.018844, 0.031559, 0.024755, 0.064198, 0.000942, 0.012013, -0.029418, 0.045604, -0.028271, 0.013426, 0.006883, -0.008125, 0.015524, 0.046445, -0.069936, -0.010306, 0.016055, -0.062573, -0.013944, 0.007286, -0.053468, -0.060527, -0.020320, -0.064473, -0.033852, 0.007981, -0.030890, 0.034815, -0.002111, -0.062159, -0.033350, -0.052989, 0.012571, 0.017768, 0.062257, 0.033537, 0.048619, 0.008699, 0.095838, 0.008775, 0.046012, -0.000917, 0.082397, 0.000976, -0.015472, 0.078180, -0.013590, 0.030799, -0.001978, 0.038341, -0.043774, -0.061313, -0.021047, 0.026452, -0.005551, -0.049666, -0.023077, 0.028959, -0.034118, 0.032248, -0.027433, -0.008740, -0.015327, -0.036205, -0.041617, -0.016149, -0.051286, -0.029009, -0.082616, -0.036042, -0.067063, 0.021901, 0.000097, -0.038672, -0.023958, 0.032362, -0.001782, -0.004398, 0.036970, 0.008369, -0.034495, -0.009487, -0.022234, 0.007054, -0.027433, 0.040836, -0.049954, 0.005645, -0.044292, -0.012446, 0.011227, -0.013767, 0.018724, 0.033420, 0.039128, -0.001951, -0.021527, -0.039271, 0.006394, 0.034253, -0.015702, 0.013874, -0.045472, 0.023967, 0.044195, -0.028050, 0.030062, 0.046899, 0.054849, 0.061666, 0.006060, -0.028602, -0.004273, 0.032410, 0.024738, 0.016747, -0.087144, -0.058504, 0.014496, -0.036699, -0.033962, -0.086840, -0.081998, -0.024000, -0.067224, -0.022868, -0.032007, -0.025328, 0.037975, 0.067763, 0.013711, 0.088580, 0.012363, -0.017548, 0.083375, 0.079996, -0.013191, 0.089027, 0.049715, -0.013846, -0.071815, 0.026848, -0.008611, -0.008076, -0.057752, -0.029874, 0.004991, -0.084116, 0.012078, -0.017843, -0.045287, 0.003773, 0.023771, 0.029568, 0.001681, 0.058724, 0.083583, 0.053179, 0.003007, -0.028441, 0.042627, -0.011543, -0.003399, -0.019320, -0.079244, -0.016798, -0.097243, -0.080287, 0.001466, -0.074337, -0.075467, -0.017056, -0.058489, 0.016908, -0.000594, 0.033416, 0.073267, 0.047005, 0.069614, 0.091475, 0.090130, 0.084575, 0.015482, 0.098634, -0.064872, -0.049870, 0.045064, 0.034125, 0.072791, 0.011287, 0.004425, 0.049731, -0.004060, 0.071570, 0.053722, 0.023549, 0.012064, 0.058868, -0.012784, -0.008729, -0.031143, -0.031063, -0.007534, 0.026393, 0.007379, -0.072934, -0.020433, -0.012973, -0.001052, -0.032528, 0.001655, 0.011482, 0.052440, 0.069493, 0.016613, 0.033465, 0.055245, 0.054885, -0.008387, 0.043083, -0.001885, 0.074240, -0.005546, 0.013166, 0.026045, 0.022707, 0.025594, 0.065011, 0.015440, 0.052660, 0.042216, -0.024635, 0.019358, 0.028503},
  {0.003671, -0.057783, -0.066548, 0.017983, 0.009439, -0.050150, 0.007166, -0.036066, 0.014228, -0.048240, 0.007025, 0.037245, -0.036601, 0.024905, -0.049724, 0.000097, -0.024348, -0.058733, -0.067464, 0.022221, -0.077275, 0.048041, 0.027177, -0.036394, -0.051856, 0.044929, -0.005320, 0.013974, 0.002419, -0.046597, 0.020275, 0.039693, -0.018261, 0.023283, -0.008304, 0.034070, 0.052139, 0.027610, 0.003995, -0.041449, 0.011562, -0.055143, -0.036829, -0.026089, -0.005628, 0.036905, -0.055340, 0.025950, -0.002438, -0.000931, 0.029864, 0.064136, -0.061382, -0.051527, -0.021803, -0.037317, -0.066648, -0.021202, -0.091525, -0.056471, -0.041372, -0.064453, -0.034668, -0.041275, 0.000911, -0.007597, 0.044217, 0.020004, 0.022115, -0.060549, -0.032353, -0.007535, -0.058566, 0.003113, -0.048972, -0.011871, -0.010962, -0.007505, -0.047205, -0.001168, 0.004774, -0.057356, 0.050331, 0.039464, -0.055218, 0.018239, -0.033428, 0.031940, -0.035294, 0.013573, -0.009383, 0.018197, 0.053459, 0.009134, 0.003903, -0.015134, 0.052621, 0.019044, 0.027309, -0.021323, -0.100213, 0.003981, -0.052617, -0.064881, -0.026912, -0.063994, -0.040500, -0.053274, -0.078596, -0.046360, -0.024425, -0.034335, 0.019236, 0.031531, -0.003604, 0.007520, 0.066630, -0.004579, 0.059546, 0.036592, 0.036984, 0.055027, 0.076601, 0.055921, 0.076137, 0.006950, -0.006247, 0.033948, -0.045259, 0.044556, -0.008119, -0.013495, 0.064257, 0.056130, -0.008579, 0.013705, 0.077485, 0.033296, 0.013337, 0.048154, -0.044874, 0.020188, 0.045196, -0.018944, -0.007073, -0.032413, 0.042794, 0.045287, 0.065370, -0.022500, -0.080612, 0.005262, -0.037440, 0.079696, 0.065710, -0.016261, -0.032649, -0.037194, 0.037363, -0.007462, 0.068865, -0.010273, 0.057322, 0.025791, 0.042070, -0.041227, -0.043337, -0.008527, -0.002206, -0.044385, -0.023249, 0.047742, 0.017548, 0.021939, 0.012522, -0.054127, -0.032809, 0.044815, 0.001245, -0.034332, -0.028741, -0.025501, 0.037053, 0.034310, 0.020170, 0.017612, -0.034708, 0.036477, 0.022153, 0.049421, 0.016653, 0.001752, 0.041197, -0.016228, -0.021486, 0.039240, -0.051198, -0.031820, -0.022511, -0.015843, -0.017428, -0.057598, -0.006934, -0.034160, 0.007558, 0.009568, -0.016156, 0.043509, -0.005801, 0.075180, 0.094307, 0.011344, 0.043423, 0.051241, 0.072818, 0.083869, 0.028755, 0.030348, 0.050850, 0.062083, 0.020383, 0.054663, 0.018624, -0.053549, -0.043417, -0.029528, -0.009265, 0.007933, 0.059199, 0.012097, 0.012381, -0.018325, 0.055534, -0.021709, 0.027038, 0.074480, -0.011928, -0.001782, -0.047120, 0.034721, -0.038774, -0.028537, 0.020145, -0.046297, -0.050637, -0.030103, 0.048187, -0.058347, -0.018794, 0.026524, 0.070726, -0.048721, -0.058452, -0.071217, -0.087469, -0.057967, -0.045505, -0.052886, -0.087039, -0.040633, -0.024626, -0.079161, 0.013961, -0.017373, -0.040646, 0.007980, -0.056043, -0.049349, 0.030408, -0.018811, 0.051387, 0.045598, 0.032799, 0.026244, -0.013940, 0.096424, -0.003483, 0.022294, -0.002403, -0.042677, -0.018204, 0.013885, -0.073739, -0.021043, -0.052840, -0.030213, 0.037939, 0.011879, 0.020794, -0.011068, 0.026770, 0.019138, 0.057125, 0.013156, -0.039342, -0.023834, 0.020174, -0.043382, 0.019173, -0.021922},
  {-0.048849, -0.068201, 0.040377, -0.013246, 0.021146, 0.047498, 0.056247, 0.076616, 0.065944, 0.034216, -0.009718, 0.072870, -0.009903, 0.026710, -0.050160, 0.046434, 0.038904, 0.000440, -0.021346, -0.035794, 0.023828, 0.037173, 0.018165, -0.051704, 0.004031, -0.026827, 0.020709, -0.026811, -0.014426, 0.014984, -0.046018, -0.007785, -0.021541, 0.045413, 0.030503, 0.061204, 0.069648, 0.059222, 0.062879, 0.000109, 0.012090, 0.053399, 0.009478, -0.020126, 0.044238, 0.015555, -0.035119, 0.050822, 0.052274, 0.008070, -0.011132, -0.004740, 0.050589, -0.005731, -0.045114, 0.033736, -0.005546, -0.086240, -0.093493, -0.081083, -0.078085, -0.007903, -0.071709, -0.062051, -0.019542, -0.013262, -0.019710, -0.013394, 0.050418, -0.047915, 0.069821, -0.042407, 0.024288, 0.017160, 0.061858, 0.049798, -0.021874, 0.008540, 0.036033, -0.043553, 0.054949, -0.018452, -0.021410, 0.069528, 0.025608, 0.056455, 0.068969, -0.032120, 0.044865, -0.020064, 0.039973, -0.026821, 0.003376, 0.021120, 0.044269, -0.028465, 0.001966, 0.017560, 0.063413, 0.008204, -0.073270, -0.012402, -0.009358, -0.007577, -0.056326, -0.091778, -0.043973, -0.036732, -0.058525, -0.036345, -0.030527, -0.073338, -0.046347, 0.012798, -0.035452, 0.026327, 0.057745, 0.035350, 0.029833, 0.020013, 0.009724, 0.056191, 0.037860, -0.001184, 0.057413, 0.065797, -0.006053, 0.033725, -0.028652, 0.000341, -0.018201, -0.000615, 0.058087, 0.051874, 0.035484, -0.016171, 0.084083, 0.070076, -0.019561, 0.071553, -0.026813, 0.041978, -0.031854, 0.005706, -0.042281, 0.026336, 0.031706, -0.026425, -0.037555, -0.038247, -0.081393, -0.062500, 0.039120, -0.044566, 0.008619, -0.004466, -0.052304, 0.003149, 0.035071, -0.047109, -0.048279, 0.006147, 0.001018, 0.043982, 0.000576, 0.031027, 0.038323, 0.057086, -0.014342, 0.009893, 0.040206, -0.033976, -0.012441, 0.029162, -0.004555, 0.054509, 0.012088, 0.003104, 0.044499, 0.012304, 0.006669, 0.063312, -0.042191, 0.026797, -0.042203, 0.004366, -0.040140, -0.047806, 0.053526, -0.013344, -0.028841, 0.018532, 0.001613, -0.015941, 0.052764, -0.023363, -0.039497, 0.007829, 0.052462, 0.068045, -0.056368, -0.001444, -0.060980, 0.046629, 0.050605, 0.024459, 0.000733, 0.078192, 0.046027, 0.065648, 0.076093, 0.018919, 0.093543, 0.081835, 0.014327, -0.006252, 0.058965, 0.038386, -0.022814, 0.024944, 0.049809, 0.028449, 0.013138, -0.006874, -0.049523, 0.020595, 0.054723, 0.042424, 0.054011, 0.058472, 0.063477, 0.020420, -0.022670, 0.020954, 0.029810, 0.034413, 0.035909, 0.022741, 0.064152, 0.015407, -0.049842, -0.029942, 0.047194, -0.006338, -0.033506, 0.043699, -0.002426, -0.030168, 0.009829, -0.045443, 0.068248, -0.031625, 0.054242, 0.037269, 0.037050, -0.027465, -0.034143, -0.045611, 0.039215, -0.063130, -0.045710, -0.006398, -0.028229, 0.018335, -0.035823, 0.029367, -0.073595, -0.076924, -0.047049, -0.051566, 0.019197, 0.018052, -0.032745, 0.007619, -0.012358, -0.002845, -0.006294, -0.034148, -0.035992, -0.003937, -0.027295, -0.042000, -0.004839, 0.018137, -0.018369, -0.031813, -0.011526, 0.012458, 0.040410, -0.000108, 0.029062, 0.027451, -0.008978, -0.046722, -0.007660, -0.054198, 0.006455, -0.033607, -0.054502, 0.041809},
  {0.039667, 0.000773, -0.003072, 0.081506, 0.065750, 0.028375, 0.049420, 0.108914, 0.095680, 0.066382, 0.059299, 0.003069, 0.069141, -0.019717, 0.040469, 0.052399, 0.015785, -0.003354, 0.015259, 0.031662, 0.068763, 0.072107, 0.053251, 0.006378, -0.012877, 0.062425, 0.027542, -0.031467, -0.024169, 0.070185, 0.025083, -0.018606, 0.005219, 0.018045, 0.013775, 0.080033, 0.072620, 0.031751, -0.022401, 0.007946, 0.066344, 0.017997, -0.012314, 0.017444, 0.064533, 0.021100, 0.020388, 0.047571, 0.011780, 0.027364, 0.062561, 0.088825, -0.026948, -0.091484, 0.015009, -0.024357, 0.032678, 0.052083, 0.035739, 0.044642, 0.007041, -0.014536, 0.045861, 0.001411, 0.012014, -0.045417, 0.038280, -0.003903, -0.035251, -0.004075, 0.020172, 0.046024, 0.008005, 0.000503, 0.053780, 0.036510, -0.026713, -0.028807, 0.053583, -0.007088, 0.073654, 0.038462, -0.004812, 0.016544, -0.045119, 0.005411, -0.031901, 0.036526, 0.059772, -0.011154, 0.032916, 0.066660, 0.014165, 0.010945, 0.057116, 0.043790, 0.027305, 0.016309, 0.045797, 0.012366, -0.000914, 0.000439, -0.078796, -0.055852, -0.036079, -0.048818, 0.056099, 0.025220, -0.023770, 0.050476, -0.023811, 0.032974, 0.047137, 0.000301, 0.050509, 0.002723, -0.044131, 0.060309, -0.019044, 0.029447, -0.050758, 0.058738, -0.008109, -0.023117, -0.031350, -0.009954, -0.032786, -0.014983, -0.019091, 0.058333, 0.032146, -0.008424, 0.052184, 0.055827, -0.020295, 0.045891, -0.015726, -0.030497, -0.012464, 0.037467, 0.035536, 0.059321, -0.017776, -0.028612, 0.077023, -0.028513, -0.035975, -0.023850, -0.006245, -0.041742, 0.019449, 0.040567, -0.021102, -0.000384, -0.000349, -0.067211, 0.028297, 0.006319, -0.016081, -0.014602, -0.008336, -0.036948, -0.048686, -0.048709, -0.055189, -0.069279, -0.011924, -0.066553, 0.023620, 0.051077, 0.028398, -0.053877, 0.030635, -0.025486, 0.013284, -0.018609, -0.006012, 0.034392, -0.043459, 0.003200, -0.049363, 0.045749, -0.045405, 0.013997, 0.053719, 0.016849, -0.049308, -0.068670, -0.071273, 0.016433, -0.033434, -0.003143, 0.043166, 0.043168, -0.006943, -0.043904, 0.010224, 0.017733, -0.002879, 0.031411, -0.043888, -0.073493, 0.024405, 0.046612, 0.008688, 0.018947, 0.099571, 0.018525, 0.059924, 0.051218, -0.001799, 0.009056, 0.017214, 0.072978, 0.046249, 0.041525, 0.020436, 0.002547, -0.022343, 0.056117, 0.012674, -0.033918, -0.000704, 0.026202, -0.034595, -0.018311, -0.058617, 0.038374, -0.052630, 0.050741, -0.046508, -0.016992, -0.007831, -0.016168, 0.007429, -0.008747, -0.015536, -0.064799, -0.001853, 0.055834, -0.013761, 0.062835, 0.004794, 0.056973, -0.025383, 0.035017, 0.005099, -0.046582, -0.059839, -0.007636, 0.023928, 0.063572, -0.047407, -0.007893, -0.069668, -0.047085, -0.072644, -0.000213, -0.035734, -0.069905, -0.039709, 0.045290, 0.003064, -0.026325, 0.046709, -0.023288, 0.028696, 0.015977, 0.045136, -0.022820, -0.011479, 0.043578, 0.000594, -0.008578, 0.035893, -0.048853, 0.028156, 0.062310, 0.006872, 0.029904, 0.010509, -0.028286, -0.026418, -0.047926, 0.047762, 0.035397, 0.056574, -0.039423, 0.002610, -0.007799, -0.025640, 0.012333, 0.039366, -0.012180, -0.051858, -0.013230, -0.030057, -0.042507, 0.066221, 0.007530},
  {-0.033912, 0.117258, 0.013530, -0.012350, 0.016549, -0.020684, 0.065679, 0.022219, -0.069457, -0.019810, 0.003514, -0.001910, -0.035255, 0.041726, 0.049263, 0.071211, 0.080391, 0.027751, 0.033022, 0.024929, 0.067114, 0.026993, 0.043034, 0.008250, 0.058952, 0.042779, -0.034381, 0.039680, 0.018897, 0.033726, -0.008950, 0.069480, -0.037826, 0.030699, 0.057980, -0.001086, -0.020668, 0.018479, -0.051862, 0.033626, 0.001384, 0.012916, -0.014491, -0.007133, 0.046221, -0.026355, 0.008103, 0.033798, 0.023394, -0.026449, -0.055661, -0.027876, 0.033579, -0.001191, -0.042222, -0.026638, 0.032569, -0.006394, 0.024042, 0.012399, 0.074397, 0.011282, -0.025068, -0.014189, 0.045855, 0.015439, -0.015847, -0.006981, 0.004028, 0.041588, -0.018834, 0.003979, -0.060442, 0.032368, 0.026705, -0.065546, -0.029116, 0.028904, 0.015735, -0.014454, -0.043406, 0.042504, -0.019703, -0.055086, 0.056218, -0.037345, 0.017574, -0.011620, 0.012443, -0.033518, 0.043295, -0.042416, -0.040416, -0.006317, 0.025869, -0.032096, -0.041730, -0.055892, -0.011651, 0.022160, -0.030255, 0.055306, 0.077334, 0.013471, 0.089842, 0.079780, 0.086274, 0.063766, -0.009578, 0.014675, 0.089075, 0.042068, -0.001003, -0.024794, 0.057605, 0.030097, -0.025116, -0.001537, -0.060348, -0.075998, -0.095975, -0.025214, 0.005252, 0.007517, -0.087680, -0.032257, -0.001677, -0.069467, -0.073122, -0.073075, -0.023135, 0.040371, -0.040235, 0.042533, 0.006006, 0.001604, 0.062992, 0.044886, 0.017392, -0.013278, 0.063017, -0.021424, 0.058885, 0.060777, 0.035618, -0.064127, 0.036377, -0.023328, 0.016504, -0.044417, 0.033749, -0.023806, 0.015738, -0.028496, -0.052067, -0.029175, -0.000822, 0.018916, -0.021596, -0.019634, 0.008149, -0.006892, -0.005846, -0.029048, -0.007925, -0.030162, 0.033542, -0.046624, -0.026419, -0.053447, -0.071134, -0.099370, 0.005656, 0.003661, 0.001246, -0.027642, -0.018385, 0.008649, 0.002423, -0.014718, -0.037759, 0.032080, 0.051017, 0.012493, 0.025579, 0.029432, 0.039949, 0.013041, -0.040472, -0.033921, -0.019207, -0.020734, -0.034568, -0.002478, -0.050639, -0.034514, 0.008277, 0.063386, 0.007569, -0.041661, 0.058676, 0.010771, -0.013920, -0.058629, -0.071444, -0.108559, -0.070379, -0.060828, -0.060586, -0.026015, -0.027991, -0.026423, -0.007216, -0.053755, 0.000839, -0.096761, -0.035127, -0.057536, -0.031892, 0.001039, -0.055354, -0.039726, 0.013025, -0.053228, -0.041081, -0.039902, 0.016220, 0.065154, 0.076697, 0.030302, 0.058050, 0.025622, -0.027405, 0.049921, -0.010565, -0.022394, 0.044762, 0.016515, 0.004297, -0.012178, -0.048489, 0.016622, 0.007954, -0.069315, -0.030736, -0.026529, 0.033718, 0.027393, 0.021862, 0.052878, -0.027599, -0.057590, -0.042363, -0.040493, 0.040377, 0.062488, 0.032320, 0.028807, 0.030880, 0.091100, 0.076116, 0.057867, -0.041329, -0.011038, 0.012952, -0.020196, 0.002379, 0.077266, 0.011589, -0.028298, 0.060658, 0.062474, -0.052713, 0.025459, 0.014964, -0.006630, -0.083906, -0.021513, -0.081994, -0.110441, -0.011036, -0.063714, 0.008734, 0.010234, -0.056127, -0.017777, 0.027121, -0.030227, 0.028368, 0.035033, -0.023615, -0.010069, -0.044881, 0.006756, 0.015014, -0.015455, -0.034551, -0.023160, 0.050230, -0.059777},
  {-0.074869, 0.077102, 0.106100, -0.028322, 0.078097, 0.019515, 0.006091, 0.019409, 0.043854, -0.024293, 0.043668, -0.041421, -0.021901, 0.009322, -0.023626, 0.034586, -0.002396, 0.077978, -0.002304, 0.056176, 0.031814, 0.080877, 0.021011, 0.079879, 0.017005, 0.000433, -0.012021, -0.044646, -0.008502, 0.062334, -0.040204, 0.035307, -0.040892, -0.022834, 0.001158, 0.004818, 0.019391, -0.000780, 0.006331, -0.032936, 0.043066, -0.011318, 0.012283, -0.052076, -0.001507, 0.003109, 0.002428, 0.053672, 0.064871, -0.043218, -0.015509, -0.036840, 0.039613, 0.082357, -0.032277, 0.015888, 0.006792, -0.007640, 0.002218, 0.036494, 0.044155, -0.045112, 0.009864, 0.036288, 0.050520, 0.002448, -0.011341, -0.030617, 0.056217, -0.037306, 0.034714, -0.056061, -0.075310, 0.027178, -0.047325, 0.038705, 0.027396, -0.022253, 0.003692, 0.016219, -0.044763, -0.030733, -0.033306, 0.016811, -0.008700, -0.048290, -0.052558, -0.051865, -0.001583, -0.042716, 0.060059, 0.060996, -0.017294, 0.060986, 0.055042, 0.068567, 0.028167, 0.028585, 0.021557, 0.020366, -0.007845, 0.048565, 0.025562, 0.010301, 0.016762, 0.024031, 0.060689, -0.052934, -0.008412, 0.041276, -0.062989, 0.019186, 0.031066, -0.018188, 0.041025, -0.009363, -0.053515, -0.040819, 0.014998, -0.016262, -0.056988, -0.052870, 0.011080, -0.033028, -0.021448, -0.033451, -0.044547, 0.033850, -0.006181, 0.007659, -0.020552, 0.017406, 0.004638, -0.025720, 0.006559, 0.005855, 0.089903, 0.058742, -0.005454, 0.082459, 0.033999, -0.028973, 0.017382, 0.019153, 0.039634, 0.005756, 0.013919, -0.004951, 0.030500, 0.057397, 0.037396, 0.015635, 0.089911, -0.005236, -0.002816, -0.021698, 0.059603, -0.016222, -0.001829, -0.043556, -0.039258, -0.045284, 0.015743, -0.029335, 0.011090, -0.032372, -0.032770, 0.047268, -0.026766, -0.065106, 0.006275, -0.087596, -0.099672, -0.075812, 0.016680, -0.060059, -0.013985, -0.002958, -0.041285, 0.004988, 0.029877, -0.045670, 0.005227, -0.006720, 0.007734, -0.020110, -0.000141, 0.001375, 0.038466, 0.029586, -0.046426, 0.061778, 0.017197, 0.073820, 0.025196, 0.056630, 0.003094, 0.008160, 0.036086, -0.052638, 0.106187, 0.055346, -0.000076, -0.095618, -0.120551, -0.043465, -0.041760, -0.047728, -0.055586, -0.042161, -0.041185, -0.022848, -0.060698, -0.067348, -0.014942, -0.001966, -0.053690, -0.070252, -0.011471, -0.048074, 0.028466, -0.062549, -0.005141, -0.025568, -0.014683, -0.035085, 0.023800, -0.050656, -0.007881, 0.002608, 0.039450, 0.037366, 0.040149, 0.062718, 0.049903, 0.028977, 0.023408, 0.050074, 0.052564, 0.007598, -0.035961, -0.038021, -0.003680, -0.010033, -0.021129, 0.011146, 0.017773, 0.004875, 0.024778, -0.015611, -0.047384, -0.074516, 0.047662, 0.013461, 0.051023, 0.072650, 0.040890, 0.041806, 0.029649, 0.002185, 0.029053, -0.019045, -0.021374, 0.031558, 0.055264, 0.000829, 0.050807, 0.045842, -0.007176, 0.002668, 0.052392, 0.014083, 0.000681, -0.011578, -0.089889, -0.072161, -0.034875, -0.022443, -0.077784, -0.107587, -0.061401, -0.054509, -0.042871, -0.057131, -0.069546, -0.015581, -0.000233, -0.040337, -0.037380, 0.022020, -0.013516, -0.050948, 0.040806, -0.030124, 0.011485, -0.026421, 0.003763, -0.007297, -0.017078, -0.048307},
  {-0.037519, -0.067599, -0.053167, -0.002728, -0.057282, 0.023210, 0.025940, 0.074055, -0.016739, 0.031013, -0.007098, -0.037098, 0.031034, 0.027230, -0.000650, -0.021150, -0.068851, 0.014518, -0.057013, -0.045425, 0.017085, -0.029149, 0.055605, -0.037140, 0.035436, -0.026593, 0.028855, 0.025019, 0.007530, 0.026752, 0.024023, 0.052057, -0.025395, 0.073644, -0.000240, 0.002358, 0.012603, 0.054244, 0.008892, 0.030463, -0.006473, -0.006941, -0.011984, 0.045341, 0.015459, -0.041449, 0.041646, -0.024632, 0.004208, 0.021818, -0.060507, 0.057516, 0.025127, -0.027057, -0.071181, -0.018671, -0.017956, -0.031093, -0.071865, -0.040908, -0.074763, -0.045854, -0.040289, -0.041325, -0.041674, -0.004298, -0.002581, 0.040237, -0.013585, 0.042468, -0.030343, -0.045748, 0.026411, 0.000004, 0.060169, -0.037918, -0.019518, -0.025780, -0.047495, 0.004396, 0.065290, -0.052813, 0.027326, -0.015191, -0.022173, 0.002836, 0.032391, -0.011868, -0.038700, -0.036474, 0.044655, 0.044371, 0.034629, -0.004914, 0.023333, 0.036130, -0.012304, 0.040458, 0.048589, 0.052248, -0.010109, -0.105388, -0.059196, -0.035012, -0.061255, -0.033925, 0.033787, 0.049603, -0.009979, 0.003177, 0.013674, -0.052832, -0.038481, 0.002557, 0.023698, -0.011043, 0.062954, 0.033383, -0.012503, 0.044811, 0.048971, 0.092391, -0.030245, 0.061183, 0.044900, 0.058206, -0.020829, 0.011023, 0.048685, 0.008441, -0.034640, 0.051089, 0.024600, -0.031561, 0.022162, 0.072633, 0.021279, 0.016013, -0.001685, 0.015429, -0.048300, -0.037180, -0.045244, -0.004169, -0.024169, 0.064008, -0.025301, -0.002695, -0.020864, -0.050048, -0.057753, -0.016262, -0.036406, 0.036674, -0.009974, 0.044879, -0.020102, -0.032383, -0.051703, -0.042158, 0.032516, -0.041033, -0.032704, -0.023291, -0.043560, -0.022028, 0.055678, -0.014845, 0.054625, 0.023944, -0.039511, -0.051360, -0.002574, -0.019914, -0.004093, -0.021373, 0.012835, -0.044980, 0.004049, -0.033083, 0.064480, -0.008833, 0.001839, 0.003687, 0.010344, 0.062988, 0.031054, 0.060756, 0.057072, 0.001685, 0.069849, -0.028329, 0.019944, -0.043486, -0.014766, -0.055207, -0.065956, -0.005984, -0.030024, 0.036036, -0.027363, -0.060983, 0.023399, 0.029546, 0.070282, 0.087441, 0.071161, 0.040211, 0.077275, 0.079456, 0.043389, 0.078491, 0.077971, -0.024012, 0.016755, -0.016856, 0.065048, 0.074625, 0.037868, -0.011325, 0.052217, -0.028634, 0.038016, 0.019891, 0.024497, -0.048259, -0.007458, -0.029505, -0.030015, -0.010545, 0.062887, 0.047860, 0.095619, 0.062625, 0.040515, 0.018310, 0.006808, -0.040758, 0.018579, -0.023220, -0.013129, -0.024922, -0.034165, 0.046953, -0.042164, -0.017075, -0.053815, -0.005339, -0.068010, -0.073678, -0.010110, 0.034527, -0.053583, -0.004441, -0.060422, 0.009384, -0.057806, 0.013903, -0.058136, -0.025475, 0.002853, -0.037339, -0.065008, -0.014639, 0.000812, 0.026514, -0.009672, 0.045048, 0.014623, 0.001541, -0.028498, 0.044187, 0.035669, 0.053173, -0.007431, 0.049224, 0.020887, -0.005968, -0.032012, -0.025810, 0.009218, -0.005073, 0.007108, 0.015922, -0.046295, 0.010681, -0.015703, 0.062996, 0.041224, 0.043854, -0.004893, -0.054788, -0.019065, 0.028674, 0.029010, -0.059416, -0.026829, -0.014846, -0.043073, 0.018256},
  {0.002827, 0.035122, -0.030862, 0.042053, 0.052387, -0.018001, -0.052061, -0.019984, -0.044443, 0.011863, -0.006335, 0.055235, 0.059331, -0.036279, -0.021876, 0.071922, 0.006384, -0.034427, -0.021926, -0.029961, 0.031718, -0.024527, -0.025937, -0.051423, -0.048711, -0.044596, 0.008532, 0.062572, 0.051625, 0.002439, -0.033754, 0.019800, -0.064090, -0.074300, -0.022373, 0.008277, -0.013715, -0.058333, 0.015500, 0.013163, -0.061185, 0.045332, 0.006124, -0.024363, 0.002731, -0.045437, 0.011431, 0.022100, -0.002005, -0.046180, -0.016718, 0.000282, -0.057631, 0.007410, 0.025354, -0.052443, 0.009472, 0.039355, -0.023714, -0.016479, 0.009259, 0.055130, 0.007789, -0.032618, -0.043913, 0.060986, 0.003191, -0.012369, -0.050841, -0.021296, -0.051454, 0.058951, 0.059256, -0.014108, 0.032987, 0.039232, 0.045571, 0.013853, -0.047266, -0.031112, 0.032714, 0.035611, 0.014500, 0.037115, 0.008673, -0.056066, -0.001475, -0.025694, 0.017244, 0.007648, -0.063650, -0.009100, -0.016704, -0.067977, 0.021788, 0.033408, 0.019231, 0.025940, 0.011041, 0.020464, 0.003606, 0.015146, 0.030458, 0.034540, 0.067713, 0.023766, 0.005414, -0.003370, 0.022373, 0.005436, 0.051571, -0.001737, 0.009151, 0.032613, 0.030892, -0.055427, -0.044888, 0.018142, -0.003455, -0.024006, 0.036602, -0.039782, -0.007997, 0.017732, -0.036300, -0.024606, -0.029328, 0.008439, -0.048733, -0.020509, -0.027928, -0.068312, -0.060229, -0.081126, -0.007525, -0.038734, -0.064424, -0.079353, -0.026741, -0.000008, 0.001868, 0.010118, 0.011804, -0.038396, 0.006792, 0.002206, 0.002026, 0.003692, -0.006769, -0.038792, 0.002444, 0.006558, 0.033246, -0.030611, -0.068932, -0.011718, -0.059611, 0.050251, -0.030529, -0.015984, -0.013874, 0.030316, -0.004906, -0.026925, 0.017697, 0.045383, 0.033492, -0.051703, 0.044653, -0.009757, 0.008880, 0.081109, -0.010926, 0.038104, -0.013038, 0.032511, -0.009013, -0.024336, -0.067767, -0.026149, -0.004356, -0.076264, -0.048402, -0.064370, -0.016040, -0.030932, -0.075161, -0.058365, -0.060571, 0.008963, -0.079913, -0.001375, -0.017868, 0.019259, -0.007236, 0.031745, 0.107807, 0.082069, 0.015403, 0.050510, 0.041281, 0.023031, 0.073916, 0.091272, -0.017039, 0.045062, -0.034020, -0.025831, -0.037767, -0.007110, -0.041595, 0.033001, -0.061347, 0.035525, -0.041137, -0.004211, -0.033588, 0.026092, -0.006677, 0.030767, 0.030152, 0.051395, 0.065086, 0.044833, -0.029273, -0.010808, 0.007251, -0.027256, -0.016226, -0.000686, -0.054769, -0.069814, -0.011380, -0.059344, -0.074995, -0.056458, 0.006298, -0.009070, -0.021640, 0.005716, 0.038583, 0.016224, 0.087213, -0.012594, 0.090800, 0.006098, 0.086973, 0.113333, 0.005521, 0.051316, -0.037714, 0.026876, -0.029825, 0.043386, -0.021047, -0.014880, 0.078035, 0.060076, 0.027465, 0.008761, 0.026665, 0.057915, -0.024221, 0.045147, -0.057104, -0.033201, -0.020956, -0.000701, -0.020635, -0.067277, 0.016395, -0.039916, 0.034906, 0.028354, -0.022650, -0.013141, -0.008365, -0.040183, 0.063655, -0.033043, 0.054115, 0.045166, -0.015698, 0.028886, 0.021413, 0.054476, -0.026321, 0.064624, -0.031654, 0.023059, 0.002698, 0.024197, 0.009075, -0.003675, -0.033234, -0.034048, -0.020258, 0.004184, -0.032616, -0.050985},
  {-0.025585, -0.013098, -0.022524, 0.001127, -0.045428, 0.046301, 0.046921, -0.042542, -0.023365, -0.040689, -0.034031, -0.075598, 0.033109, 0.019859, -0.045553, -0.013463, -0.012113, 0.040700, -0.043040, 0.051525, -0.008474, -0.002820, 0.051331, 0.040099, 0.042928, 0.023663, -0.013927, -0.013166, 0.030572, 0.041770, 0.055068, -0.012148, 0.037960, -0.027487, 0.006743, -0.032475, -0.044159, 0.032943, -0.005069, -0.043089, 0.008118, -0.056105, 0.025972, -0.004961, -0.002268, -0.022097, 0.058560, -0.017030, -0.020881, -0.052884, -0.003512, -0.040174, -0.047216, -0.045579, -0.010238, -0.037161, -0.030884, 0.006674, -0.011061, -0.016559, -0.062018, -0.021755, 0.016492, -0.048645, 0.027817, 0.044259, -0.021506, 0.053413, -0.040169, -0.044911, 0.031939, 0.013063, 0.045313, -0.019533, 0.033102, -0.046793, -0.062369, 0.021283, -0.024351, -0.013812, -0.017940, 0.020576, 0.004156, 0.045069, 0.010777, -0.027606, 0.034586, 0.028659, 0.050486, 0.031777, -0.007331, -0.035475, -0.024766, -0.035882, 0.057275, 0.058615, -0.014764, 0.062695, -0.038934, 0.055728, -0.009563, -0.083345, 0.000052, -0.062361, 0.039827, -0.038896, 0.004653, 0.063246, -0.006914, 0.038090, -0.033966, -0.025954, 0.010131, 0.028021, 0.053425, 0.028104, 0.048967, -0.040465, 0.014117, 0.019797, -0.016636, 0.026676, -0.054312, 0.049954, -0.035773, -0.053958, -0.023123, -0.044474, 0.034499, -0.055763, -0.007227, -0.054241, 0.066301, -0.033720, 0.009573, 0.006973, -0.027969, -0.062913, 0.007002, -0.027284, -0.049847, 0.032434, -0.053576, 0.022935, -0.059990, 0.054839, 0.060529, 0.016645, 0.026169, -0.038203, -0.003288, -0.011991, 0.020232, 0.048608, 0.044985, -0.000662, 0.026247, -0.030998, -0.005683, -0.026279, -0.020143, -0.044368, -0.056321, 0.024666, 0.021220, 0.002525, 0.030619, -0.009920, -0.059129, 0.034990, -0.068499, 0.058705, 0.058029, -0.007201, 0.052452, 0.003849, 0.050260, 0.046669, 0.060328, 0.033320, 0.010700, 0.048402, -0.013527, 0.031885, 0.026132, -0.028504, 0.056908, 0.037109, -0.013984, -0.030271, -0.053682, -0.017413, -0.049556, -0.068986, -0.047503, -0.062652, -0.068031, -0.081041, 0.017045, -0.007367, -0.028278, 0.011044, 0.007331, 0.038336, 0.069803, 0.072056, 0.076945, 0.095674, 0.100736, 0.019813, 0.074417, -0.031059, 0.005921, 0.000104, -0.047127, -0.037045, -0.064292, 0.007130, -0.059030, -0.057934, -0.063319, 0.029719, -0.005238, -0.007313, -0.001583, -0.046706, -0.002466, 0.030115, -0.043727, -0.013760, -0.032477, 0.059468, -0.006183, 0.039609, -0.035332, -0.036833, -0.049253, 0.018297, -0.000671, 0.046504, -0.015021, 0.047231, 0.065549, 0.024078, -0.015295, -0.045904, -0.001063, 0.026797, 0.013655, -0.002093, 0.033594, 0.019887, -0.028932, -0.034913, -0.053856, -0.035180, -0.094110, -0.010519, -0.062291, -0.061432, -0.058279, -0.065256, -0.036073, -0.045674, 0.043115, 0.004285, -0.035436, -0.024681, 0.028097, 0.023366, -0.035185, 0.009094, 0.054519, 0.016684, -0.001037, 0.059136, 0.077809, 0.006273, -0.018550, 0.078949, 0.063434, 0.065164, -0.007664, -0.032855, 0.019253, -0.003726, 0.058019, 0.002319, 0.022997, -0.018660, -0.086117, -0.016779, -0.022609, -0.001951, -0.076189, -0.003064, -0.034817, 0.025080, -0.010101, 0.069811},
  {-0.075628, -0.072205, 0.038462, -0.056354, 0.018463, 0.038010, 0.077782, -0.004371, 0.023001, 0.038679, 0.020737, 0.012499, -0.015321, -0.063253, -0.054119, -0.053821, -0.052572, -0.087115, -0.018179, -0.032511, -0.049464, -0.028405, -0.009047, 0.001398, 0.049387, 0.003444, -0.020325, -0.070507, -0.029190, 0.011775, -0.003468, -0.021594, -0.024572, 0.037187, -0.019522, -0.009697, -0.026063, -0.015198, 0.012826, -0.003167, -0.011984, 0.027420, 0.024379, 0.016047, -0.033385, 0.048427, 0.037366, -0.030025, -0.012084, 0.050516, -0.043233, 0.004125, -0.010129, -0.031387, -0.020420, 0.048328, 0.040308, -0.078989, 0.032800, -0.022746, 0.032943, 0.036906, -0.019771, -0.038173, -0.086603, -0.070566, -0.034341, -0.055580, -0.051460, 0.025305, -0.051504, -0.065579, 0.000634, 0.048217, -0.004915, 0.038140, 0.018634, 0.034952, 0.040013, -0.046302, 0.028291, 0.065805, -0.019177, 0.022650, -0.002641, -0.029829, 0.039198, -0.013773, -0.008124, -0.006665, 0.001456, 0.042057, -0.024266, -0.026360, 0.005377, -0.003694, 0.039046, 0.041087, -0.006303, -0.033915, -0.026902, -0.000928, -0.033432, -0.096920, -0.067530, 0.000621, 0.047957, 0.065088, 0.003879, 0.033188, 0.014000, -0.001813, -0.015511, -0.001499, -0.003152, 0.045539, -0.024020, 0.044512, 0.021539, -0.057937, -0.007620, 0.086094, 0.025400, 0.062838, 0.020931, 0.021464, 0.068852, 0.067349, -0.021175, -0.053598, -0.053913, 0.040038, 0.038484, 0.045707, 0.042422, 0.072876, -0.003815, 0.023978, 0.030086, -0.035017, -0.000343, -0.023047, -0.050278, 0.038242, -0.032343, 0.024487, 0.027709, 0.013483, -0.005033, -0.044189, -0.053341, -0.063211, -0.021647, -0.012043, 0.083372, 0.001654, -0.050963, 0.060412, 0.000526, 0.035035, -0.056981, 0.026657, -0.041213, -0.038685, 0.005949, -0.040119, 0.025631, -0.038911, -0.030859, 0.057023, 0.048169, -0.012048, -0.007636, 0.014710, 0.011961, 0.041178, -0.053546, 0.036955, 0.038662, -0.047076, 0.015318, 0.060160, -0.028885, 0.043617, 0.055847, -0.000653, -0.023733, 0.065674, -0.000151, -0.005306, -0.014929, 0.034124, -0.003921, 0.025299, 0.023005, 0.001290, -0.001504, 0.046945, -0.021924, 0.025210, -0.118664, -0.067069, 0.000125, 0.076719, 0.071648, 0.041629, 0.048962, 0.076579, 0.066735, 0.015687, 0.033587, 0.019313, 0.016214, 0.037467, -0.018140, 0.039929, -0.007404, 0.053808, 0.027421, 0.019249, 0.039713, -0.022308, 0.055508, 0.043072, 0.001160, 0.048791, -0.045174, -0.059112, 0.059096, 0.063198, -0.020328, 0.069995, 0.009462, -0.023082, 0.088228, -0.013997, 0.006138, 0.023913, -0.009169, -0.042695, -0.019711, 0.016055, 0.052725, 0.000367, -0.042112, -0.052580, 0.046773, -0.033303, -0.013016, 0.022215, 0.040750, 0.041271, -0.064047, -0.099770, -0.025880, -0.035111, 0.004484, -0.026035, -0.050921, 0.021000, 0.050223, 0.019617, 0.035931, 0.087446, 0.017141, 0.076372, 0.079838, 0.014019, 0.056282, 0.047367, 0.027507, 0.051990, 0.057104, 0.055939, 0.028896, -0.016487, 0.057555, -0.009243, 0.026242, -0.033098, -0.003844, -0.022496, -0.022367, 0.010138, -0.050062, -0.019901, -0.031083, -0.004307, 0.045929, 0.030319, -0.011307, -0.035677, -0.046550, 0.033144, 0.036008, 0.015694, -0.005144, 0.039416, 0.037188, 0.014948},
  {-0.049263, 0.072271, 0.083388, 0.037857, 0.054280, 0.045483, 0.000989, -0.025548, -0.028949, -0.029149, 0.049435, 0.042128, 0.003224, -0.024132, 0.077954, 0.056329, -0.027878, 0.045538, 0.056666, -0.024361, 0.050102, -0.011699, 0.050114, 0.046626, 0.010489, 0.014529, 0.007518, -0.027952, 0.011132, 0.026504, -0.007084, -0.017119, -0.005491, 0.071925, 0.003515, 0.049925, 0.047390, 0.022763, -0.001972, 0.037774, 0.059135, -0.036387, 0.024853, 0.042757, 0.013765, 0.019004, 0.037344, 0.056109, 0.065401, -0.002201, -0.002771, -0.071541, 0.038974, 0.078140, 0.024945, 0.028360, 0.032529, 0.019245, 0.038909, -0.019101, 0.056293, 0.055563, 0.028557, 0.061158, 0.065340, -0.040084, 0.052333, 0.039845, 0.051881, 0.033382, 0.048901, 0.013835, -0.015155, 0.015025, -0.029463, 0.049920, -0.005084, 0.080391, 0.043916, 0.053274, 0.056858, -0.037349, 0.002123, 0.006224, -0.027121, 0.031239, -0.048072, 0.054475, 0.001720, 0.022667, 0.036276, 0.057516, 0.043294, 0.065921, -0.025964, -0.035064, -0.043576, -0.017304, -0.015355, -0.038935, -0.036556, 0.015984, 0.013783, -0.003222, 0.039400, 0.000092, 0.062873, 0.020364, 0.053209, -0.005274, -0.013773, 0.028804, 0.008787, 0.044525, 0.088417, -0.012318, 0.074959, 0.022960, 0.051118, -0.009023, -0.007762, -0.034183, -0.033029, 0.026403, -0.000689, -0.003198, -0.028744, 0.062123, -0.003766, -0.018778, -0.052114, 0.032774, 0.041992, 0.071920, 0.064904, 0.040920, -0.051000, -0.033742, 0.064175, 0.029680, -0.024026, 0.081307, -0.012510, 0.059152, 0.004984, 0.048894, 0.027602, -0.058763, -0.025067, 0.019953, 0.054406, -0.039429, 0.043108, -0.073375, 0.028977, 0.002800, 0.054896, -0.066175, 0.031202, 0.028733, 0.035126, -0.027693, -0.026375, 0.019615, -0.021239, -0.009096, -0.030095, 0.073444, -0.029611, 0.007446, 0.041688, 0.000033, 0.023424, 0.053075, 0.011650, -0.030853, 0.008702, -0.054120, 0.032244, 0.073121, -0.039052, -0.014532, 0.088562, -0.008540, 0.056546, 0.009601, 0.045192, 0.000201, -0.007657, -0.063769, 0.006634, -0.034056, -0.056704, 0.002018, 0.019987, -0.013837, -0.000446, -0.024189, -0.037654, 0.049831, 0.023431, 0.010674, 0.088491, -0.036177, -0.052041, -0.098999, -0.076727, -0.079602, -0.027300, -0.082219, -0.033673, -0.000324, -0.005478, 0.010466, 0.030039, -0.073553, 0.032895, -0.006707, -0.055251, 0.001891, -0.052207, 0.040552, 0.022978, 0.034145, -0.050133, 0.007420, -0.036736, -0.032659, 0.011634, 0.043892, 0.037938, 0.043561, -0.039578, 0.047118, -0.040176, 0.001078, 0.006684, 0.040869, 0.046402, -0.051868, -0.007720, 0.017452, -0.017004, 0.021171, -0.045975, 0.034396, 0.015735, 0.066491, 0.079491, 0.036160, 0.038818, -0.040952, -0.016196, -0.004245, 0.047679, 0.012249, 0.033682, 0.037019, 0.008477, -0.021428, -0.027580, -0.003648, -0.063319, 0.028349, 0.010368, 0.027230, 0.035652, -0.009752, 0.008149, -0.063047, -0.011777, -0.062338, -0.025704, -0.021393, 0.006127, 0.000352, -0.031601, 0.028620, -0.033360, 0.005114, -0.041338, -0.027146, -0.027305, 0.020533, -0.005325, 0.018017, -0.011819, -0.031983, 0.003661, 0.039392, -0.049520, 0.054453, 0.067020, 0.046081, 0.015984, 0.031655, -0.013061, -0.016343, 0.033738, 0.002250},
  {-0.037889, -0.050310, -0.048170, 0.037196, -0.048447, -0.024642, 0.063065, 0.077665, 0.070374, 0.073830, -0.016228, 0.046416, 0.014735, 0.009899, 0.021314, -0.060294, -0.044850, -0.073568, 0.003896, -0.016494, -0.040337, 0.011713, 0.043864, -0.062609, 0.008391, 0.002511, -0.024733, 0.015448, 0.011810, 0.022243, 0.035671, -0.017773, 0.001539, 0.026306, 0.072675, 0.066752, -0.008748, 0.071768, -0.008665, 0.050986, -0.046687, 0.049782, 0.047990, 0.015010, 0.027210, 0.040048, -0.007731, 0.058776, 0.057402, 0.039402, 0.005486, 0.053298, 0.029420, 0.019345, 0.018349, 0.016457, -0.060712, -0.035747, -0.069612, -0.053490, -0.001039, -0.037517, 0.028192, 0.002332, -0.068639, -0.027112, -0.093768, -0.013118, -0.068864, 0.023301, -0.049186, -0.008671, 0.035614, -0.017469, 0.062109, 0.044585, -0.009282, 0.031181, 0.023340, -0.038566, 0.005379, 0.002094, 0.028135, -0.003451, 0.056448, -0.012821, 0.029012, -0.028918, 0.037125, 0.044725, 0.067629, -0.012687, 0.032117, -0.027373, 0.007098, 0.018467, -0.047505, 0.008411, -0.020935, 0.014677, -0.055452, -0.041842, -0.022181, 0.000651, -0.053135, -0.005187, -0.076727, -0.019567, -0.081673, -0.010983, -0.084658, -0.000002, -0.069080, -0.058448, -0.099599, 0.018757, 0.007757, -0.073112, 0.044319, -0.047982, -0.068324, -0.005094, 0.065424, -0.005331, 0.047881, 0.037388, 0.038463, 0.038645, 0.014813, -0.034646, 0.034370, 0.030344, 0.043443, 0.057786, 0.040027, 0.070807, 0.036445, 0.043573, -0.015215, 0.045624, -0.057941, -0.031428, 0.010649, 0.038069, -0.013416, 0.054863, -0.014351, -0.029300, -0.049033, -0.012897, 0.006622, 0.006447, -0.049791, -0.030593, 0.017803, -0.072259, -0.076096, 0.022587, -0.048220, -0.028982, -0.035907, -0.070907, 0.041362, 0.007692, 0.002358, 0.045263, 0.016267, 0.054343, 0.021276, 0.070920, -0.004122, 0.054824, -0.015783, -0.034329, 0.077189, 0.062011, 0.073148, -0.022467, 0.036580, 0.022792, 0.066070, 0.008044, -0.043949, -0.007425, 0.058858, 0.035479, 0.013380, -0.042813, 0.030367, 0.057545, -0.006975, -0.004362, 0.017135, 0.041990, 0.015308, 0.034832, -0.023572, -0.020313, 0.037219, -0.004830, -0.065838, -0.089511, -0.022795, -0.067859, 0.000207, -0.049511, -0.011823, 0.024213, -0.041959, -0.011589, 0.044989, 0.058567, 0.022087, -0.007527, 0.000973, 0.073623, 0.057974, 0.041069, 0.059360, 0.084380, 0.061787, 0.050227, 0.013505, 0.020673, 0.053070, 0.032083, 0.040170, -0.008240, -0.022526, 0.042886, 0.052981, -0.039843, -0.040262, 0.036461, 0.006712, -0.024242, -0.001784, -0.034277, -0.008405, -0.008527, -0.025558, 0.004954, -0.005354, -0.037424, 0.030509, -0.002785, -0.014085, 0.035341, -0.058130, -0.009231, 0.048479, -0.065212, 0.053176, 0.021965, -0.001121, 0.063673, -0.037588, -0.051125, -0.017320, 0.041154, -0.042944, -0.027505, 0.067861, 0.030361, -0.043410, 0.003650, -0.051901, -0.021624, -0.002640, -0.047262, 0.035905, -0.054334, -0.019746, 0.039066, -0.022089, 0.032291, 0.069035, 0.008611, 0.029225, 0.006243, 0.012422, -0.034152, -0.019971, 0.002539, -0.051872, -0.029534, 0.002677, -0.001152, 0.023149, -0.003947, -0.026129, -0.003535, 0.002964, -0.036343, 0.041647, 0.028282, -0.039304, -0.011420, -0.016600, 0.008118},
  {-0.040730, 0.037304, -0.034407, -0.048897, 0.031600, -0.061621, -0.069216, -0.061054, -0.066528, -0.067289, -0.049779, -0.084361, -0.052970, -0.056764, -0.034882, -0.006012, -0.058224, 0.003886, 0.030240, -0.048763, -0.034270, -0.050555, 0.009497, -0.045719, -0.032722, -0.010855, -0.070818, -0.055356, 0.010380, 0.018954, -0.028825, -0.040378, 0.017753, 0.038682, -0.003436, -0.045254, -0.047860, 0.001656, -0.013744, -0.056541, -0.035628, -0.067326, -0.037952, 0.009384, -0.061841, -0.025642, -0.018119, 0.017422, 0.004793, -0.039430, -0.048122, -0.054658, 0.034551, 0.021875, 0.025409, -0.033520, -0.090632, 0.031617, -0.006443, 0.000750, 0.011976, -0.050528, -0.005389, -0.077663, 0.007438, -0.019711, -0.099109, -0.010935, 0.010750, 0.004461, -0.073886, -0.011749, -0.087703, -0.059411, -0.005514, -0.021384, 0.039908, -0.047760, 0.003685, -0.013667, -0.050776, 0.007631, 0.023987, -0.039493, -0.048027, -0.060921, 0.032851, -0.033981, -0.022131, 0.014092, 0.008682, -0.044714, -0.031186, 0.002176, -0.022483, -0.085703, -0.048546, -0.068302, -0.055488, -0.089049, -0.050277, -0.017112, 0.003853, -0.005210, 0.042300, -0.053076, 0.048036, -0.031222, -0.000238, 0.015453, -0.022124, -0.012910, -0.056077, 0.000163, -0.046549, -0.035693, 0.033862, -0.018130, -0.050577, 0.014290, -0.010662, -0.014313, -0.037039, -0.050124, -0.038125, 0.001091, -0.067926, -0.052115, 0.030606, 0.006667, -0.004327, 0.005928, 0.023824, 0.016002, 0.063153, 0.070838, -0.025340, 0.012905, 0.059011, 0.038191, -0.044197, 0.003126, 0.029758, -0.003268, -0.019302, -0.057569, -0.040988, -0.032145, -0.059585, 0.042660, 0.032963, -0.002580, 0.030315, -0.013897, -0.020957, -0.015933, -0.019892, -0.014032, -0.044026, 0.049359, 0.056547, 0.024152, -0.054322, 0.018253, 0.024619, 0.008164, 0.001839, -0.032283, 0.041247, -0.010165, 0.003649, -0.029603, 0.008259, -0.034581, 0.005793, -0.000921, 0.006567, -0.055583, -0.052238, -0.003624, -0.029147, 0.025527, -0.032696, -0.040640, -0.022953, 0.043198, -0.034552, 0.051512, 0.003060, 0.038347, -0.018809, -0.010537, 0.032256, -0.021074, 0.015269, -0.046607, -0.005669, 0.010561, 0.021578, 0.004320, -0.020313, 0.056504, 0.021567, 0.025417, -0.028732, -0.062473, -0.059719, 0.044678, 0.043045, 0.029959, -0.042797, 0.022204, -0.065501, -0.006813, 0.014680, -0.004264, -0.072134, 0.036891, -0.031367, 0.034444, 0.014664, 0.027783, -0.001327, -0.021545, 0.036278, -0.047445, 0.004475, -0.020739, 0.003168, 0.053222, 0.039696, -0.014386, -0.031833, 0.033284, 0.040408, -0.010049, 0.050415, 0.053447, -0.027753, -0.040358, -0.030245, -0.050674, 0.025917, -0.077182, -0.025811, -0.032017, -0.027750, -0.084202, -0.052893, 0.030913, -0.001031, 0.027156, -0.040363, 0.029805, 0.040674, -0.043985, -0.012708, -0.042940, 0.056206, -0.027026, -0.016445, 0.056076, -0.012246, -0.014856, -0.010203, 0.043765, 0.051299, 0.007120, -0.022396, 0.036506, -0.001196, 0.052723, -0.040057, 0.039150, 0.041933, 0.038220, 0.045531, -0.046353, -0.034115, 0.046753, -0.006281, -0.054657, -0.059608, 0.024088, -0.026704, 0.017927, 0.001523, -0.022747, -0.043869, 0.010539, 0.034126, 0.024013, 0.026953, 0.028932, 0.016077, 0.016774, 0.032130, 0.016530, -0.027576, 0.036276},
  {0.047964, 0.012100, 0.033696, 0.005030, -0.075455, 0.007264, -0.050172, -0.013017, -0.042395, 0.048869, -0.045326, -0.041125, -0.039588, -0.076097, -0.013362, 0.017157, -0.054546, -0.025586, -0.015091, 0.037191, -0.055941, -0.008663, -0.017934, -0.024091, -0.049970, 0.029156, 0.049048, -0.006321, 0.046129, -0.061863, -0.066267, -0.021943, 0.029849, 0.009720, 0.037653, 0.041023, -0.019275, 0.014099, -0.057254, 0.042976, 0.001097, -0.049104, 0.043999, 0.002022, 0.053513, -0.018927, -0.015781, -0.046024, 0.019534, 0.028646, -0.035773, -0.006890, -0.017862, -0.035212, -0.001249, -0.000828, -0.002981, -0.048191, -0.017136, -0.002243, 0.039049, -0.026780, 0.032662, 0.021574, -0.004702, 0.021770, 0.000266, 0.008301, -0.034857, -0.014541, 0.056673, 0.030481, 0.018540, 0.035833, -0.038653, -0.001833, 0.033241, 0.023331, -0.026591, 0.012213, -0.004371, 0.002365, 0.041325, -0.011849, -0.051891, 0.025543, 0.023911, 0.054522, -0.042492, 0.071116, 0.028023, -0.053190, 0.001010, -0.056990, 0.027209, -0.018868, 0.025372, 0.060632, 0.072191, -0.000688, 0.013133, -0.022563, -0.012835, -0.077448, -0.005946, -0.040991, -0.048344, 0.011521, 0.016532, -0.014728, -0.008031, 0.031593, 0.023099, 0.003094, 0.023845, -0.012261, -0.003246, 0.072287, 0.001640, 0.035753, 0.002803, 0.028103, 0.007021, 0.012235, -0.031925, -0.035388, -0.010566, -0.073113, 0.022352, -0.060959, 0.028537, 0.005178, 0.000272, 0.003592, 0.006253, 0.006419, -0.000888, -0.002567, -0.040485, -0.002424, -0.007954, 0.006946, -0.011215, 0.000785, 0.037974, 0.001151, -0.008013, -0.001078, 0.037314, -0.054751, 0.027304, -0.008286, 0.025480, 0.034630, 0.022592, 0.060755, 0.081427, 0.103368, 0.086661, 0.008824, -0.017801, 0.054879, 0.025162, -0.040872, 0.051627, 0.039452, -0.077991, -0.051961, -0.086417, -0.076747, -0.057675, -0.015498, -0.034518, 0.040146, -0.049755, -0.005692, 0.009299, -0.016116, -0.041283, 0.014316, -0.047205, -0.040697, 0.026499, 0.043699, 0.003919, -0.023427, 0.084970, 0.009595, 0.012694, 0.024175, -0.016475, 0.020052, 0.091660, 0.073873, 0.014401, 0.024127, -0.023656, -0.072217, -0.041925, -0.026911, -0.007265, -0.035307, 0.051780, 0.054101, 0.089141, 0.010883, 0.100767, 0.050011, 0.071413, 0.035061, 0.093510, 0.026477, 0.082837, 0.078436, 0.044376, 0.067693, -0.026603, 0.018951, 0.006182, -0.031279, -0.025878, 0.012516, 0.005476, -0.063480, -0.011807, -0.034716, -0.004023, -0.031822, 0.051724, 0.013608, 0.037119, -0.020171, -0.002210, -0.022158, 0.053234, 0.041755, 0.056487, 0.039423, 0.048971, -0.039650, -0.023286, -0.005220, 0.040347, 0.015523, -0.051043, -0.003360, -0.039967, -0.066398, -0.021456, -0.058260, -0.017047, -0.042280, -0.041133, -0.053358, -0.062728, -0.098918, 0.017473, 0.026503, -0.043746, 0.017448, -0.084384, -0.065562, -0.041887, -0.000129, -0.004235, -0.011570, -0.019076, 0.037690, 0.005497, 0.051666, -0.019126, 0.057450, -0.005299, -0.010165, 0.035557, 0.011821, 0.032585, -0.023546, 0.025692, 0.038681, -0.036357, -0.027203, -0.060718, -0.081950, 0.016920, -0.019191, -0.049877, -0.000581, -0.000764, 0.039390, -0.020376, 0.034464, -0.034569, -0.044822, -0.053964, -0.021988, 0.000404, 0.048825, 0.044625, 0.052195},
  {-0.078855, 0.002953, -0.025835, 0.030038, 0.014233, -0.046718, -0.051372, 0.009619, -0.009633, -0.033901, -0.029750, 0.017020, 0.019282, 0.018737, -0.022873, -0.001774, -0.060857, -0.029837, 0.035150, -0.003985, 0.033203, -0.042860, -0.018027, 0.049775, 0.016265, -0.030966, -0.052313, -0.070365, -0.030199, -0.010258, -0.063366, 0.033528, 0.031161, 0.033434, -0.041283, -0.041199, 0.000649, 0.041881, 0.024047, 0.027029, 0.044282, -0.040567, -0.002298, -0.071693, -0.053629, -0.009954, 0.059625, -0.046873, -0.000811, -0.066344, -0.009469, 0.012685, -0.004020, 0.030985, -0.051964, -0.075399, -0.045349, -0.040295, -0.050507, -0.002284, 0.025004, -0.062853, -0.080794, -0.026661, -0.016194, -0.060613, -0.084773, -0.029139, -0.009934, 0.013623, -0.016287, -0.058923, 0.024913, 0.006198, -0.047770, -0.003265, -0.046551, 0.017653, -0.000588, -0.014852, -0.009757, -0.055465, -0.067418, 0.008540, -0.020077, -0.001774, -0.003350, 0.035422, -0.048270, 0.010734, -0.054448, -0.016578, 0.009700, -0.065438, 0.046819, -0.030240, -0.037291, 0.031487, -0.014690, -0.016417, 0.014458, 0.084268, 0.004465, -0.028156, 0.013733, -0.066155, -0.019225, -0.076085, -0.005858, -0.080186, -0.089381, -0.002181, 0.006818, -0.060745, -0.073135, -0.041037, 0.036787, 0.021103, 0.020713, -0.060456, -0.009262, -0.044554, -0.005473, -0.054049, -0.017300, 0.027214, 0.025707, -0.014108, -0.018141, -0.035498, -0.044344, 0.012929, 0.057010, -0.025419, 0.075284, 0.068604, -0.013010, 0.017734, -0.014266, 0.043409, 0.001650, -0.035913, 0.012683, 0.010932, 0.015374, -0.004468, 0.048964, 0.003303, 0.027735, 0.027264, -0.064096, -0.008316, -0.001659, 0.040298, -0.055324, 0.015618, -0.012335, -0.030680, -0.048457, -0.038753, -0.058538, 0.021965, 0.028029, 0.009822, -0.010593, -0.026953, 0.042710, -0.041231, 0.011193, 0.013956, -0.032949, -0.018150, 0.018063, -0.035193, -0.050584, 0.048414, 0.000610, -0.042569, -0.036079, -0.015640, -0.014812, 0.049010, 0.000198, 0.033764, -0.026313, -0.005912, -0.051527, -0.072892, -0.020266, -0.022168, -0.008672, 0.073071, 0.060484, 0.047494, -0.010230, -0.009685, -0.033191, 0.035225, 0.014706, 0.021635, -0.000362, -0.008926, -0.021648, -0.076343, -0.029384, -0.091388, -0.057495, 0.027039, 0.016113, -0.067488, -0.019026, 0.045370, -0.052123, -0.018487, -0.053138, 0.035657, 0.016675, 0.025487, -0.000717, -0.012017, -0.054596, -0.069217, 0.012818, -0.070662, -0.076682, 0.003580, -0.012877, 0.000063, 0.050534, 0.071105, 0.039020, 0.042000, 0.072057, -0.016446, 0.013749, -0.014986, 0.028679, -0.035376, 0.022512, -0.022562, -0.049989, 0.060384, 0.002792, -0.023064, -0.048602, 0.001808, 0.000329, 0.028729, -0.026267, -0.000330, 0.043708, -0.041010, -0.018182, -0.047890, 0.014017, 0.052586, -0.082172, -0.057587, 0.015281, -0.024979, -0.024706, -0.027952, -0.025512, -0.047161, -0.046114, 0.042486, -0.032251, 0.045659, 0.039758, 0.044776, -0.006712, -0.032054, -0.008241, 0.075616, 0.053345, 0.047551, -0.028902, 0.022129, 0.014564, -0.005107, 0.031938, -0.031504, 0.024543, 0.010012, -0.067900, -0.025979, 0.040304, 0.026085, -0.001077, -0.008867, -0.047902, -0.055582, -0.037582, -0.049537, 0.041898, 0.015364, -0.038733, 0.026795, -0.027546, -0.029181},
  {0.044487, -0.022601, -0.010738, -0.042327, -0.063989, -0.037342, 0.034287, -0.033201, 0.016734, 0.040987, -0.048704, -0.013072, -0.072465, 0.002176, 0.000694, 0.019816, -0.073525, -0.070447, 0.004423, -0.011606, 0.053533, 0.045266, 0.014771, -0.040221, -0.031354, -0.036081, -0.022465, -0.047764, -0.000035, -0.019533, 0.057327, 0.024174, 0.006479, 0.031625, 0.073442, 0.029452, 0.011726, -0.035674, 0.051425, 0.040702, -0.006601, 0.019883, 0.003607, -0.013320, -0.023940, -0.010271, 0.039100, 0.044900, -0.035036, -0.017665, -0.040117, -0.011680, -0.041456, -0.036981, -0.049456, 0.025276, -0.056391, -0.003138, 0.035424, 0.037287, 0.001266, -0.007090, -0.004509, 0.029655, -0.045614, 0.017434, 0.000979, -0.043745, -0.045533, -0.036982, -0.020985, 0.055500, 0.072302, 0.010631, -0.050166, 0.015823, 0.001207, 0.003959, 0.003885, 0.026499, 0.015783, 0.027055, -0.029144, 0.020062, -0.019801, 0.074283, -0.014648, -0.040317, 0.041516, -0.003974, 0.001866, 0.029693, 0.013075, 0.015185, 0.004272, -0.031074, -0.006668, 0.021127, 0.006425, 0.012591, -0.051871, -0.027944, -0.017938, -0.004022, 0.052170, -0.047670, 0.029750, -0.041849, -0.042414, -0.036632, 0.033887, 0.021494, -0.029415, 0.066500, 0.045484, 0.041602, 0.054492, 0.070732, -0.030101, 0.050351, 0.043506, 0.050335, 0.061327, -0.002456, -0.014668, 0.008423, -0.008096, 0.005252, -0.008643, 0.035636, 0.022301, 0.048229, 0.035721, -0.035772, 0.003665, -0.026631, 0.066339, 0.031464, -0.038775, -0.038875, -0.040838, 0.044934, -0.047580, -0.010201, 0.039352, -0.001282, 0.020520, 0.034636, -0.033429, 0.017598, -0.078259, -0.053349, 0.000919, 0.016525, -0.038455, 0.040170, -0.021903, 0.028934, 0.060572, 0.022897, -0.029145, -0.009501, -0.047208, 0.032966, -0.024538, 0.003241, -0.070993, -0.008352, -0.067842, -0.007659, -0.037698, -0.062077, -0.055400, -0.039144, -0.057657, -0.057255, -0.030446, 0.035111, 0.029952, -0.004361, 0.007734, -0.055781, 0.039386, -0.022128, -0.033894, -0.018202, -0.046794, -0.003718, -0.023684, 0.026953, 0.005997, 0.026969, 0.043434, 0.053207, 0.005180, 0.024990, -0.004933, -0.038893, -0.039466, -0.038181, -0.040118, 0.017156, 0.008002, 0.116967, 0.108772, 0.035091, 0.061473, 0.068152, 0.076062, 0.057225, 0.009050, 0.027783, 0.054739, 0.062108, 0.007065, 0.043006, 0.001214, 0.060609, 0.020454, -0.000724, -0.036509, 0.039642, -0.071620, -0.006046, -0.057968, -0.052327, -0.032119, -0.039076, 0.018033, 0.061915, 0.034618, -0.005807, 0.009686, 0.004085, 0.080795, -0.027117, 0.005236, -0.014808, 0.019500, -0.047523, -0.000486, 0.047063, -0.050012, -0.010738, 0.025751, 0.057837, 0.008925, 0.015022, -0.032382, -0.002382, -0.017705, -0.011190, -0.031615, -0.062228, -0.028080, -0.078932, -0.074901, -0.060868, -0.070600, 0.010151, 0.009477, -0.055742, -0.041003, -0.013186, -0.026260, 0.069219, 0.052768, 0.035157, 0.022925, 0.083761, 0.076436, 0.066836, 0.013042, 0.033808, 0.055696, 0.086841, 0.090164, 0.077696, 0.048034, -0.046887, -0.028003, -0.025314, 0.020113, 0.037287, -0.050637, -0.037224, 0.002492, 0.009952, 0.042642, -0.045083, -0.004390, -0.043016, 0.037581, 0.009871, -0.020054, 0.001977, 0.034376, -0.022120, 0.029058, -0.011602},
  {0.010857, -0.054509, 0.048139, 0.023823, -0.037765, -0.047865, 0.028750, -0.047965, -0.042923, -0.029658, -0.045223, 0.024267, -0.036876, -0.050234, 0.014196, 0.027343, 0.006251, 0.040317, -0.029356, 0.027085, -0.028652, -0.051411, -0.029323, 0.030381, 0.027426, 0.017504, 0.007824, -0.045018, -0.001590, -0.063925, 0.030698, 0.009904, 0.063213, -0.038376, 0.016065, -0.021688, 0.068594, -0.005971, 0.019228, 0.030183, 0.058602, -0.022222, -0.043793, -0.007031, -0.057362, 0.011333, -0.050964, 0.033894, -0.019835, 0.006637, -0.044984, 0.044503, -0.001812, -0.034147, 0.042393, 0.031426, 0.003109, 0.010830, -0.042543, -0.030865, 0.003592, -0.002386, -0.038613, -0.020807, 0.016761, -0.022619, 0.050381, -0.013915, -0.053992, 0.053901, -0.047306, 0.001215, -0.050738, 0.023063, -0.001418, -0.065153, 0.028626, 0.009154, 0.020380, 0.033140, 0.042606, -0.047825, 0.004118, 0.058265, -0.023757, 0.074158, 0.063314, 0.037332, 0.055847, -0.023019, -0.043627, 0.054059, -0.034622, -0.033646, -0.016918, 0.053100, -0.022245, 0.000717, 0.059848, 0.027898, -0.014808, -0.024424, -0.066656, -0.020905, -0.078568, -0.007807, 0.044143, 0.070632, -0.032673, 0.007171, -0.035054, -0.046288, 0.054666, 0.020912, -0.002420, 0.011467, 0.033360, -0.021300, 0.007932, 0.071554, -0.018703, 0.031523, -0.040190, 0.032769, 0.029269, -0.003588, 0.027901, -0.007072, 0.040906, -0.013749, 0.059810, 0.074051, 0.048978, 0.005172, -0.000855, 0.070913, 0.001256, -0.016755, 0.006942, -0.046136, -0.003129, 0.023701, -0.047320, -0.020100, 0.022371, 0.005739, 0.005529, 0.015564, -0.023604, -0.057027, -0.044481, -0.048823, 0.034158, 0.056212, -0.011235, 0.061468, -0.020010, 0.042636, 0.028280, -0.052064, -0.069576, -0.024932, 0.028417, 0.045777, 0.056454, -0.018035, -0.001786, -0.076481, -0.079762, -0.054257, -0.077106, 0.016853, 0.014346, -0.053010, -0.052587, -0.028521, -0.076241, -0.034783, -0.004252, 0.045289, -0.028564, 0.025695, 0.016368, 0.010311, -0.017761, -0.035429, -0.043425, -0.017749, 0.044199, -0.007466, 0.041308, -0.024385, -0.010432, -0.055887, -0.020611, 0.001377, -0.068685, 0.030108, -0.025837, -0.025089, -0.011787, 0.019299, 0.052101, 0.069968, 0.016164, 0.018609, 0.091937, 0.052154, 0.102664, 0.047138, 0.094726, 0.082284, 0.045201, 0.091114, 0.007153, 0.090514, 0.081323, -0.034786, -0.054594, 0.018453, 0.034852, -0.062666, -0.060033, 0.009697, -0.057005, -0.073794, 0.012125, -0.035778, 0.054644, -0.034159, -0.013878, -0.029826, 0.018986, 0.000876, -0.016558, 0.043226, 0.027499, 0.028754, 0.007631, 0.022325, -0.026837, 0.027757, -0.040851, 0.049058, 0.031311, 0.049301, -0.032691, 0.022716, -0.031532, -0.014432, 0.002454, -0.040795, -0.088433, -0.030891, -0.055916, -0.025461, 0.018582, -0.008549, 0.028459, -0.052515, -0.047053, 0.003976, -0.086438, -0.077660, -0.023838, -0.005188, -0.051114, 0.016902, 0.053128, 0.007006, -0.012508, 0.012966, 0.089261, 0.055150, 0.078326, 0.044282, 0.045737, 0.084530, -0.031671, 0.014214, -0.035893, 0.012369, 0.007490, -0.043320, -0.048970, -0.020495, -0.032949, -0.030323, -0.053543, -0.058998, 0.005448, -0.021448, 0.019832, 0.027207, 0.012342, 0.043770, -0.042836, 0.003499, -0.045807, 0.026365},
  {-0.062959, 0.007698, 0.099247, -0.005169, 0.002256, 0.005834, 0.021891, 0.003528, -0.031114, -0.014608, -0.040867, -0.035777, -0.036489, 0.007834, 0.079148, 0.080179, 0.063051, 0.065304, 0.035283, -0.010719, 0.067026, -0.007950, -0.017678, -0.002269, -0.042541, 0.016271, 0.006825, -0.032050, -0.039176, 0.038337, 0.022172, 0.019294, -0.036927, 0.016930, -0.040973, 0.025811, 0.050967, -0.044613, -0.033687, 0.049713, -0.044606, 0.013195, -0.048565, -0.016027, 0.034284, -0.031125, 0.031183, -0.033276, 0.008461, -0.042577, -0.087861, -0.056941, 0.005746, 0.067848, 0.010208, -0.019770, -0.014526, 0.081752, 0.081092, 0.042634, 0.091537, 0.015781, 0.044036, -0.004898, 0.057896, -0.059728, 0.010544, 0.021003, 0.012658, -0.025840, -0.007612, -0.064050, -0.035604, 0.006354, -0.009942, -0.009317, 0.027031, 0.002850, 0.024269, -0.030875, -0.025145, -0.030893, 0.016784, -0.045465, 0.024811, -0.048583, -0.062061, 0.007916, 0.011528, -0.020484, 0.024971, 0.053977, 0.011344, -0.023468, -0.053920, -0.005124, -0.068707, 0.031556, 0.006143, -0.055896, -0.066359, 0.068012, 0.056745, 0.107742, 0.039066, 0.058039, -0.029704, -0.009386, 0.009581, 0.038441, 0.069487, 0.017931, -0.000308, 0.033480, 0.018214, -0.002391, -0.013430, 0.028246, -0.070802, 0.010221, 0.006713, -0.073413, -0.027122, -0.018322, 0.003290, -0.016890, -0.006291, -0.008529, -0.017899, 0.029717, 0.010798, -0.017312, 0.065738, 0.023227, 0.008573, 0.041191, 0.058200, -0.021366, 0.023733, 0.061394, -0.020106, 0.056329, 0.038422, 0.033306, 0.031354, -0.027338, -0.046797, -0.036279, -0.018987, 0.021372, 0.032344, 0.057232, -0.018840, 0.020329, -0.055552, 0.059886, -0.047237, -0.055133, 0.027151, -0.032784, 0.044235, -0.046247, 0.031734, 0.019125, -0.011647, 0.014701, -0.056551, 0.011305, 0.015300, 0.012187, -0.081133, -0.023313, -0.006997, -0.032929, 0.034718, -0.063106, 0.021070, 0.025563, -0.008023, 0.028081, 0.047687, -0.003183, 0.071243, 0.047404, 0.069779, -0.021737, 0.012654, 0.023246, -0.040823, 0.007838, 0.003168, -0.019203, 0.026447, -0.025456, 0.042244, -0.022946, -0.018435, -0.041341, -0.021646, -0.024502, 0.113952, 0.107507, 0.018184, -0.029340, -0.012246, -0.106112, -0.133620, -0.056141, -0.008063, -0.060329, -0.041376, -0.057213, -0.070325, 0.011553, -0.027186, -0.023656, -0.023400, -0.097621, -0.089112, -0.034688, -0.057380, -0.036101, -0.061565, -0.006383, -0.012222, -0.010622, -0.008427, -0.022871, 0.039541, -0.031202, 0.032178, 0.025245, -0.045042, 0.042278, 0.024249, -0.005594, 0.011173, 0.037768, 0.027886, -0.032151, -0.006250, 0.023364, -0.017498, 0.023525, -0.062769, 0.040032, -0.054469, -0.009213, -0.069782, -0.030656, -0.012416, -0.083596, 0.067409, -0.017276, 0.011404, 0.068256, 0.069816, -0.013378, 0.039067, 0.074958, -0.015973, 0.029146, -0.000123, -0.020893, 0.069001, 0.001978, 0.007075, -0.027657, 0.049864, -0.040790, 0.047597, -0.020906, 0.016206, -0.030003, -0.019233, 0.017648, 0.002070, -0.005697, -0.083809, 0.005212, 0.006664, -0.020409, -0.052736, 0.018161, 0.007107, -0.073703, 0.019186, -0.031355, 0.025770, 0.030272, -0.036492, -0.058166, 0.032818, -0.055352, -0.027255, 0.011806, -0.023952, 0.028117, -0.009720, 0.050613},
