Layer: fc1.weight
Shape: torch.Size([128, 300])
Values:
{
  {-0.090031, 0.010097, 0.007795, 0.088823, 0.092521, 0.000105, -0.016156, -0.034099, -0.061022, -0.013340, -0.022600, 0.022479, 0.013560, 0.051438, 0.021416, -0.026419, 0.055573, 0.021390, 0.022799, 0.013870, 0.033691, 0.091043, 0.070453, 0.083882, 0.002035, 0.030594, 0.042444, 0.001123, 0.021439, -0.006296, 0.010019, 0.033172, -0.010326, -0.044334, 0.001191, -0.010882, 0.004332, -0.029382, -0.074711, -0.021072, -0.013068, 0.007247, -0.057246, -0.055666, 0.032531, -0.066113, 0.006577, -0.002163, 0.004103, -0.032238, 0.153757, 0.090890, 0.112183, 0.048487, -0.007917, 0.053408, 0.083959, 0.022803, 0.049433, 0.048412, 0.040598, 0.078242, 0.023688, -0.030418, 0.070298, 0.075945, -0.041375, -0.038302, 0.017196, 0.035443, -0.008586, 0.023849, -0.030656, -0.045162, -0.010240, -0.059906, -0.051517, 0.042271, -0.062877, 0.033270, 0.040084, -0.059215, -0.024688, -0.033324, -0.049964, -0.045729, -0.039910, -0.042918, -0.010837, -0.003553, -0.020761, -0.015922, 0.043461, -0.017138, 0.052969, 0.006823, -0.005477, -0.049518, -0.011299, -0.030402, 0.262394, 0.040703, 0.031779, -0.001799, -0.002119, 0.026590, 0.076930, 0.076559, 0.045185, 0.094173, 0.024288, 0.012847, 0.029128, 0.017668, 0.000185, 0.071864, 0.000395, -0.005085, -0.013449, 0.038702, -0.069983, -0.001992, -0.028187, -0.046380, 0.032221, -0.002399, -0.025174, 0.080071, -0.018600, 0.038962, 0.020413, 0.043485, -0.014762, 0.056245, 0.031109, 0.001478, -0.044790, 0.002216, 0.047556, 0.001663, -0.034180, -0.008449, -0.024919, -0.023709, -0.046492, -0.001128, 0.008128, 0.020791, -0.012246, -0.014513, 0.025415, 0.065519, -0.042266, 0.041900, -0.007928, 0.016876, 0.043556, 0.059308, 0.094578, 0.010547, -0.025630, -0.024703, -0.003664, 0.008792, -0.024122, -0.069188, -0.060450, -0.016043, -0.032132, -0.082264, -0.041124, -0.039602, -0.062795, -0.026903, -0.086790, -0.046456, -0.024844, -0.057464, -0.015797, -0.040741, 0.045259, -0.002577, 0.020737, -0.023119, -0.031447, 0.027281, -0.000930, 0.066500, 0.023208, -0.006705, -0.008162, 0.061071, 0.009130, -0.003696, -0.044422, -0.002586, -0.002317, 0.025052, 0.074949, 0.037858, 0.106423, -0.008965, 0.012750, -0.000634, -0.008265, -0.012079, -0.062919, -0.053544, -0.045052, -0.050157, -0.058100, -0.074053, -0.056390, -0.047065, -0.018505, 0.003468, -0.052823, -0.091395, -0.016565, -0.091501, 0.002636, 0.081382, 0.047339, 0.059500, 0.129950, 0.009979, 0.034295, 0.076828, 0.003125, -0.047820, -0.066290, -0.061825, 0.047047, -0.047897, 0.014730, -0.066618, -0.030569, -0.063287, -0.002049, -0.007185, -0.033152, 0.020458, -0.056089, -0.051859, -0.045992, 0.027853, -0.037893, -0.043977, 0.040385, 0.150642, -0.227696, -0.147969, -0.095244, -0.049572, -0.053473, -0.130146, -0.107275, -0.030264, 0.019138, -0.014536, 0.016550, 0.045033, 0.056089, 0.065224, -0.012229, 0.030685, 0.056300, 0.076963, 0.000796, -0.026223, -0.036587, 0.029819, 0.042972, 0.055675, 0.064672, -0.006790, 0.018718, -0.006673, 0.108492, 0.098127, 0.012078, 0.113823, 0.058620, 0.108130, 0.106993, 0.036373, 0.057583, 0.045181, 0.096242, 0.084160, 0.044120, 0.047962, 0.091222, 0.050277, 0.036757, 0.051255, 0.002732, 0.029153, 0.100943, 0.018438},
  {-0.022472, -0.054893, -0.054883, -0.041830, -0.113335, -0.112663, -0.015422, -0.085408, 0.029389, -0.061849, -0.018002, -0.053665, -0.024693, -0.050578, -0.052560, -0.041042, 0.037388, -0.071776, -0.071109, -0.081942, -0.077134, 0.001966, -0.071764, -0.025187, -0.095691, -0.010224, -0.017116, -0.012853, -0.055328, -0.020341, 0.001557, -0.016473, 0.014400, -0.063469, -0.002368, -0.064111, -0.027519, -0.065920, -0.076100, -0.051494, -0.058965, -0.054313, -0.012672, -0.089638, -0.095078, -0.080691, -0.097177, -0.120015, -0.057322, 0.005839, 0.045498, 0.086154, 0.092207, 0.123190, 0.033964, 0.032922, 0.043470, -0.014512, -0.040989, -0.026232, 0.032681, 0.033109, -0.044498, -0.093455, -0.032660, -0.049727, -0.015828, -0.058293, -0.019843, -0.079911, -0.068309, 0.041940, 0.039860, 0.006103, 0.022014, -0.018504, 0.025557, 0.015714, 0.020674, -0.021346, 0.063516, 0.019143, 0.016454, 0.032364, -0.071708, 0.047263, -0.036596, 0.016542, 0.036347, 0.038437, -0.017758, 0.062739, 0.047826, 0.025530, -0.018039, 0.069433, 0.098473, 0.090595, 0.065419, 0.035932, 0.044265, 0.068892, 0.048969, 0.080869, 0.076477, 0.070394, 0.055767, -0.029558, -0.026113, -0.062844, -0.024296, 0.035690, -0.043675, 0.055671, -0.006757, 0.052117, 0.003396, 0.083057, 0.085975, 0.117991, 0.087040, 0.010035, 0.075087, 0.034595, 0.019164, 0.084807, 0.013587, -0.003817, -0.075642, -0.014978, -0.063161, -0.073699, -0.077234, -0.068239, -0.062121, -0.027031, -0.063689, -0.034560, -0.024780, -0.033499, -0.010834, -0.039692, -0.033877, -0.022216, 0.052376, 0.000262, -0.049734, -0.039527, -0.053089, -0.042090, 0.074816, 0.002023, 0.043295, -0.028526, -0.036530, -0.024284, -0.054499, 0.009145, -0.042261, -0.033514, -0.048969, -0.006251, -0.028364, -0.052723, -0.035601, -0.010074, -0.029972, -0.075700, -0.061191, -0.053912, -0.001063, -0.061344, -0.079256, 0.004649, 0.001311, -0.017881, 0.039732, -0.009101, -0.071122, -0.036621, 0.019459, 0.023128, -0.018621, -0.018515, -0.065314, 0.032029, 0.020229, 0.017482, 0.002866, 0.015933, 0.064476, -0.028421, 0.005553, 0.058004, 0.050650, -0.003854, -0.001761, 0.049348, -0.015372, -0.015231, 0.065441, 0.012233, 0.058564, -0.062608, -0.042884, 0.040333, -0.071043, 0.007382, -0.068892, -0.053595, 0.036445, 0.060883, -0.004701, 0.039651, -0.003834, 0.062794, 0.022733, 0.039414, 0.032442, 0.023518, -0.016165, 0.032371, 0.010402, -0.060547, -0.010814, -0.104901, -0.108496, -0.085217, -0.030302, -0.054711, -0.061343, -0.092894, -0.045017, -0.043705, -0.075936, -0.058824, -0.053440, -0.057255, -0.017339, 0.024178, 0.000542, -0.013280, 0.044981, -0.051677, 0.039850, -0.016810, 0.047145, 0.051396, 0.043042, 0.060138, -0.012979, 0.011535, -0.024925, 0.022542, 0.030573, 0.060132, 0.096171, 0.032629, 0.033479, 0.081318, 0.068975, 0.072989, 0.113071, 0.074954, -0.006466, -0.063061, -0.046983, 0.036116, 0.063620, -0.055791, -0.025752, 0.042355, 0.052018, 0.033424, -0.004265, -0.018215, 0.043376, -0.047592, -0.004849, -0.055775, -0.030828, 0.021215, -0.044168, 0.005626, -0.021044, -0.010178, -0.038145, -0.038311, -0.121171, -0.096499, -0.061809, -0.053415, -0.058836, -0.092308, -0.069234, -0.133521, -0.085549, -0.128485, -0.125940, -0.104938},
  {-0.147513, -0.097083, -0.052066, 0.043847, 0.002213, 0.011231, 0.075277, -0.001927, 0.002806, 0.012201, 0.077447, 0.023292, 0.027024, -0.052330, 0.035955, -0.052916, -0.102137, -0.051147, -0.053456, -0.115593, -0.076600, -0.056138, 0.027438, -0.023819, -0.060908, -0.064641, 0.013596, -0.056150, -0.007611, 0.011353, -0.011084, 0.021942, 0.006962, 0.004521, -0.042109, 0.007519, -0.007335, 0.003404, 0.028526, -0.044341, 0.013249, -0.024013, -0.011559, 0.091747, 0.067832, 0.088397, 0.141178, 0.140661, 0.110544, 0.058728, 0.042451, -0.085175, -0.080172, -0.075627, -0.072263, -0.000390, -0.011050, -0.047523, -0.042929, -0.019189, -0.025609, -0.021527, 0.027606, 0.000599, -0.003663, -0.027569, 0.055076, 0.067389, 0.093964, 0.059109, 0.065255, 0.034214, -0.001354, -0.022387, 0.012824, 0.002929, -0.078619, -0.007871, 0.029834, 0.013120, -0.022879, -0.008371, -0.028583, -0.086334, -0.039265, 0.016321, 0.004992, 0.054756, 0.054131, 0.097130, 0.081946, 0.002492, 0.073467, 0.017076, 0.013504, -0.009929, 0.042873, -0.007353, -0.030747, -0.075446, 0.157785, 0.022761, -0.003511, 0.003122, -0.003727, -0.047024, 0.028898, -0.034732, -0.006718, -0.063661, -0.049381, 0.011507, -0.007752, 0.007037, -0.036682, -0.092242, -0.096300, -0.112717, -0.100072, -0.113934, -0.088408, -0.118077, -0.005251, -0.019249, -0.032918, -0.054834, -0.003930, -0.072919, -0.076380, -0.027934, 0.030138, -0.011036, 0.043778, 0.036370, 0.117449, 0.006798, -0.010079, 0.027139, 0.035987, 0.023400, 0.038396, 0.058724, 0.037872, -0.005731, 0.033208, 0.100488, 0.046458, 0.109289, 0.124061, 0.000546, -0.037613, 0.049305, -0.073959, 0.019373, 0.049335, -0.040872, -0.015609, -0.001307, -0.030120, 0.013200, -0.007562, -0.040006, -0.027327, -0.080683, -0.008353, 0.019063, -0.009573, 0.040610, 0.015878, -0.026680, 0.032039, -0.047177, 0.053337, -0.017554, 0.035591, 0.092841, 0.067475, 0.097192, 0.061458, 0.023204, -0.044523, -0.084541, -0.057247, -0.066888, -0.049641, -0.061869, -0.045607, 0.005200, -0.071307, -0.009986, -0.064442, 0.042211, -0.017739, -0.109701, -0.084181, -0.062584, -0.051794, -0.021654, 0.026785, 0.020861, -0.079301, -0.173159, -0.170639, -0.119519, -0.042908, -0.026896, -0.047475, -0.084616, -0.070432, -0.034646, -0.039194, 0.014947, -0.012494, -0.073592, -0.011509, 0.015944, 0.024463, 0.001347, 0.038355, -0.009480, 0.051473, 0.070579, 0.086618, 0.077469, 0.058804, 0.087175, 0.070035, 0.075856, 0.114531, 0.132140, 0.165121, 0.189819, 0.119676, 0.148431, 0.139213, 0.072842, 0.036577, 0.015430, 0.114725, 0.045528, 0.000903, 0.048532, 0.061534, 0.008575, 0.028627, 0.034469, -0.019155, 0.000594, 0.012585, -0.066675, 0.130195, 0.071373, 0.045372, 0.047451, -0.001947, -0.009844, -0.010653, 0.023411, -0.052311, -0.111342, -0.080745, -0.112762, -0.109060, -0.067646, -0.100777, -0.064170, -0.010895, -0.056014, -0.023684, 0.060085, 0.011773, 0.061358, 0.034867, 0.116454, 0.059171, 0.160850, 0.077605, 0.087089, 0.033063, 0.037613, -0.011894, 0.098288, 0.089984, 0.045176, 0.092358, 0.088999, 0.011788, 0.066316, -0.003439, 0.000205, 0.041865, 0.036963, 0.027333, -0.001680, -0.063879, -0.024332, -0.044783, 0.030306, -0.090735, -0.076477},
  {0.063507, 0.197070, 0.078116, 0.157302, 0.119483, 0.090838, 0.019789, 0.079948, 0.011654, -0.015157, -0.079625, -0.031189, -0.047459, -0.034783, -0.036581, -0.040998, -0.012471, -0.029979, 0.006344, 0.062342, 0.050803, 0.072811, 0.007506, 0.023538, 0.036362, 0.119186, 0.079265, 0.085267, 0.064207, 0.101260, 0.088574, 0.005775, 0.003398, -0.014790, 0.026675, 0.075794, -0.035517, 0.029837, -0.008126, 0.087907, -0.022524, -0.006191, -0.038763, -0.042419, 0.027766, 0.030801, 0.031108, -0.054749, -0.030378, -0.022273, 0.045414, -0.053612, -0.078619, -0.065423, -0.066078, -0.033178, -0.130080, -0.126281, 0.036788, 0.067452, 0.053893, 0.073261, 0.023797, 0.020872, 0.004172, 0.041139, 0.057191, -0.003137, -0.013701, -0.062744, 0.043441, -0.021629, 0.069705, -0.016917, -0.007351, 0.015223, 0.043868, 0.052001, 0.009533, 0.098524, 0.013948, 0.064232, 0.092397, 0.039219, 0.076243, 0.003954, 0.045032, 0.072732, 0.071633, 0.063457, 0.066738, 0.005502, -0.010578, 0.107222, 0.059640, 0.062296, 0.052330, 0.081897, 0.005101, 0.023923, 0.161734, -0.044295, 0.077325, 0.088978, 0.050159, -0.017737, -0.012781, -0.029004, -0.083806, -0.027313, 0.034564, 0.022059, 0.054928, -0.041588, -0.028786, 0.013247, 0.004527, 0.079020, 0.019651, 0.004801, 0.031266, 0.018405, 0.023967, 0.051834, 0.074631, 0.087875, 0.126073, 0.065449, 0.075924, 0.009732, -0.005849, 0.028575, -0.028542, -0.019201, 0.025101, -0.015976, -0.005952, -0.016449, 0.011755, 0.074217, -0.023771, -0.012560, -0.017411, -0.004794, 0.044096, -0.040838, 0.014059, -0.015624, -0.084105, 0.018312, -0.124562, 0.004248, 0.092560, 0.078884, 0.048804, -0.049889, -0.026719, 0.039955, 0.058508, 0.080717, 0.063064, -0.017747, 0.019480, 0.024889, 0.037743, 0.057322, 0.036792, 0.013887, 0.065099, -0.009092, 0.042399, 0.062811, 0.068608, -0.042370, -0.066669, 0.026977, -0.047732, -0.016139, 0.008005, -0.013267, 0.019300, 0.065499, 0.029803, 0.036291, -0.014562, 0.016399, -0.065922, -0.054434, -0.025468, 0.055677, 0.017320, -0.060966, -0.085322, -0.021640, -0.142142, -0.093230, 0.000886, -0.007156, 0.011479, 0.025659, -0.048233, -0.017829, 0.050063, -0.038076, -0.045384, -0.074434, -0.047480, 0.039382, 0.062850, 0.041322, -0.038127, -0.046462, -0.037006, 0.008117, -0.019065, 0.049405, 0.096908, 0.011981, 0.036274, 0.011928, -0.008379, 0.054554, 0.057786, 0.002759, 0.020039, 0.080276, 0.005099, 0.006766, 0.042399, 0.061180, 0.031741, 0.025026, -0.076169, 0.000481, 0.024600, -0.066122, -0.057343, 0.015127, 0.041918, 0.017017, 0.005844, -0.015539, -0.014557, 0.074199, 0.031414, 0.048272, -0.034463, -0.053330, -0.026639, -0.081974, 0.007059, -0.009343, 0.100571, 0.044373, -0.033898, -0.029370, -0.068156, 0.021808, 0.019824, -0.021296, -0.034303, 0.031906, 0.101184, 0.105523, 0.112735, 0.055012, 0.069383, 0.052330, 0.047863, 0.074172, 0.080073, 0.058426, 0.083482, 0.011913, 0.063011, -0.007792, 0.006909, 0.019774, 0.027556, 0.016464, 0.069214, -0.015351, 0.054040, 0.064016, 0.029248, 0.020393, 0.087920, 0.060277, 0.047261, 0.096339, 0.044011, 0.033632, 0.084039, -0.003976, 0.111966, 0.093475, 0.068599, 0.165096, 0.180452, 0.135505},
  {-0.108011, 0.136635, 0.132025, 0.093571, 0.095536, 0.062731, 0.025751, 0.025759, -0.005937, -0.130081, -0.144251, -0.049657, -0.085392, -0.062052, -0.048977, 0.048213, 0.053240, 0.025603, 0.003936, 0.033488, 0.056271, -0.026779, -0.000722, -0.032927, 0.009707, 0.016557, -0.009069, 0.006299, 0.059790, -0.039270, 0.025218, 0.019821, -0.002330, 0.020287, 0.046022, -0.038818, -0.047090, -0.066503, 0.002189, -0.033956, 0.031560, -0.057050, -0.031690, 0.003261, -0.068846, -0.082653, -0.001960, -0.030333, -0.098768, -0.079739, 0.195846, 0.033285, 0.047756, -0.041509, -0.009108, -0.008195, -0.134132, -0.053408, -0.018345, -0.038431, -0.014670, -0.060808, -0.068691, -0.093653, -0.009939, 0.056313, -0.051063, 0.050869, 0.017876, -0.024154, 0.037062, 0.110188, 0.108404, 0.053316, 0.003670, 0.054955, 0.072053, 0.030920, -0.024916, -0.003432, 0.055846, -0.003256, -0.044939, -0.020558, -0.017909, -0.063172, 0.063000, -0.027801, -0.040800, -0.034627, 0.014980, 0.042072, -0.030471, -0.039240, -0.026127, 0.017436, -0.037462, -0.074808, -0.022516, 0.008647, 0.340618, 0.085285, 0.145472, 0.070507, 0.051426, 0.012369, -0.046956, -0.100944, -0.023871, 0.024743, 0.091291, 0.032298, -0.009416, -0.054250, -0.047536, 0.070566, 0.033796, 0.067565, 0.013653, 0.020478, 0.009456, 0.037724, -0.028830, 0.036177, 0.011353, -0.018132, 0.021939, 0.025870, 0.001368, -0.025881, -0.035936, 0.000866, -0.004895, 0.003118, -0.022795, 0.015506, -0.069570, -0.040041, 0.000093, 0.043139, -0.007496, -0.016582, -0.016237, 0.021657, -0.022182, 0.003948, -0.018858, -0.011848, -0.064348, -0.083373, 0.030291, 0.051078, 0.055478, 0.006117, 0.073989, -0.065455, -0.064303, 0.059586, -0.033471, -0.101669, -0.012286, -0.001368, -0.027696, -0.020199, -0.015743, -0.061382, -0.029288, -0.058003, -0.064520, 0.017665, -0.026933, -0.058081, -0.008338, -0.037622, -0.120670, -0.005661, 0.034555, 0.058251, 0.010225, 0.037999, -0.049372, -0.029881, 0.049239, -0.057000, 0.007474, 0.010224, 0.028209, 0.041001, -0.006907, -0.071816, -0.073843, -0.063287, -0.027346, -0.062352, -0.045190, -0.039368, -0.045972, -0.041374, 0.009897, -0.000867, -0.080416, -0.068223, -0.035569, -0.007639, -0.044796, -0.029605, -0.124981, 0.042446, 0.077996, 0.148708, 0.071644, 0.076996, 0.060162, 0.071353, 0.111674, 0.084139, 0.062471, 0.095357, 0.013731, -0.026090, 0.048564, 0.009779, 0.009302, 0.034262, 0.041227, -0.013064, -0.024500, 0.065248, 0.052669, 0.002367, 0.033424, -0.003870, -0.080558, -0.018385, -0.009039, -0.062487, 0.014868, 0.017206, -0.036873, -0.006943, -0.021439, -0.040385, -0.042915, -0.042762, -0.062900, -0.013680, -0.054293, -0.123404, -0.042949, -0.023368, -0.080380, 0.041773, 0.025811, 0.024536, 0.049110, -0.073434, -0.000193, 0.053208, 0.021267, 0.039282, -0.083292, -0.003301, -0.000055, 0.046079, 0.014418, -0.050844, 0.018886, -0.000274, 0.011836, 0.029611, 0.013576, -0.023393, -0.012234, 0.044034, 0.057329, -0.019174, 0.057938, -0.015575, 0.012764, 0.040030, 0.065720, 0.101655, 0.014246, 0.019010, 0.034151, -0.030321, 0.027842, 0.028587, 0.089291, 0.063265, -0.006521, -0.063323, 0.017730, 0.002151, 0.030362, -0.011667, -0.013117, -0.016331, 0.082156, 0.084193},
  {-0.114698, 0.016429, -0.023768, -0.026339, -0.013377, -0.032997, -0.080012, -0.062218, -0.057873, -0.126354, -0.089580, -0.073498, -0.108483, 0.005364, 0.016930, -0.008067, 0.022736, 0.055308, 0.001986, 0.014677, 0.040795, 0.089577, 0.016389, 0.089630, 0.063883, 0.037206, 0.024585, 0.062793, 0.036728, 0.098212, 0.064515, 0.077266, 0.042514, 0.033272, 0.001447, -0.019030, -0.050100, 0.012009, 0.027082, -0.039357, 0.062623, 0.005507, 0.005910, 0.045909, 0.017086, 0.030523, 0.063136, 0.034891, -0.044700, -0.015213, 0.090203, -0.036596, 0.038837, -0.041557, -0.048711, -0.029939, 0.031915, -0.044104, -0.029366, 0.063111, 0.016918, 0.057544, 0.036284, 0.032703, 0.074562, 0.110123, 0.014866, 0.084279, -0.002618, 0.085139, -0.000467, -0.025938, 0.013991, -0.023879, -0.047668, -0.018725, -0.032585, 0.015495, -0.047154, 0.015922, 0.028802, 0.001981, -0.088752, -0.120669, -0.044812, 0.049092, 0.062044, 0.021007, 0.056540, 0.021711, -0.026707, -0.040526, -0.051629, -0.055176, -0.008656, -0.024573, -0.062609, -0.073924, -0.011315, -0.032844, 0.241310, 0.028641, 0.080795, -0.023730, 0.021870, -0.036759, -0.085702, -0.055428, 0.016597, 0.006770, -0.104276, -0.031719, -0.000524, -0.037066, -0.034509, 0.003756, -0.000253, 0.053860, 0.026254, 0.014801, -0.022726, 0.052903, -0.043649, 0.017237, 0.028562, 0.001917, 0.047759, -0.042859, -0.008977, -0.047825, 0.029049, -0.016223, -0.036300, -0.004660, 0.015297, -0.001155, -0.004803, 0.014777, 0.009528, -0.036932, 0.058401, 0.062331, -0.012677, -0.026002, 0.065063, 0.013191, -0.022445, 0.007485, -0.017977, 0.019463, 0.107837, 0.003442, -0.062814, -0.028725, 0.058288, -0.028395, -0.047165, -0.065303, 0.004450, -0.034495, 0.052821, 0.087969, 0.077855, -0.013450, 0.039499, 0.023488, -0.002349, 0.010928, 0.014722, -0.061773, -0.074740, -0.146155, -0.068668, -0.129693, 0.050208, 0.034881, -0.033741, -0.061916, -0.061647, -0.076261, -0.052982, -0.015820, 0.029602, -0.099925, -0.120441, -0.027879, -0.073874, -0.002312, -0.063624, -0.086234, -0.054837, -0.070213, -0.018363, -0.018823, -0.072279, 0.017981, 0.006028, -0.024486, 0.088802, 0.051023, -0.019964, 0.046777, 0.046961, 0.041555, 0.075413, 0.059204, -0.024860, 0.074039, -0.016049, -0.043234, 0.010947, 0.055345, 0.065167, 0.049584, 0.015404, -0.042612, -0.079262, -0.058064, -0.080498, -0.044065, 0.012519, -0.033937, -0.075783, -0.020941, 0.039981, 0.016753, -0.027596, -0.011803, -0.094327, -0.012296, 0.025722, -0.036678, -0.047464, 0.006854, -0.080641, -0.035182, 0.015953, -0.105120, 0.003994, -0.045218, -0.058008, 0.034612, 0.026327, -0.062533, -0.077472, 0.001306, 0.022021, -0.026836, -0.033802, 0.095165, -0.006264, 0.001107, -0.002888, -0.018461, 0.010580, -0.041443, 0.020186, -0.068173, -0.059569, -0.003848, 0.007724, -0.048359, 0.017967, -0.016296, 0.086230, 0.112208, 0.086352, 0.059111, 0.071444, 0.111294, 0.108079, 0.175313, 0.196075, 0.200366, 0.163893, 0.109811, 0.090279, 0.044772, 0.092686, 0.109577, 0.050242, 0.000087, 0.088628, 0.021736, -0.067176, -0.080189, -0.000288, 0.048947, 0.091385, 0.078877, 0.050407, 0.085854, 0.018143, 0.083470, 0.003250, 0.031283, 0.118060, 0.115013, 0.021634, 0.033340},
  {-0.111945, 0.165696, 0.158255, 0.091990, 0.061545, 0.005699, -0.007000, -0.073433, -0.059325, -0.157573, -0.150092, -0.104362, -0.135250, -0.025650, -0.041655, -0.028699, -0.032737, -0.040077, 0.021368, -0.000231, -0.008248, 0.085211, -0.011598, 0.012961, 0.039343, 0.051895, 0.078736, 0.055750, 0.057452, 0.060078, 0.015348, -0.000207, -0.005510, -0.001401, -0.015814, -0.075235, -0.060632, 0.034961, -0.037048, -0.024140, 0.055794, -0.004748, 0.040038, -0.029363, -0.064171, -0.009413, -0.036550, -0.072511, -0.037955, -0.078569, 0.172852, -0.016615, -0.018941, 0.033249, 0.067103, -0.009782, 0.077974, 0.049902, -0.006145, 0.045544, -0.059977, 0.012042, -0.114773, -0.056385, -0.025406, -0.018581, -0.092400, -0.041375, -0.059214, 0.000000, 0.025351, -0.045251, -0.056613, -0.067763, 0.034394, 0.038826, 0.090766, 0.043234, 0.047667, 0.035935, -0.035497, -0.082368, -0.045651, 0.031986, -0.046122, 0.033952, 0.024646, -0.029598, 0.004324, 0.011438, -0.100493, -0.023785, -0.088808, -0.052866, -0.128473, -0.060581, -0.124311, -0.078917, -0.099822, -0.070285, 0.264655, 0.008428, -0.014201, 0.012029, -0.092925, -0.041851, -0.017072, -0.101290, -0.026336, 0.015672, -0.091472, 0.032563, 0.044903, 0.014060, -0.016341, -0.018540, -0.015520, -0.069633, -0.046492, -0.060451, -0.015849, -0.050660, -0.010461, -0.013562, -0.039217, 0.053363, -0.045500, 0.016171, -0.020196, -0.062002, -0.026713, 0.002021, -0.026821, -0.013358, -0.021682, -0.028564, -0.026691, -0.034638, 0.006265, 0.029969, 0.017814, 0.025195, 0.012720, -0.003953, -0.057901, -0.005289, -0.033305, -0.039407, -0.119913, -0.078451, 0.084837, 0.071747, -0.052502, -0.105130, -0.067305, -0.000488, -0.029134, -0.007497, -0.030317, -0.034353, -0.036342, -0.034859, -0.069122, 0.015161, 0.000128, 0.043552, 0.026112, 0.019080, 0.030125, 0.040367, -0.048461, -0.084331, 0.008841, -0.030625, 0.010118, 0.052238, -0.101243, -0.010422, -0.067611, -0.021809, -0.058395, -0.055359, -0.003720, -0.008708, -0.004791, -0.029686, -0.064238, 0.011285, -0.004273, -0.056495, -0.054313, -0.106992, -0.103529, -0.030433, -0.002630, 0.021446, 0.036678, 0.018297, 0.061617, -0.026650, -0.218423, -0.055363, -0.035580, 0.071532, 0.020703, 0.092991, -0.039287, 0.016758, 0.094834, 0.093685, 0.085280, 0.091685, 0.102689, 0.085569, 0.058331, 0.034751, -0.010305, 0.004278, -0.003950, 0.049729, 0.060385, 0.025083, -0.014488, 0.017761, 0.022670, -0.058846, -0.041672, -0.020782, -0.005467, 0.070269, -0.005093, -0.000756, -0.001342, -0.061680, -0.049394, 0.004188, -0.069644, -0.020079, 0.035474, 0.065783, -0.032044, -0.026831, 0.023616, -0.080726, -0.006677, -0.024944, -0.096425, -0.037371, -0.077615, -0.011979, -0.000281, -0.100925, -0.077513, -0.019342, -0.068490, -0.040469, -0.044886, 0.076098, 0.023008, -0.048726, -0.025383, 0.015305, 0.032842, 0.024618, -0.003609, -0.013426, -0.020855, -0.068755, -0.070298, -0.053145, 0.023064, -0.045393, 0.011788, -0.037291, -0.081801, 0.003467, -0.038835, 0.048249, -0.007908, 0.008738, 0.048133, 0.011018, -0.049591, -0.018444, -0.045054, -0.034077, -0.019366, -0.016362, -0.023803, 0.019972, -0.022786, 0.057986, 0.046571, -0.009154, 0.035938, 0.083043, 0.015136, 0.015582, 0.093415, 0.016586},
  {-0.016780, -0.070329, 0.006852, -0.040330, 0.003714, 0.019231, -0.062326, -0.036486, 0.015337, 0.029571, 0.049139, 0.000352, 0.012321, -0.021851, -0.011058, -0.015390, -0.016403, 0.048242, 0.070054, 0.010647, 0.056218, -0.031783, 0.045578, 0.030819, 0.024114, 0.050520, -0.011968, 0.015688, 0.028106, 0.046894, 0.008175, -0.025659, 0.033998, 0.017766, 0.040985, 0.031127, -0.006567, 0.008575, -0.060105, -0.052138, -0.014965, -0.043904, 0.022570, 0.033078, 0.050683, -0.021362, 0.005820, 0.033966, 0.018064, 0.000097, -0.078508, 0.107998, 0.053656, 0.034432, -0.133865, -0.179550, -0.079028, -0.010523, 0.015496, -0.066496, -0.038559, 0.019457, 0.090446, 0.029199, 0.064516, -0.012518, 0.067749, -0.026593, 0.012434, -0.016416, 0.023943, 0.028738, 0.100395, 0.056339, 0.029032, 0.110551, 0.089533, 0.057846, 0.075937, 0.017488, 0.030496, 0.037619, -0.007201, 0.019859, 0.044295, 0.076400, 0.051772, 0.012292, 0.028944, 0.032910, 0.014820, -0.027013, 0.036294, 0.000119, 0.015157, 0.052780, -0.013947, 0.023894, 0.003263, 0.027295, -0.145137, -0.010610, -0.102915, 0.004298, -0.021316, -0.030568, -0.069123, 0.002747, -0.056661, -0.051353, -0.013058, -0.033885, -0.082000, 0.001983, -0.029492, 0.046539, 0.040587, 0.081158, -0.009445, -0.022862, -0.022058, 0.052063, 0.021681, 0.022691, -0.033553, -0.048575, 0.018414, 0.013700, -0.025698, -0.018912, 0.038673, -0.032868, 0.051637, -0.050809, -0.031100, -0.043914, -0.067867, -0.050314, -0.032484, 0.013625, -0.057914, 0.027844, -0.033475, 0.008475, 0.030789, 0.000456, -0.056908, -0.090376, -0.000906, -0.051388, 0.009692, -0.047996, 0.040015, -0.033320, -0.122681, 0.037579, 0.112243, 0.144100, 0.027475, -0.074637, -0.109054, 0.065466, 0.047236, 0.108221, 0.029210, 0.057587, 0.070401, 0.113372, 0.020709, 0.051618, 0.023864, 0.009337, -0.025215, 0.034248, -0.009329, 0.001288, -0.016189, 0.065006, 0.035639, 0.026812, 0.043829, 0.033274, -0.021848, -0.003717, 0.043766, -0.018107, -0.003917, -0.053023, -0.049436, 0.067229, 0.079500, -0.013956, 0.047709, 0.056140, -0.005938, -0.016555, 0.008167, -0.003108, -0.009290, -0.071296, 0.010746, 0.044605, 0.097141, -0.017061, -0.025959, 0.025220, 0.084483, 0.033085, -0.039816, 0.049930, -0.027408, -0.041832, -0.043937, -0.074216, 0.029520, -0.006615, -0.065434, 0.012925, 0.006596, -0.010365, -0.078478, -0.049105, -0.077615, 0.008529, 0.026647, -0.060600, 0.003882, 0.003696, 0.034676, -0.034570, -0.032745, 0.029235, -0.011892, -0.030379, -0.056865, -0.005262, 0.045921, -0.039812, -0.054850, -0.031082, 0.006775, -0.026792, 0.020058, -0.089467, -0.081129, -0.029629, -0.056056, -0.083581, -0.048254, -0.017883, 0.139384, 0.115305, 0.073903, 0.104133, 0.061594, 0.166773, 0.103222, 0.128458, 0.082071, 0.007977, -0.016464, -0.017393, 0.025087, 0.070227, 0.022916, -0.051686, 0.010587, -0.011644, -0.054355, 0.064030, 0.018851, -0.030987, -0.020958, 0.010362, -0.048213, 0.026190, 0.006026, -0.066205, -0.016354, -0.020466, -0.075643, -0.039346, -0.011261, -0.074945, -0.072885, 0.045217, 0.015055, 0.074609, -0.002834, -0.019058, -0.006489, 0.027700, 0.064288, -0.043920, 0.042955, 0.030256, -0.021595, 0.027187, -0.003643, -0.054378},
  {-0.037037, -0.023277, -0.012223, 0.031360, 0.029262, -0.008419, 0.016207, -0.031702, -0.052895, -0.041580, 0.053930, -0.030087, -0.006273, -0.048133, 0.025741, -0.031190, -0.129956, -0.131293, -0.056784, -0.063984, -0.115090, -0.114859, -0.039073, -0.066090, -0.109051, -0.089605, -0.113200, -0.084126, -0.157564, -0.066506, -0.142997, -0.072081, -0.073684, -0.083069, -0.091453, -0.054967, -0.091627, -0.058059, -0.074577, -0.023787, -0.037740, -0.035030, -0.075285, 0.001620, -0.052643, -0.040001, -0.093116, -0.056904, -0.127869, -0.119924, -0.082604, -0.108920, -0.049670, -0.096087, -0.006399, -0.066980, 0.101545, 0.069776, -0.042159, -0.058233, -0.005483, 0.055453, -0.018972, -0.036804, -0.133643, -0.057789, -0.033126, -0.006666, 0.005615, -0.049403, -0.007145, 0.038716, 0.070286, 0.042462, 0.050580, 0.055088, 0.008537, 0.082395, 0.117422, 0.023630, 0.067081, 0.025259, 0.056523, 0.094477, 0.089685, 0.001666, 0.086811, -0.012891, 0.090576, -0.024869, 0.029055, 0.028892, 0.021745, 0.038554, -0.025838, -0.049186, 0.005510, 0.006508, 0.065273, 0.034174, -0.020752, -0.051546, 0.014600, 0.034926, 0.001135, -0.010391, -0.082117, -0.026735, -0.055065, -0.136029, -0.086857, -0.091677, -0.055664, -0.018167, -0.140545, -0.118092, 0.021118, 0.037364, 0.067826, 0.092893, 0.004871, 0.002842, 0.080658, 0.069749, 0.043165, 0.117788, -0.000609, -0.020380, -0.024233, -0.004244, -0.013748, -0.094015, -0.099834, -0.020113, -0.085924, -0.056881, -0.014005, -0.084659, -0.012783, -0.061536, -0.058941, 0.020648, -0.091742, -0.065267, -0.007670, -0.061829, -0.087858, -0.026847, 0.069395, -0.000404, 0.004551, 0.031087, 0.038396, 0.033750, 0.005400, 0.031388, -0.045485, -0.094735, -0.032221, 0.038026, 0.151965, -0.022182, -0.108327, -0.144803, -0.053874, 0.016130, 0.046138, -0.029095, -0.053236, -0.077100, -0.084315, -0.130648, -0.146388, -0.081807, 0.006875, -0.020171, -0.016055, -0.058081, -0.050455, -0.060650, 0.016743, -0.098913, -0.080018, 0.028194, -0.045324, 0.058893, 0.044315, -0.031957, 0.026372, -0.013795, 0.008429, -0.055905, -0.114581, -0.055142, -0.043676, 0.013021, 0.029036, -0.000642, 0.058395, 0.047005, 0.021042, 0.057003, -0.108886, -0.020200, -0.042486, -0.007995, -0.096273, -0.127216, -0.043116, -0.043480, 0.052768, 0.053268, 0.049656, -0.016864, 0.061454, 0.069967, 0.154859, 0.086729, 0.029090, 0.098799, 0.002358, -0.007110, 0.054854, 0.059135, 0.067269, 0.077399, 0.056671, -0.044637, 0.001219, -0.018578, 0.007437, 0.040261, 0.045569, 0.056611, 0.041569, 0.038808, 0.046098, 0.051276, -0.032295, -0.031717, 0.013294, -0.040824, 0.038109, -0.047185, 0.014315, 0.008705, -0.017343, 0.030146, -0.051298, -0.067894, 0.088232, 0.035016, 0.072960, 0.127311, 0.001978, 0.055609, 0.048573, 0.029633, 0.042862, 0.041562, 0.102390, 0.054539, 0.071782, 0.042207, 0.029505, 0.009857, -0.000974, 0.014137, -0.045337, -0.073238, -0.035169, -0.071859, 0.006461, -0.003479, -0.024259, 0.027111, 0.009517, 0.040180, -0.025289, 0.057043, -0.038083, 0.058378, 0.007723, 0.050905, 0.058173, 0.009956, -0.024670, -0.060981, -0.063033, 0.001602, -0.053014, -0.062878, -0.047085, -0.084245, -0.032514, -0.086889, -0.065633, 0.004258, -0.040177, -0.016720},
  {-0.094554, 0.034992, 0.057163, -0.015652, 0.018012, -0.028724, 0.037724, 0.073368, 0.051020, 0.035987, -0.041542, 0.046001, 0.002382, -0.063286, -0.010602, 0.007013, -0.027278, 0.020707, -0.021014, -0.041692, -0.016572, -0.063347, -0.004075, 0.023272, -0.041673, -0.004185, -0.037195, -0.028478, -0.021414, 0.008747, -0.035546, -0.033162, -0.002496, -0.057704, 0.026496, 0.010323, 0.030700, -0.039927, -0.055347, 0.020348, 0.021706, -0.068934, -0.067637, -0.016753, -0.089047, -0.033353, -0.070550, -0.078784, -0.028044, 0.011788, -0.112229, -0.043397, -0.050739, 0.007568, -0.037845, -0.044818, 0.058173, 0.001727, 0.006481, -0.017531, 0.070215, 0.025704, 0.047591, 0.146276, 0.025741, 0.064313, 0.101085, -0.012885, -0.046917, -0.001867, -0.045847, 0.012790, -0.018473, 0.037322, -0.021008, -0.067227, -0.043009, -0.038276, 0.051940, 0.033924, 0.076281, 0.113676, 0.055125, 0.044958, 0.044377, 0.032956, 0.022038, 0.039509, 0.031941, -0.053951, -0.083723, 0.022772, -0.002703, 0.043135, -0.051583, -0.006534, -0.036437, -0.072895, -0.034339, 0.009543, -0.158285, -0.115959, -0.116148, -0.071065, 0.005512, 0.016869, -0.040942, 0.018156, 0.015703, 0.028781, 0.077048, 0.060141, 0.040376, 0.033897, -0.014236, -0.018406, -0.035318, 0.034854, 0.065573, -0.044872, -0.037922, -0.047152, 0.015971, 0.033678, 0.037780, 0.078963, 0.051411, 0.006566, 0.028805, -0.016181, -0.046738, 0.007983, 0.040777, -0.025510, -0.028105, 0.019498, 0.002248, 0.079063, 0.035426, -0.007125, -0.024013, -0.054830, 0.047535, 0.045182, -0.032804, -0.039410, -0.010849, 0.001861, 0.040150, 0.003677, -0.041501, -0.032619, -0.057437, -0.088635, -0.048382, 0.015529, 0.030775, 0.035967, -0.024191, -0.108116, -0.034211, 0.029322, 0.168628, -0.010116, -0.118963, -0.124156, -0.072831, -0.044973, -0.017251, 0.033973, 0.029289, -0.037571, 0.045223, 0.032113, 0.089094, 0.014462, 0.049623, -0.022250, 0.019481, 0.015542, 0.086266, 0.071870, -0.071360, -0.062375, -0.070779, -0.081467, -0.040367, 0.013837, -0.076606, 0.032412, 0.085812, 0.058014, 0.151004, 0.016641, -0.038251, -0.046180, -0.035605, -0.022019, 0.009339, 0.033577, 0.043959, -0.035343, 0.077724, 0.021397, 0.008964, -0.003866, 0.100107, 0.037441, -0.028354, 0.038318, 0.057001, -0.081385, -0.078895, -0.096940, -0.115308, -0.041004, -0.150342, -0.023446, -0.014632, -0.048234, -0.039802, -0.041510, -0.028344, 0.007346, -0.010963, -0.061649, -0.065865, -0.064014, -0.049423, -0.078968, -0.079600, 0.010089, -0.076089, -0.110286, -0.070258, 0.008496, -0.002898, -0.051631, -0.041418, -0.079441, -0.082931, -0.123273, -0.031399, -0.095373, -0.120489, -0.074800, -0.148364, -0.131654, -0.074603, -0.109492, 0.202793, -0.023529, -0.006810, -0.049106, 0.009076, 0.011114, 0.026621, 0.000124, 0.080136, 0.079331, 0.039913, 0.001607, 0.025526, 0.026111, -0.012804, 0.017583, 0.029457, -0.018554, -0.031517, -0.027457, -0.025075, -0.054431, -0.010151, -0.042691, 0.054071, -0.044532, 0.008930, -0.021519, -0.070945, -0.052883, -0.054493, 0.015361, -0.113181, -0.040260, -0.090541, -0.056551, -0.061667, -0.070556, 0.013151, -0.041846, -0.064588, -0.013622, 0.007450, 0.014947, -0.013006, -0.045607, -0.060427, -0.027349, -0.013938, 0.018139},
  {-0.044110, -0.171934, -0.143664, -0.114004, -0.126999, -0.054124, -0.072485, -0.049915, 0.033301, 0.060382, 0.092482, 0.059181, -0.008876, -0.015990, -0.050010, 0.018157, 0.012179, -0.001968, 0.107968, 0.013962, 0.079071, -0.005262, 0.052744, 0.000771, -0.004108, 0.066938, 0.038407, 0.008722, 0.096874, 0.053451, 0.063004, 0.083366, 0.018654, 0.036438, -0.052439, -0.070160, 0.032866, 0.028390, 0.008247, -0.025555, 0.006275, -0.040002, -0.015578, 0.051694, 0.010328, -0.029852, -0.023768, 0.036208, 0.017894, 0.086132, -0.000881, 0.049291, 0.034842, -0.067383, -0.081352, -0.140681, -0.126220, -0.080410, -0.007036, -0.039444, 0.023623, 0.002117, 0.014348, 0.059075, 0.112386, 0.095206, 0.127272, 0.018123, -0.036963, 0.050738, 0.088831, 0.126305, 0.064643, 0.024394, 0.077224, 0.010399, -0.022628, 0.024557, 0.049055, 0.036621, -0.005269, 0.016545, 0.040202, -0.058368, 0.013771, 0.048311, 0.076485, -0.012865, 0.055607, 0.019088, 0.026929, -0.004504, -0.025040, 0.033911, 0.026586, 0.007870, 0.077359, 0.064977, 0.040042, 0.013468, -0.152762, 0.079728, -0.013374, -0.061489, 0.004498, 0.017191, 0.008866, 0.040520, 0.058783, -0.010944, 0.101331, 0.027637, 0.044978, 0.003206, 0.028304, 0.040370, -0.080023, 0.010303, 0.004092, -0.010027, -0.011558, -0.018306, 0.032233, -0.033233, -0.041220, -0.005840, 0.017703, 0.001154, 0.014582, -0.081613, -0.024357, -0.047604, -0.137764, -0.079346, -0.008410, -0.023346, -0.041986, -0.083087, 0.011352, -0.074267, -0.073190, -0.008128, -0.015290, -0.063669, 0.011490, 0.004181, -0.054203, -0.032893, 0.027848, 0.010999, -0.012703, -0.050896, -0.047905, -0.031020, -0.056198, -0.033273, 0.007007, -0.014865, 0.006723, 0.042090, 0.014931, 0.034461, 0.013985, 0.000753, 0.052206, 0.051652, 0.076198, 0.047476, 0.036400, 0.037199, -0.005491, -0.001475, 0.121560, 0.004885, 0.044785, 0.078648, 0.073377, 0.025117, -0.002414, 0.017781, 0.052745, 0.017497, -0.015817, 0.006019, 0.035494, 0.046697, 0.000381, -0.003440, 0.050755, 0.055391, 0.018127, 0.022996, 0.013528, -0.040634, -0.048992, 0.023538, 0.032120, 0.027808, -0.005723, 0.054806, 0.090265, 0.088596, 0.060626, 0.079454, 0.028740, 0.040508, 0.014674, -0.061928, -0.009879, -0.041028, 0.016397, -0.063695, -0.104145, -0.081577, -0.113493, -0.149954, -0.132893, -0.150139, -0.063951, -0.070342, -0.106285, -0.103637, -0.067072, -0.093462, -0.152298, -0.106027, -0.008792, -0.020951, -0.004674, -0.073992, -0.048629, -0.021827, 0.055258, 0.053450, 0.032856, -0.009947, -0.028779, -0.013078, -0.011072, 0.032206, -0.017787, 0.030031, 0.028555, -0.009222, 0.013034, 0.025765, -0.037482, 0.051157, -0.057084, 0.013702, 0.121584, 0.181932, 0.131491, 0.132538, 0.078518, 0.084608, 0.067036, 0.058729, 0.048161, 0.039611, 0.079658, 0.135949, -0.016501, -0.059578, 0.024968, -0.024934, 0.029932, 0.002537, 0.013763, -0.022589, -0.043439, -0.068065, 0.004941, 0.057841, 0.090197, 0.071821, 0.058777, 0.013385, 0.039923, -0.046300, -0.048268, -0.021741, 0.000007, -0.003419, -0.079798, -0.062106, -0.007986, -0.033191, 0.031394, 0.034120, -0.036565, 0.008263, 0.027402, 0.019188, -0.019119, 0.018227, 0.073068, 0.062533, -0.030220, 0.014711},
  {0.063369, 0.136678, 0.047659, 0.045864, 0.079943, 0.014637, 0.016382, -0.051491, 0.058100, 0.032719, -0.022557, -0.037115, -0.052518, -0.009274, 0.089591, 0.025261, -0.002212, 0.009953, -0.015751, 0.039840, -0.048238, 0.007726, -0.034876, 0.032469, 0.049974, 0.022509, 0.042839, -0.005270, -0.016165, -0.015684, 0.033566, -0.019547, -0.020329, -0.027157, 0.032574, 0.035221, 0.005295, 0.037401, 0.074759, 0.014664, -0.044356, -0.052252, -0.041585, -0.063583, 0.006446, -0.025239, 0.007109, 0.003555, 0.000996, 0.029841, -0.105576, -0.073583, 0.007215, 0.062576, 0.014799, 0.002753, 0.051093, 0.035373, -0.070459, -0.091510, 0.013038, 0.025075, 0.012021, 0.069312, -0.070961, -0.135824, -0.131904, -0.029218, 0.069104, 0.023500, -0.073615, -0.068947, -0.008934, -0.010970, -0.014933, -0.071759, -0.067624, -0.082216, 0.015260, -0.012966, -0.055592, -0.047911, -0.051758, 0.008063, 0.033647, 0.057921, 0.005549, 0.064821, 0.047955, 0.038667, -0.009297, -0.002562, -0.000226, 0.038682, 0.006114, 0.011662, 0.063156, 0.029485, 0.090714, 0.028263, -0.128363, -0.007214, -0.023491, 0.034326, -0.035646, -0.108390, -0.020549, 0.010185, -0.008388, -0.070778, -0.132239, -0.045910, -0.136488, -0.089806, -0.037233, -0.085078, -0.089344, -0.035830, -0.024663, -0.065415, -0.046114, -0.087196, -0.085558, -0.042098, -0.047050, 0.005047, -0.024925, -0.039201, -0.040302, -0.024755, 0.017025, 0.085623, -0.019452, 0.138178, 0.070146, -0.033698, 0.061280, 0.006602, 0.031506, 0.066434, -0.001442, -0.042801, 0.005943, -0.064874, 0.045809, -0.040285, 0.017943, -0.036432, 0.050828, 0.005175, -0.080640, 0.079306, 0.078549, -0.019981, 0.008128, 0.068336, -0.043030, -0.046434, -0.134290, 0.057467, 0.111098, 0.030281, -0.067510, -0.143393, -0.068941, -0.073449, 0.073986, 0.158552, 0.164829, 0.116345, 0.083463, 0.075217, -0.025604, -0.025835, -0.064997, -0.170017, -0.090257, 0.075652, 0.080352, 0.030174, -0.056116, -0.108082, 0.007461, 0.085895, 0.137006, 0.016130, -0.037981, 0.006442, -0.055561, -0.027365, -0.064373, -0.067852, -0.005428, -0.017666, 0.028019, 0.102400, 0.004179, 0.017083, -0.001236, -0.059922, 0.013829, -0.005381, -0.063378, 0.024096, -0.082267, -0.015999, 0.127900, 0.010603, -0.113606, -0.014594, 0.085115, -0.046689, -0.034082, 0.065159, 0.142231, 0.180237, 0.165353, 0.092634, 0.093740, 0.079720, 0.006423, 0.024369, -0.010790, 0.009122, -0.000682, 0.046732, 0.033237, -0.048040, -0.004658, 0.052328, 0.029714, 0.061604, 0.089437, 0.083830, 0.072065, 0.038965, 0.007800, -0.015028, 0.008742, 0.043121, 0.009635, 0.067615, -0.008438, 0.039351, 0.030519, 0.036505, 0.004766, 0.008583, 0.019696, 0.032857, 0.082240, 0.101214, 0.061861, -0.027638, -0.029477, 0.003606, 0.013978, -0.057192, -0.014410, 0.011671, 0.003852, -0.060669, -0.035661, 0.047692, 0.011668, -0.034520, -0.012007, -0.046328, -0.002224, 0.044757, -0.037833, -0.077595, -0.049194, -0.054097, -0.043583, -0.078576, -0.026238, -0.024668, -0.015053, -0.027281, 0.052549, 0.017302, -0.077054, 0.011105, 0.096191, 0.069650, 0.035658, -0.030823, 0.018638, 0.046955, 0.025728, 0.075069, -0.024954, -0.023635, -0.047767, -0.007543, 0.006021, 0.049204, -0.025618, -0.019752},
  {0.002608, 0.061571, -0.005740, 0.074822, 0.056766, 0.095532, 0.097038, 0.131335, 0.129462, 0.110097, 0.140085, 0.089844, 0.025830, 0.049151, 0.073292, 0.049244, 0.038374, 0.005866, -0.058292, -0.053483, -0.017926, -0.073251, -0.079916, -0.116434, -0.082746, -0.103472, -0.084013, -0.006761, -0.080365, -0.003895, 0.002661, -0.067854, -0.070678, -0.060935, -0.009530, -0.038873, 0.004517, 0.060256, 0.004054, 0.076522, -0.006098, 0.016113, -0.011116, -0.033599, 0.028884, 0.043010, -0.009138, 0.077300, -0.007201, -0.010840, 0.036653, -0.057465, -0.071899, -0.099596, -0.061259, -0.065276, -0.087362, -0.094611, -0.016911, -0.014979, -0.054616, 0.007660, 0.025761, 0.053897, 0.136088, 0.074076, 0.079526, 0.092565, 0.123347, 0.068687, 0.078702, 0.036880, 0.047553, 0.022358, -0.041753, 0.005972, 0.029606, -0.047646, 0.024411, -0.030430, 0.035690, 0.029238, 0.011990, -0.002213, -0.012341, -0.043828, -0.076894, -0.029595, -0.028230, 0.018894, -0.032503, 0.003544, 0.015653, -0.020338, 0.016457, -0.007532, -0.006978, -0.078441, -0.113378, 0.003942, -0.026767, 0.067101, 0.005787, 0.003050, -0.011369, 0.124293, 0.135824, 0.082892, 0.058661, 0.037618, 0.005314, 0.098545, 0.044809, 0.016315, 0.001342, -0.065941, -0.021992, -0.014177, -0.104060, -0.026040, -0.007311, -0.114371, -0.009779, -0.068188, -0.038677, -0.078458, -0.000942, -0.046797, 0.004781, 0.029217, -0.042888, 0.003361, -0.015365, 0.010639, -0.014619, 0.039822, 0.025547, -0.013105, 0.087973, 0.040079, -0.001602, 0.047229, 0.073039, 0.058605, -0.015966, -0.038760, 0.001863, -0.039644, 0.034343, 0.058704, -0.014491, -0.037381, -0.054799, -0.012921, -0.056019, -0.007316, 0.039369, 0.030872, 0.060543, 0.021194, 0.040892, 0.036717, -0.025506, 0.073770, 0.014679, 0.047810, 0.076208, 0.019072, 0.055684, 0.037503, 0.118864, 0.007349, 0.057130, 0.093815, 0.043480, 0.003052, 0.047684, 0.085847, 0.065066, 0.071286, 0.055215, -0.028729, -0.010391, -0.047646, -0.011440, -0.067331, 0.001987, -0.045052, -0.033296, 0.004906, -0.055124, 0.029156, -0.012364, 0.042687, -0.037217, -0.002660, 0.046189, 0.016867, 0.036775, 0.083049, 0.044551, 0.108098, 0.058428, 0.046391, 0.032723, 0.036497, -0.066197, -0.052458, -0.027618, -0.026826, -0.128295, -0.050217, -0.140319, -0.106083, -0.176232, -0.104877, -0.085208, -0.132913, -0.036979, -0.023004, -0.036108, -0.082234, -0.017561, -0.060363, -0.063766, -0.028785, -0.013580, -0.021112, -0.012369, -0.111484, -0.084714, -0.034510, -0.041841, -0.083227, -0.003239, -0.062519, -0.022518, -0.065844, -0.041706, -0.015584, 0.003923, -0.100465, -0.068273, -0.029814, -0.060626, -0.112536, -0.048827, -0.075362, -0.082224, -0.057026, 0.119158, 0.164460, 0.049620, 0.008487, 0.024271, 0.074125, 0.051606, -0.105062, -0.107128, -0.100617, -0.057214, -0.038743, -0.125710, -0.140663, -0.131162, -0.122728, -0.046874, -0.037598, -0.051343, -0.040876, -0.031951, 0.037646, 0.026957, 0.036132, 0.070391, 0.006045, -0.081225, -0.066018, -0.028567, -0.028115, 0.012257, 0.084492, 0.027004, -0.022613, -0.003879, -0.022512, 0.069063, -0.041289, 0.047636, -0.035717, 0.006680, 0.028149, -0.063742, -0.043269, -0.024988, -0.075153, -0.035658, -0.036371, -0.051790, -0.105466},
  {0.078293, 0.082609, 0.126818, 0.094475, 0.126647, 0.115320, 0.093896, 0.100890, -0.038062, 0.039734, 0.052538, 0.024783, 0.031638, 0.044680, -0.014838, 0.023221, 0.002602, -0.085766, -0.020077, -0.047802, -0.106714, -0.099360, -0.103940, -0.067098, -0.038794, -0.055132, -0.025205, 0.014506, -0.041945, 0.015122, -0.065232, -0.040252, 0.028169, -0.007077, -0.010212, -0.036679, 0.021379, 0.021729, -0.045831, -0.014383, 0.033201, -0.047375, 0.027945, -0.036195, 0.029234, -0.005357, -0.038982, -0.001577, 0.019006, 0.001770, 0.081403, -0.064803, -0.013130, 0.036060, -0.031479, -0.025592, -0.075257, -0.102724, -0.058649, -0.064525, -0.055869, -0.124055, -0.100799, -0.129820, -0.098367, -0.085824, -0.102594, -0.006719, -0.058299, 0.021738, -0.053331, 0.081045, 0.028373, 0.001331, 0.037373, 0.033696, 0.062303, -0.051062, 0.000644, -0.040604, 0.020741, -0.029273, 0.017509, -0.034837, -0.040326, -0.092056, 0.007860, -0.035740, 0.055689, 0.007085, 0.065769, 0.002631, 0.013470, 0.031320, 0.006770, 0.032049, 0.019938, 0.031867, 0.061555, 0.069908, 0.067345, 0.021833, 0.109595, 0.095960, 0.053174, 0.039879, 0.056763, 0.040991, 0.039433, 0.051718, 0.105230, 0.083485, 0.093233, 0.080444, 0.052043, 0.077752, 0.036513, -0.027560, 0.059414, 0.048017, 0.068571, -0.015907, 0.054825, -0.021753, -0.015125, 0.049935, 0.061023, -0.006064, 0.043746, -0.046326, 0.015892, -0.013819, -0.010798, 0.055891, -0.007908, -0.049199, 0.043183, 0.000494, 0.000642, -0.058158, 0.036192, -0.074008, -0.078427, -0.018333, 0.037939, 0.004564, -0.070215, -0.010389, -0.003142, -0.075819, -0.060983, 0.035931, -0.010354, -0.089359, -0.035755, 0.003371, 0.000955, 0.037499, -0.044346, 0.032233, 0.023545, -0.043549, 0.042001, 0.074327, 0.042634, 0.083357, 0.055921, 0.054665, 0.046720, -0.037472, -0.083474, 0.042580, -0.089565, 0.025091, -0.045239, -0.000641, -0.039353, -0.064377, -0.025947, 0.002794, -0.066981, 0.034466, -0.061415, -0.018917, 0.019764, 0.049788, 0.021208, -0.028662, -0.018447, 0.054440, 0.023424, -0.052896, 0.056464, 0.018206, -0.056386, 0.031332, 0.057604, 0.065718, 0.038484, 0.018416, -0.087947, -0.050301, -0.062215, -0.110173, 0.037529, -0.009120, -0.090850, -0.086115, -0.012242, 0.022828, 0.007983, 0.049000, -0.025058, 0.066169, 0.022407, 0.063898, 0.059590, 0.040397, 0.056849, 0.029285, 0.054159, 0.059733, 0.002566, -0.005936, 0.028696, -0.020672, -0.021414, -0.026345, -0.013354, 0.009249, -0.023826, -0.028754, 0.033904, 0.030324, -0.027062, -0.028883, -0.066789, -0.011889, -0.049208, -0.040309, -0.088148, -0.027906, -0.114118, -0.025046, -0.096618, -0.106497, -0.034479, -0.062623, 0.024899, -0.071034, -0.032934, 0.006890, -0.007097, -0.062656, 0.038418, 0.039447, 0.022905, 0.011424, -0.018031, 0.014345, 0.079989, 0.088753, 0.001204, 0.060642, 0.015378, 0.060790, -0.049740, -0.029392, -0.024729, 0.021997, 0.016056, 0.002909, 0.078267, 0.029033, 0.090921, -0.018850, 0.063458, 0.067015, -0.005376, 0.012340, 0.055213, 0.059832, 0.048208, 0.059909, 0.073953, 0.032818, 0.058004, -0.014168, -0.025520, -0.051853, 0.040750, -0.041617, 0.026167, -0.061504, -0.037543, -0.056799, 0.030124, -0.029477, -0.019715, 0.019324},
  {0.079605, 0.087507, 0.097895, 0.113962, 0.143465, 0.064092, 0.032170, 0.029261, 0.088065, 0.123633, 0.028359, 0.098957, 0.107120, 0.009556, 0.050578, 0.080712, 0.096518, 0.118693, 0.088475, 0.047280, 0.093952, 0.056988, 0.042443, 0.084678, 0.115394, 0.129771, 0.126538, 0.084550, 0.075476, 0.117927, 0.033378, 0.050528, 0.075545, -0.007555, 0.077263, 0.015539, 0.075598, 0.012166, 0.055935, -0.010602, 0.003145, -0.043086, -0.005142, -0.018595, -0.000600, 0.022746, 0.041731, -0.047049, 0.027781, 0.022158, 0.048506, 0.029184, -0.039118, -0.040977, -0.093248, -0.030987, -0.060218, -0.092552, -0.026978, -0.009636, -0.037747, -0.006446, -0.103788, -0.051064, -0.089905, -0.034787, 0.001221, 0.013326, -0.055472, -0.013728, -0.054660, 0.004601, -0.037464, -0.002154, 0.000298, 0.041419, 0.002718, 0.042183, 0.032860, 0.014246, -0.016539, -0.039317, -0.020712, -0.008263, 0.026168, 0.053141, -0.046754, 0.027920, 0.023447, -0.064922, -0.078692, -0.087516, -0.045560, 0.064813, -0.008164, -0.037665, 0.043748, 0.008630, 0.021955, 0.065201, 0.137310, 0.106508, 0.062952, 0.082674, -0.048060, 0.055189, 0.063592, 0.004253, 0.109497, 0.020728, 0.124264, 0.016957, 0.094441, -0.006779, 0.110077, 0.102331, 0.059965, -0.002940, 0.083631, 0.021274, 0.048176, 0.064172, 0.078569, 0.074682, 0.098265, 0.112115, 0.000623, 0.033571, 0.040957, -0.018395, -0.011693, -0.020059, -0.012216, -0.025292, 0.025498, -0.012401, -0.009178, 0.008595, 0.007841, -0.017448, -0.024749, 0.018680, -0.047603, -0.024993, -0.032808, -0.074492, -0.079197, -0.022597, -0.044988, -0.046139, -0.101996, -0.025649, 0.014362, 0.024317, 0.006814, 0.095619, 0.049595, -0.009382, 0.057056, 0.031987, -0.027923, -0.108436, -0.003300, 0.004409, 0.063008, 0.040787, 0.036890, 0.048787, 0.061164, 0.099728, 0.130377, 0.052116, 0.037936, 0.076347, 0.081209, 0.030424, -0.027230, 0.052427, 0.039925, -0.029380, 0.083584, 0.078774, 0.063078, 0.123818, 0.091077, 0.004918, 0.011033, 0.019854, 0.022860, 0.016090, -0.003274, 0.052960, 0.063977, -0.006938, -0.049479, -0.043361, -0.018128, -0.008729, 0.004551, 0.005232, 0.113981, -0.026577, -0.006854, -0.115988, -0.026124, -0.055949, -0.050539, -0.018921, -0.082417, -0.091851, 0.021338, 0.007024, -0.018950, -0.071501, -0.051902, -0.051136, -0.055758, -0.094944, 0.009146, -0.064822, 0.033409, -0.044928, -0.038965, -0.061487, 0.004154, -0.043941, -0.050392, -0.036769, -0.109252, -0.032469, -0.018628, -0.018664, -0.029088, -0.078227, 0.029149, -0.015327, -0.034335, -0.032854, -0.107891, -0.125078, -0.095464, -0.072645, -0.070978, -0.009233, -0.004435, 0.003560, -0.052152, 0.007825, 0.000033, -0.033986, -0.022460, 0.130266, 0.134312, 0.086365, 0.027249, -0.017175, -0.005161, -0.029858, 0.055382, -0.023685, -0.046505, 0.023231, -0.029660, 0.000954, -0.044293, 0.022616, 0.034083, 0.047989, 0.031573, 0.077170, 0.026916, 0.048965, 0.042856, 0.062936, 0.043517, 0.047150, 0.008700, -0.069142, -0.000722, -0.026050, -0.030684, -0.008506, -0.055755, -0.006261, -0.017058, -0.026680, 0.041399, 0.032485, 0.072037, 0.046148, 0.016609, 0.025528, 0.030120, 0.031805, 0.023864, 0.091332, 0.079246, 0.057420, 0.118302, 0.060468},
  {0.042773, 0.044792, 0.131089, 0.125199, 0.066863, 0.120805, 0.010906, 0.063710, 0.003949, 0.043329, -0.038168, -0.017227, -0.049704, -0.001503, -0.080121, 0.028919, 0.019835, 0.036387, 0.044920, -0.006971, 0.116479, 0.094491, 0.005956, 0.099162, 0.073250, 0.104688, 0.118732, 0.075519, 0.037950, 0.051957, 0.099974, 0.054941, -0.010906, -0.012666, 0.075021, 0.078129, -0.000479, -0.038763, 0.026189, -0.052437, -0.050370, -0.012519, 0.067787, 0.044917, -0.013324, 0.075253, 0.043548, 0.011040, 0.051430, 0.056212, -0.067822, 0.037532, -0.044403, -0.143266, -0.066523, -0.087144, -0.121298, -0.061341, 0.019896, 0.001262, -0.034086, -0.126361, -0.170179, -0.090753, -0.016157, 0.064669, 0.008797, 0.004830, 0.027872, -0.035312, -0.004098, -0.002676, -0.060249, -0.024299, 0.039168, -0.000041, 0.068189, 0.042370, -0.002770, 0.044230, 0.035196, -0.059830, 0.024581, 0.087455, 0.084346, 0.006693, -0.028217, -0.011220, 0.020383, -0.003613, 0.009122, 0.020157, 0.036388, 0.056385, 0.053491, 0.063226, -0.006518, 0.013053, 0.043637, 0.048143, 0.080195, 0.059634, -0.005252, 0.042804, 0.073481, 0.048233, 0.013404, 0.006669, -0.050869, -0.076768, 0.035173, 0.056966, 0.080080, 0.069314, 0.101741, 0.010723, -0.012806, 0.084442, 0.085997, 0.019982, 0.011352, 0.012896, 0.094913, 0.109529, 0.080832, 0.018404, 0.066231, 0.046208, 0.015893, 0.013929, -0.042112, -0.049168, 0.001205, 0.008709, 0.002213, -0.025765, -0.041772, -0.061758, -0.009912, -0.061781, -0.019713, -0.012749, 0.024918, -0.042099, 0.021443, 0.016517, -0.000104, 0.029202, -0.001295, -0.006210, -0.052827, -0.110461, -0.098706, 0.019231, 0.187139, 0.078468, -0.004756, 0.058203, -0.028328, -0.050916, -0.011106, -0.091647, 0.012142, 0.154173, 0.102475, -0.011573, 0.020725, -0.021145, -0.071537, -0.093695, -0.051735, 0.010778, -0.067938, 0.031800, 0.025103, 0.089625, 0.057169, -0.036904, -0.112847, -0.023923, 0.006833, 0.071071, 0.018642, 0.038480, 0.024989, 0.024476, -0.019515, -0.025838, -0.054538, 0.054876, -0.007024, -0.016183, -0.030474, -0.032058, 0.006725, -0.034811, -0.021138, -0.005181, 0.016821, -0.057924, -0.081308, -0.094189, -0.010640, -0.089924, -0.067649, -0.045065, -0.108784, -0.043027, -0.080857, -0.037976, -0.005038, 0.044107, 0.055466, 0.103562, 0.030970, 0.015254, -0.005998, 0.055967, 0.005583, 0.046092, 0.085428, 0.029643, 0.002143, -0.051743, -0.047097, -0.019895, 0.014827, -0.045686, -0.082128, -0.073690, -0.056858, 0.018897, -0.014571, 0.048567, -0.027184, 0.062814, 0.049103, -0.002981, 0.013315, 0.034973, -0.049565, -0.014772, 0.041348, 0.045254, -0.033420, 0.027145, -0.005251, -0.031920, -0.060655, -0.024045, 0.116037, 0.035383, -0.019183, -0.000395, -0.020787, -0.025056, 0.017171, 0.058225, -0.066938, 0.040271, 0.092299, 0.025356, 0.092625, 0.068237, 0.030439, 0.047603, 0.113625, 0.039078, 0.027286, 0.029834, 0.007044, 0.037757, 0.108200, 0.129312, 0.112664, 0.115244, 0.052734, 0.021441, 0.028411, 0.044482, 0.113110, 0.070589, 0.011338, 0.051099, 0.063198, 0.109009, 0.066587, 0.104116, 0.103516, 0.094613, 0.034796, 0.114095, 0.005695, 0.018691, 0.106172, 0.074586, 0.141753, 0.083926, 0.144221, 0.112125},
  {0.174431, 0.044412, 0.006802, -0.022559, 0.091612, 0.030859, 0.090361, 0.050977, 0.014604, 0.058727, 0.095385, 0.111225, 0.073273, 0.054857, 0.035805, 0.038664, 0.073641, 0.066015, -0.038476, -0.027906, -0.060211, -0.015673, -0.093147, -0.099368, -0.094950, -0.047444, 0.013854, -0.024915, -0.109139, -0.040860, -0.083203, -0.020972, -0.036427, 0.011575, -0.005453, 0.058559, 0.033957, 0.026230, 0.080843, -0.004561, 0.034935, 0.079644, -0.021166, -0.005138, -0.000903, -0.061455, -0.051174, 0.029465, -0.016035, -0.031486, 0.000830, -0.014811, 0.024088, -0.013967, 0.013024, 0.006612, -0.045191, -0.104835, -0.031269, 0.005588, 0.056707, -0.075137, -0.101685, -0.061573, -0.050571, 0.013329, -0.034361, -0.099554, -0.005086, -0.051942, -0.066328, -0.004869, -0.109998, -0.028549, 0.055763, 0.023583, 0.002745, -0.002467, 0.027208, 0.004166, -0.004033, -0.001698, 0.022458, 0.059492, 0.031209, -0.005685, 0.031495, 0.038397, -0.010222, 0.068530, 0.026191, 0.081934, 0.054245, 0.035011, 0.016777, 0.056103, 0.111137, 0.127920, 0.089891, 0.072170, -0.189802, -0.047357, -0.067197, -0.097667, -0.035546, -0.023685, 0.032421, -0.017351, 0.035695, -0.020990, -0.035357, -0.051393, 0.011451, -0.027228, -0.028308, -0.063833, -0.053265, -0.036035, 0.069609, -0.019948, 0.092317, 0.019495, 0.064206, 0.056450, 0.081322, 0.099425, -0.004005, 0.008602, -0.007274, 0.002894, -0.018324, 0.000160, 0.110148, 0.022339, 0.031612, 0.051464, 0.058684, 0.060945, -0.033190, 0.036740, -0.061464, 0.015068, -0.072052, -0.090142, -0.080037, -0.033802, -0.074642, -0.067640, -0.054264, -0.091533, -0.033342, -0.022855, -0.055660, -0.103579, 0.064202, -0.072870, -0.136182, -0.036497, 0.143454, 0.164613, 0.127264, 0.118863, 0.110371, 0.159502, 0.144038, 0.109882, 0.080831, 0.055425, 0.137516, 0.016885, -0.001222, -0.022308, 0.008718, 0.065818, 0.002964, 0.006041, -0.010458, 0.015600, -0.078479, -0.041411, -0.017692, 0.063724, -0.072016, -0.026491, -0.005675, 0.061918, 0.062789, -0.018432, -0.023987, -0.033523, 0.034938, 0.043109, 0.005436, 0.066394, 0.091760, 0.066705, 0.002056, 0.068529, 0.032376, 0.097313, -0.038287, -0.111224, -0.092501, -0.074277, -0.021880, -0.104300, -0.092813, -0.154563, -0.027742, -0.024979, 0.036960, -0.033313, 0.032494, 0.058907, 0.079589, 0.052484, 0.037673, 0.143328, 0.146671, 0.090696, 0.118108, 0.055631, 0.020882, 0.066644, 0.000712, -0.018687, -0.052726, 0.053703, 0.007191, 0.048080, -0.030468, 0.057248, 0.012094, -0.060320, -0.073211, -0.008911, -0.033720, -0.064205, 0.010295, -0.032034, 0.076204, -0.021559, 0.034955, 0.059212, 0.016938, 0.097908, 0.036623, 0.005263, 0.072865, 0.057347, -0.109675, 0.006193, 0.056579, -0.001367, 0.024356, -0.049578, -0.051710, -0.082454, -0.009381, 0.032725, 0.073015, 0.053384, 0.024202, -0.034173, -0.031010, 0.031138, 0.019872, 0.034689, -0.049014, -0.067984, -0.012036, -0.054264, 0.043301, -0.045185, -0.007164, -0.009267, -0.063740, -0.026210, -0.023321, -0.049681, -0.024942, -0.033937, 0.022669, 0.019451, 0.120540, 0.067525, 0.092657, -0.014290, 0.024133, -0.006668, -0.054393, -0.020530, -0.027439, -0.002689, -0.052639, -0.003468, -0.047987, -0.039499, -0.045626, -0.060964},
  {-0.049971, 0.037723, 0.048496, 0.083714, 0.012094, 0.063109, 0.030591, 0.022897, -0.029092, -0.075320, 0.002763, 0.008052, -0.042151, -0.039065, -0.044720, -0.082397, -0.117805, -0.062851, -0.068468, -0.165520, -0.181050, -0.091395, -0.157673, -0.095363, -0.053038, -0.024999, -0.051631, -0.080808, -0.036025, -0.078346, -0.108438, -0.068846, -0.030511, -0.096988, -0.069703, -0.024779, -0.015767, -0.008536, -0.023121, -0.051986, -0.075025, -0.045320, -0.118398, -0.046396, -0.062945, 0.011639, -0.047440, 0.061844, 0.100630, 0.024139, -0.044744, -0.063245, -0.080892, 0.066367, 0.004452, 0.013575, -0.022645, -0.006379, -0.030342, -0.014841, 0.014949, -0.023180, -0.026493, -0.051973, -0.068017, -0.109698, -0.106658, -0.040947, -0.068348, -0.063885, 0.045125, 0.054287, -0.019697, 0.066744, 0.025583, 0.031757, 0.074312, 0.046586, 0.030539, -0.018815, 0.100478, 0.090935, 0.001539, 0.009300, 0.052634, 0.092485, 0.063594, 0.027761, -0.014699, -0.014730, 0.054759, 0.077709, 0.061098, 0.089883, 0.032824, 0.004718, -0.052420, 0.005179, 0.053653, -0.005015, -0.019013, -0.081915, -0.090952, 0.033229, 0.078118, -0.032343, -0.063646, -0.082918, -0.020821, -0.110466, -0.022696, -0.006992, -0.033097, 0.013810, -0.067477, 0.020011, 0.022261, 0.005947, -0.051828, 0.040740, -0.034055, -0.065605, -0.049385, 0.025659, -0.040344, 0.073911, -0.055148, 0.010269, 0.017398, 0.018122, 0.044282, 0.080614, 0.029127, -0.046360, -0.104355, -0.053123, -0.068269, -0.052521, -0.085733, -0.078123, -0.021967, 0.029098, 0.015302, -0.059902, 0.016030, 0.039708, 0.040223, 0.081351, 0.010297, -0.006169, -0.011773, -0.078963, 0.032376, 0.035754, 0.077174, 0.026926, -0.111637, -0.126980, -0.037476, -0.038747, -0.069865, -0.010449, -0.008439, 0.024948, 0.021020, -0.021375, -0.030422, -0.088489, -0.052967, -0.126095, -0.056138, 0.018141, -0.094440, -0.048444, -0.073173, -0.027139, -0.079816, -0.063944, -0.041764, -0.040548, 0.022948, 0.032806, 0.078280, 0.075230, 0.094075, 0.047393, -0.044805, 0.012974, -0.068991, -0.016130, -0.021279, -0.076776, -0.000429, -0.010576, -0.009203, -0.010295, 0.084063, 0.022564, 0.074237, -0.012726, -0.105340, -0.171774, -0.126798, 0.008677, -0.028519, -0.029609, -0.047611, -0.064951, 0.037503, 0.081193, 0.019494, -0.031161, 0.055038, 0.088798, 0.114029, 0.039926, 0.050764, 0.056700, 0.098573, 0.097847, 0.096978, 0.091299, 0.053350, 0.081693, 0.109703, 0.128905, 0.125674, 0.067002, 0.116185, 0.130479, 0.086432, 0.070126, 0.036166, 0.037965, 0.044111, 0.099735, 0.097879, 0.101539, 0.064472, -0.005965, 0.027294, -0.056514, -0.006174, -0.041074, 0.008858, -0.046440, -0.029399, -0.052078, -0.092117, -0.147289, 0.122236, -0.027158, -0.020830, 0.032040, -0.018445, 0.074443, 0.082428, -0.053558, -0.021224, -0.055522, -0.025631, -0.026029, 0.036043, 0.084099, 0.019283, 0.029772, 0.079227, -0.022721, -0.018250, 0.040373, -0.004362, -0.001975, 0.062130, 0.032702, -0.001786, 0.002128, 0.049381, 0.027279, 0.057732, 0.060411, 0.075087, 0.040370, 0.074589, 0.077965, 0.073764, 0.045898, 0.072528, -0.040057, -0.044513, -0.002577, -0.104889, -0.079093, -0.072163, -0.028310, -0.029655, 0.002665, 0.019860, -0.070762, -0.080214, -0.084811},
  {0.101683, -0.054510, -0.014414, -0.045386, 0.019275, 0.062751, 0.084016, -0.011438, 0.048587, 0.081078, 0.014294, 0.045821, 0.044545, 0.026792, -0.016625, 0.014576, -0.025681, 0.000491, -0.077728, -0.037407, -0.130789, -0.098322, -0.123919, -0.071124, -0.019333, -0.024803, -0.046122, -0.015847, -0.050565, -0.069828, -0.036380, -0.038798, -0.061247, 0.018630, 0.000814, 0.021750, 0.037256, 0.044508, 0.027548, 0.015866, 0.056892, 0.091721, 0.000303, 0.075577, 0.060447, 0.002385, 0.035467, 0.083505, 0.047220, 0.073139, -0.014205, -0.011154, -0.043747, -0.008330, 0.020750, -0.034097, -0.024687, -0.027702, -0.020715, 0.044348, 0.011508, 0.038092, -0.077638, -0.076618, 0.024067, 0.016533, 0.047847, -0.076507, -0.060453, -0.001415, 0.053729, 0.088987, 0.060549, 0.033141, 0.033059, 0.055879, -0.015537, 0.079135, 0.010039, 0.031885, 0.114315, 0.014774, 0.005939, 0.014060, 0.124794, 0.079740, 0.018497, 0.107006, 0.049483, 0.093635, 0.029142, 0.087685, 0.028382, 0.056789, 0.015408, 0.096680, 0.078560, 0.083419, 0.077057, 0.102674, -0.043282, 0.023833, -0.019159, -0.037224, 0.057718, 0.095254, 0.100333, 0.051532, 0.137713, 0.087154, 0.078849, 0.030454, -0.007218, 0.059491, 0.049705, 0.020989, -0.031496, -0.003498, 0.046928, 0.055386, -0.009227, -0.018491, 0.062114, 0.017295, 0.035364, -0.028721, -0.076958, -0.079043, -0.023614, -0.018665, -0.007105, 0.025846, -0.091290, -0.111214, -0.015732, -0.009523, 0.000165, -0.017172, -0.049827, 0.004305, -0.028667, 0.015426, -0.046290, -0.067686, 0.012141, -0.042366, -0.022838, -0.095789, -0.026374, -0.096463, -0.061174, 0.008233, 0.013127, -0.078572, 0.029240, -0.008646, 0.006921, 0.065574, 0.091186, 0.056733, 0.025117, 0.059851, 0.087769, 0.081731, 0.109864, -0.003453, -0.028493, 0.107339, 0.141417, 0.068133, 0.001615, 0.060623, 0.059109, -0.027157, 0.064147, -0.037871, 0.036476, -0.007969, -0.064350, 0.037473, 0.003163, -0.055645, -0.061112, 0.016622, 0.051308, -0.072939, 0.041784, -0.042327, -0.021516, 0.020101, 0.009190, -0.016763, -0.019887, -0.049564, -0.094049, -0.029785, -0.022429, 0.099021, 0.066509, 0.100824, -0.025455, -0.155222, -0.107580, -0.143045, -0.107501, -0.122060, -0.115872, -0.126680, -0.146251, -0.111540, -0.115045, -0.060437, -0.074193, 0.026023, 0.002238, -0.005224, 0.026300, -0.043525, 0.055791, 0.023989, 0.021719, 0.050407, 0.110037, 0.014921, 0.068100, 0.060730, 0.137807, 0.070548, 0.066581, 0.083199, 0.043836, 0.138343, 0.130457, 0.067853, 0.044472, 0.075281, -0.006631, 0.000049, 0.020993, -0.034897, 0.014820, -0.031724, -0.009189, -0.093041, -0.003925, -0.028011, -0.005222, -0.059911, -0.043843, -0.059299, -0.109636, 0.042955, -0.033154, -0.063151, -0.069365, -0.059071, 0.001140, 0.010015, -0.033768, -0.050791, 0.080853, 0.074335, 0.017736, -0.022800, 0.071082, 0.026833, 0.034861, -0.001091, 0.044216, 0.005743, 0.026663, -0.027452, -0.034597, 0.021006, 0.003217, -0.063335, -0.012236, -0.045456, -0.013129, -0.059346, -0.019066, 0.021895, -0.006772, 0.014753, -0.010317, -0.051577, 0.003615, -0.013739, -0.037833, -0.059954, -0.022384, 0.012542, -0.072373, 0.008798, -0.032920, -0.041938, -0.014394, 0.034364, 0.001361, -0.040389},
  {0.096760, 0.128724, 0.067104, 0.114651, -0.025935, 0.034743, 0.006741, 0.010831, 0.001254, -0.038183, -0.062741, -0.051490, 0.005940, 0.038461, -0.011088, 0.035922, -0.010572, 0.036266, 0.040908, 0.014102, -0.079187, -0.032680, -0.032944, -0.012376, 0.022752, 0.038264, -0.055457, 0.055871, -0.037663, -0.030268, -0.044061, -0.082714, -0.079951, -0.066956, -0.061048, -0.082681, -0.067332, -0.094943, -0.093856, -0.058265, -0.102543, -0.126691, -0.074452, -0.017302, -0.015175, 0.005301, -0.073766, 0.003085, -0.039247, -0.069196, -0.027288, 0.075362, 0.073968, -0.017678, 0.046946, 0.015672, 0.128710, 0.022471, 0.015275, -0.015298, -0.032739, -0.003265, 0.023171, 0.004749, -0.012533, 0.006081, 0.039967, 0.041702, 0.060507, -0.070999, 0.007835, 0.036130, 0.024707, 0.023090, 0.018259, 0.053649, 0.056407, 0.082818, 0.100691, -0.011247, -0.059314, -0.052026, 0.072400, 0.010981, -0.020516, -0.007550, 0.003630, -0.052526, -0.068230, -0.024131, -0.076690, -0.047632, -0.046201, -0.064979, -0.107255, -0.046352, -0.065352, -0.120059, -0.056587, -0.143410, -0.020328, -0.071607, -0.014602, -0.081130, -0.031613, -0.101878, -0.149756, -0.048558, -0.153624, -0.026079, -0.053921, -0.015289, -0.048335, -0.025833, -0.076786, -0.097222, -0.020032, -0.021122, -0.082375, 0.022766, -0.099932, -0.094458, -0.054145, 0.003041, 0.031487, 0.033786, 0.000773, 0.063414, -0.011828, -0.032521, -0.058517, -0.045910, -0.058843, -0.024804, -0.033327, -0.096364, -0.091637, -0.091941, -0.070535, -0.046794, -0.029083, -0.055538, 0.037041, -0.062949, 0.020189, -0.029656, -0.010314, -0.041950, 0.044261, 0.004615, 0.014775, 0.000605, -0.091511, -0.044342, 0.016226, -0.007837, 0.003269, 0.055184, -0.037290, -0.069033, -0.070688, -0.037185, 0.002608, 0.038437, 0.008808, 0.115405, 0.128078, 0.018091, -0.000996, -0.015850, 0.038192, 0.053232, 0.031212, 0.016569, -0.015843, 0.078704, 0.091105, 0.073484, -0.007002, -0.024529, 0.017841, 0.030629, -0.003494, -0.006443, -0.052418, -0.117003, 0.021661, 0.038807, -0.011306, -0.006709, -0.023638, -0.035417, -0.005759, 0.012556, -0.010570, -0.020071, -0.046861, -0.083491, -0.006851, -0.069125, -0.130262, -0.035936, 0.025479, 0.058389, -0.032156, 0.029309, -0.033525, 0.047806, 0.037111, 0.066081, 0.012559, 0.054931, 0.035171, -0.001517, 0.066495, 0.055011, -0.036741, -0.013304, -0.047250, 0.001641, -0.033037, -0.010207, -0.066526, 0.017827, -0.059873, -0.047386, -0.028923, -0.046754, -0.084083, -0.048941, -0.043210, -0.037437, -0.025549, 0.010110, -0.069053, -0.005370, -0.012352, -0.040430, -0.007603, 0.043018, 0.022455, 0.008706, -0.018838, 0.039502, 0.034504, -0.044502, 0.027463, 0.019010, 0.003434, -0.006472, -0.060871, -0.060444, -0.033351, -0.012198, 0.013760, -0.013719, 0.002444, 0.059606, 0.020279, -0.019330, 0.026313, -0.061996, 0.014668, -0.020227, 0.028868, -0.035904, -0.076573, -0.077558, -0.099832, -0.047848, -0.094309, -0.067811, -0.116109, -0.043410, -0.115905, -0.095835, 0.001440, -0.043266, 0.043116, -0.006432, 0.011192, 0.003003, 0.014162, -0.005604, -0.016844, 0.085017, 0.123148, 0.102217, 0.024781, 0.094731, 0.068370, 0.088567, 0.047318, 0.114787, 0.111245, 0.111112, 0.130882, 0.129295, 0.117209, 0.052785},
  {0.136962, -0.040349, -0.119593, -0.031631, 0.009671, -0.045547, 0.028208, 0.026100, 0.023343, 0.055792, -0.006446, 0.070375, -0.026302, 0.071218, 0.061100, 0.004398, 0.064711, -0.014487, -0.011060, -0.007764, -0.023718, 0.026483, -0.002793, 0.012098, -0.026960, -0.058172, -0.009478, 0.031447, -0.032081, -0.016132, -0.038818, -0.050253, 0.021074, -0.024940, -0.071200, -0.064154, -0.069360, -0.022922, 0.033093, -0.029962, -0.007591, -0.034359, 0.025618, 0.022600, 0.039677, -0.000264, -0.056920, -0.008340, -0.057092, -0.019615, -0.046367, 0.009490, 0.032752, -0.067281, -0.029708, -0.063689, -0.056692, -0.100237, 0.019018, -0.032179, -0.000653, -0.111245, -0.098699, -0.057440, -0.045943, -0.039558, -0.046197, -0.060208, -0.077185, -0.046154, -0.042651, -0.010858, -0.027938, 0.031899, 0.042763, 0.041064, -0.067043, 0.047401, -0.013927, -0.043965, 0.000897, 0.016039, 0.012933, -0.013679, -0.054038, 0.022718, -0.066470, -0.012905, 0.017094, -0.004880, 0.013061, 0.093410, 0.077031, 0.036322, 0.067334, 0.066664, 0.047163, 0.008414, 0.013553, 0.098644, -0.133732, 0.064647, 0.020683, 0.064897, 0.009374, 0.018427, 0.015862, -0.007219, -0.068472, -0.116080, -0.096899, -0.069193, -0.037520, -0.044965, -0.022790, -0.087306, -0.071081, 0.000617, 0.024094, 0.038513, 0.041820, -0.002977, -0.016695, 0.093163, 0.003634, 0.043040, 0.001322, -0.040997, 0.052932, 0.080424, 0.080837, 0.081778, 0.064279, 0.104863, 0.097800, 0.040121, 0.082069, 0.120232, 0.086047, 0.108035, 0.073823, 0.069267, 0.032785, -0.016558, -0.003298, 0.009200, -0.013865, 0.054947, 0.047111, 0.016541, 0.000698, -0.058589, 0.123289, 0.032704, 0.005602, -0.009957, -0.060815, -0.101497, -0.084790, -0.039648, -0.059098, -0.065201, -0.048258, -0.014074, 0.045734, 0.027745, -0.023600, 0.023791, 0.034839, -0.081186, -0.052459, -0.037718, -0.018632, -0.062472, -0.011793, -0.073391, 0.019840, 0.040034, -0.051882, -0.025800, -0.060468, 0.022058, 0.004686, -0.025577, -0.008427, 0.045543, 0.054011, -0.006419, -0.028262, 0.002930, 0.047007, -0.013701, -0.003636, 0.024122, 0.059410, 0.092524, 0.040645, 0.049865, -0.011190, -0.025579, -0.006096, -0.074905, -0.081449, -0.108396, -0.094121, -0.057508, -0.049924, -0.086803, -0.066446, -0.087983, -0.073308, -0.024676, 0.055621, 0.032092, 0.098357, 0.077495, 0.072427, 0.113322, 0.156416, 0.064525, 0.119923, 0.122065, 0.148244, 0.073867, 0.036513, 0.038016, 0.022369, -0.009410, 0.047260, 0.033072, -0.002831, 0.050372, -0.011437, 0.060366, 0.005862, -0.018093, -0.002170, -0.015433, 0.033268, 0.005095, -0.024063, 0.023344, 0.059781, -0.028101, -0.049681, 0.016087, 0.013616, -0.049284, -0.015257, 0.058509, -0.000976, 0.131265, 0.157306, 0.119491, 0.050505, 0.112340, 0.033166, 0.011159, 0.000332, 0.017587, 0.035304, 0.072805, 0.011419, 0.017454, -0.084187, -0.088385, 0.016114, 0.022219, -0.053489, 0.028398, -0.067727, -0.032104, -0.035353, 0.009706, 0.006648, -0.017540, -0.016366, 0.025104, -0.036499, -0.003347, -0.020734, -0.029153, -0.037522, 0.001337, 0.016663, -0.025397, 0.036870, 0.023550, -0.038545, -0.030473, 0.019493, -0.061083, 0.030447, -0.037974, 0.018112, -0.018665, -0.036799, -0.025009, 0.015447, -0.024737},
  {0.086921, 0.081488, -0.010311, 0.045643, 0.076850, -0.031717, -0.034491, -0.066941, 0.044609, -0.061056, 0.024878, -0.008840, -0.014001, 0.045040, 0.037648, 0.088329, 0.054674, -0.012299, 0.031518, 0.024674, 0.024429, 0.091691, 0.073879, 0.038068, 0.094994, 0.010145, 0.059650, 0.091678, 0.009050, 0.049291, 0.075992, 0.083082, 0.031929, -0.031793, -0.001897, 0.064776, -0.031664, -0.016275, -0.020300, -0.029875, -0.060654, 0.007831, -0.034485, -0.016217, -0.019760, -0.012680, -0.043453, 0.027083, 0.030313, -0.047878, 0.058993, 0.059075, 0.090517, 0.053090, 0.045506, 0.082791, 0.070499, -0.008376, 0.049874, 0.063941, -0.051683, 0.006439, 0.022515, 0.078428, 0.050391, 0.017741, -0.007756, -0.063417, 0.002115, 0.010377, -0.026959, 0.061041, -0.005315, -0.012195, 0.037120, -0.048429, -0.066680, -0.093737, -0.032947, 0.007418, -0.060173, -0.083078, -0.046629, 0.000265, -0.096038, -0.093922, -0.033385, -0.064850, -0.062857, -0.010797, -0.077805, 0.012944, -0.020458, 0.003037, -0.080885, -0.034441, 0.029001, 0.045876, 0.080807, 0.000566, -0.014486, -0.074094, -0.046641, -0.055227, 0.000131, 0.035368, 0.018873, 0.036735, 0.001838, -0.032456, -0.049907, 0.014832, 0.053343, 0.015360, 0.013813, -0.014459, 0.011729, -0.008890, 0.039959, 0.069215, 0.006301, 0.082948, 0.023053, 0.094366, 0.029464, 0.005374, 0.012637, -0.011987, 0.063452, 0.009719, 0.049599, 0.068441, 0.001795, 0.013133, -0.026382, 0.002823, 0.035892, -0.018233, 0.001283, -0.011501, -0.013132, 0.014937, -0.053412, -0.012602, 0.053567, -0.029278, 0.002696, -0.009171, 0.031111, -0.038913, 0.046809, 0.070552, -0.052374, -0.049302, -0.019174, -0.046798, 0.068425, 0.101667, 0.136827, -0.020560, 0.059565, -0.055294, 0.066888, -0.036740, 0.029491, 0.029659, 0.106524, 0.106780, 0.094137, -0.003711, 0.030023, 0.022760, -0.034667, 0.014263, 0.044095, 0.052266, -0.017624, 0.059221, 0.066196, -0.000155, 0.020383, 0.054178, 0.004022, 0.007994, -0.036732, 0.001795, -0.013808, 0.078883, 0.009163, 0.039144, 0.015106, 0.040852, 0.009842, -0.023095, 0.023452, 0.036473, 0.014307, 0.046303, 0.087806, 0.007731, -0.006183, 0.042836, 0.010684, 0.047994, 0.062492, 0.007843, 0.002884, 0.013064, 0.061310, -0.001043, 0.066389, 0.088597, 0.097675, 0.051146, 0.031093, -0.000052, 0.052943, 0.099816, 0.058043, 0.018212, 0.097938, 0.051690, 0.004819, 0.074152, 0.037085, -0.008881, 0.022834, 0.074654, 0.033183, 0.123383, 0.108204, 0.091355, 0.032644, -0.009882, 0.003911, 0.032115, -0.033707, 0.035039, -0.017164, -0.044420, 0.026306, 0.019593, 0.047498, -0.005866, -0.025004, -0.001785, 0.054263, 0.068162, 0.041322, -0.045222, -0.152521, -0.135705, -0.097922, -0.101370, -0.098340, -0.047091, 0.020353, -0.084668, -0.060534, -0.094201, -0.003464, -0.071482, -0.018063, -0.002464, 0.080063, 0.059624, 0.029226, -0.001601, -0.035742, -0.032243, -0.005282, -0.020235, -0.078143, -0.009837, 0.030063, 0.081592, -0.009113, -0.003470, -0.037501, 0.026342, 0.025725, -0.001764, 0.022050, 0.004617, 0.075906, -0.006728, 0.011826, 0.025188, 0.108982, 0.078293, 0.088870, 0.077021, 0.099184, 0.029256, 0.057378, 0.008432, 0.038971, 0.060326, 0.063217, 0.092771},
  {-0.062972, 0.022992, 0.019256, -0.001181, -0.023276, -0.054722, -0.054698, 0.004800, 0.001842, -0.037176, -0.060140, -0.001482, -0.024017, 0.035025, -0.007712, -0.014341, 0.001175, 0.121020, 0.135904, 0.051282, 0.033317, 0.082403, 0.077435, 0.127882, 0.095453, 0.010051, 0.064713, 0.021089, 0.086916, -0.000787, 0.096030, 0.041378, 0.049903, -0.034012, 0.037590, -0.035590, 0.032481, 0.016231, -0.013992, -0.017783, -0.048353, 0.032853, -0.026825, 0.041459, -0.032459, 0.048863, -0.046791, 0.010548, 0.002963, -0.007325, 0.008304, -0.006192, 0.012875, 0.083449, 0.055096, -0.007699, 0.045620, -0.007186, -0.029500, 0.079935, 0.050618, -0.019012, 0.059361, -0.040362, 0.048208, 0.008372, -0.048973, -0.015518, -0.011804, 0.066496, 0.008713, 0.029823, -0.068290, -0.061214, -0.018851, -0.012834, -0.001598, -0.054974, 0.001516, 0.004445, 0.020121, -0.081442, -0.095755, -0.088779, -0.039311, -0.098915, -0.103747, -0.031385, -0.029819, -0.095333, -0.015782, -0.058943, -0.009201, -0.009885, 0.000615, 0.017198, -0.028622, -0.011405, 0.025763, -0.015415, 0.062106, -0.013127, -0.050627, -0.012353, 0.043071, 0.062052, 0.011410, -0.009258, 0.033871, -0.055091, -0.014898, -0.019005, -0.055421, -0.043420, -0.022098, 0.045605, 0.002590, -0.027269, 0.007547, -0.060556, -0.033070, -0.041369, 0.006528, 0.027873, 0.011737, 0.033622, 0.036648, 0.009290, -0.004147, 0.038115, -0.031535, 0.022747, 0.044982, 0.067403, 0.061209, 0.052801, 0.049262, -0.018113, 0.061690, -0.041888, -0.030497, -0.018027, -0.034545, -0.002661, -0.007907, 0.008433, -0.022294, -0.024680, -0.000171, -0.039832, 0.033500, 0.066223, -0.034528, 0.044928, -0.017464, 0.019507, -0.017538, 0.129318, 0.189321, 0.170706, -0.006985, -0.013959, 0.015535, 0.055350, 0.007042, 0.012043, 0.033500, -0.025868, 0.043182, -0.028674, -0.101705, -0.133361, -0.074272, -0.043467, 0.033342, -0.052552, -0.110459, -0.075545, 0.047531, 0.065876, -0.089745, -0.075594, -0.079541, -0.033930, -0.055392, 0.009365, -0.031933, 0.039924, 0.077248, -0.002122, -0.047671, -0.041782, 0.054430, 0.093994, 0.089553, 0.036513, -0.004792, 0.037728, 0.017905, 0.005003, -0.038133, 0.028106, 0.112134, 0.142294, 0.043501, 0.022709, -0.028686, -0.009981, -0.085888, -0.046423, -0.127136, -0.101731, -0.090729, -0.065222, -0.067848, -0.041269, -0.056087, -0.065168, -0.090763, -0.074386, -0.085330, -0.064974, -0.050240, -0.004602, 0.077513, 0.009653, 0.088273, -0.001380, 0.013619, 0.025219, -0.008992, -0.045991, -0.000840, -0.046675, -0.039391, 0.039225, -0.035438, 0.006787, -0.062505, -0.055970, -0.008177, 0.032909, 0.022459, 0.083879, 0.043987, -0.022151, 0.034299, 0.066819, 0.024314, 0.029241, -0.103283, -0.099894, -0.177989, -0.143366, 0.005010, -0.103761, -0.030985, -0.069401, -0.047227, 0.011265, 0.050383, -0.003851, 0.085302, 0.113177, 0.066776, 0.124330, 0.071603, 0.045976, 0.104749, 0.073841, 0.123801, 0.061503, 0.016002, 0.083902, 0.085691, 0.038520, 0.004581, 0.001020, 0.036556, 0.092281, 0.002555, 0.086559, -0.014623, 0.016088, 0.071069, -0.002407, 0.036971, 0.071912, 0.037237, 0.072864, -0.009934, -0.047343, 0.080281, 0.052625, 0.023788, 0.026371, 0.049792, 0.011468, -0.036460, -0.035565},
  {-0.103668, -0.127392, 0.016432, -0.020984, -0.011867, -0.019183, -0.086931, -0.057882, -0.080223, 0.013183, -0.085863, -0.001547, -0.019484, -0.017904, -0.032152, -0.028741, -0.026103, 0.093163, 0.095310, 0.062122, 0.091070, 0.043068, 0.036412, 0.024301, 0.009773, 0.090265, 0.092782, 0.003967, 0.069323, 0.066394, 0.056123, 0.137450, 0.082490, 0.067037, 0.096047, 0.081293, 0.069194, 0.075493, 0.043972, 0.000542, 0.083601, 0.050297, 0.065888, 0.102749, 0.059204, 0.118351, 0.067500, 0.029657, 0.088088, 0.010602, -0.087248, 0.001099, -0.015698, 0.056902, -0.044041, 0.020427, -0.032985, -0.095376, -0.032067, 0.068534, 0.023947, -0.001910, -0.004818, 0.033817, 0.016826, 0.085407, 0.139040, 0.060452, 0.065201, 0.001046, 0.029735, -0.028929, 0.029384, -0.029935, -0.048002, -0.048114, 0.001708, -0.014330, 0.033987, -0.032036, 0.005985, -0.062569, -0.098583, -0.115279, -0.100121, -0.014402, -0.037706, 0.011189, -0.068103, 0.006618, -0.088817, 0.032424, -0.054493, -0.019223, 0.032870, 0.021852, -0.034011, 0.046635, -0.018424, -0.000330, -0.005372, -0.023615, -0.088868, -0.065973, 0.004832, -0.043913, -0.023416, 0.007072, 0.025312, -0.001984, 0.015675, -0.073702, -0.092538, 0.005383, 0.031709, -0.017845, 0.012853, -0.006860, -0.064682, -0.077134, -0.096224, -0.053273, -0.067479, -0.066808, -0.024045, -0.038547, 0.050755, -0.029434, -0.025617, 0.019350, -0.044931, -0.017751, -0.074238, 0.013278, -0.022456, 0.061446, 0.083610, 0.063391, -0.030649, -0.042094, 0.016808, 0.062414, 0.073038, 0.046847, 0.101421, 0.051864, 0.062776, -0.000848, 0.015598, -0.011731, 0.031511, 0.063961, 0.033775, 0.091827, -0.052364, -0.016951, -0.026761, -0.075813, 0.109621, 0.036322, -0.100545, -0.081060, 0.042765, 0.028158, -0.005399, 0.010327, 0.101373, 0.015742, -0.025423, -0.068373, -0.141298, -0.098344, -0.065577, 0.005919, 0.011301, 0.026437, -0.021965, 0.059327, 0.115750, 0.015200, 0.003099, -0.087513, -0.065534, -0.068883, -0.053212, -0.086679, -0.038265, 0.042925, -0.075340, -0.084312, -0.023479, -0.016420, 0.107465, 0.072512, 0.006121, 0.039278, 0.051647, -0.056246, -0.026449, 0.011474, -0.024888, -0.073955, -0.033954, 0.102807, 0.058345, -0.026439, -0.003031, 0.084058, 0.099322, -0.057404, -0.095334, -0.103262, -0.070419, -0.069702, -0.054407, -0.009016, -0.113423, -0.085186, -0.104012, -0.148883, -0.061212, -0.097050, 0.004833, 0.018154, -0.021373, -0.019093, 0.039151, 0.019554, 0.018447, -0.048319, -0.020553, -0.049887, -0.056168, 0.036618, -0.013301, -0.002388, 0.058486, 0.037335, -0.081991, -0.026163, -0.028442, -0.003199, 0.048560, 0.005337, 0.012960, -0.035172, 0.008469, -0.046666, -0.045885, 0.045575, 0.026635, -0.032000, 0.021381, 0.066989, 0.095494, 0.137071, 0.101489, 0.084205, 0.085785, 0.102166, 0.060778, 0.051244, -0.008173, 0.062130, 0.025887, 0.067980, 0.023936, 0.035141, -0.005291, 0.054232, 0.037658, 0.054344, 0.140023, 0.110567, 0.058465, 0.086955, 0.037287, 0.012549, 0.087084, 0.055415, 0.113329, 0.111337, -0.012397, 0.004259, -0.064888, 0.033894, -0.021124, 0.081259, 0.035010, -0.055565, -0.089999, -0.033858, -0.035860, -0.009698, -0.020820, -0.067355, 0.035804, -0.040761, -0.081511, -0.037297},
  {-0.037324, -0.006053, -0.007019, -0.023875, -0.033719, 0.005441, 0.030939, -0.016565, -0.053026, 0.052749, -0.002707, 0.040749, -0.039392, -0.057145, 0.028121, 0.009892, 0.052436, 0.038272, 0.031558, 0.077620, 0.078705, 0.014095, -0.016703, 0.004056, 0.040077, 0.032598, 0.060657, -0.000498, 0.041768, 0.109639, 0.098502, 0.033354, 0.046008, -0.018639, -0.017977, 0.038695, 0.080600, 0.119575, 0.079548, 0.071674, 0.057031, 0.059635, -0.017543, 0.037722, -0.020182, 0.057323, -0.005065, -0.001518, 0.000938, 0.070196, -0.010501, 0.040036, 0.054446, 0.068362, 0.001470, -0.032484, -0.079814, 0.012479, -0.065177, 0.074835, -0.060363, -0.042364, -0.058004, 0.000596, 0.015098, 0.004484, 0.041463, -0.007407, 0.067732, 0.024384, 0.002978, 0.006223, -0.017009, -0.068309, -0.050166, -0.010872, -0.090150, -0.012443, -0.092266, -0.081669, -0.052636, -0.006849, -0.098370, -0.092999, -0.071545, -0.008068, -0.016048, -0.054286, 0.012570, 0.000554, 0.056536, -0.004507, 0.004025, -0.049571, -0.060952, -0.028290, -0.006488, -0.006338, -0.041280, 0.079109, -0.117669, 0.051403, 0.006525, 0.069540, -0.005658, 0.038690, 0.055826, -0.016746, 0.010568, 0.022881, 0.022798, -0.026976, -0.006535, 0.041711, 0.006248, 0.076712, 0.016556, -0.051862, 0.029137, -0.095001, -0.008176, -0.052382, -0.049653, -0.071699, -0.084588, -0.074384, -0.122500, -0.089971, -0.045361, -0.096920, -0.045832, -0.024455, -0.033854, -0.041937, 0.014207, 0.094819, 0.073516, 0.095743, 0.054488, 0.002748, 0.085181, 0.096502, -0.009563, 0.023726, 0.051018, 0.030286, -0.007888, 0.070495, 0.003402, -0.000895, 0.004941, 0.045720, -0.020386, -0.066818, -0.054577, -0.112569, -0.130554, 0.007243, -0.006106, -0.018495, -0.100953, -0.109370, -0.086724, 0.013950, 0.002342, -0.089200, 0.039980, 0.041083, -0.036548, -0.014996, 0.045779, 0.021419, -0.032715, 0.042462, 0.044595, -0.012415, -0.023705, -0.009609, -0.055519, -0.035534, -0.000176, -0.055955, -0.020141, -0.001437, -0.001386, 0.026912, 0.031320, 0.004820, 0.025753, 0.003155, 0.039356, 0.065200, 0.061873, -0.025633, -0.012271, -0.017595, -0.014564, 0.045423, 0.038522, 0.127204, 0.059810, 0.039604, 0.083722, 0.024861, 0.030932, -0.064805, -0.021277, -0.109084, -0.012865, -0.009410, -0.033087, -0.018552, -0.063096, -0.004038, -0.077238, -0.027334, -0.108959, -0.052746, -0.101386, -0.096319, -0.184023, -0.166158, -0.062056, -0.023838, 0.002058, -0.055982, 0.012013, 0.064578, 0.062389, 0.057329, 0.085083, 0.047632, 0.088553, 0.102909, 0.149926, 0.060535, 0.116396, -0.000602, 0.059632, 0.016592, 0.079744, 0.059417, 0.058383, 0.018852, 0.021339, 0.052970, 0.088633, 0.107662, 0.085668, 0.083595, 0.051112, -0.049140, 0.044421, -0.015368, 0.053165, 0.094303, 0.144755, 0.086151, 0.045708, 0.093469, 0.086660, 0.083996, 0.062978, 0.031384, 0.060638, 0.067987, 0.050124, 0.034871, 0.049409, 0.040123, -0.004514, 0.059009, 0.000398, 0.017382, -0.024072, -0.004841, -0.053727, 0.011513, -0.079861, -0.063610, 0.023110, -0.024877, -0.094253, -0.044814, -0.066187, -0.054193, 0.014331, 0.014771, -0.019583, 0.022150, -0.023198, 0.043964, -0.060499, -0.057869, -0.012147, -0.075730, -0.087653, -0.080583, -0.132041, -0.115655},
  {0.143477, -0.017396, -0.068221, -0.045349, 0.030481, 0.039000, 0.038419, 0.063799, 0.108116, 0.021052, 0.009648, 0.003464, 0.079097, 0.029480, -0.014426, -0.070887, -0.023193, 0.032936, 0.003692, -0.042816, 0.036103, -0.017362, -0.009067, -0.023960, -0.012716, -0.033471, -0.043692, -0.020484, -0.043464, 0.012788, -0.039667, -0.090476, 0.021750, -0.019185, 0.007039, -0.028852, 0.016002, 0.005710, -0.066323, -0.003356, 0.011894, -0.036378, -0.006786, 0.016130, 0.019738, -0.006518, -0.051875, 0.027063, 0.056177, 0.066838, 0.007618, -0.054778, -0.049438, -0.106428, -0.089186, -0.118460, -0.086781, -0.030000, 0.042081, 0.051991, 0.020444, -0.051445, -0.093303, -0.073804, -0.059734, -0.020230, -0.054303, 0.019219, 0.037750, 0.004600, -0.016868, -0.020851, -0.046903, -0.077432, 0.044319, 0.048616, 0.012790, 0.047014, -0.042017, -0.043181, -0.048836, 0.005694, 0.006832, 0.015953, -0.043000, -0.026512, 0.045868, -0.035176, 0.010945, -0.025914, 0.003613, 0.059627, 0.048013, -0.010280, 0.036253, -0.017343, 0.083356, 0.043420, 0.007285, 0.066115, -0.190356, 0.032168, 0.090543, -0.006301, 0.008278, -0.013393, 0.145509, 0.020914, -0.005901, -0.028126, -0.012528, -0.003467, 0.069244, 0.032414, -0.005654, 0.023484, 0.049057, -0.000344, 0.052923, 0.022755, 0.096867, 0.037421, 0.072944, 0.062548, 0.046157, -0.039277, 0.024176, -0.088560, 0.025458, -0.018569, 0.028480, 0.031126, -0.010989, -0.010338, 0.008284, 0.064406, 0.048002, -0.005829, 0.021445, 0.061300, 0.081906, -0.010763, 0.057879, -0.033754, -0.013130, 0.047275, -0.029052, -0.006055, -0.026489, -0.040955, -0.070806, -0.003352, -0.009233, 0.019858, -0.022813, 0.044381, -0.080631, 0.008590, 0.036789, 0.154399, 0.114172, 0.094902, 0.054375, 0.087288, 0.142871, 0.088284, 0.113866, 0.024676, 0.067193, 0.076703, 0.015980, 0.049797, 0.006799, 0.133106, 0.178722, 0.123020, 0.020453, 0.047843, 0.056207, 0.090333, 0.066532, 0.094117, -0.014395, -0.023521, 0.036580, 0.058040, 0.037383, 0.092153, 0.059370, 0.057979, 0.121950, 0.093985, 0.067887, -0.040530, -0.010195, 0.021298, 0.075170, 0.085720, 0.005193, -0.015599, 0.145342, 0.087945, -0.020925, -0.051821, -0.054472, -0.001984, 0.077993, -0.083532, -0.074505, -0.113275, -0.064587, -0.025173, -0.045567, 0.049408, -0.049071, 0.000387, -0.038916, 0.052947, 0.068663, 0.070041, 0.048074, 0.068948, 0.003603, 0.004441, 0.002095, 0.029431, -0.014688, -0.047763, 0.032253, 0.029259, -0.040916, -0.044138, 0.033174, 0.040991, -0.003954, 0.022735, 0.047261, -0.012683, -0.004888, -0.045772, 0.024245, -0.029896, -0.058878, -0.011413, 0.069220, 0.099786, 0.017668, 0.082243, 0.038391, -0.022374, 0.027680, 0.109613, 0.144522, 0.027725, -0.016621, -0.094358, -0.033130, -0.146393, -0.084767, -0.029766, -0.016518, 0.006784, -0.050629, -0.019986, -0.059709, -0.111570, -0.053917, -0.121314, -0.036053, -0.078679, -0.064796, -0.040732, -0.035443, -0.063451, -0.051846, -0.015602, -0.088125, -0.009366, -0.112243, -0.016978, -0.109169, -0.112074, -0.076561, -0.011664, -0.060767, -0.063466, -0.068791, 0.014804, 0.006855, 0.006700, -0.041578, -0.066699, -0.039570, -0.077295, -0.073513, 0.006711, 0.013530, 0.006764, 0.023213, 0.017255},
  {-0.057553, 0.040019, -0.076739, -0.079827, -0.026641, -0.067002, -0.035263, -0.082652, -0.084320, -0.152011, -0.155549, -0.130650, -0.099721, -0.105644, -0.064954, 0.013236, -0.031338, -0.004894, -0.064778, -0.069011, 0.039695, 0.010402, -0.026507, -0.084432, -0.042945, -0.009109, -0.005777, -0.083755, -0.048966, 0.017682, -0.061413, -0.044360, -0.008070, 0.043314, 0.036871, -0.025397, -0.011022, -0.024539, -0.041983, 0.003459, -0.013246, -0.067868, -0.067309, -0.051090, -0.077171, -0.017612, -0.060790, -0.077312, 0.000393, 0.036437, 0.045087, -0.043611, -0.000639, 0.092707, 0.104762, 0.100208, 0.043178, 0.068871, 0.106247, 0.104179, 0.010599, 0.025240, 0.034148, 0.010554, -0.002415, 0.015016, -0.027440, 0.055262, -0.043630, -0.085686, -0.043727, -0.108381, 0.026817, -0.075605, -0.037236, -0.071210, 0.000591, -0.039371, 0.013842, -0.052245, 0.092748, -0.005229, -0.057446, -0.027210, 0.055738, 0.040411, 0.030017, 0.067913, 0.081152, 0.048902, 0.067186, 0.098134, 0.087118, -0.016656, 0.000212, -0.013962, -0.034651, -0.073822, -0.020943, 0.002213, -0.026582, 0.061479, 0.068894, 0.095633, 0.048092, 0.044983, 0.077163, -0.009115, -0.020532, -0.037135, -0.075447, 0.067933, 0.010942, -0.035161, -0.045001, -0.064092, -0.036404, -0.018576, 0.008041, 0.032355, -0.030291, 0.028616, 0.053423, 0.034833, 0.053574, 0.030235, 0.033951, 0.029260, 0.031556, 0.060798, 0.091728, 0.055301, -0.006059, 0.061856, 0.014763, 0.005107, 0.053300, -0.001672, -0.039106, -0.018921, 0.011164, 0.051123, 0.077176, 0.026761, -0.002947, -0.023027, 0.004054, 0.033003, 0.011139, 0.029963, 0.003367, 0.030860, -0.018064, 0.003885, -0.014392, -0.025049, -0.018294, -0.051440, -0.058176, 0.015828, -0.041937, -0.032433, 0.027604, -0.057862, -0.087723, -0.024057, 0.022978, 0.017904, -0.049678, -0.075434, -0.063899, -0.008161, -0.005756, 0.007382, 0.053698, -0.043393, 0.035639, 0.024647, -0.004061, 0.011530, 0.030473, -0.013678, -0.002632, -0.014286, 0.048108, -0.008703, 0.013767, 0.087465, -0.042126, 0.010086, 0.008460, 0.060572, -0.054308, 0.048622, -0.045241, 0.032177, 0.011158, 0.090773, 0.057992, 0.054842, -0.083139, 0.018866, 0.088270, 0.068839, 0.009860, 0.027434, -0.018041, -0.043270, 0.005615, -0.000474, -0.032646, 0.083540, 0.032842, 0.029191, 0.042900, 0.026752, 0.000635, 0.015585, 0.045506, -0.031610, 0.057073, 0.012590, 0.008522, 0.008704, -0.001336, -0.014571, 0.006034, 0.024240, -0.062785, 0.022813, 0.004318, -0.045027, 0.031856, 0.004913, 0.020387, -0.069271, -0.015701, -0.023865, 0.037324, 0.071619, 0.060961, -0.013675, 0.050850, 0.004210, -0.059698, 0.020730, -0.076790, 0.018981, 0.052285, 0.015564, -0.131521, -0.054115, -0.095803, -0.000381, 0.027747, 0.042913, 0.074938, 0.022176, 0.039195, 0.047013, 0.117899, 0.124468, 0.111103, 0.031798, 0.024120, 0.109973, 0.078018, 0.057743, 0.113769, 0.023538, 0.031237, 0.042304, 0.019557, 0.013857, 0.046067, -0.034041, -0.062380, -0.099353, -0.100354, -0.118905, -0.088432, -0.047784, -0.079637, -0.121803, -0.148650, -0.109403, -0.124032, -0.091429, -0.038545, -0.068997, -0.094324, -0.094715, -0.040256, -0.075094, -0.076461, -0.035935, -0.054982, 0.018155, -0.017546, -0.040384},
  {0.023664, 0.020285, 0.086609, 0.019862, 0.043074, 0.079887, 0.055553, 0.019273, -0.093209, 0.010211, 0.014565, 0.058743, 0.029708, -0.022305, -0.045435, -0.026954, 0.009653, -0.008934, -0.011728, -0.034658, -0.002307, 0.023643, 0.063539, -0.039570, 0.030225, 0.034239, 0.063155, 0.012196, 0.056176, 0.060147, -0.040197, -0.057005, -0.035294, 0.005363, 0.023197, 0.026872, -0.001556, -0.088837, -0.023247, -0.087935, -0.060798, -0.069419, -0.027320, -0.029999, -0.017619, 0.053357, 0.072340, 0.062044, -0.016468, -0.029308, -0.145873, -0.056949, -0.084794, 0.059869, -0.034698, -0.096813, 0.006592, -0.041841, -0.100666, -0.113967, 0.023872, -0.035953, -0.079175, -0.025259, -0.065269, -0.023381, -0.046508, -0.085481, -0.071533, -0.077552, -0.080973, 0.021687, -0.034962, -0.009167, -0.021406, 0.028802, 0.019984, -0.052892, -0.011916, 0.050460, 0.045850, -0.004700, 0.012854, 0.006614, -0.028679, -0.010447, 0.071449, 0.031702, 0.040422, 0.022854, 0.041542, 0.112154, 0.039006, 0.041304, 0.067852, -0.014416, -0.013096, 0.109873, 0.090262, 0.047999, -0.088078, -0.028542, -0.076799, -0.053592, -0.002171, -0.023204, -0.129779, -0.025916, -0.061571, -0.026235, 0.019086, -0.040887, -0.121299, -0.102719, -0.122194, -0.103435, -0.068659, -0.047861, -0.078688, -0.085588, -0.069848, -0.100426, -0.043676, -0.065257, -0.056114, -0.008442, 0.072015, -0.019893, -0.042064, 0.043805, 0.025484, 0.066670, 0.019847, 0.084915, 0.032734, 0.121028, 0.037838, 0.077877, -0.046913, 0.038065, 0.008602, -0.025668, -0.009149, 0.023162, -0.012911, 0.014798, 0.046502, -0.049072, 0.086947, -0.032946, -0.096802, -0.020664, 0.005332, -0.092244, -0.103953, 0.020501, 0.062778, -0.059101, -0.000760, 0.076733, 0.089205, 0.155817, 0.174111, 0.178278, 0.132671, 0.192311, 0.120637, 0.064857, 0.051704, -0.029830, 0.035886, -0.011122, 0.071054, -0.009624, -0.001396, 0.032586, 0.094316, 0.032156, -0.012116, 0.059184, 0.081159, 0.097109, 0.047719, 0.041032, -0.000102, 0.055720, 0.006245, -0.060171, 0.062171, 0.084932, 0.062380, 0.095647, -0.032507, -0.085680, -0.063573, -0.067159, 0.065088, 0.086242, 0.041507, 0.015248, 0.022597, -0.083483, -0.063651, -0.066517, -0.070248, -0.037553, -0.006333, -0.044534, -0.058635, -0.072619, -0.023835, -0.019548, 0.024166, 0.047553, 0.079674, 0.080060, 0.080853, 0.040893, -0.003049, 0.005907, 0.028852, 0.101499, 0.017513, -0.002702, 0.080218, 0.073111, 0.069967, -0.021912, 0.053643, 0.042106, 0.087967, 0.174382, 0.120487, 0.095064, 0.108463, 0.095281, -0.008832, -0.027537, -0.042482, 0.090605, 0.061016, 0.120933, 0.004480, -0.007487, 0.026604, 0.014440, -0.008780, 0.030057, -0.033199, 0.055107, -0.036347, 0.087265, 0.074169, 0.032687, 0.077167, 0.040457, -0.078426, -0.054914, -0.140815, -0.148311, -0.060396, 0.015937, 0.058662, 0.052532, -0.020705, 0.004462, -0.012546, 0.015780, -0.073788, -0.043463, -0.081641, -0.036785, -0.018478, -0.019858, -0.060641, -0.061690, -0.054335, -0.050414, -0.073210, -0.044163, -0.031363, 0.021290, -0.012645, -0.020544, 0.096797, 0.086850, 0.009052, 0.070525, 0.076796, 0.002512, 0.037701, 0.107301, 0.046766, 0.031592, 0.051391, 0.023918, -0.006392, -0.006075, 0.058271, 0.022683},
  {0.016050, 0.106929, 0.125166, 0.027753, -0.019376, -0.027313, 0.021372, -0.084048, -0.048582, -0.021451, -0.121514, -0.086792, -0.153257, -0.094060, -0.005779, -0.003546, 0.019083, 0.018741, 0.023561, 0.014996, 0.011848, 0.012468, 0.034287, 0.049862, 0.017872, 0.034061, -0.041889, 0.015404, 0.039861, -0.020704, -0.031617, -0.060354, -0.042575, -0.067942, -0.007907, -0.062581, 0.005244, -0.035606, -0.060091, -0.005379, -0.069281, -0.126820, -0.135564, -0.081443, -0.124294, -0.124045, -0.099256, -0.019153, -0.052698, -0.011698, 0.011823, -0.038473, 0.021088, -0.010218, -0.026310, 0.046956, 0.084516, 0.026547, 0.011771, -0.048096, 0.004908, 0.109785, -0.006235, 0.087676, -0.035440, -0.021245, 0.030967, 0.094154, -0.022911, -0.081863, -0.063929, -0.059346, -0.017175, 0.023904, -0.048837, 0.015105, 0.114555, 0.057157, 0.021938, -0.005963, 0.046982, 0.014863, 0.051304, 0.006347, 0.026922, -0.026838, 0.011341, 0.061079, -0.025187, 0.028430, -0.005103, 0.047717, 0.017297, -0.010381, 0.022370, -0.091403, -0.073647, 0.040766, -0.033832, 0.002429, 0.036032, -0.090388, -0.139247, -0.019262, 0.007063, -0.003532, -0.114997, -0.019351, -0.043636, -0.053035, 0.030620, 0.009416, 0.037767, 0.021366, 0.046070, 0.014850, -0.066240, 0.011827, 0.069438, 0.026943, -0.032773, -0.055071, -0.020061, 0.089808, 0.037239, 0.045338, 0.137849, 0.030181, 0.026666, 0.069081, 0.044877, 0.013323, 0.087615, 0.020805, 0.026650, 0.003692, -0.008827, -0.004738, -0.043996, 0.012876, 0.002008, 0.023541, -0.016528, 0.014452, 0.038339, -0.018240, 0.002875, -0.013324, 0.049859, 0.009308, -0.025671, -0.123225, -0.069100, -0.004740, 0.040967, 0.121318, 0.053180, -0.082904, -0.008293, -0.083825, 0.027989, -0.051812, 0.053365, 0.038599, -0.029656, 0.029384, 0.133084, 0.057336, 0.118191, 0.032999, 0.040954, 0.020003, -0.052376, -0.023684, 0.039854, -0.003136, 0.014935, -0.070484, -0.070373, -0.042436, 0.090390, 0.095483, 0.025039, -0.008294, 0.039422, 0.055297, -0.025316, 0.045476, -0.093784, -0.092339, -0.087520, -0.085849, -0.074193, -0.032292, -0.040599, -0.079045, -0.065330, -0.050444, -0.009312, -0.041938, -0.121725, -0.057394, -0.012715, 0.074302, 0.066623, -0.057778, -0.018532, -0.003146, 0.076151, 0.055298, 0.070562, 0.122608, 0.030176, 0.058841, 0.016035, 0.087113, 0.049263, 0.036113, -0.002468, 0.013660, 0.023511, -0.038650, -0.069215, 0.036947, 0.039758, -0.026729, -0.030156, 0.003916, -0.017973, 0.024340, -0.014366, -0.080159, -0.082418, -0.043589, -0.107778, 0.002369, -0.065448, 0.035383, -0.028191, -0.025829, 0.005569, -0.014146, 0.007878, -0.023894, -0.110370, 0.005364, 0.008795, -0.063841, 0.002260, -0.103905, 0.006661, -0.053238, -0.056821, -0.017478, -0.011631, 0.008745, -0.082170, 0.001078, -0.028886, -0.027099, -0.034646, -0.088778, -0.070179, -0.021298, 0.002033, 0.028811, -0.072892, -0.009067, 0.040040, 0.043306, -0.010035, -0.000343, 0.022910, -0.016851, -0.082193, -0.020255, -0.002781, -0.003022, -0.046555, -0.038080, -0.022262, 0.063843, 0.021173, -0.008420, -0.024074, -0.014010, 0.010841, -0.024812, 0.030739, -0.001984, -0.033056, -0.020868, -0.071726, 0.045404, -0.013593, -0.024327, -0.025578, -0.027794, 0.059086, 0.017612},
  {-0.113871, 0.074858, 0.120788, 0.059225, 0.066125, 0.044110, 0.062645, 0.136633, 0.133230, 0.042781, 0.070268, 0.013253, -0.028724, -0.065164, -0.047106, -0.050365, 0.000133, -0.001329, -0.056950, -0.035665, 0.016857, 0.042652, -0.014281, 0.020623, 0.032544, -0.042274, 0.008478, -0.044123, -0.048748, -0.030140, -0.081903, -0.011333, -0.035489, -0.013498, -0.014018, 0.034108, 0.008845, 0.014163, -0.042528, 0.029496, 0.034520, 0.063597, 0.098337, 0.071214, 0.081843, 0.123336, 0.105807, 0.028778, -0.036659, -0.040874, 0.139667, -0.027989, -0.095825, -0.034008, -0.019694, -0.082042, -0.026739, 0.028993, -0.023331, 0.028104, -0.063676, -0.000424, -0.061228, -0.078918, 0.013988, 0.030888, -0.058638, 0.011736, -0.062803, -0.018500, -0.059398, 0.037776, -0.064616, 0.003932, -0.087952, -0.024132, -0.007189, 0.060401, -0.019134, -0.009041, 0.038130, -0.082221, -0.005629, -0.108545, -0.073999, -0.079205, -0.013178, 0.003042, -0.045685, -0.018794, -0.055723, -0.014428, 0.005552, -0.046455, 0.056159, -0.001742, -0.047233, -0.065522, -0.085779, -0.039220, 0.239355, -0.000265, -0.011713, 0.005456, -0.127679, -0.058036, -0.026975, -0.040790, 0.074811, 0.026999, 0.017787, 0.032042, -0.018972, -0.038953, 0.046861, -0.028122, -0.005725, -0.085718, -0.060271, -0.151233, -0.040809, -0.004310, -0.051554, -0.027541, -0.058079, -0.084654, -0.085385, -0.075978, -0.079846, -0.076610, 0.009609, -0.060143, 0.017423, -0.050459, -0.090851, -0.108608, -0.099729, -0.086696, -0.044881, 0.012941, -0.049038, -0.002424, -0.015666, 0.025361, -0.002339, -0.007251, 0.004024, -0.076150, -0.075008, -0.110771, -0.042151, 0.113757, 0.012169, -0.027502, -0.040060, 0.029429, 0.001069, 0.023279, 0.059157, -0.038302, -0.037584, -0.019380, -0.003496, -0.061403, -0.012734, -0.004927, 0.005416, 0.029117, -0.034333, -0.023361, 0.005313, -0.054323, 0.077601, 0.051579, 0.051994, 0.085571, 0.084052, 0.061927, 0.008442, 0.044143, 0.000876, -0.027461, -0.055497, -0.006025, -0.045258, 0.006979, -0.015589, 0.025537, 0.001568, -0.067221, 0.014833, 0.024134, -0.024190, -0.042070, 0.037993, -0.009592, -0.087663, 0.022135, -0.018466, 0.030330, -0.058907, -0.043274, 0.064510, -0.013691, -0.113405, -0.087970, -0.042213, -0.053816, -0.066474, -0.085570, -0.065807, -0.008099, -0.011869, -0.064211, -0.076149, -0.113012, -0.095045, -0.038603, -0.010047, -0.003322, 0.032446, 0.026572, 0.055535, 0.065236, -0.022228, 0.089180, 0.095461, 0.068642, 0.118011, 0.065661, 0.085055, -0.009732, -0.007375, 0.010036, 0.014240, 0.022083, 0.016136, 0.018137, 0.091855, 0.049232, 0.019289, -0.055729, -0.021838, -0.012266, -0.023034, -0.061240, 0.015988, -0.035723, -0.127219, -0.028411, 0.075293, 0.007182, -0.023690, -0.017582, -0.017183, -0.063240, -0.026279, -0.030501, -0.068813, -0.044471, -0.012627, 0.065909, 0.022275, 0.013360, 0.124553, 0.025877, 0.140864, 0.147010, 0.116867, 0.147910, 0.069812, 0.101164, 0.046295, 0.101558, 0.019545, 0.073124, 0.009983, 0.072594, 0.037531, 0.096433, 0.096324, 0.070786, 0.051975, 0.013973, 0.078526, 0.022303, 0.078367, 0.030033, 0.020932, 0.028562, 0.021364, -0.059138, -0.048263, -0.006640, -0.017181, -0.027955, -0.011576, -0.005177, -0.086969, -0.124230},
  {0.009186, 0.132996, 0.068086, 0.065305, -0.027470, 0.051656, -0.045862, 0.004422, -0.060737, -0.066258, -0.076614, -0.039310, -0.096789, -0.055232, -0.050701, -0.018422, -0.029980, -0.014469, -0.022542, -0.081772, -0.073160, -0.000523, -0.051818, -0.009781, 0.020317, -0.037256, 0.032929, 0.036324, 0.036162, 0.007755, -0.030125, -0.046741, -0.009335, -0.053549, -0.010009, -0.076495, -0.040770, -0.056565, -0.013890, 0.008627, -0.088489, -0.079713, -0.078409, -0.025928, -0.067009, 0.012138, -0.077979, -0.018214, -0.089245, -0.080514, -0.108347, -0.069358, -0.086555, 0.036255, -0.055835, 0.044722, 0.066864, 0.020748, 0.055467, -0.025214, 0.046745, -0.041913, 0.056986, 0.045236, -0.049641, -0.087352, -0.038178, 0.050204, 0.004776, 0.086111, 0.094186, 0.073186, -0.037422, -0.066731, 0.032188, 0.120182, 0.047631, -0.008704, -0.041066, -0.045695, -0.003468, 0.030869, 0.022988, 0.043265, 0.101582, 0.009017, 0.025071, 0.025389, 0.066430, 0.029714, 0.040826, 0.017361, 0.041041, -0.024211, -0.014419, -0.049024, -0.046211, -0.059449, -0.059844, 0.021756, -0.167325, -0.153308, -0.110179, -0.007290, 0.009559, -0.157645, -0.154396, -0.098805, -0.098532, -0.005442, -0.061951, -0.062231, -0.079042, 0.008927, -0.051696, 0.005254, 0.011886, -0.051257, -0.064290, -0.135085, -0.111741, -0.115061, -0.079722, -0.039193, -0.026715, -0.093793, 0.043150, -0.005078, 0.016633, -0.018306, -0.015618, -0.004993, 0.005711, 0.000381, -0.006330, -0.033210, -0.066232, -0.081211, -0.026712, -0.061111, -0.081716, 0.048758, 0.007409, -0.024581, 0.061122, 0.038604, 0.017770, 0.026994, 0.051378, 0.079238, -0.137662, -0.081015, -0.087370, 0.027048, -0.043445, 0.006383, -0.071042, -0.074370, 0.033580, 0.001056, 0.052069, -0.052159, -0.027513, -0.060713, 0.038125, 0.123175, 0.065351, 0.015587, 0.089403, 0.075491, -0.027849, 0.028169, 0.007319, 0.049539, 0.089583, 0.036104, 0.012080, -0.085892, -0.026742, 0.011105, -0.052869, -0.046706, -0.015550, 0.030876, -0.021520, -0.110787, -0.038062, -0.116235, -0.044871, 0.031908, -0.058742, -0.072708, -0.041139, -0.075105, -0.070714, -0.084682, -0.024794, -0.015712, -0.072783, 0.015387, -0.067982, -0.043556, -0.003770, 0.003566, -0.085337, -0.018780, -0.004204, 0.004331, -0.008190, 0.011413, 0.033101, -0.039180, -0.038290, -0.039501, 0.082171, 0.025327, 0.020446, -0.017409, 0.046593, 0.060795, 0.004691, -0.017905, -0.021683, -0.006192, -0.018613, 0.003121, -0.048393, 0.009493, -0.023826, 0.065148, 0.037018, -0.000865, -0.001914, 0.031583, 0.036900, 0.007392, 0.059607, -0.016839, -0.027866, -0.044868, -0.001664, 0.098886, 0.011010, -0.008637, -0.038057, 0.063834, 0.033821, -0.032763, 0.002428, -0.097629, 0.039297, -0.032828, -0.021647, 0.056134, 0.040159, -0.038167, -0.006194, -0.037349, 0.045872, 0.062250, -0.006342, -0.045197, -0.011833, 0.059492, 0.030787, 0.028352, 0.027734, -0.033227, -0.046043, -0.019479, -0.040857, -0.019796, -0.042246, -0.036242, -0.034903, 0.022375, -0.068007, 0.038253, -0.017260, 0.037751, -0.027617, -0.007046, 0.001458, -0.074926, 0.010401, -0.018193, -0.047424, -0.056949, 0.029373, 0.030796, 0.040977, 0.023986, 0.016715, -0.009009, 0.040782, 0.052959, -0.007807, 0.004616, 0.084708, 0.068658},
