Layer: fc1.weight
Shape: torch.Size([128, 360])
Values:
{
  {-0.052046, -0.071682, 0.012197, 0.000732, -0.005627, -0.000385, -0.027130, -0.055325, -0.028823, 0.043913, -0.002614, -0.004218, 0.076876, 0.025676, 0.025258, -0.046294, -0.017357, -0.083495, -0.077066, -0.009115, -0.056862, -0.061986, -0.090093, -0.021179, -0.076226, -0.044968, -0.033420, -0.058008, 0.017148, -0.024162, -0.015482, 0.060942, -0.010653, 0.060002, 0.021352, -0.027443, 0.033336, 0.023488, 0.055435, 0.047630, 0.005434, 0.046234, 0.000443, 0.037799, -0.021654, -0.029804, -0.028291, 0.023461, -0.016012, -0.031164, -0.018273, -0.041261, -0.016436, -0.007304, -0.031350, 0.027541, -0.046432, -0.018180, -0.014825, -0.032211, -0.045547, 0.031673, -0.042770, 0.011893, 0.080705, 0.057750, 0.008338, 0.039949, 0.034425, -0.015781, -0.041038, -0.040097, -0.023989, 0.003792, -0.010442, -0.015554, -0.009147, 0.003895, 0.016093, 0.018743, -0.014541, -0.045858, -0.043625, 0.031369, -0.031658, -0.026019, -0.014297, -0.061286, 0.000802, -0.038329, 0.011681, 0.021193, 0.017666, -0.041932, -0.028347, 0.040786, 0.054907, 0.005025, 0.051137, -0.010368, 0.052937, -0.012895, 0.059954, -0.021066, 0.029463, -0.036253, -0.017073, -0.045216, -0.000912, 0.001740, 0.034849, 0.029269, -0.015548, -0.055793, -0.054211, -0.017629, 0.058947, 0.057793, -0.000441, 0.052956, -0.022380, -0.059866, -0.055674, -0.092696, -0.034308, -0.089846, -0.037212, -0.119939, -0.042504, -0.035035, -0.048128, -0.102687, -0.109553, -0.090777, -0.106849, -0.115134, -0.058768, -0.012987, -0.027621, -0.008839, -0.044517, -0.037651, -0.039116, 0.001042, -0.068911, -0.021812, -0.061498, -0.019094, -0.012709, 0.001704, 0.051774, 0.082931, -0.013155, -0.019853, 0.019172, -0.011046, -0.008747, 0.002952, -0.017029, 0.004880, 0.021631, 0.013637, -0.028464, -0.028200, -0.047347, -0.023046, -0.003609, 0.005588, -0.003281, -0.035793, -0.028934, -0.022711, -0.019840, 0.008956, -0.029247, -0.040836, 0.009749, -0.074067, 0.026043, -0.081200, -0.040616, 0.018621, 0.006546, 0.017479, -0.042266, -0.032873, 0.000197, -0.010389, 0.010248, -0.021763, -0.013810, 0.017740, 0.039119, -0.002756, 0.000111, 0.000153, 0.053271, -0.003380, 0.018114, 0.007906, 0.063055, 0.040118, -0.000809, 0.017841, -0.004125, -0.038730, 0.005172, 0.072222, 0.077103, 0.019653, -0.032338, 0.044856, 0.009547, -0.013107, 0.041686, -0.019035, -0.013569, -0.020459, 0.042335, -0.022672, 0.042509, -0.049776, 0.042833, -0.030379, -0.015794, 0.035157, -0.022251, -0.026347, 0.044646, 0.001469, 0.031638, 0.046764, -0.008887, 0.048410, -0.058960, 0.054843, -0.025165, -0.054374, -0.020129, 0.014529, -0.109177, -0.053211, -0.104848, -0.101346, -0.035110, -0.073589, -0.076019, -0.035815, 0.007506, -0.001587, -0.026654, -0.026442, 0.003536, 0.062791, 0.095512, 0.004165, 0.029683, 0.056749, 0.032880, 0.017543, 0.043839, 0.116687, 0.010431, 0.052701, 0.020827, 0.016414, -0.005371, 0.054489, 0.019010, 0.024648, 0.008680, 0.041302, 0.041776, -0.034973, -0.021269, -0.066317, -0.043662, -0.044016, -0.047771, -0.008245, -0.067597, 0.020877, 0.019117, 0.010806, -0.046563, 0.004724, -0.022270, 0.011000, 0.024101, 0.038377, 0.026916, 0.015229, -0.040386, 0.014711, -0.017170, 0.045177, 0.036224, 0.037486, 0.040664, 0.043671, -0.001597, -0.031037, -0.042587, -0.023975, -0.086298, 0.005357, -0.010421, 0.003147, -0.002294, -0.031696, 0.037002, 0.009574, -0.000497, -0.000713, -0.029137, 0.013732, -0.064781, -0.067898, 0.007996, -0.061871, -0.043549, 0.038729, -0.035916, -0.010905, -0.033103, -0.033749, 0.020053, -0.034798, -0.044132, -0.005545, 0.043126, 0.024397, 0.000628, -0.030824, 0.014160, -0.012627, -0.061030, -0.007459, -0.013676, -0.077704, 0.008306, -0.032364, 0.027807, -0.033965, -0.008766, 0.056142, 0.023591, 0.033964, 0.000024, -0.004260, -0.024981, 0.009645, 0.054357, -0.025478, 0.017740, -0.000816, 0.027475, -0.007186, -0.039543, -0.059804},
  {0.016873, 0.054563, -0.021772, -0.033206, -0.029580, 0.012317, 0.023580, 0.098868, 0.063493, 0.038958, 0.111116, 0.077405, 0.031313, 0.037889, 0.037214, 0.104292, 0.078034, 0.071060, 0.025131, 0.055700, 0.074091, 0.074274, 0.080233, 0.051573, 0.046929, -0.032260, 0.073318, 0.055691, 0.000584, 0.033237, 0.006907, 0.014989, 0.044699, -0.002031, 0.049370, 0.063184, 0.015881, 0.058023, 0.001811, 0.049124, -0.019089, 0.047571, -0.043988, -0.023442, 0.004155, -0.009672, 0.043137, 0.026475, 0.043727, 0.027275, -0.044952, 0.021704, -0.005913, 0.002809, 0.030337, 0.033805, 0.055650, -0.030953, 0.054493, -0.026959, 0.033277, 0.039224, 0.008784, -0.040236, -0.051501, 0.026820, -0.024382, 0.018308, 0.005494, 0.014755, 0.019391, 0.002269, 0.037341, 0.036887, 0.026516, 0.008284, -0.019606, -0.009783, 0.081594, 0.006840, 0.004296, 0.020025, 0.045372, -0.014541, 0.008317, -0.038060, -0.011925, 0.012290, -0.006174, -0.021665, 0.053295, -0.013818, -0.038916, 0.037783, -0.048277, -0.024256, 0.044900, -0.008855, -0.047083, 0.010385, -0.019574, -0.046085, -0.034024, -0.024214, -0.014663, 0.040767, 0.008101, -0.039066, 0.015584, 0.047992, 0.052815, 0.056783, -0.041761, -0.000293, 0.035817, -0.023830, 0.044861, -0.032102, -0.038973, 0.030771, -0.025096, 0.020761, 0.026995, 0.051148, 0.046423, 0.027465, 0.117818, 0.112851, 0.037736, 0.027070, 0.009081, 0.012495, -0.024397, 0.065449, 0.023229, -0.042449, 0.013928, -0.037413, 0.022330, -0.046082, -0.037827, 0.024809, 0.025027, -0.037159, -0.046363, -0.022300, -0.056966, -0.051217, -0.005534, 0.003743, 0.039151, 0.009496, 0.013341, 0.056390, 0.057972, 0.010542, 0.024031, 0.045594, 0.036267, 0.040096, -0.022444, -0.031759, 0.022959, -0.004917, 0.008440, -0.013592, 0.058299, 0.027547, 0.030231, 0.006892, -0.033782, 0.031223, 0.042282, 0.009023, 0.007492, -0.049518, 0.034781, -0.046051, -0.005398, 0.028902, -0.052138, -0.010478, 0.020710, -0.068923, -0.002724, -0.036152, -0.046591, 0.023386, 0.061933, 0.052790, 0.040186, 0.042016, 0.093631, 0.012990, 0.066317, 0.021866, 0.007357, 0.037952, 0.061693, -0.016469, -0.003442, -0.032897, 0.016382, 0.064484, 0.072223, 0.032186, 0.052597, 0.062012, 0.041445, 0.040294, -0.034402, 0.003274, -0.044283, 0.013557, -0.065646, -0.051813, 0.020177, -0.016477, -0.019644, 0.001668, 0.047657, -0.010483, -0.024534, -0.034423, -0.012595, -0.002618, 0.029404, 0.020822, 0.012723, 0.059826, 0.023065, 0.055644, -0.051205, 0.010608, -0.026666, 0.027440, 0.016266, -0.054176, -0.002855, 0.023198, 0.110871, 0.022277, 0.022856, 0.023662, 0.084644, 0.069252, 0.068701, -0.001882, -0.016026, 0.037869, 0.001420, 0.035482, -0.031475, -0.014434, 0.017679, -0.082660, -0.026421, -0.065826, -0.087481, -0.048054, -0.044860, -0.034999, 0.008453, -0.028346, -0.044206, -0.092101, -0.086121, -0.066524, -0.021804, 0.035039, -0.024529, -0.007134, -0.030535, 0.003095, -0.036624, -0.041215, 0.024945, -0.061007, 0.004326, 0.021234, -0.057135, -0.027895, -0.044350, 0.016038, -0.016950, 0.029810, 0.021385, -0.007345, -0.026197, -0.000363, -0.024756, -0.017638, -0.005381, -0.046967, 0.020921, -0.004048, -0.004300, 0.002066, -0.022971, -0.012635, 0.075892, 0.075036, 0.009268, -0.026967, 0.033904, -0.000548, -0.061487, -0.018258, -0.054788, 0.042261, 0.041370, 0.029889, -0.008463, -0.002094, -0.013927, -0.016612, -0.017438, -0.051928, -0.050692, -0.057498, -0.052438, 0.010539, 0.016856, -0.061271, -0.019697, -0.053103, -0.055866, -0.061809, 0.009657, -0.059782, -0.053833, -0.006994, -0.036795, 0.047983, 0.005467, 0.045503, 0.006735, -0.000134, 0.053265, -0.032325, 0.044691, 0.053259, 0.061231, -0.033260, 0.025054, 0.046900, -0.022286, 0.051247, 0.013627, -0.033703, -0.031704, 0.006256, 0.035047, -0.004833, 0.001250, -0.034762, -0.017807, 0.030721, 0.017654, -0.022732},
  {-0.033808, -0.003216, -0.008243, -0.021357, 0.027476, 0.015622, -0.042282, -0.046083, -0.007125, -0.016307, -0.009597, -0.049961, -0.013233, -0.017053, 0.055456, -0.029522, -0.037251, 0.003391, -0.000654, -0.017007, -0.076254, -0.083794, -0.086730, -0.101744, -0.097691, -0.062679, -0.014418, -0.076782, -0.030676, -0.039553, -0.028810, -0.006854, 0.044231, -0.010360, 0.006079, -0.055835, 0.025350, -0.014326, -0.013275, -0.021074, 0.040461, -0.023568, -0.025042, -0.016105, -0.030610, -0.014020, 0.052750, -0.043032, 0.040771, 0.042762, -0.064282, -0.053298, -0.032288, -0.062484, -0.051997, -0.036909, 0.034163, -0.022292, 0.004976, -0.008361, -0.008802, -0.018861, -0.003935, -0.001664, 0.064009, 0.028242, 0.074730, 0.041000, 0.043977, 0.005252, -0.010253, 0.014366, -0.019989, -0.019007, -0.010391, -0.046121, 0.006965, 0.001132, 0.038403, -0.050392, 0.018351, -0.037077, -0.021959, 0.018433, -0.009807, 0.023010, -0.042678, 0.058887, -0.023602, 0.031115, -0.063813, -0.018607, -0.009494, 0.033282, 0.027751, 0.005075, 0.032586, 0.041182, 0.023032, -0.043923, -0.061131, -0.045217, -0.021928, -0.067162, -0.041797, -0.060570, 0.008287, -0.005349, 0.014246, 0.011588, 0.052994, -0.005300, 0.039201, 0.033387, -0.028916, -0.014978, -0.048714, 0.013634, 0.018177, 0.003889, 0.003077, -0.032491, -0.080113, -0.093456, -0.102679, -0.039965, -0.051686, -0.025980, -0.081729, 0.012418, -0.037701, -0.035252, -0.003022, -0.031315, -0.020376, -0.059908, -0.087758, -0.000818, 0.003752, -0.030362, -0.058318, 0.028886, 0.022195, -0.040704, -0.029852, -0.079213, -0.080024, 0.003011, -0.076787, -0.067775, 0.019250, 0.028916, 0.032678, -0.069300, 0.012061, -0.020144, 0.021271, -0.025191, -0.021030, -0.040280, -0.043372, 0.001438, 0.071817, -0.025716, -0.022712, -0.001128, 0.013164, -0.057172, -0.039518, -0.076387, -0.038115, -0.079581, -0.053423, -0.069303, -0.070887, -0.055304, -0.001234, -0.067953, 0.017040, 0.011108, 0.019422, -0.003182, -0.014874, -0.008791, -0.025651, -0.007015, 0.031532, -0.004563, -0.029744, 0.031359, -0.000681, -0.041113, -0.031506, -0.029606, 0.037052, -0.028210, 0.030754, -0.029105, -0.027498, 0.011140, 0.051030, 0.078401, -0.006266, 0.066422, 0.056095, 0.050975, 0.012909, 0.042723, -0.036644, -0.039349, 0.017044, 0.005956, 0.014623, 0.045365, -0.013248, -0.010122, 0.006429, -0.067182, -0.060411, -0.050149, 0.005870, 0.012409, -0.060273, 0.032686, 0.054347, -0.057000, -0.050894, -0.017382, 0.009335, -0.030968, 0.031698, 0.041856, -0.005150, -0.014706, 0.063808, 0.051775, -0.055430, 0.040137, 0.024568, 0.021157, -0.040379, -0.066967, -0.072365, -0.038365, 0.009416, 0.020780, -0.030663, -0.055969, -0.051105, -0.011090, 0.000736, 0.030234, 0.000915, 0.024991, 0.035465, 0.040013, -0.001834, 0.005623, 0.022114, 0.035971, 0.023983, 0.018932, 0.012240, 0.017962, 0.017537, 0.034265, 0.055214, 0.079307, 0.035580, 0.044035, 0.002490, 0.065372, 0.024666, -0.016875, -0.034705, 0.035375, 0.042453, 0.017895, 0.007469, 0.000759, 0.018458, 0.032418, -0.022591, -0.030722, -0.067447, -0.028555, -0.049816, -0.056041, 0.020055, 0.020161, 0.002513, -0.013472, 0.026698, -0.026211, -0.026449, -0.030682, -0.071184, -0.038736, -0.040367, -0.017735, -0.002127, -0.023642, 0.021282, -0.053998, -0.082592, -0.022056, 0.016529, -0.081933, -0.061990, -0.028618, -0.054700, 0.009509, -0.065219, -0.018617, 0.008590, -0.069839, -0.052568, 0.033419, 0.014217, 0.038945, 0.008752, 0.018393, 0.012807, 0.024432, 0.006902, 0.022887, 0.049081, 0.052116, 0.066621, 0.008568, 0.024837, -0.000350, -0.006130, 0.015722, -0.016740, -0.002636, 0.038786, 0.033785, -0.024524, -0.043101, 0.008792, -0.013030, -0.040187, -0.026436, -0.056321, 0.013977, -0.051448, -0.003026, -0.032092, 0.011758, -0.016877, 0.017207, -0.023173, -0.030959, -0.047343, 0.010239, -0.060512, -0.037822, -0.041925, -0.009640},
  {0.063377, 0.014301, 0.000593, 0.060121, 0.022954, -0.010944, 0.018757, 0.018847, 0.058872, 0.034675, 0.002334, 0.078240, 0.075360, 0.059561, 0.096475, 0.063039, 0.055532, -0.031483, -0.029132, -0.079356, -0.078222, -0.036773, -0.040126, -0.014820, 0.043654, -0.035267, 0.013468, -0.012486, 0.053203, 0.051151, 0.086046, 0.045075, 0.060372, -0.012350, 0.023895, -0.016691, -0.007057, 0.011268, -0.032489, 0.058327, -0.008767, 0.021689, -0.021425, 0.053210, 0.067971, 0.063530, 0.050595, -0.014515, 0.073338, 0.037135, 0.018328, 0.047423, 0.005491, -0.007224, 0.008470, 0.011080, 0.036729, 0.063891, 0.056916, 0.035126, -0.042679, -0.044849, -0.026079, -0.069815, -0.018394, 0.015605, -0.012252, 0.070462, -0.006101, 0.004560, 0.020514, 0.010536, -0.010766, -0.005248, 0.030894, -0.002614, -0.014911, 0.003185, 0.026012, 0.032950, 0.007847, 0.098431, 0.052807, 0.080000, 0.012943, -0.001586, -0.009798, 0.000356, 0.006134, -0.020954, 0.063989, -0.030840, -0.019944, 0.008064, 0.059406, 0.014389, 0.072293, 0.011574, -0.001515, -0.008144, 0.024476, 0.048271, 0.037996, -0.011747, 0.070536, -0.002400, 0.017559, 0.014472, 0.066616, 0.017076, 0.063935, 0.026834, 0.045548, 0.031475, -0.009562, -0.023816, 0.009916, 0.048016, 0.043712, 0.059216, -0.012720, 0.030780, -0.012995, 0.035121, 0.006106, 0.061855, 0.075055, 0.064765, 0.028285, 0.036475, -0.011363, 0.037391, -0.028336, 0.057989, 0.005188, 0.040380, -0.043704, -0.028029, -0.031438, -0.066353, -0.048483, -0.037103, -0.023298, 0.013861, 0.007791, -0.007102, 0.007878, -0.034883, 0.036069, -0.055985, -0.020336, -0.063225, 0.003634, -0.003950, -0.086262, -0.072770, -0.038799, -0.052957, -0.080870, -0.068507, -0.068691, -0.046016, -0.066970, -0.075865, 0.004102, -0.047468, -0.015736, -0.007565, -0.071696, -0.015360, -0.069539, -0.067829, -0.022362, 0.007223, -0.041879, -0.014848, -0.061559, -0.014756, -0.083129, -0.027386, -0.006390, 0.012335, -0.075388, 0.030390, 0.000142, 0.026415, 0.044008, 0.052547, 0.013165, 0.091952, 0.031346, 0.056354, 0.011537, -0.018841, 0.073721, -0.026266, -0.002881, 0.055168, 0.064614, 0.015792, 0.048206, 0.033378, 0.023242, 0.015625, -0.034153, 0.050879, -0.035185, -0.027499, -0.028770, 0.057590, 0.010914, -0.021672, -0.025319, 0.015484, -0.020121, -0.001703, 0.049132, 0.026466, -0.005091, 0.019765, -0.066395, -0.060529, -0.059593, -0.039011, -0.044160, -0.038951, -0.059748, -0.007830, 0.001701, 0.019345, -0.058961, -0.050260, -0.055854, 0.016799, -0.062163, -0.009327, -0.032304, -0.053558, 0.015422, 0.005934, -0.032620, -0.010713, -0.049584, -0.049475, -0.072976, -0.021321, -0.057487, -0.077911, 0.000271, -0.080075, -0.021763, 0.019057, -0.009782, 0.002389, 0.040787, -0.017272, 0.090158, 0.065926, 0.048770, 0.103563, 0.044185, 0.057987, 0.079062, 0.020974, -0.006135, 0.009425, -0.023532, 0.011687, 0.010350, -0.032895, 0.020503, -0.016158, -0.008317, 0.027320, -0.067161, -0.002625, -0.084453, -0.042173, -0.088267, -0.049721, 0.019460, 0.012571, -0.003694, -0.019963, -0.044255, -0.044827, -0.035816, -0.060538, 0.007197, -0.021451, 0.016810, 0.004027, 0.026232, 0.040088, -0.049019, -0.025790, -0.007328, -0.037713, 0.004963, -0.043189, -0.020712, -0.076668, -0.090636, -0.023877, -0.061740, -0.053441, -0.010767, -0.007244, -0.014246, 0.054541, -0.024416, 0.021540, 0.063751, 0.004896, 0.020095, 0.009343, 0.030019, 0.066014, -0.037784, -0.024358, -0.048317, 0.028212, 0.025566, -0.015794, -0.012362, 0.034470, 0.023932, 0.034757, 0.039296, 0.070990, -0.031011, 0.011509, -0.036990, -0.033670, -0.053570, -0.054861, -0.034362, -0.042701, -0.005848, 0.007152, -0.059276, -0.034981, 0.063107, 0.062120, 0.073549, 0.008312, 0.002938, 0.006885, 0.007470, -0.012680, -0.002114, 0.071474, 0.029445, 0.023388, 0.079475, -0.010077, 0.049897, 0.048133, 0.070700, 0.035440},
  {0.020540, 0.035120, 0.029650, 0.011415, -0.030879, -0.003932, 0.035136, 0.059420, 0.053155, 0.067458, 0.045005, 0.063083, -0.010135, 0.048157, 0.045664, 0.035063, 0.026860, 0.057099, 0.063157, 0.059631, 0.038806, 0.034283, 0.039183, 0.050420, -0.034595, 0.033342, -0.017076, -0.047426, -0.064274, -0.073511, 0.000657, -0.070461, 0.020442, -0.059830, 0.019541, -0.052835, -0.056395, -0.024960, -0.004875, -0.033881, -0.057946, -0.015106, 0.004460, -0.002026, -0.085994, -0.076828, -0.057324, -0.037086, -0.012880, -0.049675, -0.012702, 0.043307, 0.046839, -0.050994, -0.012598, 0.010197, 0.000883, 0.013276, 0.025422, -0.030923, 0.046811, 0.036947, 0.029841, -0.015700, 0.051085, -0.023044, -0.015786, -0.002950, -0.058546, -0.039055, -0.061637, -0.012640, -0.091744, -0.096078, -0.074370, 0.007128, -0.015974, 0.055150, -0.025383, 0.070598, 0.078627, 0.086682, 0.053192, 0.028961, 0.074404, 0.021675, 0.040245, 0.070238, -0.002506, 0.052280, -0.031231, 0.042449, -0.022313, -0.013860, 0.030038, -0.029551, -0.021015, 0.009260, -0.006641, 0.046182, -0.013375, -0.002569, 0.051127, 0.019145, 0.027973, -0.023809, 0.031611, 0.056152, 0.028457, 0.015174, 0.030740, -0.006823, 0.045837, 0.035518, -0.012325, -0.027300, -0.027321, 0.028529, -0.030535, -0.040597, -0.062539, 0.021995, -0.025834, 0.053144, -0.063146, -0.102479, -0.111834, -0.025066, -0.029037, -0.031586, -0.060646, -0.080865, -0.049040, -0.083203, 0.008099, -0.068237, -0.065665, -0.036748, -0.018319, 0.007624, -0.005150, 0.017685, 0.050937, 0.045228, 0.069567, 0.028009, 0.017963, 0.089755, 0.064793, 0.016104, -0.019593, -0.017490, -0.020771, 0.050868, -0.064242, -0.039927, -0.016323, -0.039978, -0.026937, 0.003147, -0.017508, 0.029683, 0.007348, 0.042368, -0.013897, 0.018196, 0.008205, 0.023430, 0.021195, 0.040023, 0.042600, 0.044985, 0.065057, 0.038528, -0.037089, -0.036297, -0.036475, -0.009244, -0.013197, 0.021609, -0.008367, -0.029527, -0.035609, -0.014235, -0.028041, -0.024232, 0.010296, -0.015653, -0.040015, -0.056596, -0.066061, 0.030931, 0.041516, 0.072614, 0.014619, -0.000089, 0.007442, 0.017497, -0.003204, 0.010468, 0.018587, -0.034013, -0.058720, -0.060720, -0.001644, 0.001896, -0.011940, -0.029930, -0.022081, -0.066856, 0.003038, -0.016782, -0.001573, -0.047351, 0.007070, -0.021551, 0.020155, -0.011356, 0.016842, -0.036221, -0.007640, -0.049344, 0.037705, 0.027531, 0.009554, 0.037784, -0.022784, -0.008687, -0.004499, 0.031401, 0.037244, -0.029338, 0.021455, -0.050428, -0.019219, -0.022358, 0.024411, -0.054332, 0.006201, -0.016006, 0.029683, -0.065369, -0.004437, -0.045318, -0.055191, -0.027344, 0.046374, 0.064280, 0.001131, 0.005393, 0.075990, -0.010562, 0.015504, -0.013897, 0.041095, 0.024605, 0.026084, 0.061027, 0.008754, 0.073347, 0.022238, 0.014488, 0.018236, 0.037969, 0.026631, -0.035631, -0.059353, -0.042350, -0.079020, -0.026276, -0.062618, -0.042280, -0.027767, -0.011931, 0.003602, 0.019546, 0.035264, 0.024875, -0.000206, 0.031805, 0.037249, -0.017443, -0.038184, -0.027063, 0.009278, 0.043892, 0.033298, -0.009113, 0.053118, 0.039085, 0.035746, 0.005817, 0.028808, 0.000809, -0.036316, 0.001161, -0.014609, -0.030461, -0.032270, 0.007383, 0.089851, 0.031685, 0.036343, 0.026574, 0.033149, 0.033467, 0.046282, 0.027021, -0.000834, 0.026465, -0.017254, -0.002059, 0.002000, 0.032438, -0.020863, -0.058584, -0.038702, -0.051927, -0.024384, -0.038626, -0.046544, 0.004894, 0.027779, -0.030871, 0.027535, 0.046790, 0.046056, -0.009512, 0.029104, 0.028421, 0.006595, -0.031581, -0.025775, 0.000847, -0.076301, -0.042736, -0.012965, -0.045005, -0.021053, -0.005521, -0.014217, -0.008004, -0.038913, -0.009718, 0.009335, -0.022874, -0.052043, -0.029180, 0.038859, -0.017874, -0.011516, -0.035896, 0.050739, 0.011906, 0.058083, 0.002661, 0.051426, 0.008045, -0.017599, 0.018792},
  {-0.015763, 0.084638, 0.021994, 0.072386, 0.083850, 0.040219, -0.008517, -0.009465, -0.009251, 0.029246, -0.058451, -0.041813, -0.040463, -0.080086, 0.018005, 0.013838, -0.054538, 0.036895, 0.007642, 0.043881, -0.012907, 0.019634, -0.006780, -0.037018, 0.021501, -0.013103, 0.036846, 0.056014, 0.032467, 0.040973, 0.055304, 0.027159, -0.008462, 0.035208, -0.017602, 0.038203, -0.040296, -0.021745, -0.005947, 0.033790, 0.019584, 0.041446, -0.013611, 0.053287, 0.053994, 0.004112, -0.054353, -0.038207, 0.039750, -0.039277, -0.047325, -0.042655, 0.017819, 0.030338, 0.045283, 0.017028, 0.031986, 0.057038, 0.073535, 0.026021, -0.060380, -0.083723, -0.077984, 0.011086, -0.078300, 0.010055, -0.064711, 0.002802, -0.000676, -0.006325, -0.010310, 0.021409, 0.048816, 0.031719, 0.059123, 0.073765, 0.009745, -0.028842, 0.031229, -0.068332, -0.029631, -0.011803, 0.013365, -0.005966, -0.016857, 0.056250, 0.000356, -0.004083, 0.047698, -0.002852, 0.075949, 0.079258, 0.013385, -0.005004, -0.001152, 0.054887, -0.007567, 0.010576, 0.063419, 0.059585, 0.022630, -0.026070, 0.027492, 0.007097, -0.006853, 0.039017, -0.003948, -0.011239, -0.022186, -0.029375, 0.063126, 0.064829, 0.058853, -0.026708, 0.024105, 0.054705, 0.019525, 0.036077, 0.016253, 0.070156, 0.070183, 0.051351, 0.037536, -0.022682, 0.054206, 0.020203, 0.048662, -0.002819, 0.067578, 0.026142, 0.041609, 0.041452, 0.051564, 0.039108, 0.004467, -0.025960, 0.016921, 0.040300, 0.008960, 0.045974, -0.000972, 0.039121, 0.034170, -0.006607, 0.037010, -0.056840, -0.050192, 0.025108, -0.053515, -0.002156, 0.004029, 0.003210, -0.010052, -0.095068, -0.017222, -0.052637, -0.075881, -0.009898, -0.008535, -0.010685, -0.073232, -0.055645, 0.016754, -0.008097, -0.089060, -0.049047, -0.036044, -0.066263, 0.013806, -0.052781, -0.049830, -0.063929, 0.021451, -0.025069, -0.060565, 0.007763, -0.029417, -0.030701, 0.009086, -0.074731, -0.025838, -0.068420, -0.049001, -0.041454, 0.033695, -0.041349, 0.053379, 0.014290, 0.001417, 0.036893, 0.089924, 0.047939, 0.107041, 0.040575, 0.095734, 0.027111, 0.040440, -0.006361, -0.010247, 0.026100, 0.094049, 0.042753, 0.029784, 0.051716, 0.045518, 0.031786, 0.003326, 0.030684, -0.003121, 0.038025, 0.054991, -0.027754, -0.044210, -0.021603, -0.065210, 0.014791, 0.001306, -0.046004, 0.022453, -0.002216, -0.010792, -0.019078, 0.022543, -0.021539, -0.040464, 0.018469, -0.063701, -0.008994, -0.010785, 0.041951, 0.004701, -0.048542, -0.018144, -0.033548, 0.021159, -0.019681, 0.014148, 0.037308, 0.014680, -0.015216, -0.067670, -0.032551, -0.010167, -0.010913, 0.006276, -0.002258, 0.013814, -0.020545, 0.058879, 0.046326, 0.026998, 0.014270, -0.016719, -0.018692, 0.016895, 0.015238, -0.018637, 0.051052, 0.012316, -0.031079, -0.051978, -0.027892, 0.005997, -0.039483, -0.011932, 0.022902, -0.002054, 0.024271, -0.010052, -0.074436, -0.002696, 0.016405, 0.008279, 0.002454, -0.043808, 0.008647, 0.009316, -0.009842, -0.013564, -0.006066, 0.004952, -0.033558, 0.011309, -0.045514, -0.030636, 0.027189, -0.046194, 0.017816, -0.023016, -0.007608, -0.036925, 0.019333, -0.044730, 0.054195, -0.043776, -0.029889, -0.014995, -0.059543, 0.010706, -0.029037, -0.027618, -0.021483, -0.066544, -0.072001, -0.045841, -0.098493, -0.080344, -0.032524, -0.076971, -0.027572, -0.103470, -0.030323, -0.031790, 0.012280, -0.005470, 0.025717, 0.003730, 0.069802, -0.007707, 0.068294, -0.008242, 0.068967, -0.007983, 0.034748, 0.003857, 0.000841, 0.039644, -0.019128, -0.036880, -0.008941, -0.014762, -0.004382, 0.030692, 0.052691, 0.035544, -0.013266, -0.045286, 0.039049, -0.004809, 0.044817, -0.000653, 0.011460, 0.030646, 0.009246, -0.043382, -0.022395, 0.035434, -0.009336, -0.029192, -0.009451, -0.020424, 0.059485, -0.028544, 0.011546, 0.023017, -0.015900, -0.031218, 0.017942, -0.000450, -0.021705},
  {-0.074030, -0.007558, -0.014694, 0.022970, -0.035159, -0.046341, 0.023138, 0.040111, 0.002904, 0.052862, -0.035665, -0.003768, 0.064810, -0.025916, -0.029693, 0.015154, 0.002785, 0.038224, -0.016497, 0.004811, 0.020452, -0.017633, 0.001696, -0.007522, -0.017531, -0.036743, -0.024482, -0.010198, -0.005613, 0.035491, -0.003624, 0.023102, 0.003341, 0.025121, 0.028439, 0.042951, 0.054284, -0.012901, -0.024042, 0.038229, 0.069244, -0.013609, 0.048461, 0.033500, -0.028835, -0.032424, -0.013045, -0.029974, -0.018162, 0.017269, -0.008624, 0.011117, 0.044033, 0.011023, 0.048930, 0.033752, 0.032593, 0.063440, -0.021316, 0.056551, 0.005173, -0.066407, -0.046945, 0.025801, -0.020110, -0.014673, -0.017897, 0.011145, 0.010731, -0.041729, -0.079664, -0.042960, -0.045724, 0.004817, -0.016774, -0.016919, 0.009413, -0.040065, -0.041433, -0.006930, 0.050174, 0.083778, 0.105015, 0.059109, 0.089107, 0.069814, 0.034374, 0.099428, 0.001618, 0.045881, 0.051197, 0.006749, 0.014313, 0.053278, 0.036079, 0.049114, -0.025085, 0.006966, -0.034249, -0.035302, 0.034651, -0.032517, -0.010832, -0.011106, -0.059887, -0.028686, -0.037025, -0.028735, 0.013963, 0.031392, 0.035978, 0.044499, -0.024068, 0.069166, 0.057339, 0.023583, -0.002274, 0.069928, 0.085044, 0.049053, 0.074008, 0.003585, 0.018734, 0.023409, -0.059041, 0.033760, 0.034902, 0.020536, -0.046721, -0.004981, -0.015041, 0.006368, 0.009274, 0.050479, -0.026315, 0.005129, 0.018310, 0.019965, -0.009264, 0.025281, 0.013366, -0.050926, -0.025903, -0.035619, -0.072699, -0.032235, -0.046981, -0.076964, -0.080805, -0.057167, -0.046183, -0.005985, -0.011939, -0.080255, -0.005942, -0.016835, -0.014461, 0.031436, 0.022833, -0.022429, 0.040604, -0.007078, 0.014762, -0.020784, 0.011496, 0.002949, 0.023439, 0.032463, -0.036957, -0.003595, 0.040557, -0.050233, 0.011877, -0.023884, -0.036511, -0.015833, -0.053422, 0.040435, -0.019276, -0.032881, -0.011199, -0.022977, -0.031443, 0.003424, 0.055600, -0.005282, -0.023871, -0.032321, -0.071909, -0.018375, -0.046036, 0.006538, 0.057262, -0.004923, 0.102537, 0.003900, 0.085656, 0.102066, 0.063624, 0.037805, 0.030888, -0.004286, 0.077605, 0.010040, -0.044897, -0.003333, 0.036315, 0.031058, 0.028461, 0.015681, 0.018237, -0.016694, 0.049796, 0.062677, -0.007799, 0.030562, -0.058695, 0.051393, -0.042117, 0.002975, 0.037351, -0.002657, -0.084399, -0.037926, -0.080266, 0.019799, 0.001901, 0.008060, -0.026863, 0.017067, 0.067651, 0.054256, -0.025575, -0.016966, -0.020066, -0.040516, 0.003160, -0.026227, 0.013107, -0.066160, -0.078662, 0.016229, 0.004325, -0.001449, -0.044650, 0.015396, 0.075117, 0.061984, 0.020420, 0.024930, -0.024673, 0.010442, 0.005116, 0.037561, -0.007174, -0.049584, -0.061650, -0.033079, -0.056343, -0.016143, -0.060165, -0.042058, -0.059232, 0.002145, 0.014815, -0.020422, -0.042336, -0.006129, -0.036411, -0.062674, 0.012940, -0.041626, 0.030970, 0.055161, -0.004747, -0.020217, -0.001613, -0.025854, 0.060455, -0.006314, 0.042502, -0.004795, -0.021620, 0.031941, 0.004620, 0.015460, -0.063797, -0.066744, -0.062259, -0.069862, -0.038612, -0.064974, -0.013188, -0.044352, -0.051296, -0.003914, -0.031309, 0.025388, -0.023704, 0.003031, 0.110237, 0.013879, 0.043540, 0.034803, -0.005714, 0.070851, -0.019752, 0.028899, 0.025372, -0.011926, -0.031604, -0.017457, 0.001780, -0.077864, -0.071574, -0.052383, -0.028155, -0.088030, -0.044951, -0.065532, -0.053510, -0.016871, -0.034497, -0.038963, -0.080735, -0.043955, -0.016883, 0.044500, -0.035979, -0.002239, 0.027574, 0.053212, -0.026417, -0.021080, 0.063319, 0.030819, 0.034772, -0.017834, 0.033103, 0.002749, 0.051486, -0.025395, 0.023938, 0.020267, -0.037398, 0.019755, 0.060731, -0.020840, 0.021658, 0.029838, -0.027275, 0.026696, -0.036071, 0.010393, -0.024547, -0.039067, -0.053133, -0.021515, 0.040285, 0.015673},
  {-0.033138, -0.057460, -0.074659, -0.048804, -0.001765, -0.079946, -0.055886, 0.006534, -0.000185, 0.030792, 0.005792, 0.033930, 0.010872, 0.017650, 0.043448, 0.032631, -0.020969, -0.031732, -0.040443, -0.036803, 0.015472, -0.023433, -0.010770, -0.018739, 0.008234, 0.019656, -0.067168, -0.020582, -0.053715, -0.057848, 0.010235, 0.002556, 0.009488, -0.006542, 0.038447, 0.006370, 0.003987, -0.034278, -0.060250, 0.014066, -0.054779, -0.033431, 0.015231, -0.027214, -0.035737, 0.009998, -0.038203, -0.059021, -0.056147, -0.053958, -0.001287, -0.037737, -0.063945, -0.062730, -0.004045, -0.020480, 0.000304, 0.006387, -0.043085, -0.055397, -0.035112, -0.009026, -0.024275, -0.009567, -0.025348, 0.013042, 0.002446, 0.001098, -0.049059, 0.002617, -0.051806, 0.009036, 0.025769, -0.056321, -0.025759, -0.005284, -0.010648, -0.009368, 0.014725, -0.020020, 0.051979, 0.011801, 0.034838, 0.034467, 0.059975, -0.005195, -0.029345, -0.025563, 0.017576, -0.045455, -0.043761, -0.053685, -0.018977, 0.010971, -0.078484, -0.054498, -0.014745, -0.053327, 0.040881, 0.042780, 0.061542, -0.003471, 0.055333, 0.076608, 0.012601, -0.007238, 0.032062, 0.067193, -0.019437, 0.002183, 0.047040, 0.023022, 0.026365, 0.068846, 0.028046, 0.049581, 0.020772, 0.034060, -0.049649, -0.031828, -0.064619, 0.018241, 0.059137, 0.052140, -0.011689, 0.016237, -0.022304, -0.050724, 0.013545, -0.068627, -0.025205, -0.083977, -0.031244, -0.029914, -0.034316, -0.060139, 0.029161, 0.014980, -0.012288, 0.005103, 0.028140, -0.007643, 0.021190, 0.066872, 0.048534, 0.047168, 0.022294, 0.071036, 0.076662, 0.078625, 0.064696, 0.023280, -0.032317, 0.019748, -0.019221, -0.066323, 0.019325, 0.027146, -0.059090, -0.013624, -0.071304, -0.002375, -0.000047, 0.002711, -0.020289, -0.044136, 0.010569, 0.013427, -0.008830, 0.062852, -0.000144, 0.027656, 0.015440, 0.041738, -0.003999, -0.018273, 0.015807, 0.039722, 0.004879, 0.040692, -0.010323, -0.019095, 0.039931, 0.014710, 0.055819, 0.023001, 0.036970, -0.025902, -0.013790, -0.014634, 0.021517, -0.084256, -0.012672, -0.003430, 0.005780, -0.051699, -0.070752, -0.003778, 0.014706, 0.021041, -0.011427, -0.030988, -0.034482, -0.049850, 0.002244, -0.070151, -0.018290, 0.006780, -0.038582, -0.020622, -0.034706, -0.077816, -0.092708, -0.007032, -0.046497, -0.037099, -0.033184, -0.030138, 0.050954, -0.029316, 0.017831, 0.033161, 0.028691, 0.044889, 0.002545, -0.014640, -0.017981, 0.009742, 0.003333, -0.007271, 0.044877, 0.007366, 0.012375, 0.061080, -0.024364, -0.034005, 0.018907, -0.040250, -0.014678, -0.038840, 0.006028, 0.021730, 0.022327, 0.016541, -0.024836, -0.040328, -0.053096, -0.029373, -0.072609, -0.075464, -0.071507, 0.034643, 0.003845, 0.031234, 0.035429, 0.081291, 0.037407, 0.082719, 0.029981, 0.084730, 0.054149, 0.065103, 0.046706, 0.008752, 0.071695, -0.006305, 0.004286, -0.051657, -0.038568, -0.026560, -0.036535, -0.024406, -0.059004, -0.012021, -0.087616, -0.079304, -0.044064, -0.023009, 0.012477, -0.001374, -0.046821, 0.025247, 0.002642, -0.023277, -0.016056, 0.056403, 0.043272, 0.042197, 0.019775, 0.006212, 0.032877, -0.005680, 0.036972, -0.026979, -0.045273, -0.036987, -0.018086, 0.025051, -0.028036, 0.011239, 0.011781, 0.036880, -0.021010, -0.023720, 0.037910, 0.013688, 0.047286, 0.037856, -0.013491, 0.079065, 0.025873, -0.004316, 0.026637, -0.011732, -0.001352, -0.014460, -0.030646, -0.019084, 0.032208, 0.007255, 0.022859, 0.020055, 0.074840, 0.069402, 0.018186, 0.025213, 0.009030, 0.059785, 0.051676, 0.051067, 0.064211, 0.025726, -0.007537, 0.031100, -0.027588, -0.047939, -0.064281, -0.082945, -0.030604, 0.005476, -0.010376, -0.090011, -0.070808, 0.008855, -0.075783, -0.059098, -0.002116, -0.033310, 0.023248, -0.033416, -0.051621, -0.050089, -0.023879, 0.021443, -0.031922, 0.024526, 0.059273, 0.016468, 0.057271, -0.008570},
  {0.005690, 0.051247, -0.022076, -0.036919, 0.012781, 0.043294, -0.038021, 0.044731, -0.000433, 0.017180, -0.005906, -0.018916, -0.062907, -0.060236, 0.005327, -0.021734, 0.021742, 0.019346, -0.043720, 0.043931, 0.025796, -0.004977, 0.028093, 0.048491, 0.067628, -0.002208, 0.005809, 0.044390, 0.069261, 0.015308, 0.032074, -0.054988, -0.021572, -0.036117, 0.035346, -0.039126, 0.027618, 0.023677, -0.054167, 0.026261, 0.030877, 0.047161, -0.048848, 0.009433, -0.039348, 0.052242, 0.000404, -0.015179, 0.054429, -0.012527, 0.073705, 0.027010, 0.070608, 0.036191, 0.031274, 0.038166, 0.054891, 0.041933, 0.013080, 0.031775, 0.054966, 0.014915, 0.060264, -0.043907, -0.076349, -0.024220, 0.011219, -0.015311, -0.072122, -0.071220, -0.015518, -0.060130, -0.037782, 0.009522, -0.058157, -0.011933, -0.031562, -0.013911, 0.041202, 0.034548, 0.084958, 0.097656, 0.020898, 0.026905, 0.027139, 0.031952, -0.013056, 0.048132, -0.032558, 0.005890, 0.024527, -0.041141, 0.016824, -0.001467, 0.054713, 0.022688, 0.037636, -0.013224, 0.019917, -0.008311, 0.062775, 0.089745, 0.082353, 0.053508, 0.019282, 0.007858, 0.051617, -0.026793, -0.019398, 0.003529, -0.017099, 0.051603, -0.016108, 0.018836, 0.033191, 0.002374, 0.066796, 0.043110, 0.019163, 0.031794, 0.010365, 0.061301, 0.096127, -0.000471, -0.019485, 0.009038, 0.017379, 0.046366, -0.035049, 0.008955, 0.030913, -0.005052, -0.027829, 0.043504, 0.068015, 0.094234, 0.066613, 0.042343, 0.025181, 0.068406, 0.065417, 0.030180, 0.027932, 0.052646, 0.048924, 0.080784, -0.017418, 0.009155, -0.039388, -0.033263, -0.021473, -0.038664, -0.012658, 0.036788, 0.029557, 0.044566, 0.016096, -0.010627, -0.032211, 0.036693, 0.028428, -0.010844, 0.020102, 0.011223, -0.002126, 0.049831, -0.051741, 0.027312, -0.021167, -0.013503, 0.011117, 0.045306, 0.010031, 0.057237, -0.038919, 0.041605, 0.036571, -0.018497, 0.007815, 0.009525, -0.021730, 0.027568, 0.015356, 0.067389, 0.063013, 0.022343, 0.047843, -0.009815, 0.078124, 0.077071, 0.011248, 0.064797, 0.050463, 0.008701, -0.010353, 0.056369, 0.005541, -0.017725, -0.064949, 0.010668, -0.010865, 0.010473, -0.058944, -0.083973, 0.008381, -0.076144, 0.016404, -0.020278, -0.068774, -0.021463, -0.070060, -0.045566, 0.031316, 0.023286, -0.005249, 0.013364, -0.017026, 0.015199, -0.004389, 0.024340, 0.017775, -0.014812, 0.004624, -0.060859, -0.062264, -0.046750, -0.045194, -0.017077, -0.034328, 0.017270, -0.044489, -0.031978, -0.026022, -0.048562, -0.037776, -0.000629, -0.032783, -0.050756, 0.027793, 0.028865, 0.067925, 0.000147, -0.037918, -0.052737, 0.011800, -0.013714, -0.008203, -0.000225, 0.035423, -0.005951, 0.029912, 0.095749, 0.009753, 0.032748, 0.024056, 0.058360, 0.057467, 0.018888, -0.050787, 0.000815, 0.016140, -0.078924, -0.044380, -0.023232, 0.006801, -0.053754, -0.004529, -0.011257, -0.068151, -0.038353, 0.039203, -0.038583, 0.018836, 0.002235, 0.018866, -0.025092, 0.034759, 0.021541, -0.026109, -0.018905, -0.050341, -0.024545, -0.028053, 0.003360, -0.044652, -0.002774, 0.013642, 0.059233, 0.016385, -0.010646, -0.026805, 0.075094, 0.054264, 0.043020, -0.015615, 0.001874, -0.032728, 0.053676, 0.024695, -0.009260, -0.015328, 0.032220, -0.037577, 0.007653, 0.049454, 0.079288, -0.007914, 0.058412, 0.022391, 0.037331, 0.044063, 0.037871, 0.008840, -0.045382, -0.013782, 0.026491, -0.013893, 0.027437, -0.048513, 0.046655, -0.031480, 0.054046, -0.014166, 0.008958, 0.026778, 0.076768, 0.045586, 0.046255, 0.056455, 0.041664, 0.009654, 0.019229, 0.040091, -0.016385, -0.017359, -0.002927, -0.059724, -0.014608, 0.035167, 0.040214, 0.054475, -0.025563, 0.004679, 0.036395, -0.014553, -0.001613, 0.050280, 0.039844, -0.032168, -0.022952, -0.025370, 0.025030, -0.029982, 0.012282, -0.016431, 0.009100, 0.013701, -0.010502, -0.029838, -0.000625},
  {-0.023189, -0.055353, -0.044369, 0.021229, -0.020287, 0.039864, 0.096924, 0.090109, 0.125155, 0.057253, 0.055438, 0.099724, 0.059567, 0.026793, 0.064153, 0.083530, 0.087919, 0.027603, 0.070021, 0.016941, 0.070474, 0.060408, 0.046846, -0.023467, -0.017855, 0.047154, -0.017487, 0.073390, 0.019715, 0.020540, -0.015594, -0.020178, -0.011332, -0.020027, -0.024307, 0.036014, -0.003583, -0.000078, -0.031933, 0.014325, -0.027872, -0.001274, -0.003173, -0.035708, -0.004241, -0.077296, -0.073761, -0.065872, -0.041292, -0.062220, -0.012021, -0.006655, 0.012692, 0.014348, 0.010243, 0.007443, -0.047325, -0.010633, -0.045088, -0.087516, 0.014379, 0.052170, 0.041896, -0.015885, 0.042023, 0.046402, 0.025917, 0.042288, 0.039332, 0.045666, 0.036573, 0.037762, 0.018295, -0.050005, 0.012351, -0.026853, 0.008571, 0.030666, -0.028943, -0.031146, -0.015346, 0.006967, -0.015126, 0.035963, 0.049874, 0.001524, -0.053648, -0.033153, -0.045953, -0.071725, 0.005899, -0.015545, 0.022623, 0.018848, -0.076235, -0.011906, 0.021874, 0.037660, 0.018541, -0.029613, -0.006286, -0.058732, -0.016861, -0.005770, -0.051980, -0.057452, -0.013611, -0.030038, 0.009612, -0.017960, -0.058753, -0.051656, -0.062187, 0.016387, -0.055416, -0.023040, -0.088211, -0.061031, 0.009536, -0.003929, -0.058714, -0.034364, -0.039130, 0.054094, 0.025419, 0.001951, 0.000764, 0.058364, 0.041241, -0.008616, -0.057794, -0.011990, -0.041524, 0.012359, -0.036495, -0.007783, -0.012926, 0.012532, -0.013147, -0.042379, -0.041340, -0.023741, 0.023165, 0.034431, -0.028690, 0.044705, 0.033242, 0.004622, -0.050955, 0.065623, 0.029966, 0.052719, -0.016512, 0.066052, 0.031481, -0.000303, 0.007492, -0.033934, 0.052710, 0.043257, 0.015339, -0.029331, 0.044595, 0.033472, 0.038041, -0.042726, 0.063439, 0.019614, -0.014867, 0.057852, -0.027423, -0.002565, 0.022775, 0.059674, -0.022565, 0.004782, 0.024058, -0.025856, -0.038711, 0.016402, -0.056321, -0.018332, -0.014741, -0.062484, -0.009741, 0.015404, 0.044855, 0.054691, 0.053823, 0.038032, -0.014715, -0.040840, 0.007662, -0.010038, 0.009014, 0.003680, -0.031966, -0.009997, 0.075781, -0.034869, -0.030508, 0.042395, -0.025350, -0.026843, 0.070785, 0.010127, 0.072142, 0.054408, 0.079937, -0.012868, 0.065026, 0.053732, 0.029633, -0.055059, 0.035009, 0.040730, 0.031031, 0.005063, 0.041927, 0.028376, 0.019410, 0.041716, 0.010579, 0.012736, 0.071627, 0.003395, -0.017699, 0.022343, -0.006789, 0.001287, -0.031418, -0.031747, 0.027916, -0.045622, -0.029622, -0.047674, 0.037883, -0.008811, 0.021091, -0.041489, 0.096793, 0.068952, 0.044733, 0.071207, 0.040991, -0.042813, -0.035014, -0.019702, -0.007791, 0.044442, -0.025167, 0.020062, -0.066691, 0.000785, 0.023936, -0.056445, -0.029062, -0.033804, -0.063365, -0.046457, 0.005563, -0.035668, 0.003756, -0.010397, -0.023582, -0.033894, -0.059323, -0.085168, 0.028948, -0.007347, -0.001844, -0.045248, 0.052509, -0.000500, -0.021321, 0.008766, -0.017627, 0.013277, 0.055829, -0.034764, 0.025106, -0.031659, 0.044030, -0.043389, -0.059564, -0.010518, 0.049366, -0.044865, -0.045342, -0.037545, -0.005685, -0.030767, -0.004733, -0.041499, -0.020003, -0.056121, 0.018396, -0.049717, 0.016678, 0.031735, 0.034055, -0.004229, -0.003153, 0.045272, -0.003865, -0.005894, 0.048588, -0.007531, -0.035829, -0.009970, 0.010138, 0.011261, -0.041694, -0.048901, 0.036043, -0.062727, -0.042978, -0.091378, -0.029727, -0.041045, -0.065802, -0.045041, -0.031178, -0.018152, 0.000101, -0.028878, -0.002953, 0.031257, -0.029894, -0.057594, -0.045982, 0.014409, -0.028438, 0.027052, 0.005820, -0.053821, -0.023527, -0.048207, 0.031865, -0.017641, -0.058324, -0.016613, -0.012998, -0.023602, 0.038744, -0.022028, -0.022020, -0.003268, -0.003281, -0.000931, -0.036944, 0.026010, 0.048635, -0.030693, 0.058634, -0.043060, -0.013594, -0.020727, -0.031184, -0.022532},
  {-0.070895, 0.035569, 0.033205, 0.028370, -0.035874, 0.060711, 0.068545, 0.000692, 0.063900, 0.048335, 0.009928, 0.012241, 0.083497, 0.089902, 0.082740, 0.012632, -0.011651, 0.055801, 0.046208, 0.043164, 0.007965, 0.052934, 0.037666, 0.034207, 0.014487, -0.006785, 0.017751, 0.022640, 0.009518, -0.014055, 0.006079, -0.021998, -0.042325, 0.000246, 0.047090, 0.021842, 0.024664, 0.027291, -0.018535, 0.032815, -0.068164, -0.042152, -0.076627, -0.015334, -0.030887, -0.000149, -0.062395, -0.097688, -0.057703, -0.048795, -0.077371, -0.097329, -0.002803, -0.033299, -0.082660, -0.063919, -0.021663, 0.001113, -0.075936, -0.069774, 0.022220, 0.064445, 0.051476, -0.030369, 0.001449, 0.013277, 0.003538, -0.008757, 0.067968, 0.024428, 0.038441, -0.026729, -0.002016, -0.048121, 0.041828, 0.016482, 0.042215, 0.044796, 0.019140, 0.035403, 0.024582, -0.014037, -0.045952, 0.006178, 0.007991, -0.024532, 0.041143, 0.060716, -0.009622, -0.028668, -0.012192, 0.009295, -0.019715, 0.042337, 0.045667, 0.003771, -0.018133, -0.004090, -0.046520, 0.004962, -0.060290, 0.003881, -0.072446, -0.031313, 0.008019, -0.071958, -0.020098, -0.059714, -0.039651, 0.001634, -0.047879, -0.062852, -0.032207, 0.006456, 0.003909, -0.015514, 0.024752, -0.018654, -0.043192, -0.078206, -0.031691, 0.011533, -0.048608, -0.001680, 0.057835, 0.013113, 0.018111, -0.016525, 0.009078, -0.026889, -0.066764, -0.066898, -0.016480, -0.023981, 0.005878, -0.043595, 0.019319, 0.016149, -0.010682, 0.018963, -0.002170, 0.039669, 0.030567, -0.053933, -0.031606, -0.022586, -0.033506, 0.025326, 0.040792, -0.014385, 0.027450, -0.034917, 0.007018, -0.004265, 0.028808, -0.019276, 0.051177, 0.035921, -0.028247, -0.007916, -0.023510, -0.012775, 0.049811, -0.003095, -0.017223, 0.041203, 0.060235, 0.024020, 0.020364, -0.018055, 0.011361, 0.075236, 0.029723, 0.023243, 0.005078, -0.004060, 0.025323, 0.040906, -0.032023, 0.003620, 0.045065, -0.047639, -0.006741, -0.069976, -0.067148, -0.097156, -0.020535, 0.028424, -0.005687, -0.029864, 0.019514, 0.014755, -0.028524, 0.030297, 0.035884, -0.001262, 0.079217, 0.078695, 0.048199, 0.040706, 0.067140, 0.077542, 0.045339, 0.046080, 0.031117, -0.007207, 0.028728, 0.046217, 0.047865, 0.073393, 0.061088, 0.021845, -0.033803, -0.035469, -0.025190, 0.011548, 0.007260, 0.038456, -0.013447, -0.035336, -0.045204, 0.013529, -0.033973, -0.005025, -0.044974, -0.013922, -0.078550, -0.038531, -0.002949, 0.006123, 0.032466, 0.006578, 0.034820, -0.012510, -0.024319, 0.054671, 0.072625, 0.045729, 0.029940, 0.048553, -0.034783, 0.055412, -0.036223, 0.066390, 0.049183, -0.030333, -0.029591, 0.002374, -0.022775, 0.060886, 0.064603, -0.025661, -0.021110, 0.020892, 0.025828, 0.020529, 0.013825, -0.048650, 0.009564, -0.004561, -0.026399, -0.044057, 0.011069, 0.019462, 0.012015, -0.015341, 0.023582, -0.029934, -0.048993, -0.031099, -0.032800, -0.050552, -0.011585, -0.008521, -0.001210, -0.014837, -0.015647, -0.066436, 0.026997, 0.014815, -0.028818, -0.004501, 0.042285, -0.065103, 0.009405, 0.040303, 0.005153, -0.033870, -0.049276, -0.048702, 0.000701, 0.027364, -0.007979, 0.012674, -0.020373, -0.042595, -0.026821, -0.002550, -0.037796, -0.021930, 0.087751, 0.079234, 0.061907, 0.069444, 0.043114, 0.040244, 0.005841, -0.051173, 0.025424, -0.045881, -0.016151, -0.015060, -0.006178, -0.003591, -0.087236, -0.078341, -0.078247, -0.062769, -0.035229, -0.021180, -0.065633, -0.018005, -0.094543, -0.068980, -0.079420, -0.070092, -0.052730, 0.003335, -0.015709, -0.048061, 0.009755, -0.051370, -0.066513, -0.058361, -0.051101, -0.010019, -0.015474, 0.009552, 0.064153, 0.035640, -0.025773, 0.032410, 0.051632, -0.017203, 0.066991, 0.055626, 0.011611, -0.018577, -0.036182, 0.053246, 0.021588, -0.029997, 0.036317, -0.011200, -0.001790, -0.013633, 0.029851, 0.022642, 0.024559, -0.036859},
  {0.076966, 0.024719, 0.031792, -0.075503, -0.072228, -0.015575, 0.049586, 0.091124, 0.049345, 0.087023, 0.030490, 0.076661, 0.027023, 0.046141, -0.035889, -0.066251, 0.014855, 0.007452, -0.004954, -0.016801, 0.046786, -0.027287, 0.053218, -0.014914, 0.040938, -0.038149, -0.020310, -0.045083, 0.004464, -0.071763, -0.075416, -0.064251, -0.082583, -0.021855, -0.014890, -0.059655, -0.020912, -0.066904, 0.003184, -0.054935, -0.019247, -0.075965, -0.047459, -0.071961, 0.006418, -0.059098, -0.029202, -0.028556, -0.076183, 0.006936, -0.019975, -0.038755, -0.004456, 0.032531, -0.002948, 0.013435, 0.038243, -0.062749, 0.001222, 0.001362, 0.011187, 0.049428, 0.040218, 0.000944, 0.027467, -0.004866, 0.022479, -0.009294, -0.008335, -0.012491, -0.004936, -0.038998, -0.039549, -0.059556, -0.058282, 0.032413, 0.002416, -0.003257, 0.018778, 0.032879, 0.039941, -0.026029, -0.035459, -0.012240, -0.037046, 0.010188, -0.024608, -0.050213, 0.035639, -0.002711, 0.047621, -0.015339, -0.046141, 0.011010, 0.011441, -0.007215, 0.022816, -0.016083, -0.022018, -0.053221, -0.026120, -0.011475, -0.018844, -0.025194, -0.018538, 0.012572, 0.005204, 0.016455, 0.069227, -0.026254, -0.015399, 0.031374, -0.030362, -0.018958, 0.021850, 0.029027, -0.002194, 0.024243, -0.066965, -0.041604, -0.022611, 0.067470, 0.010335, -0.049907, -0.056095, -0.066432, -0.047385, -0.070683, -0.024383, -0.073733, -0.075560, -0.098347, -0.068299, -0.087413, -0.072056, -0.013468, 0.018347, -0.043539, -0.017849, 0.035778, 0.046061, 0.079279, 0.089460, 0.050356, 0.079820, 0.007743, 0.001405, 0.003795, 0.075028, 0.052172, 0.017088, -0.015574, 0.007446, 0.028046, 0.050316, 0.016132, -0.012619, 0.060073, 0.061300, 0.051638, 0.064018, -0.017929, 0.008846, -0.015820, 0.003223, 0.060984, 0.004779, 0.024792, 0.024626, 0.015257, 0.007220, 0.037589, 0.042417, 0.046160, 0.031307, -0.005959, -0.001901, 0.015844, 0.013869, 0.072280, -0.066753, -0.021977, 0.051407, 0.058073, -0.013731, -0.088627, -0.019815, -0.002063, -0.017261, 0.024156, -0.031181, 0.012438, -0.019742, 0.042667, 0.058673, 0.069077, -0.011472, -0.067702, -0.032175, 0.001321, -0.027480, -0.028823, -0.032747, -0.034153, 0.005422, -0.061990, 0.004114, 0.000009, 0.038424, -0.053698, -0.051347, 0.021026, 0.012670, -0.024652, -0.012514, 0.016744, 0.036927, 0.002730, 0.021234, -0.027056, 0.067885, -0.014870, 0.035919, 0.020861, 0.028603, 0.062122, 0.014291, -0.049634, 0.036858, -0.023354, 0.045146, -0.001447, 0.044617, 0.060608, 0.064533, -0.036203, 0.022150, -0.056586, 0.037080, -0.053236, -0.046107, -0.015119, -0.009113, 0.002925, -0.020314, -0.064556, -0.002869, -0.020273, -0.009466, -0.037052, 0.052083, 0.012351, 0.052108, 0.079627, 0.085111, 0.020948, -0.004448, 0.090457, 0.065874, -0.000453, 0.087288, 0.039774, 0.004876, 0.058354, 0.007792, -0.014429, -0.004583, -0.025158, 0.035016, -0.020571, -0.003943, 0.003144, 0.031763, 0.002441, -0.021183, 0.013041, -0.033232, -0.038455, 0.042370, 0.042348, -0.007302, -0.037015, -0.039553, -0.046729, -0.007528, 0.033706, 0.002176, 0.045624, 0.072075, 0.000716, -0.000908, 0.057913, 0.058213, 0.014953, -0.033580, 0.006279, -0.017896, 0.025585, -0.011111, -0.014042, 0.003011, 0.085510, 0.084553, 0.032013, 0.033763, -0.013793, 0.081217, 0.025356, 0.057973, 0.057428, 0.046729, -0.003427, -0.049121, 0.012826, -0.012514, 0.004316, -0.010293, -0.022541, -0.073125, 0.016213, -0.026505, 0.005261, 0.007315, 0.031575, 0.059941, 0.042567, -0.023790, 0.049515, -0.010440, 0.049232, 0.004468, 0.030469, -0.023434, -0.017107, 0.002203, 0.035393, 0.005416, -0.007360, -0.029848, 0.044515, 0.029196, -0.031842, -0.008412, -0.032660, 0.017114, 0.012968, -0.031206, 0.015322, 0.005442, 0.031861, -0.047685, -0.013209, 0.036637, -0.003748, -0.000055, 0.009452, 0.040722, -0.050007, 0.029710, 0.010878},
  {-0.029508, -0.073915, 0.018108, 0.010476, -0.033532, 0.054465, 0.029258, 0.069077, 0.052498, 0.026460, 0.035532, 0.084834, 0.098976, 0.027318, 0.014359, 0.012883, -0.003044, -0.011737, 0.013120, 0.023851, 0.035178, 0.023519, -0.028435, 0.039533, -0.063372, -0.075155, 0.009017, -0.013762, 0.009679, -0.030827, -0.001730, 0.032989, 0.031892, 0.040637, 0.017834, -0.055964, -0.046512, 0.006067, -0.070235, -0.088391, -0.050030, -0.103025, -0.012649, -0.093518, -0.015522, -0.007352, -0.034386, 0.003740, -0.048484, -0.016069, -0.021284, -0.067901, -0.047064, 0.012174, -0.027730, 0.003459, 0.005152, 0.008962, -0.061442, -0.057810, 0.015764, 0.022608, 0.033990, -0.001836, -0.054365, -0.016639, -0.042103, 0.034054, 0.048851, 0.033341, 0.040355, -0.001994, -0.009258, 0.039915, 0.032709, -0.036114, 0.008818, 0.031718, 0.000871, -0.011954, -0.016491, -0.028503, 0.017447, -0.025519, 0.019700, -0.061468, 0.030778, -0.024191, 0.005290, 0.012552, 0.018993, -0.021608, -0.059681, -0.043513, -0.078997, -0.016420, -0.066847, -0.065533, -0.016406, -0.070678, -0.029036, -0.029698, 0.038680, -0.071924, -0.064870, -0.072624, -0.050886, -0.053213, 0.024462, -0.065695, 0.037744, -0.030363, -0.007665, -0.047686, -0.066978, -0.041520, 0.010923, -0.054950, -0.004674, -0.028103, 0.003219, -0.046944, -0.028647, 0.037935, 0.054291, 0.026486, 0.071114, 0.024777, 0.060190, -0.020108, -0.030018, -0.036554, 0.015220, 0.027616, -0.053660, 0.016993, -0.068626, 0.007361, -0.056018, 0.013528, -0.037936, -0.044234, -0.043739, -0.074737, -0.005929, -0.021868, -0.028452, 0.016100, -0.025501, -0.005556, -0.027096, 0.007061, -0.008459, -0.007489, -0.012050, -0.011017, 0.019962, 0.043739, -0.002231, 0.010324, 0.030353, 0.009358, 0.007065, 0.032774, 0.039547, 0.053982, 0.000768, 0.055460, -0.001918, 0.065504, 0.056896, -0.038002, 0.034952, 0.043951, 0.046368, 0.022383, 0.049918, 0.012795, -0.043598, -0.014311, -0.017747, -0.011121, 0.032426, -0.055359, -0.004031, -0.004711, 0.034033, -0.023376, 0.048156, 0.028657, -0.016610, -0.017064, -0.032376, 0.014291, -0.067425, -0.032798, 0.002229, 0.016938, 0.015988, -0.011803, -0.036047, -0.051696, 0.066197, 0.001971, 0.067392, 0.009176, 0.020885, 0.013590, -0.001803, 0.004756, -0.003629, 0.013618, -0.041315, -0.038704, 0.003932, -0.017211, -0.047252, 0.014681, 0.059947, 0.015017, 0.071612, -0.001563, 0.091044, 0.087883, 0.004399, 0.062597, -0.000588, 0.026299, 0.045209, 0.091768, 0.009395, 0.087628, -0.024801, 0.067067, -0.032157, -0.031628, -0.019616, -0.027651, 0.032469, 0.011878, 0.056030, 0.002003, 0.067818, 0.052714, 0.057348, 0.025924, 0.039601, -0.005463, -0.060975, -0.048030, -0.022688, 0.011979, -0.063029, 0.003629, -0.051332, -0.072833, -0.049872, -0.022803, -0.049121, -0.082909, -0.052919, -0.064184, -0.028139, -0.059598, 0.014469, -0.018750, 0.022536, -0.014662, -0.015364, 0.015388, 0.001842, -0.034757, 0.003995, -0.011885, -0.035879, 0.005473, 0.009675, 0.015288, 0.051862, -0.029608, -0.004524, -0.001649, 0.003406, 0.005020, 0.058642, 0.021438, 0.030364, -0.004068, 0.054222, 0.067100, -0.031086, 0.069427, 0.046921, -0.041323, -0.034573, -0.048249, 0.025677, -0.007953, 0.046038, 0.014653, 0.062096, 0.068138, 0.043294, -0.039364, 0.049736, 0.028292, 0.017545, 0.051244, -0.029308, 0.009492, 0.014674, 0.001980, 0.035180, 0.012874, 0.041264, 0.018001, -0.037534, -0.066435, -0.072223, 0.017329, -0.021208, -0.062897, 0.002694, -0.016692, -0.060387, -0.051682, 0.035665, 0.031599, -0.052201, -0.023273, 0.022451, -0.013442, 0.023066, -0.052657, -0.053394, -0.027561, -0.024610, -0.037387, -0.014266, 0.048668, -0.030331, -0.022962, -0.017992, 0.042286, 0.060203, 0.034734, 0.024358, -0.057459, -0.030814, -0.056456, 0.037568, 0.015735, 0.011749, 0.051582, 0.025603, -0.003434, -0.021733, 0.018906, 0.020502, -0.004353},
  {-0.060483, -0.034314, -0.078367, 0.004431, -0.064846, -0.075160, -0.070131, -0.073605, -0.041400, -0.027314, 0.006629, -0.008287, 0.038231, -0.008270, 0.047429, 0.027148, -0.055483, -0.036057, 0.031448, -0.023201, -0.071611, -0.031452, 0.033236, -0.014130, -0.070021, -0.036980, -0.049244, -0.062166, -0.020019, 0.005311, 0.064502, 0.011867, -0.000070, 0.059793, -0.012627, 0.017841, 0.038626, -0.026445, 0.045412, 0.061751, 0.026308, 0.061150, -0.007880, -0.013504, 0.015939, 0.058992, 0.015630, 0.000771, 0.036312, -0.044561, 0.001499, -0.034997, 0.036554, -0.024589, -0.003869, 0.050092, 0.010504, -0.010934, 0.026680, 0.045415, -0.067079, -0.006473, 0.061657, -0.029102, 0.043702, 0.040885, -0.022505, 0.069983, 0.007878, 0.026574, 0.010041, 0.049120, 0.050342, 0.018101, 0.056283, 0.028208, 0.003624, -0.013965, -0.025830, -0.036946, -0.028649, -0.002365, -0.056455, -0.028209, -0.025946, -0.025733, -0.083887, -0.026109, -0.039556, -0.064193, -0.013258, 0.026157, 0.020558, 0.023979, -0.054179, -0.003383, 0.021604, -0.019915, -0.034807, 0.014318, 0.006773, 0.042817, 0.009228, 0.046863, -0.013470, 0.037146, -0.033985, -0.002086, 0.017785, -0.000583, -0.041473, -0.029780, -0.006142, -0.039729, -0.041098, -0.044156, -0.062610, -0.026876, 0.002624, -0.043187, -0.062759, -0.069972, -0.017437, -0.030684, 0.045766, 0.006927, 0.028175, 0.028831, 0.036037, 0.048441, -0.041654, 0.026874, 0.006418, -0.035554, 0.057872, 0.021240, -0.026918, -0.034542, 0.033737, 0.032017, -0.015672, -0.006376, -0.029526, 0.009095, 0.004622, -0.075021, -0.060475, -0.022849, 0.003960, -0.017792, 0.009895, 0.053820, -0.029736, -0.025436, -0.005018, 0.001338, 0.006268, -0.052885, -0.035741, -0.009545, -0.065135, -0.059952, -0.036983, 0.049573, 0.025309, -0.011291, -0.000279, -0.045914, 0.036429, 0.026622, 0.004812, 0.014580, 0.010019, -0.052909, -0.029103, 0.031589, -0.006517, 0.000143, -0.055447, 0.044054, 0.059194, 0.014418, 0.049708, -0.005960, 0.080285, 0.085011, 0.049120, 0.067671, 0.012024, -0.015728, 0.025601, -0.025619, 0.007171, -0.067545, -0.071269, -0.052063, -0.083296, -0.018310, 0.035754, 0.043891, -0.036583, 0.055243, 0.029625, 0.042899, 0.006080, -0.008287, -0.065415, 0.019711, -0.021572, 0.016124, -0.028863, -0.000025, 0.011991, -0.051283, 0.053816, 0.030786, -0.014679, -0.001124, 0.030041, 0.018507, 0.019133, -0.016042, -0.026420, 0.024023, -0.046211, 0.040708, 0.030516, -0.018453, -0.040267, 0.026903, -0.000763, -0.033679, -0.018962, -0.045650, -0.050945, -0.029701, 0.032420, 0.059124, 0.046351, -0.005387, -0.005026, -0.009839, 0.003698, 0.022238, 0.010136, -0.017695, 0.024258, -0.064610, -0.031991, -0.035813, -0.051140, -0.028631, 0.003321, -0.025343, -0.052126, 0.003703, 0.054670, 0.024667, -0.022909, -0.004927, 0.066489, 0.025532, 0.072464, 0.042724, 0.050316, 0.047232, 0.012017, -0.005772, 0.019331, -0.018248, 0.037305, -0.036580, -0.000930, -0.008404, 0.003915, -0.058395, -0.033733, -0.056863, -0.008707, -0.035911, 0.006160, 0.039293, 0.028693, 0.037865, -0.020311, -0.049330, 0.048699, 0.033495, -0.048443, -0.048238, 0.006866, 0.038322, -0.006832, 0.009341, 0.014706, 0.015977, -0.015989, -0.009233, -0.005792, 0.055895, -0.016346, -0.019402, -0.014228, -0.081205, -0.000286, -0.006695, -0.053962, 0.018806, -0.028913, -0.043334, 0.074169, 0.085162, 0.017733, 0.060292, 0.025257, 0.044111, 0.091292, 0.049239, 0.026174, 0.066149, 0.079345, 0.080265, 0.019846, 0.071414, -0.006161, -0.042452, 0.011872, -0.028985, -0.067410, -0.016535, -0.053723, -0.059705, -0.008201, -0.080893, -0.068531, -0.085354, -0.013016, -0.038845, -0.069193, -0.056475, -0.060020, -0.044675, -0.011916, 0.000719, -0.040843, 0.041556, -0.041291, -0.055730, -0.016107, -0.003016, 0.006937, 0.060964, 0.021228, 0.041387, 0.041550, 0.059165, 0.042067, -0.029122, -0.040529, 0.028463},
  {-0.045411, -0.071233, -0.047419, 0.040902, 0.032170, 0.021675, -0.056918, -0.077512, -0.082650, -0.031993, -0.072438, -0.090259, -0.039680, 0.024884, 0.001035, 0.050885, 0.035348, 0.040570, 0.023327, 0.009847, 0.047891, -0.003479, 0.002987, 0.005583, 0.030470, 0.032890, 0.019330, -0.016376, 0.058863, 0.056467, 0.032815, 0.067897, 0.067882, 0.050805, -0.005031, -0.040148, 0.020067, 0.002140, 0.021941, 0.017578, -0.055004, 0.011449, 0.055737, 0.039946, 0.043483, -0.004900, 0.061064, 0.026045, 0.057332, 0.008566, -0.050880, -0.028299, -0.042388, -0.049943, -0.053198, -0.045842, -0.034499, 0.036293, 0.034462, -0.063863, 0.009926, -0.037479, -0.020971, -0.010715, 0.002709, -0.018730, -0.004261, -0.007480, 0.065997, 0.023513, 0.014280, 0.012381, 0.003414, 0.067843, 0.042396, -0.034329, 0.002352, -0.033258, 0.002339, -0.054040, -0.018045, 0.014748, -0.052297, 0.017197, 0.001654, -0.048635, 0.014136, 0.014577, -0.061307, -0.029579, -0.060921, -0.026609, -0.036383, -0.070386, 0.011187, 0.015030, 0.022131, -0.018623, -0.044573, -0.007715, -0.023049, 0.010690, -0.018666, -0.043832, -0.001254, -0.013488, -0.043185, -0.052093, 0.019126, -0.039922, -0.025141, -0.011577, 0.019861, -0.044475, -0.035914, -0.068178, 0.001988, 0.028701, -0.039691, 0.019014, -0.020898, -0.005250, 0.027081, 0.025216, 0.014379, 0.006213, 0.091502, 0.099827, 0.009753, 0.033851, 0.019988, -0.008883, -0.010132, 0.028016, -0.000458, -0.029673, -0.019803, 0.019463, -0.043017, 0.036893, -0.003561, 0.014701, -0.055412, -0.008698, 0.070654, -0.008316, -0.007682, -0.036592, -0.030552, 0.023602, 0.028464, 0.047165, 0.029286, -0.022049, -0.020824, 0.045450, 0.020520, 0.027845, 0.007494, -0.040161, -0.039671, -0.031361, -0.048698, 0.050723, -0.030253, 0.037572, -0.035442, -0.019214, 0.042985, -0.016284, -0.031623, 0.017856, 0.012564, 0.036074, 0.004967, -0.025162, -0.020319, -0.031918, -0.017803, -0.031423, 0.000687, 0.022062, -0.007356, 0.017223, -0.011341, 0.085455, 0.051163, 0.089503, 0.012243, 0.026326, -0.025582, -0.065771, -0.008831, -0.027961, -0.077529, -0.018891, -0.011312, 0.006329, 0.004021, 0.008082, 0.027781, 0.004367, 0.014469, -0.061630, -0.000663, 0.026853, -0.024867, 0.021045, -0.010643, 0.007679, 0.052125, -0.036239, 0.003856, 0.016166, 0.037800, -0.021070, -0.004166, 0.067458, 0.001867, 0.038614, 0.061252, 0.007547, 0.061060, 0.052671, 0.061829, 0.031212, -0.013533, -0.030512, -0.016681, 0.076083, 0.029398, -0.046198, 0.054003, -0.012573, -0.028065, -0.056094, -0.024465, -0.044690, -0.021914, -0.041913, 0.017122, 0.053158, 0.107180, 0.041877, -0.037224, 0.022723, 0.052918, 0.011550, 0.010909, 0.002619, -0.076639, 0.009727, -0.080812, -0.088008, -0.064985, -0.093851, -0.047857, -0.017890, -0.008432, 0.028230, 0.021717, -0.010035, 0.004201, -0.009301, -0.022404, 0.033460, -0.054617, -0.038027, 0.006897, -0.004304, -0.040771, 0.019744, -0.033144, 0.028956, -0.001531, 0.052294, 0.016407, -0.016905, 0.014593, -0.041668, -0.019002, 0.010909, -0.022803, -0.002371, -0.005908, 0.057794, -0.009984, -0.001314, -0.012553, 0.059463, -0.035092, -0.021835, -0.010216, -0.017605, 0.017128, 0.007607, 0.044329, 0.018846, 0.064368, 0.006278, -0.062849, -0.046190, -0.057037, -0.022020, -0.003175, -0.029309, -0.029059, 0.045165, 0.024539, 0.024447, 0.001304, 0.048680, 0.054682, 0.009252, 0.036136, 0.015673, 0.069772, -0.002488, 0.007600, 0.035369, 0.051193, -0.027270, -0.027198, 0.005311, -0.003681, 0.076507, -0.003872, -0.003077, 0.057354, -0.037538, -0.034423, -0.014915, -0.015156, 0.009031, 0.018903, -0.056410, 0.014958, -0.049540, -0.060943, 0.021298, 0.020739, -0.031545, 0.012165, -0.039834, -0.032991, -0.015394, 0.040066, -0.016417, 0.015757, -0.022293, -0.061504, -0.005548, 0.042010, -0.028249, -0.049704, 0.006079, 0.040500, -0.019046, 0.016216, -0.059407},
  {0.001013, 0.012580, -0.029566, -0.008592, 0.000047, -0.048458, 0.017194, -0.025775, 0.025210, 0.015433, 0.040439, -0.014671, 0.049734, -0.055649, 0.041402, -0.017629, -0.006592, -0.068727, -0.023282, -0.032664, -0.061636, -0.000600, 0.026269, -0.020516, -0.011148, 0.002662, -0.059745, 0.001543, -0.038627, -0.079099, -0.037275, -0.018583, -0.053919, -0.075746, 0.007876, -0.069390, -0.023035, -0.073920, -0.045864, 0.018971, -0.023664, -0.041243, -0.028547, -0.036233, -0.067338, -0.060845, -0.032737, 0.000555, 0.041702, -0.049313, 0.003703, -0.031560, 0.022258, 0.029718, -0.062591, -0.041348, -0.010796, -0.003268, 0.011935, -0.020749, -0.042951, -0.012329, -0.049141, 0.000500, 0.009284, 0.029272, 0.025437, 0.010794, -0.034294, -0.045707, 0.018787, 0.025830, -0.036553, -0.020300, -0.015951, -0.020477, -0.036290, -0.006599, -0.037867, -0.075160, -0.060536, -0.000331, -0.003363, -0.025804, -0.047751, 0.001231, -0.006075, -0.074961, -0.066289, 0.018290, -0.031516, 0.002621, -0.025795, 0.030136, -0.048333, -0.014721, -0.025796, 0.000986, -0.040795, 0.064490, -0.030709, 0.035902, -0.068065, -0.027566, -0.031978, 0.001565, 0.034433, 0.023963, -0.018742, -0.034291, 0.016565, -0.026870, -0.047151, 0.000985, -0.049489, 0.029970, -0.000937, -0.012987, -0.054624, 0.017338, 0.023291, 0.006278, -0.056865, -0.031890, -0.094570, 0.000180, -0.098643, -0.042908, -0.105435, -0.106747, -0.100884, -0.017733, -0.081501, -0.004469, -0.086679, -0.090114, -0.033174, -0.069320, -0.057899, -0.058413, -0.010214, -0.046117, 0.019124, -0.000591, -0.021534, 0.001881, 0.037465, -0.025006, 0.042756, 0.024450, -0.007363, 0.001198, 0.076447, 0.054227, 0.088107, 0.048466, 0.037949, 0.020770, 0.037779, 0.025543, 0.025921, 0.068762, 0.020391, -0.025336, 0.026297, 0.057526, -0.008579, -0.005148, -0.004181, 0.055752, -0.029089, 0.009421, -0.012871, -0.009285, -0.011197, -0.028734, 0.051583, -0.001098, 0.008539, -0.031340, -0.066619, -0.027366, -0.016324, -0.003388, -0.054506, 0.005258, 0.003440, -0.008581, -0.002452, 0.010176, 0.016177, -0.039230, 0.009758, -0.004782, -0.012288, -0.000766, 0.003391, -0.028197, -0.046640, 0.039012, 0.055811, -0.039760, 0.025791, 0.008320, -0.016873, -0.015631, -0.018073, 0.065664, 0.048913, -0.010436, 0.038918, 0.003832, 0.051056, -0.024467, 0.022287, 0.011454, 0.001612, 0.043808, 0.065581, 0.045389, -0.011850, 0.055381, 0.033264, 0.065649, 0.000621, -0.015864, 0.036625, 0.021200, -0.024931, -0.018399, 0.011656, -0.039666, 0.030019, -0.040008, -0.002746, 0.013184, -0.050785, -0.053561, 0.013428, -0.019283, -0.068861, -0.113005, -0.068820, -0.112643, -0.018527, -0.099557, -0.035932, -0.082065, -0.065817, 0.016392, 0.002701, -0.022070, 0.002363, 0.054674, 0.004032, 0.033510, 0.075448, 0.055913, 0.082444, 0.050438, -0.015401, 0.069109, 0.063417, 0.078851, 0.048433, -0.000364, -0.001500, 0.012820, -0.001343, 0.008675, 0.026599, 0.002068, 0.073951, 0.026505, 0.050272, 0.029151, 0.046602, 0.015623, 0.056530, -0.025420, 0.008619, 0.074873, -0.012575, -0.030387, -0.006835, 0.009297, 0.036982, -0.036212, -0.033785, 0.026262, 0.018486, -0.028422, 0.041372, 0.055436, 0.054123, 0.060417, 0.008840, 0.085971, 0.057286, 0.056823, -0.016825, 0.016240, 0.023367, 0.045069, 0.034461, -0.028970, -0.022504, 0.056469, -0.016350, 0.003515, 0.017569, 0.004270, -0.034074, 0.011223, -0.033669, -0.053649, -0.050522, -0.025767, -0.019322, -0.010012, -0.045741, -0.017546, 0.024410, 0.025544, -0.014580, 0.012960, 0.027947, -0.022907, 0.028269, 0.014568, -0.034517, -0.029185, -0.011629, -0.020250, -0.047185, 0.011825, 0.022215, 0.005147, 0.007813, 0.016462, -0.046532, -0.024167, 0.040288, 0.018865, 0.068242, 0.026200, 0.052572, 0.061443, 0.063265, -0.005781, -0.010825, -0.017094, 0.050206, -0.006017, 0.053021, -0.029540, 0.025463, -0.069222, 0.035007, -0.048149},
  {0.070027, -0.019851, -0.004682, -0.040882, -0.051269, 0.013039, 0.084795, 0.012769, 0.091564, 0.065589, 0.092070, 0.062271, 0.107283, 0.063179, 0.056497, -0.002136, 0.049063, 0.021078, -0.048242, 0.003146, 0.006021, -0.013219, -0.044708, -0.008881, -0.021472, -0.044590, -0.000092, 0.047002, -0.014225, 0.071783, -0.009302, -0.012890, 0.010690, -0.008047, -0.017912, -0.014614, -0.021020, 0.047958, 0.025434, -0.028771, -0.026715, -0.053418, 0.013591, 0.034964, -0.010686, 0.036988, 0.007962, -0.027948, -0.032609, -0.033974, -0.005006, 0.041335, -0.061496, -0.033651, 0.027780, -0.056795, -0.039600, -0.036701, -0.071743, -0.016953, 0.038051, -0.031891, 0.027869, 0.029942, 0.006687, -0.041122, 0.027135, 0.034676, -0.008694, -0.014344, 0.065789, 0.009620, -0.011457, -0.005787, 0.000446, 0.011816, 0.000484, 0.000366, 0.062303, 0.033733, 0.071578, -0.028460, -0.013091, -0.041876, -0.025155, -0.017428, 0.055760, 0.008464, 0.033720, 0.032827, -0.014521, -0.042164, -0.007192, -0.003068, 0.039575, 0.012515, 0.042291, -0.038161, -0.072677, 0.007599, 0.031987, 0.030448, -0.059172, -0.001200, 0.011539, -0.059450, -0.014008, -0.023031, -0.023010, -0.033873, -0.016657, 0.001954, -0.025260, -0.017525, -0.037532, 0.009403, -0.046654, -0.053595, 0.002716, -0.078663, -0.053063, 0.009545, -0.032927, -0.064911, 0.041978, 0.077219, 0.042108, -0.007858, 0.066776, 0.047255, 0.069134, 0.009063, 0.055094, -0.016971, 0.012964, 0.027349, -0.042099, -0.016094, 0.005780, -0.017524, 0.033632, 0.000150, -0.007671, 0.033260, -0.022444, 0.007181, -0.000248, -0.040029, -0.046245, -0.024914, 0.042356, -0.007403, -0.021885, 0.025386, -0.009858, 0.023515, 0.011077, -0.023327, 0.025687, 0.001197, 0.015939, -0.040149, -0.051700, -0.002829, 0.025552, 0.019563, -0.047746, -0.018941, 0.017514, -0.039056, 0.043795, 0.008697, -0.027185, -0.059964, -0.048356, -0.045306, 0.015093, 0.008739, -0.002146, 0.002078, -0.013640, -0.003971, 0.041958, -0.009895, -0.002210, -0.063217, -0.038303, -0.009163, 0.060228, 0.008181, 0.037010, -0.029344, -0.023967, 0.045147, -0.002605, 0.014907, -0.000831, -0.037271, 0.050873, 0.008781, -0.037695, 0.007231, -0.008391, 0.046226, 0.008451, 0.074538, 0.030754, -0.005700, 0.014148, 0.030227, 0.051846, 0.029386, -0.015518, -0.001051, -0.065264, -0.030808, -0.004775, -0.067502, 0.032434, 0.047503, -0.015559, -0.015059, 0.062974, 0.021222, -0.008385, 0.040959, -0.032111, -0.025222, 0.032170, 0.025396, 0.019163, -0.020920, -0.061708, -0.045498, -0.063491, -0.029453, -0.010338, -0.031277, -0.025517, -0.035353, 0.102829, 0.105365, 0.082493, 0.009387, 0.076105, -0.021760, 0.004006, -0.021813, -0.006918, -0.042827, 0.020400, -0.012471, 0.008296, -0.006838, -0.044821, -0.041067, -0.067540, 0.010021, -0.086710, -0.039751, -0.010354, -0.064130, -0.004298, -0.033261, -0.001290, -0.040177, -0.033805, 0.008267, 0.012408, 0.048096, -0.039737, -0.013813, -0.006793, 0.007292, 0.040898, -0.020514, 0.001924, -0.007414, 0.002242, 0.002002, 0.009376, -0.005959, -0.059894, -0.004136, -0.017224, -0.021593, -0.045166, -0.065268, -0.024107, 0.023613, -0.005720, -0.064112, -0.048414, 0.012993, -0.062255, 0.002956, -0.017920, 0.045363, 0.010311, 0.012956, -0.002105, 0.027923, 0.047460, -0.007698, -0.058657, -0.022114, 0.007496, -0.033572, -0.077779, -0.002449, 0.034774, -0.015617, 0.035756, -0.020356, -0.019904, -0.036953, -0.039061, -0.078748, -0.021817, 0.022483, 0.007252, 0.016511, -0.007875, 0.003353, 0.021649, 0.034643, -0.054742, -0.064222, -0.011039, -0.058559, -0.023455, 0.012508, -0.032284, -0.039802, 0.046502, -0.020025, 0.043190, 0.045149, -0.008087, 0.050016, -0.041105, -0.002948, -0.008610, -0.000657, -0.002610, -0.027219, -0.061621, 0.034277, -0.033819, -0.000973, -0.002960, -0.047471, -0.040493, -0.061194, 0.023508, 0.019720, -0.038029, 0.003197, 0.051955, 0.031911},
  {0.042797, -0.022853, -0.009386, 0.005172, -0.007277, -0.017273, 0.050928, 0.035190, 0.051781, 0.082709, 0.090553, 0.020631, 0.072961, 0.117306, 0.055846, 0.095924, 0.010629, 0.089936, 0.092312, 0.084482, 0.078382, 0.005651, -0.017261, 0.006198, 0.041178, 0.028737, -0.025315, 0.023529, 0.042874, 0.048437, -0.010879, 0.064645, 0.043101, 0.059680, 0.064894, 0.031840, 0.059290, 0.061245, 0.039960, 0.001522, -0.000038, -0.016970, -0.002864, -0.064556, -0.039763, 0.034069, 0.042111, -0.014876, -0.002370, 0.040213, 0.000128, -0.003695, -0.038613, 0.029207, -0.043181, 0.036262, 0.004807, -0.008654, -0.052824, -0.023948, 0.050967, 0.027518, -0.036591, -0.046556, -0.013846, -0.052694, 0.022070, 0.002779, 0.030283, 0.001805, 0.063189, 0.019877, 0.069535, 0.039723, 0.013224, -0.009021, 0.038890, -0.025798, -0.008047, 0.071493, 0.057749, -0.008697, 0.018420, 0.002517, 0.002510, 0.024964, 0.002015, 0.067856, -0.006316, 0.078301, 0.092788, 0.068867, -0.006361, -0.019838, -0.039447, -0.032316, -0.023194, 0.007946, -0.010607, -0.076590, 0.003718, 0.007768, -0.038268, -0.044604, 0.029944, 0.002939, 0.006364, 0.051937, -0.051036, -0.042401, -0.033452, 0.000557, -0.005463, -0.033205, 0.001977, -0.011676, -0.044772, 0.006665, -0.000227, -0.050681, -0.054609, -0.035292, 0.028151, 0.047276, 0.050181, 0.055779, 0.022836, 0.130887, 0.075895, 0.113751, 0.065938, 0.020752, 0.006991, 0.062020, 0.089119, -0.021334, 0.017297, -0.010616, -0.026136, 0.005773, 0.043846, 0.003316, -0.001076, 0.084915, 0.046282, 0.003245, 0.092630, 0.024576, 0.020266, 0.089215, 0.009909, 0.016986, 0.075512, -0.010457, 0.033986, 0.038309, 0.045417, -0.011908, 0.023873, 0.059233, 0.053969, 0.017443, 0.008926, -0.060371, -0.000741, -0.008552, -0.061193, -0.012340, 0.028408, 0.055413, -0.003220, 0.000240, 0.016040, -0.002238, 0.015388, 0.036164, -0.022776, -0.033698, 0.029790, 0.023878, 0.002506, -0.046417, -0.012074, -0.057398, -0.053442, -0.075491, -0.006088, -0.025618, 0.015085, 0.035127, 0.072899, 0.026293, -0.037735, -0.030758, -0.004021, -0.040833, 0.021459, -0.000180, -0.025723, -0.030070, -0.047818, -0.067689, -0.011210, 0.048891, 0.087994, 0.023377, 0.075757, -0.014396, 0.060457, -0.000777, 0.039055, 0.013910, -0.028982, -0.114373, -0.014132, -0.095242, -0.019573, -0.012566, -0.042599, 0.049502, -0.016125, 0.003193, -0.026283, -0.027437, -0.029780, 0.027674, -0.037004, -0.028581, 0.016068, -0.015837, 0.014070, 0.006686, -0.031814, -0.039374, 0.006322, 0.047269, 0.065930, -0.007543, -0.020434, -0.040704, 0.080092, 0.079367, 0.074814, 0.041491, 0.108300, 0.006180, 0.025323, 0.028645, 0.050608, -0.029972, -0.002124, -0.060140, -0.074391, -0.021178, -0.071581, -0.065675, -0.036252, -0.071463, -0.062461, 0.011847, 0.039279, -0.052706, -0.058726, -0.059239, 0.010177, -0.003593, -0.018109, -0.014808, 0.007303, 0.035734, -0.033408, -0.031225, -0.056640, -0.069033, -0.020174, -0.067522, -0.065957, -0.051980, -0.051164, -0.015597, -0.029168, -0.004981, -0.013866, -0.012690, -0.042004, 0.008867, -0.047783, -0.053274, 0.019852, 0.035900, -0.038186, 0.032796, -0.025268, 0.001379, 0.016641, 0.022465, -0.052083, 0.005981, 0.003906, -0.015273, 0.035007, 0.007747, 0.025027, -0.004710, -0.034647, -0.053951, 0.023560, 0.025159, 0.048621, -0.005847, 0.047569, 0.045169, -0.005837, 0.031540, 0.013717, -0.000621, -0.065504, -0.007958, -0.036689, -0.059601, -0.033289, -0.020353, -0.042027, -0.062024, 0.019318, 0.033030, 0.013895, 0.027033, -0.019443, 0.013081, 0.014030, 0.044249, 0.059393, 0.065011, 0.021348, 0.001088, -0.025810, -0.011765, 0.066808, 0.007023, -0.009953, -0.046147, -0.008027, -0.042161, 0.029487, -0.023123, 0.000815, -0.045238, -0.003007, 0.012765, 0.015335, 0.021443, 0.022582, 0.023547, -0.002465, -0.059942, -0.005829, -0.025690, -0.041311, 0.026335},
  {0.007631, 0.073809, -0.005764, -0.015674, 0.045405, -0.025392, 0.080683, 0.049707, 0.024854, 0.048720, 0.024324, 0.019417, 0.055078, 0.011896, -0.028400, -0.001405, 0.001278, 0.024734, 0.055852, -0.027879, 0.021698, 0.057552, 0.019851, 0.040185, -0.021196, -0.023480, 0.040423, -0.007232, -0.035448, 0.049740, 0.038050, 0.021556, 0.054652, 0.019593, 0.064902, 0.054979, 0.034731, 0.051158, -0.021823, -0.022101, -0.009813, -0.068251, 0.002438, -0.045295, -0.042663, -0.010745, -0.035458, -0.058046, -0.078995, -0.036417, -0.014252, -0.092117, -0.062132, 0.019106, -0.013935, -0.036975, 0.016401, -0.079060, -0.068738, -0.031196, -0.045460, -0.033599, -0.051943, 0.045165, -0.063657, -0.067064, -0.043426, -0.037126, 0.032139, 0.070560, 0.017513, -0.018627, -0.014618, 0.052142, 0.003881, 0.005843, -0.006691, 0.046456, 0.016085, -0.030044, 0.020162, -0.039037, -0.009856, -0.025117, 0.009730, 0.010823, 0.018212, 0.015865, 0.015902, 0.013772, -0.035512, 0.026601, -0.003671, -0.044010, -0.025539, -0.031053, -0.031860, -0.000907, 0.011913, -0.037576, 0.043497, 0.035118, 0.008542, -0.018117, 0.027557, 0.017352, -0.045843, -0.028709, -0.014508, -0.002103, -0.004634, -0.063466, -0.034818, 0.018735, 0.005706, -0.084696, -0.020670, -0.008720, -0.025930, -0.050752, -0.020525, 0.047922, 0.028734, 0.040689, 0.002262, 0.009934, -0.005913, 0.057333, -0.005363, 0.060449, 0.057193, 0.000645, -0.014946, 0.010308, 0.047782, 0.036933, 0.072744, 0.055464, 0.042015, 0.021068, -0.018084, -0.016510, -0.014828, 0.022142, -0.057559, -0.057279, -0.040250, -0.003090, -0.038635, -0.008207, 0.026059, -0.054262, -0.065181, -0.038540, -0.068352, -0.053891, -0.008418, -0.027894, 0.017211, 0.013011, 0.027081, 0.019186, -0.058055, -0.055821, -0.068749, 0.022317, -0.001589, -0.051419, -0.012778, 0.038762, 0.046871, -0.019861, 0.036629, 0.026792, -0.014830, -0.039053, -0.054160, -0.017425, 0.014507, -0.067242, -0.026485, 0.008575, -0.024618, 0.010761, 0.034910, -0.001236, 0.006901, -0.020294, 0.017325, 0.027192, 0.041985, 0.030294, 0.003285, 0.061211, 0.071485, -0.033224, -0.004799, 0.040861, 0.049926, -0.040295, 0.040230, -0.018257, 0.018944, 0.046933, 0.064054, 0.002878, -0.011900, 0.014038, -0.008872, -0.048068, 0.041709, 0.043644, 0.006883, -0.016695, 0.014652, -0.020533, -0.012951, -0.030166, -0.053739, -0.039631, 0.018823, -0.000314, 0.046518, 0.057205, -0.036277, 0.029624, -0.049318, -0.050759, 0.010644, 0.030114, -0.009195, -0.031302, -0.036589, -0.052472, -0.025191, -0.015334, -0.058598, -0.068547, -0.065131, -0.024222, 0.033216, 0.047694, 0.049036, 0.031898, 0.064463, 0.053187, 0.036494, 0.025829, -0.000602, 0.014850, 0.032591, 0.044399, 0.047064, -0.035076, 0.010652, 0.009561, -0.063048, -0.009598, -0.014071, -0.005261, -0.078870, -0.079299, -0.015217, -0.093606, -0.010552, -0.016258, -0.034256, -0.068637, -0.055102, 0.005666, 0.012053, -0.034078, 0.010375, 0.017021, -0.065624, -0.061900, -0.024478, -0.010245, -0.056077, -0.017887, 0.009890, -0.064286, -0.006539, -0.066099, -0.005892, -0.004796, -0.065057, 0.000842, 0.020086, -0.053102, 0.036515, -0.048900, 0.000959, -0.037481, -0.051390, -0.008828, -0.001881, 0.008900, -0.001823, -0.030810, 0.030491, 0.042562, 0.000741, 0.000917, -0.004024, 0.016627, 0.019102, -0.045330, -0.000694, -0.059316, 0.004593, -0.013928, 0.019225, 0.022146, 0.046018, -0.047364, -0.040961, -0.015703, -0.019339, -0.013195, 0.002948, 0.028871, 0.032137, 0.015713, 0.040572, 0.031136, -0.007276, 0.009848, -0.029473, 0.004585, 0.017137, -0.045649, -0.009033, -0.003066, -0.048569, -0.005462, -0.041595, -0.043656, -0.030803, -0.004419, -0.013219, -0.040234, 0.021835, -0.014849, -0.058238, 0.030001, -0.018430, -0.055351, -0.052123, 0.013941, 0.004010, 0.015809, -0.003351, 0.020744, -0.016856, -0.007447, -0.003725, 0.029533, -0.026475, 0.009033},
  {-0.049352, -0.004918, -0.011057, 0.030914, -0.018402, 0.072695, 0.046120, -0.011446, 0.019978, 0.048733, 0.026485, -0.034210, 0.038471, 0.037827, 0.006102, 0.041608, 0.012067, 0.069370, -0.016739, 0.015727, 0.040593, 0.069473, -0.029813, 0.045523, -0.019546, 0.006478, 0.012835, 0.038097, 0.072834, 0.031599, -0.006278, 0.054122, 0.023921, 0.022778, -0.002430, -0.037031, -0.007589, -0.063991, 0.022972, 0.026702, -0.049800, -0.023202, -0.064742, -0.057143, 0.056915, 0.052624, -0.017386, 0.007572, -0.051889, -0.066229, 0.005461, -0.063484, -0.066188, -0.000480, 0.007796, 0.024830, -0.051543, -0.065951, -0.030172, -0.074715, 0.031547, -0.093900, 0.006424, 0.047602, -0.025081, -0.042392, 0.055255, 0.010135, 0.045202, 0.055961, 0.049895, 0.092598, 0.089649, 0.006225, 0.001410, -0.005504, 0.030447, -0.025601, -0.043741, -0.057979, -0.010627, -0.069765, 0.000395, 0.044359, 0.052557, 0.010973, 0.059228, 0.006982, -0.091124, 0.013949, 0.018148, -0.028220, -0.029489, 0.020212, 0.015315, 0.025162, -0.027571, -0.058717, 0.010376, 0.010541, -0.028677, 0.049332, -0.032184, -0.049376, 0.020367, 0.011018, 0.003536, -0.095296, -0.024412, -0.011632, -0.035715, 0.027839, 0.011245, -0.059406, 0.027117, -0.031251, -0.008753, -0.036373, -0.077103, -0.053703, -0.008328, -0.060706, 0.069685, -0.001537, 0.024453, 0.088410, 0.056404, 0.067661, 0.039314, 0.006836, -0.025723, 0.016078, 0.039394, 0.028894, -0.025117, 0.024908, -0.024676, -0.025326, 0.001977, 0.014414, -0.016164, 0.004816, 0.023206, -0.021297, 0.025292, 0.047234, -0.007769, -0.041202, 0.012980, -0.015287, -0.008786, 0.028518, 0.017556, -0.040732, -0.019823, -0.002536, -0.043226, 0.015356, -0.042046, -0.061280, -0.039598, -0.052832, -0.018427, -0.003528, 0.036424, 0.015644, 0.031899, 0.047025, 0.007660, -0.055909, -0.040316, -0.054401, 0.013085, -0.024545, 0.050821, -0.038118, 0.000034, -0.039463, -0.048569, -0.025640, 0.060711, -0.044163, -0.010537, 0.014595, -0.016378, -0.010097, 0.091093, -0.024655, -0.021998, -0.010968, -0.012355, -0.033063, 0.019077, -0.052621, -0.077447, -0.057957, -0.036107, 0.002894, 0.023701, 0.028300, -0.021828, -0.018804, -0.021432, 0.057609, 0.018012, 0.054501, 0.046204, -0.022683, 0.014217, -0.032872, 0.002564, -0.004294, -0.002837, -0.031050, 0.041159, -0.024054, 0.022648, -0.015284, 0.008286, 0.021998, 0.065921, 0.050898, 0.030018, -0.008780, -0.010933, 0.018429, -0.033228, 0.017751, -0.006528, 0.048525, 0.048987, -0.033455, -0.014337, 0.012785, -0.021706, -0.029711, 0.041765, -0.050147, -0.019073, -0.019427, 0.090115, 0.075188, 0.045924, 0.080912, 0.027715, 0.002605, 0.050793, 0.027490, 0.038933, -0.034808, -0.033947, -0.057257, 0.019713, -0.066697, -0.022689, -0.051598, -0.088090, -0.075421, -0.054930, -0.051480, -0.068144, -0.067639, -0.031864, -0.016366, -0.004437, -0.052846, -0.060600, -0.024537, 0.050289, 0.052897, -0.005849, -0.023380, -0.001120, -0.015215, -0.035532, -0.038410, -0.027958, -0.013398, 0.014858, -0.014598, 0.030385, 0.032965, -0.013873, 0.031356, 0.015291, 0.030972, 0.041190, -0.012384, 0.025818, 0.019757, 0.027964, -0.023942, -0.021813, -0.027697, -0.047758, -0.053858, 0.051382, -0.025003, 0.016373, -0.042523, -0.029593, -0.038385, -0.060602, -0.008996, -0.063941, -0.014837, -0.035909, 0.033807, -0.001758, -0.002044, 0.072983, 0.014239, 0.040652, 0.062907, 0.080527, -0.009760, 0.011218, 0.007559, 0.050193, -0.005917, -0.043238, 0.028589, 0.018260, 0.008490, -0.005414, -0.043895, 0.004943, 0.017818, -0.066544, 0.010898, -0.050075, -0.050756, -0.046276, -0.040553, -0.001325, -0.042110, 0.006896, -0.000719, 0.011807, -0.024625, -0.038248, 0.036369, 0.029736, -0.027994, -0.033720, -0.004138, -0.022433, 0.051238, 0.019789, -0.007870, -0.015068, 0.035980, 0.010411, -0.052683, 0.020547, -0.028455, -0.000069, -0.004565, -0.057915, 0.027031},
  {-0.003153, 0.085806, 0.109272, 0.050264, 0.080102, 0.016992, 0.000720, 0.004370, -0.049861, -0.068526, -0.010234, -0.104362, -0.087135, -0.009324, -0.076250, -0.031918, -0.026685, -0.007123, 0.039713, -0.021660, 0.006122, 0.017672, -0.001319, 0.016260, -0.032703, 0.001237, -0.043309, 0.051094, -0.025912, -0.042898, -0.017969, 0.000226, 0.040679, -0.035573, 0.012058, -0.007720, -0.043231, -0.008802, -0.007178, 0.040741, -0.003479, 0.029542, -0.006516, -0.006250, -0.019168, -0.062561, -0.001875, 0.024134, -0.061946, -0.057283, -0.006193, -0.005667, 0.009502, -0.018250, 0.004244, 0.004290, -0.004486, 0.011708, -0.017270, 0.035655, 0.016636, -0.007305, -0.097827, -0.025923, -0.058423, -0.042820, 0.029675, -0.024792, -0.015133, 0.033898, 0.053077, -0.004834, 0.067945, 0.047783, -0.000616, 0.040559, 0.002360, -0.031131, 0.019270, -0.028446, -0.045916, -0.046145, -0.059787, -0.012993, -0.013936, -0.030575, -0.022723, -0.015963, -0.020098, 0.066759, 0.028447, 0.045373, -0.001549, 0.011267, -0.018885, -0.020287, -0.005116, -0.035708, 0.017078, -0.010546, -0.002536, -0.043425, -0.053955, 0.046663, 0.031282, 0.054647, -0.046539, 0.046442, -0.015763, -0.004872, 0.010371, -0.026802, -0.003796, -0.037795, -0.017034, 0.038999, -0.005427, 0.038016, 0.034692, 0.064760, 0.037316, 0.037267, 0.019389, 0.017496, -0.042859, -0.029075, -0.038981, -0.035965, 0.001096, -0.031189, 0.012177, -0.005376, 0.068854, 0.048768, 0.000546, -0.012208, -0.018309, -0.013025, 0.008240, 0.075125, -0.000518, 0.014546, -0.011348, -0.053315, 0.038507, 0.028644, 0.000881, 0.007314, 0.034581, 0.021337, 0.012078, -0.009145, -0.084698, -0.040503, -0.006288, 0.006871, -0.013211, -0.059320, -0.024948, 0.023034, 0.006339, -0.038265, 0.009982, 0.013008, 0.003703, -0.007354, -0.051626, -0.011295, -0.041000, -0.038980, -0.009347, -0.034502, 0.049332, -0.061762, 0.032063, 0.008449, -0.000639, 0.030828, 0.012176, 0.029681, 0.024277, -0.026440, -0.061208, -0.025250, 0.021933, -0.005657, 0.011574, -0.024618, 0.048806, 0.047402, -0.014041, 0.009817, 0.068221, 0.047954, 0.043655, 0.032269, 0.105844, 0.020655, 0.071682, 0.024461, 0.089831, 0.057730, 0.040439, -0.015939, 0.024823, -0.012878, 0.057890, 0.034647, -0.006267, 0.018890, 0.026699, 0.023753, -0.017214, -0.018892, 0.022244, -0.036092, -0.040191, -0.076984, -0.010535, 0.016725, -0.068875, -0.002596, 0.014640, 0.050030, 0.008809, 0.006123, -0.027529, 0.027594, -0.020557, 0.002440, -0.024312, 0.015558, -0.024908, 0.018055, 0.048291, -0.032451, 0.000768, 0.011695, -0.019089, 0.031597, -0.118088, -0.055414, -0.011832, 0.053652, 0.031226, 0.022032, 0.063821, 0.072207, 0.059075, 0.069614, -0.013585, 0.023423, 0.024468, -0.018779, -0.029124, 0.007282, -0.016333, -0.026919, 0.030668, -0.040306, 0.002384, -0.047889, 0.025403, -0.020829, 0.006276, -0.020318, 0.006186, -0.034720, -0.042843, 0.048272, 0.000847, -0.021484, -0.042501, 0.040874, 0.038187, 0.049783, -0.000728, -0.002199, 0.058125, 0.056643, -0.045868, -0.001374, -0.057731, -0.023465, 0.006857, -0.048885, -0.002448, -0.000908, -0.021774, -0.011870, -0.033636, -0.014997, -0.018009, -0.045488, 0.032451, -0.024381, 0.019660, -0.001857, -0.057974, -0.052493, -0.020530, -0.062340, -0.007134, 0.006932, -0.046694, -0.083398, -0.076402, -0.089344, -0.041195, -0.011984, -0.013367, -0.004595, -0.016135, 0.000751, -0.028707, -0.022007, 0.081459, -0.002734, 0.040235, 0.045669, 0.057257, -0.011019, 0.048924, 0.003461, 0.065383, 0.029975, 0.058088, 0.065226, -0.029384, -0.004610, 0.016859, 0.026036, 0.047755, 0.025003, 0.029497, -0.010532, 0.026916, -0.055929, -0.042829, 0.002904, 0.025639, -0.033558, 0.032358, -0.008007, -0.013813, -0.034616, -0.023215, -0.045630, -0.020224, -0.029083, -0.024217, 0.042115, 0.054889, -0.014783, 0.024603, -0.034361, -0.028655, 0.033650, -0.037731, -0.045224},
  {-0.069024, 0.061202, 0.098656, 0.069299, -0.011009, -0.007864, 0.025619, -0.052700, -0.085949, -0.022132, -0.055855, -0.051593, -0.058449, -0.089654, -0.083455, -0.022654, -0.057324, -0.063440, 0.039864, 0.041459, -0.000328, 0.001897, 0.026467, 0.036727, 0.018584, -0.024682, -0.056796, 0.033974, 0.021471, -0.030318, 0.009706, -0.041847, -0.037505, 0.022998, 0.030267, 0.025379, -0.013396, 0.014626, -0.021197, 0.042190, -0.021799, -0.023112, 0.027798, -0.010919, -0.084160, -0.038202, -0.014008, -0.084342, -0.075005, -0.057067, -0.018679, -0.085418, -0.028951, -0.069479, -0.037836, -0.053947, 0.004173, -0.052608, 0.027466, -0.024495, 0.013059, -0.038582, -0.046954, 0.020633, -0.032682, -0.024456, -0.005121, -0.048545, -0.024431, 0.066242, 0.042186, 0.061094, 0.101834, 0.036975, -0.003305, 0.070924, 0.064577, -0.005636, -0.078129, -0.047091, -0.024473, -0.004169, 0.004693, 0.016509, -0.077842, -0.045456, -0.032498, -0.005580, 0.035359, 0.000319, -0.003911, 0.036926, -0.054917, 0.037882, -0.005461, 0.015165, 0.009905, 0.021404, 0.052528, 0.007940, 0.035543, -0.015270, -0.015988, -0.035109, -0.006525, 0.038860, -0.008218, 0.011169, 0.031966, 0.011040, -0.019261, 0.032614, -0.017503, 0.028406, -0.028525, -0.051794, 0.009409, -0.070809, -0.081927, -0.086237, 0.126426, 0.038986, 0.019784, -0.001691, 0.007919, -0.026998, -0.057376, 0.009642, 0.001764, -0.054755, 0.045841, 0.044656, 0.046041, -0.008149, -0.025268, -0.047430, -0.027626, 0.005552, 0.005367, 0.041995, 0.029574, 0.034599, -0.014043, -0.021280, 0.020405, -0.035559, 0.015362, -0.007209, 0.038665, -0.038704, -0.040902, -0.051339, -0.026889, -0.007754, -0.061328, -0.009784, -0.047563, -0.007475, -0.054550, -0.069569, -0.064938, 0.001811, -0.038044, -0.007299, 0.018933, -0.018392, -0.054457, -0.009115, -0.007941, -0.018657, 0.014890, -0.027806, -0.035175, -0.057478, -0.040183, 0.025309, 0.014023, -0.034209, -0.022280, 0.027332, 0.079740, -0.028688, -0.075699, -0.036130, -0.008509, -0.016129, -0.002924, 0.014224, 0.009610, 0.048480, 0.053842, -0.021139, 0.030123, 0.009966, 0.007726, -0.012536, 0.068900, 0.030098, -0.033104, 0.020885, 0.070320, 0.002801, -0.027416, -0.025445, 0.047760, 0.044947, -0.048542, -0.002711, -0.001423, -0.027483, -0.041655, -0.024076, -0.060787, -0.039221, -0.025283, 0.016802, -0.032869, 0.041657, 0.007818, 0.015893, -0.081352, -0.008106, -0.023428, 0.020936, -0.043893, 0.010326, 0.003481, -0.060424, -0.067057, -0.003255, 0.037056, -0.034460, -0.043096, -0.029016, -0.056093, 0.022044, -0.071787, -0.052052, 0.028028, -0.063834, -0.064229, -0.036843, -0.039895, 0.039491, 0.021239, 0.009821, -0.012885, 0.042256, -0.017193, 0.009211, 0.004445, -0.012668, 0.024397, 0.018775, 0.014988, -0.031186, 0.041331, -0.018471, -0.038844, 0.020621, -0.062045, 0.003713, 0.006124, 0.038582, 0.036525, -0.049530, 0.035626, 0.049153, -0.019739, -0.023772, 0.058948, 0.048272, 0.036041, 0.003875, 0.004175, -0.012240, -0.006300, 0.019916, -0.046030, 0.006942, 0.013227, -0.004272, -0.024867, -0.004758, -0.051668, -0.040031, -0.006274, -0.048528, -0.005727, -0.032477, 0.028803, -0.001204, -0.025758, -0.031432, 0.016485, 0.001020, 0.030813, -0.009387, 0.091848, 0.024505, 0.039564, 0.022564, -0.074752, -0.030270, -0.003409, -0.024202, -0.056222, -0.062649, -0.098340, -0.031794, -0.020021, -0.050829, -0.001771, 0.013346, 0.059331, 0.083224, 0.069529, 0.011385, 0.076325, 0.089098, -0.001541, 0.052930, 0.070388, 0.075376, 0.052987, -0.014112, -0.031144, -0.025961, 0.032981, -0.041323, -0.034294, -0.044365, -0.050651, -0.056124, -0.043806, -0.028409, -0.080660, -0.019142, 0.002490, -0.019380, -0.006226, -0.030922, -0.061678, -0.035149, 0.025130, -0.057273, -0.052936, 0.027871, -0.031291, 0.043362, -0.009444, -0.028050, 0.072868, 0.014548, 0.010693, 0.040664, 0.062454, -0.014222, -0.001155, 0.015483},
  {0.136136, 0.023475, 0.091034, 0.025146, -0.009417, 0.007759, 0.079847, 0.002912, 0.006005, 0.008363, 0.042874, 0.098768, 0.090003, 0.086367, 0.007136, 0.057458, -0.006474, 0.044293, 0.034686, 0.007834, -0.006874, -0.015277, 0.043067, 0.042815, 0.006017, 0.058040, 0.032094, 0.023712, 0.018634, 0.022983, 0.047620, -0.023011, 0.021729, 0.049081, -0.018011, 0.061137, 0.026141, 0.030634, -0.028658, -0.049006, -0.053440, -0.038074, -0.035728, 0.011739, -0.044595, -0.016361, 0.032306, -0.033740, 0.049007, 0.013190, -0.037300, 0.020326, -0.039659, -0.002616, 0.009919, 0.004918, 0.041618, -0.028665, 0.020941, -0.028703, 0.056431, -0.030768, -0.009488, -0.002862, -0.052102, -0.028979, -0.038268, -0.016812, 0.070365, 0.037487, 0.001788, 0.041812, 0.006939, -0.001004, 0.038076, -0.017766, -0.044117, 0.021083, 0.057511, 0.035459, 0.019962, -0.033596, -0.014968, 0.048414, 0.027179, 0.048605, 0.022844, 0.041903, 0.066417, 0.014592, 0.055434, -0.011691, 0.046622, -0.032628, -0.017798, 0.037629, 0.051133, 0.024689, -0.020503, 0.022604, -0.020162, -0.000422, -0.015289, 0.045437, 0.022248, 0.006383, -0.030753, 0.028018, -0.037393, 0.031335, 0.050269, 0.049361, -0.019607, -0.005392, -0.025342, 0.033317, -0.038248, -0.020285, -0.007883, 0.030520, 0.014478, -0.033086, 0.003068, -0.024632, 0.010432, 0.067184, 0.066730, 0.054095, 0.072151, 0.074601, 0.046818, 0.068980, 0.024441, 0.009618, 0.061658, 0.017091, 0.032780, -0.031998, 0.078744, 0.034930, 0.037286, 0.028495, 0.029535, 0.007424, -0.018544, 0.020679, 0.030519, 0.007468, 0.050962, -0.025339, -0.014533, -0.001097, -0.005876, -0.007394, -0.007197, -0.002517, 0.008730, -0.041449, -0.012023, 0.037348, 0.031859, 0.008737, -0.044327, 0.014507, 0.000942, -0.028846, -0.027231, -0.023125, -0.046752, -0.000878, 0.016099, 0.005783, -0.030309, 0.060483, -0.032491, -0.014631, -0.042929, -0.046610, 0.049401, 0.045926, -0.029846, -0.008900, 0.025167, 0.002867, 0.017995, -0.049637, -0.071306, -0.017283, 0.030881, 0.080049, 0.056310, 0.060300, -0.014242, -0.025406, -0.027313, -0.027714, -0.023218, 0.001820, 0.016071, 0.015063, 0.012763, -0.006507, 0.012031, 0.077963, 0.034446, -0.019241, -0.001145, 0.038550, -0.026147, 0.081561, -0.004607, 0.014271, -0.041313, -0.032675, -0.091209, -0.101955, -0.036573, -0.040416, 0.010586, 0.007684, 0.000492, -0.025851, -0.024272, -0.008534, -0.054425, -0.044630, -0.027422, -0.018807, -0.037328, 0.007785, 0.003391, 0.004334, -0.031411, -0.004107, 0.000488, 0.058464, 0.062844, -0.026264, 0.005378, -0.019627, 0.090524, 0.061432, -0.005419, 0.036985, 0.032038, 0.014442, 0.050968, 0.062030, 0.058193, 0.038809, -0.034156, 0.004888, -0.030025, -0.047528, -0.027111, 0.008138, 0.022613, 0.006909, -0.003691, -0.033350, 0.035467, -0.060685, -0.065882, -0.044548, -0.036944, 0.003612, -0.021228, -0.000327, -0.010589, 0.008336, -0.024686, -0.075440, -0.073970, -0.070365, -0.008957, -0.053748, -0.031001, -0.070567, -0.021246, -0.042748, -0.045429, 0.021545, -0.071633, -0.061656, -0.003199, -0.053547, 0.013551, 0.008934, 0.038532, 0.043465, -0.001528, -0.050458, 0.007587, -0.021190, 0.041718, -0.028397, 0.002271, -0.039791, 0.025235, -0.059411, 0.006388, 0.058784, -0.025606, -0.037098, 0.032911, -0.057458, -0.010992, -0.009244, -0.008789, 0.015532, -0.019319, 0.041659, 0.037921, -0.020417, -0.059511, -0.014410, 0.011881, -0.024938, -0.005360, 0.029314, -0.004690, 0.039838, 0.040167, -0.026137, -0.028563, 0.008717, 0.045852, 0.031299, 0.005968, 0.027569, -0.012506, -0.013881, 0.015803, -0.027753, -0.024297, -0.044415, 0.024235, 0.012627, 0.001064, -0.041584, 0.022436, -0.010040, 0.000063, 0.034222, -0.011294, 0.038630, 0.018248, -0.047067, 0.011602, -0.037475, 0.053272, 0.039444, 0.030212, 0.023297, 0.001900, -0.017831, -0.045209, 0.026459, 0.032041, -0.006582},
  {0.022297, -0.004365, 0.028928, 0.036953, -0.024600, 0.030857, 0.023339, 0.034324, 0.071335, -0.001908, 0.015782, 0.052312, -0.025587, -0.016118, 0.036639, 0.021221, 0.002685, 0.055001, 0.033400, -0.031615, 0.041883, -0.052886, 0.006390, 0.016961, -0.050291, -0.027453, -0.045935, -0.003457, -0.092209, -0.055683, -0.072937, -0.064787, -0.013769, -0.038342, -0.082329, -0.015962, -0.066512, 0.000047, 0.027556, 0.006577, -0.048660, -0.043620, 0.018837, -0.008635, -0.051392, -0.032773, -0.026915, -0.062047, -0.001937, -0.040164, -0.064863, -0.055115, -0.054215, -0.019039, -0.008502, 0.011863, -0.008818, -0.033759, -0.047244, 0.019765, -0.027396, 0.029096, 0.015518, -0.016198, 0.054710, 0.035902, 0.008438, -0.016265, -0.061128, -0.078906, -0.085056, -0.052834, -0.003335, 0.008333, 0.004241, -0.028486, 0.038829, -0.047477, -0.026186, -0.030930, -0.006461, -0.040680, -0.026843, -0.028616, -0.037084, -0.018724, -0.042661, -0.061900, 0.011472, -0.038122, 0.000874, 0.014704, 0.008797, -0.054292, 0.001510, -0.008852, -0.001183, -0.030614, -0.023915, 0.043954, -0.007289, -0.055904, -0.018225, -0.040853, 0.035126, 0.044555, -0.024646, 0.001925, 0.008807, 0.032500, 0.022166, 0.076159, 0.062163, 0.013099, 0.013185, 0.017045, 0.064530, 0.042577, 0.002888, 0.009975, 0.043783, 0.040648, 0.009605, -0.064674, -0.082169, -0.055581, -0.079861, -0.034126, -0.038603, -0.074443, -0.079467, -0.081033, -0.096680, -0.102336, -0.076282, -0.064216, -0.016119, -0.031181, 0.002164, -0.020792, -0.042845, -0.018854, 0.005509, 0.043577, 0.051792, 0.040067, 0.010043, -0.005226, 0.026764, 0.051514, 0.055130, 0.044677, 0.089131, 0.094234, 0.084831, 0.084120, 0.039219, 0.053029, 0.012433, 0.020113, 0.072113, -0.025234, -0.010882, -0.002644, 0.045312, 0.043281, -0.011349, 0.018503, 0.009003, 0.012255, 0.007112, -0.036206, -0.035905, 0.044651, -0.019604, 0.011206, 0.010864, 0.040612, -0.060088, -0.023935, 0.000909, -0.006255, -0.057104, -0.031366, -0.011522, -0.068349, -0.049486, -0.066769, 0.026166, -0.033041, -0.054842, -0.018734, -0.021523, 0.004595, 0.007919, -0.008027, 0.010670, -0.050283, -0.003941, -0.022561, -0.053119, 0.029657, -0.078288, 0.001197, -0.040093, -0.068543, 0.052504, 0.023649, -0.033021, 0.008086, 0.039105, 0.057480, -0.003526, 0.033064, 0.028868, 0.018570, 0.056015, -0.012133, 0.086021, -0.021784, 0.046323, 0.014898, -0.016575, -0.043105, -0.017992, -0.030034, -0.009275, 0.033912, -0.009005, -0.009697, 0.042841, 0.056345, 0.038146, 0.042620, 0.024750, 0.060718, -0.024048, -0.063723, -0.026294, 0.011260, -0.035140, -0.022117, -0.031761, -0.086777, -0.078166, -0.005067, -0.073598, -0.049921, 0.038144, 0.054692, 0.041344, -0.005301, 0.062668, 0.078115, 0.004030, 0.022329, 0.037611, 0.056980, 0.013707, 0.064423, 0.008564, -0.006012, 0.043690, -0.004708, 0.086463, -0.017988, 0.015675, 0.027772, 0.005425, 0.056795, 0.056799, 0.000126, 0.013556, 0.004682, 0.014326, 0.030521, -0.006914, 0.068336, 0.001447, -0.020564, -0.000411, -0.003112, 0.020475, 0.044457, -0.001565, 0.009189, 0.046865, 0.044413, -0.050362, -0.042678, -0.028932, -0.022907, -0.015429, 0.039941, -0.007558, -0.014113, 0.002425, 0.038006, 0.046422, -0.034408, 0.016634, 0.008669, 0.030577, -0.016474, 0.051310, 0.071954, -0.011235, 0.069305, -0.016567, -0.007850, -0.031629, 0.036326, -0.012230, -0.043051, -0.037778, 0.027404, 0.004705, -0.039137, -0.073021, -0.022765, 0.008754, -0.057604, 0.032233, -0.043205, 0.015239, -0.015286, 0.002346, -0.032582, 0.006982, -0.004229, 0.010040, 0.014948, -0.034802, -0.040307, 0.028191, -0.035236, -0.017615, -0.046503, -0.043173, 0.013688, 0.009524, -0.043028, 0.042835, -0.014480, 0.042963, -0.023318, -0.047756, 0.007102, 0.002377, -0.010317, -0.033913, 0.022145, -0.025066, -0.006808, -0.033415, -0.010084, -0.061683, 0.025154, -0.005437, -0.018158},
  {-0.005729, -0.013129, 0.008542, -0.015293, 0.069045, 0.013642, 0.033652, 0.093464, 0.033464, 0.008820, 0.036410, 0.079525, 0.034841, 0.043677, 0.032992, 0.008216, 0.062009, 0.027904, 0.000173, 0.060871, 0.018770, 0.063077, 0.060572, 0.060164, 0.052429, 0.043319, 0.018837, 0.030833, 0.015121, 0.004433, 0.059611, 0.054217, -0.005926, 0.045713, -0.010103, 0.050924, -0.027874, 0.047248, 0.031411, -0.020353, -0.000036, 0.051976, -0.020704, 0.035448, -0.002293, 0.041886, 0.004222, -0.026034, -0.020532, 0.057258, 0.012503, 0.058603, 0.002643, 0.049037, 0.031982, 0.012238, 0.077359, 0.079606, 0.040206, -0.003718, 0.010211, -0.044883, 0.002117, -0.017181, -0.043450, 0.058759, 0.034362, -0.006679, 0.022013, -0.051036, -0.056087, -0.032810, -0.025523, -0.015395, -0.054674, -0.051231, 0.010198, -0.036716, -0.069214, 0.011336, -0.016886, -0.052044, -0.006768, 0.004458, -0.050343, 0.010806, 0.053174, 0.017097, 0.006056, 0.062853, 0.019850, 0.079156, -0.018221, 0.020160, 0.057251, 0.077469, -0.002469, 0.065002, 0.047640, 0.039869, 0.012318, 0.043484, 0.051749, -0.000744, 0.069257, -0.014749, 0.049335, 0.065800, -0.008190, 0.068372, -0.006102, 0.079796, -0.027328, -0.021559, 0.065463, -0.003682, 0.005095, 0.028958, 0.025227, -0.013684, -0.038801, -0.033109, -0.012483, 0.009407, -0.072251, -0.074997, -0.043952, -0.029545, -0.070738, 0.025368, -0.010845, -0.077643, -0.023940, -0.058673, -0.006553, -0.018630, -0.057011, -0.048863, -0.021489, -0.019679, 0.017458, 0.017727, -0.024058, 0.008238, 0.027232, 0.019322, 0.033535, 0.089439, 0.079962, 0.061525, -0.018736, -0.018301, 0.054073, 0.060860, 0.006858, -0.002587, 0.057625, 0.083015, -0.001398, 0.070447, 0.015729, 0.010756, 0.002730, 0.076055, 0.031552, 0.064648, 0.063859, 0.054369, -0.023191, 0.064864, 0.043138, -0.005177, 0.057672, -0.003069, 0.014773, 0.008438, -0.001514, 0.002218, 0.042651, 0.041972, -0.102140, -0.035238, -0.020970, -0.077669, 0.021554, -0.054982, 0.003603, -0.064902, 0.040337, 0.033973, 0.012242, -0.001237, 0.075139, 0.028074, 0.010533, 0.073219, 0.067567, 0.058296, 0.033364, 0.013220, 0.019621, 0.085969, 0.074713, 0.082924, 0.087701, 0.023759, 0.001871, 0.077027, 0.035278, 0.018408, 0.052374, 0.000623, 0.000704, -0.002752, 0.021360, 0.000864, 0.015521, 0.050404, 0.033356, 0.007936, 0.066102, -0.031877, -0.031854, -0.058972, -0.028359, 0.042939, 0.054101, -0.042811, -0.041980, -0.003106, 0.016912, -0.028669, 0.020828, 0.014323, 0.015716, 0.034236, 0.017126, -0.010585, 0.022134, -0.031034, -0.066875, -0.078364, -0.031251, -0.085542, -0.010051, -0.008329, -0.074400, -0.053073, -0.042440, -0.026221, -0.026966, -0.020588, -0.049979, -0.029026, -0.031697, 0.053693, -0.002200, -0.035956, -0.024061, 0.033117, 0.054714, 0.012953, -0.003152, -0.038266, -0.002944, -0.030333, 0.028409, 0.059373, -0.001660, -0.037027, 0.055636, -0.024420, 0.058614, 0.048129, 0.077170, 0.030721, -0.012194, 0.069358, 0.006926, -0.005898, 0.019107, 0.037956, 0.011518, 0.084082, 0.052588, 0.011599, 0.052622, 0.050818, 0.024594, 0.025865, -0.014566, -0.001592, -0.006222, -0.012723, 0.054248, 0.041750, 0.025720, -0.022340, -0.030573, 0.022282, 0.049309, 0.054997, 0.003803, -0.061739, -0.019439, -0.041688, -0.015243, -0.026028, 0.023444, -0.074882, -0.009167, -0.053375, -0.072869, -0.020558, -0.064342, -0.043998, -0.076588, -0.002548, -0.019057, 0.012234, 0.021606, -0.053518, -0.068463, -0.048552, -0.019761, -0.000185, -0.036782, -0.020182, 0.019473, 0.002591, 0.009561, 0.045742, -0.031815, 0.024438, -0.004581, 0.062308, 0.057932, 0.043603, 0.028365, 0.054477, 0.063457, -0.014703, 0.042363, 0.001159, 0.048646, 0.057902, 0.000856, 0.042674, 0.064909, -0.007961, 0.061083, 0.081654, 0.072648, 0.010540, -0.000356, 0.012295, 0.024813, -0.007429, 0.003623, -0.012881},
  {0.068490, 0.032611, 0.027400, 0.008687, 0.034401, 0.014989, -0.030773, 0.050299, 0.034790, 0.031017, -0.026257, -0.000681, -0.069534, -0.032858, -0.039161, 0.007969, -0.042654, 0.003501, -0.010359, -0.006553, 0.024315, 0.027133, -0.011374, 0.036584, -0.003707, -0.026391, -0.032643, -0.009720, 0.001754, -0.027375, 0.062827, 0.055510, 0.031566, -0.010980, 0.001167, -0.017388, -0.017355, -0.024483, 0.001938, 0.019890, 0.045294, -0.027285, 0.028052, 0.012451, 0.064079, -0.029659, 0.030790, -0.018848, 0.018255, 0.028042, 0.039196, 0.040153, 0.038240, 0.050942, 0.027348, 0.006366, 0.064560, 0.047501, 0.081531, 0.024533, -0.035200, -0.056697, -0.018423, -0.032241, -0.055254, -0.063971, 0.006293, -0.028794, -0.084693, -0.108900, -0.058859, -0.027272, -0.059119, 0.031726, 0.046010, 0.049128, 0.008417, -0.008452, 0.052653, 0.029406, 0.025556, 0.054600, 0.011574, 0.042082, -0.025810, 0.033056, 0.025262, 0.006918, 0.068353, -0.026010, 0.004505, 0.004094, 0.063669, -0.019632, 0.006488, -0.006665, 0.061386, 0.005722, 0.042373, -0.007086, 0.023112, 0.045488, 0.055411, 0.036463, 0.072390, 0.073838, -0.017128, 0.018641, 0.065911, 0.081616, 0.082973, 0.041019, 0.048661, 0.072976, 0.046846, 0.009013, 0.023311, 0.014820, 0.051370, 0.039312, 0.030507, 0.061285, 0.028715, 0.072975, 0.013511, -0.036988, 0.057489, 0.032244, 0.050736, -0.003023, 0.013568, -0.028622, 0.027627, 0.068962, 0.044732, 0.014562, 0.001091, 0.039407, 0.036646, 0.060501, 0.012408, -0.019426, -0.016431, 0.003833, 0.048566, -0.016317, -0.000976, -0.048058, -0.008149, 0.014519, -0.005500, 0.024693, -0.012586, 0.028238, -0.026400, 0.004343, 0.029805, 0.017944, -0.026283, 0.025774, 0.059522, 0.015869, 0.020737, -0.047476, 0.032289, 0.024571, 0.024595, 0.030985, 0.009795, 0.032532, -0.037153, 0.013082, 0.014078, 0.004595, 0.035981, 0.034585, -0.013395, 0.012750, 0.003203, 0.005729, -0.065102, -0.015535, -0.001879, -0.026197, 0.021564, 0.053540, -0.012857, 0.053447, -0.039506, -0.018248, 0.062910, 0.039625, 0.065245, 0.024983, 0.075350, -0.013743, -0.011896, 0.073236, 0.031900, 0.069200, 0.052742, 0.029219, 0.033947, 0.027875, -0.056227, 0.041954, 0.042037, 0.059251, 0.062422, -0.039250, 0.074546, -0.007380, -0.005128, -0.021641, 0.045508, 0.030960, 0.038233, 0.036558, 0.039572, -0.048640, -0.037350, -0.009346, 0.035504, -0.060365, -0.053123, -0.063853, 0.000775, -0.056270, -0.040584, 0.022038, 0.010430, -0.033376, 0.038894, 0.049923, 0.049994, -0.008000, 0.025094, -0.031979, 0.041015, 0.004280, -0.042471, -0.022205, -0.080149, -0.066736, 0.017039, 0.016133, -0.009861, 0.031390, -0.037209, 0.022395, -0.045617, 0.010773, -0.023395, 0.048674, 0.008975, -0.000006, 0.010040, 0.056228, -0.025842, 0.027504, -0.030392, -0.056807, -0.000701, 0.018666, -0.054461, 0.009017, -0.048986, 0.009801, 0.007774, -0.015520, 0.054216, 0.000103, -0.011330, -0.004243, 0.018910, 0.049530, 0.041304, 0.017798, -0.033739, -0.037159, 0.016863, -0.009335, -0.062314, 0.034631, 0.016467, 0.007385, 0.061943, 0.007088, -0.015068, -0.031047, -0.038487, 0.047521, -0.011399, 0.035775, 0.035722, -0.037242, 0.014903, 0.015305, 0.008936, -0.078473, 0.019256, 0.042392, -0.019091, -0.008418, -0.032181, 0.026426, -0.033481, -0.060257, 0.018440, -0.044396, 0.004186, -0.057655, -0.013631, -0.041065, 0.016324, -0.006500, -0.003697, -0.019496, -0.044328, -0.039901, 0.049392, -0.006392, 0.038453, -0.038354, 0.029269, -0.004686, 0.019293, 0.040657, -0.009321, 0.065907, 0.053740, 0.060780, 0.072699, 0.023663, 0.006845, -0.015528, 0.035460, -0.020616, 0.007662, 0.070896, -0.019304, 0.039937, 0.036821, 0.024264, 0.022956, 0.054810, 0.050063, 0.001151, 0.076027, -0.001923, 0.049534, -0.008642, -0.002856, -0.003111, 0.012423, -0.003885, 0.005719, 0.049074, -0.000709, 0.000309},
