Layer: fc1.weight
Shape: torch.Size([128, 300])
Values:
{
  {0.108725, 0.053981, 0.012520, 0.033753, 0.104604, 0.163802, 0.130390, 0.161641, 0.118726, 0.096516, 0.123881, 0.081728, 0.092226, 0.085318, 0.102240, 0.054001, -0.003982, -0.067192, -0.052052, -0.003797, -0.011363, -0.073961, -0.038430, -0.138736, -0.120636, -0.097037, -0.129741, -0.067910, -0.062398, -0.037857, -0.109957, -0.112245, -0.015960, -0.066411, -0.081339, -0.092215, 0.005655, -0.054988, -0.058050, -0.003592, -0.034858, -0.034125, 0.034107, -0.018012, 0.050230, 0.056551, -0.001465, 0.067470, -0.023254, -0.032411, 0.008611, -0.021318, -0.061433, -0.037501, -0.073195, -0.058964, -0.099292, -0.017173, 0.033413, -0.068515, -0.011559, -0.041336, -0.094763, -0.019513, -0.051355, -0.034725, -0.003768, -0.080385, 0.002000, 0.109827, 0.055981, 0.111056, 0.001187, 0.013692, -0.006077, -0.010602, 0.034681, 0.104558, -0.017605, 0.030060, 0.039317, 0.092519, -0.005468, -0.005249, -0.065969, 0.039041, 0.005435, -0.042305, -0.031918, -0.035659, -0.032798, -0.021655, 0.050191, 0.043329, 0.040068, 0.039818, 0.029406, -0.004673, -0.026071, -0.001963, -0.023340, 0.082900, 0.055177, 0.029140, 0.019723, 0.067440, 0.135899, 0.107477, 0.068526, 0.090084, 0.026541, 0.003095, 0.042278, 0.085419, 0.043585, -0.057846, -0.022910, -0.033163, -0.034159, -0.021424, -0.025612, -0.090962, -0.100936, -0.085236, -0.092031, -0.037579, -0.024309, 0.021982, -0.065311, -0.044595, -0.028365, -0.070488, -0.092822, -0.022127, 0.017544, -0.052104, 0.001888, -0.022679, -0.044732, -0.042418, 0.023078, 0.084453, -0.009986, 0.054747, -0.025258, 0.026157, 0.066491, -0.045295, 0.045302, -0.047854, -0.019277, -0.024363, 0.027078, -0.039670, 0.003854, 0.016426, 0.040934, 0.009336, -0.001062, 0.094287, 0.082692, 0.034572, 0.050540, 0.084888, 0.101907, 0.027351, 0.048670, 0.031113, 0.056784, 0.016954, 0.040015, 0.089634, 0.037330, 0.036492, 0.085218, -0.014791, -0.022219, -0.034253, -0.006972, -0.010810, -0.023741, -0.005015, 0.000440, 0.009771, -0.036934, 0.006051, 0.004023, 0.056094, 0.011375, 0.004857, 0.066429, 0.043911, 0.054438, 0.052353, 0.082780, 0.091291, 0.079446, 0.028606, 0.030558, 0.013215, -0.010496, 0.009876, -0.027377, -0.100030, 0.009680, -0.083674, -0.054828, -0.067542, -0.041451, -0.020632, -0.016113, -0.003652, -0.047766, -0.126624, -0.127189, -0.105570, -0.079954, -0.098913, -0.068142, -0.036108, -0.099869, -0.054672, -0.013794, -0.058074, -0.038549, -0.012762, 0.026418, 0.058533, 0.003518, -0.000625, -0.033307, 0.078975, 0.032235, 0.107878, 0.112972, 0.057974, 0.028894, 0.073744, 0.093434, 0.053863, 0.115555, 0.036190, 0.046210, 0.041213, -0.002482, 0.056788, 0.023774, -0.047651, 0.001702, -0.011774, 0.090558, 0.067224, 0.065467, -0.007820, -0.099703, -0.016489, 0.072471, -0.047242, -0.067587, -0.001728, 0.074255, -0.039321, 0.002090, -0.077778, -0.088613, -0.071236, -0.135373, -0.115670, -0.148774, -0.098145, -0.140832, -0.079126, 0.001894, -0.101503, -0.000965, 0.009524, -0.030024, 0.024010, 0.032868, -0.008957, 0.071445, -0.013973, 0.050671, 0.080143, 0.012650, -0.015206, 0.098375, 0.099762, 0.028012, 0.114070, 0.121677, -0.001170, 0.053174, 0.058878, 0.040727, -0.018392, -0.017377, -0.008579, -0.041257, -0.038554},
  {-0.062811, -0.074804, -0.108378, -0.007007, -0.000636, 0.011820, 0.030603, 0.069944, -0.002367, -0.006428, 0.003029, -0.081454, -0.004345, -0.053406, -0.000615, 0.029613, -0.013966, -0.129869, -0.049291, -0.096775, -0.071702, -0.033037, -0.010785, -0.090471, -0.161112, -0.039688, -0.082038, -0.152935, -0.091134, -0.131022, -0.068473, -0.125852, -0.099382, -0.000686, -0.032568, -0.142697, -0.035743, -0.010790, -0.019128, -0.045782, -0.032597, -0.012539, -0.080093, -0.053193, 0.017688, -0.048717, -0.041357, -0.028733, 0.001369, -0.092656, -0.007113, -0.036443, 0.079501, 0.084921, 0.125762, 0.108118, 0.025348, 0.049129, 0.036824, 0.059589, 0.145015, 0.089907, 0.035066, 0.050554, 0.060124, -0.064233, -0.046085, -0.025447, 0.028035, 0.007591, 0.100255, 0.087239, 0.017926, 0.029524, 0.076965, 0.054650, 0.031360, 0.102517, -0.000998, 0.010885, 0.011789, -0.005073, 0.017443, 0.021805, -0.023206, -0.054952, 0.026874, 0.077726, 0.073603, -0.005292, 0.037753, 0.025803, 0.016179, -0.044331, -0.070409, 0.006275, 0.007720, -0.049277, -0.063585, -0.052741, -0.056735, 0.043927, 0.075108, 0.078388, 0.007409, 0.044553, 0.044446, 0.043374, -0.038771, -0.024902, -0.109372, -0.016212, 0.005603, -0.050979, 0.018806, -0.072851, 0.011083, -0.043576, 0.004965, 0.062357, 0.027554, 0.056575, 0.030227, -0.002780, -0.030109, -0.023613, -0.091286, -0.078983, -0.066158, -0.131183, -0.065256, -0.109136, -0.035478, -0.138589, -0.027187, -0.124532, -0.124304, -0.058848, -0.090052, -0.077273, -0.005885, 0.023753, 0.011022, 0.020855, -0.023382, 0.000714, 0.061598, 0.034282, 0.057860, 0.012621, 0.087429, 0.022196, 0.005702, 0.045119, -0.034467, -0.026964, 0.025604, -0.024640, -0.018619, 0.064321, -0.094336, -0.012908, 0.002274, -0.068300, 0.041471, 0.042141, 0.027528, -0.072367, -0.089707, 0.013543, -0.075082, -0.085777, 0.008670, -0.000409, 0.008643, 0.060796, -0.033984, 0.035108, 0.043869, 0.021283, -0.092653, -0.074279, 0.007511, -0.019794, -0.082925, -0.039639, -0.105772, -0.056466, -0.072620, -0.100845, -0.055173, -0.045259, -0.092108, -0.102806, -0.045090, 0.065351, 0.004956, -0.000739, 0.032193, -0.077174, -0.024844, -0.039529, -0.096747, -0.038562, 0.033803, 0.045543, -0.061325, -0.083126, 0.023417, -0.026709, -0.014201, 0.019992, 0.071841, -0.003758, -0.009874, 0.065976, 0.069548, 0.022384, 0.083851, 0.017123, 0.058092, 0.033809, 0.060353, -0.009886, 0.040515, -0.008872, 0.045244, 0.044793, -0.055479, -0.052671, -0.022850, 0.016595, -0.033409, -0.023829, 0.012448, 0.013709, 0.013361, -0.043080, -0.027927, 0.072380, 0.029039, 0.048529, 0.013472, -0.042600, -0.035009, -0.031592, -0.040785, -0.039084, 0.023891, -0.049100, -0.015044, -0.035158, -0.096079, -0.021262, -0.029149, 0.022138, -0.008234, -0.059013, -0.001609, -0.092630, 0.012694, -0.025752, 0.024893, 0.026169, 0.030404, 0.040078, -0.046577, 0.007058, 0.015461, -0.062703, -0.045057, -0.018813, 0.020376, -0.015110, 0.020862, -0.033528, -0.015397, -0.019915, 0.023122, 0.039705, 0.056957, -0.002042, 0.060624, 0.072807, 0.027953, 0.015855, -0.058571, 0.019607, -0.070193, -0.089683, -0.091175, -0.066046, -0.040511, -0.023917, -0.108218, -0.046675, -0.035747, -0.102554, -0.013865, -0.126481},
  {-0.077859, 0.064059, 0.057242, 0.098949, 0.055409, 0.076260, 0.003046, -0.015803, -0.041135, 0.014688, -0.024150, -0.028616, -0.082160, -0.025434, 0.006241, 0.010804, 0.001721, 0.036139, 0.047725, 0.039207, 0.129307, 0.052979, 0.087887, 0.066437, 0.037904, 0.055550, 0.073936, 0.100252, 0.084791, 0.058131, 0.077746, 0.069750, 0.054990, 0.048139, 0.048284, -0.001635, -0.055780, -0.007994, 0.036479, -0.005735, -0.008567, -0.025973, 0.037082, -0.054958, -0.042931, 0.053879, -0.027417, 0.021169, -0.058136, -0.049579, 0.044145, 0.082831, 0.039178, 0.031703, -0.064975, 0.001243, -0.023063, -0.004476, -0.020655, -0.018275, 0.012104, -0.014168, 0.081578, 0.066129, 0.082834, 0.013773, -0.022152, -0.036604, -0.024032, -0.031986, 0.019724, -0.057490, 0.014221, 0.001143, -0.075303, -0.057951, 0.041435, 0.013281, -0.047934, -0.001155, -0.054910, -0.058647, 0.039957, -0.060838, -0.023385, 0.013620, -0.044387, -0.038042, 0.004241, -0.005362, -0.014968, -0.067603, -0.025126, 0.004525, -0.066398, 0.007446, 0.019715, -0.060738, -0.087078, -0.000723, 0.186643, 0.088881, 0.017816, 0.062098, -0.014293, -0.064425, 0.022736, -0.105409, 0.015288, 0.024622, 0.016967, 0.012942, 0.018339, -0.034211, -0.011504, -0.049051, 0.034237, 0.008940, 0.035706, -0.040254, 0.008432, 0.040517, -0.014219, 0.057430, -0.003576, 0.084966, 0.040773, -0.002605, -0.021364, -0.048080, 0.041640, -0.031678, -0.000815, -0.048572, -0.025452, -0.058598, -0.055678, 0.023307, -0.016102, -0.040315, 0.055360, -0.044314, -0.041135, 0.046693, 0.016773, -0.050475, 0.012264, -0.009339, -0.009872, -0.023416, -0.011272, 0.092977, 0.032516, -0.008221, 0.039359, -0.079455, 0.004886, 0.046242, 0.094063, 0.012242, 0.011031, -0.044440, -0.090946, -0.013046, -0.029417, -0.079987, -0.078696, 0.007439, -0.029794, -0.072500, -0.097371, -0.038485, -0.047024, 0.011474, 0.010099, 0.074538, 0.079832, -0.024186, -0.034748, -0.048950, -0.020839, -0.019864, 0.057722, 0.051517, -0.009175, -0.032685, 0.024933, -0.040469, -0.001981, -0.043439, -0.069480, -0.033723, -0.067628, 0.015228, -0.057397, -0.039018, -0.000047, -0.018276, 0.026300, 0.087240, -0.003347, -0.004248, 0.101682, 0.007061, -0.026092, 0.012063, -0.122478, 0.026310, 0.007445, -0.045442, 0.045221, 0.013921, 0.005383, -0.027240, -0.030697, -0.028816, -0.012862, -0.020246, 0.020492, -0.011163, 0.009954, 0.036702, 0.000125, -0.017812, 0.069562, 0.017694, 0.017081, -0.043203, 0.018470, 0.013267, -0.044708, -0.006591, 0.035961, 0.028437, 0.018752, -0.074447, 0.002922, -0.060233, 0.021360, -0.013798, -0.054225, -0.004013, 0.036936, -0.005799, -0.045112, -0.067453, 0.037043, -0.059459, 0.033140, -0.021629, -0.090444, -0.021560, 0.012629, 0.035488, -0.008398, -0.041080, -0.019283, -0.013115, -0.065323, -0.034752, -0.099061, -0.049601, 0.017760, 0.018759, 0.029966, 0.196495, 0.187118, 0.117657, 0.078576, 0.133404, 0.123349, 0.069079, -0.002400, 0.089871, 0.067745, 0.062221, 0.090729, 0.010836, 0.078375, 0.076011, 0.019158, 0.071074, 0.087273, 0.021025, 0.023033, -0.033067, -0.019739, 0.085878, 0.101951, -0.001702, 0.024158, 0.050697, 0.007348, 0.060004, 0.028867, 0.093779, 0.091907, 0.082015, 0.066528, 0.085499},
  {-0.093326, -0.090858, -0.170281, -0.120719, -0.061561, -0.104341, -0.017646, -0.013480, -0.016437, 0.064761, 0.067557, 0.079348, 0.040703, 0.096488, -0.002237, 0.007226, 0.020430, 0.036496, 0.055841, -0.009526, -0.048202, -0.005870, -0.024278, -0.065300, -0.001465, 0.005683, -0.038192, 0.023484, 0.003025, 0.052670, 0.055888, 0.034681, 0.028138, -0.000224, 0.087206, 0.003042, 0.059615, 0.116210, 0.072652, 0.000191, 0.040362, 0.060967, 0.086462, 0.052213, 0.063003, 0.080610, 0.033198, -0.018224, 0.061698, 0.000011, -0.035428, 0.009789, 0.033934, -0.036254, -0.049226, -0.001719, -0.046184, -0.004737, 0.016715, 0.033495, -0.070101, -0.041529, -0.006939, -0.040442, -0.001615, -0.008732, -0.086747, -0.105871, -0.092589, -0.028456, -0.052105, -0.034753, 0.003329, 0.040509, 0.057011, 0.081690, 0.014447, -0.012548, 0.065254, -0.009542, 0.023109, -0.021014, 0.010614, 0.002766, -0.048490, -0.012242, 0.051189, 0.034207, 0.047581, 0.084308, 0.006596, 0.002232, -0.011238, -0.011892, 0.023510, 0.090256, 0.098796, 0.050469, 0.066909, 0.088868, -0.060720, 0.046659, 0.031425, 0.060755, -0.029594, -0.054463, -0.075052, -0.064714, -0.112332, -0.122031, -0.165829, -0.119760, -0.123757, -0.066644, -0.018838, -0.067583, -0.029281, -0.030428, 0.024086, -0.054726, -0.028317, 0.016987, -0.030329, 0.030084, 0.024505, 0.023323, -0.054521, -0.050274, 0.039427, 0.056709, -0.000627, -0.038484, -0.012736, 0.059340, 0.024446, 0.074461, 0.090367, 0.043911, -0.013858, -0.060210, -0.015919, -0.036740, -0.037532, -0.057126, -0.020502, -0.031624, -0.014411, 0.033170, -0.041082, -0.009591, 0.038967, 0.020977, 0.008629, 0.049371, -0.000290, -0.057908, -0.058271, 0.028165, 0.023448, -0.030082, -0.030726, -0.010209, 0.016416, 0.010927, 0.045320, -0.004980, -0.019394, 0.069672, 0.002232, -0.050247, -0.077743, -0.047234, -0.090173, -0.059163, -0.002542, 0.008626, -0.070997, -0.084909, -0.123289, -0.006340, -0.031495, 0.001112, 0.031270, 0.004184, -0.049146, -0.015501, -0.033628, -0.053449, 0.060720, -0.009024, 0.040529, -0.001306, 0.022213, 0.021431, 0.078449, 0.044048, 0.079783, 0.039487, -0.008554, -0.011512, 0.023196, -0.065250, -0.036649, -0.069816, -0.085940, -0.129518, -0.008834, -0.063352, -0.096166, -0.024741, 0.014980, 0.032953, 0.123140, 0.066759, 0.171907, 0.197931, 0.164735, 0.068388, 0.095192, 0.104496, 0.106531, 0.080288, 0.067284, 0.134030, 0.101905, 0.020119, 0.011862, 0.077079, 0.019026, 0.050463, 0.010028, 0.009665, -0.031443, 0.068263, 0.064124, 0.034781, 0.012789, -0.028628, -0.020135, -0.023761, -0.007941, 0.030282, -0.004695, 0.000075, -0.016996, -0.004310, -0.020357, -0.024819, 0.065560, 0.034053, 0.192291, 0.146473, 0.109389, 0.063833, 0.112029, 0.067583, 0.059221, 0.023952, 0.059323, 0.074138, 0.087445, -0.006134, 0.092659, 0.078261, 0.049484, -0.045729, 0.021660, -0.029411, -0.057725, -0.049630, 0.028734, 0.022403, -0.023919, 0.027891, -0.004202, -0.012682, 0.013016, 0.084647, 0.079064, -0.004502, 0.074858, 0.031434, 0.021260, 0.028514, 0.035205, -0.035896, 0.002793, -0.021030, -0.003079, -0.006085, -0.049175, 0.011560, -0.021398, 0.029985, -0.018499, -0.012745, -0.017010, -0.061189, -0.016104, -0.073438},
  {-0.126545, -0.103018, -0.084555, -0.130326, -0.078285, -0.067535, -0.039885, 0.010580, -0.036268, -0.063944, -0.039440, -0.013347, -0.089628, -0.097823, -0.031574, 0.003484, -0.052611, -0.047835, 0.006582, -0.048218, -0.023703, -0.003316, -0.049464, -0.072398, -0.033081, -0.051968, -0.046210, 0.003462, -0.033278, -0.083735, -0.042622, -0.046945, 0.055306, -0.018521, -0.037581, 0.000846, 0.094530, 0.114816, 0.037187, 0.007227, 0.037967, 0.125603, 0.064234, 0.126106, 0.088779, 0.144679, 0.067610, 0.072628, 0.012602, 0.016194, 0.022188, 0.020968, 0.061289, 0.056367, 0.155307, 0.083276, 0.056767, 0.033189, -0.018841, 0.049299, 0.053660, 0.063054, 0.103287, 0.021395, 0.024564, -0.001958, 0.049281, 0.001319, 0.039657, -0.002756, 0.026930, -0.054895, -0.047264, -0.019486, -0.072322, -0.060787, -0.067271, -0.017998, -0.019027, -0.010460, 0.015609, -0.079600, -0.026777, -0.155449, -0.060923, -0.033100, -0.084958, -0.022637, -0.040579, 0.050355, 0.011216, -0.002356, 0.029446, -0.048534, 0.007698, 0.062676, -0.039027, 0.037546, -0.022834, -0.024349, -0.022182, 0.024528, 0.018100, -0.041843, 0.050219, -0.000963, -0.004507, 0.077999, 0.019476, -0.064648, -0.024767, 0.028478, -0.019001, 0.022612, 0.039130, 0.054462, 0.024710, -0.007340, -0.038385, 0.035896, -0.023297, 0.008040, -0.049489, -0.064715, -0.037386, -0.052928, -0.055317, 0.023249, -0.048877, 0.052418, -0.000743, 0.039288, -0.073170, -0.011221, 0.022704, 0.073494, 0.043562, 0.086261, 0.035413, -0.061792, 0.023631, 0.002179, -0.022350, -0.028050, 0.025769, 0.003942, -0.064036, -0.050466, -0.057769, 0.038178, 0.066014, 0.078759, 0.017502, -0.011283, -0.048295, -0.018040, 0.027550, -0.017642, 0.011545, 0.001659, -0.002789, 0.067686, 0.024587, -0.008433, 0.037999, -0.036886, 0.043286, -0.008231, -0.077173, -0.026239, 0.022219, -0.044502, -0.023123, -0.098649, -0.010752, -0.055398, -0.039724, -0.115560, -0.010108, -0.026607, -0.090715, -0.104191, -0.045434, -0.055011, -0.004086, -0.045085, -0.028646, -0.050545, -0.005492, 0.001844, -0.073095, -0.031903, -0.077233, -0.072425, -0.096005, -0.044274, -0.022135, -0.040616, -0.013910, -0.016342, -0.046267, -0.037453, -0.055603, -0.053637, -0.029519, -0.023533, -0.045991, -0.054032, -0.005260, -0.068448, -0.092136, -0.039976, -0.008787, 0.001822, -0.091316, -0.032898, -0.041395, -0.046079, 0.008531, 0.028397, 0.055427, 0.045176, 0.065466, 0.054884, 0.051262, 0.074700, 0.064619, 0.025306, 0.035936, 0.006796, 0.067926, 0.091598, 0.097646, 0.071027, 0.091503, 0.023819, -0.045100, -0.065992, -0.093982, -0.016863, -0.016919, -0.001886, -0.055014, -0.053253, -0.044518, -0.007386, 0.032008, -0.011450, 0.001393, -0.030733, -0.232729, -0.170929, -0.108772, -0.067707, -0.091676, 0.003044, 0.015420, -0.020182, -0.051411, -0.061411, 0.069164, 0.014524, 0.121000, 0.116815, 0.100829, 0.073652, 0.088427, 0.098768, 0.077835, 0.122355, 0.129754, 0.173429, 0.156341, 0.093990, 0.121416, 0.028710, 0.020877, -0.005282, 0.031365, 0.048934, 0.084595, 0.110936, 0.063143, 0.027208, 0.034802, 0.063574, -0.002264, 0.057500, -0.027223, 0.032127, 0.060969, 0.027627, -0.081901, -0.079523, 0.025386, -0.021193, -0.043981, 0.017548, -0.066096, -0.046660},
  {-0.087203, -0.041955, -0.017825, -0.074952, -0.012143, -0.086003, -0.102245, 0.012162, 0.012920, 0.021892, 0.074358, 0.016525, 0.036225, 0.029159, 0.047981, 0.003860, -0.015396, 0.052809, 0.043394, 0.024417, 0.003430, 0.025342, 0.004119, 0.016013, 0.042503, 0.028257, -0.018832, -0.017215, 0.023280, -0.030271, -0.004681, 0.092827, 0.031034, 0.081721, 0.026880, 0.017588, 0.017089, 0.042587, 0.023083, 0.059065, 0.010831, -0.015345, 0.024052, -0.002591, -0.057141, 0.044562, -0.024145, 0.020071, -0.062283, -0.013190, -0.110511, -0.017713, -0.082417, 0.003698, 0.030962, -0.053521, -0.028553, -0.035736, 0.014408, -0.004060, 0.008801, 0.003769, 0.020611, 0.008899, -0.090043, -0.049044, -0.126151, -0.011231, 0.056559, 0.039059, -0.054601, -0.111649, -0.104968, -0.080639, -0.026963, -0.030501, 0.036646, 0.051717, 0.012805, -0.017339, -0.036212, -0.032819, 0.009377, 0.011925, 0.007777, 0.006432, -0.000092, -0.031924, 0.062883, 0.085319, 0.042423, 0.051799, -0.012878, 0.073503, -0.017969, 0.034032, 0.002020, 0.083741, 0.096859, 0.104278, -0.155797, -0.037864, -0.080703, -0.040915, 0.015402, -0.039539, -0.062824, -0.070555, -0.066825, -0.044057, -0.080549, -0.085238, -0.073617, -0.068935, -0.015314, -0.098083, -0.079735, -0.012938, -0.033458, -0.115996, -0.057225, -0.004555, -0.094710, -0.001316, -0.035899, -0.071330, 0.014043, 0.020063, -0.011882, -0.012056, 0.027080, 0.085099, 0.070500, 0.015516, 0.109930, 0.103235, 0.085666, 0.092791, 0.031792, 0.038331, -0.020845, -0.037105, 0.021261, -0.044639, -0.030265, 0.000288, -0.008376, 0.029833, 0.064096, -0.009488, 0.005676, -0.040640, 0.070443, 0.006476, -0.085346, -0.045972, 0.076184, -0.028026, -0.022596, -0.028049, -0.051359, -0.003587, -0.069770, -0.075342, -0.052947, 0.000537, 0.077847, 0.043750, 0.035522, -0.043813, -0.096977, -0.040280, 0.049370, 0.002574, 0.031053, 0.064967, -0.024098, 0.031422, -0.006933, -0.039411, -0.037597, 0.004851, -0.036511, 0.069003, -0.013778, 0.045871, 0.035685, 0.060438, 0.005596, -0.041096, -0.059492, -0.037867, 0.001352, -0.017137, 0.099094, 0.061221, -0.006899, 0.005759, 0.035688, 0.005545, -0.115587, -0.088634, -0.019205, -0.031813, -0.082561, 0.038297, -0.026484, -0.000953, -0.028209, -0.041393, 0.012550, 0.005357, 0.059275, -0.013711, 0.063148, 0.050237, 0.000228, -0.002051, 0.041450, 0.083136, 0.025598, 0.049088, 0.038144, 0.060391, 0.039370, 0.069366, 0.056229, 0.017640, 0.039665, 0.043179, 0.003955, -0.014822, -0.011398, 0.016977, 0.044798, 0.047941, 0.050451, -0.011235, 0.012855, 0.064329, -0.042408, 0.011070, 0.012523, 0.065183, 0.095070, 0.031444, -0.000263, -0.031487, 0.046778, 0.063942, 0.143980, 0.101892, 0.012126, 0.017953, 0.000507, 0.076962, -0.039148, 0.077870, 0.049847, -0.080600, -0.013312, 0.024838, -0.006038, -0.040990, 0.059526, -0.040833, -0.035403, -0.030502, -0.016449, -0.048968, -0.073299, -0.071524, -0.018263, -0.028937, -0.046581, -0.022282, -0.021816, 0.015423, 0.014419, 0.032739, 0.006730, -0.039179, -0.028750, 0.002453, 0.069796, 0.033523, -0.005823, -0.004577, 0.047879, -0.000175, 0.020435, 0.081259, -0.007315, -0.004545, 0.016323, -0.018392, 0.077563, 0.034546, 0.003273, -0.056053},
  {-0.117989, 0.095021, 0.083633, -0.005272, 0.040109, 0.018999, -0.010493, 0.020312, -0.030613, -0.030295, -0.021200, -0.033774, 0.072862, 0.036088, 0.096121, 0.062558, 0.045112, 0.060656, 0.050643, 0.089643, 0.002022, 0.047314, 0.036321, 0.002041, 0.013640, 0.028420, 0.070119, 0.033498, 0.067891, 0.068848, 0.052051, 0.152571, 0.083042, 0.059041, 0.085127, 0.007227, 0.043924, 0.008318, -0.022950, -0.007550, 0.038875, -0.025359, 0.014000, -0.047986, -0.054910, 0.026490, 0.036274, -0.002528, -0.026542, 0.076513, -0.001667, 0.085125, -0.004040, -0.131974, -0.025815, -0.050292, -0.005434, -0.042163, -0.089254, 0.022810, 0.010824, -0.023277, 0.046766, -0.041874, -0.013267, -0.046254, -0.061772, 0.010436, -0.061419, 0.004945, -0.018381, 0.000388, -0.005740, 0.044620, 0.048996, -0.020695, 0.036930, -0.041659, 0.065541, -0.005272, 0.053616, -0.044165, -0.042225, -0.016435, 0.013997, -0.012444, 0.029243, -0.002636, 0.035864, 0.039284, 0.034629, 0.021401, -0.052673, 0.054980, 0.010653, 0.009069, -0.004773, -0.031033, 0.094585, 0.050727, 0.037786, -0.113045, -0.152764, 0.009850, -0.057459, -0.149740, -0.136257, -0.095557, -0.024060, -0.096874, -0.023517, -0.051865, -0.099144, 0.000577, 0.041522, -0.068047, 0.014552, -0.081906, -0.025386, -0.087703, -0.114900, -0.053901, -0.010111, -0.025001, 0.002123, 0.076263, 0.007754, 0.054247, -0.025349, 0.105060, 0.100642, -0.003990, -0.013476, 0.103910, 0.044523, -0.051012, 0.002248, -0.027562, 0.055064, 0.048804, 0.028054, -0.009991, 0.031544, 0.032461, 0.007303, 0.040372, -0.011085, 0.057228, 0.079955, 0.028969, 0.074248, -0.048983, -0.070447, 0.049128, 0.098707, 0.017243, -0.124960, -0.049024, 0.077800, 0.084871, 0.039043, 0.058870, -0.007661, -0.087803, 0.005511, -0.032427, 0.088311, -0.011496, -0.043764, -0.003349, 0.045988, -0.037618, -0.038128, -0.017929, 0.034695, 0.030520, 0.025311, 0.064979, 0.059560, -0.043913, -0.058113, -0.018600, -0.023191, -0.015448, -0.031971, 0.074053, -0.028222, -0.000904, 0.042320, -0.007203, 0.017592, -0.021852, 0.018789, -0.052066, 0.026596, -0.009049, -0.037159, -0.108565, 0.030162, 0.021727, 0.036416, -0.148728, -0.002277, 0.006384, 0.005848, -0.038536, -0.004523, -0.003637, -0.014177, 0.017349, -0.028003, -0.032439, 0.081325, 0.024549, 0.131524, 0.076602, 0.079914, 0.064246, 0.038203, 0.060992, 0.002984, 0.057931, 0.083350, 0.011232, -0.011567, -0.040372, 0.071754, 0.061536, 0.025718, 0.013897, -0.032012, -0.025653, -0.020905, 0.031174, -0.038406, -0.012989, 0.030567, 0.013308, 0.007504, -0.011837, -0.009772, -0.010901, 0.019632, 0.045091, 0.076185, 0.066703, 0.054273, 0.092396, 0.020341, -0.008309, 0.084090, -0.061803, -0.000443, 0.107471, 0.070446, -0.033212, -0.046588, -0.031137, 0.012158, 0.043279, -0.030546, -0.036377, 0.001216, -0.001138, 0.072283, 0.074885, 0.017431, -0.031638, 0.057838, 0.064706, 0.071560, 0.069011, 0.059745, 0.029814, 0.010433, 0.015214, 0.032863, 0.087932, 0.058788, 0.131891, 0.060275, 0.071524, 0.011781, 0.028561, 0.085988, 0.097921, 0.120443, 0.089275, -0.002360, -0.003968, 0.029521, 0.029951, 0.064805, 0.026620, 0.053305, 0.097909, 0.014744, 0.036311, 0.068026, 0.112094},
  {0.047842, 0.054438, 0.081317, 0.046324, 0.082994, 0.029783, 0.059171, 0.024147, 0.018552, -0.010430, 0.042785, 0.042962, 0.025000, 0.001833, 0.072785, 0.073470, 0.045577, 0.002088, 0.015552, 0.039377, -0.018242, -0.042512, -0.033294, 0.062237, 0.059529, 0.034788, 0.081188, 0.050111, 0.116347, 0.038959, 0.083110, 0.092270, 0.028042, 0.097444, 0.049728, 0.065644, 0.056380, 0.048040, 0.060751, 0.051597, 0.008245, 0.070915, 0.053796, 0.032423, -0.007719, -0.002601, 0.033523, 0.002538, 0.023040, 0.044046, 0.032938, 0.009262, -0.057514, 0.032411, -0.000957, -0.029149, -0.037785, -0.113382, 0.040615, 0.033666, 0.053540, -0.109368, -0.021942, -0.029585, 0.000345, -0.025371, -0.103528, 0.002075, 0.003300, -0.028689, -0.069711, -0.076159, -0.073722, -0.104058, -0.051929, 0.021460, -0.035019, 0.061843, 0.041115, 0.053301, 0.032787, 0.034621, 0.084661, 0.049621, 0.043317, -0.037438, 0.084301, 0.110825, 0.086763, 0.111795, 0.052788, 0.100001, 0.114147, 0.042121, 0.032372, 0.086691, 0.090907, -0.003667, 0.025550, 0.031605, 0.035057, -0.004436, -0.091330, -0.025361, -0.042622, 0.040540, 0.011940, 0.026813, 0.022107, 0.026278, -0.015304, -0.029072, -0.015679, -0.060998, -0.078697, -0.085387, -0.008225, -0.017683, -0.078520, -0.046384, -0.096319, 0.014129, -0.078966, 0.065790, 0.048898, 0.068158, 0.068775, 0.020648, 0.026812, -0.017656, 0.046087, 0.019659, 0.070744, 0.104528, 0.025373, 0.044462, 0.048029, 0.071749, 0.025799, 0.017442, 0.024362, 0.010418, 0.049728, 0.071123, -0.020065, 0.053752, -0.011341, -0.003702, 0.004467, 0.002677, 0.008257, -0.112316, -0.104331, 0.044631, 0.108837, 0.044085, -0.066081, -0.062433, 0.064824, 0.052680, -0.071434, 0.018111, 0.130642, 0.090834, 0.072502, -0.034147, 0.066051, 0.084985, 0.087476, -0.000678, -0.040505, -0.019990, -0.039952, 0.046028, 0.088648, 0.041789, 0.027472, 0.004892, -0.049532, -0.073492, 0.004968, 0.056499, 0.057404, -0.012467, -0.018396, 0.053533, 0.041739, 0.057949, 0.041830, 0.052818, -0.017737, 0.055184, 0.009270, -0.003920, 0.031719, -0.021350, -0.009725, 0.015868, 0.046470, -0.022012, -0.053403, -0.169184, -0.172203, -0.100493, 0.002143, -0.047012, 0.014696, 0.002604, -0.006337, -0.040181, -0.058256, 0.063180, 0.091736, 0.085654, 0.107980, 0.070067, 0.089216, 0.087514, 0.042763, -0.009521, -0.019346, 0.019945, 0.064525, 0.061686, 0.025893, 0.015993, 0.014555, 0.010055, -0.013556, 0.041405, 0.047471, 0.046598, 0.027619, 0.003350, -0.043023, 0.016929, 0.045799, 0.066727, -0.059871, -0.031600, -0.026290, -0.017548, 0.041477, -0.014997, 0.024746, 0.052637, 0.061099, 0.060056, 0.023563, 0.000516, -0.025339, 0.016238, -0.033549, -0.056982, -0.008997, -0.046707, -0.064501, -0.043995, -0.014178, 0.017943, 0.016238, 0.057877, -0.039937, -0.049258, -0.012787, -0.061881, -0.022954, -0.090950, 0.009078, -0.034574, 0.007470, -0.041072, 0.001070, 0.050392, 0.001920, -0.017131, -0.015193, 0.002225, -0.011072, -0.013497, 0.026271, -0.044675, 0.081738, 0.124246, 0.129669, 0.071110, -0.004969, 0.040109, 0.008733, -0.002519, 0.055671, 0.032438, 0.055552, 0.050369, 0.029710, 0.107293, 0.112890, 0.119432, 0.119601, 0.072179},
  {-0.016174, -0.025930, 0.010287, 0.037509, 0.021599, 0.011067, 0.059017, 0.129458, 0.058662, 0.130342, 0.087573, 0.126402, 0.030333, -0.010610, -0.030892, 0.032757, -0.052207, 0.041821, 0.035065, -0.008311, 0.023108, 0.010202, 0.010106, 0.039259, -0.037246, 0.010402, 0.063278, 0.037692, -0.024266, 0.040128, 0.031705, -0.022473, -0.045322, 0.021386, 0.015033, -0.073620, -0.017017, -0.027505, -0.043243, 0.002643, -0.078381, 0.013387, -0.047717, 0.003117, 0.015635, 0.002036, -0.033763, -0.056137, -0.038550, 0.007342, -0.111200, -0.035575, -0.030621, -0.093463, -0.063001, -0.133901, 0.017466, -0.034922, -0.018940, -0.035168, 0.006588, -0.005307, -0.000030, 0.022002, -0.026875, 0.052171, 0.074904, 0.052379, -0.007892, 0.036104, -0.007809, -0.000249, 0.042380, -0.049056, -0.001046, 0.000226, -0.056451, -0.068112, 0.054216, 0.052484, 0.010808, 0.070333, -0.064942, -0.009123, 0.046147, 0.020828, 0.038896, -0.052869, -0.012801, -0.008814, 0.005929, -0.072820, -0.000382, -0.018424, -0.010577, -0.017026, 0.022443, 0.050413, -0.026284, 0.008002, -0.148960, 0.038722, -0.068141, -0.097187, 0.042217, 0.094377, 0.037369, 0.058646, 0.016860, 0.038767, 0.095299, 0.041700, -0.066704, -0.032668, 0.006126, -0.079825, 0.003062, -0.061440, -0.030247, -0.031943, 0.060272, 0.111725, 0.059790, 0.021035, 0.067832, 0.005372, -0.020765, -0.018432, -0.024686, -0.001769, -0.006238, -0.016916, 0.019702, 0.057620, -0.001107, -0.037689, 0.012432, -0.001937, 0.058635, 0.000684, -0.023191, 0.012075, 0.008630, -0.011996, 0.012459, -0.017389, 0.028514, 0.023822, -0.012670, 0.027449, -0.082359, -0.029546, -0.001371, -0.112857, -0.030442, -0.052788, 0.117300, -0.004926, -0.037705, -0.028585, 0.114484, 0.096044, 0.117417, -0.030129, -0.014884, 0.112263, 0.061990, 0.032334, 0.054853, 0.012826, 0.138456, 0.118120, 0.065807, 0.032243, 0.094961, 0.055325, -0.022269, 0.034075, 0.060525, 0.090073, 0.062194, 0.004231, 0.026035, 0.036134, -0.000779, -0.016241, 0.002086, -0.006392, -0.024712, 0.058363, -0.036092, 0.002869, 0.027426, 0.049109, 0.051851, 0.040230, 0.020229, 0.069567, -0.010639, 0.043066, 0.055242, 0.081394, -0.002079, -0.040166, 0.067958, 0.087847, 0.037734, -0.010097, -0.101505, -0.089561, -0.134234, -0.074716, -0.113724, -0.182413, -0.172499, -0.152791, -0.075447, -0.083630, -0.027695, 0.011131, -0.048919, -0.025147, -0.047462, -0.101129, -0.021614, -0.113017, -0.087884, -0.063239, -0.013844, -0.073096, -0.110094, -0.057839, -0.052843, -0.042998, -0.005746, -0.030226, -0.080599, 0.024028, 0.056222, 0.028864, -0.070348, -0.053922, 0.042269, -0.022980, -0.020635, 0.026653, -0.043148, -0.065224, -0.071264, 0.017408, 0.184071, 0.122218, 0.069841, 0.059646, 0.076363, 0.075154, 0.049951, -0.029549, 0.032301, 0.055898, -0.000256, 0.021292, -0.074301, -0.047099, -0.027352, -0.084610, -0.020130, -0.099291, -0.004716, -0.057657, -0.059823, -0.062267, -0.027377, -0.018050, 0.034118, 0.017048, -0.016915, -0.003132, -0.045792, -0.036678, -0.080320, -0.043920, -0.049960, -0.007871, -0.073336, -0.029181, -0.035077, -0.046623, -0.042278, 0.001867, -0.028460, 0.061414, 0.005667, 0.025659, -0.024794, -0.017162, -0.009541, 0.040860, 0.016336, -0.021653},
  {-0.039206, -0.029448, -0.090195, -0.027865, 0.020984, -0.025411, 0.003775, -0.074778, 0.038729, 0.045877, 0.020302, -0.014193, 0.012084, -0.089590, -0.065328, -0.160112, -0.146700, -0.105317, -0.146005, -0.106752, -0.128950, -0.068368, -0.088174, -0.060628, -0.038888, -0.040658, -0.034380, -0.047546, -0.031804, -0.117254, -0.104031, -0.069315, -0.068515, -0.056580, -0.096602, -0.028031, -0.051547, -0.058624, -0.115979, -0.054767, -0.017089, -0.051232, -0.053735, -0.060690, -0.029391, -0.040954, 0.036468, 0.031985, 0.017018, 0.043794, 0.025788, 0.036946, 0.025903, 0.086994, 0.002691, 0.006024, 0.010552, 0.036530, 0.054515, 0.037388, 0.046132, -0.028544, -0.040418, -0.055710, -0.014085, -0.021210, -0.044523, -0.024784, 0.026399, 0.005574, -0.013026, 0.027118, 0.091530, 0.064274, -0.009548, 0.027717, 0.016174, 0.065170, 0.042127, 0.065836, 0.062684, -0.004110, -0.019547, 0.027418, -0.010300, 0.004099, 0.039256, -0.030811, 0.023361, 0.055460, -0.009537, 0.049123, -0.022507, -0.024506, -0.016305, -0.019967, 0.035128, 0.067207, -0.064527, 0.041363, 0.001333, 0.080218, 0.017944, 0.058643, -0.019177, -0.004256, 0.048131, -0.009220, -0.001743, -0.125105, -0.098837, -0.033722, -0.047700, -0.077512, -0.128416, -0.003478, -0.010877, -0.049570, 0.057445, -0.020328, 0.011915, 0.055100, 0.025770, -0.012533, 0.051328, -0.029633, -0.024982, 0.041659, -0.055849, -0.061510, 0.008415, -0.006348, -0.037675, -0.028191, -0.072401, -0.076973, -0.051232, -0.085685, -0.037366, -0.039523, -0.039666, -0.010484, -0.037043, -0.078691, -0.044058, 0.066401, -0.002722, 0.020070, 0.026073, 0.058354, 0.025121, 0.056736, -0.022848, 0.136578, 0.001273, -0.014679, -0.000065, 0.050200, 0.066038, 0.004476, -0.000819, -0.018634, -0.032230, -0.043838, 0.007452, 0.009652, -0.004190, -0.054464, -0.002245, -0.071009, 0.033677, -0.046285, 0.038254, -0.038839, 0.024295, 0.011766, -0.065215, -0.017385, -0.040113, -0.005014, -0.003388, -0.030521, -0.036208, -0.015913, 0.014987, -0.061260, -0.031553, -0.021175, -0.004914, 0.000307, 0.065665, -0.002046, 0.042767, 0.051850, 0.043110, 0.035408, -0.055197, -0.003907, 0.003416, -0.066005, -0.033403, -0.097644, -0.053126, -0.089097, -0.049051, -0.043815, -0.053149, -0.144187, -0.187392, -0.130380, -0.121109, -0.048566, -0.042084, -0.061739, -0.037520, 0.033325, 0.086713, 0.089127, 0.038038, -0.017319, 0.076618, 0.064005, 0.060312, 0.087607, 0.016990, 0.070858, -0.027860, 0.045867, -0.044458, 0.040295, -0.016673, 0.064922, 0.022772, 0.020872, 0.087274, 0.043620, 0.080538, -0.020141, 0.018708, -0.031263, -0.041869, -0.022044, -0.000184, -0.054957, -0.058263, -0.034987, -0.031421, -0.100443, -0.038187, -0.084136, 0.060542, 0.090543, 0.076803, 0.019593, 0.115296, 0.009666, 0.076349, 0.076577, -0.017822, -0.004704, 0.050863, 0.011709, -0.065419, -0.031726, 0.022880, -0.067284, -0.051027, -0.044282, 0.088837, 0.080294, 0.048386, -0.039172, 0.065646, -0.021200, 0.031404, 0.025551, 0.066199, 0.067160, 0.012978, 0.057755, -0.033864, 0.097372, 0.069939, 0.058503, 0.025536, 0.070315, 0.046522, 0.031987, -0.066393, -0.091700, -0.035630, -0.007666, -0.015542, 0.022916, -0.008881, -0.048874, -0.036388, -0.037202, -0.024235, -0.045417},
  {-0.086159, -0.092377, -0.006557, 0.000603, -0.035788, 0.010698, -0.004465, -0.058478, -0.013117, -0.023624, 0.011871, -0.004339, 0.027301, 0.003064, -0.012039, 0.047093, 0.015855, 0.027688, 0.017771, -0.003352, 0.033179, 0.000231, 0.038840, -0.000941, -0.029078, -0.018074, -0.013819, -0.052430, -0.041437, -0.001584, -0.101784, -0.126572, -0.105398, -0.062486, -0.110890, -0.034817, -0.072174, -0.070184, -0.086579, -0.095538, -0.016086, -0.073106, 0.022680, 0.030136, -0.034711, 0.042294, -0.024462, -0.007732, -0.010001, -0.029914, 0.105710, -0.062253, 0.025925, 0.028671, 0.082554, 0.050123, 0.011704, 0.036387, -0.002781, -0.059749, -0.022656, -0.048870, -0.097403, -0.065583, -0.105630, -0.035394, -0.091211, -0.067942, -0.079521, -0.004720, -0.073126, -0.065647, -0.077736, -0.062947, 0.052569, -0.010623, -0.023496, 0.116864, 0.087822, 0.072025, 0.107864, 0.043225, 0.082578, 0.023523, 0.112249, 0.094634, 0.048537, 0.030204, -0.003286, -0.021414, -0.067480, -0.088778, -0.057552, -0.110461, -0.101111, -0.044220, 0.010932, -0.071010, -0.098826, -0.117203, 0.177072, 0.065480, -0.047967, -0.058725, -0.092145, -0.048118, -0.006412, -0.073282, -0.022384, -0.077757, -0.018067, 0.046179, 0.092686, 0.018952, -0.021834, 0.016013, 0.007172, -0.023307, -0.059492, -0.062279, -0.072671, -0.097141, -0.067400, 0.003577, 0.032039, -0.057443, -0.025687, 0.033826, -0.067118, -0.008128, -0.073393, -0.021288, -0.042849, -0.091272, -0.067832, -0.060201, -0.015126, -0.039074, 0.013975, 0.033618, -0.050139, 0.051787, -0.022876, -0.033318, 0.051332, -0.028261, 0.044439, -0.010150, 0.058761, -0.010250, 0.048742, -0.015802, -0.036671, -0.018881, -0.057448, -0.019896, 0.000032, 0.001454, -0.018285, 0.007435, -0.035767, 0.021904, -0.089522, -0.064122, -0.047726, 0.009188, 0.018998, 0.004601, 0.041970, -0.053638, 0.031638, -0.054551, 0.023834, 0.047916, 0.031870, -0.032140, 0.033792, 0.007620, -0.098638, 0.012858, -0.011906, 0.034145, -0.062770, -0.029910, -0.041355, -0.000853, 0.004437, 0.024431, 0.026710, -0.014212, 0.016551, 0.021728, -0.056398, -0.011935, 0.057397, 0.042042, 0.004067, 0.020813, 0.034835, -0.010635, -0.074812, -0.016490, -0.047856, 0.049636, 0.030545, -0.040623, -0.063203, 0.005231, 0.020747, 0.044647, 0.063809, 0.022704, -0.006255, -0.030262, 0.007959, -0.029321, -0.004100, -0.054914, -0.070700, -0.108301, -0.115359, -0.026336, -0.013476, -0.040511, -0.071915, -0.021760, -0.084917, -0.101425, -0.015578, -0.046117, -0.023804, -0.043049, -0.007021, -0.010086, -0.034219, 0.007507, -0.029319, -0.070259, 0.027854, 0.013012, 0.014239, 0.012399, -0.051860, -0.002031, -0.038212, -0.007381, 0.008906, -0.041056, -0.032500, -0.010275, 0.230630, 0.092506, 0.058436, 0.093398, 0.012925, 0.075688, 0.055957, 0.117341, 0.061484, 0.144534, 0.080857, 0.088973, 0.062022, 0.052984, 0.050987, 0.014556, 0.003775, 0.040861, -0.077772, -0.050543, -0.076813, -0.064417, -0.063314, 0.006013, -0.046929, -0.072517, -0.022083, -0.058165, -0.065103, -0.037797, -0.037256, -0.051039, -0.051592, -0.021266, -0.068484, -0.050575, 0.000653, -0.033225, 0.003811, 0.031927, -0.050537, -0.021922, -0.033296, -0.030944, 0.040471, 0.034277, 0.075749, 0.044346, 0.031745, -0.016313},
  {-0.013892, -0.002461, 0.010961, 0.030502, 0.005923, -0.037252, -0.050387, -0.074240, -0.070179, 0.022701, -0.094043, 0.001766, -0.042613, -0.021405, 0.011846, -0.010165, -0.012390, 0.044957, 0.025930, 0.078463, 0.004275, -0.042718, -0.010311, 0.099880, 0.083425, 0.103299, -0.009363, 0.031220, 0.008269, 0.008126, 0.084859, 0.058067, 0.065751, -0.005975, -0.051193, -0.042389, 0.026810, 0.056075, 0.085646, 0.070391, 0.010367, -0.026516, -0.038501, 0.064606, 0.004928, 0.062532, 0.028352, 0.021726, 0.078481, -0.013663, -0.088227, -0.007622, 0.006773, -0.016995, -0.042770, 0.081626, 0.059145, -0.046821, -0.086372, 0.090155, 0.086792, 0.083997, 0.054946, 0.047599, -0.025717, -0.039097, -0.045394, 0.057809, 0.092350, 0.011315, 0.036388, 0.032470, 0.009552, 0.028226, 0.044633, 0.001753, -0.006199, -0.015928, -0.066214, 0.015833, -0.023863, -0.106208, -0.012295, 0.011422, -0.027159, 0.014511, -0.044670, -0.120980, -0.094394, -0.043732, -0.032504, -0.048858, -0.006758, -0.060945, -0.022331, -0.047796, -0.030466, 0.054813, 0.032890, 0.017200, -0.102369, -0.049779, -0.017822, 0.049547, 0.020808, 0.003299, -0.072959, 0.001657, 0.051115, -0.017255, -0.060878, -0.040431, 0.010821, 0.028371, -0.011271, 0.031401, 0.027921, 0.043042, 0.073911, -0.059588, -0.027880, 0.041689, -0.017529, -0.017359, -0.055557, -0.018714, 0.055907, 0.090834, 0.058028, 0.067102, 0.016937, 0.050712, -0.023398, -0.017521, -0.014991, -0.019731, -0.028991, -0.026898, -0.037597, 0.090363, 0.071662, 0.028116, -0.002621, -0.038573, -0.032629, 0.023485, -0.001241, -0.032412, 0.075651, -0.038783, 0.028995, -0.113026, -0.103953, 0.097866, 0.028335, 0.056545, -0.072594, 0.041230, 0.067360, 0.161732, 0.000577, -0.003496, -0.040278, -0.032208, -0.017805, -0.030228, 0.115781, 0.061265, 0.042903, 0.030152, -0.061013, -0.066179, -0.073568, -0.036299, -0.007482, -0.010093, -0.106261, -0.140612, -0.001230, -0.030302, -0.066952, -0.012821, 0.107234, 0.033600, 0.070630, -0.041326, -0.052533, 0.039186, 0.101037, 0.107052, 0.046238, 0.009152, -0.099719, -0.065530, 0.000883, 0.011147, 0.097637, 0.071855, 0.054428, -0.018367, 0.009333, 0.046301, -0.001853, -0.022497, 0.007341, -0.034683, -0.038675, -0.007299, -0.031668, -0.087312, -0.080406, -0.080381, -0.042379, 0.005738, -0.072968, 0.039081, -0.013198, -0.057365, -0.086949, -0.044314, -0.080081, -0.040497, -0.055520, 0.071730, 0.018894, 0.077060, 0.118021, 0.006857, 0.001891, -0.038754, -0.029185, 0.011439, 0.013798, -0.030393, -0.030343, -0.013555, -0.077235, -0.105484, -0.052442, 0.021170, -0.045848, -0.045082, -0.018544, 0.003827, 0.010995, 0.055605, 0.031128, 0.064236, 0.038879, -0.016595, -0.075441, -0.137291, -0.079223, 0.002430, -0.049368, 0.067687, 0.039469, 0.004765, 0.069509, 0.077451, -0.018769, 0.024493, 0.046609, 0.104304, 0.026964, 0.096360, 0.049023, 0.069083, 0.058351, 0.060569, 0.093634, 0.075844, 0.025306, -0.013670, 0.026418, 0.087923, 0.016972, -0.016384, 0.066880, 0.008166, 0.039103, 0.052594, 0.028553, -0.000580, 0.029312, 0.043612, 0.066642, 0.017909, 0.090292, 0.122421, 0.070757, 0.026694, -0.017289, 0.011606, 0.061332, 0.066684, -0.001350, 0.041917, -0.015910, 0.071414},
  {-0.000160, -0.109617, -0.050485, -0.007901, 0.026490, -0.038811, -0.029506, -0.060636, -0.001973, 0.068150, 0.010465, 0.014859, -0.019418, -0.013964, 0.017653, -0.066964, -0.050586, 0.004908, 0.013135, 0.016759, 0.012714, 0.025031, 0.041109, 0.032374, -0.041971, 0.032757, 0.045405, 0.012556, -0.013228, -0.018079, -0.001826, -0.020189, -0.014411, -0.055025, 0.029703, 0.005805, 0.039402, 0.027266, 0.012013, 0.043364, 0.014060, 0.006540, 0.020743, -0.004901, -0.096645, -0.089536, -0.018564, -0.019148, -0.064151, -0.041667, 0.010711, 0.055866, 0.037477, -0.022611, -0.040608, -0.073260, 0.022517, -0.006556, -0.043133, -0.029395, 0.012302, -0.039094, -0.082448, -0.064645, 0.022597, -0.079054, 0.059608, -0.056950, -0.042320, -0.092879, -0.039056, -0.051691, -0.094548, -0.096879, -0.037457, -0.031800, -0.071578, -0.034747, -0.038804, -0.018345, -0.003372, 0.029170, 0.025986, 0.000596, -0.011507, 0.037057, 0.035058, -0.017276, -0.003887, -0.033010, -0.041710, 0.031819, 0.074935, 0.064283, 0.098672, 0.096609, 0.048267, 0.013136, 0.021551, 0.090480, -0.180190, -0.155713, -0.066734, -0.136038, -0.024002, -0.073066, -0.040692, -0.047730, 0.044838, 0.016274, -0.037446, -0.017834, 0.002985, -0.034049, -0.089986, -0.071329, -0.072835, -0.062952, -0.004845, -0.012326, 0.030419, 0.056403, 0.043001, 0.028064, 0.056716, 0.066042, -0.003059, -0.041117, 0.040039, 0.015269, 0.028204, 0.119343, 0.123326, 0.119507, 0.053701, 0.117409, 0.101951, 0.042505, 0.047030, 0.066497, 0.097196, 0.021350, 0.051995, 0.078213, 0.076425, 0.007014, -0.015367, -0.025438, 0.066129, 0.093471, -0.017001, -0.038330, 0.040986, -0.101006, -0.014249, 0.005438, -0.117558, -0.169644, -0.128410, 0.018306, -0.069539, -0.128272, -0.099976, 0.006349, -0.008361, -0.032302, -0.016258, -0.063649, -0.002452, 0.085855, 0.004723, -0.009321, 0.019298, -0.002497, 0.055489, 0.056337, 0.119665, 0.046825, 0.096026, 0.033143, 0.041691, 0.033539, 0.035429, 0.055613, 0.068293, 0.023453, -0.000075, -0.048179, 0.048369, 0.101260, 0.057558, 0.020247, 0.013006, 0.078405, 0.019500, 0.076741, 0.075944, 0.014675, 0.048046, 0.020242, -0.004238, 0.031668, -0.001684, 0.022287, 0.037020, 0.123106, 0.020647, 0.045336, 0.026350, 0.043037, 0.062352, 0.025081, 0.009210, -0.012231, -0.018816, -0.019418, -0.016165, 0.040337, 0.076159, 0.088522, 0.057108, 0.023285, 0.033469, -0.097324, -0.008676, -0.004846, -0.098082, 0.011994, 0.049918, -0.014648, 0.027934, -0.026468, 0.042015, 0.071664, 0.037564, -0.022925, 0.014723, -0.010964, 0.018006, 0.016380, -0.024426, -0.079844, 0.047916, 0.015139, -0.017276, -0.039886, -0.020986, 0.060916, -0.037706, -0.029362, 0.083423, 0.096473, -0.028222, -0.043721, -0.021417, 0.087031, -0.028335, -0.103682, -0.144120, -0.005505, -0.004342, -0.093848, -0.083451, -0.101157, -0.082951, -0.106767, -0.025404, -0.093880, -0.019204, -0.053849, -0.095859, -0.099060, -0.084879, -0.091166, -0.030977, -0.057790, -0.005230, -0.052745, -0.041220, -0.047053, -0.030108, -0.087776, -0.057560, -0.023024, 0.024568, -0.006785, -0.010610, 0.034319, -0.041038, -0.013241, -0.000256, -0.062552, 0.002382, -0.009559, -0.005842, 0.031427, -0.003345, -0.087153, -0.027596, -0.050168},
  {-0.008063, 0.068489, 0.060925, 0.009783, 0.086206, 0.004682, 0.012496, 0.059039, 0.045265, 0.031002, -0.006943, 0.086653, 0.036517, 0.069844, 0.027323, -0.018090, 0.031480, 0.020054, 0.066476, 0.040640, 0.079358, 0.058050, 0.059839, 0.046412, -0.015994, 0.006584, -0.003821, 0.000050, -0.008011, 0.077720, 0.034604, 0.066371, 0.043396, 0.058128, 0.009836, 0.001398, 0.024132, 0.045720, 0.026521, -0.040360, -0.043288, 0.006446, 0.009847, -0.046175, 0.062807, 0.012019, 0.048286, 0.047708, -0.030454, -0.011883, -0.036133, -0.047219, -0.041958, -0.106734, -0.035391, -0.018066, -0.091186, -0.182643, -0.040536, -0.093996, -0.028422, -0.020632, -0.031456, -0.064714, -0.018789, -0.010078, -0.029108, 0.015203, 0.006670, -0.029747, 0.037371, -0.039127, 0.023512, 0.050578, 0.052757, 0.016560, -0.001317, 0.027567, -0.067026, -0.061258, 0.017561, 0.011048, 0.012407, 0.000246, 0.056223, 0.031687, 0.031798, -0.043942, -0.015495, 0.054603, 0.038421, 0.022237, 0.009015, 0.007913, 0.025244, 0.050100, 0.028303, 0.056228, 0.101901, 0.038260, 0.108731, 0.068926, 0.091123, -0.008786, -0.031559, -0.039942, 0.104798, 0.070221, -0.010736, -0.022392, -0.004596, 0.026838, 0.004970, 0.064668, 0.085227, -0.029138, 0.038180, 0.096557, 0.061586, 0.026479, 0.034430, 0.033839, 0.014750, 0.064388, -0.004357, 0.068401, 0.007922, -0.009676, -0.024306, 0.024604, -0.036499, -0.009500, -0.013977, 0.040980, -0.022933, -0.009733, 0.014447, -0.050108, -0.050387, 0.044890, 0.035979, -0.058559, -0.103961, -0.014402, 0.009980, -0.066607, 0.001557, -0.091763, -0.056396, -0.059895, -0.048882, -0.073138, -0.086792, -0.046826, 0.029833, 0.082406, 0.004430, 0.028355, 0.037174, 0.022625, 0.089414, 0.148713, 0.084458, -0.008126, -0.028846, 0.049831, 0.073563, 0.064835, 0.050057, 0.042471, -0.013786, -0.007450, 0.044314, 0.069167, 0.083245, -0.025541, -0.064846, -0.029541, -0.039887, -0.014943, -0.002237, 0.053182, 0.061879, 0.078255, 0.059717, -0.014666, 0.028830, -0.040129, 0.070484, 0.038771, 0.067827, 0.030300, 0.032394, -0.078757, -0.075289, -0.032479, 0.021276, 0.005589, -0.068495, -0.038953, 0.042327, -0.049668, 0.010071, -0.075673, -0.097463, 0.031616, -0.041570, -0.050707, -0.025480, -0.086145, 0.013368, 0.051304, 0.064037, 0.040410, -0.039254, -0.045689, -0.046523, -0.067460, 0.027014, -0.023527, 0.043702, -0.004900, 0.035108, 0.061854, -0.019443, -0.035749, -0.103185, -0.088832, -0.019702, 0.033670, -0.047760, 0.010859, 0.013672, -0.012992, -0.018320, -0.079128, -0.088671, -0.061975, 0.004668, -0.083493, -0.047328, -0.022767, -0.012204, 0.050539, 0.009592, 0.033052, -0.044767, -0.019625, -0.013323, -0.035433, 0.066980, 0.082912, 0.023977, -0.015502, 0.078853, 0.013684, 0.021507, 0.023168, -0.031089, 0.030109, 0.046957, 0.056955, 0.047995, 0.041042, 0.005874, 0.045743, -0.023852, 0.081968, 0.078766, 0.090923, 0.020060, 0.116283, 0.088429, 0.075737, 0.050367, 0.126543, 0.087604, 0.077878, -0.001315, -0.028782, 0.025256, 0.072205, 0.040983, 0.064914, 0.012263, 0.009848, -0.016918, 0.007413, 0.031047, 0.105231, 0.054474, -0.008755, 0.073880, 0.080191, 0.113807, 0.114795, 0.170577, 0.135788, 0.153187, 0.096340},
  {-0.084324, 0.064349, 0.122923, 0.103440, 0.001943, -0.014089, -0.036179, -0.010307, 0.007252, 0.014442, -0.069843, -0.007936, -0.018850, -0.034258, 0.064447, 0.106414, 0.089161, 0.053257, 0.091183, 0.068144, -0.033886, -0.026301, 0.007367, 0.078807, 0.001916, 0.037979, 0.044422, 0.040640, 0.042299, 0.015766, 0.012678, 0.120203, 0.008986, -0.012746, -0.013049, 0.033642, 0.014673, -0.000588, -0.064384, -0.007965, -0.056215, -0.021756, -0.095581, -0.063363, 0.011598, -0.066598, 0.008096, -0.071731, -0.005685, -0.027717, 0.007910, -0.037063, 0.007101, 0.041687, 0.098026, 0.090584, 0.104261, 0.063619, 0.054366, 0.026873, -0.044604, 0.008560, -0.076620, 0.009155, -0.108166, -0.028731, -0.112512, -0.019458, 0.041084, -0.055662, -0.045820, -0.070114, 0.001920, 0.051705, 0.015684, -0.037542, -0.027068, -0.032248, 0.022366, 0.001331, -0.047454, -0.054241, -0.012636, -0.006011, 0.021006, -0.051053, -0.008575, -0.088692, 0.017286, -0.071981, -0.005167, 0.006854, -0.047132, -0.030827, -0.016216, -0.025510, -0.019669, -0.009815, -0.071828, 0.009442, 0.250305, -0.075049, -0.148153, -0.060736, -0.129392, -0.099591, -0.077499, -0.055163, -0.132201, -0.049766, -0.052648, -0.037037, -0.092429, -0.063754, -0.073179, -0.118388, -0.013739, 0.032447, -0.024152, -0.084530, -0.024414, -0.078567, -0.068278, -0.071713, 0.037493, 0.053655, 0.023506, 0.043228, 0.048335, 0.051054, 0.055996, 0.065032, -0.054898, -0.018106, 0.004196, -0.013291, -0.046505, 0.018806, -0.025745, 0.018712, 0.014102, -0.066078, -0.025271, 0.005252, 0.053045, -0.028140, -0.026364, -0.006284, 0.041876, 0.037852, -0.038243, -0.003192, -0.039567, 0.103576, 0.003438, 0.056119, 0.045678, -0.047585, 0.028384, -0.007033, 0.043968, 0.014811, 0.005870, -0.054811, 0.012742, -0.026909, 0.074597, 0.092892, -0.019230, 0.023815, 0.024678, -0.040638, 0.022997, -0.020229, -0.036835, -0.009281, 0.012774, 0.016179, 0.000866, -0.029161, -0.069373, -0.056554, 0.049663, -0.028686, 0.007582, -0.028561, -0.086944, 0.087451, 0.131669, 0.053701, 0.090095, 0.050429, -0.050157, -0.045782, -0.006795, -0.043114, -0.000856, 0.013999, -0.042945, -0.074082, -0.051825, -0.091013, -0.005066, -0.003426, 0.036083, -0.081312, 0.024968, 0.050984, 0.023745, 0.069221, 0.110386, 0.110203, 0.052066, 0.091127, 0.018734, 0.049415, 0.027499, 0.071068, -0.004257, -0.031899, 0.028117, -0.019752, -0.035015, 0.034605, 0.015903, 0.020222, 0.062865, -0.018123, 0.005006, 0.044991, 0.018815, -0.018110, 0.030718, 0.038838, -0.025681, 0.009609, 0.009195, 0.059856, 0.004488, -0.004301, -0.008829, 0.033120, 0.024959, 0.032891, 0.009473, -0.043190, -0.022185, -0.016424, -0.018748, 0.005631, -0.015176, -0.040951, -0.052044, 0.016772, 0.041175, -0.112976, -0.090368, -0.056612, -0.025802, -0.027340, -0.081243, -0.084774, -0.065376, -0.064164, 0.064767, -0.057305, -0.028541, -0.031726, -0.033122, -0.005838, -0.035376, -0.045286, -0.075201, -0.053706, -0.084891, -0.051677, 0.061863, 0.000234, -0.045501, 0.051530, 0.038600, 0.029921, 0.091867, 0.020927, -0.028545, 0.018077, -0.006019, -0.012992, 0.037629, 0.074102, 0.054551, 0.068869, 0.062709, -0.010471, 0.033770, 0.128180, 0.150907, 0.076063, 0.098306, 0.173753},
  {-0.055050, -0.034440, -0.025484, 0.016122, -0.057066, -0.092098, -0.086816, 0.025671, -0.037097, 0.032329, 0.082796, -0.003751, 0.019469, -0.053033, -0.050129, 0.052759, 0.023649, 0.067308, 0.055843, 0.048661, 0.050251, 0.049675, 0.047411, -0.008144, 0.049943, 0.011326, 0.083406, 0.000983, 0.031458, 0.004616, 0.051247, 0.020209, -0.025935, 0.048024, 0.007904, 0.003409, -0.018883, -0.045536, 0.010434, 0.024427, -0.022381, -0.079134, -0.059695, 0.004229, 0.021874, -0.047718, 0.003124, -0.050756, -0.034840, 0.001110, -0.136372, 0.011069, -0.002368, -0.049404, -0.062612, -0.023139, -0.044416, -0.030536, 0.048728, 0.065465, 0.035621, -0.039345, 0.078679, 0.060431, -0.001007, 0.074998, 0.152919, 0.074759, -0.032220, -0.011265, 0.036588, -0.058508, 0.035959, 0.056499, 0.023446, 0.022517, -0.030979, -0.014064, -0.045493, -0.013553, -0.047075, -0.003185, -0.044219, -0.005313, 0.043408, 0.059038, -0.028868, -0.010231, -0.002700, -0.070413, -0.022110, -0.013952, -0.058735, -0.063427, 0.000677, -0.014414, -0.001544, 0.022030, -0.026004, 0.025790, -0.135560, 0.016567, -0.054049, 0.012622, 0.009147, -0.050553, -0.049758, -0.056989, 0.008402, -0.047919, -0.038902, -0.028221, -0.075272, -0.058055, 0.044383, 0.042080, 0.005959, -0.013678, 0.017997, 0.001511, -0.007895, -0.023236, -0.031376, -0.032288, -0.014916, 0.029118, 0.008837, -0.075070, -0.059937, 0.035969, 0.030875, -0.039093, -0.018483, 0.015217, -0.013632, 0.014998, -0.000914, 0.102270, 0.063802, -0.027211, 0.000182, -0.065165, -0.034914, 0.060833, 0.042388, -0.018201, 0.053489, 0.019104, -0.000131, 0.002418, -0.052971, 0.015078, 0.099591, 0.018043, -0.094310, -0.056691, 0.075727, 0.108016, 0.018674, -0.068385, -0.035567, 0.001603, 0.061529, 0.051236, -0.011324, -0.008767, -0.049709, -0.041769, -0.043112, 0.078545, 0.071767, 0.021054, 0.046217, 0.019008, 0.040531, -0.047321, -0.035265, 0.026188, 0.098529, 0.118523, 0.110856, 0.099752, -0.007323, -0.006465, 0.040287, -0.012249, -0.017314, 0.022920, 0.007893, -0.062001, -0.039628, -0.091799, 0.038126, -0.028358, 0.029701, 0.004717, -0.003759, 0.084242, 0.044357, -0.079590, 0.144831, 0.111209, 0.068312, 0.033766, -0.025718, 0.017165, 0.085435, 0.070541, -0.011651, -0.084192, -0.035703, -0.038058, -0.020163, -0.045553, 0.025629, -0.049687, -0.033416, -0.033645, -0.053293, -0.052850, -0.081178, -0.041309, -0.065505, -0.085130, 0.011956, -0.014046, -0.006661, 0.010596, -0.043086, 0.005396, 0.023402, -0.086351, -0.006887, -0.061396, 0.051203, 0.062683, 0.097636, -0.033806, -0.055398, -0.055407, -0.036575, -0.081742, -0.011142, -0.031388, -0.094869, -0.089948, -0.064911, -0.059275, -0.111087, 0.000542, 0.131156, 0.119990, 0.084079, 0.062828, 0.082875, 0.055050, 0.046081, 0.069776, 0.112692, 0.123292, 0.006425, -0.041551, -0.011020, -0.048564, -0.028635, -0.006698, -0.028573, -0.054796, -0.026476, -0.047450, 0.018581, 0.019337, -0.015170, -0.040007, -0.045864, -0.010803, -0.021140, 0.001366, -0.019841, -0.054675, -0.013720, -0.044739, -0.095648, -0.097028, -0.092058, -0.079493, 0.018534, -0.049987, -0.035961, -0.048236, 0.008684, 0.016449, 0.027843, 0.003991, 0.001557, -0.036367, -0.007787, -0.002816, -0.008158, 0.031302},
  {-0.130972, -0.053428, -0.020170, -0.087217, -0.076793, -0.028826, -0.055240, 0.021418, 0.050292, -0.016691, -0.047957, 0.035506, 0.053170, 0.068498, -0.014140, -0.008966, -0.013733, 0.003743, -0.066382, -0.056435, -0.013588, -0.080070, -0.116412, -0.105453, -0.082688, -0.053689, -0.100545, -0.063577, 0.017411, -0.087228, -0.131584, -0.101602, -0.105937, -0.072320, 0.021132, 0.000304, 0.036176, 0.048322, -0.039472, 0.018566, -0.033490, -0.078304, -0.109797, -0.033440, -0.078613, 0.011201, 0.010577, -0.053699, -0.077998, -0.015451, -0.047950, -0.012011, -0.089284, -0.047570, 0.009034, 0.018458, -0.037532, -0.080913, -0.041975, 0.065791, -0.017531, -0.049903, -0.016955, -0.069087, -0.056161, -0.086583, -0.046883, -0.049064, -0.039786, -0.042399, 0.019666, 0.018126, -0.013735, 0.039403, -0.020191, -0.018397, 0.069217, -0.049353, 0.037914, 0.031394, 0.020687, 0.035247, -0.030693, 0.070260, 0.030125, 0.061441, 0.025964, 0.065076, 0.015147, 0.047962, 0.064061, 0.080067, 0.053046, 0.073191, -0.004912, -0.028785, -0.008245, -0.013418, 0.033152, -0.003902, -0.121504, -0.181121, -0.115403, -0.091768, -0.057233, 0.010057, -0.004311, 0.063397, 0.005845, -0.121251, -0.056646, -0.062157, 0.054504, 0.059360, -0.046978, -0.064105, -0.036422, -0.039571, 0.017608, -0.014030, -0.008723, -0.050900, -0.047169, -0.059334, -0.034846, -0.066751, -0.024966, -0.006396, -0.000276, -0.064092, 0.054789, -0.006518, 0.003940, 0.026110, -0.030742, -0.063867, 0.012952, 0.026044, -0.002835, 0.025199, 0.014331, 0.031626, -0.056796, -0.004021, -0.040290, 0.011522, 0.004521, 0.079746, -0.002706, 0.034366, -0.021627, -0.110452, -0.077254, 0.162183, 0.099453, -0.080974, -0.161955, -0.054427, 0.130487, 0.154178, 0.093612, 0.022802, 0.021622, -0.012276, -0.018014, 0.073309, 0.055428, 0.045181, 0.114628, -0.002735, -0.040949, -0.005530, 0.044780, 0.013053, 0.076836, -0.025215, 0.036227, 0.012322, 0.104078, 0.092529, -0.006928, 0.003417, 0.028554, 0.011088, 0.046898, -0.038028, -0.019973, -0.037202, -0.053155, 0.030317, -0.024319, -0.040150, -0.062190, -0.072050, -0.060769, -0.056050, -0.013633, -0.027684, -0.097861, -0.024087, -0.019291, 0.069087, -0.037898, 0.031851, 0.026718, 0.015003, 0.022334, 0.006981, -0.001956, -0.090796, 0.042171, -0.049908, -0.008709, -0.034274, -0.090787, -0.050681, 0.016761, -0.059490, 0.006978, 0.040354, -0.025012, -0.029468, 0.002329, -0.025432, -0.000159, 0.052764, -0.001834, 0.022868, -0.044832, 0.016235, -0.030687, 0.029285, 0.056480, 0.015362, 0.063429, 0.088677, 0.053460, 0.102207, 0.038968, 0.066236, -0.004486, 0.047490, -0.019768, -0.001719, 0.045426, 0.055714, 0.080664, -0.019441, 0.037646, -0.058579, 0.106845, -0.045380, 0.054144, 0.030917, -0.049875, -0.075248, -0.120882, -0.131412, -0.010672, 0.003295, -0.042650, -0.022381, -0.023650, 0.010903, -0.032313, -0.026855, -0.005647, -0.015335, -0.066887, -0.080779, -0.052400, -0.003582, -0.015712, -0.008223, -0.010777, 0.016622, -0.001108, 0.078504, 0.074043, -0.028845, 0.000802, -0.026718, -0.016058, 0.011141, -0.028078, 0.027752, 0.080326, 0.044115, 0.047427, 0.015970, 0.041847, 0.113220, 0.008881, 0.088934, 0.022833, 0.079445, 0.104507, 0.049190, -0.018870, 0.087022},
  {-0.024536, 0.046205, -0.036759, 0.023107, 0.056809, 0.036035, -0.005933, 0.005611, 0.094544, 0.093632, 0.121360, 0.040300, -0.009280, -0.012185, -0.025729, -0.021690, -0.042046, -0.114149, -0.092644, -0.068076, -0.034212, -0.040002, -0.024820, -0.009475, -0.015845, 0.010518, 0.012921, -0.103466, -0.020379, -0.025277, -0.077368, 0.015614, -0.064135, -0.029447, 0.042488, 0.049735, -0.027862, 0.068788, 0.005877, 0.056839, 0.046885, 0.060666, 0.098284, 0.084255, 0.066598, 0.025662, 0.044282, 0.030614, 0.059726, -0.004739, 0.106690, 0.022774, -0.033937, 0.026058, -0.061347, -0.053519, -0.075725, -0.048895, 0.043232, 0.004353, -0.021843, -0.034151, 0.056465, 0.051816, 0.091074, 0.104122, 0.098458, 0.065816, 0.045010, 0.061352, 0.042237, 0.040801, 0.060124, 0.031880, -0.004046, -0.037655, -0.035901, 0.040028, 0.007669, 0.008020, 0.011899, 0.056904, -0.056842, -0.068668, -0.008982, -0.000264, -0.026575, 0.025995, 0.054454, 0.031291, 0.072416, 0.094551, -0.033386, 0.033824, 0.089745, 0.052985, 0.045869, 0.001804, -0.053044, -0.016645, 0.089351, 0.071531, 0.094334, 0.023241, 0.091241, 0.016008, 0.028246, -0.029811, 0.023333, -0.054539, -0.047832, -0.012251, -0.016464, -0.057309, -0.089345, 0.020203, -0.005805, 0.057398, 0.036676, 0.002063, -0.066763, 0.026026, 0.011073, -0.003120, 0.002254, -0.043032, -0.011799, -0.076692, -0.063949, -0.091375, -0.018679, -0.106639, -0.101016, -0.045514, -0.128411, -0.120960, -0.153706, -0.090244, -0.085916, -0.067449, -0.106727, -0.021412, -0.055464, -0.104671, -0.090531, -0.015567, -0.019977, -0.016721, -0.087111, -0.036312, 0.011406, 0.096231, 0.024324, -0.034026, 0.058347, 0.030705, 0.024894, 0.058644, -0.028935, 0.029749, 0.049499, -0.013678, -0.002745, 0.008604, -0.050650, 0.039149, 0.016122, -0.039213, 0.003034, 0.002567, -0.055667, -0.031114, -0.027959, -0.037961, 0.054153, -0.007105, -0.058962, 0.034994, -0.025524, -0.013305, 0.016413, -0.117982, -0.065734, 0.007491, 0.023497, -0.026568, -0.038227, -0.005909, -0.034550, -0.060964, 0.060455, -0.024590, -0.052304, -0.090407, -0.013712, -0.124493, -0.058739, -0.089597, -0.018085, -0.021331, -0.121830, -0.071909, -0.045667, 0.029127, 0.026216, -0.027683, -0.029247, -0.089942, -0.052615, -0.010645, 0.004131, -0.013787, 0.012005, -0.030352, 0.027452, -0.009643, 0.014927, -0.070914, 0.023202, 0.009086, -0.006416, 0.029344, -0.057934, 0.029191, -0.035460, -0.064939, -0.008197, 0.005521, -0.075121, 0.032298, -0.068984, -0.017533, 0.025371, 0.046979, -0.020230, 0.018889, 0.001532, 0.097671, 0.061845, 0.124748, -0.014931, 0.039992, 0.077143, -0.016272, 0.023862, 0.102484, 0.077184, 0.022970, -0.054269, -0.046473, 0.129119, 0.076900, 0.066280, 0.072118, 0.078421, 0.082012, -0.012838, 0.052133, 0.046796, 0.017398, -0.028251, -0.008321, 0.010187, 0.026632, -0.026561, -0.014587, 0.014878, 0.124519, 0.042487, 0.073792, 0.065515, 0.073633, 0.017846, 0.146092, 0.091044, 0.073076, -0.016778, 0.051426, -0.017275, 0.064629, 0.070800, 0.005646, 0.034554, 0.017907, 0.030443, -0.032085, 0.019984, 0.011824, -0.021309, -0.104408, -0.036979, -0.059148, -0.042801, -0.045568, -0.001747, -0.033802, -0.057226, -0.032275, -0.075892, -0.070532},
  {0.023020, -0.105698, -0.091332, -0.118836, -0.131684, -0.127558, -0.044299, -0.048437, -0.094333, -0.055087, 0.007792, -0.046056, -0.065847, -0.031006, 0.014488, 0.049634, 0.079327, 0.015701, -0.033948, -0.036510, -0.030457, -0.042338, -0.046660, -0.021696, -0.004770, -0.093331, -0.128700, -0.065965, -0.096240, -0.096607, -0.036503, -0.129840, -0.033924, -0.060217, -0.059487, 0.012323, 0.013515, 0.040694, -0.041420, 0.026300, -0.018678, -0.021700, -0.047153, 0.052198, -0.009110, -0.052439, 0.011589, -0.018408, -0.030807, -0.032510, 0.060908, 0.064851, 0.045707, 0.094983, 0.142815, 0.198884, 0.147237, 0.121045, 0.086376, 0.080938, 0.089739, 0.056271, 0.105342, 0.025392, 0.042445, 0.016050, -0.011356, 0.000877, -0.001791, -0.003907, -0.021433, 0.007511, 0.011774, 0.017187, 0.027871, 0.023696, 0.035583, 0.026303, 0.045155, 0.075961, 0.034810, 0.059292, 0.024800, 0.037637, 0.011796, -0.084971, 0.013876, -0.002693, -0.040089, -0.124816, -0.016870, -0.066339, -0.083969, -0.125888, -0.124896, -0.120368, -0.016861, -0.068151, -0.039435, -0.012672, -0.058425, 0.052383, 0.046957, 0.017346, 0.077118, 0.070120, 0.108360, 0.169412, 0.050687, 0.082473, 0.076259, 0.085539, 0.044994, 0.074255, 0.071128, -0.017251, -0.009857, -0.075071, -0.030400, -0.115287, -0.109293, -0.007229, 0.004265, -0.018696, 0.039661, -0.023129, -0.053928, 0.028978, 0.001383, 0.061155, 0.010967, -0.003206, 0.053742, 0.042583, -0.013951, 0.040580, 0.012565, -0.014744, 0.006965, -0.037901, 0.052153, 0.005820, 0.058871, 0.070246, -0.036350, -0.010071, -0.035122, -0.044004, -0.070309, -0.073358, 0.023109, 0.021138, 0.006720, -0.010071, -0.003370, -0.014661, -0.009602, -0.016750, 0.016896, -0.001877, 0.009602, -0.007103, 0.021982, 0.007055, 0.000978, 0.024589, 0.044847, 0.008813, -0.024860, -0.015697, -0.034887, -0.045881, -0.076586, 0.017835, -0.014506, -0.019867, -0.017247, -0.032559, -0.031617, 0.023427, 0.019512, -0.059931, -0.024623, 0.022044, -0.058207, -0.007081, 0.009338, 0.017763, -0.002766, -0.007812, -0.039326, -0.042298, 0.003841, -0.049766, -0.016644, -0.032513, 0.006249, 0.035635, -0.040340, 0.011710, 0.079661, 0.052374, 0.052669, 0.100686, 0.094765, 0.047187, 0.016767, -0.017687, 0.049543, -0.076113, -0.004164, -0.044610, -0.062120, -0.038448, -0.103513, -0.099081, 0.009027, -0.027535, -0.081483, 0.041265, 0.064656, 0.040825, 0.062121, 0.119824, 0.071096, 0.039462, 0.114348, 0.080399, 0.034236, -0.042371, -0.003279, -0.051183, -0.033765, 0.044309, -0.016389, 0.027512, -0.056119, -0.028090, -0.013147, -0.053245, 0.008287, -0.070953, -0.047297, -0.094934, -0.074420, -0.078197, 0.002261, -0.041865, 0.022327, 0.041243, -0.193464, -0.177724, -0.105978, -0.106925, -0.069912, -0.071921, -0.007172, 0.016626, -0.038907, -0.005668, 0.014070, 0.026630, -0.002869, 0.009019, 0.035491, -0.012131, 0.006478, -0.068968, -0.001820, -0.042140, -0.035247, -0.045329, -0.073837, -0.026181, 0.012213, -0.038530, -0.023848, 0.006382, 0.030055, 0.004089, 0.029190, 0.015478, 0.003130, 0.044023, 0.008222, 0.049899, 0.060169, -0.001107, 0.013556, 0.010461, 0.051803, 0.071105, 0.034802, -0.024232, 0.027349, -0.038041, -0.077286, -0.078404, -0.011931, -0.079875},
  {-0.135732, -0.137460, -0.083976, -0.109888, -0.117044, -0.150802, -0.144531, -0.098502, -0.000312, 0.057495, 0.044903, 0.104511, 0.086914, 0.105730, 0.112585, 0.087905, 0.166427, 0.133161, 0.019072, 0.078546, 0.048422, -0.015054, 0.071840, -0.024530, -0.001846, 0.018680, -0.017566, -0.031999, -0.034164, -0.036579, -0.034087, 0.010532, 0.034408, 0.059080, -0.035016, -0.020398, -0.047036, 0.010066, 0.015019, -0.011589, 0.019428, 0.026196, -0.030038, 0.003007, 0.032188, 0.014562, -0.027445, -0.055364, -0.051145, -0.032572, -0.155578, -0.056644, 0.052363, -0.033587, 0.008161, -0.062303, 0.004228, -0.067556, -0.038262, 0.051188, 0.091189, 0.066982, 0.097401, 0.069879, 0.056116, 0.121168, 0.016682, 0.039352, 0.018746, 0.011101, 0.000190, 0.023717, 0.058373, -0.020370, -0.049068, 0.027280, 0.017260, 0.041993, -0.014673, 0.029208, 0.033902, 0.019673, -0.046407, -0.066985, 0.018222, -0.039355, 0.018920, -0.067645, -0.055123, -0.048856, 0.001762, 0.013683, -0.019314, -0.004684, 0.006232, -0.010228, 0.032130, 0.001120, 0.043547, 0.001815, -0.182437, -0.025252, -0.017718, -0.074866, -0.075011, -0.036165, -0.063557, -0.059792, -0.014685, -0.042998, 0.075903, -0.022532, -0.004356, 0.101240, 0.048793, 0.069548, 0.053224, 0.131314, 0.072399, 0.016134, -0.037092, 0.041591, -0.002390, 0.066395, 0.038921, -0.052677, -0.004285, -0.010313, 0.002916, -0.041694, -0.013565, 0.071440, 0.016771, 0.023097, -0.045158, 0.050744, 0.007310, -0.031206, 0.032257, -0.054829, 0.044801, -0.013178, -0.027415, 0.009075, 0.019383, -0.029342, 0.028558, 0.029800, 0.040952, 0.000876, 0.019376, 0.023216, 0.049470, -0.101152, -0.057723, -0.062242, -0.061466, -0.066956, -0.075812, -0.110478, 0.035740, 0.052916, -0.039862, -0.092814, 0.024834, -0.017834, -0.040275, 0.010458, -0.063857, -0.026085, -0.045044, -0.077804, -0.007897, -0.100230, -0.002472, 0.016703, -0.073180, 0.026042, -0.036678, -0.022601, -0.005177, -0.002412, 0.080129, 0.143434, 0.116559, 0.096274, 0.005087, 0.022635, -0.005890, 0.022464, 0.073648, -0.001055, 0.009725, -0.021644, -0.079015, 0.027651, -0.045329, -0.040030, -0.039988, -0.035202, 0.124920, 0.070227, -0.052920, 0.068251, 0.059719, 0.037293, 0.063039, 0.002399, 0.035303, 0.048389, 0.061191, 0.096248, 0.061013, 0.101799, 0.005656, 0.047121, -0.025033, 0.007521, -0.054911, -0.040168, -0.039766, 0.043882, 0.000957, -0.067796, -0.020002, -0.045373, -0.076000, -0.052171, -0.005715, -0.044059, -0.055856, -0.115954, -0.072258, -0.084786, -0.071552, -0.036908, -0.044460, -0.141270, -0.106158, -0.035380, -0.118688, -0.083710, -0.082880, -0.023672, 0.015809, 0.012995, -0.007865, -0.046946, -0.015444, -0.072369, 0.219616, 0.132792, 0.118632, 0.042531, -0.016893, 0.094748, 0.025466, 0.079053, -0.001756, -0.011728, 0.047732, -0.014654, 0.035894, 0.031140, 0.102041, 0.024002, 0.071069, 0.112027, -0.011931, -0.033731, 0.015675, -0.044886, 0.026506, -0.024767, 0.053810, 0.044637, 0.041278, -0.032707, -0.025304, 0.000561, -0.076066, -0.030841, -0.002328, -0.000284, -0.074404, -0.113949, -0.027724, -0.037709, -0.110105, -0.014449, -0.089276, -0.014683, 0.001169, -0.091881, -0.008658, -0.066451, -0.004315, -0.032304, -0.024263, -0.010451},
  {-0.005529, 0.153660, 0.144453, 0.094068, 0.064614, 0.109357, 0.018259, 0.105403, 0.058112, -0.067075, -0.044250, -0.029186, 0.034957, -0.029396, -0.010760, -0.014233, -0.036545, 0.046085, -0.006056, -0.023465, 0.053842, 0.097446, 0.001897, 0.110261, -0.005046, 0.084038, 0.013964, 0.075621, 0.017575, 0.052054, 0.085588, 0.072420, 0.034022, 0.040292, 0.004858, 0.050099, -0.008146, 0.003287, -0.045715, 0.026092, 0.021694, -0.017729, -0.004626, 0.066067, 0.062236, 0.051045, -0.029104, -0.038324, 0.004074, 0.010027, 0.105562, 0.049495, -0.022582, -0.010442, -0.001816, -0.119318, -0.040519, -0.100692, 0.016758, -0.030380, -0.090142, -0.102258, -0.109800, -0.110734, -0.044823, -0.032894, -0.093989, -0.094937, -0.036998, -0.055872, 0.020610, -0.011359, -0.021130, -0.003532, 0.023779, 0.079469, 0.063991, -0.044871, -0.008056, 0.022523, 0.046617, 0.050967, 0.032017, -0.010501, 0.002769, 0.010873, 0.049530, 0.076814, -0.020165, 0.017703, -0.058566, -0.043427, 0.033745, 0.004896, 0.047417, -0.001435, 0.020264, -0.049357, -0.092460, -0.000373, 0.280863, 0.004852, -0.001643, 0.072424, 0.046011, 0.001445, -0.080223, -0.035676, -0.035019, 0.044677, 0.033420, 0.005376, 0.052340, -0.050903, 0.041838, 0.053068, 0.024430, -0.042427, 0.011227, 0.032330, -0.092211, 0.006723, 0.010032, 0.084318, 0.092599, 0.044021, 0.078602, 0.024075, 0.020467, 0.055918, 0.043028, -0.024828, -0.012844, -0.056411, -0.088712, -0.030045, -0.023270, -0.028525, -0.046639, 0.027802, -0.061588, 0.048828, -0.004139, -0.011914, -0.057792, -0.035583, -0.035518, 0.011105, -0.082500, -0.064411, -0.056052, 0.129021, 0.102559, 0.006114, 0.010959, 0.019464, 0.045698, -0.004684, 0.033246, -0.047510, -0.061137, -0.003316, 0.026471, -0.026150, 0.028402, 0.043324, -0.002830, 0.047449, 0.039087, 0.037955, 0.011382, -0.017387, 0.039353, 0.000177, 0.014779, -0.076432, -0.022931, -0.050792, 0.032397, 0.037687, -0.024238, 0.021889, -0.050949, -0.074154, -0.007900, 0.017549, -0.046940, 0.031064, -0.044682, -0.057038, 0.010305, -0.045740, 0.000889, -0.095471, -0.074865, -0.084416, -0.050461, -0.012031, -0.033168, 0.022650, -0.037536, -0.093700, -0.021072, -0.042184, 0.024622, -0.046030, -0.054405, -0.013636, 0.041960, 0.005693, 0.033571, -0.028526, 0.024584, -0.014084, 0.031670, -0.017448, 0.041077, -0.027648, 0.024006, -0.030275, 0.010177, 0.005240, 0.033806, 0.022590, -0.030463, 0.052324, -0.055895, 0.004256, 0.045235, -0.027372, -0.001498, 0.031191, -0.042401, 0.024278, -0.074208, -0.055207, -0.039610, 0.013397, 0.009988, -0.052845, 0.012369, -0.028969, 0.036030, 0.000973, -0.084161, -0.034425, -0.010322, -0.096875, -0.086804, -0.011242, 0.067227, 0.019315, 0.057047, 0.052415, 0.058723, -0.045855, 0.012466, 0.096490, 0.041225, 0.084045, -0.028855, 0.063552, 0.097099, 0.004759, 0.014957, 0.087783, 0.059517, 0.051253, -0.024337, -0.001117, 0.011044, -0.048343, 0.037609, -0.020589, -0.001678, -0.046353, -0.048843, 0.040769, -0.031564, 0.067650, 0.048117, 0.045667, -0.000704, 0.038053, 0.023947, -0.018697, 0.066837, 0.075119, 0.014341, 0.118869, 0.084202, -0.000404, 0.018392, 0.107146, 0.041630, 0.066492, 0.161814, 0.142588, 0.126586, 0.131698},
  {-0.073135, 0.004400, 0.041994, 0.063460, 0.046717, 0.004429, -0.002364, 0.039986, -0.067981, 0.013273, -0.049748, -0.010341, 0.006351, -0.044200, -0.002776, -0.054390, -0.014290, 0.001873, -0.048999, -0.011562, -0.104528, -0.104908, -0.157158, -0.103154, -0.122950, -0.134983, -0.132934, -0.114701, -0.170913, -0.098286, -0.088562, -0.059867, -0.041681, -0.062779, 0.016666, -0.082259, -0.067433, -0.063995, -0.110954, -0.076252, -0.016153, -0.060611, -0.041294, -0.077486, 0.038018, 0.037445, 0.036785, -0.059905, -0.065277, -0.016549, 0.077173, 0.055378, 0.028332, 0.029726, -0.018376, -0.010748, 0.006489, 0.046260, -0.031798, 0.020166, -0.062882, -0.099660, -0.055115, -0.147612, -0.090259, -0.051761, -0.039010, -0.063985, -0.054841, -0.022359, 0.018278, 0.099929, 0.023340, 0.053308, 0.072290, 0.039740, 0.088488, 0.035491, 0.095680, -0.010609, 0.032339, 0.046688, -0.026819, -0.046920, -0.005512, -0.046496, 0.026229, 0.043798, -0.051409, -0.035326, -0.008774, -0.040842, 0.031935, 0.012070, -0.024861, -0.057560, -0.017474, -0.036661, 0.044020, -0.025296, 0.067556, 0.099876, 0.037347, 0.049985, 0.027819, -0.036362, 0.003798, -0.043966, -0.063370, -0.057502, -0.100247, -0.113057, -0.075512, 0.014332, 0.011680, -0.053002, 0.014092, 0.022019, 0.006528, 0.068369, -0.009856, -0.081166, -0.075428, 0.002277, -0.112476, -0.089680, -0.118446, -0.107595, -0.081351, -0.052879, -0.036599, -0.046213, -0.040352, -0.049258, 0.023751, 0.050049, 0.024066, 0.012692, 0.057891, -0.015177, -0.041953, 0.009319, -0.015432, 0.006284, 0.001507, 0.029828, 0.050729, 0.083206, 0.089488, 0.034803, -0.027534, 0.032087, 0.000235, -0.012889, -0.001403, -0.001672, 0.009403, 0.013836, -0.045290, 0.003886, -0.012307, -0.014749, -0.022708, -0.055865, 0.036874, 0.004625, -0.002797, -0.052145, -0.008388, -0.055032, -0.007777, -0.023244, -0.028271, -0.034840, -0.063052, -0.006161, -0.099021, -0.023370, -0.016038, -0.100044, -0.051973, -0.062179, -0.058009, -0.069840, 0.013697, 0.020253, -0.029044, 0.008717, 0.009958, 0.011026, 0.015709, 0.009985, -0.004430, 0.028168, -0.007109, 0.009603, -0.023087, 0.063537, -0.034243, -0.018470, -0.066506, -0.054066, -0.103077, -0.061816, -0.072618, -0.081183, -0.096063, -0.011628, -0.047048, -0.052262, 0.045581, 0.099034, 0.026392, 0.056533, 0.004537, 0.081411, -0.008230, 0.028498, -0.028082, -0.041881, 0.018779, 0.014147, 0.035424, 0.055709, -0.019082, -0.018230, -0.036226, -0.019946, -0.008975, 0.096808, 0.005936, 0.055959, 0.045606, 0.079356, 0.102025, 0.081070, 0.051977, 0.096567, 0.088540, 0.104372, 0.101398, 0.005459, 0.034209, 0.026060, 0.054735, 0.055362, 0.054663, -0.016298, 0.021825, -0.049792, 0.025414, 0.132651, 0.002669, 0.036473, 0.036198, 0.012664, -0.007004, 0.074342, 0.064826, 0.051621, 0.126649, 0.040597, 0.024827, -0.007200, -0.023183, 0.046348, -0.031899, -0.040211, 0.040585, -0.058387, 0.005028, -0.003764, -0.041660, 0.016715, -0.013732, -0.054116, -0.032381, 0.069936, 0.069893, 0.005528, 0.013240, -0.008152, 0.072808, -0.035800, 0.013316, 0.045980, 0.005510, 0.043760, -0.023034, -0.017871, 0.016510, 0.074168, 0.019695, 0.009390, -0.052909, -0.065908, -0.060020, -0.101249, -0.070700, -0.130015},
  {0.119800, -0.025142, -0.049367, 0.020946, 0.039386, 0.075029, 0.004033, -0.034189, 0.094865, 0.118082, 0.084215, 0.119867, 0.081808, 0.031703, 0.016428, 0.061331, -0.036818, -0.004014, 0.002144, -0.012371, 0.023273, 0.000654, -0.101642, -0.026668, -0.061922, -0.049630, -0.064172, -0.015175, -0.037080, 0.003816, -0.092590, 0.012075, -0.074920, -0.085981, 0.012257, 0.002522, 0.034415, 0.058271, 0.018058, -0.052932, -0.026467, 0.004946, -0.046733, -0.001058, 0.007176, 0.013795, -0.039938, -0.011213, -0.016450, -0.076227, -0.048052, -0.000378, -0.075803, -0.033016, 0.077323, -0.052141, -0.007660, 0.014782, -0.042794, 0.009905, -0.001789, -0.004125, -0.064519, 0.027197, 0.016124, -0.008350, -0.049961, -0.006004, 0.048392, 0.071325, -0.025863, -0.040652, -0.020631, -0.017045, -0.014555, -0.039594, 0.028460, 0.015083, 0.071700, -0.001141, -0.080295, -0.027869, -0.005358, 0.033068, 0.013576, 0.077721, -0.011699, 0.000442, -0.006056, 0.040943, -0.057477, -0.002953, 0.028261, 0.029867, -0.010376, 0.041791, 0.062710, 0.034936, 0.037444, 0.023277, -0.129918, -0.124057, -0.070466, -0.043426, -0.059500, 0.013389, 0.008266, 0.071916, 0.002143, 0.049626, 0.033872, 0.056605, 0.036069, 0.088957, 0.059662, -0.008631, 0.003396, 0.093755, 0.051429, 0.098792, 0.028706, 0.051668, 0.031663, 0.032594, -0.024307, -0.026850, -0.006414, -0.077737, -0.027541, -0.046123, -0.074392, -0.055823, -0.044717, -0.031354, 0.024171, 0.038514, 0.079150, 0.083393, 0.113406, 0.023781, 0.012285, 0.052600, -0.044012, -0.034061, 0.025754, -0.025098, 0.011678, -0.058160, -0.003271, 0.014017, -0.084304, -0.014534, 0.022460, -0.086057, -0.050955, 0.125649, 0.075407, -0.059038, -0.131283, -0.041163, 0.025621, 0.083253, 0.176066, 0.122802, 0.080142, 0.125693, 0.159879, 0.075014, 0.049757, 0.040040, -0.021025, 0.025377, -0.021386, 0.083149, 0.039222, 0.090350, 0.018431, 0.000482, 0.069642, 0.111804, 0.102122, 0.093856, -0.025160, -0.000492, -0.040947, -0.049650, -0.020048, 0.032340, -0.015112, 0.036198, 0.046891, 0.042153, 0.014046, 0.022509, -0.024951, 0.008552, -0.032338, -0.044760, -0.014016, 0.034056, -0.009860, 0.052661, -0.050754, 0.018583, 0.056486, 0.095258, -0.005296, -0.001991, -0.016165, 0.011350, 0.044271, -0.077508, -0.020903, -0.047602, -0.100026, -0.113671, -0.080187, 0.010625, 0.013014, 0.000779, 0.001639, -0.011901, -0.023862, -0.039190, -0.022934, -0.037506, -0.016256, -0.080200, -0.035896, -0.117451, -0.104348, -0.051344, -0.010849, -0.056615, -0.066159, -0.055245, 0.054457, 0.016934, -0.101016, -0.126767, -0.015541, -0.000829, 0.006472, -0.010961, 0.032088, -0.041055, -0.018778, -0.076558, -0.065782, 0.031609, 0.054078, 0.051291, 0.046694, 0.038641, 0.051015, 0.007138, 0.024189, -0.034015, -0.078582, -0.031070, -0.003967, 0.062931, 0.069342, 0.052821, 0.050768, -0.021915, -0.050589, -0.073117, -0.020655, 0.013888, 0.016063, -0.051130, 0.025848, -0.079925, -0.013978, -0.062130, 0.043564, 0.022050, -0.085578, 0.009439, 0.002285, -0.056819, -0.109818, -0.091834, -0.056142, -0.055252, -0.064053, -0.043421, 0.028488, -0.006799, -0.043797, 0.036093, -0.043366, 0.003246, -0.079081, -0.067204, -0.046630, 0.005355, -0.014520, -0.051898},
  {0.014177, 0.049801, -0.017481, 0.015317, 0.026180, 0.074692, 0.069006, 0.035175, -0.016854, 0.017257, 0.003250, 0.061388, 0.043451, 0.078302, -0.010626, -0.021123, -0.049701, 0.000125, -0.032616, -0.027122, -0.006418, -0.067460, 0.008790, -0.045400, -0.054002, -0.023988, -0.017218, -0.094882, -0.027736, -0.097627, -0.056167, -0.028170, -0.012568, -0.046749, -0.042974, -0.035001, -0.019098, -0.039614, 0.018744, -0.042097, -0.032285, -0.057354, 0.001218, -0.004886, -0.067208, 0.016439, 0.030289, 0.002455, -0.004219, -0.032487, -0.190657, 0.003770, -0.143298, -0.069541, 0.024520, 0.049323, 0.002366, -0.117347, -0.026302, -0.028391, 0.087649, -0.044052, 0.069327, 0.039112, -0.109393, -0.080146, -0.095648, 0.012685, -0.040026, 0.004816, 0.042922, 0.039100, -0.053564, -0.073105, -0.019900, 0.041899, 0.067059, -0.014714, -0.034165, 0.007048, -0.028985, -0.020162, 0.016269, 0.046496, 0.070121, 0.066724, 0.015168, 0.020576, 0.028915, 0.043240, 0.032490, -0.001616, 0.075148, 0.022180, 0.076009, 0.039521, 0.070663, 0.045935, 0.101180, 0.091154, -0.176227, -0.135701, -0.167577, -0.063126, -0.096135, -0.058698, -0.076479, -0.004289, -0.099494, -0.044361, -0.076595, -0.099330, -0.056616, -0.093676, -0.063879, -0.007655, 0.002770, -0.093699, -0.112982, -0.087525, -0.047112, -0.016946, -0.041020, -0.036053, -0.007578, 0.045126, 0.006557, 0.046047, -0.042110, 0.001599, 0.019648, 0.015922, -0.000498, 0.006428, 0.074595, -0.008305, 0.042502, 0.076807, -0.020333, 0.015421, -0.019647, -0.009565, -0.032681, -0.027012, 0.038508, 0.049131, 0.029621, 0.006309, 0.009609, 0.010103, -0.163847, -0.060561, -0.057430, 0.085420, 0.098715, -0.009934, -0.142015, 0.004173, 0.170627, 0.171249, 0.037943, -0.008084, 0.067313, 0.002899, 0.027162, 0.009207, 0.082653, 0.060046, -0.031394, -0.019155, -0.019815, 0.031654, 0.041251, -0.066796, 0.021897, -0.008383, 0.020178, -0.016235, -0.100267, -0.080445, 0.017972, 0.018405, 0.033341, 0.075946, 0.070420, 0.024748, 0.032861, 0.007072, -0.029517, -0.066590, -0.111594, -0.080716, 0.004795, 0.054888, 0.020277, 0.054813, 0.003417, -0.048337, 0.037498, 0.050585, -0.046458, -0.009095, -0.024988, -0.072606, -0.041557, -0.050181, 0.006455, -0.058378, -0.015622, -0.011849, -0.005154, -0.022750, -0.019192, -0.085785, -0.016022, 0.053960, 0.031543, 0.094938, -0.007359, 0.108873, 0.116286, 0.112788, 0.015981, 0.010050, 0.042933, 0.064283, 0.028083, 0.007141, 0.030195, 0.125544, 0.138038, 0.111987, 0.017336, 0.066255, -0.007866, -0.001247, 0.023600, -0.015446, 0.042612, 0.045373, 0.041594, 0.059939, 0.046977, 0.050379, 0.021074, 0.029849, 0.006919, 0.047804, 0.056350, 0.063158, 0.072059, -0.050521, 0.026671, 0.062309, 0.031577, 0.028011, -0.099136, -0.053550, 0.027310, 0.019199, -0.006370, -0.014788, 0.067604, 0.090876, 0.103835, 0.110053, -0.028542, 0.031675, -0.036872, -0.049858, -0.017021, -0.023412, -0.033663, 0.005453, 0.003069, -0.019189, 0.041972, -0.018813, -0.008028, 0.006392, 0.000112, 0.041370, 0.032478, 0.031223, 0.098834, 0.039536, 0.023063, 0.018619, -0.003596, 0.047598, 0.060727, 0.005920, 0.029505, -0.027511, 0.023383, 0.089908, 0.037830, 0.063944, 0.001188, 0.030834},
  {0.025978, 0.027335, -0.042841, -0.065915, 0.058029, 0.024611, 0.016578, 0.023231, -0.054250, 0.026370, -0.036216, 0.064397, 0.043485, 0.022773, 0.076133, 0.026453, -0.050151, 0.042263, -0.023782, -0.010230, -0.063916, -0.042087, -0.018242, -0.023456, -0.066519, -0.015778, -0.083221, -0.096327, -0.098575, -0.083288, -0.044187, -0.107391, -0.018059, 0.025861, -0.035392, -0.015190, -0.011988, 0.092983, -0.022139, 0.048671, 0.017272, -0.010985, 0.064323, 0.057813, 0.079504, -0.012665, -0.013489, -0.024259, -0.001875, 0.019060, -0.120103, -0.012920, -0.129201, -0.028669, 0.031269, 0.022528, -0.077009, -0.000260, 0.044543, 0.005114, 0.013995, -0.067367, 0.022298, 0.028441, -0.071024, -0.053653, -0.047985, -0.043279, -0.016647, 0.048585, 0.019820, -0.027404, -0.018900, -0.100416, -0.011529, -0.068795, -0.040385, 0.012352, 0.009485, -0.023684, -0.057825, -0.059484, 0.017529, 0.007616, 0.003438, -0.063350, 0.012495, 0.067480, 0.030567, 0.029573, 0.012287, 0.060863, 0.106900, 0.023503, 0.087667, 0.047921, 0.016141, 0.016597, 0.049314, 0.028701, -0.062409, -0.128568, -0.095324, -0.049905, 0.001359, -0.061354, -0.070055, -0.015320, -0.017442, -0.055551, -0.143636, -0.072584, -0.072908, -0.058513, -0.087005, -0.094661, -0.075130, -0.071631, -0.078185, -0.057662, -0.055971, -0.045307, 0.016287, -0.043643, -0.048486, -0.033599, -0.057118, -0.104244, -0.046566, -0.064854, -0.011678, 0.034506, 0.004090, 0.087444, 0.102725, 0.012837, 0.047304, 0.029797, 0.022896, 0.034813, -0.047653, 0.033983, -0.035925, -0.062326, 0.027491, -0.037226, -0.092672, -0.043430, -0.036587, -0.103385, -0.051766, 0.064692, 0.063793, 0.118002, 0.009296, -0.105585, 0.002429, 0.130273, 0.024569, 0.002234, -0.019394, 0.041896, 0.044886, -0.013160, -0.006157, 0.008402, 0.120065, 0.022340, 0.075973, 0.054875, 0.008099, -0.051702, -0.051244, 0.023773, 0.042635, 0.034691, -0.040223, 0.030111, -0.050179, -0.011588, -0.033145, -0.077670, 0.045505, 0.035999, -0.000082, 0.017553, -0.028065, -0.015288, 0.009070, -0.037881, -0.091696, -0.075140, 0.032756, -0.038297, -0.054172, -0.059112, 0.037149, -0.028819, 0.043553, 0.084358, -0.060853, -0.049834, 0.001270, -0.116108, -0.123013, -0.058353, 0.040635, 0.051547, -0.054532, -0.039319, -0.069399, 0.011376, 0.027944, -0.002342, 0.001485, 0.057591, 0.082003, 0.006863, 0.054625, 0.076436, 0.021272, 0.061304, 0.097425, 0.010879, 0.058112, 0.014540, 0.037021, 0.045701, 0.042127, 0.006534, 0.089834, 0.066090, 0.109297, 0.080213, 0.030699, 0.042798, 0.025580, 0.062826, 0.016771, 0.073019, -0.026160, -0.009409, -0.009199, 0.010099, 0.029626, 0.026262, -0.026803, 0.066878, 0.052417, 0.077102, 0.022708, 0.063515, 0.018896, -0.012389, -0.004098, -0.039071, -0.077450, -0.063902, 0.004095, -0.083089, -0.046244, -0.016353, 0.054558, 0.085067, 0.007715, 0.040269, 0.003797, 0.018249, -0.050569, 0.036295, -0.062405, 0.010388, -0.037565, -0.036385, -0.036164, -0.020340, -0.049465, -0.039473, 0.001735, -0.025396, 0.017874, 0.012446, 0.071425, 0.032236, 0.012028, 0.077206, 0.010191, 0.008205, -0.008086, -0.008371, 0.087490, 0.027019, 0.058563, 0.042801, 0.016256, 0.073536, 0.021360, 0.006849, -0.026121, -0.001235},
  {-0.026527, 0.145088, 0.047586, 0.075952, 0.052555, 0.038051, 0.014000, 0.104633, 0.084881, 0.076206, 0.032355, -0.001841, 0.030341, -0.021974, -0.045158, -0.006167, -0.063046, 0.005012, -0.024942, -0.000358, 0.002748, 0.022187, -0.019752, -0.052638, 0.039334, 0.016267, 0.053902, -0.047001, -0.007957, 0.062391, -0.031941, 0.053581, -0.006205, 0.042821, -0.039870, -0.019963, 0.000949, 0.001108, -0.024531, 0.075659, 0.041585, 0.072748, 0.020691, 0.001066, 0.047862, -0.009368, 0.023762, 0.029956, -0.008707, -0.021587, 0.215786, 0.003452, -0.004676, -0.109001, -0.106449, -0.087869, -0.118926, -0.104295, -0.102570, -0.075988, -0.078072, -0.109720, -0.019557, -0.053503, 0.018689, 0.014942, 0.093721, 0.036548, 0.099092, 0.047134, 0.063764, 0.096573, 0.109750, 0.011306, 0.005638, 0.001046, 0.076847, 0.089511, 0.010329, 0.088538, 0.037787, 0.045803, 0.039376, -0.077702, -0.026137, 0.057307, 0.056514, 0.006223, 0.087628, 0.068497, 0.080256, 0.056577, 0.075693, 0.085256, 0.034676, 0.113584, 0.075112, 0.072344, 0.044946, 0.012130, 0.257236, 0.096617, 0.116502, 0.060673, 0.089275, 0.092835, 0.105175, 0.116640, 0.067178, 0.044397, 0.034928, 0.047865, 0.051536, 0.079076, 0.026706, 0.053573, -0.029692, -0.071566, -0.033045, -0.068511, -0.101088, -0.094636, 0.024855, -0.045488, -0.058313, -0.003678, 0.033549, 0.038470, -0.004291, -0.023277, 0.031388, 0.049125, -0.009436, 0.020192, 0.014747, -0.023544, -0.045622, -0.035342, -0.054115, 0.007676, -0.004291, -0.011799, -0.009240, -0.005356, -0.008838, -0.067431, -0.078888, -0.007207, -0.096420, -0.043845, -0.115016, 0.034447, 0.011907, -0.174622, -0.008292, 0.046132, -0.010082, 0.078451, -0.014836, 0.032559, 0.014364, 0.023344, -0.009433, -0.011973, 0.003451, 0.037825, 0.073406, 0.101999, 0.111807, -0.001100, 0.003189, 0.028258, 0.008109, 0.013919, 0.061880, -0.018324, 0.060188, -0.002344, 0.030882, -0.063696, -0.005076, 0.024995, 0.011099, 0.016636, -0.010502, 0.018644, -0.032745, 0.003573, -0.047240, -0.036341, -0.013380, 0.008256, -0.053959, -0.022431, -0.126396, -0.037982, -0.102961, 0.010436, 0.014432, 0.011369, -0.205259, -0.134128, 0.048399, -0.050860, 0.018190, 0.037819, 0.039114, 0.000215, 0.074307, 0.023655, 0.045081, 0.065083, 0.021705, 0.046369, -0.023906, -0.036366, -0.099137, -0.039864, -0.003510, -0.005237, 0.007230, 0.025737, -0.026105, -0.024106, 0.009413, 0.050095, 0.010012, -0.026718, 0.061911, 0.031301, 0.078235, 0.026644, -0.014892, -0.055096, 0.013094, -0.038248, -0.009579, -0.072251, -0.003708, -0.097327, -0.053283, -0.008282, -0.001579, -0.046257, -0.050701, 0.012755, -0.038409, 0.016901, 0.034405, -0.003811, 0.014133, 0.008374, 0.011245, -0.002680, 0.066678, -0.004948, 0.030664, 0.065086, -0.032728, -0.028094, -0.039083, -0.025732, -0.019459, 0.053236, 0.021478, 0.004054, 0.076025, 0.005986, 0.077109, -0.000738, 0.031156, 0.093267, 0.086965, 0.133880, 0.077745, 0.058232, -0.006313, 0.057919, 0.051475, 0.032665, 0.082091, 0.123212, 0.084079, 0.039735, 0.053485, -0.021084, 0.033083, 0.067292, 0.084455, -0.010712, 0.032094, 0.004897, 0.007813, -0.044104, 0.037551, 0.018295, 0.003303, 0.045588, 0.039060, -0.033524},
  {0.014336, -0.013029, -0.047920, -0.071192, -0.031964, 0.041827, 0.021628, 0.016452, 0.098574, 0.036812, 0.046926, 0.088243, -0.025291, 0.062637, -0.040554, 0.052529, 0.012452, 0.058341, 0.048225, -0.047044, 0.032548, -0.078394, -0.081589, -0.065642, -0.062760, -0.031643, -0.048851, 0.062880, -0.009444, -0.021985, -0.007743, -0.053878, 0.026494, 0.011465, -0.052560, 0.021988, -0.041077, 0.005008, 0.003056, -0.028284, -0.050727, -0.024235, 0.001955, 0.037382, -0.013722, -0.049515, -0.051708, 0.024010, 0.000370, -0.021448, 0.057033, 0.090858, 0.024997, -0.052999, 0.017882, 0.029144, -0.112325, -0.082897, 0.022360, -0.019706, 0.113798, 0.043404, 0.059991, -0.023333, 0.052904, -0.040132, 0.012096, -0.057750, -0.031487, -0.007858, 0.021806, 0.023037, 0.020886, 0.047242, 0.048391, 0.056170, 0.090072, 0.023352, -0.024815, 0.031126, 0.096056, 0.124618, 0.120158, 0.075686, 0.054200, 0.061032, 0.043241, 0.042956, -0.021041, 0.086765, 0.089035, -0.033364, 0.039520, 0.078785, 0.102144, 0.066943, 0.037799, 0.031953, 0.065489, 0.120834, 0.108970, 0.259853, 0.121927, 0.120488, 0.149562, 0.065851, 0.044502, 0.007790, 0.006818, 0.004998, 0.057159, -0.002575, -0.002184, 0.052231, 0.072222, 0.032944, 0.081541, 0.061801, 0.157614, 0.064439, 0.150833, 0.076684, 0.096383, 0.050998, 0.062241, 0.009333, 0.007108, 0.010507, 0.035025, 0.026773, -0.040199, -0.060963, -0.026409, -0.037380, 0.037655, 0.036582, 0.040198, 0.043829, 0.045938, 0.013250, 0.022758, 0.031512, -0.040929, 0.080822, 0.038876, 0.036248, -0.043946, 0.015412, 0.004223, -0.038061, 0.033794, -0.085405, -0.049480, -0.037109, 0.023801, -0.044748, -0.028188, -0.042793, -0.062371, 0.016676, -0.029974, 0.027053, 0.007681, 0.005618, 0.036147, 0.003045, 0.012837, -0.033751, -0.000686, 0.028095, 0.000056, 0.033832, -0.038868, -0.007235, -0.012837, -0.006773, -0.083548, -0.051763, -0.057143, -0.094824, -0.008872, 0.051306, 0.017920, 0.077446, -0.008909, 0.024118, -0.048201, 0.014645, 0.037161, 0.013515, -0.030456, -0.010369, 0.026766, -0.012162, -0.019702, 0.059127, -0.045205, -0.074601, 0.029122, 0.034861, 0.066179, 0.052986, -0.034623, -0.078480, -0.037512, 0.024730, 0.006735, -0.051202, 0.016326, -0.020774, 0.024610, 0.055602, -0.002955, 0.040192, 0.042701, 0.073026, -0.031229, -0.004846, 0.052609, 0.035811, -0.044291, -0.029804, 0.046676, 0.015973, -0.027712, -0.079537, -0.059273, -0.042810, -0.050260, -0.117034, -0.045370, -0.085858, -0.078624, -0.035544, -0.049337, 0.041722, -0.086493, 0.002557, -0.013416, 0.007943, -0.096686, -0.080571, -0.078509, -0.039813, -0.068275, -0.034425, -0.093239, -0.050310, -0.080201, 0.014123, -0.020939, 0.083747, 0.085109, 0.054300, 0.013706, 0.092328, 0.039378, 0.051311, 0.011627, 0.096540, 0.054721, 0.089747, 0.021387, -0.013583, 0.003382, 0.003230, 0.014003, -0.001690, -0.001487, 0.003110, -0.023678, 0.009697, 0.038556, -0.001960, -0.025441, 0.035332, 0.026726, 0.027444, 0.097919, 0.026656, -0.024332, -0.055716, 0.050370, 0.076382, 0.054140, 0.001995, -0.001997, -0.026196, -0.064112, 0.003538, 0.008997, 0.008261, 0.021860, 0.018358, 0.011982, 0.078963, -0.006839, 0.023250, -0.004471, -0.002065},
  {-0.058560, -0.072585, -0.004417, -0.042556, -0.118217, -0.095014, -0.049330, -0.001611, 0.081485, 0.024736, 0.042565, 0.078337, 0.006109, 0.052098, 0.043670, 0.045066, -0.008068, 0.005877, 0.008645, 0.024062, -0.001791, 0.019326, -0.073936, -0.134516, -0.121283, -0.020949, -0.065272, -0.100043, -0.089632, -0.110436, -0.063037, -0.110345, 0.017817, -0.029029, -0.051351, -0.048219, -0.023808, -0.045868, -0.002016, -0.001018, -0.026638, 0.017725, -0.024042, 0.022307, -0.025803, -0.070388, -0.041571, -0.010566, -0.118426, -0.147906, 0.028982, 0.020781, -0.003233, 0.032985, -0.003020, 0.040921, -0.007335, -0.008561, 0.055860, -0.034254, -0.062623, 0.033216, -0.033017, 0.031926, 0.031694, 0.065515, -0.004036, 0.032317, 0.004609, 0.004899, 0.129043, 0.133962, 0.142880, 0.063050, 0.064029, 0.103034, -0.005797, 0.014508, 0.026219, 0.024181, 0.055777, -0.022833, 0.015417, -0.020608, 0.020437, -0.000386, -0.028084, -0.051828, -0.033640, -0.037439, -0.033418, 0.004348, -0.020191, -0.070235, 0.007524, -0.143574, -0.026502, -0.078120, -0.033309, -0.062602, -0.022475, -0.025663, -0.019961, -0.093028, 0.029484, 0.014434, 0.120485, 0.004696, 0.041014, 0.007213, 0.063949, 0.017957, 0.010748, -0.049881, -0.044366, -0.004865, -0.002603, 0.030032, 0.010308, -0.035694, -0.037497, 0.030914, -0.060339, 0.020786, 0.031998, 0.011558, -0.070455, -0.022294, -0.005546, -0.085168, -0.056114, -0.094410, -0.057577, 0.017607, 0.005396, -0.064128, -0.084848, -0.090141, -0.002474, -0.034477, -0.102562, -0.057429, -0.036013, 0.036798, 0.063117, 0.023244, -0.035551, 0.015988, 0.043096, -0.004583, -0.013814, -0.044924, -0.070554, 0.022983, -0.052068, -0.058331, -0.043283, -0.001571, 0.004657, 0.002239, 0.002314, 0.055598, -0.035609, 0.023285, 0.010726, -0.062116, 0.020273, -0.052228, -0.011630, -0.039842, 0.042080, 0.030971, 0.000413, -0.007289, -0.064929, -0.004830, -0.066235, -0.027212, -0.046471, 0.012473, -0.045710, -0.006277, -0.047680, 0.027210, -0.007405, -0.043655, 0.003046, 0.051396, -0.043587, -0.027614, 0.051636, 0.033290, 0.008511, -0.068156, -0.083698, -0.053672, -0.045780, 0.008552, 0.004024, -0.068170, 0.123590, 0.105982, 0.032276, 0.043821, 0.028757, 0.038078, 0.020164, 0.003626, -0.047532, -0.065584, -0.073096, -0.035917, -0.116816, -0.078134, -0.122655, -0.097875, -0.077116, -0.084865, -0.102026, -0.012781, -0.131184, -0.092013, -0.032473, -0.005132, -0.109998, -0.047046, -0.102139, -0.142641, -0.045966, -0.114241, -0.085636, -0.030463, -0.060084, -0.032981, -0.017596, -0.109341, -0.041702, 0.035833, -0.046929, -0.031757, -0.064305, -0.055314, -0.062521, -0.064340, -0.064569, -0.042658, 0.009399, 0.028896, -0.053790, -0.036047, 0.145636, 0.097832, 0.049989, 0.019887, 0.048371, 0.013316, 0.054333, 0.077451, 0.007794, 0.056916, -0.022987, -0.012437, -0.088176, -0.058595, -0.098505, -0.142192, -0.109665, -0.008949, -0.111586, -0.074644, -0.039004, -0.085745, -0.034290, -0.008244, 0.007061, 0.071128, 0.002889, 0.038373, -0.033717, 0.047653, 0.009821, 0.075669, 0.111476, 0.110550, 0.004715, -0.002782, 0.055925, 0.027212, -0.006071, 0.037828, -0.041905, -0.007206, -0.045579, 0.021455, -0.055274, -0.051680, -0.067534, -0.115829, -0.097719, -0.070400},
  {-0.132725, -0.161150, -0.124993, -0.047866, -0.107136, 0.017715, 0.027272, -0.038576, 0.008020, -0.028907, 0.032768, 0.093396, -0.023790, -0.010972, 0.023999, 0.095545, 0.015591, 0.029843, 0.048878, 0.024101, -0.025089, -0.051309, -0.020965, -0.046151, -0.008259, -0.019726, -0.039520, 0.067611, -0.009693, 0.073435, -0.007536, -0.023658, 0.061418, -0.007310, 0.045464, 0.001209, 0.023847, 0.086026, 0.096361, 0.047957, 0.075385, -0.016325, 0.083303, 0.076979, -0.051631, -0.063035, -0.038092, 0.010867, 0.036922, -0.018488, 0.027628, -0.003083, 0.078872, -0.018855, -0.005814, -0.055028, -0.083274, -0.051404, -0.051983, -0.027687, -0.026403, -0.075486, -0.018779, -0.079796, -0.028419, -0.035494, 0.020383, -0.048376, -0.074097, 0.010024, 0.024764, 0.063495, 0.066511, 0.024273, -0.023072, 0.036557, -0.001338, 0.059627, 0.076196, 0.047822, 0.056782, 0.029657, 0.016592, 0.021153, -0.036775, -0.059295, -0.091446, 0.015222, 0.065830, -0.010338, 0.003555, 0.026614, 0.033364, 0.009394, 0.044459, 0.045938, -0.021025, 0.069188, 0.116206, 0.141747, -0.007917, 0.086405, 0.146279, 0.174550, 0.109838, -0.055480, -0.018550, -0.082028, -0.050788, -0.129495, -0.131752, -0.089112, -0.070140, -0.045718, -0.083111, -0.070783, -0.024879, 0.048456, 0.067388, 0.089171, 0.097363, 0.053039, 0.069842, 0.043877, 0.066249, -0.038026, -0.040467, 0.014218, -0.074495, -0.031048, 0.019294, -0.075221, 0.017167, -0.034398, -0.019494, -0.051254, -0.043402, 0.051000, -0.031537, 0.019551, -0.001088, -0.033053, 0.039897, 0.045663, -0.020794, -0.039653, 0.029368, -0.001125, -0.064417, 0.051603, 0.022211, -0.048578, -0.026158, 0.038462, -0.043286, -0.026005, -0.044143, 0.010505, 0.025859, 0.019102, -0.046186, 0.040966, -0.048806, -0.012869, 0.018843, -0.029917, -0.023899, -0.082067, -0.024093, -0.125514, -0.080656, -0.029204, -0.152535, -0.138455, -0.047097, -0.095843, -0.022259, -0.076304, -0.053077, -0.001654, 0.038503, -0.008555, 0.013230, 0.008840, -0.001287, -0.025593, -0.052179, -0.037582, 0.001333, 0.006261, 0.083356, 0.045700, 0.022718, 0.061805, 0.139981, 0.057654, 0.065374, 0.061657, 0.044417, 0.022653, 0.064490, 0.007431, -0.100743, -0.001320, -0.021543, 0.014466, 0.000786, -0.047801, -0.016239, 0.021509, 0.049711, 0.016366, -0.008143, 0.100167, 0.081073, 0.080992, 0.111885, 0.070054, 0.047542, 0.053006, 0.037068, -0.019884, -0.014416, 0.046963, -0.009664, -0.043985, -0.106357, -0.067491, -0.022057, 0.001197, -0.056219, -0.032937, -0.064722, 0.016656, 0.012756, -0.032627, 0.033886, 0.108824, 0.076482, 0.004799, -0.018412, 0.033076, 0.031464, 0.008993, 0.033252, -0.051058, -0.009989, -0.030118, 0.001029, 0.070780, 0.134618, 0.107524, 0.099781, 0.097396, 0.090979, 0.071652, 0.107333, 0.085781, 0.098634, 0.114190, 0.076207, 0.036566, 0.116639, 0.080644, 0.005125, 0.083237, 0.026668, 0.004543, -0.012508, -0.053562, -0.022899, -0.046881, 0.045539, 0.107391, 0.070828, 0.034593, 0.040187, 0.113761, 0.053382, 0.074756, 0.078320, 0.005787, 0.042597, -0.008405, 0.001138, 0.047030, 0.002326, -0.055598, -0.005943, -0.030105, -0.013888, 0.018524, 0.019645, -0.029188, 0.022209, -0.074008, -0.028877, -0.079873, -0.061369, -0.040205},
  {-0.084387, -0.008563, -0.063437, -0.058954, -0.079263, -0.054578, -0.112261, 0.013638, 0.018933, 0.004110, 0.007933, -0.034529, -0.007790, 0.018325, -0.024827, 0.030058, 0.092508, 0.089133, 0.013426, 0.093368, 0.081541, 0.077200, 0.042212, -0.005676, 0.050929, 0.086980, 0.074361, 0.036264, 0.086456, 0.051557, -0.032181, 0.022375, -0.010711, 0.000645, -0.063298, -0.060408, -0.002396, 0.024476, -0.029578, -0.014861, -0.070712, -0.051150, -0.022701, -0.060120, -0.012529, 0.008244, 0.014644, 0.025841, -0.062212, -0.067045, -0.089478, -0.098749, -0.034727, -0.150117, -0.091512, -0.046881, -0.068769, -0.030216, 0.071693, 0.048070, 0.045825, 0.060553, 0.092462, 0.075392, 0.038415, 0.044886, 0.052884, 0.018688, 0.005758, -0.068945, -0.098389, -0.061905, -0.074063, -0.125062, -0.041500, -0.066468, -0.062856, 0.023091, 0.053309, -0.002860, 0.051074, -0.003725, 0.060092, -0.031430, 0.020858, 0.031423, 0.059970, 0.087626, 0.132426, 0.056334, -0.029525, 0.085127, 0.021651, 0.052573, 0.002365, -0.014117, -0.002056, -0.000231, -0.050730, -0.036383, 0.005507, 0.095972, 0.021666, 0.059134, -0.002449, 0.002557, -0.053085, -0.031865, -0.053821, -0.066684, -0.050197, -0.085403, 0.005790, -0.104575, -0.064833, -0.116853, -0.028621, -0.073934, -0.017556, -0.087455, -0.032245, -0.016373, 0.013711, 0.024286, 0.068045, 0.087789, -0.007005, 0.055047, 0.034356, 0.018919, 0.028315, -0.002336, -0.033402, -0.031307, -0.049393, -0.072501, -0.026394, -0.043640, -0.028486, 0.030935, 0.033494, 0.049877, -0.029390, -0.044849, 0.024769, 0.024199, 0.022018, 0.044846, -0.027554, 0.058096, 0.072044, -0.070570, 0.062311, 0.071485, -0.004236, -0.000078, -0.000772, -0.024684, -0.053338, -0.032006, -0.035804, 0.014358, 0.007905, -0.020814, -0.033048, 0.028687, 0.070439, 0.054667, 0.048481, -0.033378, 0.017332, 0.030467, 0.004024, -0.031571, 0.079734, 0.058020, 0.016834, -0.025792, -0.002853, -0.000468, 0.023435, -0.036321, -0.022185, 0.011195, -0.040868, 0.044323, -0.050142, -0.026642, -0.027377, -0.036373, 0.045939, -0.044781, -0.080985, 0.007531, -0.039846, -0.049913, -0.015005, 0.060735, 0.067089, 0.080139, -0.075321, -0.092860, -0.019161, -0.009541, -0.005497, 0.011747, 0.013755, -0.002256, -0.001193, -0.040054, -0.047319, 0.075326, -0.030145, -0.003741, -0.011189, 0.069046, 0.029065, 0.006208, -0.011142, -0.012324, 0.037112, 0.031512, -0.001599, 0.034214, 0.042008, 0.040275, -0.050953, -0.017805, -0.022451, 0.025256, -0.051294, -0.060305, -0.046047, 0.005245, -0.013026, 0.013542, -0.063761, -0.013638, 0.058167, 0.013701, -0.012535, -0.027513, -0.059034, -0.083963, -0.008189, -0.060940, -0.004262, 0.056465, 0.011234, 0.073634, 0.177364, 0.106417, 0.101544, 0.031848, -0.017674, 0.001407, 0.013240, 0.067836, 0.067394, 0.010327, 0.067018, -0.017200, 0.063316, 0.110205, 0.064538, 0.074241, 0.022559, 0.056126, 0.071498, 0.068057, 0.049467, 0.040447, 0.022294, 0.025714, 0.020975, 0.008148, -0.068481, -0.014783, -0.113371, -0.045750, -0.061871, -0.086933, -0.082192, -0.066875, -0.091555, -0.126274, -0.044841, -0.071490, -0.129181, -0.163338, -0.117944, -0.128193, -0.073663, -0.100238, -0.164638, -0.083921, -0.048517, -0.079584, -0.072551, -0.077083},
  {0.088185, 0.069327, 0.004440, 0.109252, 0.065306, 0.085993, 0.019291, -0.003344, -0.027449, 0.062192, -0.066368, 0.044779, -0.016648, -0.040302, 0.011037, 0.000760, -0.055680, 0.005636, -0.008321, 0.061120, -0.024560, 0.011378, 0.070581, 0.047216, 0.002879, 0.067528, 0.032317, 0.071183, 0.053882, -0.002960, 0.014229, 0.045112, 0.048170, 0.083043, 0.042756, 0.069857, 0.063288, 0.075618, 0.019079, 0.083888, 0.033224, 0.018498, -0.003950, 0.010010, -0.003632, 0.055091, 0.040146, -0.002613, 0.044292, 0.081732, -0.088362, 0.016870, -0.094596, -0.080655, -0.034129, -0.020087, -0.095760, -0.050849, 0.033207, -0.104343, 0.030506, -0.049287, 0.002516, -0.001464, 0.033962, -0.032701, -0.054249, 0.032073, -0.006455, -0.033031, -0.000252, 0.026448, -0.003337, 0.104624, 0.033396, 0.084375, -0.006263, 0.034384, -0.035070, -0.022148, 0.061781, 0.089746, 0.087413, 0.002678, -0.004055, 0.056978, 0.049425, 0.039040, -0.030898, 0.001676, 0.088069, 0.066461, -0.000190, 0.017484, 0.087065, 0.085413, 0.102942, 0.064209, 0.081548, 0.058321, -0.111601, -0.093112, -0.039657, 0.031032, 0.040266, 0.030167, -0.004820, -0.075401, 0.022102, 0.044997, 0.039813, 0.065854, 0.040409, -0.065652, 0.035382, 0.000464, -0.021876, 0.054676, -0.027382, 0.041483, -0.027964, 0.000074, 0.042135, 0.090754, 0.086396, 0.022546, 0.020867, -0.002126, 0.073048, 0.033238, 0.062525, 0.072598, -0.018712, 0.059203, -0.043989, 0.057304, 0.007156, -0.015942, 0.046526, 0.001391, 0.054436, -0.028653, -0.026787, 0.006329, 0.047713, 0.077573, -0.010335, -0.016574, -0.017796, -0.025789, -0.035889, -0.141552, -0.159895, 0.019788, 0.149478, 0.125659, -0.020194, -0.063429, 0.037311, 0.033082, 0.036004, 0.042796, 0.064247, 0.133504, -0.001793, -0.062715, 0.049593, -0.025775, 0.029960, 0.022785, -0.039885, -0.070005, 0.057357, 0.015555, -0.022637, 0.033231, -0.062566, -0.056354, -0.084974, 0.036012, 0.001406, 0.066235, 0.038312, -0.004762, 0.023359, 0.040499, 0.060438, 0.035118, -0.027136, 0.054398, -0.008071, -0.008195, -0.021606, 0.009424, 0.057681, -0.014308, -0.015443, -0.001814, -0.004282, -0.057137, -0.035559, -0.115832, -0.084672, -0.010720, -0.054728, -0.070321, -0.090173, -0.016090, 0.011015, -0.063373, -0.029446, -0.028206, 0.026860, -0.057952, 0.049846, 0.085562, 0.070321, -0.048967, 0.015705, -0.069126, 0.028546, 0.012295, 0.023888, -0.016285, -0.016100, -0.009179, 0.037231, -0.079073, -0.004487, 0.011428, 0.027367, 0.007539, 0.012598, -0.042312, 0.053521, 0.023349, -0.011025, -0.014144, 0.056145, 0.054897, -0.051005, 0.019196, 0.016420, 0.091442, 0.045055, 0.040446, 0.059603, 0.043456, 0.036061, 0.010888, 0.050332, 0.009030, -0.039858, 0.029856, 0.079108, 0.000846, -0.019708, -0.045090, -0.036927, 0.049740, 0.035201, 0.109416, 0.067322, 0.018710, 0.047151, 0.027879, 0.050204, -0.006388, 0.064343, 0.068287, 0.014845, 0.031400, 0.120384, 0.113572, 0.021316, 0.080580, 0.070382, 0.099945, 0.016221, 0.076358, 0.062886, 0.135052, 0.130642, 0.023464, 0.086613, 0.030173, 0.087640, 0.025822, 0.097093, 0.050049, 0.078424, 0.047900, 0.008469, 0.088219, 0.028319, 0.097032, 0.116223, 0.133505, 0.123431, 0.117662},
