Layer: fc2.weight
Shape: torch.Size([64, 128])
Values:
{
  {0.192402, -0.039411, 0.004269, 0.033098, 0.100822, 0.168015, 0.067309, -0.099241, -0.138239, -0.140043, 0.014012, -0.108950, 0.064678, 0.066916, 0.085839, -0.026728, -0.055162, -0.044469, 0.015037, 0.101670, -0.141693, 0.023998, 0.125270, 0.050487, 0.058890, -0.146192, 0.028608, -0.184070, 0.103578, 0.052730, 0.044425, 0.014949, 0.005112, 0.007436, -0.160992, -0.055840, 0.064238, 0.012220, 0.121865, 0.032240, -0.191986, 0.005427, -0.013719, -0.092923, -0.058283, 0.054197, -0.055002, -0.042048, -0.035123, -0.041605, -0.134444, -0.039434, -0.193848, -0.104416, 0.060371, -0.076540, 0.040187, -0.143961, -0.027841, -0.033251, 0.068407, 0.000167, -0.168335, 0.093980, 0.043158, 0.088237, 0.014959, -0.055702, -0.166910, -0.129545, -0.138812, 0.033113, -0.050904, 0.017446, 0.060797, 0.109740, 0.077426, 0.065754, -0.174540, 0.088264, 0.054123, 0.201479, 0.079697, 0.014282, -0.069763, -0.106582, -0.078681, 0.110765, 0.010938, 0.097594, 0.027687, -0.079345, 0.061350, 0.091593, -0.010672, 0.163557, 0.032742, -0.151113, -0.048551, -0.023376, -0.023483, 0.087487, 0.109656, 0.015976, 0.219495, -0.035726, -0.153503, 0.044874, 0.025212, -0.114520, 0.104758, 0.013003, -0.053444, -0.033948, 0.088548, 0.034584, -0.080858, -0.092916, -0.013465, 0.117312, 0.023538, 0.076740, -0.020550, 0.003767, 0.042480, -0.253278, 0.039993, -0.135817},
  {-0.032475, 0.035122, -0.124660, 0.050567, -0.007652, 0.018302, 0.040077, 0.106610, 0.042190, 0.162056, 0.058729, -0.056630, 0.017082, 0.066973, 0.016195, -0.029598, -0.021425, -0.039714, 0.002792, 0.072890, -0.019730, -0.045001, 0.053695, 0.100377, 0.067357, 0.107557, 0.133835, 0.027907, 0.118902, -0.109725, -0.008413, 0.089201, 0.046759, 0.090906, 0.115742, 0.012329, -0.049161, 0.001138, -0.054650, -0.016826, 0.067531, -0.025789, 0.078050, -0.032756, 0.133358, -0.018465, -0.091028, 0.109348, -0.069145, 0.093368, 0.103915, 0.009030, -0.018459, 0.011144, -0.002976, 0.077719, 0.014658, 0.134834, 0.054535, -0.017194, -0.070375, -0.072822, -0.061155, 0.045533, 0.026303, -0.023684, -0.043480, 0.146932, 0.046055, 0.124191, -0.024275, 0.119501, -0.006272, 0.057017, 0.016182, 0.022174, 0.008470, -0.049089, 0.132012, -0.073710, -0.016536, -0.055196, 0.001911, -0.157380, 0.098636, -0.014420, 0.032563, -0.083860, 0.123576, -0.077335, -0.063630, -0.028025, -0.011121, 0.006553, 0.138703, -0.028745, 0.022247, 0.089206, -0.027936, -0.089316, 0.083772, -0.026729, -0.015213, 0.202616, -0.110532, -0.018157, -0.033862, -0.070990, 0.002207, 0.068036, -0.075217, -0.033425, -0.041728, 0.024656, -0.148895, -0.018821, -0.030753, 0.003058, -0.101348, -0.090422, -0.044276, 0.068490, 0.074419, 0.124591, -0.101944, 0.003577, 0.100217, -0.014670},
  {-0.005275, -0.018672, 0.046919, 0.035840, 0.012837, 0.122687, 0.141376, -0.080491, -0.023999, 0.043512, -0.127794, 0.005188, -0.005731, 0.113775, -0.070362, 0.018028, -0.057407, 0.077187, -0.095586, -0.000777, -0.161191, 0.101533, 0.040471, 0.069266, -0.113427, -0.067958, 0.152820, -0.087892, 0.070554, -0.007025, 0.110925, -0.059768, 0.039470, 0.068367, -0.003639, -0.016598, -0.119962, 0.051948, 0.185742, -0.001563, -0.073659, -0.059727, -0.056939, 0.079126, -0.082377, -0.009758, 0.035603, -0.096527, 0.092507, 0.036049, 0.150281, -0.019720, 0.019557, -0.043534, 0.046224, -0.057933, -0.015250, -0.065007, -0.104167, 0.136788, -0.023586, -0.015392, -0.094922, 0.112283, -0.070728, 0.047783, 0.028302, -0.117852, -0.144505, -0.034831, -0.050055, 0.095207, -0.026173, 0.150776, 0.009996, 0.079371, 0.049493, 0.102742, -0.034290, 0.122291, 0.017240, 0.078833, 0.028366, 0.097487, -0.062445, -0.006408, -0.012502, 0.006450, 0.064292, 0.017273, 0.112986, -0.124193, 0.012749, -0.029001, -0.008829, 0.165194, 0.043086, -0.124994, 0.009504, 0.066067, -0.150953, 0.040341, 0.111827, 0.021245, 0.195926, 0.107372, -0.103098, -0.004706, -0.025759, -0.109666, 0.099254, 0.133454, 0.081617, -0.053807, 0.180757, 0.084836, 0.057880, 0.059835, 0.042875, 0.138739, -0.041487, 0.204503, -0.080655, 0.120896, -0.083609, -0.171710, 0.058548, -0.091268},
  {-0.023575, 0.077905, 0.005598, 0.016714, 0.013963, -0.093297, 0.012995, 0.001136, 0.133487, 0.086081, 0.011368, 0.208716, 0.108647, 0.078273, -0.067155, -0.009809, 0.208358, 0.136837, 0.111310, -0.065886, 0.052552, 0.065261, -0.007690, 0.101087, 0.102587, 0.080845, -0.002479, 0.136632, -0.004929, -0.034494, 0.056064, 0.064020, 0.064526, 0.055476, 0.137866, 0.007668, 0.233645, 0.090538, -0.085507, 0.062046, 0.040081, 0.035788, -0.024632, 0.115912, 0.134436, 0.212729, 0.059347, 0.089112, 0.038434, 0.130815, 0.057164, 0.040082, 0.012577, 0.094053, 0.121174, 0.001412, -0.011249, 0.092815, -0.014587, 0.063765, -0.052305, 0.036081, 0.000546, -0.022046, 0.073260, 0.085505, 0.073229, 0.198364, 0.137473, 0.254851, -0.008311, 0.037962, -0.036373, 0.075751, 0.057529, -0.020540, -0.015371, -0.011664, 0.101695, 0.047404, 0.167135, -0.024777, 0.145458, -0.059870, -0.017590, 0.045798, 0.066180, -0.000947, 0.184387, 0.030271, 0.119230, 0.071853, -0.051011, -0.038336, -0.038325, 0.067968, 0.077760, -0.010153, -0.011187, 0.013666, -0.048818, 0.154774, 0.122076, 0.019772, -0.034119, 0.029298, 0.085582, -0.056532, 0.082127, 0.123481, -0.014768, 0.074258, 0.050892, 0.159962, -0.023966, 0.049053, 0.151389, 0.109846, -0.035075, -0.034765, 0.106124, -0.017822, -0.021908, 0.062887, -0.020694, 0.214123, 0.028745, 0.066859},
  {-0.000333, -0.070739, -0.127952, -0.049002, 0.003822, -0.107516, -0.087401, 0.069270, 0.079187, 0.046018, 0.004650, 0.193386, -0.036332, 0.072114, 0.081059, -0.004603, 0.100859, -0.077524, 0.164469, 0.028134, -0.029398, 0.071431, -0.027094, -0.128652, -0.071926, 0.011654, -0.003694, 0.144530, 0.068669, -0.027444, -0.133784, 0.094163, 0.004122, 0.023325, 0.112347, 0.043004, 0.094964, -0.045403, -0.107340, -0.021700, 0.180487, -0.132435, 0.045068, -0.116837, 0.108545, 0.132205, 0.058325, 0.103698, 0.055638, -0.081543, 0.056349, 0.093999, -0.018305, -0.070193, 0.029039, 0.038673, -0.079374, 0.008703, -0.013403, 0.026391, 0.085486, 0.134015, -0.051772, 0.013471, -0.048820, 0.091218, -0.095245, 0.016277, -0.027316, 0.156877, -0.072513, 0.145678, 0.110636, 0.050889, 0.026434, -0.043171, 0.056477, 0.070869, 0.149152, -0.077569, -0.053743, 0.030344, 0.097165, 0.019008, 0.052571, -0.081461, -0.012323, 0.103460, 0.014051, 0.139588, 0.032640, 0.069088, 0.014165, -0.141658, 0.001341, 0.007190, -0.075166, -0.150190, -0.018596, 0.051746, -0.035629, 0.080518, -0.068385, 0.028394, -0.095035, -0.035458, 0.027481, -0.003192, 0.076499, 0.106043, -0.060021, 0.080113, 0.083997, -0.029117, -0.113922, 0.087387, 0.117484, 0.080921, -0.124337, -0.092903, 0.033258, 0.009932, 0.022369, 0.104783, -0.047192, 0.130352, -0.026348, -0.072003},
  {0.031963, 0.162584, -0.003501, -0.012281, 0.027223, -0.045173, 0.125700, -0.001685, 0.146993, 0.109408, -0.047900, -0.006165, 0.065598, 0.154461, -0.166134, 0.023287, -0.065646, 0.128336, -0.039473, 0.061679, 0.002140, -0.054282, 0.048309, -0.013515, 0.054482, 0.010132, 0.162660, 0.076539, 0.125985, -0.027898, -0.016644, -0.001604, 0.036026, 0.119200, 0.090242, 0.059445, 0.104248, 0.112681, 0.059627, 0.028288, -0.016872, 0.112317, -0.114559, 0.036576, 0.031483, 0.104264, -0.011900, -0.011855, 0.049845, 0.023197, 0.174500, 0.101260, -0.035589, 0.110485, 0.044482, 0.032384, 0.074390, 0.085027, 0.057641, 0.024322, -0.050617, 0.051835, 0.099192, 0.000814, 0.067313, -0.021710, -0.016499, -0.075607, 0.126074, 0.047782, -0.029805, 0.090730, 0.040874, -0.001417, -0.122953, 0.009049, 0.010789, -0.027060, 0.113092, 0.011838, 0.053948, -0.083362, 0.121456, -0.023116, -0.008839, 0.106661, 0.073709, 0.032833, 0.120010, -0.007597, -0.008644, 0.048060, -0.116837, 0.020535, 0.064982, 0.120268, -0.035336, 0.061491, -0.077677, -0.023882, -0.052764, 0.029479, 0.174580, 0.069532, -0.037587, 0.126205, 0.080352, -0.031223, -0.014218, 0.090983, -0.009131, -0.014686, 0.158830, 0.099960, 0.006624, 0.097132, -0.069295, 0.091092, 0.024154, -0.086123, -0.132101, 0.029122, 0.058117, 0.058306, 0.026362, 0.081331, -0.021924, 0.003139},
  {0.097255, 0.086678, -0.083796, 0.081250, 0.151574, 0.057891, 0.079321, 0.013196, 0.018276, -0.024492, -0.045447, -0.195609, 0.053257, 0.052879, 0.000768, 0.013965, -0.148098, 0.051111, -0.111258, -0.063535, -0.021434, -0.060159, 0.008887, 0.087669, 0.095964, -0.150259, 0.065092, -0.242523, 0.044297, 0.009584, -0.090326, -0.082186, 0.085618, 0.053347, -0.085378, 0.063912, -0.006605, 0.052215, -0.001130, 0.099835, -0.060374, -0.029070, -0.044343, 0.000429, -0.157715, 0.131890, 0.031105, -0.130767, 0.089376, 0.131198, 0.070090, 0.007048, -0.163004, 0.009301, -0.073853, 0.034807, 0.126772, -0.069560, -0.029901, 0.130705, 0.137135, 0.148001, 0.098375, 0.018454, -0.134288, -0.016040, 0.017264, -0.161907, -0.029524, -0.094698, 0.009317, -0.116501, 0.000149, 0.031162, 0.024402, 0.056040, 0.034775, -0.103960, -0.013302, -0.030186, 0.003925, 0.045587, 0.006445, 0.078351, -0.125251, 0.057366, 0.044835, 0.155983, 0.074354, 0.126800, 0.019391, -0.042060, -0.077251, -0.117832, 0.014014, 0.092134, -0.061341, 0.032213, -0.034935, -0.134685, -0.070766, 0.061725, 0.034220, 0.048529, 0.176388, 0.130816, -0.065127, 0.026449, 0.014658, 0.038489, -0.041720, 0.029074, 0.027934, 0.143954, 0.016905, -0.029846, -0.078038, 0.117665, 0.121053, -0.045130, -0.121600, 0.051444, -0.107715, 0.115270, 0.106423, -0.044277, 0.147121, 0.036593},
  {-0.095981, 0.004107, 0.192302, 0.002835, -0.006050, -0.085917, 0.016979, 0.024180, 0.136913, 0.010308, -0.048252, 0.061712, 0.023812, 0.014834, 0.062893, 0.016684, 0.035828, -0.026164, -0.051045, -0.021280, 0.104878, 0.024177, -0.012604, 0.041992, -0.032453, 0.061369, 0.089379, 0.056307, 0.092634, -0.002856, 0.118544, 0.006050, -0.032044, 0.067061, 0.026883, 0.022720, -0.004904, 0.054285, -0.053769, -0.035468, 0.115651, 0.193025, 0.084022, 0.130044, -0.030349, 0.064019, -0.033433, -0.000773, 0.012552, 0.048196, -0.003946, 0.084852, 0.130851, 0.150412, -0.065627, 0.051731, 0.073439, 0.084404, -0.042994, -0.014624, -0.058400, 0.045059, 0.208093, -0.055270, 0.017942, -0.125583, 0.044965, 0.096101, 0.161963, 0.183779, 0.130465, 0.035571, 0.022109, -0.064860, -0.024584, 0.053433, 0.076187, -0.066042, 0.121985, -0.008891, 0.062684, -0.071965, 0.096888, -0.037391, 0.140334, 0.011779, 0.113951, 0.046652, 0.050567, -0.032424, -0.023386, 0.116779, -0.056682, -0.103505, 0.034891, 0.039269, -0.012691, -0.019048, 0.045853, 0.031986, -0.062895, -0.090061, -0.024824, 0.036619, -0.045890, 0.055092, 0.120567, -0.042484, 0.072066, -0.035883, -0.062079, -0.078092, 0.092761, 0.030228, -0.034992, -0.028323, -0.137374, -0.004799, 0.083194, 0.003800, 0.010250, -0.025780, 0.066059, 0.087618, 0.147441, 0.020425, 0.046990, 0.081266},
  {-0.073564, 0.088618, 0.031383, 0.006569, -0.015475, -0.021356, -0.052439, 0.006312, 0.023662, -0.042767, 0.084217, -0.009479, 0.049113, 0.030214, -0.002380, 0.102737, 0.045628, 0.154381, 0.098710, -0.177605, 0.142167, -0.049802, -0.033420, -0.094858, -0.119986, -0.004032, -0.051126, -0.044793, -0.093243, 0.080439, -0.006326, 0.010521, 0.058038, -0.066239, 0.096827, 0.088999, -0.011722, -0.062603, -0.064815, 0.104783, 0.028347, 0.052081, 0.003349, 0.079013, -0.120593, 0.059457, 0.058221, -0.016785, 0.079740, 0.020854, 0.085446, -0.023142, 0.147966, 0.108621, -0.071981, -0.108442, 0.092979, -0.098572, 0.023916, -0.102113, -0.145466, 0.141396, 0.033420, -0.084422, -0.123900, -0.072848, -0.103528, 0.025580, 0.082744, 0.034069, 0.097980, -0.075129, 0.005390, 0.026536, -0.063672, -0.051555, 0.092356, 0.016586, -0.062342, -0.073212, -0.018781, -0.078138, -0.122610, -0.002178, 0.104473, 0.035273, -0.115995, 0.112923, 0.008140, 0.072424, -0.020232, 0.042212, -0.080189, -0.034145, -0.014583, 0.042707, -0.072730, 0.016582, 0.065761, -0.119174, 0.038269, 0.007671, 0.032456, -0.040604, -0.040244, -0.071763, -0.026664, 0.070058, -0.037557, 0.117034, -0.021083, 0.025009, 0.084826, -0.060771, -0.095235, -0.123591, 0.078443, 0.109597, 0.051422, 0.009106, -0.015941, 0.003910, -0.118994, 0.096490, -0.061574, 0.026799, -0.102599, 0.190794},
  {-0.053250, -0.007972, 0.200403, 0.096579, -0.048294, 0.069039, 0.052954, -0.001905, 0.041023, 0.025487, -0.074734, 0.042775, -0.029046, 0.008177, -0.001832, 0.049392, 0.022066, 0.029781, 0.051256, 0.061217, -0.003469, 0.026651, -0.129333, -0.032113, -0.059501, -0.140267, 0.055474, 0.032174, 0.007848, 0.111990, 0.107286, -0.016744, -0.109793, -0.036210, -0.029801, 0.089385, -0.054077, -0.120254, 0.108365, 0.051418, 0.011635, 0.134243, 0.011087, 0.100638, -0.188407, -0.031337, 0.095376, -0.047640, 0.037942, -0.020117, 0.086949, -0.094293, -0.004911, 0.107409, 0.106772, -0.058630, -0.042417, -0.074050, 0.066779, -0.008048, -0.119520, -0.022779, 0.058838, -0.049342, 0.015010, -0.169391, 0.099385, 0.014837, 0.006789, 0.000458, 0.014105, -0.103666, 0.015550, -0.016160, 0.092031, -0.062658, 0.033502, 0.026504, -0.098494, 0.138842, 0.048267, -0.089906, -0.005987, 0.160959, 0.138940, -0.016119, 0.061911, 0.128464, -0.097766, -0.059944, -0.064815, 0.072627, -0.060567, 0.063460, 0.050203, 0.039712, 0.202394, 0.103652, 0.017601, -0.100674, -0.078959, -0.154830, 0.133399, -0.005901, 0.062007, 0.117561, 0.058043, 0.099599, -0.114785, -0.011724, 0.031614, -0.002618, -0.045994, 0.078937, 0.108549, -0.207645, -0.019449, 0.042778, 0.160797, 0.120255, 0.020583, 0.011948, -0.105400, -0.023557, 0.112827, 0.025170, 0.016779, 0.166175},
  {0.126400, -0.032071, -0.076929, 0.068074, 0.060230, 0.119589, 0.055421, 0.093651, -0.067220, 0.124685, 0.049379, -0.025002, 0.011455, 0.033791, 0.078438, 0.240136, -0.158962, -0.020859, -0.104356, -0.016823, -0.053822, 0.044670, 0.169718, 0.147830, 0.071400, 0.074924, -0.024825, -0.059536, -0.043625, 0.109460, -0.060264, 0.164291, -0.075715, -0.047208, 0.149266, 0.152358, 0.056017, -0.139545, -0.055838, -0.045798, 0.062959, -0.049241, 0.189634, -0.070456, -0.032502, 0.111783, 0.158262, 0.068410, -0.037068, 0.067152, -0.007767, 0.081201, 0.059211, 0.127629, 0.121563, 0.092927, -0.024081, -0.055341, 0.029319, 0.000387, 0.106602, -0.043050, -0.083607, 0.000377, 0.076582, -0.030103, 0.142908, 0.040881, 0.051962, 0.030637, 0.037812, 0.140115, 0.052366, 0.061649, 0.150581, 0.006996, 0.060112, 0.030081, -0.048043, -0.008173, 0.076569, 0.067546, 0.097031, -0.064672, 0.082018, -0.046276, -0.072425, 0.183206, -0.016011, 0.083236, -0.141890, 0.053858, 0.111082, 0.000977, 0.149163, 0.068109, 0.035990, -0.013767, 0.182527, -0.018929, -0.046869, 0.005621, 0.026590, 0.013819, 0.052298, 0.078700, -0.019406, 0.088560, 0.027197, -0.079397, -0.132667, 0.016031, -0.025288, 0.058143, -0.088905, 0.010677, 0.030380, -0.049010, -0.067643, -0.075596, -0.039856, -0.058680, -0.034832, 0.087914, 0.075171, 0.032813, -0.029982, -0.041051},
  {-0.151061, 0.047437, -0.019626, 0.027581, 0.027099, 0.036518, 0.029237, 0.101922, -0.023809, 0.131330, 0.128362, -0.000622, 0.124246, 0.126428, 0.077005, -0.026874, 0.080381, -0.053931, -0.061769, -0.072052, 0.096702, -0.058289, 0.030131, 0.073520, 0.125542, 0.116692, 0.115180, 0.076985, -0.018538, -0.025685, 0.021116, 0.025437, 0.183437, 0.009547, 0.069842, -0.037532, 0.152482, -0.034484, -0.034834, 0.087452, 0.027444, 0.014286, 0.091905, 0.096030, 0.097217, 0.037018, 0.079525, 0.011453, 0.084999, 0.123629, -0.042867, -0.060303, 0.000509, 0.013670, 0.005181, -0.010622, -0.011400, 0.035369, 0.134073, -0.002153, -0.012581, 0.062954, 0.115788, -0.082815, -0.041800, -0.073784, -0.072353, 0.152544, 0.030245, -0.005317, 0.056069, 0.049958, 0.031952, -0.089413, 0.086012, -0.010296, 0.100343, -0.012279, 0.018772, -0.107861, 0.016836, -0.140901, 0.131343, 0.005631, 0.145456, -0.017621, 0.074141, 0.009560, -0.056458, 0.050189, 0.125155, -0.006038, -0.046575, 0.007600, -0.022211, 0.072321, -0.032052, 0.063587, 0.067229, -0.083393, -0.042972, 0.160409, -0.029063, 0.213045, -0.051271, 0.104147, -0.042887, -0.045171, -0.031596, 0.171049, 0.007663, -0.006128, -0.027621, 0.115243, -0.067094, -0.000400, -0.009758, 0.024291, 0.127522, -0.015173, -0.081957, 0.013693, 0.059277, 0.054086, 0.106654, 0.066499, -0.141743, 0.012347},
  {-0.061829, -0.111204, 0.022977, 0.041276, 0.019615, -0.079656, 0.027689, 0.035323, 0.057098, -0.046262, -0.019419, 0.021447, 0.086522, -0.091801, 0.052528, 0.009860, 0.134857, 0.090105, 0.052329, 0.118509, -0.017175, 0.049411, 0.077996, -0.007813, -0.092497, -0.014262, -0.035273, 0.165411, 0.056665, 0.065270, 0.088346, 0.112652, 0.067115, 0.031273, 0.077066, 0.049084, -0.148199, -0.017920, 0.033766, -0.009312, 0.007674, -0.088665, 0.011855, -0.042594, 0.150404, -0.160079, 0.052394, 0.146827, 0.055169, -0.021748, 0.059608, 0.066671, 0.137458, 0.014484, -0.057927, -0.058717, -0.032239, 0.112696, 0.107431, 0.035609, -0.097800, 0.040457, -0.044569, 0.020419, -0.024177, -0.039361, 0.110006, 0.133508, -0.009240, 0.085626, 0.015782, 0.043567, 0.104306, 0.130878, -0.012171, -0.035279, 0.079800, 0.054699, 0.005071, 0.139322, -0.070497, -0.005733, -0.108768, 0.072091, -0.046016, 0.072013, -0.000271, -0.051015, 0.021372, 0.044350, 0.000598, 0.031705, -0.025092, 0.108121, 0.014874, 0.051035, 0.076188, 0.036418, 0.025085, 0.143077, -0.001141, -0.068769, -0.030189, -0.119997, -0.066697, -0.041992, 0.083611, 0.047956, 0.097879, -0.037556, 0.092731, 0.085604, -0.003558, -0.088007, 0.034003, 0.045146, 0.187310, 0.024821, -0.155080, 0.077281, 0.047624, 0.097629, -0.065591, 0.033938, -0.031113, 0.084590, 0.088490, -0.030084},
  {0.134050, -0.054636, -0.058209, 0.081753, 0.090203, 0.030565, -0.019249, -0.064908, -0.057827, -0.066376, 0.015602, 0.030209, -0.100155, 0.095970, 0.088624, 0.002379, 0.212719, 0.018472, 0.113638, -0.077320, 0.100358, 0.127921, 0.005094, 0.099415, 0.120888, 0.092046, -0.001017, 0.128896, -0.079109, 0.166466, -0.009630, 0.219202, -0.051126, -0.044770, 0.021410, 0.047339, 0.072257, -0.146332, 0.020590, -0.110952, 0.090584, -0.120376, 0.129053, 0.087414, -0.028360, -0.009779, 0.141461, -0.045183, 0.098722, -0.113404, 0.034703, -0.025741, 0.049147, 0.081798, 0.132455, 0.036658, -0.032467, -0.037032, -0.060312, -0.021885, 0.050297, 0.107436, -0.032235, 0.026020, 0.100960, 0.011973, 0.219049, 0.029607, -0.013601, 0.083519, -0.028308, 0.038512, 0.016080, 0.192581, 0.097571, -0.000851, 0.067587, 0.141152, -0.033858, -0.037690, -0.027371, -0.008975, 0.037381, 0.050327, 0.037168, 0.049818, -0.098862, 0.081854, -0.033546, -0.040268, 0.043538, -0.010429, 0.145614, 0.072489, 0.111309, -0.031877, 0.158618, -0.040574, 0.067452, -0.020828, -0.092658, -0.098793, -0.030319, -0.057347, 0.026522, -0.064649, 0.034397, 0.073230, -0.079349, -0.038319, -0.129351, 0.124421, -0.074102, -0.015730, 0.047490, 0.000409, 0.170208, 0.153702, -0.053255, -0.001632, 0.124897, 0.032928, -0.146530, -0.002293, -0.029038, 0.114168, -0.003584, -0.006444},
  {0.124184, 0.096644, 0.082718, -0.009211, -0.075815, 0.010500, 0.107857, -0.016820, 0.034023, -0.088417, 0.114013, 0.001972, -0.061358, -0.139945, 0.012333, -0.062906, 0.047333, -0.001453, 0.073379, -0.019588, 0.082415, 0.078801, 0.125350, 0.055191, 0.033677, 0.049339, 0.045849, 0.000964, -0.100095, -0.022282, 0.050514, 0.038024, -0.116768, 0.101947, 0.079825, -0.085605, -0.102390, 0.055472, 0.134174, 0.019109, 0.059633, 0.066781, -0.065033, 0.122508, -0.036322, -0.039404, -0.019720, -0.090576, -0.003278, -0.010917, -0.048083, 0.039808, 0.103677, 0.078350, 0.129155, 0.036380, -0.025583, -0.059609, 0.002931, 0.118784, 0.040498, -0.049350, -0.004278, -0.030859, -0.042197, 0.080062, 0.076686, -0.004685, -0.092523, 0.073089, 0.111915, -0.020356, -0.071581, -0.109422, 0.097890, 0.060452, -0.123900, 0.044444, -0.147407, 0.173287, -0.039520, 0.022690, -0.077168, 0.128860, 0.099648, 0.023362, 0.091327, -0.030764, -0.072201, -0.090910, -0.002660, -0.045427, 0.106029, 0.193911, -0.129815, 0.018575, 0.000596, 0.075933, -0.117371, 0.135388, -0.021855, -0.113262, -0.035139, 0.012897, 0.168016, -0.006686, 0.010206, 0.080954, 0.133002, -0.001587, 0.078495, 0.022563, -0.066855, 0.010446, 0.162247, 0.054383, -0.049412, 0.070025, -0.048113, 0.134500, 0.014086, 0.084005, 0.077334, -0.060502, 0.140147, -0.134940, 0.014695, 0.114295},
  {0.015346, -0.025629, -0.058010, 0.098651, 0.093866, 0.192999, 0.140461, 0.057867, -0.038558, 0.058663, 0.082062, -0.056002, 0.010250, 0.076111, 0.113205, 0.130786, -0.125090, -0.024806, -0.142963, 0.011855, -0.038765, -0.058712, 0.087016, 0.170965, -0.016817, -0.128704, 0.037464, -0.101799, -0.001483, 0.059411, -0.009852, 0.094702, -0.053064, -0.076322, 0.052769, 0.071395, -0.060727, -0.000007, 0.159933, 0.012077, -0.087671, 0.031123, 0.155447, -0.010958, -0.104190, 0.012505, 0.070550, 0.051961, 0.082313, 0.017446, 0.058344, -0.109788, 0.104660, 0.171109, 0.021211, -0.007028, 0.072413, -0.021850, 0.021306, 0.018973, -0.055193, -0.029407, 0.004760, 0.089865, 0.005246, -0.075762, 0.176793, 0.004307, -0.089794, 0.002406, 0.085088, 0.074669, 0.105112, 0.033798, 0.057058, 0.083676, 0.152578, 0.114007, -0.083082, -0.040921, 0.041975, 0.039511, 0.080165, -0.015967, 0.075039, 0.100379, -0.023342, 0.158632, -0.090315, 0.097659, -0.094551, -0.050527, 0.046181, -0.093776, 0.112846, 0.089621, -0.023778, -0.163039, 0.165894, 0.005906, -0.104616, -0.035780, 0.098332, 0.005854, 0.102274, 0.103778, -0.064548, 0.013307, -0.099147, -0.079933, 0.007514, 0.179040, -0.024047, 0.007611, 0.006713, -0.027555, 0.040050, 0.056709, 0.109817, 0.022046, -0.031548, 0.146290, -0.077366, 0.021562, 0.060524, -0.032462, 0.061903, -0.018301},
  {-0.047564, 0.003118, 0.046206, -0.059733, -0.009593, -0.103560, -0.073158, 0.077578, -0.050842, 0.060541, 0.043766, 0.083976, 0.204064, 0.039717, 0.062088, -0.008010, 0.064532, -0.019300, 0.182513, 0.043432, 0.118366, -0.076903, 0.029040, 0.001710, 0.049338, 0.136489, -0.057034, 0.122397, -0.086883, 0.174680, -0.085953, 0.054712, 0.120529, 0.015361, -0.022819, 0.016932, 0.114508, 0.005878, 0.020122, 0.077364, -0.051400, -0.156070, -0.022775, 0.004474, 0.085949, 0.057544, -0.030104, 0.056257, 0.179816, 0.082968, -0.076593, -0.016573, -0.044276, -0.069541, -0.005637, 0.061393, -0.045202, 0.002366, 0.104401, 0.033976, 0.052457, 0.115837, -0.025885, -0.106810, -0.068234, 0.136841, 0.046595, 0.097828, 0.060856, 0.080757, 0.066711, 0.131823, 0.047381, 0.002474, 0.085819, -0.041529, -0.132072, -0.012782, 0.000321, -0.012790, 0.063319, 0.069985, 0.092585, 0.141711, 0.007954, -0.029237, 0.049108, 0.054325, -0.015053, 0.018923, 0.051006, -0.081294, 0.033540, 0.056604, 0.077690, -0.042257, -0.035580, -0.019518, 0.022676, 0.142835, 0.138700, 0.115771, 0.160387, 0.047117, 0.118516, -0.155589, 0.084747, -0.025616, -0.100561, -0.008209, -0.030738, 0.098615, 0.016589, -0.055921, 0.069976, 0.001973, 0.162502, -0.029572, -0.086061, 0.058841, 0.000074, 0.051555, -0.013550, 0.074382, -0.121642, 0.114114, -0.009842, -0.049430},
  {0.040391, -0.034366, -0.069306, -0.041621, -0.013270, 0.029561, 0.092665, -0.021447, 0.011384, -0.031027, -0.078329, 0.169400, 0.009039, -0.054087, -0.066228, -0.078330, 0.115847, 0.125220, -0.093460, -0.036267, 0.009509, 0.148554, 0.063603, 0.123087, 0.139478, -0.021444, 0.081254, 0.136263, 0.046974, 0.022020, 0.022385, 0.189364, -0.045976, 0.073417, 0.121152, 0.016809, 0.043157, -0.066695, -0.021174, -0.009773, 0.057629, 0.008146, 0.057170, 0.006201, 0.040891, 0.093973, 0.004997, 0.000534, -0.068395, -0.082409, -0.059320, 0.133648, 0.113705, 0.101772, 0.116261, -0.013838, -0.091520, 0.078015, -0.041074, 0.053894, 0.058546, 0.011266, 0.034169, 0.116558, 0.101902, 0.128291, 0.052533, 0.171521, 0.115941, 0.111690, -0.082152, 0.154565, -0.004223, 0.056366, 0.022375, 0.071160, 0.058336, 0.018991, -0.059003, 0.078027, 0.100652, -0.014491, 0.119685, -0.044686, 0.031371, 0.087169, 0.094757, -0.071089, -0.021470, 0.036259, 0.072367, 0.114442, 0.081591, -0.015293, -0.025393, 0.061301, -0.012954, -0.115185, -0.064713, 0.150387, -0.089526, -0.074431, -0.002885, 0.029318, -0.010191, 0.108157, 0.034524, -0.099638, 0.006746, -0.065653, 0.083115, -0.015921, -0.025031, 0.093419, 0.060631, 0.126696, -0.004988, -0.040174, -0.012039, -0.093919, 0.107911, -0.013588, 0.049051, -0.045697, 0.055140, 0.104922, 0.032805, 0.015531},
  {-0.037992, 0.095990, -0.066057, -0.011784, -0.016402, -0.020626, 0.039999, 0.054446, 0.235485, -0.005367, -0.089336, 0.017033, 0.071860, 0.110399, -0.105249, -0.089225, 0.036601, 0.194867, 0.000280, -0.002462, -0.039105, 0.063379, -0.059460, -0.104118, -0.033883, 0.027733, 0.121980, -0.013604, 0.074126, 0.001077, 0.019578, 0.057116, 0.104265, 0.044025, 0.095873, -0.000459, 0.003892, 0.072730, 0.016014, 0.143513, 0.052631, -0.064327, -0.004191, 0.090016, -0.028922, 0.023895, 0.001608, 0.034635, 0.055682, 0.089031, 0.116670, 0.108141, 0.059598, 0.167865, -0.034432, 0.064281, 0.076772, 0.103231, -0.028897, 0.087257, -0.015650, 0.137471, 0.007871, -0.051845, -0.037837, 0.016744, -0.055886, -0.155171, 0.108910, 0.064464, -0.030255, -0.101117, -0.082969, 0.040240, -0.143939, 0.044769, 0.010360, -0.067717, 0.101375, 0.075917, 0.029723, -0.033939, 0.005192, 0.046340, -0.139148, 0.003343, -0.055345, 0.003716, 0.138828, -0.047985, -0.027149, 0.037909, -0.062587, -0.064636, -0.070592, 0.036240, 0.099617, 0.064886, -0.055089, 0.050752, -0.054639, 0.051798, 0.047774, 0.041358, 0.016518, -0.010397, 0.088984, 0.049479, 0.058815, 0.116535, 0.077962, 0.041619, 0.123801, 0.070330, 0.047991, 0.109693, 0.162492, -0.006487, 0.073726, 0.010520, 0.026037, 0.159336, -0.007647, 0.123477, -0.064551, -0.063528, 0.177794, 0.111955},
  {0.118725, -0.015724, -0.091226, 0.068507, 0.058767, -0.011248, 0.091154, -0.070633, -0.148949, -0.144818, -0.006908, -0.082299, -0.019879, 0.061450, 0.079262, 0.076999, 0.148732, -0.210284, 0.094076, 0.071681, 0.061180, 0.178549, 0.012139, -0.163725, -0.096189, 0.052526, -0.026689, -0.030776, 0.012558, 0.017864, -0.058862, -0.174175, 0.090943, 0.056542, -0.134165, 0.024392, 0.108172, 0.067769, 0.050559, -0.080934, -0.140987, -0.168372, 0.083780, -0.180457, 0.059182, -0.076767, 0.068958, -0.072877, -0.134693, -0.078648, -0.111475, 0.024711, -0.147880, -0.207440, -0.051218, -0.141711, -0.132268, -0.128302, 0.012777, 0.042143, 0.067332, 0.069777, -0.108494, 0.063405, -0.118939, 0.121850, -0.062142, -0.022333, -0.046320, -0.156312, -0.110325, -0.055009, 0.042238, 0.036998, 0.081738, 0.036253, -0.062052, 0.001689, -0.112936, 0.110744, -0.147237, 0.183202, -0.058732, 0.096245, -0.105569, -0.160686, -0.027484, 0.022558, -0.150354, -0.051373, 0.100945, -0.003015, 0.048707, -0.071334, 0.047809, 0.060289, -0.003416, 0.061867, -0.043374, -0.109969, 0.001717, -0.025074, -0.142494, -0.147814, 0.048514, -0.024345, -0.078147, 0.013531, 0.060197, -0.001318, 0.004341, 0.012520, -0.171777, -0.025850, -0.034669, 0.072485, 0.044300, -0.012562, -0.110294, 0.001240, 0.130270, 0.058947, 0.005699, -0.099653, 0.000757, 0.069179, 0.130301, 0.027911},
  {-0.033687, -0.058909, 0.161078, -0.030142, -0.050117, -0.125411, -0.015570, -0.037848, 0.038958, -0.061510, -0.035728, 0.022098, 0.019972, 0.096311, -0.041961, 0.075974, 0.129336, 0.082856, 0.113950, 0.004616, 0.070363, 0.004297, -0.087515, -0.086607, -0.051824, 0.041691, -0.021558, 0.161993, 0.039815, 0.145170, 0.049615, 0.097162, 0.009577, -0.104262, -0.050934, 0.113600, -0.035817, -0.174835, 0.049356, 0.016471, 0.125222, -0.027500, -0.001462, 0.112586, -0.058124, -0.121720, 0.080130, -0.083977, -0.016148, -0.027270, 0.054592, -0.112798, -0.000757, -0.072871, 0.084134, 0.001468, -0.053083, -0.030429, 0.025144, 0.051488, -0.034792, 0.028577, -0.088899, -0.017801, 0.058856, -0.011956, 0.130761, 0.095416, 0.071293, 0.030604, -0.068084, -0.002544, -0.017483, 0.107772, 0.006124, 0.044506, 0.036087, 0.174480, -0.113485, 0.128688, -0.070095, 0.082765, 0.036179, -0.011940, -0.056290, 0.073639, 0.126783, 0.109559, -0.037803, -0.015848, 0.053312, -0.007104, -0.021221, 0.127232, 0.091819, 0.011293, 0.206873, 0.082522, -0.053731, -0.010566, 0.057185, 0.030339, 0.095292, 0.006710, 0.069164, -0.026866, 0.035212, 0.072909, -0.082705, -0.086677, -0.040836, 0.037782, -0.025508, 0.014693, -0.016599, -0.137230, 0.012010, 0.136664, -0.026654, 0.085038, 0.134597, 0.024356, -0.076893, -0.021383, 0.029480, 0.050154, -0.038049, -0.047356},
  {0.055690, -0.117877, -0.083061, -0.014203, -0.011568, 0.101009, -0.039706, -0.013083, 0.092707, 0.042933, -0.003640, -0.099985, 0.014704, -0.091575, -0.033036, -0.091543, -0.063124, 0.102923, -0.006125, -0.010476, 0.081297, -0.028122, 0.156046, 0.048488, 0.070973, 0.105348, -0.022194, -0.028913, -0.010594, -0.029195, 0.016910, 0.130883, 0.076426, -0.001388, 0.136331, -0.041520, 0.031933, 0.126619, -0.007859, -0.052949, -0.075265, -0.019318, -0.019736, -0.026011, 0.021120, -0.031366, -0.074342, 0.056623, -0.063276, 0.069136, 0.044303, 0.153711, 0.018084, 0.022541, 0.082663, 0.023383, 0.060510, -0.015862, -0.060942, 0.181923, 0.079097, 0.017897, -0.043254, -0.036241, 0.005550, 0.054611, 0.039725, -0.033331, -0.040647, -0.044658, 0.183316, 0.056075, 0.019314, 0.008028, 0.067375, -0.018153, -0.149387, -0.055234, -0.046314, 0.019101, -0.005018, 0.085779, 0.012021, -0.076627, 0.134174, -0.095217, -0.025140, -0.041473, 0.088978, -0.035060, -0.113834, 0.080109, 0.030014, 0.116639, 0.023797, -0.017183, -0.127770, 0.094029, 0.054835, 0.144972, 0.080526, 0.070900, -0.027800, -0.013545, 0.055807, 0.001416, 0.097302, -0.029449, -0.006940, -0.073602, -0.006447, 0.092249, -0.021908, 0.094642, 0.122099, 0.107413, -0.032551, -0.134546, -0.131727, 0.016432, 0.059097, 0.074036, 0.107939, 0.041507, 0.130150, -0.094979, 0.101862, 0.163345},
  {0.088296, -0.036227, -0.019504, -0.051345, 0.001610, 0.099593, -0.048076, 0.004302, -0.014452, -0.007954, -0.051766, 0.044060, 0.042009, -0.036783, 0.067956, -0.031261, 0.014754, -0.037062, -0.065228, 0.107312, -0.019228, 0.070233, 0.128556, 0.109885, 0.017761, -0.059341, 0.024708, 0.060511, 0.094388, -0.031492, 0.066012, 0.078654, 0.016564, 0.112681, 0.105448, -0.045769, 0.086683, 0.039662, -0.041310, 0.051393, 0.094413, 0.078815, 0.030613, 0.022331, 0.049651, -0.066682, 0.005089, -0.031484, -0.099214, 0.063958, 0.018108, 0.189428, -0.026710, 0.009265, 0.036356, 0.115592, -0.048846, 0.115176, 0.065406, -0.030072, 0.121299, -0.099690, -0.011996, 0.132954, 0.050764, 0.038316, -0.041590, 0.015181, 0.097229, -0.054273, 0.079779, -0.063082, -0.039898, 0.062493, 0.070827, 0.144539, 0.045123, 0.071775, -0.048577, 0.033885, 0.029069, 0.082076, 0.122957, -0.077586, 0.069249, -0.065155, 0.000842, -0.019429, 0.022726, -0.005980, -0.040513, 0.138128, 0.110311, 0.078241, -0.018039, 0.061393, -0.078996, -0.072227, -0.107970, 0.097629, 0.086016, -0.001433, 0.057114, 0.026425, 0.128876, -0.052710, -0.002876, -0.079946, -0.000688, 0.039704, -0.023179, -0.027189, -0.065942, 0.091240, -0.026286, 0.043466, -0.064958, 0.041167, -0.049659, -0.047256, 0.066825, -0.013771, 0.106138, -0.068791, 0.075631, 0.022552, 0.096854, 0.017362},
  {0.040695, -0.099740, -0.091545, 0.024831, 0.097110, 0.083607, -0.005015, 0.116464, -0.214249, -0.086846, 0.006042, -0.098124, -0.109069, 0.019974, 0.017140, 0.031921, -0.150506, -0.089440, -0.005651, -0.037917, 0.066293, 0.057157, 0.002486, 0.096350, 0.034617, -0.058644, -0.090703, -0.133479, -0.003808, 0.038806, -0.023093, -0.167779, -0.040430, -0.084872, -0.013693, 0.074996, -0.002828, -0.069866, 0.002678, -0.065873, -0.143251, 0.062286, 0.086614, -0.070580, -0.143418, 0.009090, 0.081097, -0.037930, -0.106233, -0.066435, -0.132793, -0.132803, -0.004326, 0.150678, -0.029287, 0.009341, 0.081325, -0.150441, 0.084582, -0.096986, -0.023579, 0.066903, -0.010706, 0.065425, -0.102945, 0.000413, 0.064118, -0.073732, -0.138969, 0.024851, 0.150051, -0.058217, -0.006132, 0.027695, 0.003395, 0.009806, 0.182455, -0.070667, -0.128827, -0.057794, -0.114219, -0.014016, -0.149301, 0.053558, -0.006296, -0.139821, 0.021026, 0.137135, -0.037646, 0.045836, -0.080219, -0.134179, 0.001409, -0.146252, 0.126351, 0.034991, 0.119688, -0.012118, 0.178369, -0.283130, 0.073650, -0.030041, 0.009943, 0.053087, 0.078333, 0.079397, -0.188679, 0.125199, 0.003264, 0.056023, -0.043736, -0.016036, -0.180973, -0.062316, -0.197256, -0.144586, -0.000842, -0.020582, 0.075536, 0.028193, -0.116107, 0.050428, -0.067830, -0.064210, 0.125978, -0.140030, 0.026491, 0.026866},
  {0.008230, -0.033307, 0.076908, -0.021422, 0.014381, 0.043040, -0.010895, 0.065620, 0.037643, -0.069118, 0.114772, -0.153113, 0.087989, 0.092247, 0.127949, 0.068242, -0.156531, -0.084130, -0.023028, 0.007066, -0.002114, 0.006915, -0.008104, -0.071221, -0.147274, -0.117330, 0.082579, -0.109070, 0.028138, 0.092084, -0.001843, -0.160386, 0.076745, -0.030125, -0.117391, 0.028234, -0.097666, 0.011026, 0.019241, 0.014929, -0.087867, -0.050670, 0.017776, 0.014152, -0.017452, 0.048747, -0.020427, 0.090815, 0.013428, 0.079346, -0.023222, -0.032687, -0.178955, 0.009853, -0.077170, 0.002968, 0.036230, -0.055174, 0.159832, -0.125718, 0.005625, 0.030084, 0.045007, -0.064178, -0.178694, 0.013067, 0.005509, -0.020405, 0.008308, -0.035950, 0.068484, -0.047222, 0.067550, 0.098982, -0.006641, 0.039669, 0.078933, -0.054465, 0.046543, -0.070601, 0.027663, -0.011512, -0.053083, 0.137471, 0.094012, 0.069492, -0.036966, 0.045688, -0.042951, 0.098075, 0.058011, -0.160366, -0.020663, -0.011678, 0.125646, 0.087654, 0.102657, -0.040035, 0.004057, -0.028981, 0.101377, -0.004992, 0.062998, 0.132447, 0.187848, 0.129307, -0.114806, 0.105104, -0.060491, -0.082825, 0.029170, 0.099656, -0.045233, 0.057659, 0.144160, -0.113118, 0.059057, 0.124602, 0.011428, 0.134173, -0.072515, 0.109205, -0.064157, 0.052027, -0.006723, -0.112795, 0.083668, -0.000317},
  {0.044216, -0.144323, -0.005662, -0.029714, -0.073576, -0.042660, -0.017550, 0.134305, -0.100376, 0.131843, 0.076423, 0.127600, 0.174631, -0.048772, 0.111826, 0.064678, 0.090696, -0.085407, -0.023686, -0.050747, 0.067810, 0.045779, 0.000423, -0.059114, -0.024093, 0.131559, 0.004218, -0.007621, 0.004615, -0.163707, -0.039883, 0.105687, 0.092080, 0.017670, 0.157989, 0.008104, 0.075563, 0.033582, 0.006499, -0.048514, -0.018976, 0.067811, 0.003471, -0.075576, 0.118114, -0.027777, 0.080985, 0.032308, 0.020545, -0.047194, 0.030555, 0.056500, 0.003277, 0.131968, 0.022023, -0.028467, 0.044775, -0.059341, 0.007175, 0.160324, 0.059478, 0.027220, 0.031920, 0.094541, -0.036066, 0.136118, -0.013353, 0.100271, -0.055540, 0.003840, 0.088750, 0.063048, 0.092778, 0.012783, 0.089624, 0.036627, -0.012362, -0.004800, 0.055900, 0.005771, 0.092584, -0.052958, 0.128878, 0.044431, 0.128958, -0.103454, -0.076212, -0.057764, -0.011197, -0.113929, 0.017018, -0.020592, 0.031042, 0.064051, 0.132661, 0.047790, -0.120032, 0.051698, 0.125098, 0.005876, 0.007394, 0.048138, -0.047903, 0.082731, 0.017113, 0.066193, -0.022823, 0.084326, 0.066406, -0.020765, 0.060089, 0.079604, -0.062113, 0.185438, -0.027786, 0.023942, -0.009611, -0.084609, 0.087179, 0.026199, 0.032151, 0.064101, 0.131452, -0.036825, 0.092990, 0.047294, -0.045916, 0.040139},
  {-0.046580, -0.048467, -0.036381, 0.065589, 0.030035, 0.021235, 0.007251, 0.102474, 0.033861, 0.136860, -0.010232, 0.025468, -0.036254, 0.120150, 0.172763, 0.050950, 0.035104, -0.089155, 0.076306, -0.036524, 0.011516, 0.081318, -0.038740, -0.046610, -0.075814, 0.039864, -0.045093, 0.017144, 0.018742, -0.003043, -0.080461, 0.009477, 0.094413, 0.012181, 0.137521, 0.035654, 0.054680, -0.032931, -0.039578, 0.060671, 0.119347, -0.070838, 0.133327, -0.011732, 0.181483, 0.006785, 0.103803, 0.054721, -0.070929, -0.034741, -0.004996, -0.018998, 0.097117, -0.028525, -0.125479, 0.102624, 0.067305, 0.061964, 0.018194, -0.135230, 0.041161, 0.034306, -0.006240, 0.046747, 0.060656, 0.057115, 0.089094, 0.121067, 0.115385, -0.022854, 0.030951, 0.103938, 0.113276, 0.043755, 0.154030, 0.077472, 0.104755, 0.032684, 0.031607, -0.094091, -0.022737, 0.088976, -0.048885, 0.044506, 0.047989, 0.062336, -0.122816, 0.025372, -0.042554, 0.122350, -0.087833, -0.013679, 0.168368, -0.141284, 0.200793, 0.046961, -0.092988, 0.085432, 0.191487, -0.085084, -0.026725, -0.005884, -0.107766, 0.001561, -0.093098, 0.079158, 0.054749, 0.077768, 0.081117, 0.036068, -0.025741, 0.145041, 0.085157, 0.056249, -0.184007, -0.113285, 0.014870, -0.025834, 0.018399, -0.031388, 0.088401, 0.009322, -0.057120, -0.029073, -0.131505, 0.145515, -0.035727, -0.044512},
  {-0.094767, 0.079295, 0.024906, 0.017477, -0.077129, -0.166615, 0.066021, 0.083826, 0.167989, 0.043892, -0.035799, 0.199453, -0.025968, -0.062836, 0.029341, -0.021632, 0.256353, 0.159278, 0.079912, -0.076540, 0.169095, -0.013746, -0.026920, -0.093175, 0.085418, 0.026552, 0.051639, 0.167336, -0.018882, -0.010594, 0.046248, 0.126474, -0.021942, -0.112430, 0.150875, 0.052960, 0.057539, -0.025336, -0.048482, 0.007692, 0.162601, -0.039260, 0.049131, 0.130675, 0.025577, 0.023199, 0.028327, 0.076300, 0.055778, -0.072179, 0.157806, -0.010144, 0.178765, 0.055719, 0.006048, -0.112286, -0.114186, 0.020804, 0.034320, 0.120760, 0.039893, -0.019236, -0.027597, -0.087658, 0.011084, 0.045186, 0.143436, 0.160542, 0.041359, -0.039682, -0.102096, 0.083599, -0.010508, 0.055338, -0.002145, -0.000923, 0.004672, 0.144362, 0.057262, 0.034451, 0.100182, -0.006435, 0.026736, 0.002092, 0.041933, 0.110079, 0.042824, 0.005049, 0.041994, 0.006490, 0.068628, 0.099592, 0.055085, 0.114119, 0.018872, 0.044967, 0.025190, 0.060814, 0.024881, 0.005848, 0.011380, 0.034513, -0.034703, -0.013856, 0.004816, -0.059549, 0.127807, 0.030101, -0.039592, 0.156062, 0.073471, 0.073912, 0.033880, -0.033076, -0.033331, 0.040907, 0.184642, 0.030880, -0.004532, 0.010455, 0.061884, -0.060399, -0.109925, 0.020037, -0.019500, 0.169907, 0.052445, 0.159698},
  {-0.019494, 0.103835, 0.054102, 0.024809, 0.071960, 0.112474, 0.122325, 0.066311, 0.052920, 0.036921, 0.016847, -0.010934, -0.078128, 0.055333, 0.004457, 0.113193, -0.049149, 0.110230, -0.021085, 0.019810, -0.009820, -0.047484, 0.050897, 0.120122, 0.047974, -0.016716, 0.002669, 0.012693, 0.135523, 0.127510, 0.111084, 0.089101, -0.063647, -0.029142, 0.103720, 0.170709, -0.028966, 0.011119, 0.039322, 0.010500, 0.032526, 0.115368, 0.113417, 0.029735, -0.087269, -0.016260, 0.120269, -0.071020, -0.089734, -0.042926, 0.055705, -0.124580, 0.171972, 0.101841, -0.061974, -0.037672, 0.023881, 0.091444, -0.067501, 0.022723, -0.089734, 0.077244, 0.146238, -0.036064, 0.090159, -0.105228, 0.064529, 0.058070, 0.083779, 0.127390, -0.073251, -0.038309, -0.062299, -0.012818, -0.021080, 0.091351, 0.123006, 0.070751, 0.038400, -0.045074, 0.156346, 0.012554, 0.060896, -0.049794, -0.027616, 0.159804, -0.008320, 0.027089, -0.001597, 0.129701, -0.092526, 0.069058, -0.071898, -0.052755, -0.069199, 0.022352, 0.149716, -0.050198, 0.120637, -0.031693, -0.077442, 0.070241, 0.099102, 0.059741, 0.023182, 0.149591, 0.020682, 0.143977, -0.043351, 0.041023, -0.081489, -0.002861, 0.052983, 0.098800, -0.029191, -0.055713, -0.051089, 0.159289, 0.102168, 0.032497, -0.088073, 0.057112, -0.144705, 0.035273, 0.097878, 0.080052, -0.033166, 0.105459},
  {-0.038046, -0.065479, 0.064112, -0.026691, 0.076574, 0.023714, 0.151682, -0.058939, 0.028384, 0.080487, -0.082474, 0.042085, 0.156276, 0.037421, 0.056159, -0.023784, -0.082473, 0.001441, -0.149005, 0.113884, -0.108537, 0.047530, 0.122650, 0.016039, -0.080250, 0.013658, 0.051792, 0.070654, 0.129764, -0.068632, 0.222319, -0.036630, 0.004709, -0.024817, -0.123377, -0.027498, -0.134584, 0.158897, 0.012361, -0.020446, 0.004677, -0.027281, -0.088014, 0.005695, -0.013066, -0.090601, 0.001319, 0.076127, 0.037400, 0.079294, 0.044791, -0.004923, -0.005000, 0.023968, -0.114318, -0.118233, -0.011634, 0.063234, 0.095514, 0.082836, -0.031338, -0.089397, 0.074264, 0.047611, 0.032551, 0.068732, 0.022388, 0.009847, -0.052069, 0.065344, -0.076378, 0.017972, -0.053492, -0.023728, -0.096793, 0.034734, 0.094515, -0.042372, 0.005032, 0.108711, 0.124624, 0.042624, -0.069296, 0.135329, 0.017559, -0.030033, 0.088871, 0.050717, -0.032512, -0.024717, 0.117118, -0.028893, 0.021588, -0.001367, -0.022072, 0.001273, -0.041120, -0.037899, 0.075727, 0.126362, -0.072571, 0.058253, -0.073364, 0.009630, 0.102306, 0.216485, -0.054676, 0.078822, 0.126249, 0.026925, 0.078763, 0.022944, 0.096182, -0.088769, 0.127093, 0.054240, -0.023328, -0.094237, 0.049387, 0.168302, 0.115611, 0.138687, 0.100193, -0.033517, -0.026356, 0.004600, 0.051658, -0.012447},
  {-0.066907, 0.005056, -0.055605, 0.093130, -0.045268, 0.088753, -0.074138, 0.118635, 0.020218, 0.131178, 0.158166, -0.034999, 0.036715, 0.018420, 0.073445, 0.054966, -0.043449, 0.089779, 0.159734, -0.118629, 0.127941, -0.056511, -0.014529, 0.033028, -0.013352, 0.009882, -0.003364, 0.047781, -0.059112, -0.057592, -0.095792, -0.096807, 0.016353, 0.016141, 0.072583, -0.017677, -0.016534, 0.064594, -0.072052, 0.099362, 0.065605, -0.026755, -0.018826, -0.040390, -0.074615, 0.049020, 0.068275, 0.051257, 0.055915, -0.025299, 0.124925, -0.083918, 0.035074, 0.107798, 0.011667, 0.003841, 0.039215, -0.012472, 0.096311, 0.086520, -0.055930, -0.011482, -0.037874, -0.026348, -0.105125, -0.030700, 0.105948, -0.102630, -0.026848, 0.018648, 0.097912, 0.095618, 0.073112, -0.023387, -0.060910, -0.055722, -0.004683, 0.029129, 0.000200, 0.051920, -0.083722, -0.069526, 0.009801, -0.049850, 0.055389, -0.075647, -0.058320, -0.004225, 0.022953, 0.091724, -0.135673, 0.092610, -0.088161, 0.054692, 0.033449, 0.022281, -0.036440, 0.128068, 0.065177, 0.074986, 0.084522, 0.089122, -0.030379, -0.025736, -0.123451, 0.079747, 0.081138, 0.055998, 0.043392, 0.085715, -0.064032, 0.017951, 0.080191, -0.045839, -0.036439, -0.002503, 0.082234, -0.039019, -0.059881, 0.020161, -0.006280, 0.066676, -0.001727, 0.125437, -0.015161, -0.026368, -0.035951, 0.136012},
  {0.031072, 0.087434, 0.072185, 0.078268, 0.014039, 0.099012, -0.141851, 0.143451, -0.063422, 0.067434, 0.227802, -0.112547, -0.011118, -0.037769, 0.160934, 0.092227, -0.068953, -0.022353, 0.045472, -0.026335, 0.047204, 0.050485, 0.066537, 0.089880, 0.051339, -0.015220, -0.068902, 0.009365, -0.037726, 0.119612, -0.052542, 0.112316, -0.025947, 0.078447, 0.083091, 0.024187, 0.100705, -0.054186, -0.034196, -0.025479, -0.089558, 0.003953, 0.154028, -0.011797, 0.128044, 0.020396, 0.068804, 0.038979, -0.028550, 0.075497, -0.128820, -0.051655, -0.059272, -0.098947, 0.049138, 0.122381, 0.060727, -0.056197, 0.151561, -0.012590, 0.129612, 0.029677, -0.027019, 0.002224, 0.016741, 0.140889, 0.049742, -0.041557, 0.071455, 0.041958, 0.021825, 0.060755, 0.180539, 0.050441, 0.204983, -0.040019, 0.113024, -0.005449, -0.068435, -0.025549, 0.057400, 0.082975, 0.103527, -0.052706, 0.134617, -0.116572, -0.075313, 0.033696, 0.040666, -0.051530, -0.029037, -0.140621, 0.015883, -0.017749, 0.199609, -0.023613, 0.055394, 0.008883, 0.047428, 0.006530, 0.098524, -0.030307, 0.112936, -0.010956, 0.129808, -0.039670, -0.070860, -0.027398, -0.075232, 0.037432, -0.093255, 0.099498, -0.200346, 0.101828, -0.014049, -0.017103, 0.002436, 0.004761, 0.047937, -0.104152, -0.052577, -0.073583, 0.033348, -0.019911, 0.129860, -0.061221, -0.034954, 0.031137},
  {-0.079398, -0.065068, 0.017858, 0.073689, -0.012396, 0.075831, 0.090010, 0.102260, -0.039482, -0.025007, 0.039842, 0.109408, 0.223320, 0.094607, -0.001427, 0.047544, -0.003925, -0.042647, 0.093861, 0.109174, -0.024640, 0.150116, 0.027747, -0.118207, -0.099384, 0.013415, 0.007226, 0.076110, 0.059330, -0.023548, 0.145558, -0.081662, 0.107617, 0.057814, -0.091024, -0.004425, -0.024683, 0.084046, 0.008387, -0.017767, -0.070171, -0.057117, 0.012663, -0.037190, 0.134316, 0.076912, 0.030969, 0.095600, -0.044932, 0.005105, -0.070649, -0.010257, -0.058984, -0.071946, -0.038800, -0.095225, -0.067960, 0.049032, -0.039311, -0.027672, 0.076574, 0.136363, 0.018089, 0.043724, 0.055317, 0.037523, -0.121013, 0.045389, 0.000365, -0.083176, -0.093207, 0.100351, 0.004780, 0.042928, -0.053248, -0.035096, -0.053331, 0.144549, 0.017115, 0.020557, 0.088894, 0.013830, -0.061308, 0.085755, 0.018776, -0.059190, 0.075061, -0.016894, 0.036132, 0.063188, 0.252367, -0.005663, 0.047038, -0.004944, -0.007589, 0.005172, -0.047728, -0.113218, -0.023962, 0.112155, -0.036987, 0.189651, 0.019504, -0.016896, -0.001327, 0.110042, -0.053461, -0.050228, -0.015421, 0.011278, 0.107726, 0.119174, 0.100402, -0.091343, 0.091412, -0.081194, 0.143021, -0.177925, -0.078785, 0.011689, 0.038936, -0.016181, 0.123757, -0.032432, -0.122164, 0.142617, -0.019547, -0.115626},
  {0.108769, -0.137774, -0.137811, 0.008912, 0.078925, -0.100704, -0.042196, -0.040562, 0.115017, 0.025526, 0.037394, 0.105318, -0.005348, 0.114568, 0.103771, 0.129512, 0.158440, -0.059026, 0.173247, 0.026246, 0.060734, 0.096228, 0.145994, -0.017589, 0.054806, 0.026035, 0.026147, 0.110040, 0.059167, 0.040679, -0.031290, 0.111454, -0.030969, -0.075720, 0.025101, 0.040920, 0.127344, -0.122023, 0.004009, -0.026376, -0.007645, -0.184330, 0.131561, -0.005976, 0.027256, 0.087701, 0.129021, 0.084033, -0.010454, -0.007272, -0.027909, 0.076340, -0.012668, 0.054847, -0.028736, -0.040861, -0.112459, -0.026524, -0.046405, 0.099936, 0.080882, 0.143573, -0.139299, -0.011726, 0.087383, 0.044073, 0.136841, -0.035359, -0.020200, 0.093977, -0.044339, 0.165960, 0.011776, 0.100615, -0.028635, 0.106494, -0.060519, 0.058720, -0.032767, 0.041142, 0.085484, -0.032943, -0.021329, 0.051875, -0.010447, 0.073378, -0.086874, 0.078599, -0.044227, -0.043753, 0.083035, -0.040872, 0.000488, 0.037738, -0.029074, 0.004247, 0.018992, -0.092950, 0.093112, 0.096720, -0.044513, 0.090312, -0.076762, 0.057296, -0.057448, 0.045371, 0.047820, 0.007685, -0.060976, -0.069859, -0.087773, 0.110001, -0.023629, 0.057298, -0.076405, 0.006923, 0.179266, 0.047214, -0.125063, -0.065670, 0.021498, -0.027189, -0.086453, -0.032938, -0.136279, 0.013390, -0.085378, -0.167879},
  {-0.005855, 0.005202, -0.001260, 0.125795, 0.130297, -0.006361, 0.074433, -0.024720, -0.106900, 0.057840, -0.040110, -0.100889, 0.228286, 0.078833, 0.034268, -0.049005, -0.054837, -0.046918, 0.077504, -0.051152, -0.048200, -0.016406, 0.035022, -0.133390, -0.096779, 0.101472, 0.102022, 0.024197, 0.011638, -0.098441, 0.024121, -0.185749, 0.158912, -0.091431, -0.046155, 0.008455, 0.044561, 0.052730, 0.116234, -0.001053, -0.206198, -0.084937, 0.010068, 0.013745, -0.019344, 0.088301, -0.049096, 0.073043, -0.095956, 0.058395, -0.031298, -0.075167, -0.116537, -0.115181, -0.063999, -0.087040, 0.056477, -0.110764, 0.089477, 0.038885, 0.006792, 0.118935, 0.043468, 0.038954, -0.056083, 0.036761, -0.144610, 0.076129, -0.074864, -0.106361, -0.020131, -0.043146, 0.052769, 0.091738, 0.006977, 0.016612, -0.038860, -0.026841, -0.075560, -0.032203, 0.059612, 0.014439, -0.022557, 0.139748, -0.050240, -0.110381, -0.054066, 0.001416, 0.067576, -0.056993, 0.169022, -0.173517, -0.006434, -0.023037, -0.014738, 0.041431, -0.039590, -0.085548, -0.036078, 0.051011, -0.054408, 0.050556, 0.035229, 0.042263, 0.013513, -0.015740, -0.114333, 0.022220, -0.080031, 0.005757, -0.012987, 0.069609, -0.037975, -0.100289, 0.052316, -0.031167, 0.050307, -0.123534, -0.113442, 0.127174, 0.015141, 0.048714, 0.052260, 0.039913, -0.018327, -0.003134, 0.080961, 0.030194},
  {-0.030833, -0.009831, 0.057508, -0.081539, -0.033663, -0.051995, -0.112805, 0.053219, -0.035898, 0.068688, 0.163223, 0.104411, 0.163134, 0.067475, 0.046000, 0.026329, 0.039467, 0.039688, 0.174585, 0.079164, 0.005683, -0.022917, 0.072290, -0.007775, -0.014105, 0.184433, -0.038046, 0.197232, -0.011326, 0.085884, 0.006540, 0.147464, 0.039299, 0.079830, -0.029348, -0.026502, 0.070379, 0.071509, 0.038917, -0.084091, 0.123224, 0.021968, -0.077087, 0.036880, 0.200808, 0.006457, 0.047206, 0.151811, 0.102277, 0.073094, -0.074141, 0.066969, 0.026559, -0.047241, 0.101753, 0.054918, 0.035298, 0.155165, 0.106040, 0.061906, -0.053805, -0.086262, -0.062767, -0.030127, -0.028454, 0.134769, 0.095479, 0.170899, 0.026248, 0.094827, 0.024848, 0.074066, 0.120274, -0.086856, 0.010422, -0.130450, 0.008335, 0.050696, 0.052177, -0.072634, -0.027642, 0.074149, -0.040383, -0.045397, 0.012161, 0.094365, -0.034244, -0.042460, -0.000043, 0.022311, -0.033645, -0.031412, 0.093542, 0.009736, 0.154845, -0.062269, 0.016908, -0.014842, -0.053092, 0.150319, 0.218541, -0.068722, 0.061762, -0.036878, 0.079769, -0.160111, 0.128506, -0.024096, 0.066411, 0.082442, 0.022527, -0.027709, -0.064804, -0.092478, 0.136922, 0.097396, 0.169694, -0.013518, -0.155599, -0.072400, 0.049709, 0.058737, -0.022975, 0.014512, 0.036303, -0.019070, -0.078223, -0.063033},
  {-0.010509, 0.086591, 0.149140, -0.013274, 0.057309, 0.047939, 0.032113, 0.085767, 0.081947, 0.082303, 0.094530, -0.041193, 0.196934, 0.137314, 0.000505, 0.012671, 0.043845, 0.106396, 0.089047, 0.029112, 0.045881, 0.012775, 0.005879, -0.045154, -0.034298, 0.092527, 0.177725, -0.009267, -0.002085, 0.042517, 0.057401, -0.141348, 0.041924, 0.090711, -0.039398, -0.116263, -0.003837, 0.219830, -0.004286, 0.094578, -0.051922, 0.013114, -0.078255, 0.137764, 0.015922, 0.152706, -0.051103, 0.140849, 0.118517, 0.108279, 0.065501, -0.028089, -0.011058, -0.022396, 0.045066, 0.051405, 0.035024, 0.165140, -0.002809, 0.129384, -0.055179, 0.093469, 0.002347, -0.068092, -0.219273, 0.059860, 0.000888, 0.003193, -0.008004, -0.000791, 0.125282, -0.062855, 0.049811, -0.029389, 0.031568, 0.015020, -0.069705, -0.028715, 0.033966, -0.000069, -0.039820, -0.064688, -0.029588, 0.125205, 0.006842, 0.092942, 0.023629, 0.013154, 0.209783, -0.003881, 0.181709, -0.005153, -0.080916, -0.022251, 0.043630, 0.054539, -0.031315, 0.137803, -0.016956, 0.047447, 0.140894, 0.164058, 0.084894, 0.123935, 0.057759, 0.061082, -0.050427, 0.054436, 0.107377, -0.039736, 0.151899, 0.017682, 0.132036, -0.063855, 0.116715, -0.082220, 0.019499, 0.093938, -0.051576, 0.042662, -0.092009, 0.089286, -0.036050, 0.039618, -0.111278, -0.065343, 0.000775, 0.110366},
  {0.110538, -0.160875, -0.130767, 0.175635, 0.133914, 0.010896, 0.109216, 0.023536, -0.066674, -0.002083, -0.071489, 0.089236, -0.068395, 0.092068, 0.094907, 0.149849, 0.021531, -0.042041, 0.082343, 0.005631, -0.029585, 0.113114, 0.147951, -0.055564, -0.027608, 0.042829, 0.037891, 0.090844, 0.095997, 0.016882, 0.042881, 0.036413, 0.087599, -0.049824, 0.064543, 0.139833, -0.031119, -0.121809, -0.016761, -0.058761, 0.113798, -0.011683, 0.148727, -0.006214, 0.073449, -0.120584, 0.075376, -0.065278, -0.108518, -0.085155, -0.003366, -0.097921, 0.074132, 0.050114, -0.064833, -0.065198, -0.181111, -0.128555, -0.061829, -0.018955, 0.040018, 0.151114, -0.080150, 0.156577, 0.090235, 0.036630, 0.103662, 0.075254, -0.098964, -0.122038, -0.167900, 0.029105, 0.129371, 0.223083, 0.035966, 0.157909, 0.062647, 0.193565, -0.100284, 0.144577, -0.029735, 0.163619, -0.044116, 0.016134, -0.042485, 0.034356, -0.086485, 0.096480, 0.004848, 0.130619, 0.007543, 0.053391, 0.204515, -0.046115, 0.088231, 0.177460, -0.051268, -0.158734, 0.092054, -0.057448, -0.040940, 0.092794, -0.050465, -0.105957, 0.034788, 0.087500, -0.089692, 0.070722, 0.095375, -0.004225, 0.049075, 0.156732, 0.056063, -0.095537, -0.110463, -0.061139, 0.092427, -0.121615, -0.031391, 0.006937, 0.165197, 0.046553, 0.072607, -0.083236, -0.076359, 0.142912, -0.045344, -0.188457},
  {-0.043333, 0.062417, -0.127235, 0.101743, 0.093160, -0.071519, 0.012998, -0.052293, 0.134618, 0.058150, -0.158511, 0.029480, -0.110831, 0.069629, -0.013055, 0.087393, 0.071163, 0.150443, 0.004655, 0.062183, -0.015090, -0.069151, -0.004856, -0.042790, -0.017608, -0.069319, 0.049719, -0.008231, 0.053048, 0.053475, 0.069593, 0.098177, -0.058071, -0.015777, 0.015624, 0.108538, -0.029745, -0.033700, 0.037446, -0.017320, 0.095643, -0.084928, -0.046230, 0.019330, -0.024481, 0.019301, -0.061415, -0.078120, 0.011934, 0.014070, 0.198011, -0.010890, -0.014876, 0.176487, -0.087942, -0.021552, 0.072800, 0.123046, -0.136511, -0.091802, 0.032976, -0.027251, 0.085921, 0.086649, 0.013580, -0.079515, 0.024345, -0.026157, 0.089344, 0.077647, 0.075806, 0.034219, -0.069375, 0.056924, -0.000932, 0.046745, 0.045009, 0.031080, 0.135555, 0.086245, 0.006253, 0.042610, -0.047123, -0.049541, -0.011444, 0.010358, 0.027430, 0.052919, 0.042655, 0.046632, 0.017087, 0.014533, -0.069347, -0.068954, -0.047507, 0.031430, 0.102543, 0.011562, 0.064935, 0.043480, 0.047830, -0.015735, -0.079673, -0.032766, -0.073859, 0.005370, -0.019715, 0.065847, -0.038333, 0.023926, -0.065793, 0.049262, 0.160385, 0.040135, -0.145118, -0.008249, 0.137397, -0.009793, -0.052959, 0.066775, -0.111412, 0.096504, -0.104632, 0.111118, -0.095146, 0.057823, 0.000220, -0.048197},
  {-0.017846, 0.124998, 0.174557, -0.009452, 0.080426, -0.014758, -0.000634, -0.011671, 0.188672, 0.090091, -0.097846, 0.133179, -0.088156, -0.008444, 0.057820, 0.011229, 0.077051, 0.061892, -0.042936, 0.028763, -0.005158, 0.001285, -0.001120, 0.078564, 0.104276, 0.111044, 0.134205, 0.162692, 0.014989, -0.016483, 0.040409, 0.077692, 0.029544, 0.160955, 0.179791, -0.012288, 0.031576, 0.030984, -0.008668, 0.098139, 0.205095, 0.134319, 0.049219, 0.164411, -0.039247, 0.025424, 0.000679, 0.043391, 0.083160, 0.104131, 0.193461, 0.019966, 0.140213, 0.199573, 0.050176, 0.122426, 0.036027, 0.175204, 0.024726, 0.023995, -0.038753, 0.095720, 0.170929, 0.052985, 0.003813, 0.041891, -0.038042, 0.079168, 0.107549, 0.187554, 0.163966, -0.046593, 0.082153, -0.068117, -0.071628, 0.007970, 0.033179, 0.020410, 0.116424, 0.026684, 0.138395, -0.014015, 0.043607, 0.001856, 0.146454, 0.040617, 0.017405, -0.020739, 0.151714, -0.002239, -0.010060, 0.112765, -0.035177, -0.089923, -0.037542, 0.077373, 0.043145, 0.104392, 0.075992, 0.062851, 0.034848, 0.105421, -0.022213, -0.030285, -0.111176, 0.007238, 0.016548, -0.015294, 0.079892, -0.058838, -0.035395, -0.013838, 0.171569, 0.010485, -0.138254, -0.027576, 0.068588, 0.040127, -0.024650, -0.029939, 0.100995, -0.058747, 0.124816, 0.100421, 0.030344, 0.048345, -0.072126, 0.053807},
  {0.051701, 0.003167, 0.147739, -0.024776, -0.056770, 0.064306, 0.039508, -0.040124, 0.044994, -0.007051, 0.029062, 0.094170, 0.069481, -0.075778, -0.040299, -0.072168, 0.041390, 0.091259, -0.036612, 0.071320, -0.015650, -0.009006, 0.147737, 0.087283, 0.092541, 0.071928, 0.056888, 0.023437, -0.054620, -0.133297, 0.090775, 0.076677, 0.113564, -0.010695, 0.110785, 0.080515, 0.068011, 0.069389, 0.121347, 0.019730, -0.044262, 0.098182, -0.062383, 0.075995, 0.163073, 0.092310, -0.029358, 0.074836, 0.150654, -0.026212, -0.029439, 0.078929, 0.080567, -0.034561, 0.085801, -0.004695, -0.055381, 0.041180, 0.082118, 0.086240, 0.001754, -0.124539, 0.092288, 0.103172, 0.103540, 0.101969, 0.050049, 0.206468, 0.027103, -0.012461, 0.016021, 0.023086, 0.075197, -0.036054, 0.038546, 0.046667, 0.015745, -0.024696, 0.060651, -0.068427, 0.173247, 0.005225, 0.109595, -0.075844, 0.054652, 0.065045, 0.132281, -0.041461, -0.075262, -0.007036, -0.001178, -0.005630, 0.106169, 0.065206, 0.068449, 0.005404, -0.069913, 0.068816, -0.120545, 0.026911, 0.063347, -0.060698, 0.131963, 0.131564, 0.032319, 0.020720, 0.083350, -0.073180, 0.027081, 0.078638, 0.031906, 0.033074, 0.060342, 0.120368, -0.000970, 0.097066, -0.044620, -0.021375, -0.036034, -0.055089, 0.042013, 0.003075, -0.020297, -0.084231, 0.118880, 0.112990, -0.081250, 0.016635},
  {-0.016849, 0.073615, -0.090568, 0.058878, 0.067052, -0.021971, 0.039195, 0.068335, 0.106812, -0.125359, 0.038985, -0.023897, 0.008481, 0.063200, -0.052609, 0.128776, 0.070131, 0.038082, 0.186454, -0.014089, 0.147186, 0.053150, -0.006730, -0.116612, -0.043902, 0.007481, 0.037289, 0.008532, -0.030946, -0.124279, -0.037743, -0.027590, 0.029923, -0.040760, 0.065670, -0.124630, -0.042602, 0.085820, 0.042296, 0.105926, 0.060629, 0.043665, 0.007007, -0.013652, -0.030327, -0.139892, 0.063684, 0.058167, 0.021723, -0.104416, -0.007537, -0.030320, -0.009489, -0.062009, -0.028899, -0.029265, 0.062181, -0.058556, 0.062916, 0.093574, -0.007013, -0.021846, 0.009245, 0.065709, -0.141660, 0.060188, 0.058551, -0.104042, -0.087667, -0.003935, 0.107000, -0.018666, -0.022957, -0.062730, -0.019056, 0.030796, -0.013638, -0.035509, -0.060039, 0.009524, -0.080454, 0.092090, -0.155352, 0.053541, -0.046151, -0.114630, -0.027361, -0.045465, -0.105550, 0.089821, 0.080975, 0.009988, 0.054472, 0.044221, 0.051625, 0.078733, -0.051518, 0.157243, -0.013351, 0.033285, 0.001001, 0.006348, -0.112911, -0.124590, 0.023617, 0.028952, -0.030263, 0.065775, 0.054366, 0.039174, 0.114118, 0.045981, -0.048635, -0.140268, -0.015031, 0.073344, 0.080610, 0.045351, -0.044870, 0.054427, 0.072207, 0.034372, 0.067443, -0.063580, -0.002155, -0.008815, 0.030778, 0.106708},
  {-0.144033, 0.032804, 0.000187, -0.014878, -0.105564, -0.113316, -0.041508, 0.153334, -0.020397, -0.092332, 0.192583, 0.004076, -0.010724, -0.165126, 0.087768, -0.015864, 0.070153, -0.012234, 0.150387, 0.061208, 0.156191, 0.040979, -0.068787, 0.101889, -0.021324, 0.144701, -0.052506, 0.144267, -0.089230, -0.001804, 0.014802, 0.087340, -0.030900, 0.010610, 0.058265, 0.062156, -0.049453, 0.007377, -0.018977, 0.018961, 0.100911, 0.056284, 0.009086, 0.006350, 0.025226, -0.051348, -0.005358, 0.066310, 0.097555, -0.040151, 0.055985, 0.104787, -0.003094, 0.089102, 0.120822, 0.140690, 0.121184, 0.127876, 0.132790, 0.106105, 0.014037, -0.045842, -0.015217, -0.033229, 0.103259, 0.081520, 0.025368, 0.105636, 0.066635, 0.094397, 0.121885, -0.098937, 0.070244, -0.243172, 0.044249, -0.098215, 0.003519, -0.033301, -0.031630, -0.002972, -0.038456, 0.024750, 0.015595, 0.095779, 0.065834, 0.078698, 0.129323, -0.077543, -0.018179, 0.026515, -0.054824, 0.131373, -0.025111, 0.151556, -0.081253, -0.084075, 0.099724, 0.136076, -0.043651, 0.032168, 0.125380, -0.108622, 0.061531, -0.061525, -0.014396, -0.070573, 0.071298, 0.114209, 0.083928, -0.013010, 0.052462, -0.061754, -0.004408, -0.008255, 0.086833, 0.051402, 0.056194, 0.136680, -0.032011, 0.085078, 0.039930, -0.010868, 0.136947, 0.044476, 0.057209, 0.102528, -0.043291, 0.127058},
  {-0.027854, -0.015693, 0.193752, 0.076464, -0.021019, 0.061691, 0.008018, 0.091243, 0.260939, 0.049859, -0.054941, 0.164143, -0.042297, -0.016156, -0.014009, 0.060298, -0.025335, 0.074539, 0.022701, 0.054373, 0.018582, -0.025827, -0.044591, 0.130915, 0.112411, -0.040953, 0.114970, 0.124766, -0.010771, 0.064723, 0.033978, 0.155996, -0.053079, 0.029852, 0.079684, 0.026453, -0.125796, -0.011959, -0.028857, 0.075105, 0.092076, 0.197188, -0.009608, 0.125397, -0.096739, -0.080417, 0.113543, 0.032787, 0.179096, 0.018133, 0.240472, 0.101120, 0.139285, 0.236583, 0.038793, 0.135025, -0.042346, 0.143412, 0.022492, 0.006322, -0.050865, -0.062800, 0.061153, -0.023889, 0.164242, -0.046083, 0.172694, 0.043884, 0.007792, 0.226291, 0.144805, -0.037850, 0.031885, 0.004997, -0.011180, -0.037850, -0.036068, -0.008526, 0.129817, 0.044308, 0.160139, -0.007467, 0.093514, -0.005771, 0.005583, 0.204157, 0.055790, 0.021886, -0.050245, 0.101897, -0.051062, 0.182812, -0.032360, 0.075436, -0.049085, -0.005146, 0.106844, -0.012932, 0.037331, 0.094103, -0.069831, 0.017238, 0.080199, 0.047251, -0.061928, 0.087816, 0.166178, 0.022618, -0.005977, -0.001180, 0.047055, 0.026515, 0.078535, -0.001269, 0.005825, 0.028175, 0.097307, 0.113288, 0.152269, 0.038278, -0.034339, 0.033963, -0.071947, 0.121240, 0.064357, 0.019304, -0.029628, 0.162102},
  {0.026978, -0.148222, -0.001325, 0.081970, -0.032160, -0.026443, -0.066028, 0.156486, 0.020993, 0.112618, 0.127801, 0.005228, 0.087448, 0.055447, 0.085734, 0.145770, 0.020181, -0.105994, -0.025518, 0.053357, 0.062024, -0.047286, 0.009060, -0.026413, -0.069053, 0.022001, 0.047996, 0.099597, 0.048469, -0.027313, 0.077116, 0.044650, 0.141742, -0.050343, 0.108390, -0.013902, -0.026946, -0.017192, -0.047377, 0.036045, -0.035001, 0.020029, 0.103691, -0.060959, 0.092705, 0.060899, 0.043997, 0.157952, 0.065247, -0.001488, 0.018579, -0.038184, 0.078289, 0.181759, 0.010195, -0.036590, 0.005229, 0.000008, 0.147539, -0.018532, -0.002757, 0.102205, 0.018896, -0.003138, -0.067523, -0.053769, -0.018207, 0.084573, 0.019104, 0.047044, 0.097435, 0.171420, 0.151846, -0.019751, 0.095555, -0.072537, 0.139925, 0.073299, 0.088051, -0.008639, 0.101889, -0.054373, -0.005954, 0.090453, -0.026371, 0.062642, -0.076391, 0.109324, 0.108359, 0.092307, 0.051777, 0.074585, 0.022758, -0.104026, 0.171152, -0.001720, -0.001581, -0.053526, 0.098302, 0.073429, 0.088085, 0.092694, -0.055032, 0.129973, -0.024131, -0.034944, -0.039480, 0.001338, 0.083461, 0.024732, 0.053470, 0.104346, -0.009929, -0.035348, -0.004877, -0.054175, 0.038802, -0.020816, 0.087779, -0.017917, 0.069529, -0.030706, -0.014335, -0.030129, -0.030868, 0.034791, -0.076665, -0.043878},
  {0.000171, 0.144300, -0.069593, -0.034154, 0.085024, 0.025748, 0.142032, -0.088222, 0.050186, 0.017926, -0.175232, -0.108152, -0.016755, 0.056001, -0.028179, -0.048438, -0.010349, 0.011041, -0.095729, 0.075943, 0.106598, 0.138800, -0.033155, -0.118670, 0.038879, -0.009244, 0.088312, 0.000438, 0.129090, -0.007148, 0.076498, -0.168671, 0.096827, 0.006791, 0.026716, 0.115309, 0.026365, -0.026737, 0.141813, 0.062898, -0.013581, 0.015881, -0.073250, 0.026925, -0.091297, 0.070664, -0.033752, -0.125198, -0.157500, -0.075296, -0.028491, 0.095186, 0.023553, -0.181438, -0.078712, -0.090142, 0.035643, -0.116109, -0.061310, 0.059445, 0.144158, 0.031178, 0.034032, 0.023217, 0.000468, 0.041132, 0.002439, -0.084554, -0.037725, -0.097601, -0.066033, -0.102048, -0.085123, -0.053653, 0.001092, 0.061178, 0.098008, 0.151250, 0.035396, 0.072567, -0.073577, 0.004467, 0.039847, -0.077139, -0.063967, -0.048837, 0.014437, -0.049848, -0.056939, -0.013396, 0.034376, -0.023742, 0.115949, -0.086855, 0.032869, 0.119706, -0.024938, -0.010626, 0.024016, -0.088717, -0.132870, -0.060417, 0.082891, -0.036226, 0.009844, 0.114975, 0.026895, -0.041034, -0.028249, 0.059322, -0.054068, 0.008527, -0.054569, -0.040697, -0.056285, 0.007120, -0.170795, 0.104448, -0.014927, 0.077456, 0.040783, 0.034263, 0.068443, 0.062129, 0.033816, -0.057150, 0.133061, 0.012452},
  {0.133900, -0.085898, -0.026829, -0.020369, 0.003028, 0.005660, 0.064419, 0.005565, 0.003957, -0.076439, -0.057370, 0.011107, 0.066910, -0.089757, 0.131815, -0.009110, -0.147004, -0.028243, -0.040457, 0.059754, 0.006272, 0.088450, -0.035081, 0.052713, 0.021136, -0.117837, -0.107676, 0.094738, 0.085740, 0.033988, 0.182861, -0.003923, -0.011521, 0.044285, -0.013943, -0.036457, -0.065701, 0.104441, -0.033822, -0.034924, 0.131887, 0.026868, 0.014439, -0.058773, -0.035425, -0.055269, 0.082141, 0.119402, 0.082773, -0.035243, 0.027119, -0.008796, -0.023287, 0.085457, 0.042098, -0.035298, -0.041815, 0.049602, -0.055717, -0.070640, 0.017822, -0.162391, -0.049180, 0.091020, -0.025510, 0.026069, 0.041924, 0.049946, -0.083164, -0.035581, 0.029724, -0.016894, 0.092234, -0.022872, 0.094651, 0.132746, 0.037515, 0.004922, 0.003344, 0.071659, -0.043615, 0.009894, -0.120106, -0.026905, -0.015239, 0.103233, -0.055976, -0.049247, 0.003931, -0.024590, -0.080424, 0.034201, 0.036811, -0.003149, 0.007775, 0.076719, -0.012684, 0.014495, 0.021759, 0.113358, 0.140092, -0.125494, -0.170691, -0.145488, 0.049182, 0.073399, 0.125266, 0.048244, 0.027692, -0.115650, -0.013561, 0.101798, 0.100948, -0.114280, 0.137611, 0.113767, -0.001788, -0.101098, -0.025895, 0.123833, 0.113743, 0.064179, 0.118616, 0.043700, 0.102081, -0.001100, 0.075749, -0.054293},
  {-0.053294, -0.096864, -0.066189, -0.013259, 0.116460, -0.037006, 0.085295, 0.043369, 0.053282, 0.007460, -0.067076, 0.089032, 0.033955, -0.062571, 0.063311, 0.061444, -0.104861, -0.053610, -0.051783, 0.135731, -0.189139, -0.053790, 0.072619, 0.070479, 0.006402, -0.008477, -0.104393, -0.018418, 0.068204, 0.117075, 0.150451, 0.107656, -0.108217, -0.023063, -0.072069, -0.027526, -0.174166, 0.118832, 0.010514, -0.114926, 0.120672, 0.095640, 0.015922, -0.067875, 0.063396, -0.045973, -0.018931, 0.087355, 0.065790, 0.100169, -0.027080, -0.049181, -0.000072, 0.080909, 0.055817, 0.050464, -0.087122, -0.035681, -0.063198, -0.185103, -0.010839, -0.098272, -0.027761, 0.008409, 0.058867, 0.032190, 0.160368, 0.075524, -0.041692, 0.073507, -0.025896, 0.013211, 0.022566, 0.057588, -0.001079, 0.019483, 0.132782, 0.099503, 0.010964, 0.112192, 0.013445, 0.121011, 0.009135, -0.046893, 0.006746, 0.103911, 0.008310, -0.056692, 0.007912, -0.052920, 0.058351, 0.049334, 0.063016, -0.074401, 0.075462, 0.107439, 0.105905, -0.060088, 0.095199, 0.017610, 0.002481, -0.029232, -0.140006, -0.139532, -0.007162, 0.090060, 0.018675, -0.037346, 0.127148, -0.130845, -0.079342, 0.153378, 0.119661, -0.068817, -0.073868, 0.012004, 0.055515, -0.032670, -0.068135, 0.029576, -0.087637, 0.011621, 0.058517, -0.114428, -0.058430, 0.023432, 0.038112, -0.091559},
  {0.115427, 0.137754, 0.057862, -0.211521, -0.037948, -0.031334, -0.074284, -0.094757, 0.086413, 0.020957, 0.089749, -0.027447, -0.086028, 0.005640, -0.007471, -0.057565, 0.093971, 0.122203, 0.057585, 0.012880, 0.033038, -0.034742, 0.038848, -0.007871, -0.017483, 0.012193, 0.017642, -0.071950, 0.045607, 0.120264, -0.050486, -0.008671, -0.062947, 0.134627, -0.058709, -0.044825, 0.161513, 0.036704, 0.068236, 0.098260, -0.021799, -0.079627, -0.085414, 0.085601, -0.109119, 0.068437, -0.100028, 0.031119, 0.040509, -0.046567, -0.051178, 0.158883, 0.033765, -0.028407, 0.154658, -0.012748, -0.007066, -0.014730, -0.004779, 0.044755, 0.029284, -0.031177, -0.008984, 0.063016, 0.073139, 0.052097, 0.006980, -0.006419, 0.062796, 0.040916, 0.120949, -0.025343, -0.007321, -0.089799, 0.010487, -0.095285, -0.117524, 0.014203, 0.018381, 0.053402, -0.092492, 0.124188, 0.067905, -0.029535, 0.083337, 0.018621, -0.043344, -0.143179, 0.074677, 0.060487, -0.000525, -0.011002, 0.019773, 0.046797, -0.090958, -0.092781, 0.111615, 0.118729, 0.039019, 0.134425, 0.160513, 0.009811, -0.014133, -0.068753, 0.063803, -0.046438, 0.056613, -0.146489, 0.037480, -0.025943, 0.075952, 0.026242, -0.006094, 0.008152, 0.082876, 0.171506, 0.061992, 0.140696, -0.097541, 0.082900, -0.028453, -0.036274, 0.123804, 0.016722, 0.024156, -0.132002, 0.099992, 0.194040},
  {-0.063311, 0.175048, 0.136216, -0.087983, 0.012677, 0.052138, -0.031447, 0.007874, 0.077920, 0.041285, 0.085899, -0.080120, 0.086890, -0.047620, 0.000882, -0.055647, 0.049856, 0.109455, 0.105132, 0.079123, -0.093682, -0.136259, 0.030502, 0.119696, 0.077908, -0.037161, 0.073797, -0.019405, -0.034177, 0.139247, -0.037508, 0.086894, 0.089706, 0.127447, -0.072485, -0.075000, 0.090024, 0.109730, 0.089540, 0.159639, -0.023665, -0.002862, 0.000299, 0.109753, -0.053186, 0.054967, -0.080383, 0.132444, 0.074341, 0.024199, 0.063213, -0.009430, -0.140661, -0.015079, 0.074435, 0.081202, 0.206024, 0.081519, 0.092880, 0.112816, 0.014286, 0.079522, 0.101106, -0.021956, -0.134275, 0.109393, 0.017715, -0.068192, 0.015192, 0.082916, 0.235486, -0.047585, 0.099653, -0.061758, 0.091468, -0.095329, 0.073707, -0.109582, 0.081871, -0.016023, 0.069273, 0.045925, 0.101063, 0.067615, -0.046581, 0.117512, 0.094705, 0.024042, 0.194773, 0.068155, 0.067959, 0.079636, -0.073403, -0.013739, 0.031785, 0.011309, 0.073755, 0.195100, -0.023162, -0.000119, 0.082910, 0.117240, 0.128614, 0.232915, 0.083618, -0.059311, -0.030084, -0.073869, -0.000093, -0.053449, 0.062792, -0.060709, -0.017575, 0.116103, -0.002084, -0.011469, -0.026739, 0.140631, -0.008226, 0.058310, -0.117400, -0.000611, 0.047069, 0.189264, 0.061605, -0.100903, 0.064630, 0.068158},
  {-0.123128, -0.124165, 0.032212, 0.079142, 0.111090, 0.078730, -0.112417, 0.073862, -0.006284, -0.004986, 0.118281, -0.140370, 0.161600, 0.086901, -0.037320, 0.038964, -0.081788, -0.057711, 0.041479, -0.057485, 0.007056, -0.075729, -0.034872, -0.006303, -0.029308, 0.086963, -0.033146, -0.104610, -0.005029, 0.031346, -0.023881, -0.128021, 0.192566, -0.062057, -0.059356, 0.011507, 0.120738, 0.032381, 0.029164, 0.038880, -0.113762, -0.042092, 0.002070, -0.031557, 0.005588, 0.174116, -0.005855, 0.050858, 0.068449, 0.141740, -0.058421, -0.133511, -0.009964, 0.065893, -0.000298, 0.060585, 0.074564, -0.021415, 0.064138, -0.101156, 0.045196, 0.186588, 0.110578, -0.110039, -0.005212, 0.016364, -0.143092, 0.020413, -0.037163, 0.012179, 0.096212, 0.037519, 0.065038, 0.035534, 0.102943, -0.060312, 0.110907, 0.029951, -0.029725, -0.057737, 0.123238, -0.098320, -0.052194, 0.139522, 0.071328, 0.020764, 0.018375, 0.136595, -0.005791, 0.117374, 0.059360, 0.043449, 0.008126, -0.018201, 0.011922, 0.096992, -0.054600, -0.079554, 0.036516, -0.043910, 0.030242, 0.108128, -0.024476, 0.074136, 0.089538, 0.016485, -0.071127, 0.106949, -0.087325, 0.160519, -0.021946, 0.075487, -0.014777, -0.014403, -0.014090, -0.132685, 0.084528, -0.029706, 0.005848, 0.076209, 0.008067, -0.038105, -0.031876, 0.100677, 0.011629, 0.028981, -0.163964, 0.140715},
  {0.156007, -0.026660, -0.052566, 0.054138, 0.150885, 0.136224, 0.156024, -0.051025, 0.119460, -0.048929, -0.057927, -0.121174, -0.113876, 0.072122, -0.059763, -0.015163, -0.069141, 0.089007, 0.041690, 0.094578, 0.042783, 0.060894, 0.138692, -0.099760, -0.032597, -0.066796, 0.107945, -0.063244, 0.006130, 0.059957, 0.006182, -0.064617, -0.034481, 0.105139, 0.086057, -0.085291, -0.029027, 0.037794, 0.165331, -0.026017, -0.034845, -0.050507, 0.070934, 0.030825, -0.095740, 0.110364, -0.099823, -0.120331, -0.030813, 0.081961, 0.042179, 0.123994, -0.074188, 0.070032, 0.024843, 0.034064, 0.069211, -0.064201, -0.065872, 0.213469, 0.152460, 0.107208, -0.034682, 0.144040, -0.124707, 0.027665, 0.036886, -0.165943, -0.005033, -0.080322, 0.031295, -0.098208, -0.011246, 0.017016, -0.048460, 0.064112, 0.097501, -0.017033, 0.092657, 0.191287, -0.087638, 0.113397, 0.061811, 0.088284, -0.125459, 0.108388, -0.100940, -0.033391, -0.005478, 0.099591, -0.076609, 0.093276, -0.040521, 0.085381, 0.031003, 0.182120, 0.131795, 0.041345, 0.042749, 0.043648, -0.096548, 0.000477, -0.094302, -0.047768, 0.049289, 0.065140, -0.047700, -0.037365, 0.127164, 0.040740, 0.065214, 0.115924, 0.076891, -0.042185, 0.093754, 0.054439, 0.015819, 0.052086, 0.059565, 0.128329, 0.048093, 0.061564, 0.076848, 0.031357, -0.036567, -0.061195, 0.165077, 0.034760},
  {0.040174, 0.063161, -0.032151, 0.067682, 0.224014, 0.016094, 0.067078, 0.027055, 0.056785, -0.036433, -0.110122, -0.003580, 0.010623, 0.046560, -0.018771, -0.013760, -0.081359, 0.000764, -0.043859, 0.191274, -0.143152, 0.036739, 0.081897, -0.089656, -0.022877, -0.057869, 0.037207, -0.113227, 0.198390, 0.042070, 0.022279, -0.034033, 0.159987, 0.090891, -0.005966, 0.029129, -0.114185, 0.126888, 0.099792, 0.100231, -0.048823, -0.016814, -0.096347, -0.025161, 0.006192, 0.119540, -0.089143, -0.047874, -0.055903, 0.104002, 0.078224, -0.028677, -0.102974, -0.035066, -0.163761, 0.024214, -0.062271, 0.028164, 0.061488, 0.033852, 0.046510, -0.040937, -0.031910, 0.066627, 0.007880, 0.064051, -0.066444, -0.013764, -0.052076, 0.027764, -0.093938, -0.006474, -0.022299, 0.039200, -0.002037, 0.034311, 0.083987, -0.014417, 0.006975, 0.143036, 0.103420, 0.039629, -0.049495, 0.057949, 0.000451, 0.022629, 0.091751, 0.025397, 0.086110, 0.134992, -0.003177, 0.033291, -0.003109, -0.056284, 0.038620, 0.167740, 0.074982, -0.005884, 0.016904, -0.092733, -0.084340, 0.030737, 0.064183, -0.105523, 0.097701, 0.138192, -0.074012, -0.006673, 0.072365, -0.068920, 0.034141, 0.009686, 0.003419, 0.049681, -0.012582, -0.050844, -0.082497, 0.018430, 0.008635, 0.035140, -0.096856, 0.151879, 0.142260, 0.091521, 0.022515, -0.118046, 0.123310, -0.145135},
  {0.005379, 0.077231, -0.092618, 0.071196, 0.072280, 0.048987, 0.021712, -0.078096, 0.037727, 0.031203, -0.081403, 0.187109, -0.014883, 0.094016, -0.079060, 0.053232, 0.051400, 0.025886, -0.047257, -0.014679, 0.112835, 0.100241, 0.052266, -0.008675, 0.079736, 0.108836, -0.018855, 0.072178, 0.083241, -0.120856, 0.003630, 0.108049, -0.041463, 0.117482, 0.165641, 0.086414, 0.095913, 0.008585, -0.097486, 0.084074, 0.154070, 0.125289, -0.050848, 0.092805, 0.145707, -0.000410, -0.029230, -0.067792, -0.082375, 0.055101, 0.023381, 0.159350, 0.194296, 0.091769, -0.014137, 0.038321, -0.077460, -0.001948, -0.081515, 0.128102, 0.044321, 0.098730, 0.023829, -0.033528, 0.161695, -0.034663, -0.012960, 0.119054, 0.062844, 0.101706, -0.056653, 0.008742, -0.004628, -0.034654, -0.052636, 0.051839, 0.031769, 0.003319, 0.043865, 0.020830, 0.029819, 0.034292, 0.159111, 0.051222, 0.031564, -0.057195, -0.008920, -0.065815, 0.008297, 0.005426, -0.026675, 0.141885, 0.120062, -0.024251, 0.019029, -0.011764, -0.005479, 0.035344, -0.010944, 0.156787, 0.028802, 0.048917, -0.046843, -0.017887, -0.064909, 0.015868, 0.015905, -0.077777, 0.106407, 0.004516, -0.017219, -0.066017, 0.037133, 0.070862, -0.077469, 0.136949, -0.035914, -0.083892, 0.109758, 0.016894, 0.146199, 0.052688, 0.123818, 0.036254, -0.028892, 0.143334, -0.024846, 0.019810},
  {-0.081753, 0.169849, 0.196225, 0.010031, 0.071014, 0.072647, 0.070306, 0.055853, 0.083469, 0.115292, 0.087634, -0.018813, 0.095569, -0.023085, -0.056972, -0.013805, -0.112290, 0.143599, -0.009154, 0.016907, 0.033743, -0.099260, -0.123111, -0.003736, -0.082254, -0.044317, 0.017484, -0.062180, 0.075256, 0.165724, 0.135331, -0.088456, 0.095874, 0.151827, 0.033504, -0.067307, 0.045951, 0.095038, 0.057108, 0.140362, 0.129939, 0.043723, -0.037138, 0.167468, 0.009692, 0.098678, -0.012808, 0.042722, 0.140499, 0.158464, 0.122689, -0.008307, -0.061536, 0.181032, -0.079157, 0.048824, 0.082702, 0.208849, 0.119538, 0.086830, -0.105319, -0.037784, 0.190969, -0.045597, -0.012592, 0.026620, -0.033472, -0.069705, 0.129800, 0.101306, 0.167760, -0.111282, 0.045267, -0.018069, 0.006753, -0.013073, 0.010238, -0.103934, 0.130759, 0.014806, 0.029971, -0.098204, -0.047164, 0.012687, 0.015730, 0.130897, 0.148685, -0.047961, 0.199472, 0.078763, 0.005962, 0.147516, -0.128382, -0.105843, 0.086070, 0.094244, 0.000237, 0.129063, 0.071751, -0.033811, 0.157890, 0.093192, 0.056369, 0.048226, -0.032511, 0.106907, 0.053402, 0.002038, 0.050927, 0.026484, 0.001367, 0.045387, 0.065123, -0.027871, 0.083738, -0.086685, 0.031660, 0.111314, -0.004694, 0.072747, -0.160839, 0.025540, -0.024729, 0.121918, 0.067214, 0.021077, 0.096681, 0.139462},
  {-0.055136, 0.145217, 0.051208, -0.064200, -0.027396, -0.025754, 0.096449, -0.055556, -0.040172, -0.099561, 0.131192, -0.042224, -0.005546, -0.000581, -0.032387, -0.083289, 0.049885, -0.032412, -0.084691, 0.097519, 0.093298, -0.016820, 0.090328, 0.051159, 0.128009, -0.029482, 0.121894, 0.061055, -0.032271, 0.060233, 0.032012, 0.007359, -0.091390, 0.042993, -0.014253, 0.075806, 0.032952, 0.065398, 0.046392, 0.006116, 0.087720, 0.131631, 0.019797, 0.004283, -0.094972, 0.084554, 0.041537, -0.018979, -0.019699, 0.067972, -0.007169, -0.078636, -0.048281, -0.025644, 0.039850, 0.070209, 0.024721, 0.067515, -0.030605, 0.007045, -0.046204, -0.054377, 0.139711, -0.058823, 0.086117, 0.076423, 0.109615, -0.061607, 0.005681, -0.037023, 0.019665, -0.049492, -0.007525, -0.107004, 0.055821, -0.071869, -0.097969, -0.084602, -0.013959, -0.032713, 0.126538, 0.076146, 0.025641, 0.037369, 0.100559, -0.004698, 0.071784, -0.031055, -0.073078, 0.008894, -0.055568, -0.010324, 0.001533, 0.102713, 0.031067, -0.074875, 0.094323, 0.047424, -0.038412, -0.059001, 0.031305, 0.040176, 0.165326, 0.129481, 0.094911, 0.056151, -0.084670, 0.117549, -0.099198, -0.046537, 0.036524, -0.035522, 0.032274, -0.002667, -0.005467, -0.075277, -0.082773, 0.084388, 0.100118, 0.006547, -0.034444, 0.051600, -0.012500, -0.044526, 0.167614, 0.006002, -0.079081, 0.109886},
  {0.050696, 0.023475, -0.020797, 0.004826, 0.038647, -0.095470, -0.022418, 0.016281, 0.094991, 0.073496, 0.044782, 0.160890, -0.037341, 0.115333, -0.001234, 0.007294, 0.086723, 0.015008, 0.006336, 0.075721, 0.137118, 0.068955, -0.012406, 0.061446, 0.173473, 0.100131, 0.121320, 0.157918, 0.035301, -0.027743, 0.021525, 0.159536, 0.097903, 0.050778, 0.116339, -0.026102, 0.135107, 0.098990, -0.098958, 0.040369, 0.140115, 0.000865, -0.055793, 0.035764, 0.107687, 0.109055, -0.004266, 0.016286, -0.105673, 0.079231, 0.115611, 0.166107, 0.089238, -0.002857, 0.112871, 0.067698, 0.037527, 0.080329, -0.016521, 0.040779, 0.077704, 0.028247, 0.022414, 0.090502, 0.147757, 0.098221, -0.087940, 0.045272, 0.134739, 0.097762, 0.043748, -0.066325, -0.073856, 0.017718, -0.048853, 0.010210, 0.057534, -0.032101, 0.050953, 0.095086, 0.099922, 0.012759, 0.114003, -0.076007, 0.046788, 0.061889, 0.096096, -0.058654, -0.012107, 0.129026, -0.014911, 0.116698, 0.075645, -0.029146, -0.047518, 0.038550, -0.008701, 0.107639, -0.041436, 0.032862, 0.073589, -0.023657, -0.050999, -0.025921, -0.098541, 0.077105, 0.157973, -0.100356, 0.044943, 0.053292, -0.078758, -0.065740, 0.120283, 0.156696, -0.043862, 0.061330, -0.052050, -0.037245, 0.017951, -0.112873, 0.087084, -0.116865, 0.133649, -0.042415, -0.025865, 0.064529, 0.069042, 0.060710},
  {0.130946, -0.052474, 0.022993, 0.178054, 0.142327, 0.051914, 0.034430, 0.136828, -0.043053, 0.082723, 0.013661, -0.007161, -0.020004, 0.078668, 0.171690, 0.181655, -0.113023, 0.022104, -0.064478, 0.128798, -0.084226, 0.105917, 0.074128, -0.065948, -0.089254, 0.025034, 0.011244, -0.018813, -0.020295, 0.095553, 0.039004, -0.063047, 0.080912, -0.040001, 0.004198, 0.167808, -0.058752, 0.013974, -0.031012, -0.090016, -0.012036, 0.044097, 0.208010, -0.031005, 0.169205, 0.026734, 0.174087, 0.089961, -0.013363, 0.018196, -0.078275, -0.168946, -0.024171, 0.024247, -0.136413, 0.010600, -0.076741, -0.001562, 0.129973, -0.136489, -0.085696, -0.017637, 0.064650, 0.032399, -0.044164, -0.100212, 0.131954, -0.003072, -0.003467, -0.053815, -0.082859, 0.203771, 0.159691, 0.063846, 0.176513, 0.101565, 0.164110, 0.172939, 0.103362, -0.001319, 0.097043, 0.026196, -0.000179, 0.157207, 0.026825, 0.071661, -0.036986, 0.113469, -0.024487, -0.006938, 0.145840, -0.034198, 0.070962, -0.063535, 0.217365, 0.036113, 0.051684, 0.002783, 0.182759, -0.103192, -0.011986, -0.017150, -0.078604, 0.088432, 0.074234, 0.139491, -0.091295, 0.149047, 0.032648, -0.058566, -0.124651, 0.128550, 0.067574, -0.100147, -0.044144, -0.137508, 0.146143, 0.041122, 0.108584, -0.048208, -0.058698, 0.085246, -0.099664, -0.077902, -0.065588, -0.059146, 0.004611, -0.189971},
  {0.103964, 0.000113, 0.054777, -0.123720, -0.046578, 0.051091, -0.070005, -0.023403, 0.013250, 0.036904, 0.023598, -0.056650, 0.134523, -0.044861, 0.024873, -0.095723, 0.059345, 0.090236, 0.004864, 0.094691, 0.044849, 0.094125, -0.007621, -0.026007, 0.183843, 0.160748, -0.015624, 0.080620, 0.102772, -0.119652, 0.014919, -0.034475, 0.121193, 0.088568, 0.140067, -0.088732, 0.124275, 0.104636, 0.060959, 0.002465, 0.006225, -0.077933, 0.010102, 0.058508, 0.137643, 0.007560, -0.147045, 0.069306, -0.028125, 0.044694, -0.077905, 0.230537, 0.042495, 0.031072, 0.105601, 0.158496, 0.138584, 0.026391, 0.066082, 0.146803, 0.073424, -0.039425, 0.052341, 0.008427, 0.101723, 0.168752, -0.154173, 0.133915, 0.021912, -0.084644, 0.029533, -0.071364, -0.017940, -0.090270, -0.013784, 0.017838, -0.019819, 0.000747, 0.060454, 0.081215, 0.098581, 0.206012, 0.061324, -0.146514, 0.122687, -0.122193, 0.038601, -0.106796, 0.109071, 0.001998, -0.015316, 0.090214, 0.144658, 0.157465, 0.053905, 0.066068, -0.123407, 0.165723, -0.019843, 0.107137, 0.026580, 0.018817, 0.084076, 0.110119, 0.033126, -0.128608, 0.092453, -0.124837, 0.191246, 0.072205, 0.037667, -0.008219, 0.009188, 0.085662, -0.075380, 0.092299, -0.102607, 0.059711, -0.083026, 0.012706, -0.035092, -0.042874, 0.233331, -0.012830, 0.059539, 0.108315, -0.021953, 0.084028},
  {0.016016, -0.028077, -0.075326, 0.040359, 0.032210, 0.155378, 0.016997, -0.023076, -0.004831, -0.109152, 0.063446, -0.085535, -0.105709, -0.056572, 0.042201, 0.070158, -0.112651, -0.023213, -0.061725, 0.097092, -0.120458, 0.070703, 0.187863, 0.174932, -0.018738, -0.074616, -0.057731, -0.013145, 0.049039, -0.033511, 0.041627, 0.152101, -0.125255, -0.066427, 0.084592, 0.079054, -0.046922, 0.033921, 0.168024, 0.102893, 0.039890, 0.016128, 0.070364, 0.035574, -0.089697, -0.057513, 0.022353, 0.006144, 0.050252, -0.010409, 0.074961, -0.044760, 0.052549, 0.126065, 0.133143, 0.051844, 0.056247, 0.011823, 0.045985, 0.128853, 0.009745, -0.058254, 0.009208, 0.089766, -0.049484, 0.051776, 0.110191, 0.026471, -0.099544, -0.052928, 0.121917, -0.034571, 0.064778, -0.061137, 0.082511, 0.066104, -0.008929, -0.077952, -0.119089, 0.059159, -0.053455, 0.016302, -0.097680, 0.004540, 0.083518, 0.030093, 0.002360, -0.016592, -0.068974, -0.075394, -0.119802, -0.012806, 0.043393, 0.153318, 0.003982, 0.095906, -0.082968, 0.020408, 0.104606, 0.223337, 0.014979, -0.133666, 0.019367, -0.002564, 0.130347, 0.160104, -0.036986, -0.020004, 0.135011, -0.015326, 0.129949, 0.118724, 0.145892, -0.025628, 0.053007, 0.008448, 0.001685, -0.094328, -0.015211, 0.144143, 0.061126, 0.053340, 0.006500, -0.067405, 0.168340, -0.080501, 0.089534, 0.094459},
  {0.030197, 0.031547, -0.025395, 0.049212, 0.028669, 0.019146, -0.046012, -0.013115, 0.018887, -0.069797, 0.088834, 0.037638, -0.037843, -0.099792, -0.045102, -0.024267, -0.029989, -0.036598, 0.030744, 0.034224, 0.016095, -0.008238, -0.086192, -0.044976, -0.092814, -0.155563, -0.014915, 0.013795, -0.013530, 0.176552, 0.036148, -0.084437, -0.185478, 0.033859, -0.053957, 0.089837, -0.090501, -0.113887, 0.124261, 0.063209, -0.063067, 0.100332, -0.053250, 0.022556, -0.035220, -0.040473, 0.053573, -0.025637, 0.006744, -0.103799, 0.026962, -0.043005, 0.016922, -0.056375, 0.051287, 0.047347, 0.120365, -0.075756, -0.002465, -0.082654, -0.005993, 0.007042, -0.093047, 0.058008, -0.107962, -0.018786, 0.147777, -0.143378, -0.051864, 0.040054, 0.050259, -0.085455, 0.008628, 0.059590, 0.091788, 0.060917, 0.061165, -0.040810, 0.049692, 0.015809, -0.137503, 0.058314, -0.020062, 0.100785, 0.117454, 0.072757, -0.059020, 0.104042, -0.053267, -0.017250, -0.057143, -0.045342, -0.049455, 0.049187, 0.014745, 0.035542, 0.043135, 0.083153, 0.029759, -0.067414, 0.041058, -0.141655, -0.027570, -0.123389, 0.008233, 0.027144, 0.047998, 0.079415, -0.027979, -0.111534, 0.006822, 0.017000, -0.104307, 0.003373, 0.035281, -0.115890, -0.073121, 0.156022, -0.009506, 0.052411, 0.087586, -0.024238, -0.094233, 0.091749, 0.154139, -0.113993, 0.007641, 0.051430},
  {-0.003511, -0.059196, 0.094265, 0.048731, 0.038216, -0.004142, 0.025345, -0.053713, 0.134019, 0.073907, -0.017908, 0.036699, 0.132177, -0.023290, -0.040117, -0.042665, -0.040598, 0.005159, -0.007814, 0.116341, -0.056788, -0.077499, -0.047983, 0.109225, -0.143242, -0.005325, 0.017059, 0.125210, 0.085081, 0.057767, 0.093429, 0.107197, -0.033339, -0.046119, -0.050119, -0.055895, -0.130255, 0.009768, 0.020667, 0.073312, 0.115650, -0.073857, 0.056321, 0.096749, -0.002275, 0.046181, -0.056665, 0.100983, 0.114346, 0.061913, 0.074526, 0.003315, 0.053824, 0.052511, -0.006756, -0.046195, 0.007077, 0.135542, 0.061538, 0.043204, -0.128208, 0.017045, 0.057158, 0.087581, -0.072681, 0.088297, 0.070636, -0.002362, -0.073807, 0.164000, -0.049854, 0.072827, -0.064517, 0.013333, -0.129405, 0.084125, -0.056782, -0.013901, -0.054999, 0.153516, 0.145972, -0.050533, -0.048896, 0.035352, -0.132878, 0.141178, 0.009841, 0.053785, 0.041649, 0.057494, 0.174380, -0.058882, -0.094504, 0.037028, -0.065989, 0.062514, -0.007216, -0.007711, 0.020547, 0.066496, -0.020382, 0.073065, 0.046195, 0.041892, -0.007697, -0.009324, 0.000258, -0.024547, 0.094214, -0.060856, 0.087588, -0.039212, 0.075578, -0.047163, 0.063616, 0.103171, 0.173770, -0.029182, -0.042203, 0.139392, -0.054753, 0.069609, 0.065123, 0.012788, -0.128955, -0.052406, -0.050194, -0.057099},
  {0.065760, -0.091126, -0.020167, 0.153903, -0.026624, 0.104612, 0.022543, 0.084982, 0.002108, -0.078182, 0.031652, 0.076292, 0.048187, 0.087326, 0.169669, 0.125320, -0.002376, -0.034665, 0.105891, -0.062783, 0.134991, 0.088694, 0.042302, 0.092300, 0.087640, 0.119822, -0.053336, 0.108547, 0.050435, -0.135430, -0.065346, 0.086007, -0.080000, -0.117152, 0.015219, 0.159958, -0.075253, -0.199187, -0.004647, -0.120757, 0.114415, 0.132694, 0.147371, -0.074555, 0.055260, -0.010675, 0.155155, 0.012484, -0.025205, -0.162288, -0.063192, -0.098662, 0.184431, 0.055084, 0.011654, -0.103194, 0.052014, -0.051701, 0.040550, -0.082761, 0.047444, 0.043353, 0.120601, 0.029623, 0.096540, -0.070342, -0.001501, 0.057122, -0.036324, -0.044670, -0.000771, 0.004841, 0.044312, 0.132526, 0.083389, 0.140871, 0.118462, 0.082207, -0.036072, 0.019509, -0.012377, 0.027123, -0.033934, 0.147125, 0.188750, 0.045520, 0.094267, 0.132607, -0.025280, -0.048184, 0.098431, 0.100944, 0.120295, -0.023197, 0.128744, 0.003047, 0.090526, -0.000208, 0.011252, -0.033529, -0.029878, 0.034593, -0.071390, -0.010876, -0.086868, 0.038235, -0.037825, 0.213430, -0.067960, 0.137109, -0.118463, 0.021077, -0.165509, 0.002360, -0.068603, -0.110784, 0.139235, 0.063960, 0.120806, -0.025473, 0.152260, -0.042911, 0.013498, -0.106817, 0.113926, 0.115054, -0.070702, 0.094416},
  {-0.017456, -0.024818, -0.011182, 0.093275, 0.177656, -0.027434, 0.178528, 0.017805, -0.028852, -0.075981, -0.117008, 0.072545, -0.085574, -0.053697, -0.028991, -0.053768, 0.047502, 0.144654, -0.016937, 0.183011, -0.066144, 0.022574, 0.118275, 0.028804, -0.078706, 0.012346, 0.049358, 0.121393, 0.047385, 0.049526, 0.102582, 0.110711, 0.024661, -0.001488, 0.000913, 0.095253, -0.171788, 0.104106, 0.107994, -0.035070, 0.044099, 0.086337, -0.027705, 0.138638, 0.022699, -0.110005, 0.038980, -0.009209, 0.036211, -0.077765, 0.118765, 0.019287, 0.052448, 0.030726, -0.084416, -0.025239, 0.028469, 0.040650, -0.051355, -0.012538, -0.053613, -0.094252, -0.045444, 0.137249, 0.005532, -0.028940, 0.197164, -0.048612, -0.064174, 0.106140, -0.066923, 0.060974, 0.008096, 0.104367, -0.045727, 0.086042, 0.107851, 0.102544, -0.013045, 0.260863, -0.002265, 0.007795, -0.049698, 0.093666, 0.023458, 0.185047, 0.091312, -0.025797, -0.060228, 0.010081, 0.006195, -0.002875, 0.115625, 0.108163, -0.004249, 0.038489, 0.140837, -0.040124, 0.078470, 0.074379, -0.068265, -0.034320, 0.042279, -0.135953, 0.041769, 0.156759, 0.007394, 0.011859, 0.052337, -0.113409, 0.188944, 0.087753, 0.073559, -0.131704, 0.030936, 0.115324, 0.024309, 0.041588, 0.004082, 0.223488, 0.056877, 0.226976, 0.029056, 0.047366, 0.011941, 0.020567, 0.063283, 0.021932},
}