Layer: fc2.weight
Shape: torch.Size([64, 128])
Values:
{
  {-0.010481, 0.108071, -0.012721, 0.079202, 0.034536, 0.058337, -0.045600, 0.046877, 0.055854, 0.044754, 0.011040, 0.081153, 0.088546, 0.009067, 0.092994, 0.106571, -0.046606, 0.089666, -0.074397, 0.105385, -0.052237, -0.033001, -0.027081, 0.012544, 0.095095, -0.029316, -0.060193, 0.068823, -0.072274, 0.118673, 0.113532, -0.025044, -0.059507, 0.067951, -0.015399, 0.088858, 0.053300, 0.072417, -0.032302, 0.000292, -0.023346, 0.031933, -0.031937, -0.043205, 0.127976, 0.077843, 0.133218, -0.044092, -0.021099, 0.005586, 0.122756, -0.113551, 0.040471, -0.028579, 0.011547, -0.009142, -0.068644, 0.114103, 0.049813, 0.114515, 0.014094, -0.038589, -0.003842, -0.036694, -0.005613, 0.065168, -0.000308, -0.035790, 0.121071, 0.087855, 0.072715, -0.084006, 0.077832, -0.061870, 0.066989, 0.045762, 0.041942, -0.040800, -0.038903, 0.093653, 0.071326, 0.101271, -0.037634, -0.083093, -0.087260, 0.035645, 0.027518, 0.003806, 0.001118, 0.093949, 0.029326, 0.087549, -0.005785, 0.062069, 0.073302, -0.045083, -0.017991, 0.000344, -0.071340, -0.010507, 0.000173, 0.024175, 0.039887, 0.085565, -0.091408, 0.047948, -0.001290, -0.001659, 0.045865, 0.070942, -0.011498, 0.025546, -0.054041, 0.107955, -0.012725, -0.027163, -0.052776, -0.094620, -0.037254, -0.006047, 0.052413, -0.012375, -0.010297, -0.026789, 0.041999, -0.067137, -0.007757, 0.009487},
  {0.058051, 0.108333, -0.073877, 0.133109, 0.034869, -0.064624, -0.066868, 0.076359, 0.075604, 0.022892, 0.023852, 0.038920, 0.062806, 0.087845, 0.078655, -0.064133, 0.040180, 0.123528, 0.049177, 0.100455, -0.088670, -0.117094, 0.094522, -0.106536, 0.025615, -0.078261, 0.002079, 0.003611, 0.072443, -0.012421, 0.051568, 0.024642, 0.087071, 0.065234, -0.090236, 0.019275, 0.084265, -0.014186, 0.060954, 0.090597, -0.077511, -0.009209, -0.031316, -0.025207, 0.033829, 0.068325, 0.012637, 0.085697, -0.053529, -0.004479, 0.024488, -0.078631, 0.093334, 0.021548, 0.077975, 0.086448, 0.028455, -0.066732, -0.112835, 0.083428, 0.006994, -0.106564, 0.020630, -0.057828, 0.047351, -0.062216, -0.025842, 0.083259, 0.111132, -0.053259, 0.015792, 0.071373, 0.037607, -0.064823, 0.073822, 0.036243, 0.035854, 0.037998, 0.004420, -0.100001, 0.035065, 0.073179, 0.034598, -0.071083, -0.004039, 0.000283, 0.071294, -0.098489, -0.121518, -0.065944, -0.042706, 0.059266, -0.029229, -0.004292, 0.081226, -0.057407, -0.047793, -0.044353, 0.045322, -0.065635, -0.091911, -0.097533, 0.101728, -0.026019, -0.015705, 0.050815, -0.010010, -0.042513, -0.058377, -0.006629, 0.027341, 0.122470, 0.094861, 0.078498, 0.060821, -0.031825, 0.026386, 0.061632, -0.072918, 0.040987, 0.050778, 0.083960, -0.106117, -0.063654, 0.064085, 0.062157, 0.079744, 0.111875},
  {0.029392, 0.034108, 0.060330, 0.050682, 0.063912, -0.068030, -0.021554, 0.031173, 0.104944, -0.075583, 0.032534, -0.044091, -0.032365, 0.040304, 0.066342, 0.034994, 0.039452, -0.055214, -0.056027, -0.004491, 0.001225, 0.009062, -0.037102, -0.002147, -0.081322, -0.077797, 0.020136, -0.051282, 0.068705, 0.044811, 0.014372, -0.000402, 0.020649, 0.086101, -0.033196, 0.011301, -0.022656, 0.001202, 0.125379, -0.084147, -0.073894, -0.067401, -0.002843, 0.133984, -0.037709, 0.077612, -0.038023, 0.037293, 0.005511, -0.039550, -0.063165, 0.039842, -0.014325, 0.039957, -0.049071, 0.078037, 0.069392, -0.062096, 0.026766, 0.128059, -0.000716, 0.111988, 0.024913, 0.109997, 0.097068, -0.021950, -0.022042, 0.075646, 0.098251, 0.087155, -0.015621, 0.014295, 0.079163, 0.056185, 0.057731, 0.054668, -0.002194, -0.052626, 0.044287, 0.040205, 0.105662, -0.038841, 0.087395, 0.049815, 0.038861, 0.040239, 0.007641, 0.022360, 0.013472, 0.009930, 0.139195, -0.099974, -0.055591, -0.038084, 0.037610, 0.008604, 0.047621, -0.075315, 0.006100, 0.004801, -0.008799, -0.069877, 0.093755, 0.041675, -0.016115, -0.081276, 0.065312, 0.100223, 0.001414, 0.107852, 0.014857, 0.091360, 0.006145, -0.037116, 0.122127, -0.075549, -0.062215, 0.071511, 0.063953, -0.049759, 0.025204, 0.058376, 0.066060, 0.124513, -0.103106, -0.036003, 0.079034, -0.027626},
  {0.022104, -0.037289, 0.052148, 0.128599, -0.061475, -0.071051, 0.022935, 0.012216, 0.002894, -0.023221, -0.008452, -0.043389, 0.035284, 0.099380, 0.046456, 0.016099, -0.041979, 0.077598, -0.028908, -0.022658, -0.058816, 0.020692, 0.054357, 0.001583, -0.081003, -0.096454, -0.071473, 0.047334, 0.047560, -0.072147, 0.019231, 0.094585, 0.067198, -0.007737, 0.083330, -0.062887, 0.085731, -0.088336, 0.042851, -0.069061, 0.096999, -0.088782, -0.068206, -0.074541, 0.123813, -0.080518, -0.051819, 0.059199, 0.132338, 0.018594, 0.028745, -0.071592, 0.087256, -0.027165, 0.022896, 0.063069, 0.078311, -0.065043, -0.004942, 0.131183, 0.001047, -0.060567, 0.103566, 0.066256, 0.049702, 0.023897, -0.075727, 0.091883, 0.085413, -0.005931, 0.048902, 0.050061, -0.040476, 0.040236, 0.009333, 0.047118, -0.011986, -0.036129, 0.048744, -0.062824, 0.008536, -0.013295, -0.017062, 0.020238, 0.065271, 0.016630, -0.074293, 0.021827, 0.008795, 0.034379, -0.048203, -0.077150, -0.042480, 0.072789, -0.032003, -0.107542, 0.020267, -0.016922, -0.025074, 0.036419, 0.008670, -0.006759, -0.018244, -0.005551, 0.015193, -0.009193, -0.033193, 0.037128, 0.054343, 0.068292, 0.033452, 0.042691, -0.060145, 0.093859, 0.003492, 0.047020, -0.063443, 0.084819, -0.016285, 0.094326, 0.077141, -0.050256, -0.076981, -0.030645, -0.091559, -0.087673, 0.090400, -0.023991},
  {0.023299, -0.016416, 0.034783, 0.062489, 0.010235, -0.031763, 0.029950, 0.075197, -0.013396, -0.130564, -0.056438, -0.021803, -0.028189, 0.008723, -0.093350, 0.100824, -0.001888, 0.013854, 0.005973, -0.049062, 0.018725, 0.066048, 0.125506, -0.086246, -0.001931, 0.094026, -0.106915, 0.002655, 0.054814, 0.048556, 0.024799, 0.038030, -0.002650, -0.048879, 0.071687, 0.050049, -0.034052, -0.076302, -0.028869, -0.091764, -0.002784, -0.099322, -0.073086, -0.053750, -0.042272, -0.033947, -0.094237, 0.134520, 0.006212, 0.078145, 0.053574, -0.049371, 0.016034, 0.098630, -0.044532, 0.004877, -0.016115, -0.088721, 0.054300, 0.078354, -0.111692, 0.034564, 0.103329, 0.052453, -0.071064, 0.026611, -0.054985, 0.146184, 0.065340, -0.023719, 0.002598, -0.037640, 0.010218, -0.088939, 0.073667, -0.012593, -0.096695, -0.083166, 0.010601, -0.101660, 0.079347, -0.095031, 0.007325, 0.093245, -0.035138, -0.056760, -0.076621, -0.039880, -0.067134, 0.004432, 0.030140, -0.009880, 0.105085, 0.050701, 0.116097, 0.022720, 0.032659, 0.077152, -0.062708, -0.012257, -0.029383, 0.005651, -0.078932, -0.037809, 0.109519, 0.127068, -0.025831, 0.036750, -0.058928, -0.057149, -0.023432, 0.027863, 0.110047, 0.038931, -0.031287, 0.090164, 0.135216, -0.039830, 0.005249, -0.021058, 0.068879, -0.095483, -0.048026, -0.050001, -0.001070, 0.086244, -0.026533, -0.077013},
  {0.083983, 0.084150, -0.027867, 0.003006, -0.002551, -0.076217, -0.019847, 0.090483, 0.022907, 0.109718, 0.067675, 0.118494, 0.037735, -0.084338, -0.071219, 0.036463, 0.064214, 0.098751, 0.064550, -0.038585, 0.004198, -0.028123, 0.005635, 0.039601, -0.072895, 0.039115, -0.015619, 0.051228, -0.086157, 0.113548, 0.026874, 0.025605, -0.057263, 0.028988, 0.069852, 0.039205, 0.026346, 0.091550, -0.049495, 0.037975, -0.086923, 0.032992, 0.089168, 0.013264, -0.085218, 0.033915, 0.060869, 0.067300, -0.047291, 0.050242, 0.085927, 0.056186, -0.023226, -0.083508, 0.029695, -0.048588, 0.128040, 0.050382, -0.039980, -0.132893, 0.109520, 0.039593, -0.007373, 0.073508, 0.071858, 0.020054, 0.015458, -0.031756, -0.064886, -0.028152, 0.081044, 0.042520, 0.121349, 0.043645, 0.058867, -0.101895, 0.002151, 0.067639, -0.007942, 0.053783, 0.082027, 0.080071, -0.034623, -0.038861, 0.081504, -0.064090, -0.015993, 0.062841, 0.074639, -0.050459, 0.095849, 0.013591, -0.025161, 0.083403, 0.008891, 0.059697, -0.067969, 0.026356, -0.016340, -0.081781, 0.043550, 0.041728, -0.004722, -0.071869, 0.034405, -0.070930, 0.066580, -0.058204, 0.012229, -0.015014, 0.014852, 0.082911, 0.053707, 0.002091, -0.049916, 0.012099, -0.064721, -0.085332, 0.105687, -0.044070, 0.075061, 0.090450, 0.118289, 0.108222, 0.007347, 0.072526, 0.109234, -0.071634},
  {0.004566, 0.071062, -0.045519, 0.100635, 0.023645, 0.081409, 0.005489, 0.095059, 0.051824, 0.029963, -0.041654, 0.128157, -0.063666, -0.045243, -0.055035, 0.081707, 0.077433, 0.078621, -0.018747, 0.038284, 0.017582, -0.002729, 0.117137, 0.065763, 0.104542, -0.055819, 0.014902, -0.013665, -0.086235, 0.024415, -0.040241, 0.015354, -0.051828, 0.069815, 0.130162, 0.028689, -0.015641, 0.066999, -0.062089, -0.026141, -0.078663, -0.008281, -0.033317, 0.050342, -0.001692, 0.031696, 0.129351, 0.090137, -0.077693, 0.002313, -0.036150, -0.012870, -0.043141, -0.090611, -0.005585, -0.069183, 0.038671, -0.029005, 0.010529, -0.027731, -0.040072, -0.059122, -0.037695, 0.038299, 0.082282, -0.050830, 0.056048, -0.013622, 0.029830, 0.010854, -0.014951, 0.027527, 0.086774, 0.023029, 0.074520, -0.056166, 0.072578, 0.126443, 0.015209, -0.025584, 0.029834, -0.033079, 0.094466, 0.009484, -0.035752, 0.080091, -0.032899, 0.037748, -0.074960, -0.064470, -0.086926, 0.009745, -0.057148, 0.104006, -0.008244, 0.019125, -0.096527, 0.001211, 0.103214, -0.021578, 0.010404, 0.043237, -0.012493, -0.050775, 0.091830, 0.097990, 0.018121, 0.026835, 0.089652, 0.080577, 0.078115, 0.068954, -0.026787, -0.050080, 0.051722, -0.083053, -0.026393, -0.059015, 0.040378, 0.024122, 0.130429, 0.058794, -0.047798, -0.007763, -0.052867, 0.047482, 0.018746, 0.046922},
  {-0.028231, -0.040624, -0.060453, -0.080611, 0.052340, -0.048358, -0.053339, -0.049297, -0.040283, 0.022151, 0.098033, 0.077173, 0.117057, -0.035092, -0.008263, 0.045879, 0.018590, 0.025151, 0.090907, 0.032443, 0.023644, 0.029392, 0.091126, 0.012879, -0.063101, -0.055548, 0.086783, 0.045116, -0.108560, -0.030791, -0.082231, 0.096326, -0.064920, 0.125204, -0.070666, 0.004840, 0.073819, 0.044082, 0.020448, 0.035797, -0.032461, 0.060029, 0.111403, 0.088262, -0.073386, -0.042688, -0.040812, 0.036541, -0.117158, 0.045349, 0.078958, -0.028940, -0.045462, 0.039006, 0.033871, -0.003293, 0.107238, 0.050426, 0.039253, 0.012361, 0.089081, 0.014714, -0.045735, 0.028817, 0.071301, 0.051676, 0.081767, -0.015460, -0.056646, -0.037430, -0.059131, -0.007562, 0.046234, 0.066592, -0.095355, -0.010216, 0.111549, 0.047460, 0.033604, 0.010822, 0.053956, 0.076552, 0.108627, -0.082195, 0.092289, 0.046563, 0.111155, 0.006678, 0.025131, 0.098651, -0.019683, 0.040833, -0.000291, 0.090207, 0.019825, 0.007628, -0.048891, -0.038858, 0.070689, 0.064723, 0.089538, 0.097095, 0.082537, 0.109021, 0.011793, 0.039560, 0.093315, -0.009547, 0.089828, 0.055493, 0.111773, 0.118950, 0.085541, 0.100733, -0.049566, -0.010279, 0.072887, -0.008400, 0.100664, -0.056639, 0.050826, 0.064661, 0.129491, -0.003738, 0.027112, 0.104940, 0.056964, -0.067456},
  {-0.043147, 0.004648, 0.000965, 0.094574, 0.089978, 0.096764, 0.063113, 0.036052, 0.085768, 0.079975, 0.084065, -0.049847, 0.058910, 0.060269, -0.078202, -0.072869, 0.032261, 0.054562, 0.005030, 0.013118, -0.083733, -0.038342, 0.090320, -0.062390, 0.105262, 0.108417, 0.007925, -0.091825, 0.068833, -0.056775, 0.028321, -0.000374, 0.074786, -0.062882, -0.028054, 0.030065, -0.048199, 0.049677, 0.113541, 0.109883, -0.036453, 0.108072, 0.040877, 0.036393, -0.088725, 0.097450, -0.055932, 0.073219, 0.020589, 0.061196, 0.060169, -0.062488, -0.056938, 0.103819, -0.090269, 0.031563, -0.055010, -0.104931, 0.018047, -0.007230, 0.038605, 0.081835, 0.015179, 0.050746, 0.125482, -0.002912, 0.103439, -0.060901, -0.019017, -0.002497, -0.131964, 0.080553, -0.084957, -0.000978, -0.023679, 0.093827, -0.033475, 0.009835, 0.051640, -0.001141, -0.146145, 0.024778, -0.039308, 0.084440, -0.028530, -0.029257, -0.024001, 0.045705, 0.019271, -0.046573, 0.012607, 0.006139, 0.001239, 0.020404, 0.051800, -0.009997, -0.002377, 0.023272, 0.019008, 0.025559, -0.034628, -0.051086, -0.100032, 0.033850, 0.021950, 0.042230, 0.087801, -0.041987, -0.121732, -0.073233, 0.015664, 0.000539, 0.030825, 0.038882, -0.026407, 0.050373, 0.097298, -0.021701, -0.086850, -0.085331, 0.077958, -0.020947, 0.060427, -0.051755, 0.100143, 0.014671, 0.079300, -0.025032},
  {-0.072214, 0.031759, -0.063159, 0.043600, 0.086659, -0.040034, -0.005269, 0.009614, 0.127692, 0.020322, 0.041719, 0.034139, -0.079523, -0.018520, 0.027302, -0.028017, -0.138048, -0.021382, 0.003992, 0.073177, 0.095457, 0.106674, -0.009190, 0.101815, 0.065424, 0.067288, 0.058412, 0.027596, 0.039770, -0.002075, 0.031961, -0.035124, -0.022076, -0.011578, -0.059016, -0.067985, -0.018888, 0.082312, 0.066089, 0.019556, 0.032161, 0.060446, 0.004102, 0.039843, 0.068823, -0.054683, 0.043873, -0.003738, -0.043893, 0.000669, 0.009341, 0.067276, 0.104922, 0.098426, -0.100179, -0.067401, 0.030228, 0.057719, 0.051890, 0.112983, 0.025099, 0.034367, -0.053066, -0.092751, 0.071760, 0.050925, 0.079173, -0.102459, 0.099394, 0.052036, 0.033223, 0.104839, 0.052733, -0.019896, 0.063398, -0.033001, 0.035875, -0.064680, 0.010715, 0.035443, -0.065080, -0.100133, -0.005146, -0.003741, 0.109370, 0.018728, -0.085110, 0.116747, 0.104444, 0.083356, 0.105267, -0.119826, 0.054267, 0.061339, -0.051214, 0.086002, 0.060987, -0.014818, 0.049229, -0.005155, 0.058620, -0.033439, 0.102539, 0.017004, -0.089558, -0.059430, -0.012473, 0.099110, -0.074507, -0.058249, -0.036965, 0.017492, 0.080402, 0.064635, -0.007805, -0.031633, -0.016359, 0.003506, 0.102802, -0.021943, 0.015761, 0.136185, 0.083937, 0.148628, 0.000229, 0.014790, 0.072469, 0.091319},
  {0.110793, 0.040284, 0.131146, 0.088150, 0.060516, 0.028503, 0.139566, -0.008136, -0.040130, -0.023692, 0.105088, 0.029077, 0.090128, 0.100255, -0.066960, -0.038713, 0.022916, -0.069564, 0.060202, -0.025694, -0.016215, 0.078943, -0.010670, -0.054098, 0.084015, 0.083777, 0.154927, 0.040648, -0.037231, 0.021446, 0.042410, 0.001273, 0.013124, -0.096823, -0.039494, 0.103979, -0.002548, 0.098382, -0.014280, 0.072986, 0.045774, 0.043598, 0.132494, -0.047865, -0.064094, 0.071739, 0.007417, 0.045319, -0.005323, 0.123956, 0.082363, -0.038484, 0.044990, 0.012953, -0.013258, -0.023023, 0.058316, 0.061425, 0.117521, -0.027522, 0.045878, 0.057417, 0.092342, -0.000870, 0.012970, 0.119774, 0.018741, 0.056651, -0.061284, 0.020306, -0.075382, -0.063176, -0.042253, 0.004974, 0.000576, 0.092091, 0.081649, 0.027570, -0.048505, 0.003762, -0.033127, 0.092307, -0.005333, 0.087067, -0.025067, 0.160116, 0.019793, 0.059353, 0.056477, 0.062625, 0.037480, 0.103694, -0.006089, -0.044477, 0.126411, 0.039356, 0.106776, 0.062731, 0.069492, 0.095760, -0.053406, -0.008786, -0.028105, 0.010963, 0.095769, 0.042097, 0.050629, 0.025745, -0.077167, -0.077025, 0.066657, 0.056859, 0.052568, -0.067031, 0.062416, 0.130228, 0.079733, 0.056779, 0.037789, 0.001555, 0.046521, -0.095385, -0.082719, 0.034329, 0.051572, 0.032984, -0.018116, 0.050389},
  {0.079285, -0.069276, 0.067931, 0.127332, 0.052464, -0.120143, -0.106328, 0.133436, -0.009886, -0.041083, -0.062593, 0.091291, 0.052848, 0.021322, -0.055436, 0.034577, 0.048202, 0.022999, -0.087751, 0.029515, -0.045173, -0.055468, -0.067215, 0.111669, -0.001190, -0.030952, -0.087817, 0.071181, -0.028655, 0.115813, -0.101005, 0.046220, 0.047760, 0.030726, 0.083191, 0.055775, 0.073105, 0.006842, 0.068301, -0.091711, 0.012822, -0.049743, 0.022624, -0.100233, 0.107325, -0.009560, -0.028129, 0.056018, 0.044546, -0.060558, -0.050574, 0.072356, -0.058672, -0.072714, 0.124798, 0.078633, 0.078994, -0.000322, 0.065282, 0.012877, 0.112118, -0.039733, 0.027288, 0.125978, -0.055295, 0.064491, 0.061965, -0.002937, -0.033662, 0.020897, -0.010045, -0.038079, 0.114743, -0.039702, 0.093879, 0.099744, -0.016843, -0.021076, -0.008095, 0.011317, 0.158207, -0.040260, 0.060037, -0.080268, 0.013396, -0.073194, 0.046545, -0.033481, -0.039808, -0.051498, 0.042962, -0.045269, 0.049785, 0.061598, 0.041394, -0.078240, 0.098251, 0.103513, -0.083580, 0.031428, -0.035302, 0.120474, 0.017931, 0.003584, 0.018392, -0.068313, 0.044669, 0.011598, 0.026626, -0.001505, -0.093367, 0.080176, 0.018864, -0.010922, -0.016933, 0.047164, 0.006808, 0.108365, -0.066480, 0.074941, -0.064892, 0.100714, 0.033540, -0.021019, 0.017784, -0.082339, 0.030062, 0.009249},
  {-0.113320, 0.041516, -0.008119, -0.053068, 0.103300, -0.025433, 0.042875, 0.067528, -0.051222, 0.102681, 0.061736, 0.005334, 0.052773, -0.087337, -0.034415, -0.019357, 0.013137, 0.058402, 0.034918, 0.025530, -0.076055, 0.017371, 0.054659, 0.026586, -0.043626, -0.053648, -0.031330, -0.040014, -0.059323, 0.011524, -0.066928, 0.011494, -0.029907, 0.001269, 0.012920, -0.079544, 0.057861, 0.062577, -0.114254, 0.005866, -0.075756, 0.068673, 0.047358, 0.073213, -0.018303, 0.091505, -0.030407, -0.014398, -0.026059, 0.060106, 0.036570, 0.073908, -0.046903, -0.100780, 0.021149, -0.063295, 0.014457, -0.000987, 0.011891, 0.033245, -0.018604, -0.092208, -0.079555, -0.052312, 0.111509, 0.024222, -0.035875, -0.046135, 0.003291, -0.111851, -0.065036, 0.093797, 0.083241, 0.101018, -0.044190, -0.089283, 0.045021, 0.093859, 0.090982, 0.007334, 0.110445, -0.018761, 0.040172, -0.115109, 0.048224, -0.065565, 0.108371, -0.052710, -0.012280, 0.006624, 0.015519, 0.087787, -0.030437, 0.009303, 0.065604, 0.094323, -0.020368, -0.006958, -0.015270, -0.022690, 0.032706, -0.058941, -0.019874, 0.039498, 0.027242, 0.049454, 0.033875, 0.026075, -0.057692, 0.119862, 0.096759, 0.133486, 0.080588, 0.092076, -0.113363, -0.029129, -0.045186, -0.083619, -0.012623, 0.040230, 0.037577, 0.053416, 0.074994, 0.014514, 0.023580, 0.102609, -0.003098, -0.011850},
  {0.097408, 0.080416, 0.005107, 0.136440, -0.010329, 0.086004, 0.102365, 0.037525, 0.103048, -0.093894, -0.003196, 0.032045, -0.014640, -0.042437, -0.103076, -0.011141, -0.107890, 0.015464, -0.027725, -0.034047, 0.116087, -0.012306, -0.018184, 0.048139, 0.030644, 0.111488, 0.062985, -0.019408, 0.038005, -0.072951, 0.111159, -0.086762, 0.113940, -0.060924, 0.090399, 0.050265, -0.099022, -0.000076, 0.029884, 0.089565, 0.117768, -0.071964, 0.036808, 0.016846, -0.062231, 0.044552, -0.057220, 0.116352, 0.081620, 0.012105, 0.120563, 0.027654, 0.095364, 0.068535, 0.061085, -0.039925, -0.010165, 0.000005, -0.037680, -0.045920, -0.063923, 0.038222, 0.084874, -0.026824, -0.007577, -0.035512, 0.028132, 0.125574, -0.025278, 0.122761, -0.048430, -0.055728, 0.018534, 0.052657, 0.012769, 0.006033, -0.010134, 0.017959, -0.084135, 0.106666, -0.018875, -0.055874, -0.113369, 0.098303, -0.076781, 0.058076, -0.109219, 0.066652, 0.038970, -0.063650, -0.001061, -0.013454, 0.017953, -0.038718, 0.103895, 0.016742, 0.029200, 0.023532, -0.077764, 0.081064, 0.047368, -0.053489, 0.018915, -0.021709, -0.010401, 0.075194, 0.001672, 0.081125, 0.023369, -0.119558, 0.008536, -0.086252, 0.104082, 0.003290, 0.028968, 0.062749, 0.023606, 0.127656, -0.056810, -0.032121, 0.031096, -0.040387, 0.049055, 0.014712, 0.008760, 0.060272, -0.111137, -0.009438},
  {0.069582, -0.022790, 0.084793, 0.137699, 0.072885, -0.002365, -0.043437, -0.023988, 0.047377, 0.078002, 0.044708, 0.082110, -0.040427, 0.020984, 0.073615, 0.078624, -0.049877, 0.010041, -0.075454, -0.005243, 0.009932, -0.018102, 0.026748, 0.080320, 0.080716, -0.029375, -0.028586, -0.001246, 0.027442, -0.042602, 0.087718, -0.005372, 0.011809, 0.051900, -0.017201, 0.090479, 0.028678, -0.048695, 0.074308, 0.020818, 0.080986, -0.071437, -0.060960, -0.085100, 0.065569, 0.085512, 0.028849, 0.063421, 0.043616, -0.019386, 0.027221, 0.022125, -0.014109, -0.001314, 0.136492, 0.001238, -0.029152, 0.059628, -0.076989, 0.051226, 0.032093, -0.067415, 0.081085, -0.000344, -0.061680, 0.123296, -0.068126, 0.037626, 0.085745, 0.028792, 0.040909, -0.013439, 0.115982, -0.115438, 0.037075, -0.031984, 0.086932, 0.087195, -0.056824, 0.001597, -0.050322, 0.030496, -0.044012, 0.070489, 0.022221, -0.020148, -0.012285, -0.043554, 0.047349, -0.017014, 0.015870, 0.051029, 0.077784, -0.075136, -0.062976, 0.038417, 0.106678, 0.007242, 0.009134, 0.045290, 0.096896, 0.031288, 0.058185, 0.023659, -0.011140, 0.013039, 0.016567, -0.044914, 0.064147, 0.053884, -0.100288, -0.114156, -0.088494, -0.029037, 0.025670, 0.044654, 0.046290, 0.020155, 0.001722, 0.034463, 0.090018, 0.044943, -0.109337, 0.019155, 0.041095, -0.074533, 0.024894, 0.093179},
  {-0.018247, -0.107490, 0.091540, 0.074370, 0.079103, -0.034506, 0.072521, 0.119780, -0.063402, -0.081997, -0.036380, 0.095442, -0.067630, 0.055374, -0.083497, 0.049603, -0.077537, 0.027862, 0.040382, -0.052217, 0.108101, 0.103730, 0.055917, 0.097201, 0.010890, -0.007095, -0.000466, 0.090639, 0.013394, 0.021695, 0.062352, 0.070520, -0.025947, 0.027748, 0.108030, 0.122129, -0.063374, -0.010006, -0.100787, -0.006312, 0.118757, 0.026308, 0.129193, 0.098010, 0.016775, -0.029335, 0.041974, 0.017571, -0.013157, -0.061511, 0.131780, 0.076334, 0.006065, -0.070779, 0.114929, 0.111483, 0.047487, 0.140991, 0.119034, -0.025591, 0.011870, 0.048355, 0.049454, 0.118278, 0.005304, 0.031912, 0.036974, 0.125990, -0.093556, -0.059699, 0.114981, 0.089799, 0.089595, 0.008937, 0.115858, 0.056424, -0.050718, -0.036695, 0.008144, 0.136771, -0.016807, -0.073086, 0.036273, 0.061899, -0.010725, -0.074835, 0.073778, 0.135783, -0.048432, -0.026041, 0.003032, -0.022001, -0.014993, 0.032775, -0.020557, -0.031865, 0.048970, 0.140675, 0.035914, 0.125132, 0.011668, 0.094270, -0.033745, -0.050104, 0.054724, -0.045753, 0.048984, 0.056930, 0.046872, -0.002736, -0.049125, 0.090092, 0.067041, -0.085125, -0.015726, 0.055787, 0.028941, 0.028828, 0.104969, -0.062073, -0.064695, 0.052093, -0.012943, 0.108264, -0.120182, -0.014065, -0.016811, -0.053066},
  {0.055057, 0.029044, -0.084233, -0.009882, 0.006919, 0.081055, 0.000441, -0.070426, -0.009018, -0.007350, -0.080342, -0.087151, -0.064886, -0.018294, -0.011503, 0.023083, -0.038058, 0.012249, -0.067968, -0.091449, 0.050489, -0.034707, 0.036991, 0.068691, -0.030365, 0.013199, -0.112772, -0.108150, 0.007093, 0.093171, 0.114211, 0.059052, 0.088879, -0.068057, 0.010806, -0.032133, 0.042132, -0.050550, -0.034890, 0.045553, -0.049694, -0.012936, 0.017947, -0.049949, 0.078795, 0.001212, -0.071251, -0.014112, -0.039454, 0.002244, -0.042456, -0.065225, 0.065284, 0.042356, -0.095513, 0.045347, 0.068268, -0.010393, -0.030921, 0.000212, 0.044438, 0.052926, -0.007649, 0.020311, -0.081298, 0.048377, 0.010746, 0.020576, 0.050073, 0.125074, -0.047482, 0.011327, -0.064378, 0.010584, -0.052448, -0.001116, 0.051846, -0.064342, 0.030342, -0.062067, 0.038839, -0.097559, 0.039141, 0.034564, -0.005027, -0.073158, -0.126801, 0.022610, 0.037175, -0.049577, -0.014067, -0.120631, 0.014047, 0.055596, 0.076204, 0.004262, -0.082598, 0.035133, 0.000368, 0.012630, -0.023456, 0.054392, 0.049875, 0.010684, 0.072961, 0.089186, -0.056634, -0.026487, 0.052712, -0.037439, -0.025755, -0.073023, 0.117397, 0.003522, 0.043413, 0.034252, -0.043280, 0.018133, 0.107491, 0.040218, 0.102307, 0.052899, 0.012816, 0.111253, -0.036459, -0.043876, 0.047185, 0.038747},
  {-0.045458, 0.019753, 0.062836, -0.087936, 0.003014, -0.019094, -0.061476, 0.025246, 0.101094, -0.072902, 0.049484, 0.044393, 0.067020, -0.046395, 0.076162, 0.049725, -0.047815, -0.071007, 0.084681, -0.032776, 0.024810, 0.008057, 0.026340, 0.009585, -0.009670, -0.028859, -0.045569, 0.044850, 0.014004, 0.054217, 0.094727, 0.068232, 0.004215, 0.116826, 0.045281, -0.039232, 0.019712, -0.038247, 0.024455, -0.004474, -0.082044, 0.080524, 0.003657, 0.093362, -0.012755, 0.012503, -0.077363, 0.030958, -0.020421, 0.056382, -0.066286, 0.127254, 0.013200, 0.106603, -0.042634, -0.055488, 0.033060, -0.049077, 0.058294, 0.016177, 0.113249, -0.008097, -0.058619, 0.000933, 0.075673, 0.027174, -0.072289, 0.038013, 0.005542, -0.006995, -0.022515, 0.016768, 0.057919, 0.029515, 0.043879, 0.102548, -0.025741, -0.010248, -0.007980, 0.002026, -0.057321, -0.019664, 0.046012, 0.097262, 0.155238, 0.094756, -0.021751, 0.010477, 0.077910, 0.126219, 0.085260, -0.107259, -0.000840, -0.042029, -0.062362, -0.015464, 0.042774, -0.061960, -0.109132, 0.002647, -0.038054, -0.011568, -0.019361, 0.110018, -0.092445, -0.130294, -0.034967, 0.040046, 0.046410, -0.001819, 0.048284, 0.055712, -0.024963, -0.069315, 0.011956, -0.003499, -0.007589, 0.102147, -0.017844, -0.070837, -0.028715, 0.111292, 0.058397, 0.047625, 0.030360, 0.078966, 0.079779, 0.111335},
  {-0.019349, -0.120745, 0.083581, -0.011180, 0.143562, 0.000350, -0.024600, 0.110707, 0.121815, 0.030414, -0.026178, 0.052880, -0.008599, 0.070471, 0.104992, 0.040307, -0.071752, -0.028120, -0.050025, -0.001303, 0.044061, 0.036061, 0.013377, 0.055758, -0.098177, -0.021370, 0.004303, -0.028812, -0.065058, -0.011835, 0.004939, 0.016554, 0.030012, 0.059647, 0.007101, 0.025265, 0.094513, 0.069490, 0.139370, -0.047002, -0.044505, 0.099229, 0.089321, 0.151790, 0.059229, -0.002346, -0.066181, 0.062263, -0.130370, -0.000042, 0.022753, 0.073379, 0.045397, 0.047724, -0.060229, -0.065722, 0.112599, -0.063805, -0.022585, 0.076982, 0.154309, 0.079665, 0.021897, 0.031360, 0.083944, 0.008333, -0.000537, 0.009678, -0.041715, 0.104620, 0.029903, 0.027837, -0.002479, 0.067821, -0.032884, 0.077711, -0.021072, -0.009094, 0.000497, -0.031996, -0.057357, -0.086778, 0.076018, -0.060816, 0.014802, 0.016654, -0.048067, 0.028351, 0.044144, 0.120893, 0.073898, -0.113211, -0.040108, -0.009049, -0.102807, 0.123716, -0.037856, 0.003642, -0.079510, -0.034940, 0.081005, -0.009907, -0.005271, -0.012739, -0.073604, -0.142078, 0.055093, 0.062327, 0.031323, 0.079966, 0.099041, -0.036841, 0.067789, -0.059581, 0.065419, 0.061419, 0.000579, 0.020565, 0.129275, 0.035347, 0.056531, 0.079002, 0.141322, 0.070839, 0.040208, -0.006590, 0.091418, -0.034408},
  {0.084698, -0.044522, 0.020691, -0.087140, -0.036812, 0.035714, -0.015627, 0.010407, -0.098105, -0.028389, -0.035132, -0.006726, 0.033637, 0.050393, -0.027701, 0.050937, -0.061870, -0.143305, 0.087407, 0.068548, 0.067441, 0.090798, -0.103423, 0.091357, -0.098065, -0.011346, -0.024408, -0.060146, 0.018795, -0.111728, -0.113061, -0.094911, 0.030423, -0.043125, -0.068789, 0.026966, 0.044706, 0.032134, 0.125156, 0.098656, 0.059750, -0.021361, 0.037326, 0.110987, 0.002444, -0.062615, 0.014876, -0.129013, -0.033336, 0.030602, -0.040649, 0.049705, 0.065916, 0.040238, -0.039869, -0.049822, 0.057613, -0.052286, 0.057083, 0.075068, 0.079833, 0.008092, 0.062980, 0.071289, 0.006868, -0.052757, -0.045505, -0.070158, -0.074032, 0.063138, -0.094692, -0.082449, -0.099392, 0.044135, -0.118510, 0.042681, -0.056751, 0.024870, 0.045699, -0.013994, 0.051454, 0.021991, 0.022113, 0.102463, 0.018999, 0.034587, -0.064865, -0.079468, 0.000824, -0.025096, -0.026478, 0.045610, 0.067771, -0.111600, -0.114987, 0.010075, 0.060163, -0.040944, 0.093952, 0.155422, 0.018017, -0.004280, -0.034592, 0.013047, -0.027275, -0.097032, -0.036665, 0.054693, -0.062332, -0.044457, -0.046886, 0.047364, 0.068506, 0.005585, 0.042793, 0.026704, -0.066371, 0.109431, -0.016252, -0.112109, -0.085261, 0.027416, -0.032482, 0.083474, 0.043799, 0.047489, -0.056554, 0.020917},
  {0.139482, 0.118727, -0.006517, 0.055870, 0.023651, 0.070395, 0.048437, 0.051998, -0.019283, -0.034936, 0.036530, -0.016697, -0.049913, -0.043783, 0.018401, 0.108532, 0.025922, 0.039856, -0.073948, -0.001005, -0.033220, -0.052446, 0.048359, 0.031967, 0.072916, 0.067698, -0.002999, 0.095287, 0.133032, -0.039241, 0.032165, -0.052336, 0.058825, -0.037061, 0.114502, 0.000080, -0.030163, -0.061515, -0.124519, -0.051174, -0.022718, -0.058557, 0.004169, 0.028920, 0.047953, -0.051909, 0.041498, 0.057910, 0.022236, 0.034212, 0.004200, -0.044987, -0.057152, 0.017343, 0.134217, 0.016856, 0.041054, 0.108293, 0.086756, 0.046655, 0.042112, 0.022484, -0.012985, 0.029087, -0.043630, 0.124475, 0.040562, -0.031168, 0.105974, 0.033247, 0.013529, 0.008184, -0.007440, -0.048332, 0.075043, 0.054260, 0.017545, 0.017840, 0.039083, 0.099449, -0.042196, -0.019635, -0.039053, 0.037017, -0.040870, -0.027648, -0.118294, -0.013689, 0.042197, -0.021073, 0.022556, 0.062676, 0.074416, 0.006264, 0.098206, -0.107752, 0.000397, 0.037966, -0.069216, 0.022715, 0.097591, 0.040777, 0.085521, -0.150587, 0.105824, -0.004654, -0.020023, 0.052970, -0.017578, -0.070899, -0.072571, 0.015895, -0.034887, -0.097845, 0.068619, 0.114471, 0.106372, 0.065637, -0.066304, -0.044274, -0.039874, -0.085423, -0.071131, -0.051972, 0.110387, 0.044175, -0.038423, -0.033406},
  {-0.010377, 0.043909, 0.006301, -0.053942, -0.058090, -0.091301, -0.067754, 0.080585, -0.019349, -0.006725, -0.049110, -0.082774, -0.052630, -0.039488, 0.121190, 0.017026, 0.088784, -0.031413, 0.047081, -0.027355, -0.097556, 0.031963, -0.092270, 0.027955, -0.025832, -0.027903, -0.083746, 0.058821, -0.075807, 0.027429, 0.061290, 0.099111, 0.080485, 0.012052, -0.041634, -0.087586, 0.110019, 0.048616, 0.095188, -0.096524, 0.008749, -0.071037, -0.077459, 0.005556, 0.036805, 0.071135, 0.000621, -0.019597, 0.045218, -0.054833, -0.038816, -0.086498, 0.043467, 0.032032, -0.009271, 0.066833, 0.020261, -0.072394, -0.063454, 0.109080, -0.001944, 0.045715, -0.034636, 0.082778, -0.061394, -0.078964, 0.010754, 0.104169, 0.045098, 0.022332, 0.078729, -0.037306, -0.009384, -0.084448, 0.031583, 0.079914, -0.014205, 0.030206, -0.086477, 0.038706, 0.012321, 0.034631, 0.034528, -0.005912, -0.015967, -0.048885, -0.057626, -0.050207, -0.067374, 0.109284, 0.004202, -0.027796, -0.009639, -0.078620, -0.025115, -0.011237, 0.126917, 0.085583, -0.083927, -0.040553, 0.032576, -0.077493, 0.083504, -0.070797, -0.039795, 0.030357, 0.069084, -0.064994, 0.047425, 0.098515, 0.055031, 0.008993, -0.058152, -0.006245, 0.065047, -0.023363, 0.006725, -0.044468, 0.019304, 0.106085, 0.005907, -0.015552, 0.015159, 0.045127, -0.004110, -0.040712, -0.113090, -0.037304},
  {0.003694, -0.059208, -0.043960, 0.010130, 0.076599, -0.002095, -0.016121, 0.046205, 0.098151, -0.121020, 0.045008, -0.033033, 0.051030, -0.055214, 0.022461, -0.020871, -0.081787, -0.067021, -0.056805, 0.004745, -0.043227, 0.087726, -0.057627, -0.016331, -0.107128, -0.037311, -0.023072, -0.091822, -0.021368, 0.104263, -0.026666, 0.059792, -0.057504, 0.100351, -0.034320, -0.037487, -0.046392, -0.022482, -0.062912, -0.114858, -0.064442, -0.021300, 0.094722, 0.084195, -0.088054, -0.113671, -0.002161, 0.106783, 0.083212, 0.048990, -0.046851, 0.127211, -0.015422, -0.066046, -0.062050, 0.060448, 0.029274, 0.010176, 0.112957, 0.031610, -0.046955, 0.131682, -0.037620, 0.035677, 0.004879, 0.067136, 0.079253, 0.011378, -0.011286, -0.010710, -0.047145, 0.066168, 0.009076, 0.041470, -0.038512, -0.052814, 0.010604, -0.029705, 0.106499, -0.071604, 0.101643, 0.019866, -0.046171, -0.044275, 0.113860, -0.003452, 0.082485, -0.000555, 0.072320, 0.005335, 0.014033, -0.095581, 0.045280, 0.120182, -0.102825, 0.063525, 0.072782, 0.070015, 0.020024, 0.096249, 0.073425, 0.021132, 0.033337, -0.057824, -0.059221, 0.035413, 0.043975, 0.116362, -0.073543, 0.000001, 0.089614, 0.097969, 0.082486, 0.006678, -0.000057, -0.082376, -0.009257, 0.082688, 0.060319, 0.004414, 0.033486, 0.043196, -0.012160, 0.078857, 0.062509, 0.077907, -0.029957, -0.059043},
  {0.083493, 0.031643, 0.090570, -0.001975, -0.051802, -0.025076, 0.022267, 0.067119, -0.075653, -0.064898, 0.042896, -0.008598, 0.030758, 0.008542, 0.005105, 0.100041, 0.070539, -0.076703, -0.096512, 0.012538, 0.023849, 0.069070, -0.090196, -0.003191, 0.102451, 0.066609, 0.067431, 0.056040, -0.116989, 0.036470, -0.010352, -0.048751, -0.094206, -0.045984, -0.003279, 0.109114, -0.048213, 0.030910, -0.081696, -0.112243, -0.050487, 0.085425, 0.064490, -0.059556, 0.101123, -0.059450, 0.003342, 0.005437, -0.068290, 0.021254, 0.087878, 0.021781, 0.038373, -0.074390, 0.118640, 0.042663, 0.058448, -0.000442, -0.036692, -0.049593, 0.061924, 0.013350, 0.002162, 0.094864, 0.017249, 0.019436, 0.027997, -0.040849, 0.038843, 0.044438, -0.004982, -0.070597, 0.058261, -0.058422, 0.008151, 0.038610, 0.106762, 0.117733, 0.020126, 0.052959, -0.025290, -0.059782, -0.067992, 0.024728, -0.109781, 0.060681, -0.003080, 0.043556, -0.043193, -0.046318, -0.092976, 0.127247, 0.007126, 0.106603, -0.035660, -0.052272, -0.031295, 0.073694, 0.004100, 0.005608, 0.073720, 0.010511, 0.053479, -0.047115, -0.001746, 0.000599, -0.100021, -0.117087, 0.017867, -0.020898, 0.004891, 0.056226, -0.048394, -0.098598, -0.045558, -0.043366, -0.065336, -0.016058, -0.070495, -0.019101, 0.082372, 0.002827, -0.024761, 0.027379, -0.021955, -0.072880, -0.100480, -0.092384},
  {0.116991, -0.046153, 0.002120, -0.024394, -0.088509, 0.005987, -0.070084, 0.113601, 0.040833, 0.014672, 0.059317, 0.035859, -0.061385, 0.122501, -0.044660, -0.049967, 0.094156, 0.037638, -0.086993, 0.032538, 0.051947, 0.032498, -0.089850, -0.055139, -0.036040, -0.100650, 0.001485, -0.037026, -0.058381, 0.074159, -0.041663, -0.039873, 0.004125, -0.071696, 0.050627, 0.071421, 0.010653, -0.065919, 0.012000, 0.012466, -0.101543, 0.051809, -0.099595, -0.108607, -0.015669, 0.003166, -0.004334, 0.009428, -0.027037, -0.077387, -0.069339, 0.075530, -0.029372, -0.025234, -0.008320, 0.054272, -0.022766, -0.004804, 0.055380, 0.023424, 0.022796, -0.035189, -0.071695, 0.007492, -0.054262, -0.010903, -0.070584, -0.006121, 0.071223, -0.023106, 0.031479, -0.026467, 0.017763, -0.070447, 0.063793, 0.066946, -0.060430, 0.070440, -0.072008, -0.073149, -0.047733, -0.060820, -0.076910, -0.053116, -0.020568, -0.052975, 0.077538, -0.040139, 0.036698, 0.021397, -0.038050, -0.030233, -0.054800, -0.022851, -0.085998, 0.057063, 0.031634, 0.063112, -0.014141, -0.020152, 0.042609, -0.057395, 0.074688, 0.043830, -0.074384, 0.014250, -0.058578, 0.033944, 0.012496, -0.012717, 0.054344, 0.073126, -0.105677, 0.077622, 0.078942, 0.053928, -0.075247, -0.003035, 0.055327, 0.061058, -0.006542, -0.044346, -0.070287, -0.063812, 0.005094, -0.022528, -0.053511, 0.113962},
  {-0.098772, 0.008141, -0.005308, -0.006510, -0.043543, 0.120933, 0.099268, 0.087753, 0.100091, 0.002170, -0.023593, 0.050263, 0.004766, 0.024357, -0.087327, 0.033417, 0.042949, -0.026261, 0.047958, 0.068260, 0.041692, 0.042640, -0.005689, 0.030639, 0.023217, 0.126208, 0.078802, 0.019066, -0.003587, 0.048244, -0.027483, -0.104436, 0.048789, 0.039031, -0.098375, 0.029653, 0.036564, -0.038149, 0.139264, 0.092853, -0.011049, -0.037741, 0.064368, -0.021753, -0.002465, 0.071247, -0.068056, 0.090011, -0.069723, 0.013786, -0.009753, 0.009078, 0.130231, 0.099044, 0.013664, 0.050813, -0.035791, -0.083541, 0.055432, 0.008668, -0.040501, 0.100069, 0.045993, -0.030230, 0.094783, -0.098491, 0.009929, -0.078117, 0.060117, 0.119206, 0.044047, 0.083477, -0.115086, 0.091552, -0.096285, 0.082432, 0.042729, -0.086295, 0.084870, -0.021479, -0.065581, 0.029892, 0.017304, 0.119897, 0.056147, 0.109645, -0.040390, 0.014814, -0.020706, 0.005145, 0.104747, -0.060291, -0.038121, -0.038608, -0.073583, 0.088349, 0.120081, -0.057989, -0.044830, -0.017142, 0.040522, -0.108497, -0.032703, -0.030197, 0.007254, -0.017857, -0.025166, 0.110304, -0.024461, -0.057597, 0.028319, 0.098472, -0.006688, -0.049847, -0.011038, 0.054919, -0.049959, -0.015547, -0.005135, 0.022267, 0.004150, 0.038811, 0.058259, 0.044482, -0.041940, 0.041310, 0.045565, -0.018562},
  {0.112123, 0.118032, -0.012040, 0.049717, -0.043947, -0.033125, -0.024882, -0.034343, -0.067041, 0.086783, 0.095436, -0.035786, 0.024715, -0.066401, 0.048208, 0.048813, 0.044220, 0.083502, 0.077195, 0.065889, -0.100614, -0.085006, 0.040438, -0.019692, -0.047559, -0.023629, 0.057218, -0.017760, -0.069719, 0.086922, 0.025279, -0.012169, 0.076366, 0.080034, 0.051607, -0.009121, 0.019968, 0.103097, -0.094665, 0.055614, -0.039899, -0.014024, 0.065120, 0.068152, -0.030001, -0.035141, 0.088460, -0.020693, -0.107319, 0.077395, 0.071658, -0.024088, -0.090515, -0.034936, 0.060190, -0.027056, -0.072097, 0.082284, -0.045305, -0.006757, 0.009270, -0.085617, -0.013650, -0.013644, 0.095813, -0.035223, -0.010335, -0.041736, -0.091001, -0.032276, -0.060423, -0.033772, 0.018175, -0.054563, -0.093128, 0.058538, 0.119661, 0.028491, 0.059183, 0.054127, -0.074737, 0.089550, 0.071948, -0.121003, -0.051182, 0.084942, 0.118897, 0.039491, -0.008740, -0.098894, -0.017569, 0.131156, -0.080160, 0.015859, 0.066128, -0.018681, -0.100422, 0.036801, -0.016906, -0.037694, 0.003112, -0.019135, 0.036140, 0.068896, 0.045490, 0.017252, 0.070841, -0.009705, 0.006056, -0.013201, 0.026028, 0.083373, -0.012123, 0.046087, 0.005014, 0.039849, 0.022975, -0.079702, -0.088726, 0.007250, -0.022920, -0.050003, -0.075501, -0.102468, 0.028945, 0.047195, 0.046333, 0.005595},
  {0.070130, 0.122786, 0.060331, 0.007427, -0.051182, -0.052802, 0.044524, -0.054299, -0.017273, 0.133626, 0.113610, 0.098839, 0.103893, -0.039050, -0.037060, 0.074339, 0.042503, 0.089457, -0.048347, 0.054187, -0.012912, -0.023247, 0.072378, 0.117461, 0.083658, -0.017752, 0.079842, 0.032755, -0.119082, -0.007077, -0.002460, 0.013817, 0.024098, -0.055030, 0.093962, 0.078752, 0.085303, 0.103182, -0.102944, 0.023853, -0.006263, 0.126422, -0.001552, -0.034556, 0.000250, 0.067343, 0.090696, -0.068180, -0.063610, 0.058560, 0.138452, -0.063357, -0.037190, -0.036497, -0.025807, 0.088324, 0.013173, 0.001478, -0.063875, -0.142703, -0.057627, -0.067198, -0.042658, 0.086838, -0.074940, 0.132838, 0.060026, -0.046776, -0.007747, -0.053062, 0.029087, 0.019021, 0.046557, 0.032677, -0.020139, -0.076804, 0.083581, 0.037824, 0.132604, 0.029506, 0.089237, 0.081132, 0.089827, 0.057894, -0.006014, -0.035235, 0.006997, 0.119325, -0.025389, -0.030257, -0.098806, 0.028661, -0.036895, 0.095633, -0.008242, 0.074872, -0.084905, -0.015305, 0.066896, 0.063702, 0.029413, 0.140016, -0.052118, -0.021668, -0.021172, 0.053439, 0.032627, 0.007199, -0.028872, 0.048387, 0.043073, -0.039456, -0.044967, -0.062892, 0.082291, -0.023727, 0.035527, 0.002163, -0.038231, -0.019295, 0.028106, 0.026377, -0.001796, -0.009589, 0.057795, 0.005410, 0.061760, 0.018626},
  {-0.100158, 0.115476, -0.104316, 0.122337, -0.066355, -0.008018, -0.020115, 0.061217, 0.012149, 0.041527, -0.022332, -0.042121, -0.004639, -0.074371, -0.117290, -0.027571, 0.031956, 0.118048, 0.092662, 0.068664, -0.008490, -0.006524, 0.092891, -0.068106, 0.093632, 0.033124, -0.045869, -0.108521, 0.117456, -0.067088, 0.087868, 0.014730, -0.036415, 0.070102, -0.068225, -0.074079, 0.040513, 0.028121, -0.031662, 0.011229, -0.062403, -0.027937, 0.015001, -0.023865, -0.120862, 0.010927, -0.080446, 0.008927, -0.026823, 0.124598, 0.047855, 0.050313, 0.008793, 0.031351, 0.054869, 0.052608, -0.064062, -0.108866, -0.035755, 0.103311, 0.032740, -0.059338, 0.061418, 0.033725, 0.104493, -0.072090, -0.021642, -0.069889, -0.002125, 0.035916, -0.050539, 0.075412, 0.102389, -0.028102, 0.108792, 0.033415, 0.088560, -0.058205, -0.026821, -0.104111, 0.075943, 0.045854, -0.003610, 0.059877, -0.021621, 0.034982, 0.074398, 0.021063, -0.034233, -0.020669, 0.017105, 0.024572, 0.087148, 0.087823, 0.105836, -0.076343, -0.036017, -0.111274, 0.082108, -0.000494, -0.018886, -0.053572, -0.103043, -0.041527, 0.045569, 0.040822, -0.041100, -0.072528, 0.004072, 0.044913, -0.063380, 0.060794, 0.030066, -0.038894, -0.070664, 0.112627, -0.009515, -0.024564, -0.014787, -0.003836, 0.105074, -0.025055, -0.091213, 0.056923, 0.097902, 0.047675, -0.048286, 0.053833},
  {0.031654, 0.061020, -0.082648, 0.137471, 0.068041, 0.011015, 0.029640, 0.071218, 0.094941, 0.019862, -0.055034, 0.080710, 0.019129, 0.043350, 0.132116, 0.084422, 0.001388, 0.124321, -0.039446, 0.005408, -0.055209, -0.002318, 0.050039, 0.040295, -0.051689, 0.098716, -0.119066, -0.058932, 0.101590, 0.126458, 0.111649, 0.034994, -0.037868, -0.009967, -0.022385, -0.077885, 0.000405, -0.089601, 0.114664, -0.076480, -0.059440, -0.118496, -0.080390, 0.021680, 0.119712, -0.090179, -0.057423, 0.042361, -0.010199, 0.021552, -0.059901, 0.054707, 0.031464, 0.030236, -0.064036, 0.017715, -0.045782, -0.045975, -0.013977, 0.057025, 0.119435, -0.081395, -0.033923, 0.111167, 0.010669, -0.039064, -0.113739, -0.047291, 0.141390, 0.095291, 0.017039, -0.034816, 0.055266, 0.052224, 0.044561, 0.028719, -0.047974, 0.010569, -0.011294, -0.082848, 0.069905, -0.044900, -0.037127, 0.112635, -0.017105, -0.104377, -0.041610, -0.084038, -0.046102, -0.038482, 0.108369, -0.001518, 0.019332, -0.010425, -0.043178, 0.056950, 0.113614, 0.030550, -0.102609, 0.028140, 0.009025, 0.059749, 0.098245, 0.008597, 0.060562, 0.008285, 0.082994, -0.070065, 0.098028, 0.096411, -0.031152, 0.079017, 0.099352, 0.084334, 0.008690, 0.075206, -0.013494, -0.015836, 0.100767, 0.116715, 0.045935, 0.015619, -0.016837, 0.014471, 0.105646, 0.035464, -0.050796, 0.103430},
  {0.095021, -0.014005, 0.061855, -0.009385, 0.095453, 0.107692, -0.009498, -0.049529, -0.095419, 0.019875, -0.055497, 0.051720, -0.068332, 0.024422, 0.055388, 0.071473, -0.078421, 0.000561, -0.009729, -0.010463, 0.015318, -0.037113, 0.054773, 0.031336, 0.077053, 0.107860, 0.071967, -0.041801, 0.003214, 0.007395, -0.097782, -0.000153, -0.025332, -0.092418, -0.016686, 0.133804, 0.048071, 0.052117, 0.032565, 0.028947, 0.130794, 0.114469, 0.048388, 0.108395, -0.061760, 0.001400, 0.081931, 0.013083, 0.110964, -0.044040, 0.097170, 0.082122, 0.063007, 0.053404, 0.029248, -0.015910, -0.008430, 0.059476, 0.058070, -0.048308, -0.002743, 0.098932, 0.060339, 0.051299, -0.056528, -0.000699, -0.013949, -0.031669, -0.047712, 0.014029, -0.009615, 0.024403, 0.010588, 0.013202, 0.064130, -0.028542, -0.050615, -0.071742, -0.018354, 0.039816, 0.037731, 0.004261, 0.009582, 0.034859, 0.041186, 0.091871, 0.042409, 0.099699, 0.095733, -0.036647, -0.064744, 0.035947, 0.011363, 0.041106, 0.042594, -0.022508, 0.037092, 0.134613, 0.052903, 0.054003, 0.048771, 0.018427, 0.048299, -0.009191, 0.029766, -0.079432, -0.044360, 0.076503, 0.077327, -0.091792, 0.043081, -0.022687, 0.057919, -0.020366, 0.050551, 0.000500, 0.000406, 0.030718, -0.057461, 0.054931, -0.068715, -0.070410, -0.012667, 0.020246, 0.002178, 0.039875, -0.019160, 0.052424},
  {0.114236, -0.047807, 0.026712, -0.047690, -0.021996, 0.096518, 0.029726, 0.054324, 0.024203, -0.037077, 0.111885, 0.057118, 0.080144, 0.028792, 0.032127, 0.077188, 0.031038, 0.003450, -0.099145, 0.017322, -0.056403, 0.018051, 0.033867, -0.019060, 0.061909, -0.033854, 0.068244, 0.004012, 0.033248, -0.058255, 0.006677, 0.011506, 0.039221, -0.049903, 0.122264, 0.069144, 0.038462, 0.020533, 0.011223, 0.107416, -0.018454, 0.036369, 0.018756, -0.071482, 0.001231, 0.003425, 0.121525, -0.055923, -0.047103, 0.001008, 0.073361, 0.059940, 0.002915, 0.035788, 0.097011, 0.097401, -0.011370, 0.092519, 0.044178, -0.009520, -0.022225, 0.037376, 0.087554, 0.134050, -0.054101, 0.095540, 0.102139, 0.005930, 0.108614, 0.092919, 0.128133, -0.008003, -0.005499, -0.096798, -0.027461, -0.013261, 0.086786, 0.034178, -0.014698, 0.042993, -0.004224, -0.025314, 0.065682, 0.003204, -0.073601, 0.092999, -0.029634, 0.125757, 0.069286, -0.012942, -0.061042, 0.033947, 0.055412, -0.057319, -0.047195, 0.052557, 0.086706, 0.026996, 0.059838, 0.006310, 0.024466, 0.059786, 0.049250, -0.042084, 0.016518, 0.094165, -0.003613, 0.004338, 0.040302, 0.054437, 0.073601, 0.031152, -0.094138, -0.068318, 0.056023, 0.015677, -0.034833, 0.088936, -0.040536, 0.131059, -0.047852, 0.070082, -0.065671, -0.016491, -0.107457, 0.015105, -0.097971, 0.020085},
  {0.039634, -0.053990, 0.122340, -0.022949, 0.012640, -0.042289, 0.078892, -0.009014, -0.124755, 0.063730, 0.079453, -0.077051, 0.038536, 0.042505, 0.038936, -0.007121, 0.017318, 0.104104, -0.014310, -0.032820, -0.011260, 0.128472, 0.038723, -0.089881, -0.083985, 0.020049, -0.020486, -0.022631, 0.005919, 0.036196, 0.022492, -0.126300, 0.081720, 0.078263, 0.100943, -0.067389, 0.016993, 0.012098, 0.016152, 0.060590, 0.051376, 0.074314, 0.119915, -0.053677, -0.018220, 0.079419, -0.058535, -0.044039, 0.029697, -0.000721, 0.080441, 0.074831, -0.022222, 0.050776, 0.045202, -0.072388, -0.058690, -0.116391, 0.117779, 0.007391, -0.085906, 0.009627, 0.076355, 0.054763, 0.029319, 0.089042, 0.017371, 0.115762, -0.093737, 0.028649, -0.083326, 0.122438, -0.025570, 0.041125, -0.104089, -0.034621, 0.082415, 0.021764, 0.083886, -0.017184, 0.068009, 0.137077, 0.052121, 0.055563, -0.070099, 0.005300, -0.027362, 0.021964, 0.035441, -0.079616, 0.015690, 0.108743, -0.020454, 0.109704, -0.037394, -0.019560, 0.011361, -0.000842, 0.072655, 0.024447, -0.000568, -0.057985, -0.038055, 0.049248, 0.034929, 0.082048, -0.046476, 0.132772, -0.032645, -0.016566, 0.068945, -0.007763, -0.026251, -0.013005, 0.048361, -0.042836, -0.010386, 0.133346, 0.048316, -0.097439, -0.009920, 0.108365, 0.027201, -0.042611, 0.024379, -0.032861, 0.039410, -0.040148},
  {0.022990, -0.050930, 0.065696, -0.093639, 0.105029, 0.091749, 0.012968, -0.088809, -0.113514, -0.017280, 0.139161, -0.069179, 0.089727, 0.015179, 0.001867, -0.059992, 0.015128, -0.112198, 0.027306, 0.020212, 0.093125, 0.073446, -0.045913, 0.046882, 0.066199, -0.043857, 0.101078, 0.024334, -0.009886, -0.064084, -0.089129, -0.096791, 0.072228, 0.021947, -0.042159, 0.048320, 0.058357, 0.140459, -0.036780, 0.029000, 0.128251, 0.083384, 0.129312, 0.050532, 0.003437, 0.114496, 0.138080, 0.003759, -0.002967, 0.026453, 0.039208, -0.006135, -0.040609, 0.070212, -0.033589, 0.075896, -0.041509, -0.065540, -0.021609, 0.030225, -0.070674, 0.114071, 0.075527, 0.017395, -0.045204, -0.054598, -0.012681, 0.020256, -0.050801, 0.029293, 0.039507, 0.075171, -0.025341, -0.006878, 0.013875, -0.058171, 0.029126, -0.037538, 0.100519, 0.014832, 0.017543, 0.075006, 0.110720, 0.062830, -0.060337, 0.028551, -0.020564, 0.085034, 0.039040, -0.054430, 0.010474, -0.011612, -0.031015, 0.098261, -0.043873, 0.112059, 0.069535, 0.010224, -0.023570, 0.092018, -0.047631, -0.034954, -0.085609, 0.128256, 0.053083, -0.091923, 0.018383, 0.014577, 0.030376, -0.107624, 0.105163, -0.013078, 0.030809, 0.046689, 0.068725, 0.079973, -0.047734, 0.052577, 0.075495, -0.034017, 0.010534, -0.073781, -0.058776, 0.073291, -0.040284, 0.085540, 0.094832, -0.021572},
  {0.050823, 0.004224, 0.065553, 0.022868, 0.047920, -0.016561, -0.042478, 0.090203, -0.054498, 0.129597, 0.062742, 0.095429, 0.125811, -0.037471, 0.072772, 0.060441, 0.029472, -0.001977, 0.128838, 0.088964, 0.003551, 0.005130, 0.026177, -0.032613, 0.017679, -0.075995, 0.124859, 0.079613, -0.103859, 0.087141, 0.026713, -0.000439, -0.011575, -0.039389, 0.029653, 0.038844, 0.073304, -0.027536, 0.121942, 0.004472, -0.039442, 0.123684, 0.070924, 0.012594, 0.004281, 0.081936, -0.025590, 0.069861, -0.093165, 0.024768, 0.079288, -0.109142, 0.087980, -0.058754, 0.059552, 0.008334, -0.022942, 0.083602, -0.092938, 0.006189, 0.073492, -0.097730, -0.043417, 0.089867, -0.053345, -0.019603, -0.046046, 0.005759, 0.022532, 0.001163, 0.107656, -0.072991, 0.022853, 0.046234, 0.091329, 0.070127, 0.007675, -0.022711, 0.098605, -0.016957, -0.053045, 0.030461, -0.045114, -0.073051, -0.019213, 0.034850, 0.057294, 0.052048, -0.084153, 0.097788, -0.006818, 0.134636, 0.019309, 0.039220, 0.001168, 0.004135, 0.035058, -0.010952, -0.001928, -0.072045, 0.121430, -0.044596, 0.105189, 0.033193, 0.037960, 0.039711, 0.101882, -0.096099, 0.081592, -0.041941, 0.113442, 0.077961, -0.079309, 0.006795, 0.120370, 0.006293, -0.054895, -0.064204, -0.077148, 0.012932, -0.010444, 0.027740, -0.074575, -0.018676, 0.038421, 0.077093, -0.039891, 0.110505},
  {-0.032954, 0.018015, 0.054011, -0.023321, -0.107208, -0.051854, -0.068231, -0.027564, -0.078021, 0.042705, 0.024488, -0.102765, -0.014122, 0.011295, -0.001558, 0.020413, -0.071226, -0.031643, -0.070636, 0.100586, 0.065306, 0.100217, -0.002797, -0.042897, -0.040514, 0.032964, 0.039596, 0.070302, 0.045315, 0.037272, -0.017986, 0.076473, -0.041376, -0.010977, -0.014028, -0.037213, 0.081114, 0.129973, 0.052464, 0.005817, 0.108315, 0.098219, -0.081833, -0.012604, 0.058757, -0.022419, 0.002120, -0.059187, 0.050478, 0.031603, 0.048620, 0.094503, 0.115528, 0.099649, 0.076993, -0.013698, -0.075170, -0.088122, 0.139183, 0.095795, 0.047983, 0.008582, 0.036823, 0.057868, -0.078124, 0.078868, -0.014745, 0.109963, 0.013354, 0.097924, 0.050620, -0.051278, -0.058810, -0.057327, 0.084080, 0.035276, 0.017525, -0.037330, 0.050607, 0.008432, -0.025397, 0.049460, 0.101665, 0.014503, 0.039757, 0.008110, -0.035083, -0.032814, -0.002518, -0.019020, 0.077385, 0.020291, 0.088520, -0.010463, -0.037297, 0.053111, 0.057898, 0.035620, 0.086397, 0.134192, -0.114350, -0.072385, 0.100352, 0.080189, -0.036135, -0.103267, -0.029460, 0.029942, 0.045239, 0.015696, 0.023621, 0.011438, -0.000687, 0.026248, 0.016637, -0.033990, -0.142826, 0.046405, -0.071657, 0.053815, -0.108254, 0.076439, 0.017263, 0.063775, -0.095846, -0.078923, -0.008484, 0.097519},
  {0.007113, -0.042747, 0.063501, 0.062729, 0.093141, -0.070685, 0.068243, 0.058344, 0.011773, 0.066173, 0.056010, 0.043773, 0.051382, -0.000159, -0.076617, 0.018742, -0.027924, 0.001294, -0.066752, -0.046459, 0.058739, 0.023175, 0.044331, 0.149227, 0.127995, -0.031852, -0.000000, 0.093569, 0.061923, 0.012386, -0.014958, 0.090015, -0.084943, 0.005232, 0.086943, 0.036588, -0.062059, -0.010531, -0.054681, -0.127905, 0.044272, -0.031917, 0.102858, 0.057769, -0.077912, -0.081169, 0.109451, -0.010120, -0.027533, -0.076881, 0.124643, -0.034602, -0.014239, -0.072079, 0.092602, 0.098007, 0.133618, 0.039098, 0.036881, -0.058366, 0.015487, 0.108766, 0.116022, 0.106607, 0.066884, 0.089377, 0.110151, 0.110783, 0.071870, 0.048694, 0.053419, 0.075090, 0.022580, -0.024026, 0.001332, 0.058285, 0.026315, 0.010976, 0.043922, 0.138386, 0.127882, 0.027137, -0.053127, -0.035100, -0.041305, -0.100049, 0.000015, 0.000668, 0.006015, 0.035998, 0.051235, 0.075871, 0.021750, -0.055671, 0.070688, -0.096364, 0.100216, 0.053394, -0.104009, 0.024872, 0.022231, 0.127408, 0.002342, -0.019665, -0.038342, 0.097282, -0.067556, 0.022923, 0.095312, -0.011150, -0.084457, -0.017079, 0.038532, -0.087343, 0.013419, 0.023638, -0.056786, 0.070503, -0.038593, 0.034457, -0.038039, -0.012027, -0.015674, 0.041911, -0.035275, -0.019563, -0.031755, -0.103219},
  {0.095890, 0.116731, -0.015920, 0.044402, 0.062485, 0.098165, -0.053381, -0.072095, -0.048430, -0.027793, 0.066110, 0.058450, 0.086937, -0.124638, 0.023717, 0.028240, 0.017618, -0.042883, 0.028626, -0.002873, 0.089442, 0.043341, 0.047639, 0.067662, 0.101165, 0.036857, -0.002372, -0.007812, 0.009668, -0.070604, 0.079635, -0.070661, 0.011644, 0.061152, -0.036540, 0.070654, 0.037677, 0.052628, -0.120891, 0.016204, -0.061248, 0.080754, 0.052442, -0.051438, 0.076026, 0.053964, 0.074075, 0.044406, 0.043416, 0.097109, 0.106810, 0.014247, -0.099758, 0.104708, 0.040474, 0.094126, -0.089839, 0.096635, -0.005277, 0.019372, -0.073649, -0.076298, -0.031392, 0.034466, 0.002880, 0.049961, -0.003181, 0.047681, 0.102368, 0.102605, 0.031398, -0.093424, 0.037564, 0.027488, 0.062494, -0.003559, 0.123237, -0.003441, 0.011998, 0.077000, -0.006333, 0.103952, -0.057830, -0.046537, 0.011775, 0.012239, 0.015081, 0.059224, -0.075335, 0.064346, -0.108847, 0.143511, 0.113253, 0.002018, 0.025839, -0.054578, -0.038688, 0.044734, 0.080937, 0.047014, 0.038273, 0.067496, -0.019455, -0.024979, -0.015469, 0.067104, -0.038220, -0.110490, -0.031052, 0.022125, -0.038977, -0.040380, 0.055849, -0.044117, -0.067015, -0.023094, 0.062719, -0.109073, -0.067231, 0.077498, 0.095044, -0.032844, -0.011394, 0.025945, 0.098778, 0.083525, -0.009038, -0.072690},
  {-0.019320, -0.038161, 0.076289, -0.023249, 0.027018, -0.062024, -0.075368, 0.053407, -0.056756, 0.085328, 0.088260, 0.017109, -0.066285, 0.100531, -0.037335, -0.025134, 0.083830, 0.025293, 0.043888, -0.037346, -0.082637, -0.043346, -0.042170, -0.042363, -0.039781, -0.082024, -0.009982, -0.070871, 0.022106, -0.093868, -0.086400, 0.017574, 0.074285, -0.064396, -0.008398, 0.014376, 0.023174, -0.077363, -0.037784, -0.019146, 0.026060, -0.032514, 0.036784, -0.016550, 0.023028, -0.021746, -0.036701, 0.066291, 0.039865, 0.059090, 0.011533, 0.053466, 0.049068, 0.050687, -0.046224, -0.032825, -0.043399, -0.055197, 0.117004, 0.084904, -0.058029, 0.042457, -0.016543, 0.005247, -0.049576, 0.030654, 0.081395, 0.093902, -0.064246, 0.011869, -0.093852, -0.044727, 0.020440, 0.048318, -0.054020, 0.059844, -0.088769, 0.052932, -0.056568, -0.080651, 0.064404, -0.025127, -0.083123, -0.007543, -0.004714, -0.099704, -0.061615, 0.000286, -0.018265, -0.054222, 0.084882, 0.071823, -0.036969, 0.058770, -0.049937, -0.061723, -0.013912, 0.099180, 0.059516, 0.130667, -0.014199, 0.018529, -0.063891, -0.040512, -0.029825, 0.013939, 0.056041, 0.074855, -0.072612, -0.058291, 0.035489, -0.023245, 0.003426, 0.122902, 0.085781, -0.045643, -0.064164, -0.010938, 0.003903, 0.075865, 0.027312, -0.096895, 0.048175, -0.028726, 0.057485, -0.093096, 0.039704, -0.087842},
  {-0.067502, -0.066292, -0.070122, 0.097097, -0.023580, 0.028014, 0.083260, 0.086496, 0.075795, -0.073368, -0.071280, 0.054692, -0.043505, -0.028009, -0.003888, -0.004104, -0.105583, 0.017733, 0.006319, -0.093486, 0.095182, 0.002675, -0.022485, 0.034074, 0.000216, 0.118537, -0.062979, -0.041185, -0.001192, 0.033790, -0.028722, -0.012472, -0.019476, 0.052250, -0.058087, -0.033209, 0.029432, 0.073335, 0.065149, -0.021184, -0.005519, 0.003636, 0.088972, 0.032260, -0.052417, 0.030413, -0.090539, 0.036944, 0.095318, 0.011885, -0.047087, 0.061516, -0.052831, 0.070381, -0.023644, 0.054089, 0.009560, 0.085066, 0.111642, -0.014302, 0.118900, -0.015592, 0.070610, -0.051965, 0.108815, -0.013425, -0.036590, 0.033056, -0.023655, -0.021058, -0.086116, 0.100606, -0.034495, 0.021300, -0.078813, -0.014744, -0.018172, -0.020831, 0.036183, 0.019722, 0.039419, 0.005044, -0.046576, 0.069435, 0.071381, -0.020254, -0.034627, 0.035281, 0.080237, 0.089127, 0.011306, 0.027898, -0.069655, -0.009716, -0.069332, 0.002420, -0.019674, -0.097882, -0.099309, 0.062326, 0.053200, -0.064952, 0.061201, 0.079639, -0.003548, 0.001533, 0.039270, 0.073021, 0.073235, 0.055605, 0.052583, 0.030230, 0.130993, -0.013384, 0.080531, 0.097788, -0.017601, 0.099261, 0.037216, 0.036829, -0.015577, 0.140774, 0.132819, 0.086689, -0.019349, -0.010379, -0.004356, 0.074570},
  {0.020241, -0.008863, -0.016257, 0.057492, 0.000003, 0.056482, 0.023620, -0.022107, 0.043922, 0.024261, 0.064358, 0.095421, 0.033893, 0.015018, 0.040293, 0.085002, 0.091589, 0.107649, 0.102612, -0.058283, 0.075602, -0.001765, 0.032472, -0.010966, -0.051993, 0.093841, -0.053276, -0.037020, 0.039500, 0.120494, 0.047579, -0.002852, 0.084468, 0.090763, 0.063039, -0.121049, 0.003678, -0.106025, -0.094002, -0.071796, 0.043568, -0.064384, -0.017700, 0.025106, -0.103464, -0.009745, -0.012239, 0.057625, 0.053151, 0.048505, 0.034216, 0.019895, -0.121434, 0.072404, 0.105310, -0.060822, -0.009683, 0.001276, 0.063560, -0.046077, 0.045802, -0.047473, 0.094572, 0.022996, -0.048516, 0.047222, -0.044478, 0.031554, 0.031870, 0.082297, -0.044256, 0.054882, 0.005957, 0.035365, -0.071498, -0.093955, 0.036767, 0.073281, 0.018950, -0.112856, -0.039488, -0.065361, 0.068965, 0.067154, 0.050807, -0.069516, 0.034794, -0.023625, 0.059371, -0.002546, 0.105519, -0.013110, 0.056831, 0.030341, 0.073666, -0.064223, -0.042341, -0.019973, 0.056538, -0.078085, -0.043435, 0.031699, 0.038520, -0.072282, 0.076331, -0.014979, 0.051366, -0.037235, -0.068756, 0.074999, -0.017170, 0.080620, 0.014071, -0.029154, 0.010855, 0.084018, -0.047790, -0.070002, 0.046310, 0.008503, 0.035284, -0.056047, 0.076442, 0.097855, 0.090134, 0.069796, 0.041686, -0.074123},
  {0.108060, -0.045523, 0.021886, 0.096669, -0.054461, 0.069423, -0.017844, 0.063496, 0.016624, -0.007231, 0.002569, 0.014494, -0.084766, -0.119643, -0.065838, -0.022090, -0.008394, 0.121879, 0.097199, 0.084333, -0.046105, -0.009972, 0.023989, 0.033679, 0.022290, 0.035860, 0.058949, -0.022508, 0.069818, -0.042318, -0.049500, -0.000912, 0.064258, 0.041034, 0.077749, 0.071265, -0.097048, -0.027155, -0.066344, 0.027960, -0.097885, 0.016059, -0.049803, 0.004531, -0.040798, 0.007404, 0.078024, 0.060903, 0.027970, 0.082122, 0.106524, 0.020899, -0.062634, 0.028590, -0.063731, 0.070691, -0.029750, 0.132586, 0.054246, -0.020428, -0.017141, -0.098711, 0.021361, 0.015038, -0.016770, 0.032118, -0.057775, -0.057658, -0.031018, 0.039202, -0.023265, -0.015032, 0.089422, -0.032346, -0.052240, 0.008221, 0.026820, 0.038266, 0.006524, 0.108896, 0.110010, -0.035495, 0.102415, -0.061569, -0.038181, -0.066280, 0.096358, 0.080243, -0.124355, -0.047041, 0.064531, 0.003344, -0.027662, -0.060551, 0.086778, -0.014083, -0.046859, 0.067155, -0.026899, -0.059613, 0.092271, -0.012330, 0.081721, 0.042461, 0.106593, 0.115008, 0.015749, -0.050634, 0.004212, 0.038925, 0.064094, 0.091557, 0.091118, 0.011699, 0.001730, 0.031472, -0.026211, -0.090171, 0.095022, -0.064204, 0.048154, -0.001729, -0.030328, 0.007707, 0.007890, -0.042481, -0.083471, -0.061863},
  {0.055773, -0.069345, 0.050005, 0.108462, -0.104429, -0.040598, 0.086231, 0.082077, -0.069213, 0.007085, 0.001920, -0.013116, 0.024141, 0.136111, 0.063983, 0.041723, 0.079601, 0.045185, 0.040325, 0.022580, -0.013337, 0.011005, -0.033935, -0.066242, 0.001306, -0.048510, 0.000870, 0.038935, 0.034262, -0.039627, -0.048001, -0.001294, 0.005564, -0.037076, 0.109112, -0.033876, 0.015021, 0.032149, 0.091309, -0.029885, 0.011045, 0.009656, -0.150125, -0.067815, 0.085469, -0.047207, -0.105445, -0.078407, 0.075194, -0.055420, -0.037131, 0.014601, 0.037489, -0.030232, -0.016391, 0.094793, -0.008441, 0.005062, 0.019227, 0.109857, 0.068322, 0.123694, 0.096378, 0.011689, -0.057109, 0.122456, 0.075949, 0.061338, 0.056055, -0.030435, 0.059007, -0.047550, 0.069937, 0.077879, -0.023738, 0.111186, -0.118756, 0.027582, -0.071448, -0.055259, 0.067153, 0.066447, 0.088816, 0.055562, 0.067263, -0.043150, -0.052297, -0.110577, 0.030088, -0.016420, 0.088862, -0.002023, -0.003834, -0.069445, -0.088477, 0.013007, -0.002597, 0.030582, -0.060744, 0.041938, -0.011060, -0.055855, 0.073862, 0.045419, -0.035107, 0.083419, -0.053631, 0.120845, 0.023427, 0.052382, -0.011249, 0.057035, -0.082922, -0.000373, 0.048139, -0.044547, -0.017387, 0.074167, -0.082829, 0.090488, 0.014540, -0.002689, -0.103805, -0.017129, -0.016981, -0.113368, -0.060763, 0.128350},
  {-0.041234, -0.069934, 0.039261, -0.070079, -0.021291, -0.019348, 0.009937, -0.050068, 0.011814, -0.012307, 0.135496, 0.115189, 0.082037, -0.011120, -0.007974, 0.102677, 0.013484, -0.081943, 0.049518, 0.031401, -0.012112, 0.127917, -0.006929, 0.012019, -0.019847, -0.014642, 0.049839, -0.076285, 0.001946, 0.083986, 0.002624, -0.053849, 0.065631, 0.065812, 0.009636, 0.063142, 0.006282, 0.089799, 0.132806, 0.007977, -0.020403, 0.063796, 0.018163, 0.149032, -0.047187, -0.013649, -0.010467, 0.017197, -0.081727, -0.012532, 0.005788, 0.015680, 0.032627, 0.032423, -0.097400, 0.003224, 0.135133, 0.029057, 0.047515, -0.034882, 0.125199, 0.007579, -0.083950, -0.005267, 0.123247, -0.065942, 0.088161, 0.044943, 0.033944, 0.046972, -0.032445, 0.027206, 0.088431, 0.084801, 0.069654, 0.049461, 0.001206, 0.083983, 0.000735, 0.106046, 0.054909, -0.000092, 0.003117, 0.023383, 0.091339, 0.139646, -0.020731, 0.167346, 0.093634, 0.016331, 0.133097, -0.055031, 0.015315, 0.117612, 0.025937, 0.086187, -0.058826, 0.035135, 0.107414, 0.068727, 0.081733, 0.129679, 0.035915, -0.000934, -0.052117, -0.025404, 0.116153, -0.015193, 0.075928, -0.024613, 0.027399, 0.003546, 0.086796, -0.060892, 0.114485, -0.020328, -0.067557, -0.024132, 0.055385, 0.075516, -0.057567, 0.095799, 0.072044, 0.069598, -0.041526, -0.034201, 0.132560, -0.070244},
  {-0.052784, -0.018762, 0.007061, 0.077054, 0.020941, 0.005206, -0.021465, 0.059786, 0.048012, -0.010597, -0.034084, 0.052641, 0.042216, 0.023231, -0.091083, -0.051047, 0.059654, 0.064905, -0.014877, 0.065161, 0.009589, -0.006185, 0.028000, -0.007209, -0.030569, 0.075721, -0.114784, -0.001334, 0.083590, 0.013650, -0.031047, 0.012441, 0.063507, 0.012322, -0.054424, 0.014182, 0.100117, -0.091612, -0.037417, -0.007217, -0.086432, -0.030608, -0.085809, 0.072084, -0.072866, -0.101039, -0.008204, -0.034371, 0.047035, 0.007884, -0.056217, 0.043507, -0.046382, -0.045299, 0.019352, 0.055331, 0.051424, -0.013648, -0.092509, 0.044477, 0.043853, -0.036233, -0.005684, 0.021001, 0.079472, 0.054040, -0.041223, -0.050745, 0.016953, -0.038315, -0.030461, 0.126103, 0.101768, 0.102650, 0.003175, 0.044250, -0.019149, -0.026193, 0.037196, -0.013514, 0.045418, -0.097152, -0.025444, -0.084797, 0.022692, 0.036693, 0.018113, 0.047454, 0.044913, -0.043465, 0.117863, -0.073463, 0.062239, -0.021366, 0.099388, 0.042432, -0.044597, -0.102635, -0.030750, -0.114583, 0.020439, -0.053144, -0.005444, 0.000530, -0.033764, 0.056573, 0.104031, 0.017191, -0.030063, 0.000649, 0.029924, 0.042641, -0.003269, 0.100323, 0.014011, -0.042689, -0.002206, -0.071754, 0.087260, 0.069212, 0.097518, -0.006210, 0.002816, 0.108603, 0.047150, 0.103876, 0.103219, 0.003559},
  {-0.006449, 0.148064, 0.011689, 0.126815, -0.080017, 0.080981, 0.003622, 0.005505, 0.057581, 0.081235, 0.050164, 0.012691, 0.065270, 0.077051, 0.064612, 0.071640, 0.064678, 0.066961, 0.021753, 0.065494, -0.011785, -0.102105, 0.001141, -0.084722, 0.016340, -0.030978, 0.015340, 0.034535, 0.039710, -0.076580, 0.099564, 0.084776, -0.034060, -0.033323, 0.035769, -0.075064, 0.021739, -0.066952, -0.035448, 0.008689, 0.119196, 0.067821, -0.028026, -0.083651, 0.120778, -0.004153, -0.085947, 0.077245, 0.022563, 0.079031, 0.044208, -0.028967, -0.034400, -0.052483, 0.066209, 0.064109, -0.028680, -0.097937, -0.085862, 0.108974, 0.083236, -0.030635, 0.025907, 0.117598, 0.009924, 0.080173, -0.076605, -0.026654, 0.069052, 0.006478, -0.064375, 0.063232, -0.069128, 0.037764, 0.008136, 0.027935, -0.039457, -0.067497, -0.013352, 0.048414, -0.009419, -0.004148, 0.064974, -0.073616, -0.073070, -0.059990, 0.094300, -0.044810, -0.090580, 0.009897, 0.043090, 0.008113, -0.036555, 0.042674, 0.077514, 0.022651, -0.051653, -0.075353, 0.022856, 0.084099, -0.067120, 0.025219, -0.005998, -0.034921, 0.049511, 0.171141, 0.011197, 0.088039, -0.044903, 0.110315, 0.060840, -0.035721, -0.060882, 0.123323, 0.032412, 0.043401, 0.008721, -0.053719, -0.035120, 0.113713, 0.064396, 0.024450, -0.031562, -0.091117, 0.098362, 0.092511, 0.055729, 0.105914},
  {0.026773, -0.123004, -0.011960, 0.049497, -0.086973, 0.105144, -0.011219, 0.024678, -0.088483, -0.123724, -0.074267, 0.014752, 0.015189, -0.020539, 0.070107, 0.006490, -0.016928, -0.045466, 0.086650, -0.000327, 0.050407, 0.065278, -0.026527, 0.066703, 0.074172, 0.059218, 0.069350, -0.060311, 0.033042, -0.071951, 0.080557, -0.104312, -0.043456, 0.083028, -0.003236, -0.045473, -0.081304, 0.013908, 0.135019, 0.020919, 0.087463, 0.107667, -0.004523, 0.073212, 0.005013, 0.074742, -0.019742, -0.101404, 0.081777, -0.055548, -0.032680, 0.037050, 0.116435, 0.036953, 0.000441, 0.043803, -0.045973, -0.070743, 0.011388, 0.062221, -0.035661, -0.010623, 0.045191, -0.037760, -0.070386, -0.008236, -0.097950, -0.069929, -0.063121, -0.028786, -0.094598, -0.066518, -0.055633, -0.001203, -0.035303, 0.051046, -0.136567, -0.054877, 0.071028, -0.014076, 0.027642, 0.064482, 0.039858, 0.083392, 0.082829, 0.046964, -0.032023, 0.077213, 0.012979, 0.027530, -0.055714, -0.020495, 0.034117, 0.027531, 0.023684, -0.014308, 0.080799, 0.011022, 0.051586, 0.139067, -0.020941, -0.071794, -0.028218, 0.118428, -0.051145, -0.084236, 0.015136, -0.026570, -0.041857, -0.036982, 0.018516, 0.004469, 0.038376, -0.047457, 0.114924, -0.079327, -0.064292, 0.016175, -0.062810, -0.103084, -0.017195, 0.102894, 0.095316, 0.014033, 0.047093, -0.042325, -0.033793, -0.028416},
  {-0.013240, 0.049994, 0.009964, 0.107636, -0.063012, 0.015202, 0.112323, -0.080149, 0.104881, 0.087786, 0.015583, -0.027062, 0.068217, 0.009618, -0.072983, 0.049539, 0.088349, 0.011446, -0.016278, -0.042676, 0.089884, -0.072647, 0.058305, -0.099977, 0.109485, 0.018732, -0.042140, -0.078818, 0.056397, -0.003337, -0.027194, -0.073448, -0.029387, 0.023384, -0.030843, 0.098396, -0.031090, 0.062495, -0.062828, -0.007594, -0.019257, 0.018212, -0.084348, 0.040107, -0.057647, 0.046444, -0.105071, 0.000125, 0.125697, 0.073484, -0.027383, -0.098194, 0.041050, 0.068118, 0.041327, -0.049154, 0.010040, 0.093072, -0.032551, -0.003941, 0.082898, -0.058045, 0.120504, 0.023445, 0.038036, 0.023259, -0.088745, 0.052508, 0.122187, 0.036679, -0.014678, -0.022311, 0.039033, -0.064260, 0.021471, 0.054779, 0.000336, -0.076167, 0.059197, -0.007058, -0.033406, 0.090101, -0.060230, 0.111137, -0.081908, 0.028819, -0.121173, -0.077143, -0.045856, 0.014703, -0.046519, -0.039366, 0.125188, 0.013143, 0.065125, -0.086413, -0.005593, -0.017495, -0.068810, -0.072240, -0.064304, -0.048414, 0.013479, -0.067378, 0.005567, 0.074596, 0.065983, -0.039494, 0.086498, -0.044830, 0.072718, -0.088010, 0.068774, 0.031883, 0.085937, 0.123732, 0.077285, 0.028405, -0.030141, 0.022366, 0.113526, 0.033683, -0.107350, -0.114466, 0.076246, 0.090541, -0.061934, 0.049689},
  {-0.052628, 0.020834, 0.124824, -0.036137, 0.020302, -0.081233, 0.059543, 0.126772, 0.089347, 0.013500, -0.000967, 0.055743, -0.070084, 0.043481, 0.078134, -0.003399, 0.006144, -0.003240, -0.020131, 0.085287, -0.011176, 0.002030, -0.022045, -0.040523, -0.025132, -0.001270, 0.021208, -0.028090, -0.013561, 0.001067, -0.074239, 0.060252, 0.005007, -0.046538, 0.100816, -0.018370, -0.014950, 0.059071, 0.050918, 0.043168, -0.021519, -0.029931, 0.081964, 0.085629, 0.104652, -0.059901, -0.012585, -0.039544, 0.034255, 0.015726, -0.017980, 0.072520, 0.050540, 0.086616, 0.069819, 0.107729, 0.090901, 0.066002, 0.050676, 0.126014, 0.092759, 0.079873, 0.084549, 0.103121, 0.064749, -0.017509, 0.064645, 0.038715, 0.081026, 0.068348, 0.060900, 0.094615, 0.079296, 0.093847, -0.044056, 0.006927, 0.039109, -0.033500, 0.020435, -0.062880, 0.044489, -0.010390, -0.045263, 0.022305, 0.131792, 0.050856, -0.011655, -0.013722, 0.112563, 0.105343, 0.090677, 0.020354, -0.019902, -0.015153, -0.100172, -0.021583, 0.065166, -0.008529, -0.012822, 0.106906, -0.016915, -0.051571, 0.054850, 0.035062, -0.033068, -0.033324, 0.001176, -0.020202, 0.103298, -0.017081, 0.042965, 0.064128, 0.023558, -0.021729, 0.090466, -0.089108, -0.093843, -0.032363, 0.139951, -0.027443, -0.070192, 0.117932, 0.047264, 0.113225, -0.091117, -0.068367, 0.055533, 0.098727},
  {0.006199, 0.043927, -0.010554, 0.123498, -0.032816, 0.051347, 0.126287, -0.034740, 0.095838, 0.078524, 0.034929, -0.091972, -0.009985, 0.093702, -0.056154, -0.020606, 0.016181, 0.013773, 0.094417, 0.042023, 0.030776, 0.091079, -0.053985, -0.083169, 0.066639, 0.049037, -0.032313, -0.039427, 0.001342, -0.083683, 0.108780, 0.046921, 0.135776, 0.068349, -0.007563, 0.028353, 0.046482, -0.045198, 0.096152, 0.096494, 0.085835, -0.017534, 0.068444, 0.058005, 0.060584, 0.042940, -0.034128, 0.102818, 0.061094, 0.092828, 0.084755, -0.053385, 0.073839, 0.055587, 0.008976, 0.117719, -0.056249, -0.070466, 0.026523, 0.136929, -0.020742, 0.111141, 0.097130, 0.019001, -0.016638, 0.097200, 0.015580, -0.009374, 0.036659, 0.105150, -0.014654, -0.024892, -0.046652, 0.084706, 0.083427, 0.110723, 0.001447, 0.019856, 0.081216, -0.073039, -0.052046, 0.119549, 0.014132, -0.014062, -0.057425, 0.066362, 0.103866, 0.062740, -0.006254, -0.056876, 0.011826, 0.069662, 0.132628, -0.060424, -0.002654, -0.047828, -0.033223, 0.127738, -0.059941, 0.034411, -0.071544, -0.088095, 0.035027, -0.086918, -0.026265, 0.086563, 0.010178, 0.023138, 0.031183, -0.079888, -0.045922, 0.047668, 0.025797, 0.126649, -0.013819, 0.038939, 0.026575, 0.039677, -0.084140, 0.023237, 0.114073, 0.047899, -0.050792, 0.028853, -0.018985, 0.074286, -0.026759, 0.118803},
  {-0.004862, -0.085806, -0.034749, -0.035560, 0.003298, -0.063045, 0.094851, 0.123039, 0.015890, -0.038495, -0.025683, 0.021296, 0.066828, 0.054733, -0.033426, 0.070176, -0.064842, -0.040971, -0.067989, 0.084251, 0.093248, 0.118810, -0.000475, 0.034136, -0.062890, 0.036826, 0.070188, -0.024200, 0.076183, 0.106591, -0.033064, 0.007732, -0.037771, 0.080997, 0.071130, -0.020123, 0.063833, -0.051788, 0.025533, -0.017771, 0.018570, -0.042333, 0.076350, -0.017056, 0.074417, -0.013723, -0.081589, -0.000701, 0.089055, 0.046854, -0.060047, 0.006241, 0.065896, 0.058890, 0.082486, 0.001944, 0.119350, 0.036855, 0.076635, 0.024233, -0.021885, 0.069631, 0.114568, -0.019388, 0.015383, 0.008199, 0.128466, 0.103316, 0.048282, 0.046004, -0.060130, 0.086143, 0.010942, 0.128531, 0.043927, -0.027327, -0.019878, -0.058255, -0.005985, 0.031953, 0.124700, -0.012282, 0.066592, -0.035657, 0.074038, -0.009955, 0.005126, -0.039932, 0.038783, 0.071584, 0.006283, -0.057387, -0.026622, -0.037414, -0.099462, 0.048724, 0.057256, 0.054935, -0.050042, 0.104393, 0.015887, -0.054123, 0.074481, 0.007912, -0.004858, -0.056779, -0.009160, 0.051967, 0.104147, -0.005317, 0.030761, 0.038999, -0.006908, -0.059163, 0.077554, 0.028966, -0.007539, 0.009659, 0.138018, 0.123515, -0.010163, 0.022812, 0.060616, 0.094696, -0.093560, 0.081041, -0.028603, 0.085530},
  {-0.045510, 0.008592, -0.004894, 0.052601, 0.100419, -0.087950, -0.091905, -0.006845, 0.097701, 0.091839, -0.065747, -0.027719, 0.071862, 0.035278, 0.109417, 0.062121, -0.039103, 0.082664, 0.091492, 0.028962, 0.060955, 0.042718, 0.013519, 0.097687, -0.043363, -0.020944, 0.037545, 0.042566, -0.034577, 0.128853, 0.094107, 0.098418, 0.031773, 0.090434, -0.038536, 0.038177, -0.016112, -0.030261, 0.070000, -0.077722, -0.039347, 0.014401, -0.025821, -0.008980, -0.028257, -0.074518, 0.089595, -0.031045, -0.019661, -0.063465, 0.048507, 0.008146, -0.040077, -0.059888, -0.022616, 0.087896, 0.028812, 0.090460, -0.028274, -0.043189, 0.135718, -0.098808, -0.073791, -0.029654, -0.038552, 0.020812, -0.018925, 0.078678, 0.053805, -0.005252, 0.044710, -0.057349, 0.041261, 0.004398, 0.000794, 0.093132, 0.101270, 0.073473, 0.017079, 0.075466, -0.052859, 0.085693, -0.060199, 0.013946, 0.044047, -0.085007, -0.016954, -0.013855, -0.012326, -0.010464, 0.013256, -0.055200, -0.067405, 0.018063, 0.070017, -0.070694, 0.017873, 0.062791, 0.070786, -0.064576, 0.111829, 0.026590, 0.099372, 0.001638, 0.070658, -0.018587, 0.001975, -0.031547, 0.025960, 0.116095, 0.077737, 0.045287, 0.094147, 0.081203, 0.085548, -0.095484, -0.031454, -0.006286, 0.010847, 0.095899, -0.037930, 0.026781, 0.002192, 0.077974, 0.032149, -0.054357, 0.063537, 0.034777},
  {-0.007716, -0.048597, 0.014906, -0.040675, -0.023225, -0.006258, 0.102353, 0.067134, -0.004229, 0.119018, 0.128450, -0.077767, 0.011390, 0.084050, 0.061659, -0.010780, 0.007743, 0.010771, 0.037421, 0.032682, 0.065653, 0.077469, 0.057209, 0.036550, -0.001518, 0.016969, -0.003247, 0.086038, -0.047770, -0.098471, -0.056451, 0.077888, -0.030891, 0.007760, -0.011970, 0.036269, 0.022570, 0.056116, 0.033265, 0.113446, 0.023781, 0.124752, 0.014257, 0.010367, -0.009697, 0.148778, 0.075443, -0.072374, -0.090110, 0.052222, -0.013571, 0.024680, 0.125739, 0.019191, -0.098857, 0.057930, 0.083863, -0.024793, 0.088077, -0.032326, -0.000221, 0.077922, -0.072920, 0.023394, 0.028207, 0.048769, 0.005004, -0.077942, 0.032696, 0.094860, 0.031822, 0.073087, -0.098183, 0.099711, 0.066041, 0.042308, 0.032306, -0.037701, -0.043554, -0.037679, -0.070593, 0.020387, -0.058649, 0.065838, -0.068519, 0.111653, 0.000649, 0.086092, 0.117173, 0.061005, -0.041886, 0.033709, -0.070792, 0.016059, 0.008883, -0.036822, -0.035878, -0.023996, -0.039926, 0.050564, -0.032152, 0.021979, 0.045694, 0.127949, -0.081340, 0.001113, -0.015047, 0.028855, 0.096537, 0.047284, 0.110716, -0.059445, -0.037612, 0.058966, 0.107319, -0.005435, 0.043038, 0.022041, -0.002373, 0.075290, -0.093811, 0.069499, -0.007046, -0.002363, -0.013718, 0.021465, -0.000309, -0.010510},
  {0.073678, -0.100554, 0.010872, 0.010328, 0.091037, -0.101219, -0.103285, 0.106989, 0.071945, 0.056370, 0.065890, 0.079388, -0.126130, 0.052789, 0.020309, 0.119446, -0.080282, 0.030258, 0.045013, 0.048152, -0.052817, 0.034228, 0.004879, 0.091935, -0.015730, 0.013154, -0.091091, -0.037725, 0.056869, 0.057225, -0.079723, -0.035396, -0.017526, 0.085875, 0.104589, 0.067483, -0.114095, -0.021286, -0.089446, -0.098894, -0.029117, -0.089688, -0.067292, 0.007768, -0.008745, -0.046660, -0.019063, 0.066973, 0.010687, -0.076987, -0.020640, 0.118197, 0.040328, -0.016357, 0.071562, 0.057890, 0.054869, 0.119066, -0.036070, -0.088516, 0.052731, 0.063907, 0.000244, 0.037319, 0.042534, 0.040078, -0.036069, 0.074627, 0.000276, 0.006969, -0.108418, 0.037608, 0.135447, 0.091948, -0.001119, -0.065545, 0.048490, 0.106231, 0.085074, 0.062550, -0.023274, 0.001477, 0.054774, -0.068541, -0.003168, -0.121241, 0.013605, 0.065400, -0.004639, -0.053666, 0.031500, -0.116362, -0.061569, 0.058583, -0.073794, 0.039648, -0.055887, -0.049132, -0.085151, -0.016343, 0.102922, -0.029223, 0.053242, 0.051842, 0.091280, -0.083671, -0.040159, 0.027184, 0.027897, -0.050112, -0.098800, 0.033943, 0.064864, 0.086948, -0.057953, 0.003727, -0.020834, 0.062811, 0.062981, -0.067657, -0.049220, 0.079841, 0.041510, 0.129058, -0.097746, 0.058299, 0.000167, -0.049306},
  {0.071623, -0.057882, -0.044947, 0.015883, -0.043874, -0.091957, -0.046709, 0.016707, -0.023356, 0.018256, -0.025810, -0.083083, 0.096414, 0.089160, 0.023887, -0.044962, -0.023586, -0.022397, -0.002465, -0.022168, -0.074961, -0.045617, -0.095073, -0.001861, -0.025700, -0.032299, -0.123898, -0.020905, -0.064273, -0.047800, 0.060146, 0.115452, 0.111005, 0.006665, -0.003151, -0.098975, 0.082093, 0.081499, 0.113480, 0.054280, 0.089031, -0.052648, -0.094305, 0.027863, 0.000218, 0.033558, -0.070190, 0.039206, 0.124184, -0.056789, -0.086130, -0.053733, 0.069430, -0.074103, 0.115900, 0.029777, -0.028371, 0.035487, -0.022196, 0.078466, 0.005877, 0.027076, -0.036869, 0.126581, 0.033853, 0.065883, -0.056458, 0.078901, 0.074501, -0.026094, 0.097953, -0.005514, 0.062623, 0.034790, 0.057937, 0.027618, 0.038265, -0.065132, -0.131662, -0.025752, 0.014676, 0.071759, -0.072516, -0.052973, -0.034183, -0.087375, -0.051135, -0.059565, -0.083941, 0.089099, -0.039680, -0.010693, -0.011129, -0.094300, 0.025109, -0.059431, 0.118225, 0.085006, 0.055604, 0.039928, -0.052833, -0.000441, -0.009319, -0.003619, -0.001330, 0.031281, 0.097700, 0.086490, 0.114058, 0.031475, -0.047400, 0.029456, 0.023630, 0.059088, 0.113294, 0.033543, -0.087254, 0.087265, -0.005949, 0.114314, 0.067549, 0.060901, -0.077714, 0.023662, -0.080142, -0.001449, 0.032381, 0.123205},
  {0.021710, 0.084345, -0.053974, 0.009470, 0.042577, -0.072149, -0.024816, -0.078295, 0.020077, 0.052722, 0.048884, -0.000270, 0.001331, 0.039943, 0.012548, 0.026187, 0.007190, 0.070588, 0.011194, 0.070066, -0.034003, 0.006907, 0.065080, -0.044626, -0.053368, -0.062606, 0.099429, -0.056887, 0.104944, 0.022249, 0.006357, -0.059236, -0.008297, -0.060726, -0.095748, 0.034732, 0.012146, 0.076080, -0.010000, 0.088148, -0.053279, 0.059173, 0.055487, 0.033507, -0.104512, -0.053992, -0.047277, -0.059853, -0.005033, 0.062845, -0.023954, -0.079863, 0.013588, -0.005626, 0.033709, -0.046015, -0.036576, -0.021898, 0.014496, 0.130739, -0.003498, -0.077273, 0.034224, -0.060344, 0.015828, -0.015478, -0.045708, -0.081213, -0.077205, -0.065304, -0.042066, -0.046013, 0.017430, -0.046377, 0.010443, 0.014765, 0.052983, -0.016309, -0.021927, 0.000201, 0.015691, 0.013412, 0.081046, 0.018545, -0.056224, -0.042014, -0.047264, 0.010571, -0.049508, -0.101369, -0.019784, 0.116989, 0.058382, -0.030627, -0.056415, 0.070458, 0.027050, -0.087416, -0.043869, -0.013853, -0.054473, 0.003395, -0.082981, -0.041244, 0.072707, -0.055392, 0.119727, 0.066706, -0.074891, -0.084171, -0.021516, -0.052501, 0.028768, 0.057772, 0.014411, -0.065697, 0.017793, 0.066968, -0.020473, -0.086341, 0.062283, 0.037814, 0.042462, -0.046070, 0.012715, -0.072910, 0.055006, 0.062401},
  {-0.044196, 0.063257, -0.070233, 0.036978, -0.018242, -0.018508, 0.034844, -0.091192, -0.046840, 0.083711, 0.036915, 0.051221, 0.019699, 0.064628, 0.075354, -0.081036, 0.033844, -0.007851, 0.120196, 0.091919, -0.017028, -0.044579, -0.043485, -0.085878, 0.060299, 0.000182, 0.073794, 0.048246, -0.000473, -0.010326, -0.013799, -0.046192, -0.016898, -0.052936, -0.123461, -0.033238, 0.009705, 0.099957, 0.065769, 0.025479, 0.091568, -0.001961, 0.039421, -0.035314, -0.070634, -0.032594, 0.019680, -0.049672, -0.042833, 0.111930, 0.068725, -0.078857, 0.059402, -0.035564, -0.063984, -0.105444, -0.050966, -0.039807, -0.013898, 0.178224, -0.067409, -0.097475, -0.073166, 0.015167, 0.040338, 0.025305, 0.084063, -0.014960, -0.034719, -0.015266, 0.060628, 0.084989, -0.048274, 0.075439, 0.009579, 0.110368, 0.076874, 0.050395, 0.078537, -0.083552, -0.103645, 0.090700, 0.070598, -0.023861, 0.013597, -0.048734, 0.024293, -0.067526, 0.033200, -0.019257, 0.069990, 0.023279, 0.073254, 0.122634, 0.032759, 0.028927, 0.094582, 0.034673, 0.119652, 0.112101, -0.049234, -0.075939, 0.062366, 0.089820, 0.058409, -0.010786, 0.039146, 0.024773, -0.046128, 0.055956, -0.022965, -0.003862, -0.027577, -0.003459, -0.024059, 0.028166, 0.042943, -0.042217, -0.013787, -0.073865, -0.054347, -0.048493, -0.015455, -0.091130, 0.043761, 0.077021, 0.105647, -0.044206},
  {0.103888, -0.024821, 0.133153, 0.092084, -0.042001, 0.011138, 0.058133, 0.102396, -0.072679, -0.050293, -0.042877, 0.000616, 0.007233, 0.043016, 0.081315, 0.064213, -0.033722, -0.073914, -0.103018, 0.110140, 0.024133, 0.065565, 0.075025, 0.135222, 0.082871, -0.063618, 0.128910, 0.124856, 0.030679, 0.080140, -0.062697, 0.100018, -0.049389, -0.017069, 0.079779, -0.010253, 0.107681, 0.067519, 0.061201, 0.002322, 0.086073, 0.027296, -0.022935, -0.064783, 0.076607, 0.079003, -0.007603, -0.015559, 0.075818, 0.092502, 0.129207, 0.040508, 0.042505, 0.071443, 0.131654, 0.087003, 0.032869, 0.093129, 0.105371, -0.044213, 0.029408, 0.053720, -0.047185, 0.040043, -0.016675, 0.103477, -0.039055, 0.112344, 0.027915, -0.047128, 0.023517, -0.023756, 0.070153, -0.079164, 0.106557, 0.122899, -0.042380, 0.014966, 0.017555, 0.044973, 0.075413, 0.107355, 0.068050, 0.007156, 0.009114, 0.002111, 0.035125, -0.028639, 0.064048, -0.039306, -0.048499, -0.006231, -0.059183, 0.040262, -0.076236, -0.084140, 0.111815, 0.113504, -0.048284, 0.108941, 0.053564, 0.091624, 0.115796, 0.046604, 0.033684, 0.011433, 0.026409, 0.050622, 0.065574, 0.008199, -0.054626, -0.067459, -0.142087, 0.029065, 0.088902, -0.025417, -0.081715, 0.070514, 0.012630, 0.007934, -0.038793, 0.011672, -0.092334, 0.074744, -0.056181, -0.107915, -0.092807, -0.060015},
  {0.091738, -0.004245, 0.085601, 0.087790, -0.007741, 0.069807, -0.004734, -0.052759, -0.079717, -0.069276, 0.019303, 0.018751, -0.106585, -0.004067, 0.022196, -0.040738, 0.034783, -0.085852, -0.027769, -0.040637, 0.104235, -0.027393, -0.105002, 0.076241, -0.072511, -0.039543, 0.058469, 0.052462, -0.051391, -0.026215, 0.001023, -0.000531, 0.007439, -0.075028, 0.002484, -0.056749, -0.025867, -0.056965, 0.089888, 0.009344, 0.106203, 0.054807, 0.015955, -0.003509, 0.005856, 0.094638, 0.006964, -0.086635, -0.030533, -0.013694, -0.051845, 0.044665, 0.035495, 0.058344, 0.096944, -0.011289, -0.069573, -0.012826, 0.071288, 0.022203, 0.006649, 0.056244, 0.059363, 0.048834, -0.049866, 0.082148, 0.032886, 0.080522, 0.013117, 0.051472, -0.091251, 0.003269, 0.011432, 0.042278, -0.048804, 0.018467, -0.065159, -0.088491, -0.012489, -0.043198, 0.089706, -0.033894, -0.020388, 0.037073, -0.008792, 0.085061, -0.032634, -0.063506, 0.057186, 0.001744, 0.078360, 0.011935, 0.009714, -0.002264, -0.067214, 0.081208, -0.001463, 0.096720, 0.077655, 0.007013, -0.066863, -0.043568, -0.063753, -0.049982, 0.000343, 0.001096, -0.029511, 0.036240, 0.002591, -0.046927, -0.037790, 0.087833, 0.009553, -0.047928, -0.016578, 0.000944, -0.092195, 0.081702, -0.077977, 0.067764, 0.002812, 0.060123, -0.050052, 0.040108, -0.068565, 0.046383, 0.061309, -0.054348},
  {-0.072355, 0.059126, -0.026297, 0.068818, 0.075190, 0.012840, 0.081238, -0.016336, 0.008633, -0.054161, 0.031091, -0.019577, -0.024436, -0.051952, -0.086168, -0.019404, -0.072355, 0.041879, 0.042413, 0.020304, -0.025209, 0.000520, 0.051141, 0.068191, 0.000836, -0.004170, 0.098227, -0.007725, 0.105232, -0.054901, 0.036667, 0.054457, 0.110553, -0.009769, -0.039206, 0.006144, -0.070620, -0.036203, -0.056305, -0.031590, -0.029602, -0.025812, 0.040005, 0.043567, -0.105054, 0.095278, -0.079030, 0.086142, -0.040761, 0.016776, -0.046681, 0.073443, 0.019816, 0.128938, -0.015196, -0.114960, 0.030797, 0.036480, 0.071047, -0.059510, -0.053946, 0.112106, 0.071604, -0.044920, 0.009310, -0.054209, 0.043071, 0.083458, 0.025655, -0.021734, 0.012381, 0.102710, 0.019451, 0.100405, 0.010264, -0.029679, 0.007069, -0.011813, 0.129771, -0.032175, -0.014447, 0.014003, 0.063870, 0.001199, 0.100175, 0.054234, -0.036696, 0.047068, -0.037321, -0.002764, 0.078093, 0.098727, 0.117403, -0.033992, -0.059878, 0.060246, -0.003688, -0.070792, 0.097451, -0.013292, 0.049478, 0.036361, 0.009150, -0.012721, 0.047631, -0.003487, 0.069992, -0.056017, -0.074737, -0.047904, 0.114569, 0.083027, 0.128560, 0.066016, -0.008806, 0.082409, 0.085946, 0.052975, -0.027251, -0.002669, -0.050701, 0.061890, 0.042832, -0.020779, 0.091103, 0.044086, 0.153035, 0.064187},
  {0.016054, 0.046528, -0.087061, 0.064915, 0.061851, -0.015336, -0.088168, 0.044024, 0.078793, 0.015590, 0.005183, 0.077522, 0.020308, -0.070095, 0.125585, -0.014658, -0.064006, 0.108758, -0.049533, 0.101991, -0.042894, 0.019887, 0.031975, -0.009824, 0.000173, 0.021213, -0.084325, 0.093547, -0.065450, -0.018214, 0.014022, 0.031307, -0.001101, -0.036710, 0.006698, -0.028691, 0.043255, -0.002550, -0.031380, 0.050706, -0.093071, 0.033953, -0.063555, 0.078926, -0.003871, -0.068368, 0.013826, 0.039677, -0.066940, 0.027598, -0.069334, 0.019308, 0.024949, -0.090565, 0.043850, 0.121181, 0.107445, 0.087624, -0.109411, -0.011505, 0.034346, -0.003434, -0.097266, 0.070002, 0.043446, -0.008214, 0.064321, 0.045595, 0.103986, 0.051156, 0.011841, 0.094741, 0.095295, -0.043460, -0.009107, 0.092158, -0.067604, 0.124989, -0.026067, -0.049775, -0.013254, -0.073701, 0.049871, -0.007283, 0.132720, -0.081263, -0.041868, -0.053346, -0.083210, -0.015551, 0.074296, -0.141805, -0.062963, -0.051099, 0.061506, 0.024430, 0.098706, 0.050074, 0.038855, 0.033512, 0.094553, -0.002354, 0.104677, -0.072652, -0.075411, -0.066705, -0.032244, 0.042958, 0.120675, 0.064002, 0.064995, 0.040871, -0.021038, -0.069634, 0.009020, -0.041117, 0.018847, 0.005584, 0.106126, 0.074967, 0.101833, 0.116539, -0.014096, 0.114897, -0.055295, -0.028722, 0.065590, 0.099208},
  {-0.119732, -0.004483, -0.007906, 0.052629, 0.054640, 0.111685, 0.056631, 0.073967, 0.058727, -0.051595, 0.129081, 0.076655, 0.025517, 0.044502, -0.008243, -0.081805, -0.072356, 0.025632, -0.002689, 0.025707, 0.067775, 0.127932, 0.071241, -0.060888, -0.032695, -0.004653, 0.007152, -0.065678, 0.113320, -0.110609, -0.011860, -0.063529, 0.059114, 0.013413, -0.096739, 0.105200, 0.093009, 0.096588, -0.014527, 0.046830, -0.007221, 0.093921, 0.138662, -0.013515, -0.030252, 0.038548, -0.015900, 0.066657, 0.061212, 0.115256, 0.085735, -0.023575, 0.013965, -0.013253, -0.075631, -0.104956, 0.043764, -0.081992, 0.017258, 0.068634, 0.065084, 0.045087, -0.050635, -0.075211, 0.073477, -0.061497, 0.013254, 0.004550, 0.036966, 0.075074, -0.115085, -0.007166, -0.027742, 0.086085, 0.000704, -0.066633, -0.015896, 0.029215, 0.137721, -0.001064, -0.034815, 0.079317, 0.051725, 0.015910, -0.045189, 0.098150, 0.118334, -0.004596, 0.061058, -0.041616, 0.039646, 0.000250, -0.000258, -0.007730, 0.104621, 0.099026, -0.028393, -0.006526, 0.091137, -0.027053, -0.027361, -0.008780, -0.090049, 0.009677, -0.013532, 0.016698, 0.114342, 0.047320, -0.007550, -0.068723, 0.067640, 0.102621, -0.037091, 0.094480, 0.074610, 0.088591, 0.101436, 0.064882, 0.006538, 0.011346, -0.038579, 0.028314, 0.002659, 0.028076, -0.005260, 0.115947, 0.012781, -0.077751},
  {-0.068763, 0.101256, 0.042616, 0.000329, -0.037572, 0.052622, 0.048553, -0.031172, 0.056953, 0.045147, 0.116086, 0.089632, 0.068205, -0.050937, -0.014884, -0.018278, 0.107395, 0.025607, 0.001920, -0.014083, 0.069494, 0.035572, 0.059557, -0.086266, -0.095023, -0.091840, 0.104006, -0.069171, 0.016603, 0.079457, 0.032084, -0.042679, 0.019801, -0.001920, -0.054308, 0.063958, 0.049176, 0.065424, -0.043980, 0.054083, 0.039298, -0.000250, 0.004693, 0.133646, -0.075167, 0.069051, 0.075840, 0.004174, -0.081277, -0.005128, 0.041853, 0.036506, -0.041602, -0.085460, -0.016256, 0.013685, 0.129687, 0.069652, 0.062868, -0.004363, 0.018832, -0.049954, -0.001441, -0.008843, 0.108454, -0.092566, -0.059180, -0.086385, 0.012264, -0.042210, -0.015459, -0.008286, -0.006216, 0.099978, 0.000687, -0.056401, 0.050845, 0.037939, 0.097644, -0.090511, 0.077574, -0.045554, 0.081158, -0.066494, 0.128392, 0.097373, 0.080003, 0.008039, -0.004414, 0.008184, 0.010670, 0.080860, -0.091727, 0.029415, 0.018688, 0.018509, -0.017418, -0.080233, 0.072431, -0.046835, 0.100659, -0.029078, -0.038922, 0.041348, 0.089904, -0.061615, 0.097297, 0.116253, -0.098611, 0.054659, 0.041475, -0.005146, 0.067690, 0.114679, 0.031133, -0.028172, 0.001496, 0.041841, 0.126162, -0.045794, 0.006776, 0.031469, 0.114843, 0.070129, -0.017792, 0.029393, 0.108081, -0.032665},
  {0.080168, 0.028964, 0.058864, 0.010339, -0.052660, 0.002769, 0.029427, 0.000616, 0.099453, 0.111718, 0.045431, 0.047339, 0.107100, -0.018307, 0.087169, -0.037890, -0.077326, 0.090858, -0.111117, 0.090240, -0.069012, -0.086913, -0.096835, 0.072054, -0.043138, -0.083427, -0.016745, 0.068325, -0.061532, 0.021706, 0.035380, 0.073717, 0.059115, -0.010074, -0.033792, 0.047637, -0.030072, 0.015993, -0.008645, -0.049815, 0.045622, -0.030206, 0.037639, 0.013401, 0.084682, -0.058121, 0.049487, -0.026766, -0.106187, -0.044054, 0.003333, -0.040646, 0.061253, -0.021767, -0.029098, 0.100960, -0.006580, -0.026427, -0.014463, 0.030967, -0.026850, -0.000094, -0.082974, 0.112782, -0.092406, 0.090849, -0.047844, 0.039967, 0.075052, -0.030819, 0.027575, -0.084636, -0.024503, -0.071261, -0.040538, -0.025017, 0.109159, 0.114768, -0.034302, 0.083178, -0.029494, 0.051268, -0.053742, -0.082602, 0.028823, 0.027659, 0.033993, 0.053622, -0.008286, 0.120785, -0.096591, -0.059758, -0.027842, -0.034689, -0.045808, -0.049713, 0.035203, -0.005956, -0.092293, -0.016558, -0.015814, -0.052785, 0.013841, 0.013880, -0.053835, 0.063565, -0.028041, -0.056498, -0.052628, -0.022122, -0.023845, -0.041003, 0.030462, -0.059322, 0.092404, 0.049520, -0.012863, -0.053745, 0.067530, 0.036218, -0.028632, 0.040353, 0.052506, -0.029546, -0.041229, 0.000201, -0.089649, 0.083250},
}