Layer: fc2.weight
Shape: torch.Size([64, 128])
Values:
{
  {0.075913, 0.005474, -0.082313, 0.044174, -0.054766, 0.053380, 0.075056, 0.011695, 0.110895, 0.074007, 0.046519, -0.098085, 0.219615, 0.007322, -0.073965, 0.047192, 0.132583, 0.070245, 0.012921, 0.006913, -0.012201, 0.077005, 0.195456, 0.134179, 0.094051, 0.000624, -0.005608, -0.073818, -0.020359, -0.076721, 0.057307, 0.160908, 0.001177, -0.047996, 0.059661, 0.069657, 0.069155, 0.046221, 0.096189, -0.020671, 0.003962, 0.050094, 0.081371, 0.202172, 0.144867, 0.019343, 0.177500, -0.041551, -0.115037, 0.000372, -0.052983, 0.173097, 0.037733, 0.040415, 0.053764, 0.022349, 0.005060, -0.013624, 0.017507, 0.183833, 0.000620, -0.015797, -0.021212, 0.162820, 0.050878, 0.059826, 0.073704, 0.073269, 0.016467, -0.061748, 0.028590, 0.141497, -0.051922, 0.114294, 0.036583, -0.017458, -0.026617, 0.011253, -0.012979, 0.093769, -0.012724, 0.169526, 0.097870, -0.044323, 0.077530, 0.131727, 0.093255, -0.058758, 0.145295, -0.043456, 0.046633, 0.051152, 0.147122, -0.034610, 0.049834, -0.095849, -0.025426, 0.040299, -0.083105, -0.077693, 0.135118, -0.027945, -0.018429, 0.140869, 0.060086, 0.024823, 0.148231, 0.054497, 0.111968, 0.036140, -0.091988, 0.059000, 0.154906, -0.063294, 0.139952, 0.113179, -0.050494, -0.008963, 0.011942, -0.052321, 0.114737, 0.005102, 0.121537, 0.042360, 0.099917, 0.126292, -0.039669, 0.015070},
  {0.081264, 0.113621, 0.105880, -0.017231, 0.029388, -0.029892, 0.061968, 0.130268, 0.032568, 0.013920, -0.036970, 0.012920, -0.015006, 0.127391, 0.001744, 0.014194, -0.019852, 0.190355, -0.121913, -0.098862, 0.104259, -0.053312, -0.059521, -0.078078, 0.038267, 0.231874, 0.092632, -0.084497, 0.034750, 0.128634, 0.163390, 0.017390, 0.072780, 0.149296, 0.048399, 0.097057, -0.005088, -0.205803, 0.013210, 0.124695, -0.045417, 0.059536, 0.030972, -0.079362, -0.175651, -0.147053, -0.008652, 0.084260, 0.081612, 0.049260, 0.093123, 0.022025, 0.012868, 0.002710, 0.144072, -0.114282, 0.012332, -0.086665, 0.074937, -0.075000, 0.125631, -0.011629, 0.077790, 0.012164, -0.108109, -0.091614, -0.143284, -0.014847, -0.153291, 0.079045, 0.048553, -0.108279, 0.062190, -0.090892, 0.074709, -0.028741, 0.042603, -0.004035, -0.171605, -0.097566, 0.077590, -0.006154, 0.017054, 0.026791, -0.077503, -0.145848, 0.081785, 0.030040, -0.066173, -0.032050, 0.039644, -0.106641, 0.037873, 0.012383, -0.026700, 0.017164, -0.009933, -0.039249, -0.098613, -0.085210, -0.046399, 0.006800, 0.122315, -0.022511, 0.076544, -0.017689, -0.036051, 0.112365, -0.019208, 0.066272, -0.074971, -0.094654, 0.085218, 0.027179, -0.059559, 0.019908, 0.105747, -0.024668, 0.148151, -0.026681, -0.011666, -0.051239, -0.056305, -0.004741, 0.121486, -0.062785, -0.089956, 0.127028},
  {0.089777, 0.061889, -0.000286, 0.093951, -0.015648, 0.123837, 0.008278, 0.067925, 0.083144, 0.076072, -0.064464, -0.055034, -0.055865, 0.086724, -0.020457, 0.006225, 0.181599, -0.003606, -0.009969, 0.132149, -0.026990, -0.051467, 0.173366, 0.164193, 0.038735, -0.016526, -0.006136, 0.142030, -0.070801, -0.083996, 0.001489, 0.068599, -0.071180, 0.008927, 0.034816, -0.076390, -0.069543, 0.186777, 0.113194, -0.039626, -0.019440, -0.015250, 0.133840, -0.045297, 0.198678, 0.075754, -0.039802, -0.043967, 0.049167, 0.093377, 0.042672, -0.104047, -0.052200, 0.126047, 0.041953, -0.044862, -0.065881, 0.055100, 0.010411, -0.004041, 0.026731, 0.020678, 0.144287, 0.083366, 0.032166, 0.016114, 0.084857, 0.081727, -0.001824, 0.015941, 0.002899, 0.137521, -0.210561, -0.032040, -0.065101, 0.067251, -0.052858, -0.039814, 0.039005, 0.043984, -0.038817, 0.149100, -0.021161, 0.062441, 0.007429, 0.085461, 0.063188, 0.035616, 0.226916, -0.045798, 0.041121, 0.036372, 0.084451, 0.006699, 0.117582, -0.053484, 0.153766, 0.057338, 0.087440, 0.080095, -0.053569, 0.044062, -0.054215, 0.093166, -0.033888, 0.179680, 0.093881, -0.068359, 0.011474, 0.018521, 0.005043, -0.012551, 0.086304, 0.030398, 0.012091, 0.086982, -0.158923, -0.105113, -0.000889, 0.086498, 0.007567, 0.079927, 0.067214, -0.053112, -0.076575, -0.025590, -0.087353, -0.029469},
  {0.130396, 0.115994, 0.078056, 0.122521, 0.175584, -0.039953, -0.158955, -0.073268, 0.076110, -0.024676, -0.007471, -0.018001, -0.168609, -0.104176, -0.009296, -0.084014, -0.021382, 0.006123, 0.125220, 0.047670, -0.082236, -0.003900, -0.063023, -0.131270, 0.016425, 0.066786, -0.028227, 0.158322, 0.084610, 0.060091, -0.188990, -0.005155, -0.014643, 0.021215, 0.042610, 0.012873, 0.063516, 0.082039, 0.045391, -0.097157, -0.088493, -0.056542, 0.076595, -0.124880, -0.021997, 0.084525, 0.047925, -0.093546, -0.065020, 0.023187, 0.101799, 0.047882, 0.126688, -0.016785, -0.189485, -0.005291, 0.091763, 0.054419, 0.005576, -0.127509, 0.125077, 0.193422, -0.075563, -0.113410, 0.086083, 0.153413, -0.035886, -0.073444, 0.044870, 0.163824, 0.038557, -0.115971, 0.058920, -0.077004, 0.079325, 0.040865, -0.155851, 0.065285, -0.081689, -0.039012, 0.051722, -0.128002, 0.045406, 0.144895, 0.042144, -0.007870, 0.080501, -0.039550, -0.115859, 0.053057, -0.102641, 0.021665, -0.085020, 0.142537, -0.046457, 0.047008, 0.050770, 0.114653, 0.071748, 0.020458, -0.049922, 0.053488, -0.009553, -0.161329, 0.085777, -0.036182, 0.045545, 0.129557, -0.206482, 0.060673, 0.053883, -0.041992, -0.038939, -0.003021, -0.046932, -0.125196, 0.003559, -0.010725, -0.104410, 0.018612, -0.091543, 0.094357, 0.114644, 0.154908, -0.106112, -0.071195, 0.059331, -0.101942},
  {0.044027, 0.000234, -0.036113, 0.058579, 0.107269, -0.083547, -0.072422, -0.123172, 0.101615, 0.032215, 0.083163, 0.080869, 0.004418, -0.075520, 0.058783, 0.103271, 0.132448, 0.077636, 0.003645, 0.168331, 0.040488, 0.020980, 0.130483, 0.049879, 0.055160, -0.063085, -0.091189, 0.150114, -0.133199, 0.025507, -0.114276, 0.046685, 0.073591, 0.119347, 0.025950, -0.043131, 0.005955, 0.017960, -0.002938, -0.074251, -0.158891, 0.118983, 0.190207, -0.074994, 0.011670, 0.068297, 0.085107, -0.140819, -0.113886, 0.020073, 0.161418, -0.035796, -0.031657, 0.091122, 0.034885, -0.002474, -0.122887, 0.037162, 0.013463, 0.064010, 0.121570, 0.036101, -0.005495, 0.080830, 0.019655, 0.091256, 0.159274, -0.023928, 0.146998, 0.073278, 0.108057, 0.046433, -0.071646, 0.006115, 0.021828, 0.094647, -0.143341, 0.140507, 0.050174, -0.113664, 0.093719, -0.029520, 0.096954, 0.025874, -0.022995, 0.093076, 0.093642, 0.032203, 0.082825, -0.074805, 0.044292, -0.057125, -0.083181, 0.070516, 0.148375, 0.032521, 0.094972, 0.031883, -0.018604, 0.083504, 0.110411, 0.172292, -0.052464, 0.049394, -0.022148, 0.130278, 0.106288, 0.088253, -0.108301, 0.017713, 0.041814, 0.137586, 0.069768, 0.085315, -0.026297, 0.090504, -0.010372, -0.124971, -0.097520, 0.078475, -0.081315, 0.030978, 0.087633, 0.074259, -0.090320, 0.039029, -0.049403, 0.046999},
  {-0.135118, 0.029077, 0.031892, 0.090455, 0.002984, 0.057385, 0.112750, 0.120421, 0.000051, -0.050840, 0.114739, -0.093144, -0.075264, 0.102232, 0.125012, -0.067892, 0.045637, 0.170574, -0.083222, 0.102963, -0.005586, 0.140567, -0.028089, -0.016667, 0.026395, 0.154421, 0.079941, -0.046034, 0.133665, -0.016186, 0.135605, 0.006112, 0.032251, 0.005351, -0.060357, -0.172055, 0.080357, 0.017444, -0.038292, 0.192030, 0.125366, 0.033326, -0.098437, -0.001184, 0.043322, 0.023256, 0.091342, 0.161375, 0.131534, 0.043741, -0.016442, -0.101177, 0.041378, -0.113343, 0.012955, 0.094569, 0.070871, 0.042440, 0.131652, -0.089393, 0.021691, 0.084009, 0.156911, -0.028456, -0.044556, -0.081124, -0.118272, -0.095294, -0.106613, -0.126599, 0.058386, 0.046292, 0.103192, 0.049183, 0.098409, -0.042664, 0.069409, 0.040417, -0.045045, -0.062872, 0.040487, -0.081581, 0.010453, 0.062638, -0.031381, 0.067504, -0.029893, -0.092946, -0.215059, -0.086059, -0.064955, 0.009036, -0.008345, -0.039335, 0.097685, 0.122048, -0.099541, -0.053519, 0.045416, 0.075142, -0.087572, -0.112260, 0.127483, -0.032314, 0.053251, -0.097946, -0.076838, 0.030202, 0.114877, 0.111247, -0.088425, -0.013018, 0.037625, 0.055997, -0.144429, -0.027013, -0.082216, -0.084660, 0.046485, 0.033100, 0.145820, 0.091171, -0.065633, 0.048017, 0.079995, 0.096746, 0.060169, 0.028562},
  {-0.011549, 0.018634, 0.053149, 0.026611, 0.094895, 0.032173, 0.025210, -0.050469, 0.067759, 0.009210, -0.087537, -0.131445, -0.011010, 0.033639, -0.104974, 0.017946, 0.055915, 0.164953, -0.072627, 0.098860, 0.169935, 0.013958, 0.009897, 0.046292, 0.083075, 0.180224, -0.034915, 0.002424, 0.058516, 0.138971, 0.119222, 0.032079, 0.054708, 0.036109, 0.154747, -0.048493, -0.047481, -0.036550, 0.121308, -0.062906, -0.042599, 0.021743, -0.031633, -0.117551, -0.004518, -0.064899, -0.069788, 0.081828, 0.082915, 0.073381, 0.125307, -0.069860, -0.004384, 0.163437, 0.114276, -0.078663, -0.055037, 0.019286, 0.016620, -0.049511, 0.060968, -0.019337, 0.133963, 0.108475, -0.012163, -0.021792, 0.014729, -0.045726, -0.003074, 0.130602, 0.075403, -0.050728, -0.077236, -0.054603, -0.073171, 0.109057, 0.092365, 0.057818, -0.115316, -0.056755, 0.160482, -0.068734, 0.019386, -0.061562, -0.084906, -0.019857, 0.006801, 0.106590, 0.157118, -0.043344, 0.007835, -0.032204, 0.003449, 0.032063, -0.097380, 0.030379, 0.105256, -0.018804, 0.054258, -0.016876, -0.090396, -0.008987, 0.114902, -0.039244, 0.075864, 0.118736, -0.023401, 0.013753, 0.112313, -0.057178, 0.052728, -0.028067, -0.001139, -0.075314, 0.020099, -0.023977, -0.020307, -0.126185, 0.156336, 0.007792, 0.046504, 0.010759, 0.074021, -0.045677, -0.036579, -0.054152, 0.010685, 0.145409},
  {-0.026236, 0.088839, 0.058834, 0.093051, -0.063527, 0.009980, -0.109470, -0.088195, 0.067283, 0.130268, 0.140099, -0.111484, 0.129734, 0.086672, -0.058572, 0.090308, 0.107700, 0.078511, -0.041068, 0.093658, -0.032149, 0.077865, 0.059732, -0.005782, -0.095372, -0.080265, 0.141941, -0.018697, 0.032483, 0.126122, -0.081195, 0.068762, -0.060065, -0.059985, 0.051986, 0.115182, 0.034128, -0.076813, -0.016984, 0.059121, 0.027509, 0.151155, -0.126136, 0.051734, 0.127864, -0.103713, 0.129449, -0.022674, 0.013809, 0.129611, -0.001382, 0.136026, 0.060233, -0.096217, -0.047085, 0.109109, 0.103343, 0.030721, -0.020919, 0.057397, 0.038309, 0.068091, -0.061332, 0.024705, 0.006847, 0.041727, 0.111539, 0.078955, -0.033654, -0.046931, -0.019055, 0.008028, 0.036566, 0.066965, -0.009297, 0.112506, 0.001983, 0.036343, 0.011852, 0.080267, 0.049131, 0.050688, 0.048142, -0.062684, -0.067893, -0.039914, 0.079591, -0.074513, -0.132551, -0.008566, 0.061476, -0.001761, -0.156446, -0.010134, 0.074234, -0.034562, 0.054596, 0.055539, 0.009737, 0.141113, 0.139773, 0.052947, 0.122909, 0.062237, -0.015544, -0.012025, 0.078289, 0.031083, -0.056803, 0.065910, -0.049831, 0.002615, 0.040345, 0.042230, 0.133060, 0.167068, -0.004707, -0.064535, -0.129124, 0.100451, -0.027200, 0.067763, 0.070634, 0.123363, 0.130334, 0.063214, 0.121612, -0.014317},
  {-0.089874, -0.053377, 0.111234, -0.140911, -0.137975, -0.091768, 0.040224, -0.010826, 0.013592, -0.054973, 0.098347, 0.050340, 0.052799, 0.127092, 0.028005, 0.024410, 0.014785, 0.023220, -0.089464, 0.080563, 0.191010, 0.006542, 0.057262, 0.036327, -0.066117, 0.052865, 0.040587, -0.051190, -0.168081, 0.098990, 0.115586, 0.015735, 0.109018, 0.109283, 0.151328, 0.003455, 0.055172, -0.067440, 0.036455, 0.095559, -0.149823, 0.080725, -0.026337, -0.064130, -0.071343, 0.033162, 0.104265, -0.064629, 0.134643, 0.008738, 0.039327, -0.058953, -0.071991, 0.076494, 0.113234, 0.044802, -0.097233, -0.052735, 0.101501, 0.116705, 0.012903, -0.003558, 0.062611, 0.132317, -0.056441, 0.001434, 0.112552, 0.051403, -0.113697, -0.076354, 0.074367, -0.040760, 0.056056, 0.095491, 0.112549, 0.056935, -0.020135, 0.054601, 0.028243, 0.117158, -0.021246, 0.005636, 0.084746, 0.035166, 0.099866, 0.084247, 0.037678, -0.145493, 0.038700, -0.161178, 0.124299, -0.065934, 0.038719, -0.063217, -0.090915, 0.009827, -0.059160, 0.052117, 0.022716, 0.027757, -0.007469, 0.017995, 0.122166, -0.009779, 0.148306, -0.012297, -0.091688, 0.108481, 0.057935, 0.007360, -0.139297, -0.007249, 0.042185, 0.022712, -0.001764, 0.150489, 0.075315, -0.093929, 0.153125, -0.122742, 0.117716, -0.045763, 0.051464, -0.046084, 0.024358, 0.031376, -0.108303, 0.122752},
  {0.034578, -0.006340, 0.057412, 0.060594, -0.065939, 0.004952, -0.012077, 0.103880, 0.140284, 0.133956, -0.016963, 0.068068, 0.092944, 0.114267, -0.053722, 0.095974, 0.049082, -0.026171, 0.087592, 0.092989, -0.028230, 0.086638, 0.061070, 0.117439, 0.017892, -0.064121, 0.010373, -0.013635, 0.126539, 0.113460, 0.042547, 0.123602, -0.082690, -0.105777, 0.071972, 0.061740, -0.058635, 0.114402, -0.041517, 0.128992, 0.058370, 0.167677, -0.020832, 0.060485, 0.187557, -0.108879, 0.096812, 0.059639, 0.027958, 0.107174, -0.039744, 0.150557, 0.001322, -0.091588, 0.059342, 0.068717, 0.099869, 0.109943, 0.057533, 0.102702, -0.090669, 0.009433, -0.019229, 0.160811, 0.065683, 0.137646, 0.082994, 0.069107, 0.032057, 0.034512, -0.042858, -0.028889, 0.069251, 0.036154, -0.000779, 0.047908, 0.130222, 0.002505, 0.081221, 0.114570, 0.100522, 0.129993, 0.030579, -0.065119, -0.111877, -0.020236, 0.068897, -0.024878, -0.107616, 0.113761, 0.077803, -0.068940, 0.045673, -0.037842, -0.005862, -0.031258, 0.047351, -0.035582, 0.036763, 0.082305, 0.110230, -0.047418, -0.010134, 0.138443, 0.019452, 0.032068, -0.059115, -0.104251, 0.000864, -0.037567, -0.052505, -0.103824, 0.029927, 0.053475, 0.152113, 0.095666, -0.091432, -0.036001, -0.147174, 0.104960, 0.120212, -0.011737, 0.156671, 0.047552, 0.135314, 0.071136, 0.151585, 0.017397},
  {0.038948, 0.010323, 0.002130, -0.056733, 0.051074, -0.051250, 0.086362, -0.066508, 0.121147, 0.087593, 0.084286, 0.037145, -0.046230, -0.017398, 0.017434, 0.143992, 0.191305, 0.059340, -0.098317, 0.058818, 0.074636, -0.043384, 0.119423, 0.176392, 0.040594, -0.007083, -0.022441, 0.089966, -0.092913, 0.071137, 0.011222, -0.048052, 0.047180, 0.086505, 0.168700, -0.051149, 0.092737, 0.004676, 0.017221, -0.094049, -0.108702, 0.116431, 0.077752, 0.009188, -0.027944, -0.049335, 0.003309, -0.051082, -0.023074, 0.036830, 0.137772, -0.100251, -0.005082, 0.066344, 0.031656, 0.068117, -0.100071, -0.030650, -0.023223, 0.124269, -0.021831, -0.139358, 0.104273, -0.001456, 0.101280, 0.064911, -0.000488, -0.038482, 0.078780, -0.019757, -0.043341, 0.089380, -0.080671, 0.050415, -0.086292, 0.043633, -0.085564, -0.022552, 0.195660, 0.025350, 0.067223, 0.049898, 0.066055, -0.032571, -0.009508, 0.147689, 0.099754, 0.076694, 0.048022, 0.102490, -0.098176, 0.041393, 0.118767, 0.126762, 0.012023, -0.041713, 0.148959, -0.056896, 0.096361, 0.087735, 0.134708, 0.091086, 0.029362, 0.085184, 0.077258, 0.081888, 0.041260, 0.045253, 0.044074, 0.008300, 0.096964, 0.117647, -0.025211, -0.021573, -0.043819, 0.108815, 0.017665, 0.042529, 0.066244, 0.003731, 0.039336, -0.011147, -0.001005, -0.030720, 0.042239, 0.151149, 0.035314, -0.075161},
  {0.141695, -0.113977, -0.024208, -0.091581, 0.133630, -0.072137, -0.110777, 0.024202, 0.202701, -0.058835, -0.063557, 0.073249, 0.003421, -0.037502, 0.028873, -0.007903, -0.006525, -0.001245, 0.058234, 0.030350, 0.067430, -0.076953, 0.123919, -0.052587, -0.055998, 0.054498, 0.113023, 0.062907, -0.006182, -0.001469, 0.039106, -0.092124, 0.002641, -0.046483, -0.102303, 0.047492, -0.056879, -0.034503, 0.131627, -0.053374, -0.040483, -0.023051, -0.138880, -0.064539, 0.119279, -0.111344, 0.009579, 0.061693, 0.002973, -0.057258, 0.000880, 0.054078, -0.004594, 0.180025, 0.026201, 0.001080, -0.065683, 0.066570, -0.125323, -0.059027, -0.022763, -0.034546, 0.060209, 0.075355, -0.008631, 0.014742, -0.062419, 0.093178, 0.078180, 0.095918, -0.051549, -0.095997, -0.053443, 0.030723, 0.008238, -0.004038, 0.013208, -0.116361, -0.076127, -0.032441, 0.138711, 0.094574, 0.097721, -0.004223, 0.059708, -0.114758, 0.165074, 0.002764, 0.119933, 0.065213, 0.135347, -0.040618, 0.005440, -0.007224, -0.001977, -0.131974, 0.061161, 0.081175, -0.092858, 0.001871, 0.008353, -0.035616, -0.015757, 0.026736, 0.057318, -0.008594, -0.031651, 0.010062, -0.024578, -0.029238, -0.015202, -0.029981, 0.081034, 0.129260, 0.153864, 0.068502, 0.016918, 0.049092, 0.014261, 0.080538, 0.033456, -0.042833, 0.118937, -0.026284, -0.004021, -0.041000, 0.064219, 0.018357},
  {0.021128, 0.068043, 0.047386, 0.050518, -0.011922, 0.075650, -0.067587, 0.005782, -0.057345, 0.031522, 0.087266, -0.013370, 0.037342, 0.015511, 0.037971, 0.022870, 0.049482, 0.018827, 0.028765, -0.087125, 0.071247, 0.159809, -0.124805, 0.083843, 0.088834, 0.050720, 0.063515, -0.069948, -0.059058, -0.016819, 0.036721, 0.010231, 0.049025, 0.020585, 0.065550, 0.059064, 0.211515, -0.052561, -0.112564, 0.003630, 0.029328, -0.052628, -0.012328, 0.024371, 0.013678, -0.010777, 0.020437, 0.062188, 0.022403, 0.119131, 0.063295, 0.004107, 0.025262, 0.090626, -0.033662, 0.106313, -0.027182, -0.032759, 0.122269, 0.034307, 0.031363, 0.119331, 0.003651, -0.003688, -0.077816, -0.078309, 0.091332, -0.012117, -0.110727, 0.054987, -0.054683, -0.030710, 0.092435, -0.102004, 0.094796, 0.077707, 0.137561, 0.053795, -0.006632, 0.120289, -0.066222, 0.056766, -0.060562, 0.093171, 0.049364, 0.142210, -0.004118, -0.018741, 0.104228, 0.123722, -0.144122, 0.108308, 0.077224, -0.034446, 0.074620, 0.000573, -0.028412, 0.002182, -0.013287, 0.077158, 0.083916, -0.072167, -0.039119, 0.057326, 0.027367, -0.027478, 0.056058, -0.007809, -0.022115, 0.083128, 0.015087, 0.149501, -0.154770, -0.105506, 0.012724, 0.042464, 0.078647, 0.214374, 0.067182, 0.021945, -0.026955, 0.032167, -0.040592, 0.089831, 0.019199, 0.100671, 0.067815, 0.015303},
  {0.176575, -0.176790, 0.001566, 0.006335, 0.151994, 0.111367, 0.031021, 0.066149, 0.088466, -0.034350, 0.113359, -0.099625, 0.114234, -0.039460, -0.033183, 0.137458, 0.094701, 0.015694, -0.092447, 0.084082, 0.063017, -0.013049, 0.077078, 0.138742, 0.022084, 0.119278, -0.032066, 0.058745, 0.076184, 0.158227, -0.049641, 0.033625, -0.038014, -0.048290, 0.036971, 0.107798, -0.006253, 0.022600, 0.060464, 0.095360, -0.102169, 0.021717, -0.106974, 0.109806, 0.063122, -0.066480, 0.073679, 0.046970, -0.064230, -0.024080, 0.017920, 0.106460, 0.013636, 0.006394, 0.030091, 0.026717, -0.075972, 0.113204, 0.141181, -0.038020, 0.053480, -0.170468, 0.024894, 0.039696, 0.060420, 0.052903, 0.040870, 0.121585, -0.058376, -0.031656, 0.093436, 0.017500, -0.026549, 0.143004, 0.048269, -0.103748, -0.045391, -0.125006, 0.051435, 0.007772, 0.138751, -0.014189, 0.026297, -0.144447, -0.027768, -0.094519, 0.140242, 0.045194, -0.060794, -0.022477, -0.015043, -0.037612, 0.101110, 0.040589, 0.004800, -0.089516, 0.023023, 0.003625, 0.056427, 0.018641, 0.014956, -0.159059, 0.041226, 0.120012, 0.014936, -0.008842, 0.051930, 0.004236, 0.001017, 0.133243, -0.059648, -0.159878, 0.132025, -0.005592, 0.088675, -0.029756, -0.010493, 0.079689, -0.041301, 0.059906, 0.054541, -0.133429, -0.004472, 0.076001, 0.172858, 0.065204, 0.049568, 0.083632},
  {0.063540, 0.047301, -0.063271, 0.063912, -0.041443, 0.122820, 0.029033, -0.002602, -0.009262, 0.087333, 0.132960, -0.115052, 0.056972, -0.073587, 0.114835, 0.005192, 0.138887, -0.015957, 0.037512, 0.066627, 0.039855, 0.164829, -0.004576, 0.222040, 0.134168, -0.046253, -0.195510, -0.010508, -0.101079, 0.028590, -0.030713, 0.092933, -0.003754, -0.012030, 0.113904, 0.057396, 0.133295, 0.060642, -0.027550, -0.028787, -0.027881, 0.003404, 0.131169, 0.094144, 0.063605, 0.011056, 0.051213, 0.050765, 0.050307, 0.153844, 0.140616, -0.153529, 0.105054, 0.080637, -0.049600, 0.126344, -0.109377, 0.101560, 0.211809, 0.123553, 0.071065, 0.016154, 0.093327, -0.058805, -0.016434, 0.131090, 0.075178, -0.022062, -0.107182, -0.006239, 0.027722, 0.188273, -0.113153, -0.051541, -0.023803, 0.051109, -0.099545, 0.061104, 0.080375, -0.101462, 0.071965, -0.005109, -0.040030, 0.047355, -0.068218, 0.205176, 0.051343, 0.108652, 0.063478, -0.045546, -0.137037, -0.124874, 0.100239, 0.004055, 0.166842, 0.005092, 0.019125, 0.034369, 0.050442, 0.079203, 0.093921, 0.021957, 0.037282, 0.170856, 0.031696, 0.064990, 0.001422, 0.067233, -0.050697, 0.020720, -0.013914, 0.191745, 0.037327, -0.027316, -0.005991, -0.042673, -0.037986, 0.055222, -0.028424, 0.058525, -0.025584, 0.075979, 0.083802, 0.030144, -0.035648, 0.107572, -0.058451, -0.079078},
  {0.074934, -0.163550, 0.057450, 0.085877, 0.039758, 0.064182, 0.084560, 0.168767, 0.054857, -0.066241, 0.057241, -0.086361, 0.096678, -0.047193, 0.089395, -0.038941, -0.044811, -0.033234, -0.039403, -0.021013, -0.018302, 0.048238, 0.071340, 0.010811, 0.040951, 0.067347, 0.019966, -0.142171, 0.076530, 0.041263, 0.183546, 0.115875, 0.035208, 0.156912, -0.052946, 0.023312, 0.015821, -0.027584, 0.088582, 0.140831, -0.036428, -0.116676, -0.117625, 0.065421, -0.014124, 0.004242, -0.027938, -0.036817, 0.110714, -0.019502, -0.012981, 0.017861, -0.017833, -0.026340, 0.009711, -0.068254, 0.013094, 0.049230, 0.118494, -0.071932, 0.132557, 0.111876, 0.011054, 0.009809, -0.076978, -0.097582, -0.113259, -0.069001, -0.059332, -0.046138, -0.123154, 0.050423, 0.053844, 0.003871, 0.037470, -0.065843, 0.016220, -0.010061, 0.023933, 0.015409, -0.057301, -0.047519, 0.097097, -0.034978, 0.001874, -0.028270, -0.096653, -0.056867, 0.071747, 0.062741, 0.054127, 0.057070, 0.006249, -0.051277, -0.144012, -0.000690, -0.029183, 0.113610, -0.092727, -0.069895, -0.043276, -0.122225, 0.102870, 0.078647, 0.150762, -0.133911, -0.079849, 0.053665, 0.003135, 0.158519, -0.177934, -0.133485, 0.081503, 0.029172, -0.062216, -0.080710, 0.095532, 0.053938, 0.096565, -0.083384, 0.044951, -0.072676, 0.030969, -0.100624, 0.085479, -0.017655, -0.109915, 0.131352},
  {0.060624, 0.054983, 0.023438, 0.020671, -0.022684, 0.034246, 0.037169, -0.012939, -0.041278, 0.020023, 0.117471, 0.025670, 0.133752, 0.019212, -0.005090, 0.059854, 0.019166, -0.042552, 0.028285, 0.063085, 0.001294, 0.130384, 0.124246, 0.144726, 0.057980, -0.071807, -0.058786, 0.050665, 0.037321, 0.085586, 0.018833, 0.128583, 0.014266, 0.028779, 0.055768, 0.058851, 0.113301, 0.001630, -0.002837, 0.046697, 0.151870, 0.071465, -0.022605, 0.087535, 0.005574, 0.067888, 0.038050, 0.079477, 0.073087, 0.032016, 0.123339, 0.127283, 0.051228, 0.083158, -0.003725, 0.057936, 0.140445, 0.062895, 0.123132, 0.115956, 0.001906, -0.027099, 0.089092, 0.090016, -0.004462, 0.039822, 0.169249, 0.071755, 0.102656, -0.011897, 0.031868, 0.153085, 0.061152, 0.014658, 0.032933, 0.151380, 0.026052, 0.059761, 0.063329, 0.031600, 0.020559, 0.152444, -0.007098, 0.012663, 0.005890, 0.106585, -0.050151, 0.097371, -0.053989, 0.072503, -0.029055, -0.022720, 0.057506, 0.074846, 0.032931, 0.021727, -0.045660, 0.007523, 0.003101, -0.035290, 0.130250, 0.081740, -0.059545, 0.143321, -0.028901, 0.031216, 0.047585, -0.009748, 0.030059, -0.050338, -0.059592, 0.022525, 0.039275, -0.085777, 0.036275, 0.125193, -0.026629, 0.201801, -0.026475, 0.063176, 0.097928, 0.103193, 0.088610, -0.017488, -0.029027, 0.223204, 0.176035, 0.023106},
  {0.129320, 0.109977, -0.040800, -0.061304, 0.149259, -0.051542, -0.076013, 0.001949, 0.196928, 0.087829, 0.004162, -0.017836, 0.030686, 0.044193, -0.026211, -0.019359, 0.100454, -0.024853, 0.052885, 0.097204, -0.051889, 0.060626, 0.049972, -0.003470, -0.020219, -0.003239, 0.064703, 0.146885, -0.054663, 0.004549, -0.019016, 0.028768, 0.014001, 0.020765, 0.007515, 0.182736, 0.044382, -0.042418, 0.180548, -0.082870, -0.067153, -0.001704, 0.109288, -0.056200, 0.029642, 0.009513, 0.119528, 0.023412, -0.079193, -0.033930, -0.009131, 0.089251, -0.090491, 0.121690, -0.076321, -0.049115, -0.018733, 0.100076, -0.107649, 0.109568, 0.025633, -0.057863, -0.045544, 0.085426, -0.000193, 0.121216, 0.017378, 0.150565, 0.044095, 0.139735, 0.101795, -0.022757, -0.134232, 0.083702, 0.052928, 0.062623, -0.017708, 0.026129, -0.018062, -0.029109, 0.090581, 0.057033, 0.010972, -0.028409, -0.008851, -0.025932, 0.123304, 0.121717, 0.122248, -0.034700, 0.134308, 0.082890, -0.048877, 0.054315, 0.070083, -0.147572, 0.122191, 0.027253, -0.043932, 0.155550, 0.102241, 0.049487, -0.016792, 0.083461, 0.029115, 0.056079, 0.003505, -0.001200, -0.048473, 0.077134, 0.064224, 0.058275, 0.075283, 0.050651, 0.163399, 0.002064, 0.094652, 0.073397, 0.063215, 0.022869, 0.045765, -0.057944, 0.124020, 0.131790, 0.059523, -0.030923, 0.037417, 0.089962},
  {0.112522, 0.085497, -0.074243, 0.000215, 0.035685, -0.017354, -0.082495, -0.030257, 0.006195, 0.143868, 0.068239, -0.112884, -0.068828, -0.144162, 0.091429, -0.075092, 0.008398, 0.050787, 0.097784, 0.104981, -0.065113, 0.173388, -0.038829, -0.004804, 0.079160, 0.047134, 0.010535, 0.027582, 0.154313, 0.067279, -0.038082, 0.048859, 0.029821, 0.051496, 0.131256, 0.081987, 0.078571, 0.083352, 0.003831, -0.039843, 0.015677, 0.018107, 0.006234, 0.048483, 0.053907, 0.026940, -0.050836, 0.082981, -0.051581, 0.143987, 0.140068, 0.055487, 0.146183, 0.015023, -0.190342, -0.010408, 0.003288, 0.046882, 0.032964, -0.035893, 0.109020, 0.006155, 0.079687, -0.049929, -0.028862, 0.201359, 0.091966, -0.062681, -0.021105, 0.018329, 0.025180, -0.076449, 0.063011, 0.008284, 0.029498, 0.070635, -0.094921, 0.055442, -0.088691, -0.088422, 0.156411, 0.011535, 0.029236, 0.023687, -0.058520, 0.095961, 0.092350, -0.039732, 0.018062, -0.049005, 0.000756, 0.016724, -0.131953, -0.040790, 0.104997, -0.046966, 0.039698, 0.077613, 0.129809, 0.168604, 0.048592, -0.020668, 0.044802, -0.073139, 0.000110, -0.026706, -0.031006, -0.007865, -0.131623, -0.018809, 0.105569, 0.128033, -0.130323, -0.021953, -0.009626, -0.020266, -0.010145, -0.039672, -0.153647, 0.153763, 0.019163, 0.026761, 0.085187, 0.066538, -0.071135, -0.074224, 0.048381, -0.137593},
  {0.103103, 0.014112, -0.027161, 0.126734, 0.023082, -0.065178, -0.054937, -0.010924, 0.077341, 0.005623, -0.022498, 0.017243, 0.179512, -0.070287, -0.050393, 0.080165, 0.053403, 0.100440, 0.013480, 0.086229, 0.081430, 0.108986, -0.026801, 0.051329, 0.014629, 0.117980, -0.033544, 0.073867, 0.195717, 0.119799, -0.014341, 0.083907, -0.020134, -0.067714, 0.082479, 0.086080, 0.201315, 0.021004, -0.019388, 0.034194, 0.189104, 0.125860, -0.063354, 0.056420, -0.065092, -0.065281, 0.046165, 0.137198, 0.074076, 0.097856, 0.063904, 0.158684, 0.075091, 0.063836, 0.041320, 0.072274, 0.106681, 0.108726, -0.009839, 0.055151, -0.020968, 0.075827, 0.012607, 0.154880, -0.014238, 0.044189, 0.077257, -0.059695, 0.020716, 0.053472, 0.174189, -0.013452, -0.019535, 0.078558, 0.087412, 0.193952, 0.043014, 0.002856, -0.033379, 0.171450, 0.141699, 0.124901, -0.052122, -0.004236, 0.048838, 0.033592, 0.082916, -0.010724, 0.067464, 0.084649, 0.136253, 0.048662, 0.085609, 0.078415, 0.114232, 0.018591, 0.080250, -0.058985, -0.073036, -0.035586, 0.143970, 0.069419, 0.066522, -0.014015, -0.037973, -0.003601, -0.008587, 0.027266, 0.044199, 0.019082, 0.009365, -0.067698, -0.053464, -0.065893, 0.094026, 0.031732, 0.052495, 0.018011, 0.038826, 0.175126, 0.108666, -0.007313, 0.128846, 0.052972, 0.208681, 0.116442, 0.119755, 0.003304},
  {-0.058382, -0.058708, 0.131781, 0.060496, 0.087579, 0.046503, 0.017372, 0.134589, -0.047814, -0.052449, -0.067198, 0.200695, -0.020063, 0.087581, -0.044280, 0.011286, -0.038998, -0.034656, 0.088488, 0.004872, 0.167980, -0.219749, 0.001110, 0.033504, -0.054516, 0.171941, 0.110766, -0.191362, -0.061742, -0.068641, 0.097359, 0.140654, -0.014232, -0.021799, -0.062885, -0.057273, -0.095498, 0.014056, 0.093563, -0.063255, 0.096729, -0.019299, -0.044314, 0.048045, -0.129420, 0.084057, -0.034073, 0.023564, 0.108974, -0.032634, -0.107867, 0.005165, -0.114322, 0.154717, 0.141682, 0.080921, 0.056276, -0.054039, -0.046374, -0.029052, 0.097940, 0.015681, -0.050867, 0.129274, 0.131270, -0.200986, -0.095053, 0.096052, 0.016101, 0.016181, -0.040003, -0.055309, 0.152226, 0.103929, 0.024528, -0.031947, 0.145145, -0.021189, 0.123175, 0.205118, -0.029577, 0.092175, 0.000137, 0.094902, 0.116150, -0.071654, 0.070326, 0.017943, 0.058582, -0.046237, 0.125002, 0.171446, 0.077483, 0.030206, -0.151604, 0.136656, -0.104816, 0.126606, 0.054682, -0.151532, -0.014763, 0.034248, 0.029027, -0.018654, 0.132968, -0.010890, -0.014539, 0.148450, 0.182999, 0.079056, 0.096327, -0.056064, 0.093664, 0.105614, 0.017413, 0.000797, 0.151984, 0.015875, 0.149985, -0.014421, 0.103932, -0.078478, -0.060533, -0.185676, -0.028420, 0.045997, 0.054959, 0.116687},
  {0.028901, 0.092455, -0.019562, 0.097760, 0.073987, -0.033157, 0.074335, -0.027207, 0.061575, 0.134663, 0.091326, -0.023761, -0.003015, -0.006888, -0.072640, 0.076207, 0.102498, 0.065414, 0.123310, 0.111140, 0.034132, 0.146568, 0.045412, -0.071870, -0.127688, 0.078156, -0.020409, 0.112151, 0.167282, 0.071553, 0.039340, 0.082434, -0.013366, -0.019417, 0.143442, 0.075197, 0.098029, -0.045330, -0.008768, 0.067175, 0.098848, 0.122684, -0.033282, 0.003695, -0.102186, 0.026264, 0.038718, 0.085772, 0.060661, 0.045121, 0.029885, 0.000280, -0.004673, -0.123741, 0.033079, 0.118594, -0.055293, -0.051867, 0.088515, -0.020973, 0.009779, -0.028834, 0.034415, 0.116540, -0.057482, 0.092658, 0.166651, -0.077822, -0.092787, 0.038452, 0.172449, -0.065083, 0.065184, -0.088449, 0.094709, 0.103083, -0.028540, 0.019653, 0.156796, 0.113201, 0.097374, -0.090850, -0.127804, -0.008022, -0.052110, 0.188379, 0.144109, 0.024102, 0.045489, -0.055999, -0.016991, -0.075546, 0.001716, 0.140900, 0.092148, 0.068102, 0.015874, -0.082481, -0.011958, 0.054974, 0.022116, 0.090613, 0.078840, -0.103302, -0.013719, 0.003839, 0.038398, 0.001043, 0.050646, 0.101139, -0.008339, 0.101288, -0.039070, -0.028403, 0.066506, 0.106574, 0.048025, -0.046269, -0.040937, 0.201679, -0.104123, 0.047151, 0.097022, 0.124921, -0.044303, 0.103652, 0.037859, -0.047134},
  {0.022211, 0.018842, -0.062446, -0.025717, 0.056929, 0.052675, 0.119824, 0.065124, 0.075701, 0.016049, 0.065607, 0.113860, -0.028527, -0.043049, -0.016534, -0.002879, 0.165362, -0.024206, -0.007782, -0.059634, -0.055174, 0.096185, 0.096215, 0.138341, 0.137887, -0.063588, -0.112455, -0.039019, -0.060220, -0.060476, 0.005643, 0.120606, 0.102129, 0.046584, 0.100426, 0.038630, 0.029374, 0.137512, 0.015099, 0.006081, -0.026196, -0.053508, 0.153039, 0.007832, 0.101756, 0.103157, -0.086638, -0.062275, -0.013963, 0.068131, 0.039697, -0.036231, 0.021692, 0.170755, -0.017315, 0.156322, -0.032668, 0.097687, 0.004261, 0.087648, 0.076257, 0.050324, 0.062871, 0.119283, 0.072329, -0.044980, 0.054623, 0.017893, 0.088044, 0.149672, -0.073278, 0.156299, -0.111640, -0.071068, -0.055559, 0.122499, -0.085491, -0.046696, 0.159201, -0.013891, 0.005123, 0.074360, -0.024304, 0.054020, -0.055092, 0.070180, -0.028133, 0.023546, 0.114083, 0.104931, -0.091120, 0.096297, 0.092541, 0.054198, 0.167788, 0.033610, -0.019956, 0.089113, 0.108458, 0.015528, -0.007419, 0.190201, -0.017646, 0.170389, 0.095637, 0.211338, 0.167475, 0.005495, 0.056967, -0.035919, 0.095346, 0.135278, 0.096994, 0.086099, -0.018253, -0.024358, -0.035945, 0.123153, -0.027691, 0.105683, 0.015173, -0.033948, -0.083625, -0.072626, 0.044716, 0.082918, -0.083429, 0.048814},
  {-0.215342, -0.024946, -0.007997, 0.062721, -0.070100, 0.090017, 0.147685, 0.139790, -0.043727, 0.023266, 0.076323, -0.025323, 0.042147, 0.116563, 0.053520, 0.157288, 0.034612, 0.045972, -0.102043, 0.116144, 0.040545, -0.048507, -0.031991, 0.079664, 0.060779, 0.000925, 0.060972, 0.028215, 0.072445, -0.010568, 0.101675, 0.112485, 0.065734, 0.059943, 0.005786, -0.171510, -0.107254, 0.028651, -0.093788, 0.175321, 0.074199, 0.154446, 0.139227, 0.014104, 0.019234, 0.058709, 0.031944, 0.066298, 0.085568, -0.062727, 0.026065, -0.197567, 0.066107, -0.091823, 0.031253, 0.189355, -0.086980, 0.032323, 0.029967, 0.010257, 0.028986, -0.034616, 0.193974, 0.075012, -0.044444, 0.022884, -0.038607, -0.032424, 0.017647, -0.148366, -0.022361, 0.190012, -0.017661, -0.077287, -0.054958, 0.046825, 0.054609, 0.069572, 0.119493, -0.008295, -0.026462, -0.080704, 0.098798, -0.020375, 0.013679, 0.011610, 0.004371, -0.033261, -0.105216, 0.055784, -0.022145, -0.015787, 0.095601, -0.097323, -0.031457, 0.130368, -0.092170, 0.000517, 0.192003, -0.114215, 0.034970, 0.051770, 0.029260, 0.093415, 0.083860, -0.067509, 0.027635, -0.044249, 0.062715, -0.105096, -0.067290, 0.009222, -0.020978, 0.133622, -0.056816, 0.126191, 0.028533, 0.045769, -0.000818, -0.070416, 0.029668, -0.021199, -0.102045, -0.060947, 0.097109, 0.153037, 0.014458, 0.102487},
  {0.114073, 0.091987, -0.033712, 0.185774, 0.064548, 0.119682, 0.049768, 0.096057, 0.056719, 0.086128, -0.006657, 0.070968, -0.000832, 0.019254, -0.053139, -0.033214, 0.003470, 0.108568, -0.000758, 0.026334, -0.069982, 0.071493, -0.010742, 0.159318, 0.147141, 0.006477, -0.030030, -0.059109, 0.162222, 0.035744, -0.012333, 0.060329, -0.049684, 0.010328, 0.059261, -0.000722, 0.064421, 0.026304, -0.023993, -0.012225, 0.187320, 0.024931, -0.009207, -0.056332, 0.110894, 0.017550, -0.053274, 0.164427, -0.112763, 0.114886, 0.094028, -0.014878, 0.007691, 0.012565, -0.035245, 0.104040, 0.002507, 0.063130, 0.098136, 0.043434, -0.106231, -0.041137, 0.117115, -0.033189, -0.110240, -0.089893, -0.104759, -0.099461, -0.123641, 0.092348, 0.007810, 0.043012, 0.090821, 0.009903, 0.020574, 0.033088, 0.072801, 0.016365, 0.175684, 0.012344, -0.000399, 0.092205, 0.018782, 0.024278, 0.037778, 0.077379, -0.015410, 0.132028, 0.169417, 0.213709, -0.044844, 0.020771, 0.096994, -0.121568, -0.052608, 0.127959, 0.109899, 0.006923, 0.128776, -0.070349, 0.046614, -0.047138, -0.124597, 0.077506, -0.048292, -0.058980, 0.040691, -0.070795, 0.045858, -0.005611, 0.027334, 0.050475, -0.093480, -0.067306, 0.015915, 0.079095, -0.167696, 0.038320, 0.002466, 0.159235, 0.101985, -0.049947, -0.043367, 0.065399, 0.079434, -0.000686, -0.037292, -0.020546},
  {-0.070380, -0.068758, 0.079030, 0.095348, 0.004768, -0.049595, 0.096999, 0.102278, 0.013258, 0.085794, 0.046746, 0.024838, 0.094103, 0.082510, -0.013105, 0.095711, -0.039371, 0.027595, -0.024573, 0.056772, -0.029192, -0.004821, -0.024672, -0.103061, -0.002878, 0.092740, 0.204140, 0.072448, 0.039141, 0.029040, 0.017716, 0.092006, -0.010811, -0.003643, -0.103202, -0.039688, -0.014129, 0.071473, -0.070418, 0.188157, 0.072220, 0.112458, -0.035556, 0.034359, 0.107970, -0.000518, 0.070713, 0.037918, 0.121005, -0.007117, -0.073152, 0.006732, -0.014088, -0.046367, 0.167733, -0.071355, 0.044897, -0.014109, -0.123505, 0.026902, 0.073171, 0.037145, -0.067236, 0.018899, 0.006049, 0.061911, 0.047134, 0.029742, 0.061491, -0.087765, 0.054730, 0.038290, 0.139943, 0.045472, 0.049500, -0.105536, 0.060272, 0.057490, 0.041305, 0.047249, -0.000400, -0.027432, 0.107670, 0.081896, 0.152836, -0.099031, -0.016117, -0.115239, -0.095402, -0.002356, 0.005747, 0.121715, 0.025512, -0.110945, 0.026082, 0.140916, -0.064740, 0.071336, 0.096990, -0.045509, 0.084390, -0.096157, 0.048287, -0.066925, 0.026098, -0.027521, 0.013289, -0.017497, 0.028121, 0.021849, 0.042658, -0.147848, 0.099128, 0.076009, -0.026910, 0.096340, 0.091033, -0.010385, -0.021677, 0.070992, 0.053170, -0.020962, 0.106079, -0.027035, 0.110983, -0.079381, -0.010987, 0.107923},
  {-0.022278, -0.055943, 0.171799, -0.164747, -0.077711, -0.087859, 0.024493, 0.017019, 0.048067, -0.028634, -0.051954, 0.075255, 0.061379, 0.140234, 0.108328, -0.107199, 0.008577, 0.009620, -0.023779, -0.107785, 0.147132, 0.082955, -0.024320, 0.054216, -0.030539, 0.114025, -0.003454, 0.072425, -0.167383, -0.078331, 0.050101, -0.119206, 0.175020, 0.157882, -0.043262, -0.007409, -0.071751, 0.003466, 0.026065, 0.045980, -0.161876, -0.082567, 0.014203, -0.054249, -0.090039, -0.024562, -0.022769, -0.116403, 0.101866, 0.044634, 0.074393, -0.004842, -0.080182, 0.089353, 0.102023, -0.103220, -0.081923, -0.068635, 0.079072, 0.023820, 0.178026, 0.115120, -0.095807, 0.002906, -0.082117, -0.140473, 0.069631, 0.085496, -0.073776, -0.009491, 0.021174, 0.013083, 0.056187, 0.129796, 0.028188, 0.113984, 0.046404, 0.029520, -0.101964, 0.025301, 0.006829, 0.086114, 0.120672, 0.067539, 0.013204, -0.053048, -0.038467, -0.090854, 0.131503, -0.100809, -0.013773, 0.051894, 0.025880, 0.049078, -0.005869, 0.047276, 0.011618, 0.151762, -0.166727, 0.093146, 0.006692, 0.035051, 0.165972, -0.029776, 0.178396, 0.085528, -0.069948, 0.093065, 0.110538, 0.208141, -0.023598, 0.029286, -0.049913, 0.037502, 0.088949, -0.060584, 0.070525, 0.039674, 0.002941, -0.074891, -0.027557, 0.049181, -0.074436, -0.031939, -0.031868, 0.105073, -0.107569, 0.120021},
  {0.026045, 0.118492, -0.016410, -0.054858, 0.034318, -0.050663, 0.010852, 0.025869, -0.016625, -0.071773, 0.117779, 0.054264, -0.123738, -0.023790, 0.061691, 0.045086, 0.125352, 0.005061, -0.050390, -0.030274, 0.135856, -0.007190, 0.028814, 0.042377, 0.147284, 0.075829, -0.087619, 0.090179, 0.014982, -0.015883, 0.038259, 0.023339, 0.132026, 0.072424, 0.070035, -0.039656, -0.005441, 0.006351, -0.119644, -0.063166, -0.039338, -0.016073, 0.193235, 0.042389, -0.033909, 0.266933, -0.144744, -0.054764, 0.094737, 0.075648, 0.117596, -0.166755, 0.032512, -0.042677, -0.044413, -0.042647, 0.010400, 0.021816, 0.120437, -0.129362, 0.181312, 0.198917, -0.059252, -0.152136, 0.066078, -0.018175, 0.019498, -0.085699, 0.069397, 0.046943, -0.031962, 0.033458, 0.059632, -0.031090, 0.059991, 0.040816, -0.043872, 0.165485, -0.060083, -0.015599, 0.027646, -0.123694, 0.128788, 0.208706, 0.060687, 0.110072, -0.013578, -0.039898, 0.018916, -0.064347, -0.043068, 0.008376, -0.053918, 0.018554, 0.093786, 0.174289, 0.055202, 0.058332, 0.030298, 0.099036, -0.017842, 0.049315, 0.074501, -0.018455, -0.005323, 0.115814, -0.048862, 0.152412, -0.002649, 0.029352, 0.034106, 0.134570, -0.057929, 0.074663, -0.140381, -0.074313, 0.044872, -0.032684, -0.020625, -0.055285, -0.065559, 0.133559, -0.073539, 0.049863, -0.070966, 0.008938, -0.039330, -0.051866},
  {-0.073304, -0.114116, 0.207870, -0.041427, 0.092913, -0.032325, 0.142262, 0.057387, 0.045521, -0.092535, -0.001036, 0.107195, 0.031176, 0.125520, -0.006575, -0.081102, -0.240545, 0.097777, -0.043011, -0.093082, 0.153127, -0.164569, 0.062798, -0.113438, 0.049979, 0.051607, 0.171007, -0.203150, -0.107211, 0.043807, 0.091633, -0.032191, 0.114569, 0.012788, -0.070915, -0.025723, 0.053569, -0.089164, 0.088748, 0.039871, -0.044401, -0.083859, -0.045041, -0.107737, -0.145669, 0.014300, -0.070812, 0.075503, 0.064531, -0.087595, -0.125562, 0.101024, -0.169854, 0.174091, 0.021477, -0.081518, 0.102845, -0.016447, 0.005960, -0.027548, 0.134733, 0.056613, -0.057345, 0.011793, 0.062450, -0.151859, -0.085835, -0.003271, -0.068714, 0.058103, -0.132320, -0.017142, 0.141992, 0.072319, 0.146443, 0.005181, 0.203641, 0.051820, -0.017088, 0.135313, 0.061162, -0.012658, 0.084351, 0.111430, 0.138542, -0.144664, 0.084987, 0.135738, 0.084658, -0.004220, 0.071238, 0.116690, 0.114183, -0.105596, -0.239527, 0.114533, -0.092117, 0.052293, -0.032545, -0.088857, -0.172559, -0.073851, 0.077917, -0.015780, 0.030157, -0.142603, -0.093348, 0.121298, 0.122374, 0.147369, -0.025487, -0.108032, 0.096355, 0.002005, -0.108692, -0.111162, 0.123563, 0.043550, 0.159670, 0.065247, 0.149015, -0.071031, 0.026289, -0.140697, -0.028261, -0.058199, 0.008621, 0.167709},
  {-0.049117, 0.102132, 0.065424, -0.039188, 0.038231, -0.047482, -0.046617, 0.037488, 0.091620, 0.019234, -0.071775, 0.045563, -0.110982, 0.030609, 0.107144, 0.142552, 0.105892, -0.140521, 0.064458, 0.094912, -0.048378, -0.072557, 0.112561, 0.016648, -0.005151, -0.038208, -0.078249, 0.120165, -0.151326, -0.038117, 0.039714, 0.044486, 0.089280, 0.009450, 0.039810, -0.097188, -0.095517, 0.085122, -0.023253, 0.078460, -0.025610, 0.100429, 0.131165, 0.098493, 0.086490, 0.105730, -0.091842, -0.054974, -0.028849, -0.017815, -0.013642, -0.083557, 0.080174, -0.019836, 0.028460, 0.147008, -0.050045, -0.084076, 0.062548, -0.016614, -0.001786, 0.001232, -0.005323, -0.030426, 0.123051, 0.101277, -0.020914, 0.104446, 0.079131, 0.116814, 0.123356, 0.135414, -0.075949, 0.113226, -0.057836, 0.125445, -0.122708, -0.068632, 0.091551, 0.000988, 0.007460, 0.100387, 0.112061, 0.113729, 0.018440, -0.054125, 0.007947, 0.018408, -0.038708, -0.082803, 0.012424, -0.024612, 0.031531, 0.195933, 0.053642, 0.003754, 0.051925, 0.029907, -0.013003, -0.038767, 0.079748, 0.075235, -0.069852, -0.017931, 0.042433, 0.123026, 0.060413, -0.010878, -0.036613, -0.085620, 0.165713, 0.104662, 0.116796, 0.135737, 0.053503, -0.015941, 0.032723, -0.095634, -0.071930, 0.015701, -0.043534, 0.112626, -0.121391, 0.009036, -0.021654, 0.034003, 0.036745, 0.035939},
  {0.103106, 0.061538, -0.036722, -0.001663, 0.154730, -0.001523, 0.046516, -0.060752, -0.002437, -0.034610, 0.097432, -0.059552, -0.064650, -0.033383, -0.046893, 0.046808, 0.005547, 0.144753, -0.062472, 0.001281, 0.111430, 0.080026, 0.008899, -0.000239, 0.018819, 0.108218, -0.025679, -0.017973, -0.088035, 0.158824, -0.000522, -0.109262, 0.064620, 0.103559, 0.064584, 0.040093, -0.020841, 0.023547, -0.062904, -0.022589, 0.054774, 0.004338, 0.024818, -0.105771, -0.040875, 0.053371, 0.040181, 0.138432, 0.013903, 0.016748, 0.033376, 0.034787, 0.044522, -0.064399, -0.046638, 0.009698, 0.021819, -0.076710, 0.023191, -0.100589, 0.095152, 0.067592, 0.138318, -0.057517, 0.056439, 0.108480, -0.020308, -0.155500, -0.069001, 0.159890, 0.063977, -0.001159, 0.030114, 0.043513, -0.005673, -0.014334, -0.001084, 0.040663, 0.012587, -0.040960, 0.105785, -0.018446, -0.134780, -0.022447, -0.054335, 0.081114, 0.094149, 0.153737, 0.064379, -0.054705, 0.023563, -0.144821, -0.090179, 0.089009, -0.074217, 0.004405, 0.130468, -0.018445, 0.108797, 0.112436, -0.045795, 0.112021, 0.089412, 0.027580, 0.020497, 0.112224, -0.067339, -0.005133, -0.029208, -0.049070, 0.052859, 0.056715, -0.013352, -0.014830, -0.026427, -0.073992, 0.100874, 0.044628, 0.049362, 0.029535, -0.042518, -0.033246, -0.016758, 0.060593, -0.052229, 0.012963, -0.054183, 0.042493},
  {-0.023037, -0.110409, 0.168307, -0.083880, -0.094214, 0.075136, 0.115180, 0.183750, -0.051132, -0.140673, -0.075078, 0.028876, 0.040006, 0.084012, 0.146504, 0.062994, -0.008082, -0.041165, -0.160178, 0.049279, 0.202870, -0.007614, 0.076864, 0.111960, 0.110915, 0.118569, -0.025621, -0.125268, -0.119201, -0.038237, 0.186595, 0.002704, 0.015604, 0.110707, 0.017502, -0.132727, -0.055545, 0.007772, 0.028820, -0.005026, 0.002951, -0.030654, 0.057063, 0.125003, -0.105304, 0.068343, 0.003264, -0.063329, 0.120959, -0.136861, 0.061518, -0.056727, -0.113299, 0.082581, 0.167961, 0.037198, -0.018069, -0.077673, 0.016113, 0.147322, 0.046908, -0.018275, 0.063814, 0.040833, -0.094773, -0.125769, -0.119276, 0.022834, -0.142163, -0.078676, 0.048700, 0.043031, -0.011036, -0.056155, 0.149590, -0.004017, 0.133010, 0.155925, 0.085472, 0.060566, -0.058755, 0.023862, 0.082909, 0.041689, 0.129801, 0.072403, -0.035267, -0.106227, 0.128342, -0.122328, -0.011953, 0.097468, 0.141052, -0.096336, -0.070797, 0.045264, -0.120237, 0.032665, -0.025729, -0.104573, 0.046390, -0.069805, 0.116178, 0.005258, 0.032784, -0.002334, -0.067944, 0.108874, 0.205975, 0.080131, -0.106565, -0.031733, 0.075715, 0.033635, 0.047126, -0.011688, 0.013815, -0.103300, 0.105476, -0.171957, 0.025401, -0.064651, -0.102513, -0.123834, 0.008661, 0.154036, -0.104631, 0.137960},
  {-0.046304, 0.066937, 0.011993, 0.144713, -0.026663, 0.085621, 0.138284, 0.072644, 0.054757, 0.026458, -0.061871, 0.006387, 0.020905, 0.093231, 0.098219, 0.038171, 0.094306, -0.034113, -0.091309, 0.037579, -0.014523, 0.058337, 0.005158, 0.002440, 0.058689, -0.015099, 0.010436, 0.040115, 0.046027, 0.069989, -0.020077, 0.129575, 0.097415, 0.055279, 0.006556, 0.040993, -0.055803, 0.137787, -0.030185, 0.126937, 0.079926, 0.077551, 0.138405, 0.122671, 0.049998, 0.019085, 0.055393, 0.089587, 0.102267, -0.060608, 0.047698, -0.090664, 0.113416, 0.022505, 0.001988, 0.159347, 0.013640, -0.003954, 0.060438, 0.116283, -0.052054, 0.071518, 0.129547, 0.130385, 0.004030, 0.024642, -0.021197, -0.013142, 0.033220, -0.079538, -0.054675, 0.166391, 0.022395, -0.064988, -0.010134, -0.028753, -0.059764, 0.004272, 0.069010, 0.144613, 0.023249, 0.032373, -0.073597, -0.001348, -0.017472, 0.009905, -0.027889, -0.049390, -0.081749, -0.062253, -0.056840, -0.036215, 0.044467, -0.034810, 0.005357, 0.041308, -0.110364, -0.036311, 0.140461, -0.170784, 0.099078, -0.041467, -0.040498, 0.042053, -0.019549, -0.004051, 0.153973, -0.061660, 0.100796, 0.005133, -0.036414, -0.009197, -0.031261, -0.001474, 0.016567, 0.086185, -0.073720, 0.059300, 0.100483, -0.039337, 0.058394, 0.051538, -0.072858, 0.000063, -0.023160, 0.161105, -0.069807, 0.061833},
  {0.074457, 0.132379, 0.112729, -0.021584, 0.019747, -0.117648, -0.150295, -0.143818, 0.101577, 0.161382, 0.146861, -0.024117, -0.047745, -0.002667, 0.008723, -0.041523, -0.015778, 0.043765, 0.004919, 0.015052, 0.054908, 0.029214, -0.070076, -0.117814, -0.108432, 0.019113, 0.134209, 0.139536, 0.050887, -0.007577, -0.127380, 0.040996, -0.067196, 0.002442, 0.134000, 0.083729, 0.148527, -0.180858, -0.079679, 0.002507, 0.011446, 0.034906, -0.086327, -0.106240, -0.021380, -0.039561, 0.102453, 0.019094, 0.066636, 0.017783, -0.010306, 0.084278, -0.005475, 0.021878, -0.017482, 0.001989, 0.091259, 0.035892, 0.098260, 0.057871, -0.001102, 0.134861, -0.168393, -0.068701, 0.006206, 0.132836, 0.042413, 0.066235, -0.055709, 0.027891, 0.080950, -0.146123, 0.025001, 0.062540, 0.102657, 0.136569, -0.089386, 0.091743, -0.033793, -0.005927, 0.095093, -0.029616, 0.067117, 0.130692, 0.030988, 0.023242, -0.052010, -0.115711, -0.106190, 0.032981, -0.050839, -0.108142, -0.188270, -0.040329, 0.019834, 0.006636, 0.061708, 0.078931, -0.112398, 0.122023, 0.109311, -0.043204, 0.054978, -0.085908, 0.050497, -0.052906, 0.023923, 0.002608, -0.130504, 0.110459, -0.113797, -0.049965, -0.028589, -0.059789, -0.025661, -0.005175, 0.055191, -0.058567, -0.089718, 0.046730, -0.004676, -0.006207, 0.128896, 0.058154, -0.009943, -0.045756, 0.148173, -0.038539},
  {0.023868, 0.103725, 0.124242, -0.051163, -0.047455, 0.006105, 0.057067, -0.013392, -0.083141, 0.044114, 0.048337, 0.097430, -0.069827, 0.017601, 0.116872, -0.073391, -0.040384, 0.027111, 0.186060, -0.028558, 0.064047, 0.024066, 0.026161, -0.049469, 0.012779, 0.042095, -0.041683, -0.062650, 0.022633, -0.092142, 0.070005, 0.016702, 0.134149, 0.108916, 0.034098, -0.055676, 0.194181, 0.043728, -0.139677, -0.079283, -0.017641, 0.068774, 0.022930, 0.045562, -0.088706, 0.047091, 0.019129, 0.030941, 0.165412, 0.011122, 0.065397, 0.087089, 0.127067, -0.075668, -0.038900, 0.056992, 0.067169, -0.103332, 0.080094, 0.046605, 0.126270, 0.107849, -0.043459, -0.046297, 0.025671, 0.051604, 0.041703, -0.056388, 0.103797, -0.010706, 0.013080, -0.006888, 0.143151, -0.110479, 0.077217, 0.034347, 0.092104, 0.145484, 0.064032, -0.020183, -0.124761, -0.010001, 0.106144, 0.129141, 0.066516, -0.042566, -0.136797, -0.042836, 0.031235, -0.081301, -0.059623, 0.084594, 0.107163, 0.194647, 0.075005, 0.047235, -0.030174, 0.074500, -0.122131, -0.021758, -0.003469, 0.127674, -0.015333, 0.022244, 0.131421, -0.045060, 0.017369, 0.152999, -0.043763, 0.039810, 0.098882, 0.097463, -0.075361, -0.024305, -0.053380, 0.043931, 0.072216, 0.085198, -0.006986, -0.090022, -0.074126, 0.099188, -0.090384, -0.054212, -0.093498, 0.117256, -0.064199, -0.002524},
  {0.051010, -0.003864, -0.008357, 0.021645, 0.023953, 0.133653, 0.020450, 0.006056, 0.011062, 0.086745, 0.018486, 0.033924, -0.076407, -0.024357, 0.069768, 0.054661, 0.146619, 0.016285, -0.011103, 0.030916, -0.086978, 0.025895, 0.064693, 0.034625, 0.146488, -0.138127, -0.084719, 0.050130, 0.000798, 0.037918, -0.041676, -0.016876, 0.037366, 0.121084, 0.034477, -0.091312, 0.024075, 0.207002, 0.005445, 0.064643, 0.050326, -0.070972, 0.169133, 0.086661, 0.141718, 0.128370, 0.041807, 0.080312, -0.060434, 0.023396, 0.031707, -0.095398, -0.020244, 0.121706, -0.044092, 0.069630, 0.050416, 0.114504, -0.005677, 0.027592, 0.049587, -0.069346, 0.066993, -0.006416, 0.143246, 0.070144, 0.089281, 0.000621, 0.163793, 0.064504, -0.076379, 0.129174, -0.021290, 0.066129, -0.127976, 0.081765, 0.061502, -0.053086, 0.165954, -0.074723, 0.097025, 0.083876, 0.139918, 0.084117, 0.038318, -0.014790, 0.000533, 0.095582, 0.105601, 0.076740, 0.018846, -0.040640, -0.102720, 0.049321, 0.058886, -0.021984, 0.000503, 0.111422, 0.133427, 0.109784, 0.104260, 0.023249, -0.005822, 0.071056, -0.033279, 0.042675, -0.001050, -0.014585, -0.078462, -0.003885, 0.168016, 0.014215, -0.006165, 0.093173, -0.007683, 0.005470, -0.036277, 0.165533, -0.037531, 0.069068, 0.052658, 0.067687, -0.028871, -0.008579, -0.046371, -0.039732, 0.131377, -0.056986},
  {-0.086580, -0.077903, 0.001189, -0.023650, -0.176282, -0.042636, 0.067480, 0.053073, 0.035126, -0.143016, 0.046830, 0.077403, 0.050502, 0.190441, 0.021522, 0.157379, -0.059501, 0.035790, -0.151637, 0.211810, 0.099529, -0.045341, 0.183702, -0.022289, 0.082182, 0.123007, 0.018633, -0.019600, 0.006634, -0.036433, 0.196693, 0.043503, 0.078153, -0.028533, -0.052794, -0.070832, -0.129876, -0.041787, 0.058610, 0.026759, -0.121848, -0.010746, -0.005658, 0.018415, -0.033127, -0.015421, 0.019826, -0.075867, 0.126546, -0.141666, -0.166730, -0.083623, -0.132623, 0.174009, 0.221224, -0.061084, -0.088093, -0.102693, 0.058117, 0.138794, 0.063768, -0.061925, -0.033259, 0.119550, -0.007916, 0.033233, 0.083913, 0.128160, -0.000743, -0.054122, -0.088574, 0.105061, 0.055195, 0.092783, 0.001077, -0.069494, -0.002422, 0.111996, -0.023327, 0.110637, 0.007090, 0.041118, 0.121597, 0.041084, -0.012977, -0.077359, 0.034971, -0.162120, 0.084823, -0.069962, -0.025515, 0.046779, 0.016831, -0.077262, -0.123173, 0.053996, -0.104565, 0.071501, 0.054119, 0.068487, -0.043553, -0.049057, 0.146279, 0.023077, -0.031421, -0.082923, -0.063277, 0.000347, 0.190910, 0.062364, -0.072750, -0.097651, 0.165328, 0.162287, 0.101589, 0.117391, -0.007053, -0.067736, 0.024633, -0.140388, 0.102119, 0.010151, 0.056110, -0.086794, -0.036277, 0.038272, -0.006260, 0.102649},
  {0.048810, 0.023808, 0.058383, 0.189610, 0.086624, 0.039638, 0.043636, 0.072192, 0.108448, 0.045482, 0.046403, 0.079091, 0.036147, 0.063235, -0.054054, 0.016569, -0.020067, 0.082379, 0.083409, 0.186623, -0.051559, 0.059407, 0.057154, 0.101119, -0.010587, -0.098455, 0.066041, 0.065748, 0.153472, -0.023647, -0.066621, 0.055390, -0.096178, -0.052476, 0.052294, -0.002298, -0.024870, 0.046920, 0.016675, 0.107460, 0.167668, 0.003086, -0.026015, -0.067482, 0.077893, 0.017747, 0.065117, 0.209501, -0.047143, 0.008579, 0.073632, 0.109731, 0.102889, 0.056639, 0.076448, 0.053370, 0.042369, 0.159239, -0.003671, -0.072016, -0.117836, 0.084910, 0.084183, -0.022484, 0.039276, 0.044817, -0.032902, -0.035013, 0.083616, 0.034772, 0.023282, -0.001590, 0.110982, -0.060338, -0.019241, -0.052282, 0.189947, -0.046429, 0.085276, 0.097711, 0.066144, 0.127385, -0.077218, -0.012379, -0.032968, 0.037536, 0.189887, 0.057299, -0.025678, 0.164521, -0.041649, 0.114773, 0.037756, -0.091550, -0.006472, 0.081780, 0.002525, -0.133453, 0.190399, 0.107232, 0.020325, 0.019877, -0.000657, -0.022846, -0.144962, 0.026005, -0.028327, -0.130432, -0.082157, 0.023553, 0.086188, 0.059179, -0.076123, 0.039401, 0.074452, 0.035196, 0.038397, 0.098714, -0.057051, 0.165134, 0.175469, 0.054809, 0.162463, 0.054073, 0.107020, -0.064699, 0.186536, -0.041731},
  {-0.010372, -0.033387, 0.043078, 0.049483, 0.013472, -0.030286, 0.107580, 0.102799, -0.175045, -0.115263, 0.062868, -0.013364, -0.128208, -0.058040, 0.139968, -0.119420, -0.008214, -0.011440, 0.107509, -0.157843, 0.072727, 0.100504, -0.122294, 0.053470, 0.026796, 0.029625, 0.025034, 0.027231, 0.046505, -0.107044, -0.031247, -0.060756, 0.122004, 0.059384, -0.172717, -0.038774, 0.059884, 0.159227, -0.094792, 0.116172, -0.044210, -0.154720, 0.102617, 0.061721, -0.001013, 0.135527, -0.010161, -0.035318, -0.010475, -0.129501, -0.013843, 0.055665, -0.043149, -0.050632, -0.014255, 0.000898, -0.046837, 0.078971, 0.010964, -0.136507, 0.141887, 0.056744, 0.011189, -0.001221, -0.066217, 0.152135, -0.119740, -0.089851, 0.084184, 0.080546, -0.144629, 0.071615, 0.148445, -0.138580, 0.098211, -0.132651, 0.046740, 0.130968, -0.151501, 0.048462, -0.147670, 0.001468, 0.129141, 0.190279, -0.002173, -0.103329, -0.109867, -0.111623, -0.168281, -0.057600, -0.089737, 0.024551, 0.007410, -0.090851, -0.005788, 0.034291, -0.092011, 0.129001, 0.025636, -0.053515, -0.002983, 0.079697, 0.052327, 0.034371, 0.111062, 0.015319, 0.077446, 0.122330, 0.081478, 0.066130, 0.126738, -0.011622, -0.110047, -0.018302, -0.036228, -0.144341, 0.121829, 0.014894, 0.001727, -0.069809, -0.022493, 0.123003, -0.027777, -0.013419, -0.031021, -0.060374, -0.135496, 0.013162},
  {0.080845, -0.049721, -0.025022, -0.143380, -0.098592, -0.017427, 0.010208, 0.015273, 0.020592, 0.040584, 0.059377, -0.013459, 0.058314, -0.025717, -0.034268, 0.017097, 0.103066, 0.023576, -0.017229, 0.049606, -0.045593, -0.038588, 0.029449, 0.063127, 0.072089, 0.014863, -0.020095, 0.018023, -0.144086, -0.052106, 0.014903, -0.037771, 0.017725, -0.003442, 0.103067, 0.176531, 0.086007, -0.050006, 0.125471, -0.042312, -0.130017, 0.013367, -0.088045, 0.037354, -0.017162, -0.003237, 0.159286, -0.038001, 0.084454, 0.036385, 0.109235, 0.058335, -0.000551, 0.136018, 0.043096, 0.004226, -0.093666, -0.065630, 0.171442, 0.176566, 0.072208, -0.030777, -0.066121, -0.007098, -0.023089, -0.101141, 0.016373, 0.082533, -0.056027, 0.051211, -0.028767, 0.062616, -0.035772, 0.035041, 0.184767, 0.057359, 0.015154, 0.139331, 0.031192, 0.102929, 0.087074, 0.153215, -0.002923, 0.029397, 0.112417, 0.067953, 0.070890, 0.052013, 0.065567, -0.014808, 0.009177, 0.060521, 0.096409, -0.047216, -0.025978, -0.006675, -0.012518, 0.079833, -0.119988, 0.086950, 0.091537, 0.059544, 0.007447, -0.000920, 0.121390, 0.033366, 0.093800, 0.060645, -0.017020, 0.153288, -0.106708, 0.081828, 0.098868, -0.053348, 0.133567, 0.119291, 0.057025, -0.015081, 0.039924, -0.077069, 0.138694, 0.025115, -0.018233, 0.099977, 0.080036, 0.081805, -0.090146, 0.025851},
  {0.172831, -0.070529, -0.017421, -0.001900, -0.038486, -0.062824, 0.020716, 0.030219, -0.034367, 0.042101, 0.109717, -0.119956, -0.104814, 0.021872, 0.097449, -0.096210, 0.060293, 0.000918, -0.018386, -0.111608, 0.083029, 0.100553, 0.069111, 0.070123, -0.002703, 0.051461, 0.000944, 0.036355, -0.047629, -0.107194, -0.002315, -0.002128, 0.027197, 0.169590, -0.019026, 0.162260, 0.039794, -0.135638, 0.147374, 0.075265, -0.186996, -0.113517, -0.005905, 0.024181, -0.064715, 0.014915, -0.059591, -0.052501, 0.027346, 0.024694, 0.034544, -0.044470, 0.015617, 0.098186, 0.023117, -0.024141, -0.023493, 0.074146, 0.062926, -0.159523, 0.046433, 0.033221, -0.005818, -0.026279, -0.191602, 0.012500, -0.080516, 0.048317, -0.109738, -0.082519, 0.054260, -0.001904, -0.042265, -0.009680, 0.051768, -0.118182, 0.092176, 0.015121, -0.071928, -0.022074, 0.105330, -0.052085, -0.034130, 0.109992, -0.012401, -0.102675, -0.024449, 0.070710, 0.041658, 0.045424, 0.058643, -0.053161, 0.118687, -0.034003, 0.021361, -0.108397, 0.047026, 0.135206, -0.115487, 0.010736, -0.111293, -0.011048, 0.049974, 0.036342, 0.152857, 0.016245, -0.118913, 0.036953, -0.007831, 0.150009, -0.081609, -0.087825, -0.017714, 0.034441, -0.072520, -0.214104, 0.089141, 0.080118, 0.041318, 0.008760, 0.025964, -0.041601, 0.001747, 0.012565, -0.006063, 0.069035, -0.068336, -0.032567},
  {0.152099, 0.057173, -0.023432, -0.011780, 0.081935, 0.061920, -0.156684, 0.013739, 0.069518, 0.007605, -0.006467, 0.064465, -0.050439, -0.028582, 0.148747, 0.075466, 0.118163, -0.102242, 0.011516, 0.028674, -0.029258, 0.026764, 0.091161, -0.126020, -0.180399, -0.022525, -0.017316, 0.037509, 0.027815, 0.092128, -0.121414, -0.042495, 0.008428, 0.054981, -0.072065, 0.096410, -0.013353, 0.059654, -0.077481, 0.102706, -0.145790, 0.008046, 0.042358, 0.020576, 0.042942, 0.031915, 0.065487, -0.106952, -0.087555, 0.033526, -0.041321, -0.004412, 0.024271, -0.098974, -0.109409, -0.015467, -0.027740, -0.051055, -0.059807, -0.002892, 0.136176, 0.045308, -0.058579, 0.047027, 0.090373, 0.145428, -0.046317, 0.138970, 0.034454, 0.102638, 0.092738, -0.088395, -0.029328, 0.114049, -0.084358, 0.009724, -0.168769, 0.017363, -0.137071, -0.119699, 0.121377, -0.066432, 0.130570, 0.025733, -0.059304, -0.098598, 0.090438, -0.024589, -0.179468, -0.049129, 0.081983, -0.030545, -0.097101, 0.115107, 0.048796, -0.030783, -0.073378, 0.040591, 0.032517, 0.076958, 0.042965, 0.066932, 0.014316, -0.050701, -0.004687, 0.025794, -0.021765, 0.053575, -0.009541, -0.082362, 0.088777, -0.077745, 0.024237, 0.019979, -0.024362, 0.056841, 0.061983, -0.071917, -0.182132, -0.002790, 0.023491, 0.025863, -0.021558, -0.003828, 0.032762, -0.159642, 0.062163, 0.010504},
  {0.017567, -0.102075, 0.004935, -0.031782, 0.047118, 0.118780, 0.063121, 0.109403, 0.033122, -0.107227, -0.070472, 0.141289, 0.135393, 0.029268, 0.048758, 0.038308, 0.018794, -0.107086, 0.012792, -0.060246, -0.005704, -0.045044, -0.013704, 0.050828, 0.066359, 0.005742, -0.043978, -0.141376, -0.026040, -0.065112, 0.132575, 0.060158, 0.114088, -0.045895, -0.047778, 0.051941, 0.117687, 0.015003, -0.028755, -0.012837, 0.099795, -0.043857, 0.062193, 0.198780, 0.041107, 0.088342, -0.001835, 0.021574, 0.089270, -0.003375, 0.047144, -0.014238, -0.032097, 0.142637, 0.128931, 0.130695, -0.005296, 0.028906, 0.033741, 0.018105, -0.029871, -0.099209, 0.014962, 0.099021, 0.074625, -0.137486, -0.022972, 0.021089, 0.003484, -0.006550, -0.058000, 0.043144, 0.092629, 0.095683, 0.067595, 0.046434, -0.008766, 0.073280, 0.108595, 0.148085, -0.013088, 0.061348, 0.006816, 0.057435, 0.030347, 0.113689, 0.110213, 0.017697, 0.176047, 0.102561, -0.053911, 0.013476, 0.144523, 0.058012, 0.015776, -0.066784, 0.003853, 0.116307, -0.044100, -0.140602, -0.012358, 0.004371, 0.056262, 0.099641, 0.047899, 0.054738, 0.014345, -0.040623, 0.112164, -0.000976, 0.025936, 0.011899, 0.002219, -0.040313, 0.099325, 0.081270, -0.002278, 0.120429, 0.117099, 0.016257, 0.128974, -0.086890, 0.018414, -0.138291, 0.031491, 0.072012, 0.083114, -0.005005},
  {0.012961, 0.022374, -0.092990, 0.053715, -0.050797, 0.059742, -0.003264, 0.093018, -0.010845, 0.071446, 0.089372, -0.007001, 0.103086, -0.078933, 0.104737, -0.082377, 0.085007, 0.058659, -0.081673, -0.159027, -0.135968, 0.148466, -0.136094, 0.078326, 0.128070, -0.003087, -0.112316, -0.091737, 0.083778, 0.004934, 0.044872, 0.097811, 0.053790, 0.009245, 0.012155, 0.010463, 0.062795, 0.071726, 0.140579, 0.076593, 0.045108, -0.044323, 0.053430, 0.102083, 0.039946, -0.055003, -0.060230, 0.116211, -0.095614, -0.037737, 0.030572, -0.066625, -0.006511, 0.020999, -0.020232, -0.011092, 0.003661, 0.112015, 0.051313, -0.102865, 0.010173, -0.030029, 0.200929, -0.014146, -0.090879, 0.023320, -0.146852, -0.022192, -0.175845, 0.120373, -0.042014, 0.132407, -0.057000, -0.104668, -0.082924, -0.045611, -0.017919, -0.023789, -0.004227, -0.101206, 0.072938, -0.048205, -0.063536, 0.010221, -0.085773, 0.002481, 0.033086, 0.107318, -0.016762, 0.126118, -0.125918, -0.058267, 0.166053, -0.080025, 0.011117, -0.051010, 0.055069, -0.059979, 0.030071, 0.013265, 0.076790, -0.013323, -0.135678, 0.052783, 0.024888, 0.076977, 0.002407, -0.113232, -0.005507, 0.076829, 0.064936, 0.009369, -0.042365, -0.001915, -0.130336, -0.140668, -0.040021, 0.106153, -0.059850, 0.029470, -0.023819, -0.107910, -0.128210, 0.019986, 0.101336, 0.017491, -0.004723, -0.125383},
  {0.203121, -0.118347, -0.114192, 0.003583, -0.064213, -0.036185, -0.078345, -0.002179, 0.133213, 0.019536, 0.051767, 0.001568, 0.158427, 0.067658, -0.000722, 0.049521, 0.068439, -0.126628, -0.108017, -0.044278, -0.025639, -0.033598, 0.165589, 0.065364, 0.109686, 0.077114, -0.045562, 0.058994, 0.005402, 0.099633, 0.058322, 0.013766, 0.042117, -0.050725, -0.140116, 0.201982, 0.052309, 0.058446, 0.016054, 0.050161, -0.068224, -0.094983, 0.041563, 0.208415, 0.108445, -0.188825, 0.028314, -0.034622, -0.030737, -0.099910, -0.030993, 0.019753, 0.072210, 0.115274, -0.069640, 0.021008, -0.026094, 0.070244, 0.124642, 0.079103, -0.052356, -0.059500, -0.098380, 0.143584, -0.037252, 0.046166, 0.063683, 0.158306, 0.063901, -0.061268, 0.094851, 0.127861, -0.155951, 0.069065, 0.011052, 0.079759, -0.050459, -0.111792, -0.084744, -0.035492, 0.140872, 0.023773, 0.134636, -0.055817, -0.071325, -0.104245, -0.012143, -0.017104, 0.016484, -0.073838, 0.138368, -0.000159, 0.064861, 0.019209, 0.063668, -0.115129, 0.008515, 0.101915, -0.110773, 0.037833, 0.101414, -0.000531, -0.040349, 0.171700, 0.065450, -0.038639, 0.127021, 0.014663, 0.079064, 0.119609, -0.023730, -0.100055, 0.120523, 0.059085, 0.143456, 0.011856, 0.020259, -0.004420, 0.003333, 0.036765, 0.082614, -0.030956, 0.105216, -0.061402, 0.010676, 0.133341, -0.024340, 0.103769},
  {-0.019604, 0.006137, 0.078534, -0.084964, -0.046693, -0.032034, -0.048458, -0.033985, -0.144578, -0.001128, 0.002465, -0.043174, -0.042650, 0.019818, 0.063905, -0.143244, 0.064492, 0.012581, -0.049204, -0.100676, 0.002864, 0.127142, -0.074062, 0.056949, -0.037428, 0.072022, 0.051679, 0.031089, 0.022747, 0.086043, 0.023954, -0.063877, 0.131303, 0.006479, 0.010525, 0.039485, 0.073846, -0.196593, -0.105178, -0.003620, -0.040702, 0.042625, 0.017032, -0.045720, -0.043750, 0.022349, 0.075103, 0.019537, 0.086073, 0.068128, -0.045346, -0.003305, -0.009947, -0.084905, 0.010866, 0.059652, 0.066896, -0.118474, 0.097994, -0.044300, 0.157996, -0.014846, -0.038563, -0.060173, -0.082177, 0.020266, 0.047249, -0.003471, -0.148731, -0.096080, -0.004656, 0.078722, 0.088704, -0.045700, 0.037745, 0.011344, 0.094531, 0.157629, -0.095198, 0.121916, 0.019946, -0.104070, -0.038786, 0.097460, 0.066961, 0.146218, -0.095403, -0.059356, -0.091718, -0.076399, -0.166844, 0.012497, 0.058634, -0.007873, 0.118485, 0.033835, 0.022005, 0.073100, -0.109796, 0.090405, 0.082841, -0.015146, 0.105457, -0.101864, 0.015553, 0.031862, -0.051698, 0.146261, -0.063123, 0.142356, -0.015623, 0.078066, -0.092145, -0.016919, -0.058104, 0.102931, 0.010974, -0.032781, -0.063541, 0.031735, -0.011517, 0.086268, 0.033721, 0.037875, -0.026820, 0.076905, -0.067299, -0.058864},
  {0.120606, -0.019101, 0.093408, 0.014331, -0.002279, 0.000142, -0.085197, 0.055347, 0.050633, 0.066887, -0.129288, -0.047919, 0.118430, 0.068366, -0.181707, -0.122114, -0.095267, 0.115903, -0.109596, -0.151112, -0.019647, -0.051674, 0.130627, -0.042908, 0.021468, 0.025922, -0.030267, -0.077168, -0.084528, 0.142003, 0.009888, -0.121306, -0.026868, -0.022525, 0.057969, 0.085727, 0.039020, -0.136857, 0.118912, -0.060700, 0.006985, -0.034943, -0.048342, -0.004830, -0.062122, -0.164182, -0.042334, -0.065125, 0.050223, 0.094651, 0.151001, 0.079200, -0.058365, 0.043719, 0.056018, -0.059299, -0.066893, -0.074452, -0.113150, -0.079087, -0.005277, -0.107941, -0.092015, -0.000757, -0.038343, 0.007308, 0.020985, 0.130526, 0.024807, 0.123748, 0.079284, -0.085620, 0.061525, 0.122389, -0.048007, 0.141902, -0.041277, -0.031771, -0.144087, -0.007471, -0.007306, 0.048533, -0.058212, -0.054021, 0.037030, -0.124543, -0.032716, 0.086145, 0.102090, 0.068668, -0.030911, -0.031882, 0.039178, 0.139218, -0.100277, -0.155371, 0.100467, 0.038197, -0.174692, -0.094305, -0.019771, 0.019178, 0.132242, 0.062362, 0.036364, 0.139367, 0.074396, 0.075698, 0.060913, 0.062125, 0.104349, -0.045033, 0.082107, -0.055267, 0.084044, -0.020602, 0.105555, -0.009364, 0.069317, 0.037942, 0.055868, 0.007148, 0.025997, 0.058666, -0.060242, 0.026881, 0.060126, 0.076110},
  {-0.018362, -0.048556, 0.036207, -0.004832, -0.048269, 0.127048, 0.128504, -0.011268, 0.103411, -0.022452, -0.009600, 0.056047, 0.137844, 0.051119, 0.141780, -0.000684, 0.114164, -0.052017, 0.001146, 0.026747, 0.092246, 0.008393, 0.012484, 0.033748, 0.026782, 0.038556, -0.060839, -0.007930, 0.022184, 0.109164, -0.056522, -0.066668, -0.040518, 0.076082, -0.059083, 0.012890, -0.000763, 0.024557, 0.014595, 0.151675, -0.045094, 0.068269, 0.027378, 0.180698, 0.072487, -0.061907, 0.012248, -0.040264, 0.121729, -0.103278, 0.030738, -0.032291, 0.056941, -0.125780, -0.021313, 0.077167, -0.056629, -0.040531, -0.015797, 0.009226, -0.044473, -0.000830, 0.114127, 0.169131, 0.093440, -0.064959, 0.138997, 0.010343, 0.067442, -0.002948, 0.112688, 0.142710, -0.006599, 0.086028, -0.074132, 0.046533, -0.063988, 0.039907, 0.062474, -0.044787, 0.067497, -0.005378, -0.011220, -0.088919, -0.016915, 0.002586, 0.003832, -0.050082, -0.120379, -0.108851, 0.104511, -0.020774, 0.146482, 0.141395, 0.121594, 0.063637, 0.069789, -0.001963, -0.059773, 0.043587, 0.091083, 0.082697, 0.114433, 0.130298, 0.011872, 0.074786, 0.143222, 0.061395, 0.010425, 0.057468, -0.021016, -0.047179, 0.015265, -0.088562, 0.008955, 0.023305, -0.009622, -0.013940, 0.080622, -0.067305, 0.049856, -0.102863, 0.036517, 0.066981, 0.140033, 0.155076, -0.061224, 0.014812},
  {0.117409, -0.015077, -0.063085, 0.135793, 0.157386, -0.051012, -0.054678, 0.047810, 0.055700, 0.061809, -0.046519, -0.021355, -0.002939, -0.002270, -0.037682, -0.107710, 0.026251, 0.082760, 0.134673, -0.050829, -0.100832, -0.032733, 0.075833, 0.051631, 0.039503, -0.049273, 0.051761, 0.095017, -0.012233, -0.106306, 0.011670, 0.123498, 0.048606, -0.070873, 0.045478, 0.133485, -0.101946, 0.129466, 0.070020, -0.156406, -0.031381, -0.095784, 0.037276, -0.073255, 0.162528, 0.106461, 0.014497, -0.031412, -0.015552, 0.109586, -0.055220, 0.112410, 0.037960, 0.029608, 0.002923, -0.083032, 0.085537, 0.050395, -0.110355, 0.014762, 0.010878, 0.092312, -0.051157, 0.036315, -0.045275, 0.106443, -0.055770, 0.004601, 0.136197, -0.023928, -0.035545, -0.063750, -0.073017, -0.015448, 0.021911, -0.020055, 0.022520, 0.006893, 0.019941, 0.042856, 0.023088, 0.026302, 0.066502, 0.077307, 0.116877, 0.109562, 0.037220, -0.047073, 0.177507, -0.009567, 0.129762, 0.108324, -0.082672, -0.042121, 0.063675, -0.018364, 0.020181, 0.019520, 0.121411, 0.039386, 0.002832, -0.003886, -0.096349, -0.042598, 0.005822, 0.037772, 0.077202, 0.031339, 0.062699, -0.064461, -0.012137, 0.083530, -0.003796, -0.004256, 0.099319, -0.081657, -0.010132, 0.064415, -0.054872, 0.119494, -0.063758, 0.142900, 0.177224, 0.037973, -0.056477, -0.025397, 0.114071, 0.040289},
  {-0.003707, 0.163101, 0.021777, 0.034340, -0.041228, -0.013346, -0.043354, 0.003344, 0.011826, -0.068023, -0.102893, 0.097379, -0.044244, -0.023658, 0.063494, 0.031604, -0.017040, -0.084266, -0.003894, -0.038675, 0.116087, 0.067797, -0.019308, -0.047905, -0.086727, -0.017840, -0.095263, -0.075871, 0.068901, 0.041855, 0.082677, 0.132122, 0.087244, 0.015386, 0.112900, 0.030983, 0.037370, 0.099728, -0.112280, -0.055537, -0.011298, 0.103959, 0.147015, 0.059705, -0.007055, 0.170617, 0.042957, -0.125054, 0.082710, 0.007083, -0.041862, -0.138913, 0.054547, 0.029637, 0.133148, 0.153089, -0.064393, -0.129109, 0.081742, 0.074243, 0.102361, 0.051112, -0.108272, -0.059233, 0.089164, -0.045927, 0.143223, 0.010041, 0.011616, 0.006020, 0.061236, 0.021436, -0.046160, -0.087215, -0.073735, 0.126517, -0.067214, 0.104986, 0.090434, 0.050991, 0.003729, -0.054821, 0.081852, 0.044901, 0.114583, 0.161765, -0.203856, -0.029151, -0.048004, -0.130970, 0.035506, 0.121541, 0.114579, 0.060179, 0.048175, 0.168425, -0.057010, 0.116870, -0.012301, -0.071955, 0.040240, 0.122707, -0.056986, -0.017114, 0.025916, 0.073438, 0.199754, 0.130349, -0.032145, 0.075804, 0.094393, 0.118838, 0.046592, 0.050379, -0.019022, 0.080722, 0.045360, -0.043822, -0.036081, -0.015448, -0.170243, 0.105321, -0.037843, -0.055130, -0.053091, 0.177879, -0.126844, -0.032570},
  {0.073329, -0.019309, 0.023879, 0.098731, 0.019091, 0.108417, -0.052403, -0.079366, 0.131713, 0.111504, -0.008777, -0.020489, 0.013596, 0.102003, -0.088141, 0.141749, -0.059927, 0.125296, 0.106564, 0.099613, 0.094192, -0.013925, 0.115401, 0.017437, -0.120645, 0.040125, 0.046990, 0.015732, 0.076212, 0.061956, 0.064764, 0.027342, -0.027649, -0.141606, 0.095683, 0.071431, 0.074948, -0.047771, -0.030496, -0.058765, 0.184558, 0.143694, -0.092333, 0.042081, 0.064261, -0.001030, 0.041508, 0.071279, -0.014711, 0.108014, 0.049632, 0.002960, -0.046291, 0.038079, 0.124326, 0.166736, -0.065492, -0.033584, -0.106759, 0.164575, -0.093416, -0.006067, 0.117898, 0.076455, 0.058370, -0.068765, 0.044651, 0.071853, -0.041044, 0.060961, 0.100449, -0.037427, -0.037514, 0.104306, 0.002578, 0.087136, 0.027008, 0.074655, 0.127188, 0.154577, 0.174901, 0.082332, -0.029894, 0.005892, 0.049990, -0.070439, 0.091237, 0.063503, 0.030924, -0.004465, 0.134106, 0.014492, 0.013194, 0.070638, 0.041163, 0.045787, -0.052717, -0.054880, 0.013662, 0.060231, -0.023965, 0.034026, 0.110850, -0.037053, -0.006889, -0.051328, -0.069919, -0.108081, 0.030376, -0.020381, 0.063047, 0.075349, 0.073680, 0.003471, 0.141446, 0.113919, -0.038178, -0.076760, -0.007096, 0.043093, -0.034664, -0.020732, 0.120624, 0.069358, 0.102162, 0.119942, 0.066837, 0.085346},
  {-0.029176, -0.027304, 0.088589, -0.026625, 0.119770, 0.010704, 0.098301, 0.017231, 0.080334, -0.083559, -0.027843, 0.073066, -0.107065, 0.082591, 0.091757, 0.170893, 0.032831, -0.000372, 0.036925, 0.031122, -0.038605, -0.012645, 0.079561, 0.039554, 0.014377, -0.046897, -0.032872, -0.002334, -0.012577, -0.043279, -0.033258, -0.101327, 0.031769, 0.037491, -0.123126, -0.037145, -0.024763, 0.095976, 0.079199, 0.042232, -0.044494, 0.029856, -0.015925, -0.010948, 0.036742, 0.139242, -0.008118, 0.065351, -0.047790, -0.119429, -0.027100, -0.006275, -0.055450, -0.030095, 0.110728, -0.004725, -0.002947, 0.042302, -0.025772, 0.036343, 0.044240, -0.003650, -0.085404, 0.040345, 0.063016, 0.023500, 0.045447, 0.077610, 0.196021, 0.000372, 0.041357, -0.001504, 0.075496, 0.134559, -0.075669, 0.018059, -0.021909, -0.033976, -0.013801, -0.065388, 0.036337, 0.048530, 0.007439, -0.018371, 0.097800, -0.146422, 0.113089, 0.035496, -0.003021, -0.008244, -0.019476, 0.025021, -0.056337, 0.088328, 0.047209, 0.051664, -0.003386, 0.080635, 0.114640, -0.079700, -0.016556, 0.079432, 0.075986, 0.058021, -0.047996, -0.006985, 0.019497, 0.070296, 0.007810, -0.037018, 0.142929, -0.028552, 0.042623, 0.169686, -0.019866, 0.050753, 0.064676, -0.038114, 0.068542, -0.032575, -0.029295, -0.012500, -0.011740, 0.036737, 0.029368, -0.131697, 0.018127, 0.113800},
  {-0.004334, 0.084541, 0.083492, -0.021959, 0.135505, 0.133759, 0.049026, -0.030350, 0.018859, 0.004782, 0.006365, 0.181434, 0.097924, -0.017544, -0.014838, 0.072800, 0.055393, -0.041764, 0.101493, 0.015286, 0.027350, -0.090370, 0.109688, 0.028130, 0.015165, -0.027484, 0.009355, 0.058226, 0.017660, -0.016564, 0.023807, 0.094885, 0.045045, 0.053383, 0.012866, 0.035206, 0.054052, 0.193681, 0.070903, -0.023273, 0.121886, -0.070101, -0.009854, 0.083448, 0.048241, 0.034365, 0.102202, 0.003058, -0.080952, -0.010745, -0.019724, 0.120349, -0.133863, 0.170201, -0.006111, 0.134771, 0.150351, -0.015037, 0.007591, 0.076484, 0.097511, 0.063840, -0.124431, 0.042305, 0.158087, -0.088937, 0.055780, 0.127940, 0.150667, 0.056957, -0.080987, 0.085560, 0.052512, 0.034162, -0.181458, -0.040582, 0.015370, -0.034487, 0.188057, 0.120493, -0.149036, 0.158653, 0.148723, 0.009090, 0.128807, -0.035936, -0.075448, 0.106173, -0.081247, 0.091623, 0.022092, 0.210709, -0.014103, 0.066694, -0.023982, 0.016952, -0.075012, 0.022675, -0.021952, -0.016756, 0.139588, 0.057701, -0.080639, 0.084965, 0.095164, 0.040016, 0.130644, 0.026441, 0.005914, 0.004201, 0.125739, -0.032039, 0.130073, 0.054019, 0.112514, 0.089890, 0.158474, 0.132612, -0.008962, -0.068568, 0.047304, 0.093562, -0.024565, -0.103701, 0.021990, 0.057510, 0.046860, -0.025987},
  {0.008841, -0.012872, -0.094379, 0.199585, -0.036277, 0.127723, 0.135876, 0.095812, 0.049007, 0.021660, 0.073049, -0.078576, 0.050100, -0.029320, 0.082691, -0.036087, 0.100798, 0.026458, 0.050060, -0.052856, -0.020248, 0.160882, 0.143311, 0.120229, 0.172929, -0.015204, -0.110871, 0.028415, -0.034875, 0.054040, 0.054561, 0.208351, -0.016970, 0.034743, 0.016552, -0.037757, -0.067151, 0.111460, -0.030550, -0.097322, 0.061558, -0.093317, 0.112741, 0.090101, -0.032449, 0.049417, -0.009060, -0.008013, -0.046001, 0.136579, 0.136183, -0.048018, 0.145566, -0.002908, 0.013868, -0.042324, 0.060558, 0.065272, 0.124545, 0.049784, -0.000763, 0.011880, 0.087201, 0.014325, -0.031647, 0.041462, 0.013016, -0.001412, 0.001796, 0.019094, -0.142441, 0.036789, 0.011291, -0.012192, 0.049696, 0.064039, 0.014633, 0.021592, 0.050786, 0.035510, 0.055958, 0.025005, 0.022555, 0.030831, -0.065944, 0.139007, 0.021658, 0.065703, 0.207798, 0.125437, 0.002240, -0.039213, 0.124069, -0.035600, 0.070486, -0.045999, 0.038082, 0.032485, 0.190013, 0.004653, 0.055243, 0.011385, -0.028439, 0.013320, 0.037386, 0.002754, 0.005527, -0.008247, -0.032994, -0.044658, -0.040871, 0.129213, 0.109926, -0.105471, 0.022457, 0.059526, -0.121536, 0.121304, 0.008843, 0.025766, -0.055754, 0.083751, 0.064119, -0.053746, -0.040822, 0.022745, 0.085696, -0.026213},
  {0.110228, 0.033783, 0.114261, 0.046887, 0.150107, 0.089846, -0.044891, -0.002840, 0.122502, 0.081752, 0.014682, -0.025641, 0.008757, -0.103437, -0.015727, -0.027782, 0.074170, 0.001113, -0.084847, -0.073156, -0.022803, 0.019745, -0.143299, 0.123163, -0.002210, 0.006505, -0.055122, -0.107523, 0.023760, 0.149874, -0.005114, 0.047822, 0.052825, 0.067114, 0.034046, 0.061681, -0.011641, -0.062991, 0.091019, 0.105013, 0.051578, -0.045917, 0.041696, 0.050171, 0.102989, -0.097087, -0.093849, 0.148424, 0.066061, 0.020524, 0.162521, -0.031828, 0.094531, -0.024429, 0.008705, -0.041681, -0.097828, 0.081940, 0.000752, -0.015935, -0.016370, -0.098096, 0.112021, -0.086796, 0.032760, -0.094451, -0.045422, 0.005735, -0.043693, 0.130220, 0.073914, 0.130862, 0.035518, -0.025871, -0.063478, 0.104825, 0.074503, -0.064812, 0.104439, -0.041551, -0.017899, 0.055323, -0.046618, -0.024941, 0.054106, -0.074188, 0.053349, 0.141036, 0.025686, 0.136119, 0.017268, -0.004816, 0.001303, 0.107332, -0.085104, -0.100038, 0.057261, -0.081116, 0.035337, -0.062494, 0.036731, 0.061172, 0.014871, 0.062599, 0.009756, 0.166990, -0.033606, -0.016820, -0.032435, 0.099092, 0.107871, -0.100894, -0.058971, -0.116316, -0.081855, -0.115589, 0.096023, 0.081854, 0.028238, 0.076884, 0.016727, -0.018776, -0.003386, -0.007436, 0.042869, 0.040755, -0.006592, -0.005587},
  {-0.010326, 0.007125, 0.019080, -0.119069, 0.061159, -0.027138, -0.011092, -0.041300, 0.047604, -0.015357, -0.134252, -0.077634, 0.033280, -0.106935, -0.001191, -0.101688, -0.060327, 0.095981, -0.060996, -0.032529, -0.015432, 0.090745, 0.040328, 0.003459, -0.052460, 0.072124, -0.036226, 0.117094, 0.029097, 0.019934, 0.029229, -0.081334, -0.005704, -0.015099, 0.168503, 0.121546, -0.004198, -0.147282, 0.011899, -0.013416, -0.021562, -0.013751, 0.033006, 0.032514, -0.147494, -0.085151, 0.103409, 0.013262, -0.014916, 0.119846, 0.128256, -0.081568, 0.053309, -0.061278, 0.010293, -0.009560, -0.020921, -0.012962, 0.022404, -0.045943, -0.017346, 0.060562, -0.028731, 0.022638, -0.031587, -0.023406, 0.051856, 0.020736, -0.080855, 0.025466, 0.118200, -0.095832, -0.054669, -0.083457, 0.034190, 0.068312, -0.022585, 0.041530, -0.136752, 0.067678, 0.030824, -0.064598, -0.009370, 0.037837, 0.005041, 0.117760, -0.012091, -0.002159, -0.054634, -0.042898, -0.028102, -0.131207, -0.032828, 0.132830, -0.002002, -0.054046, 0.006994, -0.035866, -0.128746, 0.014259, 0.083696, 0.054806, 0.103762, -0.110503, -0.009366, 0.048135, 0.014141, 0.012806, -0.010279, 0.084715, 0.017191, -0.058575, -0.000938, -0.063880, -0.088604, 0.076180, 0.083130, -0.024582, -0.014374, -0.068663, -0.031247, -0.032428, 0.021061, -0.039766, 0.003541, 0.099604, -0.011373, -0.057279},
  {-0.037419, 0.047409, 0.038995, 0.108197, 0.095800, 0.113613, -0.003919, 0.008610, 0.023152, 0.021709, 0.065619, -0.016119, -0.073926, 0.001528, 0.104201, -0.018613, 0.086512, 0.135455, -0.060953, 0.150372, 0.041900, -0.054124, -0.118487, 0.076002, 0.092556, 0.048266, 0.067827, -0.053669, -0.016423, 0.061372, 0.054712, 0.013155, -0.040011, 0.095604, -0.029346, -0.190089, -0.120202, 0.015555, -0.052698, 0.147521, 0.129016, 0.045184, -0.035665, -0.036898, 0.002737, 0.033992, -0.041945, 0.122269, 0.107604, 0.069336, -0.058659, -0.105106, -0.065753, -0.010658, 0.094001, 0.008434, 0.062138, 0.100636, 0.030600, -0.174288, 0.086589, 0.085756, 0.046900, -0.047504, -0.117236, -0.032509, -0.113072, -0.144926, -0.044553, 0.017226, 0.010554, -0.072435, 0.120650, -0.012676, -0.037349, -0.019526, 0.093120, 0.050251, 0.030558, -0.119343, -0.031558, -0.151516, -0.007365, 0.049307, -0.024606, -0.083589, 0.060224, 0.086579, -0.070338, -0.014504, 0.042219, -0.024895, -0.022279, 0.050604, -0.148099, 0.114582, 0.077213, -0.068956, 0.206451, -0.043561, -0.014584, 0.065614, 0.049213, 0.036422, -0.119250, -0.048617, -0.214511, 0.021624, 0.078576, 0.058857, -0.073205, -0.017532, -0.000632, 0.062437, -0.015668, -0.081869, -0.115902, -0.053946, 0.010439, 0.075701, 0.096823, -0.024806, -0.034016, -0.024359, 0.034239, -0.068478, 0.085563, -0.022302},
  {0.132399, 0.146129, 0.046377, -0.048069, 0.155141, 0.071556, -0.094042, -0.000630, -0.058723, 0.007097, -0.036620, 0.043380, -0.060435, -0.036546, 0.002125, -0.030214, -0.118026, -0.093276, 0.165965, -0.059686, -0.124542, 0.057837, -0.085447, -0.114741, -0.099572, -0.151112, -0.094394, -0.065833, -0.059452, -0.073829, -0.105999, -0.139383, 0.057147, -0.012231, 0.034435, 0.001429, -0.046680, 0.136685, 0.054232, -0.163024, -0.063094, -0.120605, 0.055252, 0.035518, -0.088076, 0.029047, -0.065518, 0.082060, -0.183691, -0.096341, -0.004554, 0.034675, 0.028918, 0.023425, -0.125635, -0.076561, 0.075342, 0.066622, -0.194177, -0.113147, 0.069428, 0.064909, -0.003189, -0.039294, 0.068624, 0.026075, -0.079154, 0.026979, 0.189637, 0.134679, -0.014693, -0.126483, 0.046920, -0.005567, -0.081087, -0.083836, 0.096084, -0.103247, 0.073921, 0.002498, -0.112521, 0.132758, 0.054353, 0.029409, 0.132491, -0.074309, 0.118228, 0.096578, 0.032230, 0.146264, 0.083135, 0.137549, -0.117899, 0.168893, 0.062652, -0.040156, 0.007071, 0.046153, 0.067774, -0.093306, -0.142542, 0.138690, -0.013733, -0.120676, -0.014474, 0.118091, 0.058077, 0.033667, -0.015160, -0.070544, 0.169409, 0.027205, -0.091925, 0.020268, -0.041491, -0.090709, 0.062193, 0.113098, 0.068670, 0.080075, 0.133283, -0.019328, 0.003233, -0.073663, -0.052055, -0.141609, -0.019183, -0.069692},
  {0.123901, 0.154451, -0.045743, -0.003177, 0.056083, -0.059780, 0.048914, -0.099256, 0.052068, 0.130500, -0.010817, -0.155751, -0.063777, -0.004684, 0.003587, -0.092637, -0.008459, 0.076126, 0.106694, 0.060692, 0.069202, 0.050722, -0.066652, 0.002614, 0.077442, -0.033805, -0.047446, 0.075796, 0.150174, 0.046898, -0.027967, 0.049143, 0.069448, -0.024001, 0.072606, 0.073754, 0.034909, -0.080649, -0.121070, -0.052382, -0.005043, -0.032628, 0.037792, -0.082121, 0.086785, -0.037491, 0.104538, 0.092407, -0.004570, 0.175588, 0.128607, -0.107404, 0.069780, 0.018055, -0.160307, 0.045725, 0.056193, -0.009718, 0.123272, 0.056984, 0.037438, 0.140524, 0.023411, -0.087950, -0.114294, 0.066989, 0.057803, -0.033706, -0.076509, 0.032480, 0.111187, -0.010990, 0.013023, -0.100954, 0.122492, 0.061475, -0.132815, 0.107006, -0.025122, -0.013238, 0.088910, -0.085839, -0.072342, 0.115664, -0.163551, 0.093651, 0.075217, 0.080503, 0.066319, 0.056691, -0.092756, -0.197883, -0.119349, 0.057739, -0.006741, 0.101258, 0.019048, 0.026145, 0.064541, 0.016473, 0.087864, -0.066602, -0.001759, 0.045684, -0.075958, -0.003523, -0.047958, -0.038928, -0.157843, -0.029299, -0.040927, 0.124686, -0.121723, 0.005588, -0.073988, 0.068081, 0.005321, -0.027107, -0.078994, 0.162850, -0.013034, 0.049670, 0.091975, 0.040987, -0.072409, 0.107851, -0.031417, -0.067634},
  {0.054830, 0.085649, 0.019789, -0.053243, 0.092342, -0.077631, -0.013618, -0.129580, -0.061065, -0.003619, 0.100580, -0.084160, -0.073170, -0.072389, -0.045399, -0.046921, -0.036754, 0.087294, 0.126797, 0.024162, 0.005216, 0.016975, -0.103935, -0.044462, -0.053515, 0.071765, 0.054013, 0.081299, 0.039613, 0.016737, -0.038855, 0.048489, 0.108453, 0.163116, 0.093097, 0.082344, 0.074669, 0.048313, -0.136917, -0.052331, -0.002126, 0.096102, -0.000404, -0.068406, 0.003270, 0.081761, -0.032000, -0.015829, 0.062552, 0.072277, 0.046749, 0.030413, 0.111763, -0.184651, -0.112855, 0.080980, 0.032650, -0.064513, 0.102066, -0.003870, 0.039534, 0.079318, -0.117093, -0.088842, 0.047169, 0.063325, 0.170087, -0.031254, 0.031485, -0.013219, 0.031905, -0.138948, 0.094346, -0.006242, 0.052952, 0.039089, -0.082452, 0.055568, -0.019530, 0.052391, -0.026396, -0.081739, 0.016196, 0.159665, 0.020561, 0.114452, -0.062126, 0.034873, -0.090388, -0.089857, -0.089197, 0.078876, -0.039037, 0.021698, 0.096889, -0.032953, -0.065552, 0.076848, -0.027794, 0.044860, -0.017253, 0.139966, 0.064628, -0.118710, 0.093266, 0.059918, 0.106539, 0.027480, -0.069249, 0.139187, 0.094207, 0.104451, -0.025914, -0.016766, 0.081378, 0.032170, 0.032628, -0.061307, -0.119245, 0.019452, -0.142657, 0.185275, 0.025223, 0.032354, -0.062310, 0.114771, 0.050019, -0.123923},
  {0.023183, 0.035653, -0.038446, 0.008418, 0.047476, -0.051472, -0.033327, 0.033526, -0.031879, -0.028389, -0.014503, 0.051373, 0.203854, -0.096802, 0.037248, 0.122218, -0.042137, 0.063720, 0.021388, -0.064915, -0.027548, 0.045094, -0.015722, 0.007036, -0.025511, 0.068985, -0.046229, 0.005668, -0.001549, -0.040701, 0.082063, 0.006499, -0.039561, -0.038286, 0.076127, 0.087541, 0.085224, -0.119061, 0.063930, -0.012664, 0.148050, 0.087256, -0.057755, 0.188803, 0.042683, -0.023173, 0.074303, 0.155065, -0.015213, 0.057722, -0.011008, 0.148205, 0.079268, 0.132414, 0.068970, 0.062904, 0.126977, 0.012041, 0.017205, 0.191103, -0.053930, -0.022967, 0.009303, 0.014024, -0.042270, -0.122942, 0.012410, 0.053677, -0.043326, -0.060493, 0.085851, 0.084200, 0.073243, 0.105151, 0.089282, 0.056770, 0.139216, 0.100439, 0.041274, 0.112160, -0.071153, 0.114639, -0.007663, -0.005114, 0.094785, 0.035998, 0.010336, -0.011040, -0.009353, 0.033130, -0.035518, 0.125047, 0.157046, 0.124257, 0.045373, 0.005918, -0.070036, 0.024770, -0.092324, -0.048961, 0.006921, 0.020774, 0.106046, 0.056266, 0.040741, -0.023226, 0.029587, 0.025543, 0.036715, -0.026364, -0.071853, 0.045099, 0.015395, -0.015477, 0.066610, 0.189568, 0.095193, 0.091117, 0.095313, 0.061925, -0.021608, 0.063141, -0.026931, 0.041799, 0.153659, 0.077612, 0.012005, -0.039596},
  {0.131877, 0.014524, 0.010269, 0.028399, 0.047025, -0.036554, 0.006958, -0.074064, 0.049619, 0.135909, 0.030988, -0.070886, -0.013713, 0.044631, -0.030552, 0.084257, 0.183677, 0.080447, -0.073216, 0.114634, 0.032354, -0.003623, 0.145627, 0.119850, 0.094610, 0.019307, 0.093363, 0.154976, 0.063501, -0.082581, -0.006208, 0.113796, -0.043535, -0.051758, 0.174002, 0.127946, 0.088825, -0.021536, 0.018206, -0.058183, -0.055383, 0.011809, 0.096531, -0.014365, 0.058763, 0.080574, 0.030460, -0.026178, -0.091055, 0.031485, -0.029386, -0.069323, -0.016723, 0.010456, 0.007762, -0.003571, -0.048792, 0.025233, -0.037009, 0.154697, 0.020426, 0.064022, 0.062746, -0.010803, 0.017372, 0.104038, 0.072150, 0.063108, -0.039389, 0.016927, 0.067189, -0.066756, -0.117737, 0.018026, 0.083698, 0.178742, 0.023506, 0.074505, 0.048180, 0.028043, 0.053010, 0.132048, 0.007211, -0.044923, -0.011489, 0.138665, -0.134162, 0.035111, 0.128820, 0.031000, -0.053666, 0.032293, 0.058266, -0.090133, -0.019406, 0.036333, 0.058830, -0.069857, 0.108669, 0.067791, 0.086077, 0.069262, 0.025658, -0.035267, -0.075142, 0.161805, 0.050792, -0.061503, -0.015769, 0.075976, -0.092731, 0.131550, 0.040292, -0.069425, 0.113318, 0.153768, 0.018817, 0.020927, -0.084595, 0.034367, -0.082660, 0.141876, 0.150113, 0.062350, 0.005477, 0.055266, 0.049570, 0.011621},
  {0.094423, 0.082410, 0.060849, 0.035526, 0.021762, 0.043723, -0.040829, 0.002368, 0.077865, 0.093588, 0.126032, -0.097957, -0.057672, 0.033639, 0.139260, -0.158844, -0.012129, 0.104040, 0.015830, -0.008433, -0.003690, 0.165961, -0.131040, 0.097648, -0.018649, 0.103100, -0.051664, 0.088955, 0.046858, 0.029667, 0.005358, -0.093037, 0.014834, 0.132084, 0.060654, -0.024852, 0.000584, 0.038761, -0.055131, 0.112636, -0.017768, -0.118583, 0.123436, -0.027481, -0.131866, 0.005811, 0.041629, 0.046239, 0.033685, -0.006463, 0.008557, -0.034129, 0.049883, -0.048585, -0.028431, -0.139752, -0.031284, 0.083887, 0.170069, -0.128043, 0.022939, 0.051629, -0.061416, -0.112828, -0.048433, 0.004391, -0.029786, 0.029765, 0.069749, 0.000346, 0.107356, 0.088417, 0.043109, -0.000834, -0.017546, 0.034035, -0.050057, 0.057786, -0.123657, -0.011661, 0.046565, -0.088812, 0.045996, 0.092182, -0.067112, 0.002468, 0.030852, -0.010216, -0.112464, -0.078423, -0.100337, -0.028937, -0.054272, -0.044594, 0.051643, 0.047237, 0.021287, 0.125237, -0.087223, 0.047399, 0.043271, 0.046398, 0.076674, -0.058719, 0.078001, 0.018470, 0.067961, 0.152570, -0.117483, 0.059214, 0.042892, 0.032415, -0.012529, -0.071333, -0.098757, -0.135000, 0.089470, 0.077795, -0.023294, -0.082837, -0.034348, 0.136062, -0.054827, 0.010960, -0.008769, 0.004432, -0.087658, -0.051104},
  {0.118811, -0.034891, -0.015598, -0.135074, 0.116641, -0.114979, 0.068496, 0.095446, 0.013816, -0.023852, -0.096456, -0.000098, 0.004849, 0.004775, 0.006572, -0.185030, -0.096856, 0.025600, 0.002059, -0.098037, 0.130161, -0.005079, 0.059068, -0.092281, -0.013199, 0.037014, 0.087942, -0.063095, -0.069438, 0.018224, 0.032115, -0.074406, 0.148992, 0.177898, 0.001015, 0.018732, -0.061899, -0.033185, -0.025367, -0.004586, -0.155221, -0.039292, 0.080457, 0.075680, -0.018494, 0.073878, -0.187006, -0.168275, -0.024127, -0.009547, 0.019358, 0.002582, -0.011036, 0.030930, -0.030320, -0.173033, 0.054672, -0.140504, 0.076218, -0.068081, 0.135430, 0.147231, 0.029913, 0.081551, 0.085797, 0.062251, -0.019363, 0.023642, -0.000455, 0.157655, 0.083636, -0.044322, -0.033429, -0.053961, 0.027643, -0.033528, 0.035556, 0.043549, -0.171433, -0.048438, -0.047261, -0.047845, 0.116020, 0.089671, 0.066286, -0.088998, -0.102971, -0.020477, 0.100026, -0.197525, 0.100549, -0.030434, 0.002655, 0.149688, -0.026829, -0.036405, -0.008599, 0.102109, -0.204198, 0.001635, -0.162970, 0.162061, 0.054553, -0.068465, 0.119669, 0.024696, 0.110806, 0.159309, 0.090776, 0.085062, 0.027816, 0.064977, 0.015760, -0.076756, 0.038153, -0.073273, 0.143201, -0.093765, 0.149099, -0.075163, 0.072467, 0.097114, -0.091903, -0.075339, -0.017847, 0.038888, -0.155873, -0.004095},
}