Layer: fc2.weight
Shape: torch.Size([64, 128])
Values:
{
  {-0.071104, -0.050363, 0.042805, -0.034098, 0.028085, -0.098203, 0.073031, 0.033394, 0.140123, 0.033097, -0.043670, -0.033756, -0.050109, -0.109667, 0.087719, 0.128658, 0.114290, -0.072634, 0.087443, -0.005256, 0.034879, -0.031284, 0.024714, 0.087840, 0.068105, 0.020655, 0.039251, 0.007388, 0.002562, 0.087029, 0.010824, 0.046499, 0.049482, 0.059967, -0.087773, -0.086936, -0.004281, 0.052878, -0.019741, -0.046090, -0.120504, -0.066827, 0.038352, -0.067561, 0.060615, 0.021064, -0.016654, -0.030572, 0.073027, 0.000522, 0.091035, -0.060846, 0.036609, -0.092258, -0.074898, 0.062087, -0.021096, 0.002557, -0.043983, -0.009143, -0.091177, 0.066903, -0.016419, 0.028740, 0.110801, 0.115025, -0.039374, -0.006100, 0.017270, 0.064079, 0.066271, -0.003330, -0.002815, -0.024250, -0.040127, 0.117054, -0.077274, 0.088911, -0.005230, 0.051682, 0.088479, 0.084712, -0.044079, 0.037737, 0.052223, -0.018075, -0.034350, 0.073245, 0.060475, 0.064764, 0.055680, 0.120471, -0.022780, -0.028419, 0.021172, -0.022968, 0.044144, -0.029845, 0.094638, -0.021707, -0.062469, 0.032160, -0.052263, -0.004587, -0.017149, 0.068458, 0.103716, 0.008141, -0.120642, 0.010963, 0.030888, 0.074800, -0.116633, 0.000782, 0.007098, 0.070392, -0.016464, -0.011400, 0.074951, 0.056648, 0.024403, 0.056426, 0.004058, 0.013978, 0.033800, -0.074454, -0.043563, -0.087431},
  {-0.002054, -0.103272, 0.008960, -0.093454, 0.039795, -0.083067, -0.087495, 0.084792, 0.013960, 0.022729, -0.068096, -0.055598, 0.057135, 0.047764, 0.045619, 0.027455, 0.017243, 0.083964, -0.043788, -0.072971, 0.067518, -0.051040, 0.019990, -0.025388, -0.078115, 0.032494, -0.136507, 0.069912, 0.053145, -0.070550, 0.025312, 0.042379, -0.059088, 0.025030, -0.135924, -0.033607, -0.011430, -0.129500, -0.119131, -0.012327, -0.082867, -0.042221, -0.037076, -0.025942, 0.021926, -0.125774, 0.024216, 0.018409, -0.058120, 0.058158, 0.009787, -0.069738, 0.003962, -0.049132, 0.003297, 0.046806, -0.131522, 0.036299, -0.104415, -0.046830, 0.032933, 0.053812, -0.022420, 0.049162, -0.001598, -0.053084, 0.017932, -0.012928, -0.043555, -0.129844, -0.090211, -0.062314, -0.110316, 0.003923, -0.086055, -0.041581, -0.067641, 0.020747, 0.076211, 0.073430, -0.095181, -0.053030, 0.051725, 0.021940, 0.009064, -0.108525, 0.091873, -0.029307, -0.008136, -0.036345, 0.096757, -0.033385, 0.014123, -0.001261, -0.058038, -0.026873, 0.003284, 0.029998, 0.010858, 0.008577, -0.063835, -0.103047, 0.111848, 0.023620, -0.029632, 0.112819, 0.033940, 0.039832, -0.079527, -0.087642, -0.083466, -0.025173, -0.053939, 0.089183, 0.020158, -0.011468, 0.042244, 0.106445, 0.120608, -0.015584, 0.032041, -0.048357, -0.068227, -0.046845, -0.044190, -0.067411, -0.035776, -0.008605},
  {0.021448, 0.037107, 0.025127, 0.096039, -0.017361, 0.069618, 0.047756, 0.019741, 0.044793, 0.095504, 0.119227, 0.090774, 0.122848, 0.132350, -0.031835, 0.052714, 0.083425, -0.050992, -0.053888, 0.069288, 0.118432, 0.069255, -0.024019, -0.041805, -0.008919, -0.008732, 0.149429, -0.047346, 0.132017, 0.048526, 0.021725, 0.026930, -0.027659, 0.072622, 0.040481, 0.034003, 0.081143, 0.123387, 0.136952, -0.012250, 0.058463, -0.003249, 0.026918, 0.011678, -0.010231, 0.139226, 0.039103, 0.110482, -0.042015, -0.033466, 0.031469, 0.012429, 0.115148, -0.017860, 0.006315, 0.048178, 0.113339, 0.006572, 0.049985, 0.044922, 0.047071, 0.002176, 0.088038, 0.062431, 0.101116, -0.019711, 0.111126, -0.025921, 0.024913, 0.030746, 0.112636, 0.062938, 0.020509, 0.014196, -0.041339, -0.034257, 0.123918, 0.050782, -0.024180, 0.021446, 0.017095, 0.082506, 0.108921, -0.045325, 0.058249, 0.073670, 0.017122, 0.125023, 0.056925, 0.108433, 0.016827, 0.023737, 0.122272, 0.069915, 0.102051, 0.055196, -0.042664, 0.001290, -0.016792, 0.096383, 0.061753, 0.020080, 0.015344, 0.104199, 0.069282, -0.007126, 0.143658, -0.002470, 0.101567, 0.009393, 0.124799, 0.014049, 0.120635, -0.050154, 0.007699, -0.014547, -0.002834, 0.104178, -0.061288, 0.061806, 0.003576, -0.026095, 0.149331, 0.119975, 0.005981, 0.073422, 0.074465, 0.059196},
  {0.003070, -0.008377, -0.011035, -0.076183, -0.036005, 0.042464, 0.101421, 0.068253, 0.050727, -0.006721, 0.020547, -0.020172, 0.005097, -0.026674, 0.052892, 0.070496, 0.091718, -0.072777, -0.074606, 0.056963, -0.041633, 0.091880, 0.015805, 0.030029, 0.084635, 0.000025, 0.076620, 0.046502, 0.027339, -0.012250, -0.081988, 0.036628, 0.039127, 0.063306, 0.031077, 0.042719, 0.046472, 0.103368, 0.069065, 0.000201, -0.103201, -0.008413, -0.019653, 0.052115, -0.034101, 0.076079, 0.030934, 0.041747, -0.015857, -0.054508, 0.090369, 0.013630, -0.025196, -0.072647, -0.057827, 0.063193, 0.047839, 0.020251, -0.112802, 0.125202, -0.042080, 0.018171, -0.053431, 0.009085, -0.002881, 0.068950, -0.002482, -0.045112, -0.040562, 0.071003, -0.027255, 0.003905, 0.094507, 0.037141, -0.087432, -0.009653, 0.069455, 0.031980, 0.007999, -0.062069, 0.063255, 0.069997, -0.024417, -0.038650, -0.104220, 0.000665, -0.030735, 0.110367, -0.002059, -0.037836, -0.036425, 0.019931, -0.053583, 0.090310, 0.071839, 0.086188, -0.003166, -0.047483, -0.061230, 0.016167, -0.042471, 0.045849, -0.050569, 0.088155, 0.064943, -0.109661, 0.054920, 0.028961, 0.029388, -0.000761, -0.041573, 0.061200, 0.012145, -0.037501, -0.070173, 0.082688, 0.015905, 0.054091, 0.020831, 0.068276, -0.022434, 0.091487, 0.016121, 0.006984, 0.066944, 0.024982, -0.067046, -0.045370},
  {-0.085913, 0.060402, 0.106855, 0.040713, -0.070525, 0.022592, 0.078157, 0.030272, 0.069330, -0.020812, 0.020444, 0.038453, 0.162643, -0.083278, -0.002866, 0.102817, 0.009478, -0.043881, 0.001223, 0.084544, -0.023644, 0.030493, 0.099373, -0.010187, 0.083832, 0.004844, 0.044482, -0.031331, 0.068388, 0.061631, -0.082163, -0.090245, 0.043990, 0.160402, 0.058831, -0.026878, -0.074516, 0.062179, 0.083072, -0.042273, -0.118153, -0.006729, 0.068828, -0.096304, -0.036121, 0.097317, 0.061368, -0.048956, 0.105523, 0.033320, 0.122433, -0.007764, -0.050984, -0.019400, 0.087293, 0.042788, -0.000280, 0.088708, -0.041498, 0.102990, -0.014947, 0.032942, -0.057490, 0.037002, -0.030768, -0.008377, 0.055391, 0.091556, 0.032245, 0.024540, 0.101092, 0.112652, 0.086003, 0.031742, -0.008766, -0.005116, -0.004278, 0.123900, -0.031087, -0.099532, 0.038448, 0.083729, -0.042386, -0.008825, -0.094955, -0.080756, -0.053703, -0.048251, 0.083304, -0.023746, -0.065480, 0.077607, 0.031840, 0.118574, 0.117237, 0.074493, -0.073309, -0.037619, 0.064589, 0.078472, 0.036917, -0.006883, -0.034194, 0.123326, 0.134275, -0.026475, 0.085979, -0.001226, -0.028036, -0.023342, 0.087318, 0.033017, 0.059605, -0.021146, -0.041061, 0.042110, 0.049932, -0.055082, 0.036452, -0.031602, 0.064395, 0.069624, -0.018603, 0.136302, 0.072803, 0.056112, 0.011116, -0.079757},
  {0.121072, 0.032535, -0.014123, 0.005002, -0.093000, -0.007484, 0.060539, -0.055318, 0.008366, 0.087243, 0.085336, 0.000130, 0.081414, 0.076116, 0.106451, 0.101495, -0.070295, -0.023329, 0.021338, 0.066221, 0.031938, 0.049304, 0.124726, -0.039522, -0.039156, 0.088934, 0.032567, 0.038452, -0.031048, 0.012808, -0.069096, 0.122880, -0.009773, 0.117789, -0.045036, 0.038598, 0.090387, 0.068426, 0.141525, -0.000075, 0.130079, 0.004852, 0.028051, 0.054345, 0.005800, 0.023641, 0.002836, -0.019761, 0.040230, -0.033446, -0.034899, 0.036191, 0.094661, 0.085003, 0.066726, 0.003832, 0.141768, 0.056961, 0.063142, 0.049974, -0.070865, -0.042047, 0.023526, -0.043141, 0.074813, 0.012334, 0.032788, -0.013958, -0.002933, 0.119981, 0.074858, 0.084753, -0.023659, 0.118243, 0.088169, 0.041171, -0.023610, -0.042101, -0.068187, -0.047377, 0.081839, 0.122514, 0.074851, 0.003142, 0.005636, 0.088553, -0.005118, 0.095104, 0.044986, -0.031787, 0.070810, 0.037768, 0.015085, 0.024470, -0.000299, 0.129747, 0.082785, 0.080458, 0.017407, 0.075716, 0.046542, 0.090671, 0.058018, -0.000892, 0.105094, 0.047348, 0.060768, 0.070744, 0.052990, -0.005640, 0.117264, 0.075666, 0.067310, 0.052095, -0.019315, -0.014943, -0.032759, -0.018442, -0.043273, -0.027000, 0.019955, -0.000595, -0.018232, 0.069788, 0.059122, 0.028232, 0.067145, 0.108059},
  {0.044173, -0.006923, -0.047309, 0.069297, -0.094218, -0.040884, 0.048667, -0.040737, 0.074016, -0.032831, 0.033245, -0.010313, 0.083701, -0.003619, 0.118432, 0.128894, -0.056251, 0.018160, 0.003172, 0.103811, 0.020461, 0.119753, 0.040912, 0.036987, 0.040421, 0.006830, -0.015935, 0.060951, 0.103725, 0.011945, 0.010342, 0.017051, 0.045459, 0.069283, 0.075657, 0.094405, -0.029006, 0.095484, 0.120488, -0.032216, 0.065038, 0.046800, 0.053403, 0.074413, 0.119613, -0.041436, 0.047586, 0.068179, 0.057847, 0.006053, -0.022761, -0.039225, 0.096764, 0.048334, 0.030116, 0.042413, 0.092495, 0.089967, 0.012781, 0.094118, -0.086670, 0.014309, -0.033880, -0.058140, 0.034414, 0.014441, -0.031095, 0.075168, 0.094629, 0.056990, 0.118979, 0.037010, 0.036607, 0.122412, 0.049985, 0.075046, -0.005113, 0.029231, -0.046296, -0.060022, 0.054977, 0.101434, 0.026511, 0.041303, 0.002692, -0.021857, -0.055007, 0.080948, 0.101968, 0.106233, 0.041941, 0.067767, 0.081219, 0.093255, 0.119759, -0.021085, -0.029718, -0.058980, -0.004885, 0.001014, -0.038236, -0.040916, 0.048419, 0.124959, 0.060411, -0.051359, 0.089017, -0.028004, -0.034149, -0.047378, 0.099587, -0.043070, -0.002920, -0.039486, 0.079317, 0.130330, 0.041038, 0.039021, 0.020699, 0.002336, -0.051083, -0.032662, 0.081342, 0.125137, 0.050371, 0.097591, 0.046665, 0.064986},
  {0.086569, 0.020758, 0.003231, 0.029147, -0.077224, -0.002610, -0.024136, -0.046782, 0.087077, -0.059560, -0.008392, -0.008169, 0.136988, -0.093248, 0.048328, 0.105044, -0.006017, -0.001260, -0.048675, 0.015202, 0.052870, 0.116627, 0.120933, 0.061751, 0.045548, 0.091451, 0.091000, 0.026981, 0.068555, -0.005774, -0.002552, -0.007834, -0.008849, 0.129407, 0.055847, -0.018693, 0.098144, 0.099007, 0.117039, -0.050143, -0.043987, -0.010070, 0.071908, -0.074292, -0.007758, -0.018238, 0.125226, -0.050171, 0.052969, -0.079192, 0.122760, 0.073850, 0.048002, 0.049978, 0.110990, -0.028866, 0.014231, 0.062657, -0.060739, 0.087243, -0.092829, 0.095521, -0.015194, -0.065216, 0.082879, 0.104596, -0.041292, -0.017542, -0.014652, 0.027182, -0.031626, 0.016072, -0.022075, -0.035871, -0.048415, 0.127662, -0.009133, -0.015165, -0.037789, -0.044387, 0.081276, -0.011917, -0.043150, 0.043164, 0.030446, -0.017501, -0.080880, 0.129970, 0.031122, 0.088490, -0.072132, 0.038937, 0.000487, -0.032653, 0.132201, 0.075509, 0.041494, 0.083037, 0.047888, 0.081067, 0.002718, 0.052627, -0.015588, -0.019333, 0.011451, -0.071239, 0.112801, -0.063861, -0.041178, -0.060065, 0.048483, 0.036021, -0.089140, -0.078795, 0.071028, 0.130640, 0.033140, -0.044004, 0.051954, -0.026842, 0.028045, -0.034403, 0.117586, -0.019578, -0.003785, 0.058480, -0.043170, 0.046578},
  {0.139376, -0.028297, 0.046806, 0.097000, -0.048856, 0.031123, -0.017783, 0.033877, -0.081714, 0.094207, 0.114114, -0.017017, -0.035372, 0.015104, 0.031172, 0.105626, -0.013196, 0.008622, -0.032545, 0.124584, 0.055166, -0.013658, -0.046401, 0.026212, -0.078115, 0.053424, -0.015707, -0.055228, -0.048317, -0.000994, 0.011958, 0.126301, 0.100854, -0.023375, 0.012237, 0.135372, 0.083805, -0.007746, -0.020782, -0.002865, 0.045126, 0.094379, 0.137092, 0.076388, 0.019332, -0.042128, 0.064685, 0.074458, 0.086685, -0.069940, 0.068487, 0.020113, -0.009912, 0.132583, 0.040289, 0.072440, 0.017152, -0.045664, 0.140355, 0.059405, 0.063379, 0.061208, 0.062175, -0.010539, -0.003507, -0.083070, 0.110585, 0.083338, 0.067002, 0.090305, 0.003978, 0.082806, 0.112754, 0.072872, 0.107955, -0.064050, 0.086147, 0.011638, -0.041834, 0.000909, 0.099476, -0.000089, 0.125662, -0.035466, 0.068079, 0.108129, -0.016908, 0.124956, 0.011426, 0.064133, -0.065471, 0.017909, 0.095566, -0.034578, -0.080946, -0.023500, 0.050093, 0.058632, 0.040737, 0.085308, -0.026882, 0.106604, 0.043465, -0.006884, 0.026621, -0.036586, 0.085453, 0.076274, 0.027745, 0.137682, -0.008728, -0.069532, 0.103866, -0.079947, 0.085116, 0.135482, 0.037035, -0.025679, -0.090064, -0.005616, 0.052903, -0.031059, 0.032483, 0.062529, -0.014741, -0.029621, 0.020308, 0.099824},
  {0.009825, -0.068842, -0.008665, -0.087293, 0.083975, -0.085211, -0.038640, 0.100687, 0.020623, -0.084783, 0.021748, -0.068603, -0.111858, -0.037996, -0.064087, 0.015067, 0.033266, 0.068321, 0.109495, 0.026345, 0.012120, -0.094928, 0.030918, 0.101847, 0.015612, -0.021245, -0.034145, 0.056233, -0.116056, 0.042911, 0.057993, -0.033189, 0.079754, -0.080736, 0.011351, -0.024707, -0.027051, -0.113430, -0.043410, 0.069983, -0.061932, -0.031158, -0.036364, -0.053885, -0.112317, -0.053206, -0.072805, 0.010179, -0.076364, -0.013696, 0.016001, 0.025267, 0.051675, 0.020830, -0.095840, 0.098498, -0.144151, 0.057042, -0.131345, -0.123060, 0.051417, 0.081382, -0.011683, 0.051533, -0.008920, 0.051690, -0.057921, -0.094213, -0.056158, -0.103687, -0.098953, -0.093141, -0.104732, -0.060450, -0.074952, 0.054217, 0.013721, -0.034452, 0.111517, 0.091846, -0.106792, -0.141879, -0.078014, 0.073153, 0.116373, -0.067516, 0.067396, -0.093386, 0.024010, -0.000714, 0.081622, -0.099070, -0.044737, -0.048885, 0.058676, -0.069747, 0.119686, 0.027028, 0.084624, -0.025419, -0.069077, -0.090706, 0.113672, -0.010425, -0.123213, 0.125207, -0.000218, 0.092813, 0.022381, -0.026053, -0.019998, 0.018607, -0.052999, 0.031922, 0.000581, -0.027444, -0.030216, 0.020312, 0.001244, 0.076241, -0.104785, 0.003249, -0.050484, -0.063096, -0.003612, -0.000982, -0.073868, -0.041672},
  {0.081661, 0.059033, 0.089528, -0.015730, 0.019194, -0.051526, 0.050399, -0.026887, 0.048531, 0.011388, -0.001707, -0.058371, 0.129914, -0.055474, 0.060028, 0.010928, 0.030730, -0.017535, -0.034314, -0.000091, 0.000832, 0.100732, -0.007250, -0.012668, 0.127942, 0.046999, 0.018685, 0.083740, -0.034321, -0.022805, -0.008929, -0.015939, 0.048245, 0.132049, -0.059248, -0.105813, -0.007639, 0.030015, 0.021107, -0.025207, 0.076910, 0.045872, -0.053254, -0.063588, 0.008519, 0.051655, 0.122932, -0.041324, 0.090968, -0.100408, 0.003872, 0.098003, 0.086929, -0.000504, -0.037240, 0.055467, -0.038555, 0.110100, 0.045532, -0.010853, 0.006762, -0.019344, -0.033279, -0.075342, 0.112586, 0.058159, -0.034595, 0.045977, -0.042629, 0.055507, -0.038302, -0.047156, 0.096855, 0.005314, 0.039239, 0.013628, 0.093446, -0.024496, -0.075267, 0.000192, 0.024504, 0.068494, 0.037291, 0.034082, -0.094731, -0.019773, 0.002788, 0.088000, 0.066274, -0.000220, -0.099068, 0.132997, -0.047839, 0.028050, -0.009988, 0.093997, -0.006880, -0.006609, 0.031600, 0.063157, 0.029400, -0.072003, -0.047563, 0.075664, 0.021631, -0.043794, 0.000627, -0.041368, -0.045685, 0.010611, 0.002455, 0.045855, -0.092428, -0.042329, -0.037822, 0.041522, -0.094549, 0.036576, -0.006516, -0.014039, 0.017245, 0.050336, 0.088433, 0.092041, 0.087510, 0.102079, -0.021594, -0.034879},
  {0.024694, -0.031292, -0.084610, 0.020300, 0.007622, 0.117665, 0.059223, -0.023736, 0.059392, 0.025560, 0.013613, 0.015524, -0.006977, 0.092612, -0.103619, -0.022999, -0.021084, 0.043004, 0.002053, 0.018727, 0.077343, 0.108390, -0.112928, 0.023464, -0.014542, 0.043740, 0.096283, -0.055656, -0.017422, -0.001787, 0.036592, 0.103298, 0.054072, -0.033974, 0.018276, 0.080754, 0.023814, -0.039024, 0.008880, -0.075221, 0.146559, -0.045092, 0.052653, 0.119865, -0.061375, 0.080572, 0.044026, 0.047305, -0.023219, 0.012292, 0.006984, 0.032528, -0.032174, 0.019846, 0.055918, 0.068591, 0.035007, -0.037085, 0.077998, 0.039122, -0.019438, -0.031576, 0.030857, 0.087803, -0.016067, 0.008125, 0.055634, 0.045217, 0.121873, 0.002603, -0.013759, 0.107218, -0.015737, 0.124604, -0.006723, -0.019794, -0.049361, -0.012272, -0.011881, -0.025125, 0.110754, 0.031564, 0.017771, 0.010149, -0.042190, 0.091069, 0.020359, 0.027820, 0.013307, -0.025749, 0.079368, -0.028844, 0.039756, 0.089843, -0.066409, 0.087629, -0.019520, 0.076201, 0.020669, 0.024484, -0.050052, 0.053389, 0.039601, -0.013903, 0.052788, 0.003974, -0.061441, -0.012286, 0.131360, 0.111253, -0.005821, 0.012288, 0.054095, 0.055933, 0.048150, -0.011326, -0.017838, -0.088484, -0.090556, -0.030930, 0.061270, 0.055520, -0.026790, 0.031330, 0.102174, -0.044118, 0.048328, 0.072050},
  {-0.108492, -0.030586, 0.116063, 0.003349, 0.086682, -0.095305, -0.010212, 0.089936, 0.052355, -0.019863, -0.085485, -0.060780, -0.039605, -0.049134, -0.053839, -0.050648, -0.031655, 0.051352, 0.089848, -0.073181, -0.034313, -0.102238, -0.000731, 0.029336, -0.082207, 0.087805, -0.092042, 0.044122, -0.027095, -0.008048, 0.013522, 0.056634, 0.066286, 0.018783, -0.084872, -0.092204, -0.092490, -0.002137, -0.038266, 0.056033, 0.017711, -0.024643, 0.016048, -0.000293, -0.100267, -0.040444, 0.031823, -0.107139, -0.043242, 0.041915, -0.062216, -0.057492, -0.019512, -0.042754, -0.061109, 0.063700, -0.066913, 0.082689, 0.035738, -0.031482, -0.028506, 0.054660, -0.073570, 0.026284, 0.002352, 0.012364, -0.012554, -0.076415, -0.004594, -0.046305, 0.010349, -0.113400, 0.046923, 0.027631, -0.018936, 0.081566, -0.085817, -0.001679, 0.093384, 0.077264, -0.008965, 0.008283, 0.034845, 0.100439, 0.084633, 0.020386, 0.009451, -0.100367, -0.072479, -0.051281, -0.009153, -0.084168, 0.034047, -0.101403, -0.063883, -0.047615, -0.012720, 0.085424, 0.107735, -0.024812, -0.106006, -0.033756, 0.018066, 0.036306, -0.038679, 0.048532, -0.028423, 0.017797, -0.111471, 0.016380, -0.070671, 0.106921, -0.113665, -0.026310, -0.075113, -0.083194, 0.008470, 0.007414, 0.004129, 0.055401, -0.036406, 0.078817, -0.136326, 0.040055, -0.000057, 0.052351, -0.086741, -0.042505},
  {0.104982, 0.043654, -0.010377, 0.074196, -0.087980, -0.013332, 0.045844, 0.037504, 0.031428, -0.010270, 0.054679, -0.029968, 0.021438, 0.021199, -0.098514, -0.016793, -0.009693, 0.004867, 0.055485, -0.010869, 0.092209, 0.009232, -0.050182, -0.056872, 0.054966, 0.000707, 0.046923, -0.043568, 0.013191, -0.016929, -0.023459, -0.036267, -0.049414, -0.107461, 0.097755, 0.099857, 0.088897, -0.036870, 0.073840, 0.018027, 0.087018, -0.019380, 0.082934, 0.015204, 0.069800, -0.067039, -0.020060, 0.083690, -0.067574, -0.048364, -0.083543, -0.055062, 0.066933, 0.073790, -0.021198, 0.009160, 0.035413, -0.046094, 0.052331, 0.034340, -0.043172, 0.025486, 0.093340, 0.079178, 0.037537, -0.016581, 0.096999, 0.065506, 0.033627, 0.066481, 0.036864, 0.080242, -0.066041, 0.045041, -0.031764, 0.049679, 0.065605, 0.062926, -0.083570, 0.069042, 0.046927, 0.067621, -0.038751, -0.074357, 0.066954, 0.069197, 0.102332, -0.062399, -0.043975, 0.001906, 0.021058, 0.024997, -0.033032, -0.048491, 0.015926, 0.002369, -0.091060, 0.044832, -0.033479, 0.054004, 0.024747, -0.007543, 0.068178, -0.108005, 0.051315, 0.031169, -0.097395, 0.109321, 0.024001, -0.053642, -0.035979, -0.064411, -0.005734, -0.014330, 0.070734, 0.082961, 0.068532, 0.002630, 0.029286, 0.000836, 0.123049, 0.028848, 0.079324, -0.077781, 0.053687, -0.012250, -0.030035, 0.028135},
  {-0.041543, -0.002466, 0.079607, 0.053824, 0.020759, -0.039185, -0.007757, 0.044663, -0.015833, 0.020772, -0.042197, -0.073614, 0.040351, -0.032428, -0.015450, -0.019130, -0.003193, -0.063977, -0.017816, 0.110513, 0.030423, 0.023832, 0.039000, 0.003629, 0.016281, 0.059117, 0.045046, 0.046554, 0.123197, -0.021195, 0.025705, -0.057476, 0.074149, 0.015862, -0.028520, -0.044000, 0.082842, 0.028459, 0.027098, 0.057229, 0.031326, 0.076479, 0.105554, -0.091475, -0.049825, -0.023135, 0.089035, -0.031892, 0.022760, -0.088521, 0.021779, -0.026094, 0.049533, -0.030530, -0.036353, 0.000639, -0.007350, -0.033202, -0.028125, 0.093501, -0.046787, -0.003648, -0.008737, -0.074193, 0.066357, 0.040266, 0.030401, 0.077890, -0.073036, -0.004927, 0.088078, 0.096374, 0.027395, 0.062302, -0.020157, 0.049085, 0.107795, 0.095484, -0.002921, -0.031121, 0.105786, 0.064237, -0.047034, -0.090109, -0.047071, 0.071861, -0.066799, -0.028679, 0.014132, -0.009538, -0.037099, 0.117800, -0.031232, 0.012235, 0.065141, 0.083144, 0.043278, -0.031606, -0.055122, 0.081718, -0.017459, 0.060378, -0.039666, 0.083473, 0.130802, -0.054881, 0.009111, -0.107261, -0.000245, -0.041927, 0.081398, 0.076967, -0.083106, -0.050637, 0.002262, 0.064679, -0.089023, 0.097377, 0.018485, 0.000501, 0.078346, 0.048713, 0.088908, 0.041874, 0.098919, 0.015591, 0.049412, -0.041998},
  {-0.027702, -0.088144, 0.098840, -0.071218, 0.029739, -0.051265, 0.059428, -0.015009, -0.000652, 0.039794, -0.015205, -0.050316, 0.070505, -0.016833, 0.121408, 0.038315, -0.012742, -0.018648, 0.038304, 0.003772, -0.030588, 0.025087, 0.071563, -0.039134, 0.086670, 0.030888, 0.048902, -0.041360, 0.110997, -0.027054, 0.042626, 0.068556, 0.055265, -0.031382, -0.095689, -0.086105, 0.059513, 0.069632, 0.006802, 0.100842, -0.076014, 0.059244, 0.008567, -0.047310, -0.021288, 0.117366, -0.056767, 0.038586, 0.029906, -0.080925, -0.009356, 0.103338, -0.076272, -0.011090, 0.048179, 0.037278, -0.010237, 0.061052, 0.018789, 0.105280, -0.017368, 0.069137, -0.056638, 0.004348, 0.037854, 0.005364, 0.035503, 0.037196, -0.093417, -0.075050, 0.047737, 0.019500, -0.038750, -0.053162, -0.042785, 0.035422, 0.101396, -0.053206, -0.015464, 0.093313, 0.034625, 0.026029, -0.041723, 0.087846, 0.004507, -0.091297, -0.076015, 0.003055, -0.073950, 0.039498, -0.028888, 0.102402, -0.012447, -0.051279, 0.040191, 0.087124, 0.009223, 0.077039, -0.033270, 0.067591, 0.004445, -0.057700, -0.017927, -0.019795, -0.008939, 0.056583, 0.053872, 0.053884, 0.027808, -0.076080, 0.059281, -0.017937, -0.017141, -0.053377, 0.028669, 0.041481, -0.030547, 0.043069, 0.026730, 0.045153, -0.040104, 0.034265, -0.010435, 0.011185, 0.102705, 0.068300, -0.072443, -0.034740},
  {0.010115, -0.077256, 0.102351, -0.106193, 0.086337, -0.018168, -0.040513, 0.107096, 0.141099, -0.097895, 0.018958, -0.017650, 0.103838, -0.069366, 0.119100, -0.043395, 0.033096, 0.006903, 0.018871, 0.010216, 0.044291, -0.018738, 0.037613, -0.011723, 0.056372, -0.005071, 0.019499, 0.056845, 0.024595, 0.005458, -0.061220, 0.026174, 0.041741, 0.085213, -0.105062, -0.045364, -0.064076, 0.014527, 0.005160, 0.024598, -0.091114, 0.105987, 0.049161, -0.093104, -0.047550, 0.068468, 0.017436, -0.012363, 0.043134, -0.049579, -0.010804, 0.100010, -0.056280, -0.098271, 0.009128, 0.073798, -0.049977, -0.001287, -0.080665, -0.036622, 0.077463, 0.003086, -0.008154, 0.015385, 0.059051, 0.012772, 0.053795, 0.014067, -0.023431, 0.018471, -0.017487, 0.039082, 0.108652, -0.093801, -0.015871, 0.108987, -0.042048, -0.011242, -0.071847, 0.065870, 0.053995, -0.053966, -0.046449, 0.008830, 0.050164, 0.013938, 0.069427, 0.092385, 0.043494, 0.075346, 0.042126, 0.118312, -0.002129, 0.083954, 0.029798, -0.038517, -0.018362, -0.049258, -0.041210, 0.107388, 0.085095, -0.091749, 0.060757, 0.009093, 0.111079, 0.049393, 0.006080, -0.065816, 0.054764, -0.061369, -0.036169, -0.037472, -0.006499, -0.013442, -0.050056, -0.022065, -0.023486, 0.053245, -0.006157, 0.106610, -0.054390, 0.110931, -0.032906, 0.079732, 0.005376, -0.020465, -0.048073, -0.094174},
  {-0.045264, 0.046548, -0.078678, 0.030976, 0.077243, 0.096250, 0.053288, -0.090124, -0.033349, -0.034579, 0.062670, -0.021623, -0.008842, 0.091771, 0.038097, 0.050623, -0.064308, 0.013870, 0.043224, -0.062112, 0.017638, -0.008773, -0.066775, -0.005568, -0.101714, 0.046656, 0.064287, -0.020242, -0.078733, -0.055152, -0.023429, 0.007273, -0.058599, -0.021307, 0.087441, -0.050675, 0.080446, -0.033464, 0.042570, -0.044647, 0.115072, 0.055198, 0.049582, 0.116635, -0.044880, -0.055207, 0.105104, 0.010051, 0.064455, -0.070829, 0.045430, -0.015670, 0.036257, -0.022527, 0.025780, -0.061536, 0.137028, 0.049528, -0.008051, -0.078525, -0.064446, -0.014842, 0.043599, 0.070559, 0.050942, -0.057779, 0.011212, 0.043576, 0.008011, -0.014405, 0.063076, 0.086402, -0.072465, -0.084259, -0.040271, -0.084520, 0.044339, 0.072744, -0.012148, -0.025875, -0.051100, -0.021690, -0.027971, -0.088491, -0.004949, -0.005489, 0.007121, 0.011136, -0.032946, -0.000102, 0.103921, 0.001047, 0.070052, 0.090575, -0.064656, -0.007744, 0.067930, 0.065963, 0.082704, -0.068389, -0.077886, -0.012584, 0.012924, -0.083852, -0.086171, -0.074865, -0.076765, -0.041842, 0.003659, 0.008920, -0.033487, -0.013590, -0.048134, -0.015685, -0.052887, 0.063630, -0.011702, -0.002893, -0.030843, 0.039834, -0.043813, -0.003965, -0.009224, 0.063615, 0.068370, -0.102191, 0.015662, 0.044620},
  {-0.049889, -0.023860, 0.043582, -0.067821, -0.055624, -0.006175, 0.074887, -0.074556, 0.057892, 0.048653, -0.068346, 0.029086, -0.009343, -0.031959, 0.137071, 0.087157, 0.049455, 0.046929, -0.059350, -0.006853, -0.043408, 0.064221, 0.091984, 0.023858, 0.045294, 0.056312, 0.020552, 0.022519, 0.048975, 0.125475, -0.070487, 0.020408, -0.039204, -0.004803, -0.007945, -0.027854, 0.024799, 0.105910, 0.092669, -0.063069, -0.062836, 0.013694, -0.018073, -0.032641, 0.071135, 0.029432, 0.106245, -0.050415, 0.122560, -0.035255, 0.107312, 0.075324, 0.013705, 0.076835, -0.057922, 0.069200, 0.078672, 0.042806, -0.010422, 0.095882, -0.059008, -0.033794, -0.032280, 0.040085, 0.071885, 0.104713, 0.077106, 0.037152, -0.000166, 0.061590, 0.045064, -0.060419, 0.016645, -0.051961, -0.068739, 0.059938, -0.020854, 0.077757, -0.057062, -0.046560, -0.009762, 0.035303, 0.013300, -0.022207, -0.074629, -0.064351, -0.080284, 0.118409, -0.025674, 0.098768, -0.007443, -0.009000, -0.059759, 0.060715, 0.018271, -0.015261, 0.050313, 0.097489, 0.022653, 0.129731, -0.043598, -0.054516, 0.106076, 0.021638, 0.049984, -0.054299, -0.009666, -0.008632, -0.058528, -0.015961, -0.002030, 0.091483, -0.069604, 0.003469, 0.057929, 0.039725, -0.085373, -0.010486, 0.008881, -0.024805, -0.050569, 0.051410, -0.035727, 0.098274, 0.060062, 0.022905, -0.013032, -0.105536},
  {-0.030909, 0.052154, 0.018595, -0.013474, -0.035378, -0.073777, 0.045606, -0.007960, 0.040140, -0.015450, -0.071507, 0.055061, 0.055901, -0.038579, 0.083202, 0.126565, 0.035501, -0.086729, 0.005590, -0.011114, -0.013026, 0.067836, 0.009215, -0.046671, 0.104752, 0.011384, -0.040761, 0.053181, 0.101051, 0.005645, -0.085273, -0.060001, 0.020134, 0.126515, -0.007897, -0.054413, -0.050971, -0.017383, 0.010248, 0.010255, 0.050524, -0.015282, -0.042402, -0.035141, -0.010434, 0.102166, 0.098093, -0.009169, 0.046700, 0.046336, 0.091930, 0.038647, -0.064353, -0.009086, -0.080366, 0.063442, -0.060278, 0.066130, -0.110353, 0.122174, 0.033381, 0.025402, 0.002246, 0.006262, 0.010264, -0.011633, 0.077724, 0.022836, -0.055528, -0.024002, -0.069795, -0.052937, 0.077491, 0.016187, -0.049271, 0.039680, 0.049936, 0.095946, 0.063204, -0.028576, 0.005774, 0.097532, -0.020982, -0.046648, -0.087887, 0.057045, -0.016824, 0.113473, 0.050388, 0.026584, -0.009388, 0.093143, -0.028546, 0.031577, 0.117854, -0.042604, -0.039166, 0.084083, 0.014603, -0.007997, -0.054172, -0.068174, 0.063156, 0.079410, 0.118601, -0.063054, 0.124414, -0.041910, -0.104492, 0.078785, -0.011230, 0.057531, -0.009910, -0.044218, -0.050338, -0.045170, -0.035187, 0.050447, 0.096958, -0.050534, 0.036422, 0.096047, 0.032017, 0.038043, 0.123174, -0.046485, 0.002468, 0.054642},
  {-0.053563, 0.057046, 0.019019, 0.033715, 0.057659, 0.055673, 0.125195, -0.105070, 0.166265, 0.001705, -0.029394, -0.008597, 0.071453, -0.005062, 0.137760, 0.058657, 0.002789, -0.017100, 0.008202, 0.037256, -0.040137, 0.076489, 0.037491, 0.032994, 0.113594, -0.015038, -0.060778, 0.079564, 0.045277, 0.064437, -0.045315, -0.026054, 0.004557, 0.075305, -0.062346, -0.094564, 0.050754, 0.088246, -0.012491, -0.089203, -0.096896, -0.004282, -0.014237, 0.003293, 0.091177, -0.001353, 0.059707, 0.048639, 0.138922, -0.056846, -0.017068, 0.120745, 0.017086, 0.015773, -0.081222, 0.048358, -0.055073, -0.013753, -0.043938, 0.006731, -0.053667, -0.023346, -0.042024, 0.040523, 0.096517, 0.016872, 0.053975, 0.000551, 0.014562, -0.008780, -0.071441, 0.062608, -0.015147, 0.007189, 0.037176, 0.128561, 0.027845, -0.056809, 0.029864, -0.054578, -0.029735, 0.018258, 0.008056, 0.096625, -0.111694, 0.001542, -0.006653, 0.042597, 0.036730, 0.051434, -0.070992, 0.122093, 0.066851, 0.086479, 0.131849, 0.049585, 0.003704, 0.065389, -0.034761, -0.005393, -0.027459, -0.071567, 0.071774, 0.120845, 0.006320, -0.061210, 0.081664, -0.076134, -0.021510, -0.026789, 0.003120, 0.075855, -0.028557, 0.059399, -0.067232, 0.129983, 0.005727, 0.036522, 0.092519, 0.036254, 0.065126, 0.048575, 0.039191, -0.024623, 0.056087, -0.005764, 0.001765, -0.010276},
  {-0.038302, -0.050475, 0.063911, -0.072495, 0.022021, 0.052400, 0.069861, 0.069615, 0.127998, -0.042978, -0.075956, -0.070017, 0.004484, -0.076939, 0.090084, 0.125756, 0.102274, 0.069388, -0.018819, -0.024895, -0.010158, -0.016653, 0.065754, -0.052746, 0.055122, 0.050425, -0.049964, 0.085255, -0.002891, 0.024325, -0.047715, -0.056471, 0.084395, 0.120112, -0.039636, -0.019264, -0.082560, 0.112862, -0.061069, 0.117475, 0.029554, -0.032444, 0.012285, -0.030033, 0.028113, 0.116626, 0.058594, -0.039100, 0.098500, -0.069870, -0.029950, 0.030335, -0.018750, -0.016737, -0.070111, 0.127842, -0.092295, 0.104617, -0.049867, 0.105873, -0.065858, -0.081730, 0.039098, -0.046241, 0.006193, 0.110113, -0.070957, 0.009383, -0.061928, 0.073451, 0.075951, 0.094399, -0.006202, -0.068544, -0.002781, 0.040800, 0.095084, -0.033682, 0.052983, 0.003481, 0.059091, -0.006235, 0.014816, 0.042100, 0.047945, -0.091211, -0.002406, -0.049571, 0.023605, 0.065725, -0.061505, 0.042048, 0.028658, 0.087028, -0.040984, -0.040470, 0.030581, -0.044786, 0.017686, 0.023704, 0.049738, -0.106132, 0.039327, 0.121084, 0.040976, 0.072611, 0.089892, 0.017982, -0.074633, -0.054391, 0.106947, 0.084927, -0.106653, -0.048056, 0.020544, -0.047612, 0.080993, 0.064273, -0.037595, 0.124908, -0.004280, 0.000620, -0.004649, 0.016033, 0.035732, 0.001977, 0.058816, -0.007293},
  {0.102289, 0.085780, -0.033270, -0.024926, -0.055816, -0.045803, 0.013926, -0.038941, -0.046645, -0.019851, -0.047306, 0.034670, -0.069416, 0.088569, 0.018515, -0.088425, 0.051404, 0.075027, -0.002192, -0.005958, 0.110870, -0.006375, 0.014772, -0.052752, -0.030930, -0.055145, -0.021051, -0.037812, -0.033779, -0.068132, -0.049801, 0.043057, -0.001727, -0.086958, 0.113026, 0.083928, 0.043943, 0.030421, 0.124897, -0.003177, 0.061101, 0.042801, 0.053068, 0.114194, -0.007440, -0.011035, -0.025770, 0.020881, -0.039545, 0.016887, -0.065527, -0.026978, -0.036550, 0.016124, 0.017481, 0.084991, 0.032178, 0.055177, 0.098380, -0.018203, -0.052035, -0.061849, -0.027164, -0.049714, 0.008741, -0.104333, 0.036216, -0.038741, 0.032764, 0.015960, 0.015001, 0.095576, 0.035287, 0.094401, 0.003094, 0.027244, 0.034062, 0.084887, -0.030416, 0.029259, -0.026440, 0.102606, -0.008052, -0.053363, 0.085381, 0.055146, 0.034038, -0.018644, -0.015964, -0.020182, -0.041476, -0.043588, 0.047612, 0.103523, -0.086944, 0.061250, 0.002014, -0.030644, -0.014042, -0.098392, 0.015316, -0.044590, 0.056520, -0.047958, 0.081249, -0.072101, -0.020152, 0.102122, 0.008310, -0.038308, 0.010906, 0.039747, 0.114129, 0.058248, -0.023376, 0.017748, 0.093643, -0.045195, -0.013334, 0.062593, 0.077156, 0.067786, -0.030220, 0.069554, -0.069288, 0.029798, 0.118945, 0.073238},
  {0.095705, 0.029291, -0.071323, 0.068265, 0.054282, 0.009648, -0.063322, -0.049623, -0.020505, 0.086126, 0.080939, 0.066629, 0.011388, -0.024226, -0.003915, -0.018879, 0.008383, 0.106374, -0.032383, -0.021566, 0.069470, 0.114264, -0.001465, 0.064642, -0.006066, 0.038489, -0.026868, -0.021491, 0.077809, 0.036112, -0.035903, 0.110688, 0.103985, -0.001086, -0.003538, 0.025671, 0.056806, -0.054366, -0.012381, -0.077706, 0.066242, -0.017397, 0.140114, -0.007318, -0.007807, 0.036656, 0.032121, 0.050077, -0.133804, 0.057803, 0.013581, -0.001607, 0.134551, 0.074046, 0.067479, 0.071832, 0.151496, -0.077136, 0.124554, -0.042444, 0.003429, -0.047529, 0.049426, 0.078851, -0.052389, -0.038709, 0.028129, 0.044808, 0.077448, 0.054366, 0.057066, 0.055924, -0.089474, 0.026774, 0.070824, 0.047500, -0.029259, 0.034613, -0.062143, 0.093499, 0.049218, 0.041320, 0.114396, -0.083665, 0.031277, 0.028196, -0.051917, -0.020650, 0.075429, -0.062152, 0.017739, -0.024425, -0.013879, -0.036614, 0.019223, 0.111727, -0.044455, 0.030605, 0.064175, -0.101833, -0.004057, 0.122971, 0.025821, 0.052944, 0.036890, 0.002458, 0.018230, 0.031687, 0.042437, 0.128983, -0.067296, 0.020327, 0.110725, 0.025393, 0.093739, 0.048424, -0.030655, -0.067667, -0.112871, -0.026740, 0.053384, 0.004358, 0.098697, -0.066437, 0.051888, 0.066622, 0.104690, 0.069910},
  {-0.024705, 0.025891, 0.062279, -0.004540, 0.067782, 0.050951, 0.059814, -0.021338, -0.017833, 0.082454, 0.100129, 0.056586, 0.012605, -0.007506, 0.092735, 0.037697, 0.100824, -0.036143, -0.034051, 0.124565, -0.032807, 0.112298, 0.095988, -0.060205, -0.048137, 0.000069, 0.082485, -0.055639, 0.129408, 0.131201, -0.090492, 0.032055, 0.094677, -0.006424, 0.096660, 0.083581, 0.001917, 0.023531, 0.029644, 0.046664, -0.042894, 0.040095, -0.036472, 0.100569, 0.058957, 0.067245, 0.040405, -0.037590, 0.030321, 0.008696, 0.120934, 0.120380, 0.084425, -0.013718, 0.027088, -0.009207, 0.086800, -0.002686, 0.103289, 0.065618, -0.055011, -0.064327, 0.039449, -0.036742, 0.043641, 0.087141, 0.116204, -0.002386, 0.031324, -0.026788, 0.092679, 0.055434, 0.004992, 0.043633, -0.058049, 0.078555, 0.147117, 0.112209, -0.044753, -0.017164, 0.120657, 0.017347, 0.001657, -0.075386, -0.069152, 0.096910, 0.032022, -0.038926, 0.088786, 0.070702, 0.056900, 0.116185, 0.092459, 0.089838, -0.020056, 0.121629, 0.024040, 0.032753, -0.049427, 0.099157, -0.006111, -0.039421, 0.078091, 0.062845, 0.089749, 0.038330, 0.141274, -0.041333, -0.048891, -0.000556, 0.053277, -0.017113, 0.018828, -0.039478, 0.073711, 0.073200, 0.003169, 0.014692, 0.030860, 0.027592, 0.115311, -0.022622, 0.135211, 0.056098, 0.127284, 0.096626, -0.007890, 0.107685},
  {0.092817, 0.098547, -0.052231, 0.075177, 0.010804, 0.041634, 0.052912, -0.016115, -0.072169, -0.010686, 0.085153, 0.072395, -0.089984, 0.128433, -0.116037, 0.021133, 0.039952, -0.052805, 0.025753, 0.029512, 0.034780, -0.022515, -0.059439, 0.094720, -0.026587, 0.013691, 0.036945, 0.067724, -0.001631, 0.021376, 0.137920, 0.107323, 0.060347, 0.002853, 0.099440, 0.118046, 0.011661, -0.086912, -0.002292, 0.094875, -0.009067, -0.001449, 0.103355, 0.054947, -0.064913, -0.002897, 0.063848, -0.014139, -0.008882, 0.093399, -0.079890, -0.000422, 0.003412, -0.007183, 0.016088, -0.052119, 0.133858, 0.049108, 0.118033, -0.108081, 0.103761, -0.053434, 0.029739, 0.059868, 0.054574, 0.057705, 0.088899, 0.097489, -0.009668, 0.090375, 0.052152, 0.085490, -0.035049, 0.106104, 0.103792, -0.066161, 0.012645, 0.055314, -0.018460, 0.052647, -0.064355, 0.020388, -0.012511, 0.065538, -0.024578, 0.089944, 0.094309, 0.074030, 0.083390, 0.033265, 0.041337, -0.123016, 0.045117, 0.035479, -0.050155, 0.023119, 0.051124, 0.021451, 0.067461, -0.105126, -0.013057, 0.016390, -0.013891, 0.030631, -0.020683, -0.019481, -0.078363, 0.099307, 0.079819, -0.012349, -0.033849, 0.039802, 0.093601, -0.069997, 0.044543, 0.072959, 0.078956, -0.084812, -0.056878, -0.024772, 0.027207, -0.009470, 0.107037, -0.001141, -0.045049, -0.054237, 0.034765, 0.113068},
  {0.032009, -0.027900, 0.088394, 0.137086, -0.035741, -0.035144, 0.106341, -0.077552, 0.119651, 0.022117, 0.057858, 0.133035, -0.017784, 0.090091, 0.070490, 0.095991, 0.069572, 0.005812, 0.024115, 0.045775, 0.021664, 0.122164, -0.024801, -0.063280, -0.000188, -0.048879, 0.028703, -0.000963, 0.019306, 0.094260, 0.041133, 0.104727, 0.056829, 0.064754, 0.071358, 0.039529, 0.137691, 0.101833, 0.077814, -0.059127, 0.047265, -0.032934, 0.077653, 0.068486, 0.077755, 0.075747, 0.117289, 0.099824, 0.057092, -0.068125, 0.099499, 0.102271, -0.032805, 0.097679, 0.037346, 0.101091, 0.031961, 0.080214, 0.027558, -0.006731, 0.041633, -0.031267, 0.055839, -0.039229, -0.043931, -0.046599, 0.089397, 0.081487, 0.014936, 0.121476, 0.025142, 0.107734, 0.096116, 0.072893, -0.046752, 0.013513, 0.126548, 0.122949, 0.019753, -0.010887, 0.117184, 0.116434, 0.076995, 0.030672, 0.008334, 0.125030, 0.060224, 0.112507, 0.123343, 0.082181, -0.044256, 0.009856, 0.083424, 0.023295, 0.048527, 0.076319, -0.004220, -0.048964, -0.058593, 0.023307, -0.019637, -0.027125, -0.056575, -0.010092, -0.032090, 0.005790, 0.124899, 0.062748, 0.069366, 0.060837, 0.035321, 0.059078, 0.010278, -0.003329, 0.069607, 0.067448, -0.000877, 0.039632, 0.009730, -0.040065, -0.027817, 0.053043, -0.007462, 0.013149, 0.078734, 0.059371, 0.134594, -0.000931},
  {-0.021829, 0.124372, 0.020743, 0.061559, -0.034445, -0.008030, 0.019578, 0.045485, -0.036742, 0.061463, 0.077646, -0.016510, -0.015469, 0.041910, -0.032247, 0.098167, 0.003905, -0.050399, 0.028297, 0.136367, -0.042181, -0.026089, -0.066652, -0.014991, 0.088715, 0.087627, 0.086581, 0.069551, 0.051860, -0.026604, -0.039524, -0.033593, 0.069931, 0.061500, 0.102609, 0.128067, 0.115874, -0.014483, 0.091316, 0.042001, 0.088648, 0.076986, 0.100771, 0.016518, 0.070995, 0.040305, 0.109235, 0.068134, -0.005738, 0.032591, 0.066416, 0.055644, 0.038937, 0.126492, -0.012351, 0.092589, -0.007383, 0.031651, 0.038234, 0.061234, 0.046742, -0.031846, 0.019696, -0.035144, 0.043659, 0.048541, 0.027041, 0.115821, 0.120689, 0.119093, 0.103151, 0.004447, 0.079643, 0.106200, 0.009578, 0.103884, -0.032017, 0.007954, 0.011472, -0.001475, 0.137873, 0.063077, 0.028364, -0.072026, 0.063499, 0.062503, 0.013095, 0.130715, 0.030205, 0.097876, -0.061660, 0.010961, -0.030014, 0.011550, -0.028670, 0.096406, -0.065309, -0.026837, 0.064014, 0.109220, -0.044278, 0.017871, 0.034105, -0.033151, 0.080398, -0.056710, -0.047713, 0.040720, 0.043224, 0.103338, -0.000868, -0.069152, 0.081028, -0.074175, -0.010441, -0.030180, 0.018869, 0.045395, -0.056247, 0.046360, -0.019137, -0.061359, 0.010364, 0.112623, -0.035488, 0.111472, 0.131207, 0.094352},
  {0.105531, 0.062507, -0.035721, 0.063026, -0.016147, 0.073507, 0.061606, 0.026900, 0.089095, 0.065105, 0.104949, 0.119030, -0.009658, 0.065390, 0.056866, 0.000765, -0.052806, -0.031723, -0.047647, 0.112598, 0.023307, 0.029382, 0.117661, -0.047347, -0.039268, 0.000958, 0.103146, -0.051676, -0.027954, 0.103513, -0.028831, 0.097818, 0.108191, 0.051302, 0.117418, 0.085677, -0.035922, -0.025567, -0.004206, 0.002200, 0.115795, -0.017095, -0.003504, 0.039123, 0.024423, 0.104761, 0.118408, 0.010759, 0.055704, 0.056253, 0.009743, 0.112259, 0.098704, 0.113051, 0.103517, -0.033316, 0.103659, 0.072900, -0.022698, 0.085583, -0.007838, 0.022859, 0.002996, 0.079492, 0.072704, 0.017407, 0.058967, -0.014296, 0.000888, 0.096204, 0.069587, 0.048151, 0.134658, 0.074380, 0.035559, 0.118416, 0.071533, 0.017310, -0.022824, 0.060910, 0.008430, 0.005915, 0.045924, 0.032413, 0.064268, 0.104106, -0.008053, 0.026106, 0.096148, 0.066363, -0.034494, -0.046009, 0.095369, 0.031370, -0.042873, -0.041217, 0.024696, -0.046961, 0.054600, 0.058723, 0.025996, 0.062635, -0.044031, 0.106260, 0.078718, -0.059800, 0.053888, -0.049934, 0.018748, -0.010864, -0.005086, -0.032764, -0.027411, 0.002520, 0.116534, 0.112987, 0.011554, -0.027964, 0.054738, -0.028544, 0.127387, 0.011831, 0.082419, 0.008630, 0.091271, 0.027902, 0.030609, 0.093641},
  {0.032814, 0.004551, 0.062157, -0.003241, -0.093458, -0.002175, 0.076755, -0.015184, 0.029419, -0.033932, 0.007046, 0.083427, 0.062707, 0.033259, 0.011545, -0.012835, 0.031998, -0.066781, 0.008869, 0.135480, -0.014007, -0.029429, 0.003012, 0.024832, 0.044506, 0.044938, 0.144703, -0.016370, 0.106251, 0.085947, 0.053596, 0.063193, 0.061307, 0.132133, -0.024450, 0.030146, -0.054378, 0.034555, 0.058925, 0.028042, -0.002971, 0.034621, 0.016592, -0.057056, -0.034075, 0.072785, 0.142772, -0.024526, 0.051700, -0.006365, 0.026022, 0.046063, 0.049269, 0.036450, 0.066276, -0.023419, 0.019667, 0.037636, 0.072206, 0.011394, 0.039849, 0.058299, 0.059179, -0.066621, 0.086378, 0.004782, 0.054134, 0.096898, 0.094950, 0.116314, 0.002537, -0.011957, 0.074009, 0.042733, 0.001725, -0.003266, 0.071509, 0.112953, -0.016687, -0.005549, 0.151456, 0.070678, -0.000774, -0.064769, -0.039364, 0.030819, 0.037812, 0.085485, -0.000815, 0.028624, 0.026299, 0.111116, -0.023249, 0.066595, 0.049084, 0.096815, -0.028901, 0.044435, -0.057134, 0.019568, -0.048111, 0.030102, -0.029135, 0.110042, 0.130492, -0.049506, 0.106799, -0.053696, -0.031812, 0.029708, 0.050277, -0.047751, 0.009822, 0.033663, 0.014874, 0.095895, 0.034678, -0.012069, 0.059399, -0.044837, 0.005378, -0.027111, -0.020336, 0.098394, 0.007404, 0.097942, -0.009858, 0.008933},
  {-0.079553, 0.041714, 0.084287, -0.045609, 0.064979, 0.017929, 0.088042, 0.014732, 0.099889, -0.066398, 0.068469, -0.080094, 0.080294, -0.074526, 0.123570, 0.112767, 0.086539, -0.002374, -0.014493, 0.119345, -0.084272, 0.067940, 0.075032, 0.015086, 0.110875, -0.073282, 0.050426, -0.035459, -0.059042, 0.010793, -0.040839, 0.027449, 0.078009, 0.013203, 0.041136, -0.093217, -0.078496, 0.078975, -0.009912, 0.041243, -0.078075, 0.059134, -0.047436, 0.051201, 0.032471, 0.067733, -0.000284, 0.073257, -0.005837, -0.085327, 0.079326, 0.089132, 0.053335, 0.043584, 0.063066, 0.088601, -0.088018, 0.110158, -0.086718, 0.121088, 0.009907, -0.082549, -0.098280, 0.033286, 0.079236, 0.037243, 0.015830, 0.072462, 0.029662, -0.000991, -0.009949, -0.040186, 0.033570, 0.067640, 0.032655, 0.088442, 0.105847, 0.057889, 0.011229, -0.095288, 0.114344, 0.060421, -0.026925, 0.062384, 0.023623, 0.004268, -0.055312, 0.079699, 0.005615, 0.039204, -0.022387, 0.094800, -0.036719, 0.056862, 0.084142, 0.054823, 0.016024, 0.067683, 0.014741, 0.084909, 0.072069, -0.024614, 0.094489, 0.085552, 0.049339, -0.085622, -0.012450, -0.000511, -0.083554, -0.083958, 0.066862, 0.070341, -0.054203, 0.059619, -0.089072, 0.086042, 0.028491, 0.126461, 0.089996, 0.112920, 0.000899, -0.001888, -0.008140, 0.085050, 0.007640, -0.056642, -0.060205, -0.095817},
  {0.043034, 0.101517, -0.067287, 0.000880, -0.046753, -0.005663, -0.082067, 0.076410, -0.104716, 0.078737, -0.047104, -0.008693, -0.078269, 0.011424, 0.055235, -0.069783, 0.030910, 0.028884, -0.001544, -0.068137, 0.112728, 0.053081, -0.051751, 0.069480, 0.032708, 0.077230, -0.033788, -0.021887, -0.058781, 0.035829, 0.076592, 0.086159, 0.031868, -0.085355, 0.027507, -0.002463, 0.109207, -0.024039, 0.019118, -0.072182, 0.033845, 0.002190, 0.013361, 0.101580, -0.076743, -0.018414, -0.032581, 0.014040, -0.012363, 0.103208, -0.003901, 0.022591, -0.024703, 0.017141, -0.028786, 0.024399, -0.014575, -0.046818, 0.111078, -0.073484, 0.095224, -0.022993, 0.096495, 0.101972, 0.033015, -0.004543, -0.021321, 0.013964, 0.107459, 0.090772, 0.115613, 0.019499, -0.009687, 0.036280, 0.003430, -0.100632, 0.023648, -0.035080, 0.054822, 0.034767, -0.001396, 0.078691, 0.029201, -0.062739, 0.043044, 0.034876, -0.074305, 0.050242, 0.007238, 0.006589, -0.034222, -0.060613, 0.046496, -0.014328, -0.034966, 0.004089, -0.035486, 0.031839, -0.047702, 0.066132, 0.073234, 0.032835, -0.059410, 0.007176, 0.035134, -0.076595, 0.054782, 0.106708, 0.119792, 0.031485, 0.031173, -0.033444, -0.001157, -0.052656, 0.039072, 0.027860, 0.082477, 0.010114, -0.047605, -0.082735, 0.083995, 0.069781, 0.048410, -0.046286, 0.025947, 0.006007, 0.106305, 0.040070},
  {-0.059057, -0.050907, 0.050603, 0.042248, 0.040801, -0.043981, 0.048270, 0.082193, 0.107271, -0.031849, -0.028051, -0.031623, -0.009200, -0.014202, 0.066669, 0.030498, 0.021680, -0.029979, 0.096959, 0.032956, 0.059207, -0.028397, 0.119860, -0.009142, 0.052662, -0.061806, -0.054741, 0.009163, 0.104636, -0.066042, -0.082999, -0.065433, 0.008350, 0.070658, 0.063253, -0.095401, 0.022298, 0.101363, -0.059329, 0.064276, -0.074266, -0.043362, -0.048400, -0.065602, 0.035602, 0.104747, -0.025426, 0.069105, 0.008621, 0.057900, -0.039058, -0.047475, -0.006550, 0.013745, -0.057005, -0.046003, 0.026943, 0.106977, 0.044256, 0.043766, 0.000125, 0.057873, -0.021254, -0.038572, 0.061157, 0.080132, -0.083132, 0.036590, 0.010016, -0.055930, -0.038114, 0.029220, -0.008594, 0.001307, -0.013593, -0.008276, 0.036648, 0.014731, -0.043510, -0.037230, -0.022194, -0.054253, -0.008374, 0.097808, -0.008109, -0.053304, 0.000428, 0.105355, 0.054250, -0.055884, 0.027097, 0.056888, -0.028522, 0.040222, -0.008890, -0.031841, -0.010129, 0.014667, 0.005955, -0.017014, 0.030140, 0.033325, 0.055998, 0.065907, 0.067442, -0.082850, 0.103294, -0.060471, 0.021682, -0.000451, 0.101040, -0.027928, -0.076768, 0.072326, 0.028060, 0.083594, 0.030754, -0.036904, -0.033067, 0.031997, -0.009914, 0.087906, -0.015395, -0.004476, 0.095537, 0.037267, -0.075988, -0.059641},
  {0.083703, -0.009165, 0.042798, -0.031293, -0.095158, 0.032145, -0.020500, 0.062177, -0.087006, 0.033984, 0.041956, 0.033712, -0.063922, 0.051107, 0.069976, 0.057666, -0.004230, -0.074810, 0.003736, -0.105694, 0.091105, 0.015147, -0.059194, -0.007701, 0.047325, 0.057023, -0.045384, -0.081683, 0.022831, 0.004305, 0.029846, -0.056583, 0.044941, 0.011899, -0.044117, 0.054214, 0.058814, 0.006415, 0.057543, -0.045298, 0.007973, -0.065031, 0.057743, 0.020629, -0.053636, 0.024606, -0.035460, -0.069260, 0.010396, -0.023518, -0.003208, 0.062478, 0.077320, -0.059210, 0.045740, -0.021506, -0.008628, -0.053123, -0.008878, -0.004116, -0.069508, -0.046675, -0.017778, 0.032745, -0.005379, -0.028262, 0.051866, 0.010116, -0.072635, 0.015072, -0.005183, -0.024590, -0.100630, 0.093084, 0.038679, -0.013613, -0.070821, -0.058497, 0.044533, -0.049810, -0.046278, 0.000788, -0.065169, 0.026944, 0.024399, -0.049275, -0.032639, 0.002495, -0.004063, 0.057609, -0.070263, 0.026020, 0.039998, -0.025299, -0.060385, 0.022322, -0.064934, -0.086010, 0.005075, -0.047441, -0.045744, 0.107019, 0.046926, 0.014790, -0.035333, -0.027090, 0.003080, 0.095071, 0.070435, 0.096178, 0.045219, -0.007007, -0.035721, 0.039041, 0.055928, -0.052682, 0.045896, -0.035982, -0.093914, 0.024093, 0.049893, -0.038274, 0.064974, 0.017272, -0.006748, 0.024794, 0.092931, -0.041491},
  {-0.033380, -0.011731, 0.030980, -0.046176, -0.021889, 0.055960, -0.015927, -0.018867, 0.043102, -0.099444, -0.020345, -0.106542, 0.006747, -0.030904, 0.117188, 0.068750, 0.040653, 0.045501, 0.006372, 0.080261, -0.044319, -0.005594, -0.029769, 0.115251, 0.055975, -0.026426, 0.031181, 0.061177, -0.005750, 0.077317, 0.055918, -0.016084, 0.046494, 0.026426, -0.057930, -0.031855, -0.023648, 0.094031, -0.005901, 0.083889, -0.086191, 0.086893, -0.058329, -0.113947, -0.049956, 0.057839, -0.054533, 0.010438, 0.099651, -0.012836, -0.052205, 0.074883, -0.063687, -0.080096, -0.014956, 0.105079, -0.071954, 0.064863, 0.042291, 0.078313, -0.032129, -0.048836, -0.098906, 0.067982, 0.103266, 0.080138, -0.031543, -0.083181, -0.037406, -0.033095, -0.052922, 0.033186, 0.034066, -0.059680, -0.106756, 0.071138, -0.072731, 0.020942, 0.124350, 0.027219, -0.040377, -0.059853, -0.092412, 0.099037, -0.006207, -0.014236, 0.088163, 0.033674, -0.087451, -0.030589, 0.048582, 0.125981, 0.015071, -0.068162, -0.011116, 0.050839, -0.001603, -0.051536, 0.020064, 0.062768, -0.053272, 0.002197, 0.067512, 0.029257, -0.037951, 0.103984, -0.052120, -0.011981, 0.002406, 0.029001, 0.049005, -0.021124, -0.036961, 0.040451, 0.016751, 0.065699, 0.072406, 0.149733, 0.146786, 0.002021, -0.079321, 0.072006, -0.006514, -0.013646, 0.035107, 0.058243, -0.004400, -0.013007},
  {-0.030691, 0.074605, 0.087707, -0.008448, -0.047141, 0.070485, -0.014743, -0.013731, -0.011255, -0.022861, 0.047966, 0.001869, 0.104225, -0.056634, 0.113597, 0.101005, 0.074094, -0.061264, 0.064920, 0.042999, 0.059815, 0.107046, -0.031039, -0.020277, 0.078069, 0.083370, 0.056631, 0.032912, 0.083730, -0.022385, -0.043605, -0.017833, 0.007352, 0.091217, 0.062063, 0.017314, -0.080814, 0.047183, -0.011292, -0.005735, 0.012735, -0.067801, 0.010440, -0.010106, 0.000199, 0.061694, 0.004214, -0.044838, 0.017280, -0.072502, -0.024843, 0.084486, -0.047172, -0.022804, -0.015954, -0.005971, 0.054542, 0.036111, 0.020960, 0.002964, -0.090010, 0.053935, -0.056673, -0.062279, 0.055140, -0.012376, -0.055136, -0.010813, 0.019621, -0.044603, 0.052308, 0.043235, 0.039185, -0.055689, -0.089278, -0.001198, 0.064353, 0.011837, 0.022867, 0.031951, -0.018826, 0.095463, 0.047495, -0.033104, -0.105248, 0.053340, -0.098197, 0.061209, 0.068126, 0.085063, -0.042499, -0.021040, -0.048825, 0.040925, -0.006048, 0.039444, -0.043802, 0.061931, -0.031891, -0.006336, -0.037154, -0.086955, -0.037412, -0.006243, 0.098513, 0.043074, 0.045238, -0.024421, -0.019262, 0.022300, 0.020467, 0.031923, -0.020205, 0.016486, -0.083694, 0.046425, -0.088629, -0.037222, 0.065673, 0.075098, -0.054587, 0.100548, 0.053799, 0.058103, 0.072902, 0.065305, -0.082723, -0.066072},
  {-0.062208, -0.048167, -0.005775, -0.060233, -0.035066, -0.071666, 0.057817, -0.034912, -0.000158, -0.014837, 0.000197, 0.061639, -0.004266, -0.018584, 0.088323, 0.022518, 0.104016, -0.062643, 0.061913, 0.076758, -0.001210, -0.017304, 0.091529, -0.067660, 0.042429, 0.092251, 0.096263, 0.037682, 0.105683, 0.094966, -0.114452, 0.008963, 0.040076, -0.024110, 0.026222, 0.002915, -0.021332, -0.063354, -0.066783, 0.073295, -0.031330, -0.065483, 0.091497, -0.032942, 0.110613, -0.032309, 0.023335, -0.014404, -0.005865, -0.055710, 0.044875, 0.006443, 0.033948, -0.052792, 0.042507, -0.044901, -0.060383, 0.069790, -0.056768, 0.127292, -0.059800, 0.014368, 0.032187, -0.026610, 0.069485, 0.106688, 0.039738, 0.098376, -0.004150, -0.004094, 0.061331, -0.068350, -0.026433, -0.077895, -0.081618, -0.028459, 0.083196, 0.106122, -0.077893, -0.043577, -0.035208, 0.041114, 0.042377, 0.003412, -0.052356, 0.007805, -0.084700, -0.048884, -0.057791, 0.005930, -0.084194, -0.018218, 0.043344, 0.086549, 0.075760, 0.043827, -0.026630, 0.072025, 0.016534, 0.129566, -0.044138, 0.069084, -0.047453, 0.094963, 0.103086, 0.021579, 0.117531, 0.061455, -0.007220, 0.019494, 0.084717, 0.082114, -0.077321, -0.033339, 0.044700, -0.032391, -0.067092, 0.081560, 0.088009, -0.020167, -0.048225, 0.083081, -0.002844, 0.103015, -0.007290, 0.035989, 0.039120, -0.005047},
  {0.032373, -0.066630, -0.009729, 0.045236, -0.042056, -0.021759, -0.026510, 0.127560, -0.094731, 0.118105, 0.050164, -0.009795, -0.025233, 0.009477, 0.018705, 0.057706, 0.003903, 0.030008, 0.013191, -0.027403, 0.096593, 0.051967, -0.091550, 0.053047, -0.087157, 0.105008, 0.075248, -0.033641, -0.035725, -0.046472, 0.134367, 0.033318, 0.040774, -0.000314, -0.042560, 0.068644, -0.031810, -0.011939, -0.035075, 0.085545, 0.090860, -0.063880, 0.099616, 0.008777, -0.086826, -0.079110, 0.004699, 0.068840, -0.118991, 0.087997, -0.104968, 0.024654, 0.076327, 0.092847, -0.014790, 0.079762, 0.031479, 0.017429, 0.105637, -0.029214, 0.038503, 0.108519, 0.100550, 0.082385, -0.061583, 0.067616, 0.033931, 0.101328, -0.018375, -0.035710, 0.031849, 0.070058, -0.075737, 0.090772, -0.020868, -0.053743, -0.068327, 0.047078, -0.023248, 0.061232, -0.043806, -0.082983, 0.061989, -0.001987, 0.037199, -0.003498, -0.004023, -0.012973, 0.005060, 0.013042, 0.134817, 0.030546, 0.100883, -0.043818, -0.078783, 0.048764, 0.008591, -0.078870, 0.007191, -0.027849, -0.024973, 0.094843, 0.098170, -0.029283, -0.012699, 0.094355, -0.104511, 0.084479, 0.075476, 0.031883, -0.081098, 0.092086, 0.049000, -0.006806, 0.017530, 0.032856, 0.111097, 0.041698, 0.001172, -0.062048, -0.021504, 0.040005, 0.037721, -0.066496, -0.045460, 0.071157, 0.014408, 0.121930},
  {0.003896, 0.001596, 0.057414, 0.042274, 0.016823, -0.009481, 0.021767, 0.012208, 0.129470, -0.001051, 0.006002, 0.038201, 0.003978, 0.087788, 0.032112, 0.058530, 0.017010, -0.062826, -0.044727, 0.055134, 0.092301, -0.043060, 0.038236, 0.065905, -0.009777, 0.004133, 0.029330, -0.032554, 0.067532, 0.074732, -0.018442, -0.013593, 0.049517, 0.071969, -0.048548, 0.017406, 0.003444, 0.072409, 0.067606, -0.067490, -0.057628, 0.003264, -0.016211, -0.019910, 0.063598, 0.045013, 0.052390, -0.050879, 0.110957, -0.099260, -0.004701, -0.026797, -0.059903, 0.031197, -0.021307, 0.024089, -0.023205, 0.102281, -0.056750, 0.036119, -0.012887, -0.034043, -0.013205, 0.031329, 0.087546, -0.007125, 0.016345, 0.055120, -0.043029, 0.093882, -0.031313, 0.080017, -0.031480, 0.068445, 0.005991, 0.115985, 0.077174, 0.057454, -0.050805, -0.027823, 0.075867, 0.103290, -0.052893, -0.019682, -0.046957, 0.021513, -0.032736, 0.119219, 0.079914, 0.097205, 0.061148, -0.032719, -0.000151, -0.014282, 0.115952, -0.040708, -0.050741, 0.088088, 0.026612, 0.069166, 0.010834, 0.093469, 0.047867, 0.138068, 0.078378, 0.046095, 0.039771, -0.047203, -0.062439, 0.085855, 0.070606, 0.007712, 0.087326, 0.050827, -0.086823, 0.089685, -0.029219, -0.036932, 0.065049, -0.001633, 0.016221, -0.031382, 0.079818, 0.073036, 0.142487, 0.117095, 0.029262, -0.041964},
  {-0.087873, 0.029529, -0.065933, 0.033604, 0.138622, -0.032735, 0.026904, 0.059764, -0.055254, 0.032537, 0.047574, -0.026451, -0.007817, -0.086986, 0.057956, -0.048935, 0.067668, 0.069958, -0.022519, 0.023505, -0.026268, -0.056917, -0.031646, -0.018343, -0.106272, 0.111538, 0.027333, -0.039364, 0.020536, -0.100836, 0.018883, -0.011804, 0.051030, 0.054785, 0.004885, -0.030951, -0.020097, -0.050892, 0.050111, 0.038210, -0.052202, -0.070327, -0.021240, -0.019678, -0.070232, -0.061622, -0.074180, -0.098724, 0.026957, 0.130525, 0.057798, -0.063994, -0.067333, -0.087832, -0.013557, 0.073355, -0.100018, 0.135401, -0.111860, -0.051286, 0.039968, 0.047010, 0.069207, 0.091793, -0.085858, 0.054612, -0.062858, 0.003466, -0.028327, -0.049855, -0.024775, 0.009951, -0.127907, -0.131082, -0.070218, 0.051447, -0.071924, -0.048315, 0.030293, 0.066420, -0.059805, 0.022400, 0.031726, 0.035612, 0.147314, -0.070280, 0.023142, -0.080027, 0.044853, -0.055174, -0.021572, -0.113089, 0.074721, 0.028476, 0.002227, 0.032439, 0.021962, -0.007065, 0.023187, -0.081524, -0.047561, 0.022963, 0.055900, -0.033274, -0.022317, -0.014397, -0.104624, 0.168331, -0.001191, -0.030312, -0.029763, -0.006076, 0.032070, 0.077856, -0.002374, -0.062990, 0.082981, -0.024632, 0.025180, -0.008888, -0.091458, 0.040759, -0.096738, -0.009743, -0.108443, 0.003927, -0.008881, -0.023519},
  {0.048394, 0.077511, 0.096272, 0.038758, 0.021828, 0.065822, -0.010097, -0.001730, -0.082329, 0.072422, 0.045418, 0.110266, -0.019165, 0.011919, -0.088593, -0.101811, 0.058334, -0.014105, 0.109790, -0.070242, 0.121433, -0.063719, 0.007483, 0.104518, -0.038713, 0.100286, 0.009045, 0.079276, 0.030385, 0.034089, 0.104619, -0.000595, -0.019502, -0.002591, 0.087864, 0.082422, 0.039479, -0.084226, 0.011502, 0.066639, 0.098490, -0.042122, -0.035241, 0.083457, 0.004927, -0.115566, -0.078266, -0.004672, -0.058934, 0.097086, -0.046569, -0.015079, 0.062027, -0.032008, 0.073045, 0.000568, 0.108542, -0.030771, 0.055784, -0.055806, 0.064689, 0.043596, -0.011538, 0.058811, -0.081687, 0.027450, 0.014319, 0.078715, 0.115814, 0.028247, 0.032275, -0.041888, -0.108206, 0.065481, 0.082051, -0.059061, -0.094024, -0.040156, 0.120501, 0.097965, -0.075068, -0.072420, -0.034108, 0.047758, 0.121281, 0.051394, 0.003809, 0.045174, -0.029444, -0.058310, 0.134362, -0.062186, -0.043853, -0.025275, 0.013347, 0.043160, 0.005214, 0.011001, 0.001777, -0.048544, 0.029690, -0.000535, -0.008751, -0.075835, -0.106593, 0.073642, 0.026920, 0.017777, 0.064090, -0.040168, 0.010915, 0.030070, 0.042068, 0.056834, 0.000642, -0.038349, 0.099020, 0.041524, -0.026316, 0.087182, 0.054047, 0.006024, 0.086110, -0.091092, 0.016411, 0.013657, -0.025825, 0.117928},
  {-0.000528, 0.058606, 0.048919, -0.015945, -0.049266, 0.047332, -0.007041, 0.016811, -0.015142, 0.107420, 0.017651, 0.104199, 0.097499, 0.018707, 0.030377, -0.025676, -0.033177, -0.022257, -0.034540, 0.083937, 0.026590, 0.095049, 0.039403, -0.070111, 0.103270, 0.007155, 0.087696, -0.004318, 0.087855, 0.073741, 0.059819, 0.073700, 0.072235, 0.044175, 0.046660, 0.053990, -0.033339, 0.114481, 0.085926, 0.010945, 0.043502, 0.036007, 0.130076, 0.072485, -0.000325, 0.000004, 0.027337, 0.021442, 0.034480, 0.072327, 0.044783, 0.109560, 0.128678, 0.121373, -0.038289, -0.031380, 0.097480, -0.067246, 0.029427, 0.058722, -0.045174, 0.029324, -0.015692, 0.082019, 0.063772, -0.077045, 0.011522, -0.021823, 0.081682, 0.063426, 0.073494, -0.031893, 0.000075, 0.011988, 0.124583, -0.060532, 0.103190, -0.024952, 0.055517, 0.000018, 0.132379, 0.016341, 0.088672, -0.026390, -0.047847, 0.023258, -0.061727, 0.100215, 0.116769, -0.045203, 0.004090, 0.091846, 0.069739, 0.025370, -0.047896, 0.065048, 0.077751, 0.079584, -0.026693, 0.105842, 0.095895, 0.072412, 0.033966, 0.007819, -0.011054, -0.037569, 0.088999, -0.060819, 0.071192, 0.070098, 0.070346, 0.014238, 0.119532, -0.046495, 0.084675, 0.010010, 0.043220, 0.048386, -0.023685, -0.069678, 0.044362, -0.072712, -0.006366, 0.009887, 0.061395, -0.026116, 0.043426, 0.097631},
  {-0.040667, -0.095147, 0.076439, -0.113009, -0.028387, -0.072466, 0.027403, 0.013982, 0.050977, -0.077255, -0.039203, -0.035352, -0.023835, 0.016619, 0.036690, 0.057102, 0.069673, 0.131621, 0.023724, 0.009073, 0.015191, 0.003139, -0.106112, -0.028885, -0.075303, 0.067040, -0.140238, 0.038509, -0.059100, 0.032063, 0.073884, -0.017295, -0.045759, -0.069762, -0.067083, -0.087320, -0.078320, -0.065293, -0.047859, 0.099413, -0.048491, -0.083264, -0.052270, -0.125865, -0.018147, -0.128976, -0.107063, -0.110916, -0.086595, 0.072440, 0.001620, -0.047264, -0.012156, 0.023033, -0.042124, 0.082852, -0.057883, 0.109273, 0.025731, -0.005996, 0.045449, 0.105632, 0.034133, 0.041697, -0.085663, 0.098749, -0.068705, -0.087119, -0.021018, 0.022786, -0.008622, -0.008564, -0.062512, -0.079864, 0.004521, -0.004085, -0.076969, 0.057233, 0.052586, 0.008161, -0.097503, -0.065515, 0.025093, 0.045643, 0.083910, -0.094717, 0.067625, -0.115548, -0.107553, -0.016202, -0.025745, -0.062889, -0.074055, -0.116530, -0.005504, -0.015089, 0.046393, -0.013449, 0.115444, -0.043633, -0.000163, 0.002701, -0.027087, 0.020919, -0.105866, 0.053874, -0.065150, 0.035171, -0.109663, -0.006010, -0.024739, 0.047847, -0.072357, 0.118887, 0.062044, -0.036801, 0.129348, 0.069174, -0.018336, 0.107115, 0.024551, 0.104014, -0.124719, -0.091477, -0.094318, -0.032337, -0.117406, 0.041376},
  {-0.051137, 0.064083, 0.098055, 0.002839, 0.085147, 0.049649, 0.028616, 0.088766, -0.003982, -0.073130, -0.077377, -0.131524, -0.117821, -0.082480, -0.019641, 0.061166, -0.064375, 0.082873, 0.066085, 0.001273, 0.015703, 0.020655, -0.110415, -0.038627, 0.030418, -0.006438, -0.033013, -0.040764, 0.032198, -0.029262, -0.013643, 0.035514, 0.066606, 0.004327, -0.030317, 0.041469, -0.029360, -0.027288, -0.012234, 0.033102, -0.033823, 0.023940, -0.089364, -0.066849, -0.081384, -0.070797, -0.138939, -0.092633, 0.048614, 0.054998, 0.061336, -0.000464, 0.003073, -0.063303, -0.064080, -0.015970, -0.064084, 0.041891, 0.055260, -0.073107, 0.051559, -0.055926, 0.052256, 0.065275, -0.044512, -0.033897, -0.129857, -0.004236, 0.030338, -0.088431, 0.037171, -0.107063, -0.045623, -0.113414, 0.046148, -0.050726, 0.009455, 0.056736, 0.001872, 0.116193, -0.092343, 0.041422, 0.038625, 0.077597, 0.106279, 0.034602, -0.015842, 0.001477, -0.026109, -0.091018, 0.052736, 0.018529, 0.042621, 0.017042, -0.077361, -0.020163, 0.094230, -0.006285, -0.011806, 0.025914, 0.030206, -0.034676, 0.036157, -0.051099, -0.032573, 0.015614, -0.048260, 0.050027, -0.082710, -0.067222, 0.007982, -0.035396, -0.101702, 0.079050, -0.045192, -0.024629, -0.000544, 0.085673, 0.064141, 0.062751, -0.044094, -0.008818, -0.135419, -0.057313, 0.026314, -0.070753, -0.043860, -0.044271},
  {0.149844, -0.012460, 0.072332, 0.109813, -0.016243, -0.036542, 0.098265, 0.070938, -0.011348, 0.000013, 0.035795, 0.044571, 0.016166, 0.014586, -0.000357, -0.009971, 0.044112, 0.005899, 0.045734, 0.067075, -0.039486, 0.116334, 0.109934, 0.010687, 0.049848, -0.027378, 0.008095, -0.003835, 0.032818, 0.121980, -0.013609, -0.026761, -0.034058, 0.043685, 0.026201, 0.059188, -0.003192, 0.068060, 0.125863, -0.062070, 0.120768, 0.067174, 0.003313, 0.072369, 0.006658, 0.121265, 0.068159, 0.080966, -0.040771, -0.021917, -0.031691, 0.029902, -0.005412, 0.135869, 0.055518, 0.013619, 0.069354, 0.074249, 0.074567, 0.001517, -0.070579, 0.013508, 0.059559, 0.035077, -0.025176, -0.002599, 0.029611, 0.094249, 0.120314, 0.115007, 0.116216, -0.003585, 0.127948, 0.056355, -0.041245, -0.031229, 0.126223, 0.004189, -0.010273, 0.054707, 0.057956, 0.111962, 0.112227, 0.032912, 0.034994, 0.009305, -0.064918, 0.089413, -0.016037, -0.028840, -0.040473, -0.007495, 0.075833, 0.038941, 0.001742, -0.031473, -0.027934, 0.037685, -0.027509, 0.011784, 0.065559, 0.078598, 0.005104, 0.110789, 0.099112, 0.046269, 0.069776, 0.060373, -0.022797, 0.109080, 0.009238, -0.001950, 0.039285, -0.080597, -0.001475, 0.074551, 0.029566, 0.070707, 0.064162, 0.007877, 0.036515, -0.006861, 0.124503, 0.001297, 0.146983, 0.012290, 0.133548, 0.073389},
  {0.078982, 0.020499, 0.073236, -0.026617, 0.046583, 0.007881, -0.071743, 0.096720, -0.081890, 0.094309, 0.036282, 0.044166, -0.033059, 0.037896, 0.029353, 0.047518, -0.019072, 0.014654, 0.010208, -0.060578, 0.082420, 0.073448, 0.009593, 0.074301, 0.035406, -0.000461, -0.074941, -0.055588, -0.016697, -0.053621, -0.000246, 0.048659, 0.037564, 0.021397, -0.031966, 0.026360, 0.095667, -0.090099, 0.105434, 0.032296, -0.003181, -0.049649, -0.063079, 0.049157, -0.001176, 0.027061, 0.032794, -0.068917, -0.037049, -0.037547, -0.018836, 0.007445, 0.009603, 0.016638, 0.077504, -0.019780, 0.101367, 0.028265, 0.071760, 0.021431, -0.050003, 0.032245, 0.030971, 0.095735, 0.003723, -0.094044, 0.012572, 0.053128, 0.022390, -0.061632, 0.108825, 0.088550, -0.003489, 0.025451, 0.095728, -0.039022, 0.017729, -0.030286, -0.008729, -0.023298, 0.058886, -0.004025, 0.089314, 0.025826, 0.069460, 0.102038, 0.007691, 0.009936, 0.061169, -0.065036, 0.054055, 0.000852, 0.008867, -0.033915, -0.009153, -0.010872, 0.107915, -0.037383, 0.069002, 0.053921, -0.012216, 0.074834, -0.069202, -0.105619, -0.072525, -0.020036, 0.062298, 0.087864, 0.064690, -0.010006, 0.058378, -0.045001, -0.031111, -0.045905, 0.088192, 0.020320, -0.022427, -0.115557, -0.087115, 0.061157, 0.003483, 0.007534, 0.080882, 0.044948, -0.035140, 0.053483, 0.109973, 0.088337},
  {0.063544, -0.014628, 0.022919, 0.043846, 0.114561, -0.016913, -0.085723, 0.070326, -0.000410, -0.086435, -0.029392, -0.048066, -0.054233, 0.005792, 0.041095, 0.033479, -0.050951, 0.082644, -0.009086, -0.061130, 0.012241, -0.007641, -0.048861, -0.020197, -0.082588, 0.021248, -0.113743, 0.091787, 0.027092, -0.057683, -0.016523, 0.062289, 0.013575, -0.037049, 0.043237, 0.059956, 0.013044, -0.012216, -0.011199, 0.097194, -0.010839, 0.057436, 0.034642, 0.004306, 0.005773, 0.007639, -0.027837, 0.002737, -0.076974, 0.050869, 0.029139, -0.062383, -0.014868, 0.052319, 0.047253, 0.024071, -0.029230, 0.003701, -0.078737, 0.031568, 0.133068, -0.032365, 0.013224, 0.103420, -0.063443, -0.069133, -0.067971, 0.013989, -0.076766, 0.007349, 0.080552, -0.100604, 0.021885, -0.097802, 0.047956, -0.065126, 0.036656, 0.004669, 0.121067, 0.127084, -0.009463, 0.017243, 0.040792, 0.079223, 0.126133, 0.032558, 0.087473, -0.004066, 0.046162, 0.076169, 0.027705, -0.101336, 0.029021, -0.110418, -0.033077, 0.075127, 0.123726, 0.052692, 0.081238, -0.118105, -0.085678, 0.021427, 0.086671, -0.081986, -0.037567, 0.024190, -0.123201, 0.094888, -0.055920, -0.049074, 0.041367, -0.048373, 0.021623, 0.098282, 0.084353, -0.048724, 0.113436, -0.017666, 0.071795, 0.047066, -0.019843, 0.069025, -0.022803, -0.091761, -0.100023, 0.009823, 0.067069, 0.039856},
  {-0.059507, -0.053365, 0.068092, -0.097097, 0.101215, -0.058851, -0.037700, 0.066621, 0.015899, -0.099414, -0.027600, 0.003080, -0.019251, 0.041299, 0.016200, -0.106384, 0.043567, 0.030891, 0.032896, 0.014214, -0.065675, -0.053991, -0.076708, -0.019310, 0.018503, 0.102743, -0.109549, 0.063047, -0.000414, -0.016362, 0.112033, -0.015756, -0.043371, -0.103292, -0.076835, -0.054511, -0.031931, -0.115899, -0.025564, 0.005084, -0.037800, -0.012256, -0.044550, -0.058410, -0.010770, 0.013961, 0.019448, -0.108379, -0.013119, 0.093322, -0.118683, -0.022145, -0.064371, -0.028112, 0.021394, 0.102052, 0.000536, 0.010518, -0.057898, -0.030113, 0.104510, 0.102015, 0.056128, 0.044099, -0.072992, 0.083643, -0.018295, -0.085862, -0.032887, -0.040391, 0.012785, -0.072430, -0.029739, -0.121732, 0.008657, -0.082284, -0.111363, 0.028318, 0.076589, 0.003695, 0.023164, -0.002753, 0.003329, 0.039793, 0.072068, -0.039642, 0.020438, -0.113586, -0.049188, -0.052380, 0.026449, 0.021742, -0.092252, -0.085327, -0.043701, -0.074959, 0.023782, -0.042130, -0.030116, -0.061388, -0.073658, 0.033534, 0.065480, -0.018050, -0.074834, 0.015075, -0.014277, 0.012993, 0.036044, -0.073461, -0.001138, 0.086736, -0.105984, 0.058537, 0.007322, -0.122251, 0.078530, -0.070878, 0.109196, -0.046884, -0.012222, 0.108337, -0.075253, -0.115372, -0.026045, 0.048341, 0.053699, -0.074450},
  {0.039817, 0.067838, -0.019082, -0.056991, 0.038872, -0.063550, 0.066595, 0.070084, 0.004291, -0.051632, -0.051061, -0.087856, 0.098435, 0.032614, 0.014520, 0.049171, 0.001010, -0.076034, -0.016414, 0.121593, -0.087001, 0.024523, -0.046991, -0.086777, -0.060504, 0.083229, 0.052151, 0.006907, -0.032426, 0.093621, -0.002621, -0.067882, 0.062214, -0.021965, 0.017635, -0.009698, -0.015083, -0.036042, -0.031217, -0.087606, 0.052803, -0.062974, -0.036956, 0.009256, -0.069433, 0.107618, -0.006566, 0.023362, 0.078341, 0.017099, -0.034553, -0.034911, -0.015586, 0.024342, -0.077137, 0.054076, 0.053488, 0.022205, -0.067843, 0.092456, -0.022145, -0.022659, -0.071280, -0.043713, 0.051508, 0.090313, -0.064357, -0.064936, 0.009692, 0.030363, 0.035649, 0.087948, 0.084271, -0.036384, 0.051114, 0.103669, 0.101750, 0.032307, 0.032788, -0.080794, -0.037137, -0.016363, 0.025303, -0.035666, -0.015724, -0.099272, 0.040463, 0.061716, -0.003685, 0.026066, 0.048856, -0.048883, -0.004024, 0.105386, 0.030651, 0.019368, -0.004862, -0.061458, 0.038189, -0.014912, -0.031924, 0.009708, -0.052914, 0.068396, 0.043648, -0.063867, -0.041490, 0.044043, -0.046839, 0.013090, 0.037804, -0.004824, -0.086427, -0.002011, -0.024575, -0.033032, 0.051739, 0.004024, -0.052943, -0.076488, 0.051496, -0.053422, 0.019957, 0.020174, 0.048024, -0.011347, -0.107300, -0.003003},
  {0.052028, 0.072289, -0.046827, -0.059756, 0.018229, -0.057359, 0.104275, 0.060240, 0.008835, 0.032078, 0.070529, 0.068481, 0.113847, -0.074357, -0.002841, 0.114599, 0.056229, 0.039166, -0.088582, 0.040689, 0.014993, 0.088770, 0.108570, -0.038963, -0.031737, -0.006144, -0.047797, -0.053992, 0.046322, -0.032820, -0.062846, 0.014301, 0.007188, 0.034657, -0.080967, -0.072991, 0.013971, -0.044242, 0.007632, -0.004686, 0.068280, 0.092789, 0.098111, 0.057596, 0.003374, 0.108325, 0.039091, 0.048576, 0.100785, -0.105238, 0.084000, 0.050757, -0.015521, 0.073149, 0.025281, 0.024566, 0.066034, -0.023683, -0.077112, 0.119683, 0.035298, 0.025034, -0.072035, -0.051992, 0.114256, 0.002256, -0.008189, -0.046636, -0.043600, -0.048007, -0.000044, -0.010053, 0.006300, 0.057597, -0.022493, 0.003910, 0.078595, 0.078810, -0.010409, -0.092604, 0.121817, 0.106540, -0.012883, -0.039023, -0.055105, -0.062146, -0.079341, -0.006264, 0.011375, -0.057082, -0.098703, 0.041015, 0.026653, 0.065789, 0.039299, 0.088858, -0.013259, 0.075330, 0.065348, 0.100759, 0.016860, 0.039644, 0.043066, 0.040168, 0.009459, 0.060525, 0.028423, 0.014536, -0.012091, 0.070892, 0.113601, 0.004630, -0.012292, -0.008429, -0.002300, 0.001767, -0.083976, 0.088269, -0.035386, 0.046461, -0.011779, 0.084135, 0.042666, -0.022574, 0.027012, 0.029719, -0.006440, -0.070472},
  {-0.056298, -0.007084, 0.050372, -0.005218, 0.033338, 0.055650, 0.041631, 0.055195, -0.048399, -0.064876, -0.024114, -0.053335, -0.027202, 0.025457, -0.069586, -0.045154, -0.024341, -0.003727, 0.074121, 0.025713, 0.047975, 0.015158, -0.106910, 0.054976, -0.066201, 0.000814, -0.027369, -0.056163, -0.008120, -0.017509, -0.002342, 0.005665, 0.031305, 0.002304, -0.083163, -0.018932, -0.084732, 0.017500, -0.067780, 0.059806, 0.100543, -0.081258, -0.063995, 0.061193, -0.100798, -0.107984, -0.001022, 0.041965, -0.050573, 0.031420, -0.075380, -0.105809, -0.024598, 0.044153, -0.062961, 0.054365, -0.048729, 0.089956, 0.007736, 0.040678, 0.066098, 0.095811, 0.037639, 0.083974, -0.092433, -0.016792, -0.106766, -0.012407, 0.107004, -0.019079, -0.003106, 0.071259, -0.001959, -0.042436, 0.093742, -0.096859, -0.050839, 0.022298, 0.011984, 0.039301, 0.020452, -0.000757, 0.085905, 0.014503, 0.032783, 0.047916, 0.028569, -0.090399, -0.087586, -0.070589, 0.110447, 0.022048, -0.074267, -0.076396, -0.103166, 0.042200, 0.009200, 0.034538, 0.106101, -0.105932, -0.028395, -0.038633, 0.023235, -0.026929, -0.043920, 0.095373, -0.107292, 0.015652, 0.060268, -0.026321, -0.077289, 0.018116, -0.039832, 0.081643, 0.029930, 0.046232, 0.081127, 0.066024, 0.104469, 0.090641, -0.014297, -0.051202, 0.060379, -0.032418, -0.118235, -0.056403, 0.079559, 0.045224},
  {0.031249, 0.046758, 0.067780, 0.008485, -0.007509, 0.061121, 0.051052, 0.058951, -0.117999, 0.097882, 0.090847, -0.038671, 0.009011, -0.018895, -0.078640, -0.094582, -0.048495, 0.097337, 0.059061, -0.047645, 0.037135, 0.013770, 0.022705, 0.065681, -0.084549, 0.083150, -0.044546, 0.085212, -0.079914, 0.053453, 0.064857, 0.025806, 0.076086, -0.061769, 0.045759, 0.069318, 0.030458, -0.096541, -0.069248, 0.030241, 0.076095, -0.060919, -0.025213, 0.044752, 0.008652, -0.039559, 0.083301, 0.072703, -0.052064, 0.073900, -0.038267, -0.036127, -0.045747, -0.008822, 0.027218, 0.040792, 0.022695, 0.074381, 0.091868, -0.078471, 0.065284, -0.005329, 0.069501, 0.105320, -0.049066, -0.038229, 0.094783, 0.063085, 0.142311, 0.043945, -0.008629, 0.020502, -0.021323, 0.010144, -0.023024, 0.038602, -0.121057, -0.101947, 0.086220, 0.129400, -0.019249, -0.093658, 0.023512, 0.056554, 0.028554, -0.023569, 0.008058, 0.023503, 0.095704, 0.070601, 0.011172, -0.028890, 0.046160, -0.003295, -0.092006, 0.036622, 0.123271, -0.049702, 0.111207, 0.039931, -0.069758, 0.097655, 0.052070, 0.005026, -0.010708, 0.032030, -0.022016, 0.129271, -0.020958, 0.018521, -0.044480, -0.013852, 0.079852, 0.110146, 0.054619, 0.060515, 0.035797, -0.023504, -0.023519, -0.001084, -0.013037, 0.005722, -0.042083, -0.005288, -0.097078, -0.076241, 0.119288, -0.015662},
  {-0.034046, -0.034406, -0.005238, 0.076881, 0.044187, 0.053080, -0.008505, 0.092880, -0.096673, 0.109417, 0.055132, -0.045695, -0.075142, 0.109620, -0.103479, 0.048967, 0.002885, -0.034525, -0.061561, -0.006662, 0.096171, 0.028069, -0.051600, 0.019131, -0.093321, 0.013707, 0.083030, 0.053022, 0.064025, -0.080116, -0.056355, 0.101839, 0.011718, -0.042603, 0.107967, 0.007285, 0.082303, -0.015081, 0.107942, 0.077715, 0.026071, -0.002356, 0.107238, -0.000811, -0.019874, -0.097925, -0.040379, 0.016806, 0.040430, -0.004800, -0.061504, -0.030207, 0.098588, 0.006004, -0.007800, 0.096644, 0.020496, 0.036870, 0.057657, -0.083431, 0.011653, 0.023342, 0.059527, -0.057744, 0.038803, 0.048342, 0.051594, 0.072459, 0.112312, -0.047219, 0.017736, 0.087848, -0.013389, 0.001008, -0.018650, -0.017235, -0.099079, -0.058516, -0.015120, 0.044248, 0.071345, 0.057598, 0.122367, 0.072428, -0.034886, 0.090909, -0.019354, 0.029487, 0.032084, -0.049325, -0.054225, 0.031109, 0.023967, -0.038831, -0.067137, -0.062163, 0.026983, -0.064296, 0.066498, 0.064341, -0.007806, -0.008498, 0.051903, -0.101719, -0.065071, -0.039340, -0.025082, 0.095108, 0.070731, -0.044112, -0.039410, -0.015411, 0.013318, 0.045911, 0.124034, -0.039581, 0.096671, -0.054964, -0.002725, 0.010752, 0.112970, -0.018713, 0.022769, -0.074366, -0.010962, -0.012223, 0.097160, 0.044465},
  {-0.039295, -0.100654, 0.084109, -0.062274, 0.042938, 0.022376, -0.096339, 0.039587, -0.020697, -0.121610, -0.032512, -0.018119, -0.058957, 0.051426, 0.025058, -0.042528, -0.013110, 0.080895, 0.100941, -0.044979, -0.064554, -0.116679, -0.109929, 0.105623, -0.060832, 0.097811, -0.149701, 0.076496, -0.014607, 0.043444, -0.024212, -0.011738, 0.076166, -0.086116, -0.096410, -0.043303, -0.030036, 0.037825, 0.013186, -0.047622, 0.025678, -0.079829, 0.026453, -0.033665, -0.067034, -0.068179, -0.098956, -0.080661, -0.038497, 0.094700, 0.047254, -0.023617, 0.010712, -0.065929, -0.009313, 0.115926, -0.009734, 0.018286, -0.014307, -0.053442, 0.041452, 0.047599, 0.007159, -0.014020, -0.102740, 0.041452, 0.000872, -0.077348, 0.035833, -0.098267, -0.019324, -0.025494, -0.084134, -0.073701, 0.067185, -0.028080, -0.032279, -0.056532, 0.119276, 0.123454, -0.097524, 0.000650, -0.062013, 0.104457, 0.060023, -0.062689, -0.006705, -0.097310, -0.033004, -0.023749, -0.032993, 0.034728, 0.034154, -0.104602, -0.034031, -0.025446, 0.126205, -0.003989, -0.005099, -0.104066, -0.042092, -0.105143, 0.001578, -0.007240, -0.011262, 0.091005, -0.103952, 0.109347, -0.039701, -0.056452, 0.037121, 0.103549, 0.026291, 0.017575, -0.074921, -0.053484, -0.002270, -0.045462, -0.007877, 0.098941, -0.118962, -0.000701, -0.127934, -0.065779, -0.055091, 0.058531, -0.083440, -0.105048},
  {-0.033978, 0.009189, 0.066907, -0.074293, 0.059586, 0.050240, 0.087712, -0.024196, 0.070502, 0.014787, -0.024291, 0.021109, 0.029528, -0.086909, 0.125945, 0.111969, 0.050477, -0.017683, 0.113540, 0.039790, 0.032619, 0.010396, -0.024412, 0.100647, 0.028384, -0.032951, 0.066712, 0.045229, 0.019905, -0.009504, 0.056423, 0.071589, -0.060894, 0.052746, -0.007833, -0.063720, 0.036303, 0.100107, -0.007375, 0.088096, -0.080317, 0.025148, -0.049822, -0.111962, -0.065905, -0.059817, 0.061200, 0.036250, 0.009753, 0.073424, 0.067512, -0.056731, -0.066358, -0.038544, 0.036538, -0.025072, -0.043986, -0.023081, 0.051743, -0.025982, 0.014226, 0.033383, -0.098175, -0.045250, 0.024517, -0.012151, -0.060485, -0.083498, -0.004145, -0.025654, -0.040708, -0.046242, 0.101347, -0.021458, -0.102630, 0.076449, -0.040550, 0.036018, 0.079671, -0.049674, 0.023632, -0.012330, -0.082677, 0.053285, 0.016652, -0.027748, 0.082787, 0.056395, 0.035232, 0.073373, -0.068683, -0.039672, -0.004234, 0.053288, 0.035989, 0.073781, 0.042162, 0.076228, 0.010827, 0.078745, 0.005470, -0.067749, 0.086909, 0.094373, -0.008037, 0.023852, -0.051618, 0.053598, -0.080773, -0.006960, -0.004826, -0.001286, -0.009361, 0.027837, -0.084229, 0.044742, -0.054439, 0.105233, 0.030099, 0.061018, 0.012522, 0.101793, -0.052517, -0.054727, -0.043763, 0.076183, -0.081172, -0.099795},
  {0.134486, 0.033890, -0.021471, 0.044615, 0.059083, 0.082390, -0.055249, 0.033943, -0.015340, -0.014840, 0.072523, 0.079436, -0.013668, 0.123692, -0.035644, 0.025316, -0.004398, 0.091088, -0.075617, -0.048458, -0.031002, 0.067858, -0.065421, 0.032123, -0.054179, -0.028807, 0.020731, -0.020337, 0.091229, 0.093276, -0.054556, -0.011719, -0.026011, -0.059700, 0.117874, -0.013496, 0.070251, 0.008089, 0.025149, -0.032909, 0.134230, 0.067159, 0.049631, 0.017261, -0.062054, 0.031255, -0.026245, 0.122405, -0.089867, -0.001572, -0.014249, 0.033844, 0.033169, 0.004063, 0.026812, 0.034042, 0.081140, 0.003480, 0.085145, -0.066036, 0.061081, 0.037055, -0.004080, 0.070337, -0.018144, 0.028822, 0.104697, -0.012930, 0.042800, 0.028811, 0.073521, 0.099925, -0.037021, 0.126456, 0.079666, 0.027587, 0.008208, 0.035126, -0.030661, 0.031836, 0.058133, 0.122003, 0.108470, -0.079108, -0.018158, 0.134280, -0.009920, 0.062124, 0.100127, 0.081816, -0.023916, -0.047763, 0.098675, 0.045119, -0.017820, -0.025987, -0.031280, 0.056261, -0.015123, -0.030636, 0.095056, -0.012816, 0.073038, -0.073065, 0.104182, -0.053411, 0.005659, 0.035790, 0.153574, 0.043157, -0.029002, 0.072415, 0.124207, -0.085464, 0.125014, 0.000130, 0.038093, 0.005481, -0.059078, 0.050428, 0.118171, -0.023823, 0.047524, 0.091646, 0.088683, 0.077073, -0.012162, -0.023326},
  {0.031968, 0.115516, 0.016517, -0.010785, -0.042133, 0.059215, 0.035394, 0.065463, -0.055541, 0.046885, 0.088568, 0.118985, 0.026497, 0.077625, 0.012666, -0.031913, 0.004764, -0.031135, -0.060319, -0.004458, 0.130122, 0.039173, -0.084693, -0.010346, 0.031573, -0.062138, 0.028452, -0.055342, -0.013505, -0.012935, 0.069601, 0.052874, -0.043768, -0.006963, 0.025832, 0.131237, -0.023878, 0.039549, 0.125176, 0.018285, -0.014594, -0.052130, 0.036463, 0.141054, 0.046552, 0.014735, 0.074166, 0.077207, -0.016756, 0.067554, -0.060776, 0.009393, -0.018555, -0.023588, 0.095649, 0.012296, 0.026900, -0.068671, 0.122392, -0.043133, -0.084329, -0.018634, 0.125853, 0.046728, 0.028325, 0.018045, 0.086551, 0.006891, 0.049101, 0.048706, 0.008616, 0.026273, -0.042655, 0.038830, 0.090101, -0.072689, 0.006351, -0.068883, -0.003517, 0.015329, -0.012865, 0.064061, 0.029264, 0.029809, 0.048445, 0.129781, 0.076708, 0.001262, -0.007318, 0.051058, 0.086046, -0.085428, 0.131842, 0.088880, -0.068732, 0.094427, -0.042878, -0.062393, -0.027581, 0.007885, 0.098266, -0.016596, 0.041514, 0.039073, 0.102385, -0.047177, -0.046754, -0.017575, 0.068951, -0.030646, 0.036120, -0.043323, 0.007526, -0.000826, 0.041378, 0.004756, 0.025418, -0.112941, -0.064712, -0.059643, 0.121257, -0.026496, 0.075222, 0.043281, -0.021661, 0.004345, 0.136954, 0.034045},
  {0.027904, 0.029088, 0.023189, 0.006348, 0.078732, -0.031692, -0.048206, -0.013125, 0.032238, 0.045598, 0.071077, 0.057839, 0.012150, 0.036073, 0.028340, 0.020406, 0.022104, 0.126656, 0.071195, -0.050871, -0.005948, -0.048426, -0.005655, 0.054610, 0.025075, 0.017320, 0.021672, -0.023176, -0.021444, -0.090619, 0.146116, -0.018902, 0.067960, 0.003320, 0.009573, -0.043104, -0.004440, -0.076327, 0.022429, 0.111402, -0.013291, -0.059055, 0.052529, 0.023281, -0.009878, -0.102054, -0.096898, -0.023785, -0.092489, 0.021758, -0.035550, -0.096573, 0.038482, -0.052188, -0.046834, 0.004132, -0.025188, 0.087305, 0.008057, -0.053567, 0.081887, 0.078466, 0.122333, -0.005339, -0.099322, -0.058245, -0.046403, -0.052423, 0.122696, -0.043426, 0.006977, -0.032288, -0.044317, 0.055305, 0.105546, -0.006086, -0.107608, -0.028662, -0.010410, 0.008851, -0.052385, -0.015773, -0.033804, 0.109317, 0.126903, -0.073703, 0.106727, 0.012347, -0.066379, 0.007949, 0.112181, -0.005143, -0.037558, 0.053366, -0.033933, -0.007177, 0.014325, -0.027765, 0.054100, -0.109952, 0.037939, -0.008314, 0.055143, -0.086627, -0.027410, 0.068913, -0.007810, -0.022154, 0.097123, 0.083897, 0.041841, -0.028719, -0.017046, 0.086848, 0.081632, -0.065272, 0.124419, 0.058637, 0.093102, 0.091507, 0.042320, 0.042388, 0.076713, 0.040736, 0.017357, -0.002245, 0.013281, -0.052933},
  {0.065030, 0.057299, 0.069599, -0.023079, 0.003086, 0.039744, -0.057382, 0.004309, -0.015173, -0.032188, 0.056209, -0.041905, -0.099487, 0.028170, -0.031084, 0.048720, 0.001546, 0.106472, 0.038112, -0.068294, 0.022497, -0.030641, -0.063154, 0.002520, -0.038308, -0.009763, -0.081302, -0.046119, -0.062461, 0.030460, 0.106873, 0.039445, -0.053293, 0.040683, 0.034931, 0.071742, 0.022475, 0.045345, -0.084411, -0.036663, 0.064221, -0.072689, 0.008255, 0.040198, 0.007943, -0.022336, 0.050274, -0.073250, 0.026889, -0.067808, -0.047458, -0.006030, -0.044993, -0.047316, 0.008413, 0.088249, -0.018918, -0.064909, 0.044202, -0.005841, 0.035447, -0.064829, 0.051904, -0.089053, 0.015678, 0.055924, -0.084340, -0.050533, 0.031022, 0.004532, -0.025596, -0.063563, -0.027558, 0.018182, -0.006455, -0.007100, -0.046237, -0.094573, 0.047219, 0.120014, 0.002905, 0.037253, 0.084125, -0.002141, 0.082272, -0.029316, -0.085581, 0.009333, 0.043004, 0.040520, -0.036679, -0.052376, -0.011105, -0.079357, -0.056955, -0.073225, 0.041473, -0.056275, 0.128828, -0.047960, 0.016333, 0.064660, -0.098389, -0.014255, 0.027991, -0.059378, 0.058313, 0.025684, -0.041030, -0.051536, 0.019547, -0.005840, -0.068375, 0.070742, 0.082139, 0.005985, -0.005843, -0.077375, -0.016831, -0.056827, 0.034118, -0.066025, -0.047231, 0.057866, 0.036102, -0.081783, 0.001431, -0.011698},
  {-0.081552, -0.034054, -0.007929, -0.012040, 0.034742, 0.030222, 0.032015, 0.015133, 0.092733, -0.006048, 0.024887, -0.002462, -0.006773, 0.056717, 0.107057, 0.054222, 0.095062, -0.010576, 0.021164, 0.025899, -0.089015, 0.094822, 0.026182, 0.053926, -0.021203, 0.083799, 0.043672, 0.000934, 0.023982, -0.051577, -0.075118, -0.029851, 0.025864, 0.098920, -0.005376, -0.012785, -0.034608, 0.131210, 0.006024, -0.044804, -0.020136, -0.006114, -0.010290, -0.038487, 0.111452, 0.062197, 0.027072, 0.001314, 0.119049, 0.036325, 0.108523, 0.110654, -0.016543, -0.059450, 0.037625, -0.042955, 0.000142, -0.003417, -0.022702, 0.120111, -0.084274, -0.024457, -0.059268, 0.021475, 0.019896, 0.113667, 0.010461, 0.049273, -0.030148, 0.061519, 0.090766, 0.035573, 0.084006, 0.000697, -0.006040, 0.128703, 0.061108, 0.004082, -0.012206, -0.020169, -0.014400, -0.004104, -0.000976, 0.013658, -0.015168, 0.032722, 0.043259, -0.039039, -0.035871, -0.041144, -0.098629, 0.084517, -0.037905, 0.015263, 0.018304, 0.054900, 0.051020, 0.066461, -0.062671, 0.004770, 0.000951, 0.040276, -0.036090, 0.141957, 0.075204, -0.064480, 0.017081, -0.020584, -0.101532, -0.003145, -0.040811, 0.089897, -0.080876, -0.039649, -0.100976, 0.028005, 0.006599, 0.009504, 0.061064, 0.094568, 0.047508, -0.025984, 0.039758, -0.009351, 0.021694, -0.003750, 0.023545, -0.043476},
  {-0.023007, 0.015984, 0.019593, -0.064694, 0.055589, -0.036451, -0.057354, 0.120953, -0.003672, -0.083705, -0.006700, -0.068378, 0.016455, -0.118142, -0.090414, 0.054149, 0.045560, 0.052952, 0.004648, -0.041415, 0.043807, -0.005881, -0.071119, 0.046458, -0.063805, 0.069234, -0.076988, -0.028858, -0.025632, -0.095472, 0.043983, -0.057948, -0.048742, -0.049495, -0.066929, 0.014414, -0.052352, -0.044027, 0.026308, -0.017915, -0.095573, 0.033172, -0.104489, -0.095068, -0.057973, 0.010535, -0.094066, 0.037492, -0.118423, 0.086343, -0.118438, 0.010290, -0.023982, 0.026217, 0.018444, 0.075732, -0.084805, 0.074523, -0.003320, -0.002928, 0.102683, 0.094525, -0.083886, 0.000091, 0.013122, 0.094305, -0.037050, 0.031409, -0.017355, 0.014808, -0.034912, -0.124571, -0.052856, -0.124299, -0.035803, -0.075862, 0.013286, -0.093931, 0.120406, 0.042245, -0.083685, -0.107264, -0.049270, 0.090104, 0.053482, -0.112294, 0.124324, -0.104556, -0.049467, 0.040982, 0.041196, 0.000081, -0.097218, -0.020784, -0.026194, 0.018327, 0.086771, 0.066895, 0.116358, 0.042766, -0.086878, -0.032182, 0.070561, -0.072756, -0.005384, 0.061963, -0.038220, 0.112922, -0.113332, -0.046453, -0.096981, -0.023793, -0.073647, 0.048982, 0.016561, -0.117291, 0.046901, 0.070817, 0.065460, 0.049618, 0.001853, -0.006018, -0.148183, -0.009287, -0.071166, 0.043092, 0.002976, -0.020457},
  {-0.010802, -0.069470, -0.061137, 0.061808, -0.105789, 0.018160, -0.031930, -0.093278, 0.114840, 0.029451, 0.055696, -0.053628, 0.057764, 0.030812, 0.117489, 0.090271, -0.056573, -0.056839, 0.053034, 0.026829, 0.022850, 0.034363, 0.080235, -0.057972, -0.000275, -0.051547, -0.058383, -0.016722, -0.007873, 0.050471, -0.002776, -0.101115, -0.081504, -0.013135, 0.066414, -0.096741, 0.007712, 0.011932, -0.018690, 0.048002, -0.070046, 0.100126, -0.069398, -0.061482, 0.050049, 0.086249, -0.031203, -0.019063, 0.036072, -0.038183, 0.084075, 0.079413, 0.062768, -0.002826, -0.053373, 0.037725, -0.084680, -0.045847, 0.038474, 0.015002, -0.020356, 0.050593, 0.025339, 0.017311, 0.083952, 0.046713, -0.077584, 0.016990, 0.056970, 0.026021, 0.045706, 0.063097, 0.098649, -0.024561, -0.025810, 0.043364, -0.030889, -0.072673, -0.001611, 0.034031, 0.021479, 0.000786, 0.063547, -0.052247, 0.000397, 0.031821, 0.017561, -0.026970, -0.012548, -0.015501, -0.049747, -0.035162, -0.037369, -0.011409, 0.017368, 0.057762, 0.005592, -0.066632, -0.005855, 0.008084, 0.072736, -0.000085, 0.020544, 0.098906, -0.016132, 0.055930, 0.084539, 0.020345, 0.023706, -0.043722, 0.062951, -0.089153, 0.047651, -0.091176, -0.081125, -0.029098, -0.037565, -0.044319, -0.057225, 0.070212, -0.104915, 0.046575, -0.044319, 0.040450, 0.057660, -0.000907, -0.010957, -0.023966},
  {-0.098904, -0.066731, 0.102896, 0.006621, 0.094216, 0.054905, 0.036121, 0.106343, 0.017675, -0.001627, -0.050739, -0.013524, 0.072884, -0.081462, -0.013593, -0.015562, 0.064376, 0.015460, 0.041194, 0.000077, -0.037300, -0.017514, 0.045613, 0.034343, 0.090253, -0.025147, -0.098677, 0.046789, -0.009862, 0.103984, 0.086144, 0.041065, -0.036067, 0.088817, -0.010653, -0.010820, -0.008059, 0.005928, -0.017087, -0.017432, -0.099371, 0.001470, -0.050073, -0.025004, -0.045531, 0.045890, -0.039381, -0.006087, 0.041964, 0.083604, 0.079728, 0.084706, -0.036689, -0.060763, -0.063125, 0.096452, 0.020956, 0.146998, -0.030093, 0.069126, -0.038698, -0.042952, -0.056379, 0.029580, 0.073341, 0.084863, -0.099619, 0.046623, -0.038051, -0.028414, -0.060179, -0.002150, -0.035526, -0.004857, -0.084808, 0.058027, 0.097099, 0.053186, 0.046959, 0.072131, -0.005874, 0.089478, -0.056495, -0.025050, -0.011893, -0.111114, 0.095641, 0.035004, -0.017065, 0.065034, -0.040729, 0.106283, 0.006411, 0.023165, 0.090890, 0.080972, -0.006353, 0.020198, 0.094692, 0.081400, -0.002576, -0.109269, 0.033027, 0.110713, -0.022771, -0.047681, 0.066523, -0.039006, 0.008163, -0.071979, -0.017022, 0.076372, -0.014200, 0.001676, -0.110799, 0.049019, -0.047636, 0.123752, 0.112721, 0.069321, -0.004781, 0.016783, -0.069761, 0.082051, 0.004624, -0.003662, -0.015853, -0.033542},
  {0.087039, -0.019277, -0.038212, 0.005753, 0.018074, 0.099081, 0.032324, 0.102999, -0.024530, 0.119549, 0.050453, 0.104062, 0.058677, 0.117185, 0.006090, -0.003279, -0.030335, -0.027477, 0.051874, 0.038064, -0.006004, 0.069715, -0.038645, 0.082532, 0.024108, -0.053160, -0.037681, -0.029020, -0.017958, 0.051966, 0.124321, 0.040743, 0.021473, 0.039126, 0.111176, -0.001783, 0.022660, 0.015769, 0.053078, -0.039060, 0.084839, -0.017021, -0.043982, 0.066426, -0.008516, -0.112949, -0.076277, 0.067735, -0.015777, 0.003717, -0.087522, 0.062469, 0.101323, -0.032699, -0.001662, -0.027025, 0.044269, -0.004065, -0.043102, -0.114529, -0.044628, -0.066626, -0.049086, 0.067136, -0.079111, 0.007672, 0.100760, -0.052715, 0.094194, 0.068986, 0.064285, -0.014948, -0.073686, -0.034660, -0.014698, -0.023291, -0.078815, -0.075528, -0.045434, 0.076097, -0.013223, 0.067644, 0.020579, -0.065157, 0.032206, 0.077838, -0.011848, -0.080415, 0.076585, -0.031875, 0.059795, 0.012595, 0.020227, -0.023454, 0.004079, 0.026818, 0.060767, -0.070463, 0.068541, -0.024659, 0.011024, 0.000252, 0.096139, 0.041796, 0.063639, -0.054940, 0.054084, -0.030511, -0.006814, -0.042157, -0.041541, -0.026698, 0.029841, 0.016702, 0.124864, -0.004509, 0.098889, -0.040801, 0.004473, -0.100038, 0.029661, 0.029152, 0.018296, 0.011005, -0.103507, -0.011675, 0.111157, 0.094088},
}