Layer: fc2.weight
Shape: torch.Size([64, 128])
Values:
{
  {0.036233, -0.032659, 0.084640, 0.115568, 0.099984, -0.002094, -0.003560, -0.019470, -0.034301, -0.090741, 0.014239, -0.075215, 0.001838, 0.108719, 0.017844, -0.034758, -0.002662, 0.077050, 0.094031, 0.015747, 0.001279, -0.019899, 0.084507, 0.039987, 0.059525, 0.021088, -0.088504, -0.098252, 0.106667, -0.092269, 0.088926, -0.093699, 0.113408, 0.017894, -0.061227, 0.131213, -0.032529, -0.060236, -0.036416, -0.032568, 0.004384, 0.059283, 0.032828, 0.083154, 0.089927, 0.013185, -0.098986, 0.088800, 0.008703, -0.020917, 0.079781, 0.019069, -0.011080, 0.076403, -0.002326, 0.062773, 0.048202, -0.117566, -0.015370, 0.030727, -0.025710, 0.110780, 0.004001, -0.016994, 0.119054, -0.003753, 0.030598, 0.057397, -0.039688, -0.016295, -0.059047, -0.064251, 0.044205, 0.123801, -0.073559, -0.084461, -0.104637, -0.090029, 0.098337, -0.008608, -0.018936, -0.038301, -0.069124, -0.046996, -0.081307, 0.078077, -0.007683, -0.100897, -0.011051, -0.086182, -0.066457, -0.035962, -0.091873, 0.062204, 0.020277, -0.011812, 0.123310, 0.115606, -0.063782, 0.041452, -0.101479, -0.023232, 0.041159, -0.074947, -0.050708, 0.076634, -0.055768, 0.036507, -0.000383, -0.039943, -0.108642, 0.100577, 0.035994, -0.013906, 0.113062, -0.003819, 0.017809, 0.031577, -0.079473, 0.047396, -0.072180, 0.013150, -0.048078, 0.070221, -0.027667, 0.030084, 0.057359, 0.029297},
  {0.002279, -0.022769, 0.093449, -0.026655, -0.023721, 0.076714, -0.017402, 0.046701, 0.011155, 0.016202, 0.080733, 0.086480, -0.000395, -0.046236, -0.041730, -0.097406, 0.106094, -0.080233, -0.048647, -0.028132, 0.056490, 0.001341, 0.079200, 0.073276, -0.071448, 0.148819, -0.057680, -0.008343, -0.005189, 0.067100, 0.030414, -0.062747, 0.133145, 0.078591, 0.057771, 0.054916, 0.027307, -0.074319, 0.043521, 0.047967, 0.064646, 0.093212, -0.047792, 0.042414, 0.057380, -0.028331, 0.028236, 0.095716, -0.044422, -0.078538, 0.068873, -0.035265, 0.122338, 0.020811, -0.051647, 0.116536, -0.085668, -0.085961, -0.054358, -0.014715, 0.077735, -0.004943, 0.000950, -0.027188, 0.028329, -0.031378, 0.025662, 0.002161, 0.053340, 0.033736, -0.083216, 0.063391, -0.060782, 0.010450, -0.033278, -0.033171, 0.000397, -0.058990, 0.021734, 0.032270, 0.038660, -0.053092, 0.072531, 0.047929, 0.016742, 0.052472, -0.043525, 0.101785, 0.008212, 0.006165, 0.043422, 0.010409, -0.036305, 0.035660, 0.005633, -0.001095, -0.051481, 0.034363, -0.069439, 0.018341, 0.057543, -0.031312, 0.098245, 0.072927, 0.065764, 0.009567, -0.060510, 0.001316, 0.041859, 0.032574, -0.095509, 0.017299, 0.048984, 0.067258, 0.051639, 0.061535, 0.093331, 0.058974, 0.003517, -0.024703, 0.012800, -0.016654, -0.072669, 0.073163, -0.015799, 0.010927, 0.017595, -0.030263},
  {0.047313, 0.052404, 0.002549, 0.090946, 0.059675, 0.044366, -0.007659, -0.090922, 0.080670, 0.021413, -0.069670, 0.000982, 0.031861, 0.122046, -0.043371, 0.039517, -0.008173, 0.121822, -0.013370, 0.021173, -0.073165, 0.032931, -0.064653, 0.019389, -0.015670, 0.097241, -0.065616, -0.079569, 0.041125, -0.040481, 0.065796, -0.084169, -0.036400, 0.016442, -0.101405, 0.073355, 0.005725, 0.018866, -0.116182, 0.050090, -0.094072, 0.042757, 0.015070, 0.074241, 0.065714, -0.064064, -0.097562, 0.086975, 0.019416, 0.067256, 0.060322, -0.009147, -0.104154, 0.018353, -0.085422, 0.066205, 0.061912, 0.034333, -0.048805, -0.057678, -0.021259, -0.018641, -0.047203, -0.037466, 0.087737, -0.001650, 0.081729, 0.025160, 0.015920, 0.102667, -0.059531, -0.003337, -0.066991, 0.103018, -0.092984, -0.045215, -0.062808, -0.053389, 0.032002, -0.091429, -0.054181, 0.105122, 0.005190, -0.069183, -0.024000, 0.033006, 0.034620, -0.008704, 0.064727, -0.072487, 0.001518, -0.115484, -0.093298, 0.004383, 0.047243, 0.069789, 0.051787, 0.050611, 0.014891, -0.071386, -0.018067, -0.065377, 0.065285, 0.075895, 0.053083, -0.091951, -0.104833, 0.016548, 0.026098, -0.151503, -0.054093, 0.104176, -0.094294, -0.053586, 0.009870, 0.051966, -0.102527, 0.117438, 0.107170, 0.054703, 0.078395, -0.061317, 0.060906, 0.130352, 0.055804, -0.070414, 0.025921, -0.051744},
  {0.041302, -0.004464, -0.008180, -0.054865, -0.017835, 0.004917, 0.142405, 0.032408, 0.079014, 0.092148, 0.033904, 0.056117, -0.004310, -0.058397, -0.002737, 0.026183, 0.021389, -0.074514, 0.073219, 0.049861, -0.022090, 0.013247, -0.020378, 0.015246, 0.036697, 0.012754, -0.047652, -0.076799, -0.042358, 0.066846, 0.054553, 0.001254, 0.103315, 0.087181, -0.053246, 0.079338, 0.031839, 0.066177, 0.013447, -0.042060, 0.003990, -0.044500, 0.019332, 0.056351, 0.063880, 0.070608, 0.073094, 0.014772, 0.054343, -0.082440, 0.106127, -0.061846, -0.067120, -0.036631, -0.011107, 0.052826, -0.008410, 0.090751, -0.072266, -0.028222, -0.016373, -0.048567, 0.021182, 0.010861, -0.019786, -0.058713, -0.033586, -0.030319, 0.062451, -0.005728, 0.056491, -0.003312, 0.000432, -0.025889, 0.051288, 0.016220, 0.098271, -0.029834, -0.002663, 0.113267, 0.057792, -0.057716, 0.043446, -0.055676, -0.079724, 0.083940, 0.114329, 0.063416, -0.041952, -0.024768, 0.017123, -0.068102, 0.044693, 0.116508, 0.086340, -0.039394, -0.033985, -0.025560, -0.030766, -0.041339, 0.097676, 0.097859, -0.064183, -0.070007, 0.046715, 0.087611, -0.031460, -0.102987, -0.016857, 0.076047, -0.055204, -0.072101, -0.025241, 0.011224, -0.012193, 0.093963, -0.015804, 0.033486, 0.021509, -0.037346, 0.097643, -0.109440, 0.050571, -0.013794, 0.084092, 0.023272, 0.044957, 0.043943},
  {0.081035, 0.043259, 0.012274, 0.083254, -0.060803, 0.002744, 0.053819, 0.119538, -0.046092, -0.020538, -0.077116, -0.018354, -0.086863, -0.093145, -0.022121, -0.011646, -0.072960, -0.006739, 0.024250, -0.093558, 0.093217, -0.075954, 0.063026, -0.115634, -0.071610, 0.054556, 0.002207, -0.020746, 0.139037, 0.009021, -0.041170, 0.055834, 0.043637, 0.000472, 0.076460, -0.051102, -0.086008, -0.046731, 0.092027, -0.015282, 0.116704, -0.055760, 0.064863, -0.102787, 0.069375, 0.053757, 0.047528, -0.038601, -0.010363, -0.106868, 0.013011, -0.028095, -0.036588, 0.055775, -0.033773, 0.035682, -0.126140, -0.014670, -0.129750, -0.125693, -0.050587, -0.052059, -0.134897, -0.036712, 0.079669, 0.033684, -0.051975, 0.018815, -0.063272, -0.086972, -0.064362, -0.065486, 0.012088, 0.052837, 0.110707, -0.015387, -0.025633, -0.066827, 0.010664, 0.057810, -0.078633, -0.035860, -0.035910, 0.085218, -0.054203, 0.005028, -0.043374, -0.047898, 0.088133, -0.054336, 0.025003, 0.084098, -0.014855, -0.094285, -0.072657, -0.043409, -0.069101, 0.101891, 0.059124, 0.051075, -0.066562, 0.069205, 0.100077, -0.036233, 0.073064, 0.026266, 0.053587, 0.036220, 0.022474, 0.118879, -0.126019, -0.108553, 0.089468, -0.025993, 0.036134, 0.073394, -0.033037, -0.086428, 0.013001, 0.025015, 0.072552, -0.026322, 0.056206, -0.045187, -0.093524, -0.016871, 0.069954, -0.046074},
  {0.137067, -0.044154, -0.048883, 0.049423, 0.034059, -0.022321, 0.087030, 0.055383, -0.019690, -0.114145, -0.079648, -0.013561, 0.030516, 0.027922, 0.097392, -0.040697, -0.021606, 0.043383, 0.042804, 0.004147, 0.003613, -0.002259, -0.080631, -0.017194, -0.064317, -0.077694, 0.000673, 0.029008, -0.051656, 0.066820, -0.015245, -0.069359, -0.022301, 0.020583, 0.052871, -0.030276, -0.088106, -0.008434, 0.015550, 0.037743, -0.106854, -0.051547, 0.062183, -0.049789, -0.068499, -0.087641, -0.024615, 0.101841, -0.064188, -0.003198, -0.057577, 0.040472, 0.092907, 0.103097, -0.032134, -0.015854, -0.014443, 0.087254, 0.087780, 0.109914, 0.110090, 0.059424, -0.025374, 0.110173, -0.048119, -0.066500, -0.083558, 0.003483, -0.072139, -0.094349, -0.076811, 0.054366, 0.021691, -0.006604, 0.005839, -0.089173, -0.036031, 0.072550, 0.005924, -0.050790, -0.036835, -0.007129, -0.006036, -0.083795, 0.103036, -0.074240, 0.075195, 0.038754, -0.068717, 0.014945, 0.028798, 0.032448, -0.024410, -0.021810, -0.044699, -0.015950, -0.051358, 0.100124, 0.021832, 0.032268, -0.082543, -0.035597, -0.011936, 0.027685, 0.024940, 0.024554, 0.029879, -0.025701, 0.103679, -0.086499, 0.101058, 0.008765, -0.048066, 0.012123, -0.076334, -0.028209, -0.035238, -0.094427, -0.101626, 0.015921, 0.036690, 0.084798, -0.030631, -0.021031, -0.031768, -0.011801, 0.108850, 0.043378},
  {-0.000269, 0.096744, -0.060192, -0.099306, 0.061711, 0.098006, -0.001449, 0.007348, 0.020188, 0.067788, 0.022073, 0.005128, -0.012613, -0.042307, -0.041344, 0.001349, -0.027800, -0.003792, 0.037394, -0.012854, 0.072801, 0.008548, 0.004781, 0.117829, 0.008171, 0.025140, 0.048673, 0.064960, -0.096826, 0.055656, 0.010086, -0.008219, 0.003805, 0.023441, 0.068700, 0.067496, 0.001860, -0.004220, 0.062953, 0.004139, -0.044972, 0.056602, 0.037718, 0.062942, 0.005223, 0.040926, 0.083824, 0.015212, 0.016094, -0.045966, 0.020516, -0.050137, 0.002694, 0.001618, -0.063656, -0.052948, 0.108057, 0.035267, 0.087666, 0.060303, -0.010656, 0.066127, 0.068627, 0.076570, -0.030609, -0.039521, 0.083594, 0.120641, -0.043293, 0.043926, 0.032719, 0.060188, 0.014314, -0.029321, -0.050103, 0.139403, 0.103813, 0.025121, -0.056061, 0.005058, 0.041321, -0.007512, 0.054611, -0.054242, -0.026447, 0.047090, -0.019882, -0.019626, -0.036739, 0.069681, 0.078187, 0.015155, -0.014077, 0.072357, 0.007468, -0.068897, -0.026186, -0.000139, 0.080213, -0.061349, 0.054273, -0.006621, -0.085128, 0.103623, 0.062566, 0.049420, 0.091893, 0.055618, -0.077493, 0.023426, -0.014555, 0.092111, 0.080485, -0.031427, 0.002858, 0.017488, -0.014829, 0.070242, -0.010538, -0.033011, -0.008129, -0.074567, -0.035881, -0.084156, -0.031058, -0.029986, -0.055501, 0.022221},
  {0.028558, -0.019081, 0.033923, 0.083131, 0.084421, -0.015376, -0.094492, 0.010586, -0.025230, 0.015592, -0.000365, -0.077707, 0.108619, 0.092949, 0.074120, 0.064825, -0.046748, 0.004779, -0.005012, -0.021584, -0.049250, -0.016507, -0.017378, -0.071558, -0.073935, 0.078271, -0.068968, -0.006204, 0.081424, -0.068150, 0.008656, 0.077034, -0.042678, -0.016620, -0.035273, 0.094177, -0.057451, 0.003393, 0.022180, 0.022838, 0.006127, -0.082053, -0.053139, -0.006542, -0.050250, -0.026294, -0.013553, -0.044095, -0.055530, 0.029649, -0.042280, 0.036731, 0.114697, 0.064076, -0.059380, 0.102504, -0.042462, 0.064284, -0.033168, -0.004568, 0.045508, 0.048534, 0.118662, 0.135463, 0.062017, 0.131039, -0.052658, 0.056427, 0.023914, 0.005887, 0.061948, 0.068146, 0.067800, 0.124823, -0.030671, 0.005405, 0.026112, -0.076633, 0.032816, -0.033951, 0.099853, 0.018101, 0.051714, -0.036801, 0.120017, -0.089031, -0.011580, -0.046426, -0.058813, 0.021649, -0.022093, 0.026039, -0.098493, 0.041255, 0.131702, 0.029722, -0.015088, -0.018266, 0.087078, -0.015139, -0.038603, -0.075798, 0.007269, -0.046768, -0.013495, -0.040826, 0.051138, 0.134604, 0.085154, 0.038253, 0.139930, 0.009439, -0.006681, -0.021540, 0.110561, -0.066848, 0.042008, -0.035055, 0.016207, 0.097323, -0.028506, 0.126845, 0.133284, 0.107959, -0.044478, -0.041522, 0.053818, -0.028949},
  {-0.031938, 0.040083, 0.027900, 0.009189, -0.022035, 0.032299, -0.084541, 0.077332, -0.006243, -0.049033, -0.019050, -0.004034, -0.033266, -0.004955, -0.059066, 0.057323, -0.050536, -0.006175, 0.008530, -0.061686, -0.008770, -0.018533, 0.132293, -0.034323, 0.053649, 0.085051, 0.049140, -0.034577, -0.017401, -0.051673, 0.007029, 0.080093, 0.045352, -0.080056, 0.089674, -0.036090, 0.054243, 0.067526, 0.006513, -0.088398, 0.027000, 0.025278, -0.021864, 0.009132, -0.021204, -0.054783, -0.048649, 0.029849, 0.124158, 0.062552, 0.121783, 0.048165, -0.022975, 0.058801, -0.019736, 0.011562, -0.124528, -0.012482, 0.107115, -0.068014, 0.015984, -0.071263, -0.007417, 0.003539, -0.025972, 0.020413, -0.077178, -0.037042, 0.071273, 0.089777, -0.004733, 0.065434, 0.114429, -0.079010, 0.077849, 0.021250, 0.056106, -0.092735, 0.056885, 0.068210, 0.002966, 0.006343, 0.096253, 0.107303, 0.008597, -0.031843, 0.026938, -0.000740, 0.031682, 0.022562, 0.071076, 0.080121, 0.054009, -0.084438, -0.010665, 0.006042, -0.029059, 0.000609, -0.016389, -0.031699, -0.042911, 0.091783, -0.017598, -0.006425, -0.117585, 0.019022, 0.115836, 0.063690, -0.027059, 0.061395, 0.018205, -0.045539, 0.063604, 0.103963, -0.097508, 0.050096, 0.024679, -0.046450, -0.042091, 0.005018, -0.059479, -0.017727, -0.071169, -0.086368, -0.106635, 0.117983, 0.039722, 0.041061},
  {0.104301, -0.082157, -0.029520, 0.016288, 0.015899, 0.079568, -0.066834, -0.112562, 0.056634, 0.050189, -0.026002, 0.002268, -0.015775, 0.101221, 0.069487, -0.006944, -0.015577, 0.087417, 0.085636, -0.025842, -0.085639, -0.064763, 0.013108, -0.035026, 0.088004, 0.031961, 0.047814, 0.055272, 0.056525, -0.090246, 0.054427, -0.031427, 0.006853, 0.023233, -0.060679, 0.043028, 0.117939, 0.029482, -0.118580, 0.065855, 0.042936, -0.013506, 0.059019, 0.072981, -0.008618, 0.071182, 0.074401, 0.008553, 0.118096, 0.039535, 0.010667, 0.068645, -0.077675, 0.057078, -0.076174, 0.075869, 0.067612, 0.003040, 0.034833, -0.027744, 0.023221, 0.038827, -0.052928, -0.042867, -0.006159, 0.053864, -0.042453, 0.067179, 0.034497, 0.135074, -0.042815, 0.035236, 0.082944, 0.074267, 0.016678, 0.034261, -0.030398, -0.008744, -0.021429, -0.021930, 0.100878, 0.075828, -0.077993, -0.012713, 0.043884, 0.023650, 0.004938, 0.032015, -0.028007, 0.076129, -0.073731, -0.072523, -0.026159, -0.074540, 0.097150, 0.030155, 0.040953, -0.098215, 0.112361, -0.089256, 0.057770, -0.063851, 0.031003, 0.018394, 0.016543, -0.024040, -0.004625, 0.012043, 0.012291, 0.035461, 0.005318, -0.034848, 0.057130, -0.040040, 0.098614, -0.105472, -0.056687, 0.045570, 0.057324, 0.084838, 0.032515, 0.016275, -0.037009, -0.042262, -0.105190, 0.069941, 0.062105, -0.065502},
  {-0.046510, -0.080385, 0.019825, -0.108890, -0.008783, -0.020336, 0.086752, 0.045140, 0.004917, -0.052997, -0.077913, -0.013809, -0.114089, 0.008911, -0.040388, -0.046725, -0.072191, 0.041292, -0.005735, 0.031976, 0.031314, 0.105236, -0.034525, 0.050361, 0.060706, -0.068138, -0.011554, -0.047944, 0.004980, 0.062776, 0.016981, 0.099810, 0.005110, 0.076221, 0.068013, 0.034553, 0.013714, 0.078954, 0.103416, -0.022294, 0.094649, -0.073010, -0.005617, -0.046311, 0.115287, 0.065245, 0.068623, -0.016160, 0.061807, 0.091961, 0.113287, -0.054483, -0.089504, -0.052875, -0.033095, -0.077893, 0.038447, 0.098851, 0.022364, -0.039900, 0.050695, -0.076466, 0.031796, 0.110221, -0.013211, 0.113401, -0.051299, 0.140766, 0.006114, 0.023467, 0.110539, 0.014869, -0.044974, 0.019685, 0.035442, 0.063802, 0.022848, -0.014221, 0.010535, 0.041603, 0.042392, -0.089774, 0.065427, -0.003738, 0.028751, -0.083809, 0.104056, 0.005631, 0.013388, -0.013253, 0.000187, 0.095275, 0.102615, 0.038965, 0.066457, 0.031334, -0.007396, 0.046370, 0.071807, -0.009879, 0.083836, 0.023879, -0.006059, 0.056272, -0.022906, 0.032498, 0.013504, -0.048901, 0.033485, 0.117762, -0.076042, 0.069981, -0.025322, 0.051511, 0.081178, 0.009284, -0.019911, 0.099345, 0.033132, 0.021119, -0.008847, -0.093136, -0.006678, -0.022588, -0.085007, 0.046958, 0.041943, 0.041820},
  {-0.035486, 0.019573, 0.058549, -0.015267, -0.039155, -0.068905, -0.027024, 0.090713, -0.005896, 0.035583, -0.025967, -0.088779, -0.037998, -0.094920, -0.027902, -0.049186, -0.030094, -0.016977, 0.081046, -0.053957, 0.021169, -0.022232, 0.062508, -0.107109, -0.084537, 0.015646, 0.004014, 0.096447, -0.032328, 0.020198, 0.016031, 0.065253, 0.053926, 0.076054, 0.076408, 0.005245, 0.055397, 0.020850, 0.139332, 0.051398, 0.124211, -0.092276, 0.125766, -0.061765, -0.032545, 0.068116, 0.025736, 0.033046, -0.015394, -0.031195, 0.016564, -0.000558, 0.104293, -0.040562, 0.097078, 0.003398, -0.100322, -0.006234, -0.029798, -0.133966, -0.123475, 0.050040, 0.109038, 0.014130, -0.025531, 0.124008, 0.060903, 0.014815, 0.047502, 0.011287, -0.051311, 0.102803, 0.093341, -0.000903, 0.079400, -0.034357, -0.111972, -0.036594, 0.061401, 0.014172, 0.094426, -0.048882, 0.036097, 0.102486, -0.044087, 0.073884, 0.060833, 0.033830, -0.011059, -0.046598, -0.003498, 0.122602, 0.013659, -0.058442, 0.051621, 0.005545, 0.083453, 0.001408, -0.029180, -0.091666, -0.050248, -0.025693, 0.086828, -0.032450, -0.088470, 0.121563, 0.123213, 0.036460, 0.050583, 0.042410, -0.023036, 0.034537, 0.060086, 0.049551, -0.047861, 0.090120, 0.056884, 0.036775, -0.018466, -0.061355, -0.044594, 0.021049, -0.113572, -0.025618, -0.035983, -0.001547, 0.037456, 0.101609},
  {0.062949, 0.101291, -0.019852, -0.064411, -0.124768, -0.002027, -0.037743, 0.102266, 0.048372, 0.105808, 0.128778, -0.037316, -0.081839, 0.047751, 0.068889, -0.061262, -0.024253, 0.022967, -0.038989, -0.096397, 0.080600, -0.025456, 0.010402, 0.031779, -0.062046, 0.000379, 0.039768, -0.068992, 0.047348, -0.073447, -0.094180, 0.114543, -0.030112, 0.067828, 0.062945, -0.063850, -0.038897, -0.047590, 0.024190, -0.124061, 0.016777, -0.043185, 0.063443, -0.042920, 0.090666, 0.005067, 0.031066, 0.051644, 0.055997, -0.008570, -0.000691, 0.016898, 0.117500, -0.013227, 0.002080, 0.073628, 0.037960, -0.064483, 0.013906, 0.075585, 0.087225, 0.037770, -0.044234, 0.037291, 0.078879, 0.025604, -0.057641, 0.014724, 0.030243, -0.059382, -0.095473, 0.010869, -0.060338, 0.076821, -0.021507, 0.035904, -0.077446, -0.094549, 0.050649, 0.077305, -0.076377, -0.024221, 0.078288, 0.006893, 0.038930, -0.021639, 0.005752, 0.005828, 0.047320, 0.044941, 0.074164, -0.008365, 0.070979, -0.057200, -0.038657, 0.084605, -0.011842, 0.108066, 0.003156, 0.054360, 0.047843, 0.034059, -0.029611, -0.018334, -0.024043, 0.021772, 0.087212, 0.088456, -0.102305, -0.002465, -0.069754, 0.001120, 0.054013, -0.051648, -0.062167, 0.065658, 0.008424, -0.037737, 0.030983, -0.051933, 0.106598, 0.031212, -0.012193, 0.047876, 0.000397, 0.021341, -0.042074, 0.039698},
  {0.110022, -0.039700, 0.026204, 0.105710, -0.039996, 0.071872, 0.028193, -0.047407, -0.090999, -0.068133, -0.001746, -0.046659, 0.043108, 0.046034, 0.044997, 0.001283, -0.064407, 0.021687, 0.047805, -0.007495, 0.067362, 0.091277, -0.017879, 0.070684, 0.040430, -0.032274, -0.010986, -0.083050, -0.016290, 0.023247, -0.014076, 0.035841, 0.003348, 0.125505, -0.004684, -0.004122, 0.056834, -0.068333, -0.020718, 0.018720, 0.094002, 0.003104, 0.040095, 0.007888, 0.007417, 0.097986, 0.048161, 0.075545, -0.047804, -0.064376, 0.116320, 0.046699, -0.052000, -0.018460, -0.010079, 0.010367, -0.058014, 0.021429, 0.001142, -0.039832, 0.017243, 0.057385, -0.061166, 0.014567, 0.053249, -0.010642, -0.013382, -0.044868, 0.111481, -0.005968, 0.062870, -0.021257, 0.043797, 0.045126, 0.009507, 0.069247, 0.043500, -0.112780, 0.100420, 0.092570, -0.057176, -0.023922, -0.061647, 0.047613, 0.001641, -0.005004, 0.030989, 0.083889, -0.050361, -0.036379, 0.049631, -0.059674, 0.059602, 0.049984, -0.040125, 0.095148, 0.146881, -0.016242, 0.042300, -0.037822, 0.001723, -0.041525, 0.043687, 0.020859, 0.010129, 0.033833, -0.096401, -0.112840, -0.028916, 0.065326, -0.080089, 0.089840, 0.034955, -0.052103, -0.012206, 0.082463, 0.016279, 0.104721, -0.057374, 0.009668, -0.054607, -0.059152, 0.067910, 0.022464, 0.111428, 0.127908, 0.089036, 0.021410},
  {0.046400, -0.009462, -0.036059, -0.025272, -0.007347, -0.000509, 0.075378, -0.014389, -0.053556, -0.029569, 0.026939, -0.044245, -0.077455, 0.088706, 0.007429, -0.067172, -0.007524, 0.094221, 0.072811, -0.071035, 0.112051, -0.136901, 0.108789, -0.088257, -0.044816, -0.018540, 0.031561, -0.085290, 0.096277, -0.042369, -0.033905, 0.039953, 0.048483, -0.003424, 0.130892, -0.044437, -0.050703, -0.006244, 0.087844, -0.075184, -0.003268, -0.060481, 0.116379, 0.028494, 0.033074, -0.018230, -0.071091, -0.032015, -0.014481, -0.028628, -0.025442, 0.001570, 0.039702, -0.035503, -0.007129, 0.055837, 0.039006, -0.110923, -0.087494, 0.031056, 0.014406, 0.015261, -0.105116, -0.125960, 0.113347, -0.033882, -0.013630, -0.022070, -0.067398, -0.001084, -0.117493, -0.069205, -0.034613, -0.033703, -0.069529, -0.044558, -0.073874, 0.041846, 0.120103, 0.069863, 0.013851, -0.001941, 0.067109, 0.048630, 0.061771, 0.103382, 0.020870, -0.008507, 0.004712, 0.037812, 0.051532, 0.079722, 0.097532, -0.098721, -0.055230, 0.092947, -0.061714, 0.107049, 0.046249, 0.013731, 0.014244, 0.070825, -0.027024, -0.080308, -0.094413, 0.044076, -0.023741, 0.026391, 0.041045, -0.039345, -0.013295, 0.045232, 0.045897, -0.023552, -0.013771, 0.108553, 0.015454, -0.041011, -0.048425, 0.058579, -0.110470, 0.069343, -0.090661, 0.104249, -0.107147, 0.032258, 0.124233, -0.021633},
  {0.066608, 0.001412, -0.060297, -0.000363, 0.059611, -0.006934, 0.129716, 0.104313, -0.018043, -0.080353, 0.007776, 0.077252, -0.049209, -0.080910, 0.056755, 0.078238, -0.031672, -0.052176, 0.059389, 0.003456, -0.009728, 0.073090, -0.009256, -0.060271, -0.048828, -0.090664, 0.012334, -0.019308, -0.088600, 0.062510, 0.026162, -0.021647, -0.057240, -0.030533, 0.038553, 0.032416, 0.144196, 0.017384, -0.033606, 0.032537, 0.027048, -0.007324, 0.023429, 0.055511, 0.073349, 0.135357, 0.101423, 0.030011, 0.065891, -0.012577, 0.065182, -0.056368, -0.099407, -0.052041, 0.025968, 0.043181, -0.056015, 0.062925, 0.099531, -0.072883, -0.030426, -0.027765, -0.022903, 0.029172, 0.081563, -0.000299, 0.075631, 0.095291, -0.025811, -0.018963, 0.024915, -0.050848, 0.085839, 0.020275, -0.007157, -0.002101, 0.081836, 0.018943, -0.066743, -0.006696, 0.012322, 0.012356, -0.037693, 0.057600, -0.054825, 0.001198, 0.112701, -0.010702, 0.093324, 0.090072, 0.006117, -0.003340, 0.135687, -0.043294, 0.029665, 0.078047, -0.025889, 0.070351, 0.128667, -0.107010, 0.015328, -0.017446, -0.028118, 0.090759, -0.064881, 0.114906, 0.029186, 0.004230, 0.058867, 0.102260, 0.052562, -0.047759, -0.036609, 0.056028, -0.004097, 0.081751, -0.002625, 0.008901, 0.002680, 0.005326, -0.060167, -0.087179, -0.069314, -0.092988, -0.055056, 0.057188, 0.064092, 0.058051},
  {-0.101418, 0.058077, 0.028505, 0.077345, -0.048871, -0.107957, 0.040543, -0.070397, -0.011684, 0.015567, 0.130984, -0.014740, -0.014032, 0.041869, 0.042727, -0.085641, -0.035559, -0.133529, -0.062919, -0.048430, 0.039207, 0.076633, 0.016895, 0.061828, -0.057510, 0.135443, -0.030289, 0.077457, 0.087161, -0.000398, -0.088132, 0.082786, 0.104242, 0.004496, 0.090076, 0.053010, 0.008396, -0.083353, 0.023801, 0.004307, -0.060007, 0.088454, -0.053746, -0.049251, 0.023770, 0.037594, 0.040164, -0.059099, -0.024622, 0.042697, 0.071750, -0.062842, 0.089794, -0.013589, 0.125546, 0.028373, 0.090540, -0.031658, -0.041351, -0.003001, 0.010286, 0.064126, 0.055665, -0.044928, 0.036172, 0.041617, 0.063847, -0.030617, 0.082971, 0.020078, -0.051075, 0.150711, -0.073843, -0.057436, 0.016565, -0.007751, 0.035539, 0.053268, -0.052332, -0.035283, -0.009061, 0.056695, 0.070101, -0.002977, 0.071928, -0.040028, 0.005906, 0.149709, -0.067100, 0.014155, 0.029764, 0.077429, 0.011294, 0.126175, -0.029790, 0.014171, -0.093600, 0.013880, -0.027351, 0.122323, -0.011525, -0.048337, 0.074449, 0.002512, 0.099052, 0.057271, -0.019157, 0.054636, -0.030117, -0.090432, 0.077901, -0.088215, 0.009161, 0.099231, 0.043824, 0.076058, 0.077677, 0.068885, 0.079177, 0.058126, 0.129188, 0.070109, 0.049934, 0.080245, -0.001006, -0.028361, 0.040732, 0.072799},
  {-0.108918, 0.007634, -0.012931, 0.111462, 0.072070, -0.093218, 0.039133, 0.060888, -0.033270, 0.072582, -0.017955, 0.131998, 0.097032, 0.030642, -0.085913, 0.015117, 0.119842, 0.041689, -0.037578, 0.065159, -0.111518, -0.034846, -0.055069, 0.094229, 0.078968, -0.031268, 0.047724, 0.004598, -0.079022, -0.030425, 0.049775, -0.026694, 0.079582, 0.024853, -0.116118, 0.041295, -0.003237, -0.038079, 0.050359, -0.046694, -0.003686, 0.047695, 0.041595, -0.018001, 0.052851, -0.028548, 0.052682, -0.007023, 0.074387, 0.093951, 0.000443, 0.023070, 0.018699, 0.060145, -0.031950, -0.030655, 0.013493, 0.131208, -0.001696, 0.083792, 0.095816, 0.038059, 0.030775, -0.053977, 0.072657, -0.077650, -0.019853, -0.076778, 0.106382, -0.020133, -0.059962, -0.055121, 0.002247, -0.042867, -0.016064, 0.075423, 0.011666, 0.013350, 0.037485, 0.057823, -0.046730, -0.007946, 0.057265, 0.021130, -0.063263, -0.140266, 0.123884, 0.055347, 0.019303, -0.052534, 0.005420, -0.070649, -0.026525, 0.024613, 0.021429, 0.026970, 0.069406, 0.066925, -0.019872, 0.126165, 0.098519, 0.045154, 0.002981, -0.033134, -0.012840, -0.065935, 0.016855, -0.029708, 0.002817, -0.105856, 0.049041, -0.087244, 0.040634, 0.077516, -0.106587, 0.047093, -0.031290, 0.073988, 0.114433, 0.016362, 0.136040, 0.033735, 0.016946, 0.110712, 0.098506, -0.017510, 0.037045, 0.045503},
  {-0.053682, -0.049202, -0.096642, -0.032477, 0.061139, -0.005121, 0.022055, 0.066671, 0.040906, 0.011205, 0.032685, -0.048063, -0.077320, 0.069765, 0.023414, 0.032782, 0.005893, -0.018199, -0.019741, 0.004211, 0.067498, 0.039406, -0.030070, -0.009216, 0.033671, -0.004060, 0.014904, -0.036392, -0.018929, -0.034035, -0.025281, 0.093575, 0.003233, -0.062838, 0.063545, 0.090531, 0.085651, 0.068110, 0.050257, 0.010341, -0.087884, 0.038393, -0.053854, 0.008893, 0.012678, -0.056160, 0.053387, 0.060075, 0.034269, -0.022076, -0.000901, -0.080967, 0.009378, 0.002603, -0.035483, -0.005034, -0.096158, 0.046024, 0.028670, 0.018536, 0.082208, 0.010949, -0.088674, -0.018562, 0.051950, 0.040062, 0.074917, -0.027889, 0.001689, 0.036244, -0.009617, 0.123930, -0.042135, -0.023317, 0.022295, -0.025400, 0.072311, 0.000385, -0.069431, -0.073966, 0.011781, -0.088621, 0.026873, 0.073102, 0.060314, 0.053274, 0.043776, -0.081059, -0.024045, 0.029990, 0.076639, -0.102172, -0.045070, 0.017945, 0.036721, -0.046061, -0.046723, -0.056161, -0.047935, 0.004734, -0.037518, -0.092299, 0.051047, 0.098481, -0.025205, -0.026680, -0.006311, 0.093373, -0.034370, -0.016149, -0.045314, -0.030652, 0.031347, 0.013459, 0.069899, -0.097103, -0.085992, -0.060166, -0.053525, 0.031044, -0.054430, 0.058037, 0.021317, 0.014006, -0.014790, 0.048548, -0.072230, -0.006399},
  {0.027313, 0.091841, -0.038773, -0.101507, 0.044965, 0.108082, -0.061545, 0.018913, -0.069424, 0.012685, -0.061243, -0.055311, -0.111539, 0.011477, 0.085900, -0.059933, -0.007903, 0.030125, 0.023123, -0.040889, 0.036809, 0.081283, -0.080668, -0.036992, -0.052742, -0.061509, 0.066606, 0.042398, -0.065225, 0.036197, -0.061800, 0.099395, -0.022756, 0.006162, 0.024844, 0.062640, 0.038783, 0.033941, 0.064250, 0.063883, 0.068422, -0.011212, -0.001698, 0.137836, -0.007335, 0.107251, 0.089074, -0.110072, 0.105421, 0.027657, -0.038096, 0.017261, -0.083688, 0.010372, 0.059182, -0.047571, -0.000502, -0.022159, 0.048983, -0.060612, -0.001396, -0.018159, 0.102232, 0.080732, 0.053897, 0.080654, -0.010212, 0.032245, -0.046195, -0.026501, 0.110247, -0.018228, 0.078239, -0.005817, 0.050978, -0.026125, -0.050789, 0.094269, -0.030759, 0.085674, 0.082478, 0.023744, -0.047144, 0.050162, 0.083827, -0.033584, -0.044152, 0.023203, 0.088935, 0.027613, 0.035036, -0.028315, -0.024805, -0.055367, 0.083952, 0.004684, 0.041591, 0.002237, 0.075988, -0.089546, 0.095083, -0.060492, -0.035018, 0.060880, 0.017735, -0.068025, 0.102614, 0.059884, 0.001663, 0.005054, -0.073901, 0.053678, -0.033119, 0.091744, 0.085183, -0.075845, -0.031134, -0.000230, 0.008202, -0.061410, 0.034604, 0.047555, -0.038042, -0.068250, -0.111118, -0.051889, 0.030489, 0.100884},
  {0.021685, -0.059799, -0.050611, 0.043002, 0.111741, -0.062304, -0.058787, -0.009107, -0.038736, -0.033502, -0.036029, 0.054119, 0.019986, -0.041013, 0.040970, -0.000421, 0.055110, 0.090442, -0.006508, 0.025607, 0.020974, -0.038626, 0.040594, -0.037063, -0.075716, -0.065566, -0.077032, 0.044969, -0.076068, 0.109687, 0.099576, 0.019963, 0.077235, -0.073383, -0.058614, -0.079979, 0.062702, 0.000290, 0.004701, 0.034534, 0.051419, -0.056714, 0.088794, 0.017107, 0.001019, 0.107535, 0.029464, 0.123628, 0.081116, 0.142629, 0.111965, 0.012978, 0.052751, 0.105164, -0.001805, 0.044118, 0.082185, -0.003255, 0.090018, -0.020552, 0.001684, 0.090689, -0.054754, -0.007206, 0.033860, -0.014984, -0.102952, 0.124835, -0.020166, 0.083194, -0.046546, -0.046260, 0.105688, -0.024665, 0.028256, 0.045217, -0.104039, -0.010850, 0.110384, 0.094914, 0.057020, 0.008668, -0.061192, -0.054706, 0.067926, -0.045931, 0.107733, 0.051577, 0.019013, 0.040152, 0.038496, 0.021790, 0.023753, -0.082210, -0.097915, 0.002729, 0.080273, 0.088081, -0.050052, -0.005604, -0.055859, 0.092007, 0.029539, -0.100880, 0.013289, 0.041916, 0.022470, -0.037451, 0.087312, -0.038589, -0.021406, -0.015503, -0.033178, 0.085755, -0.050167, 0.086662, 0.062124, 0.103919, -0.111855, 0.082445, 0.036477, 0.038925, -0.052995, 0.033707, 0.052625, -0.034789, 0.109172, -0.037447},
  {0.003407, 0.076624, -0.025047, -0.025655, 0.071007, 0.075311, 0.010614, 0.071495, -0.063227, -0.013227, -0.021730, 0.013364, -0.086084, 0.061494, 0.087186, 0.063129, 0.039968, -0.013164, 0.052576, 0.075152, -0.029507, 0.124600, 0.024440, -0.006851, 0.117394, -0.084176, -0.003802, 0.085485, -0.035798, 0.029820, -0.006523, 0.084739, 0.045428, -0.073098, -0.049406, -0.041522, 0.086511, 0.045369, -0.072076, -0.022588, -0.014267, 0.107861, -0.034559, 0.075934, -0.036179, 0.024196, -0.016712, -0.084603, 0.078928, -0.034508, -0.051178, -0.043785, 0.037342, -0.069613, -0.074378, -0.116401, 0.043953, 0.092009, 0.099858, 0.015786, 0.113011, 0.048440, -0.016038, 0.099915, 0.010385, -0.014537, 0.054474, 0.091083, -0.028477, -0.008571, 0.064747, 0.039340, 0.006568, -0.108394, 0.021556, -0.006868, -0.029001, -0.054445, -0.016797, 0.030116, 0.119712, -0.025842, -0.031756, -0.025191, 0.099903, 0.056711, 0.009396, 0.097116, 0.077062, 0.031374, 0.006847, 0.103933, 0.050606, -0.028564, 0.019476, 0.003166, 0.035287, -0.041896, 0.066839, -0.061991, 0.114934, 0.075388, -0.043205, -0.019521, -0.010050, 0.054052, 0.096398, 0.014423, -0.022823, -0.056263, -0.001448, -0.033502, -0.052517, 0.062943, 0.002572, -0.013697, -0.065565, 0.129416, 0.083501, -0.080731, 0.029589, -0.100419, -0.023631, 0.041318, -0.074094, 0.039700, 0.040199, 0.057586},
  {0.087029, 0.100641, -0.052750, 0.052682, 0.001748, -0.012304, -0.004057, -0.020482, 0.031205, 0.098184, 0.008086, 0.102960, 0.108080, 0.129506, 0.033074, -0.070621, -0.024672, -0.005312, 0.039707, 0.116770, -0.097120, 0.032321, -0.089819, 0.131676, -0.022956, 0.019884, 0.067911, 0.032482, 0.083284, 0.059077, 0.101825, -0.020727, 0.127809, 0.107680, -0.076365, 0.079253, -0.064378, 0.077913, -0.085006, 0.035594, -0.050249, 0.092685, -0.024371, 0.054183, 0.079814, 0.084323, 0.044352, 0.012289, 0.003752, 0.031571, -0.017658, 0.043313, 0.047491, 0.082614, -0.040557, 0.016563, -0.016861, 0.056347, -0.006536, 0.144562, 0.136750, 0.051807, 0.021241, 0.093733, 0.057996, 0.023293, 0.099015, -0.086816, 0.024643, -0.061517, -0.060678, 0.117608, -0.081045, 0.087093, 0.052755, 0.083327, 0.114147, 0.101341, -0.031161, -0.025482, -0.097313, 0.131891, 0.045927, -0.057945, 0.103805, 0.014796, 0.018073, 0.014629, 0.099476, 0.078928, -0.078745, -0.089213, -0.049368, 0.114005, 0.024552, 0.001165, 0.098857, 0.019315, 0.006482, 0.117774, -0.020384, 0.019143, 0.009770, 0.101006, 0.126261, -0.025075, 0.017365, 0.017951, 0.028304, -0.039012, 0.007849, 0.023699, 0.059533, -0.060040, 0.088021, 0.001868, 0.038259, -0.050044, 0.086012, 0.056973, -0.006053, 0.100668, 0.018168, 0.118122, 0.115952, 0.017136, 0.060849, 0.011918},
  {-0.004131, 0.109035, 0.003160, 0.100025, 0.063162, 0.005957, 0.138159, 0.045710, -0.055483, -0.082239, 0.059904, -0.018669, 0.035059, 0.058375, 0.007218, -0.023188, -0.074221, -0.046782, 0.012295, 0.044260, -0.024031, -0.011558, -0.056568, 0.027920, 0.002402, -0.088984, 0.059872, 0.072358, -0.015604, -0.065929, 0.076114, 0.018880, -0.067839, 0.029581, 0.007453, 0.000856, 0.090997, 0.031382, -0.075988, 0.022330, -0.009783, -0.027948, 0.077352, 0.052972, -0.052192, -0.003559, 0.008400, -0.029113, -0.001469, -0.023006, 0.043236, 0.075720, 0.030714, 0.040199, 0.084111, 0.046729, -0.030929, -0.050831, -0.101789, -0.002920, -0.025700, 0.008642, -0.099473, 0.058135, 0.017567, 0.010291, -0.014143, 0.005966, -0.067430, 0.039141, 0.061530, -0.022486, 0.036911, 0.038941, -0.027159, 0.098218, 0.078135, 0.019796, -0.025419, -0.072852, 0.016351, 0.099393, -0.023176, 0.002656, 0.089227, -0.022381, -0.014601, 0.043683, 0.099387, 0.002886, -0.002104, -0.085780, -0.029195, -0.029924, 0.079380, -0.031248, 0.034523, -0.073203, 0.023204, 0.034298, 0.040789, -0.114108, 0.045069, -0.001273, 0.040124, -0.083759, -0.076926, 0.097345, -0.043024, -0.055406, -0.034790, 0.110981, 0.065771, -0.051613, 0.138247, -0.015168, 0.039817, -0.078341, 0.010178, 0.080892, 0.026991, -0.077258, 0.109663, 0.072637, -0.043058, -0.042824, 0.021596, -0.086776},
  {0.123715, 0.063074, -0.024773, 0.082162, -0.053471, 0.098900, 0.047004, -0.012192, 0.091212, 0.009668, 0.003636, 0.030060, 0.014513, -0.013959, -0.024037, -0.076440, -0.065908, -0.033644, 0.024168, -0.039656, -0.031987, -0.018724, -0.016147, 0.126278, 0.073682, 0.086770, -0.000484, -0.077011, -0.007015, 0.030426, 0.005115, 0.102911, 0.019434, -0.033964, 0.059507, -0.005695, 0.040555, 0.020898, -0.032483, -0.006539, 0.014449, 0.092536, -0.043498, -0.021016, 0.113386, 0.006561, -0.056680, 0.048250, -0.005222, -0.096210, -0.048990, 0.038992, -0.031019, 0.006074, -0.038711, -0.027634, 0.086992, -0.078828, -0.029583, -0.036297, 0.127449, 0.114414, -0.042635, -0.025977, 0.135546, 0.054372, 0.083262, 0.034220, 0.094517, 0.049960, 0.080515, -0.016693, 0.006954, 0.097689, -0.043149, 0.066492, 0.060893, 0.031690, 0.137091, 0.021187, 0.022352, 0.084782, 0.019313, 0.072374, 0.064714, 0.102265, -0.026798, 0.103220, 0.057407, 0.056709, -0.003257, -0.035095, 0.008628, 0.080691, 0.069775, 0.002566, -0.001817, 0.014188, -0.040805, 0.087908, 0.067208, -0.026584, 0.040677, 0.056567, 0.053692, 0.038287, 0.032778, -0.025591, -0.065704, 0.014902, 0.050666, 0.088523, -0.060149, -0.059584, 0.109050, 0.057883, -0.011950, -0.014697, -0.032277, 0.121959, -0.031250, -0.034446, 0.018044, 0.087478, 0.007793, 0.000888, 0.129896, -0.067584},
  {-0.007774, 0.006272, 0.074602, -0.089776, 0.038244, 0.029759, 0.029575, -0.026723, -0.022381, -0.021912, 0.053483, -0.041170, 0.020959, -0.064463, 0.108512, -0.029434, -0.031209, -0.107687, 0.030182, -0.006233, 0.065581, 0.069205, -0.014859, 0.063566, 0.100731, 0.011051, 0.074617, 0.069070, 0.074114, -0.007215, -0.086755, 0.132342, 0.002152, 0.038731, 0.113972, -0.007124, -0.007984, 0.053647, 0.012093, 0.014315, -0.004502, 0.053671, -0.062867, 0.084022, -0.069191, 0.066794, -0.025633, 0.006617, -0.003838, -0.035875, -0.081429, 0.029417, 0.127494, 0.017112, 0.029635, -0.052698, -0.055854, -0.007665, -0.098771, -0.015905, -0.021595, -0.058656, 0.022421, 0.037201, -0.023799, 0.090358, -0.027098, 0.010114, -0.050705, -0.092013, 0.025527, 0.101566, 0.039390, -0.101418, 0.078422, -0.026738, -0.043428, 0.041292, -0.008276, -0.000742, -0.014934, -0.040616, -0.042768, 0.052499, 0.029593, 0.059975, -0.029047, 0.056628, 0.023080, -0.073572, 0.079158, -0.045765, -0.030660, 0.015219, 0.008535, 0.050074, -0.089429, 0.035243, 0.104797, -0.047989, 0.024161, -0.063979, 0.095779, -0.029756, 0.003719, -0.003829, 0.055450, 0.109482, -0.046405, 0.001777, 0.009430, -0.109892, 0.116313, -0.022352, 0.036090, -0.060996, 0.099264, 0.041455, 0.088760, 0.028016, 0.043605, -0.014907, -0.044107, -0.024585, 0.021110, 0.023896, -0.084489, 0.043867},
  {0.057617, 0.004564, -0.029807, -0.042805, 0.082647, -0.045896, -0.033132, -0.065158, 0.037441, -0.056719, 0.055380, 0.036668, -0.024485, 0.041516, -0.040604, -0.082216, -0.032862, 0.108416, -0.059677, 0.046598, -0.104129, 0.097435, -0.050591, -0.106633, -0.053747, -0.055068, -0.074123, 0.071845, -0.047596, 0.038140, 0.021891, -0.001468, -0.065359, 0.014699, -0.036077, 0.075324, -0.006598, 0.090462, -0.004667, -0.081305, 0.002748, -0.055942, -0.086144, 0.056164, -0.051779, 0.005633, -0.080504, -0.014058, 0.025675, -0.015428, -0.012309, 0.079589, -0.024219, -0.053954, 0.031392, -0.023790, 0.015405, 0.053095, -0.002739, -0.034804, -0.077006, 0.053269, -0.018991, 0.086381, -0.024185, -0.036104, -0.009098, 0.035111, -0.089408, 0.073316, 0.091723, -0.049249, 0.045595, -0.025250, 0.023917, 0.032539, 0.057196, -0.115078, 0.085699, -0.033024, 0.125653, 0.016196, -0.050188, -0.020810, -0.039598, 0.038586, 0.055823, -0.076198, 0.041442, -0.016286, 0.049163, -0.032155, 0.033101, -0.042085, -0.012537, 0.048685, 0.055782, 0.013010, 0.010188, -0.062589, -0.027190, -0.040390, 0.099566, -0.071818, -0.005751, -0.089021, 0.027925, 0.020775, 0.016326, -0.017971, 0.012310, 0.079560, -0.091918, 0.018888, 0.082802, -0.059900, 0.006338, 0.122532, 0.041221, -0.022034, 0.035112, 0.018336, -0.020870, -0.003667, -0.003537, 0.077054, 0.067348, -0.040035},
  {-0.020260, 0.050261, -0.026607, -0.012205, 0.030587, -0.076346, -0.018671, 0.127602, 0.072012, 0.027771, 0.099391, 0.076430, 0.021272, -0.075288, -0.120016, -0.042534, -0.011641, -0.039895, -0.021098, -0.073027, -0.033616, 0.082037, 0.031696, -0.034064, 0.007183, 0.067918, -0.064919, -0.013130, -0.067348, -0.068954, 0.053007, -0.031063, 0.045863, 0.134363, -0.028918, 0.005148, 0.023537, 0.061836, 0.084386, -0.111875, 0.123439, 0.008694, 0.089495, 0.047180, 0.122677, 0.079738, -0.032683, -0.009662, -0.044537, -0.105800, 0.094678, -0.047111, -0.036650, 0.025199, 0.112770, 0.013557, 0.005765, -0.013744, -0.044335, 0.063491, 0.107573, 0.001163, 0.033608, -0.070232, -0.044263, -0.048931, 0.036718, -0.003605, 0.140417, 0.085942, -0.022264, -0.110075, 0.080958, -0.012398, 0.101707, 0.040384, -0.019777, 0.002385, 0.101377, 0.104711, -0.045289, -0.097298, 0.012396, 0.057503, -0.070307, -0.028143, 0.007415, 0.086768, -0.036204, 0.009249, 0.023520, 0.007739, 0.043111, -0.015610, -0.066857, 0.087754, -0.013275, 0.076390, -0.099386, 0.073702, 0.102517, 0.039007, -0.037264, 0.067595, 0.076843, 0.091903, 0.046988, -0.083635, -0.067656, 0.021522, -0.050715, -0.040298, 0.031514, -0.008235, -0.083419, 0.083101, 0.064812, 0.101527, 0.053681, -0.004892, 0.058560, 0.020312, -0.101949, 0.100984, 0.122258, 0.100187, -0.062387, -0.023158},
  {0.036380, -0.033153, 0.070635, -0.036625, 0.143022, 0.111969, 0.052286, -0.022888, -0.045317, -0.097687, 0.029346, 0.044553, -0.000903, 0.073659, 0.041621, 0.020804, -0.014734, 0.130795, 0.062304, 0.103747, -0.055159, 0.102354, 0.047976, -0.027614, 0.060531, -0.108451, 0.075489, 0.035447, -0.072059, 0.077104, 0.067209, -0.042314, -0.015655, 0.018221, 0.038883, 0.086742, 0.129921, 0.046457, -0.096255, 0.103261, -0.050168, 0.037870, -0.009518, 0.077492, -0.000142, 0.123681, -0.060029, 0.054686, 0.077602, -0.015504, -0.080155, 0.099418, -0.072183, -0.014312, -0.035116, 0.057315, -0.006285, -0.011171, 0.011276, 0.089642, -0.036572, 0.078184, -0.065585, 0.138453, -0.039414, 0.077555, 0.044964, 0.002656, -0.084308, 0.108328, 0.029091, 0.048027, -0.014786, 0.109615, -0.012257, 0.047456, 0.071545, 0.123153, -0.058304, -0.072316, -0.050149, 0.092627, 0.026533, -0.018186, -0.000148, -0.017911, 0.071337, -0.031404, 0.042601, 0.098302, 0.006044, 0.042638, -0.036569, 0.046583, 0.070301, 0.056119, -0.075829, -0.050996, 0.112832, 0.020539, 0.045341, -0.023536, 0.076770, 0.035530, 0.079012, -0.077243, 0.033064, -0.042035, 0.048267, -0.002996, 0.097089, 0.022828, 0.026167, -0.017699, -0.005436, -0.069941, 0.068881, 0.107212, -0.034596, 0.089594, -0.008094, -0.015868, 0.047532, 0.070361, -0.027733, 0.107730, -0.075566, -0.037336},
  {-0.049472, 0.069329, 0.060845, 0.108427, 0.070898, -0.070597, 0.052277, -0.086038, 0.107199, 0.130389, 0.110274, -0.014365, 0.022154, 0.029927, 0.058382, 0.069513, 0.137915, -0.055243, 0.009868, -0.041311, -0.108524, 0.086004, 0.060991, 0.087220, 0.108872, 0.181066, 0.023575, 0.084475, 0.139225, 0.055768, 0.032511, 0.022608, 0.050975, 0.025150, 0.003223, -0.046773, -0.026645, -0.066040, -0.047264, 0.103138, 0.046204, -0.023957, -0.066975, -0.063559, 0.039711, -0.040339, -0.077598, -0.071142, -0.067228, -0.032540, -0.083986, -0.013803, 0.114026, 0.038359, 0.020471, 0.010638, 0.104226, 0.045965, 0.087706, 0.140256, 0.013379, 0.070647, 0.076453, -0.002748, 0.033679, 0.020086, -0.018902, 0.025090, 0.060079, -0.123818, -0.068057, 0.060210, 0.027928, 0.083902, 0.028074, -0.063581, 0.032983, 0.105653, 0.072288, 0.007388, -0.030027, 0.111180, 0.058800, 0.105502, -0.019109, 0.120036, 0.028716, 0.076338, 0.022636, 0.056270, -0.007863, -0.060135, -0.086950, 0.016375, -0.103262, 0.017832, 0.030767, 0.073746, 0.034363, 0.082534, 0.079983, -0.006212, 0.013302, -0.023329, 0.024078, -0.068465, 0.070425, -0.081941, 0.005872, -0.077092, 0.111910, -0.016746, 0.098892, -0.002691, -0.004663, 0.030921, -0.006238, -0.007634, 0.040153, 0.051211, -0.018918, 0.111831, 0.037294, 0.047096, 0.094185, 0.009237, 0.040714, 0.011453},
  {-0.028164, 0.046073, 0.056982, -0.043130, -0.061799, -0.058865, -0.089612, -0.007194, -0.005607, -0.036715, -0.013080, -0.019987, -0.087027, -0.094750, -0.025909, 0.010538, -0.060732, 0.083419, 0.038869, -0.024037, -0.015318, 0.079740, 0.105256, -0.069194, -0.048134, 0.137641, -0.000464, 0.096959, -0.008917, 0.000373, -0.054891, -0.029154, -0.046561, 0.076012, 0.122955, 0.099057, -0.059394, 0.135633, 0.037959, -0.032060, 0.035863, 0.034081, -0.023055, -0.001936, -0.063510, -0.019118, 0.105733, -0.056402, 0.105449, -0.060981, -0.008980, 0.074080, 0.056607, -0.012871, 0.042181, 0.053304, -0.121617, 0.080960, 0.025558, -0.103782, -0.105057, 0.044730, 0.018243, -0.024725, -0.107164, 0.124558, -0.044158, 0.024765, 0.014135, -0.052316, -0.020689, 0.140012, 0.023724, -0.121581, -0.021330, -0.017268, -0.041378, 0.027159, -0.077744, 0.083578, 0.074231, -0.045933, 0.107363, 0.005195, -0.044631, 0.073436, 0.025041, -0.023890, -0.026993, -0.007379, 0.132570, 0.115459, 0.111634, -0.035654, 0.030490, 0.034074, 0.034862, 0.005328, 0.098114, -0.008139, 0.078898, 0.083782, 0.043284, 0.051968, -0.048773, -0.013817, 0.127207, 0.074434, -0.003366, 0.112991, -0.064315, 0.050831, 0.058388, -0.063173, -0.002937, 0.006947, 0.097707, -0.016607, -0.032466, -0.125666, -0.007649, 0.108368, -0.076296, -0.071162, -0.114114, 0.006438, 0.007516, 0.077463},
  {-0.035653, -0.046939, 0.089416, 0.031260, -0.033523, -0.110866, 0.007892, 0.023454, -0.013786, 0.037244, 0.040761, -0.033327, 0.126015, -0.098272, 0.009143, 0.013807, 0.102712, 0.015263, -0.054521, 0.004630, 0.081064, 0.036022, 0.099788, 0.041799, 0.033424, 0.045459, 0.019582, 0.109286, 0.090041, 0.006804, 0.011571, -0.057904, 0.072269, 0.066773, 0.021307, -0.022135, -0.074259, -0.046390, 0.064720, 0.011743, 0.018246, 0.074932, -0.025277, -0.035675, 0.059519, -0.028858, -0.045968, 0.127178, -0.073611, -0.038623, -0.050010, -0.005488, 0.050576, 0.063637, 0.057554, 0.015137, 0.095647, 0.019324, 0.081481, 0.081113, -0.016072, -0.063681, -0.005342, -0.022424, 0.023397, -0.031452, -0.054278, -0.052431, 0.104160, -0.002806, -0.095002, -0.034977, 0.086341, 0.016275, -0.033202, -0.080584, -0.007169, -0.006773, 0.028213, 0.093105, 0.044599, 0.045650, 0.085399, 0.074614, 0.104715, 0.081595, 0.007088, -0.025132, 0.087872, 0.011159, -0.035391, 0.057541, 0.060059, -0.007532, -0.044327, 0.117294, -0.110395, 0.006867, -0.015662, 0.111033, -0.050843, -0.011582, -0.084674, 0.061045, 0.043395, 0.066298, -0.048313, -0.039443, 0.014162, 0.108976, -0.013140, 0.017740, 0.067191, -0.064908, 0.010537, 0.023902, -0.007688, -0.006398, -0.021897, 0.000078, -0.051576, 0.008118, -0.026415, 0.028141, -0.057831, -0.009592, 0.085679, -0.069324},
  {0.042072, 0.091193, 0.037442, 0.088182, 0.106189, 0.050539, -0.070731, 0.007056, 0.002294, 0.035044, 0.045741, 0.125092, 0.000100, -0.015282, -0.057582, 0.105401, 0.087222, -0.055781, 0.047355, -0.001975, -0.084765, 0.061128, 0.016560, -0.031357, -0.034135, 0.062398, -0.054866, -0.052416, -0.064267, 0.008472, 0.072920, 0.048212, 0.049358, 0.035925, -0.034118, -0.070262, -0.122933, 0.059862, 0.084211, 0.059286, -0.004499, 0.101808, -0.035620, 0.011692, 0.009023, -0.009084, 0.069432, -0.081530, 0.026978, 0.120828, 0.050016, 0.018519, 0.114473, 0.123467, -0.074437, -0.140309, 0.033061, 0.117319, 0.078716, 0.001215, 0.069133, -0.067830, 0.067316, -0.007671, 0.005233, 0.078480, -0.038654, -0.101048, 0.015968, -0.096759, 0.036449, -0.036065, -0.063381, -0.065741, 0.088686, -0.008315, 0.041209, 0.118563, -0.031269, 0.007334, -0.005453, -0.032317, 0.070266, -0.063207, -0.014983, -0.001646, -0.013859, 0.053131, 0.001181, 0.098707, -0.009142, -0.048754, 0.036470, 0.117936, -0.053060, -0.087841, 0.049971, -0.046138, -0.028854, 0.111106, 0.017591, 0.035363, -0.055711, 0.106450, 0.051106, 0.071813, 0.003445, -0.085406, 0.053108, 0.007862, 0.047571, 0.069450, -0.040923, 0.145754, -0.062180, 0.085289, 0.096471, -0.020152, 0.113112, 0.066834, 0.099476, 0.111501, 0.018129, 0.053609, 0.092394, 0.029055, -0.053117, 0.085624},
  {0.029326, 0.041111, 0.086599, 0.054843, 0.113285, 0.054641, -0.001393, 0.035834, 0.067817, 0.012077, 0.039596, 0.042099, 0.105572, 0.057478, 0.100811, -0.006473, -0.023942, -0.017320, -0.031390, 0.105961, 0.055774, 0.069815, 0.006548, 0.026823, -0.026876, 0.018580, 0.082540, 0.076252, 0.099357, 0.036617, 0.071307, 0.093872, 0.007994, -0.007461, 0.124013, -0.044555, 0.041445, 0.108391, -0.034375, 0.135959, -0.078803, 0.092381, 0.030367, 0.009524, -0.024592, 0.116139, -0.068598, 0.115722, -0.032443, 0.041659, -0.048462, 0.035273, -0.004504, 0.073463, 0.016418, 0.039202, 0.108444, 0.043582, -0.059663, -0.005571, -0.039902, 0.067747, 0.037927, 0.070779, 0.136649, -0.037475, 0.095111, 0.075681, -0.096972, 0.043881, -0.069660, 0.024516, 0.070447, -0.018642, -0.084266, -0.021154, 0.087435, 0.025467, 0.021987, 0.043130, -0.059998, 0.060304, 0.030727, -0.074479, 0.070556, -0.022054, 0.001932, -0.033026, 0.129723, 0.089981, 0.014675, -0.064215, -0.074568, -0.000537, 0.016824, -0.022317, 0.057972, -0.035426, -0.019675, 0.001543, 0.085099, 0.014024, -0.006172, 0.062297, 0.080996, -0.018953, -0.008496, 0.092004, -0.008143, -0.012780, -0.036179, -0.034742, 0.025373, -0.101389, 0.114291, -0.081051, -0.081028, -0.085675, -0.050477, 0.092497, 0.067868, 0.032630, 0.065074, 0.048526, -0.065443, -0.031438, -0.003605, -0.039709},
  {-0.058387, 0.018700, 0.035889, -0.050548, 0.115521, -0.084275, -0.018338, 0.063916, -0.012903, 0.046238, -0.029269, 0.097913, -0.016851, 0.066839, 0.083620, 0.121419, 0.107289, 0.106058, -0.012390, 0.107920, 0.012347, -0.008368, -0.059964, -0.064980, 0.015373, -0.091006, -0.076708, 0.039042, -0.134995, 0.088652, 0.123285, -0.014296, 0.034443, 0.024648, 0.042027, 0.031518, -0.038439, 0.059395, 0.006648, 0.103588, 0.002707, -0.057572, 0.076156, -0.108068, -0.066635, 0.035889, -0.031209, -0.112126, 0.034220, 0.071927, 0.014273, -0.032382, 0.035204, 0.105197, -0.040320, -0.106427, -0.009083, 0.124099, 0.106547, 0.031630, -0.046546, 0.042524, 0.102976, 0.095916, -0.089746, 0.110304, -0.103343, 0.019387, 0.079323, -0.033827, 0.108676, -0.043650, -0.016852, 0.034917, -0.047162, -0.034744, 0.054025, -0.035282, -0.013974, -0.042150, -0.028332, -0.086682, -0.006709, -0.089552, 0.075460, -0.160110, 0.110082, -0.046369, -0.026493, 0.067657, 0.079326, 0.088515, 0.044964, -0.092971, 0.044375, 0.013963, 0.002170, 0.020656, 0.043761, 0.062583, -0.056135, 0.129079, -0.064227, -0.092243, -0.040496, -0.018673, 0.101752, 0.027156, 0.127886, 0.061154, 0.107705, 0.104978, 0.028011, 0.027710, -0.037887, 0.027632, 0.062580, 0.123975, -0.031307, -0.071646, 0.112953, 0.075794, -0.045046, -0.024269, -0.049667, 0.112526, 0.028210, 0.027809},
  {-0.019258, -0.049134, -0.040107, 0.097582, -0.026746, -0.079085, 0.033467, 0.094107, -0.066341, -0.014188, -0.045593, 0.071630, 0.099392, 0.009778, 0.030110, 0.071508, 0.067750, -0.084299, -0.053921, 0.035130, 0.090012, -0.068340, 0.092918, 0.087927, -0.081690, -0.013595, 0.006378, -0.051151, -0.066083, 0.061310, 0.080786, -0.088238, 0.037575, -0.003061, -0.040861, -0.064365, 0.056945, 0.051212, 0.081006, 0.061650, 0.096139, -0.003956, 0.073353, -0.017734, 0.117158, -0.022124, 0.017520, 0.091595, 0.070796, 0.112250, 0.002470, -0.082516, -0.041595, -0.040121, -0.031024, -0.053642, 0.023862, 0.076735, 0.024629, -0.024528, 0.076419, -0.088684, -0.062015, 0.062757, 0.104911, 0.053490, 0.000835, -0.043408, 0.055604, 0.009113, -0.092489, -0.020610, 0.085835, 0.097662, 0.005925, -0.039146, -0.042268, 0.025758, 0.084315, 0.091848, 0.006781, -0.047620, -0.033404, 0.071901, 0.066250, 0.118001, 0.043359, 0.063646, 0.042010, 0.011702, -0.084191, -0.032544, 0.074479, -0.060622, 0.025180, 0.072109, 0.083722, 0.034131, -0.106175, -0.050543, 0.012631, 0.046899, -0.087204, 0.027323, -0.073833, 0.103906, -0.099813, -0.080441, 0.086025, 0.087730, -0.057031, 0.019598, -0.007487, 0.068070, -0.050093, 0.102613, -0.024876, -0.108195, 0.092866, -0.038242, 0.069896, 0.002683, 0.051023, 0.092133, 0.008812, -0.050819, -0.009640, -0.077200},
  {0.057267, -0.032369, 0.102507, 0.064574, -0.005967, 0.046535, -0.074465, 0.041511, 0.002472, 0.017308, 0.051486, 0.035371, 0.052098, -0.026957, 0.060448, 0.059327, 0.028881, -0.005410, -0.035859, -0.042775, 0.040180, -0.045058, 0.137310, -0.016314, -0.025791, -0.001568, -0.035025, -0.016570, 0.030277, 0.045563, 0.011222, 0.060689, -0.004457, -0.082644, -0.001171, 0.009608, -0.026689, -0.021509, 0.121728, 0.047823, 0.047502, -0.064353, 0.035133, -0.047572, -0.052885, 0.011787, -0.048963, 0.116938, 0.015621, 0.016737, -0.044193, -0.028230, 0.094240, -0.037882, 0.005626, 0.087180, -0.067224, 0.007235, 0.100771, 0.087584, -0.066788, 0.041239, 0.081967, 0.102068, 0.082244, 0.046028, -0.000569, -0.014501, -0.053782, -0.014771, -0.083077, -0.035723, 0.043893, -0.027083, -0.045217, -0.124075, 0.026886, -0.003124, -0.061674, -0.053142, 0.080769, -0.061123, 0.017667, -0.025571, 0.039876, 0.004330, 0.078180, 0.016984, -0.059744, 0.115943, 0.081904, 0.026908, -0.012182, -0.048245, -0.101557, -0.049297, -0.052373, 0.046456, 0.037677, 0.042816, -0.117229, 0.007867, 0.046486, 0.003026, 0.030173, 0.085618, 0.021602, 0.122840, 0.028794, 0.049648, -0.020335, -0.075570, 0.011101, 0.087565, 0.034036, 0.094819, 0.139911, -0.043587, -0.007589, 0.004024, 0.042912, 0.055035, 0.045766, 0.049354, 0.014918, -0.007106, 0.119454, 0.120615},
  {-0.017049, 0.082746, 0.084592, -0.026087, -0.102474, 0.031707, -0.086180, 0.001387, 0.004785, 0.060816, -0.024379, -0.116406, -0.082682, 0.030243, 0.010102, 0.049501, -0.069553, -0.028008, -0.079472, -0.074822, 0.074991, 0.011749, 0.108371, 0.034484, -0.091833, 0.054851, 0.012964, 0.004830, 0.035454, -0.030361, -0.114189, 0.001485, -0.045241, 0.056178, 0.130437, -0.066109, -0.034795, -0.083244, 0.066640, -0.067689, 0.106640, -0.060412, 0.080543, -0.021203, -0.048026, 0.043888, 0.101493, -0.046795, -0.112808, -0.053022, 0.037479, 0.049791, 0.061082, -0.075563, -0.013934, 0.135367, -0.088385, -0.040538, -0.000758, -0.098643, 0.047486, -0.033258, 0.097033, -0.061830, 0.006412, 0.067409, -0.033267, -0.008162, -0.076574, -0.023618, -0.031602, 0.111020, 0.047487, 0.005927, 0.027646, -0.081879, -0.044131, -0.002110, 0.072685, -0.060913, -0.008658, 0.040470, 0.069963, 0.121788, 0.082483, 0.046044, -0.024143, 0.044785, -0.078385, 0.039245, 0.014975, -0.030363, 0.073842, 0.001220, 0.064963, 0.037748, -0.099430, -0.045761, 0.069217, -0.089412, 0.019735, -0.007896, -0.006481, -0.019086, -0.055679, 0.071689, 0.085040, 0.107513, -0.076408, 0.022789, 0.052503, 0.005506, 0.075136, 0.063487, -0.036771, -0.001166, 0.111221, -0.038618, -0.063031, 0.007200, 0.060800, 0.117099, -0.104490, -0.033346, -0.014488, 0.036293, 0.019140, 0.011649},
  {-0.095119, 0.055380, 0.064703, 0.073362, 0.033550, -0.037669, -0.091333, -0.021927, -0.029120, 0.135040, -0.045968, 0.058833, 0.039637, -0.017991, 0.068830, 0.079087, -0.038338, 0.052292, -0.091164, 0.015129, -0.037925, 0.106998, -0.037174, -0.018799, 0.079762, 0.029005, -0.023130, 0.010253, 0.006643, 0.051031, 0.007665, 0.040839, 0.000324, 0.091044, -0.109649, 0.054180, -0.054131, -0.006362, -0.037558, -0.042722, 0.062886, 0.020848, 0.054675, -0.049154, 0.016105, -0.032071, 0.045319, -0.057583, 0.132583, 0.137413, 0.027873, 0.032440, -0.009234, 0.086807, -0.073922, -0.064776, 0.117067, 0.139959, 0.122682, -0.028113, 0.045975, -0.027881, 0.111418, 0.132457, -0.122345, 0.084140, 0.052906, 0.108199, 0.013790, -0.026163, 0.003727, -0.097272, 0.035086, -0.091993, -0.025006, 0.082798, 0.067391, 0.047918, 0.001013, 0.098320, 0.102184, 0.095514, -0.001269, 0.049308, 0.080551, -0.084201, 0.106163, 0.077751, -0.060843, 0.076988, 0.095331, 0.005938, 0.093187, -0.014298, 0.112878, 0.045853, -0.001788, 0.039073, -0.028614, -0.007797, 0.084943, 0.104149, -0.090843, -0.020855, -0.057186, 0.068398, 0.091155, 0.005360, 0.080882, 0.035804, 0.033933, 0.109945, -0.053156, 0.152620, -0.037284, -0.065661, 0.119575, 0.117292, 0.040569, -0.052103, -0.007337, -0.033599, 0.028779, 0.056237, 0.131456, 0.029725, -0.023444, 0.106128},
  {-0.039486, -0.009116, -0.025919, -0.031344, 0.051164, 0.014882, -0.093317, -0.079442, 0.002808, -0.043652, 0.004418, -0.000047, 0.018991, 0.067949, 0.012925, 0.038750, 0.053118, 0.029599, 0.056330, 0.021039, -0.015418, -0.070252, -0.086170, -0.017813, 0.024033, -0.022366, 0.008042, -0.032372, -0.031000, -0.046606, 0.109384, 0.082216, -0.047607, -0.062524, -0.039780, 0.132146, 0.093651, -0.025132, -0.020875, 0.088326, 0.057267, -0.112848, 0.006007, 0.026405, -0.029338, -0.057692, 0.105347, 0.018281, 0.078080, -0.027335, 0.013984, -0.042168, -0.031865, -0.017946, 0.006200, 0.090888, 0.028342, 0.054107, 0.107141, -0.029085, 0.040962, 0.028071, 0.058592, -0.067487, -0.027673, 0.011596, 0.052067, -0.033958, -0.025895, 0.088024, 0.072226, -0.032879, 0.039544, -0.033762, -0.056425, 0.063026, -0.027702, -0.108298, 0.037604, 0.015758, 0.000732, 0.038548, -0.051267, -0.112963, 0.011599, -0.003856, -0.037485, -0.052566, -0.050662, 0.026073, -0.024747, 0.012705, -0.096135, 0.016982, 0.048749, 0.005973, 0.102704, -0.015307, 0.118654, -0.031955, -0.008276, -0.007896, 0.118602, -0.102018, 0.030595, -0.062299, 0.031751, 0.074917, 0.085488, -0.068292, 0.027646, 0.108141, -0.097693, 0.049313, -0.006220, -0.102948, 0.082797, 0.072532, 0.006394, 0.083622, -0.029482, -0.049538, 0.084392, 0.055065, 0.024085, 0.025072, 0.104713, -0.018089},
  {-0.078973, 0.083738, -0.036346, -0.070314, 0.002931, 0.002205, 0.010313, -0.060428, 0.021851, -0.070848, -0.053301, 0.018984, 0.002809, -0.059701, 0.085223, 0.150149, 0.010862, 0.063233, 0.004385, 0.128582, 0.018394, -0.037444, -0.061093, 0.033144, 0.029002, -0.037550, 0.120791, 0.082231, 0.019271, 0.070962, 0.017469, 0.128289, -0.052473, -0.018104, 0.000246, 0.066955, 0.103460, 0.069850, -0.049857, 0.128125, -0.068799, 0.075221, -0.091087, 0.092421, -0.048519, 0.083343, 0.018408, -0.078557, -0.030740, 0.084012, -0.059817, -0.065637, 0.052999, 0.065039, 0.081606, 0.013184, 0.059340, 0.065948, -0.017067, 0.012272, 0.100370, -0.014118, 0.072544, -0.019318, 0.026230, 0.027705, 0.115826, -0.010820, 0.007199, 0.014784, -0.004053, -0.019267, -0.003486, -0.080400, 0.014266, 0.080878, 0.020932, 0.098510, -0.058607, -0.020761, -0.018186, 0.031016, -0.087361, 0.082277, 0.100616, 0.028749, -0.065167, -0.090745, 0.003753, 0.087067, -0.004408, 0.101835, -0.074883, 0.019041, -0.006099, -0.009842, -0.093547, -0.111287, 0.129050, 0.040150, -0.019770, 0.071082, -0.029964, 0.127835, 0.092685, -0.007644, 0.028525, 0.090861, 0.068562, 0.013277, 0.029153, 0.084999, 0.106282, 0.057929, 0.054341, -0.107334, 0.001844, -0.015559, 0.061099, 0.091097, 0.093299, -0.033905, 0.090909, 0.041063, -0.017187, -0.006139, -0.022567, -0.032340},
  {0.064079, -0.079487, 0.032614, 0.117750, -0.002981, 0.099031, 0.003494, 0.120678, -0.007625, -0.082834, 0.087864, 0.049489, 0.128531, 0.039734, 0.010413, 0.036377, 0.040624, 0.071784, 0.021937, 0.008876, 0.014906, -0.086679, -0.000867, -0.102905, -0.005426, 0.086821, -0.016977, 0.026480, 0.076585, 0.096610, 0.125966, -0.123041, 0.092423, -0.009880, -0.027400, -0.031737, -0.104129, -0.007827, 0.007297, 0.008112, 0.069645, 0.044382, 0.002249, -0.051551, -0.027714, -0.004262, 0.011437, 0.081931, 0.029132, 0.043360, -0.047125, 0.024702, 0.089049, 0.076369, 0.009264, 0.040291, 0.066278, -0.044996, -0.032454, 0.008788, 0.017603, 0.079575, -0.115569, -0.005416, -0.006291, -0.085169, -0.059067, 0.005242, 0.022997, 0.080601, 0.000003, -0.083576, 0.032546, -0.013408, -0.065725, -0.089065, -0.058179, 0.047526, 0.101698, -0.061625, -0.101143, 0.099517, 0.036427, 0.009291, 0.094020, 0.111292, -0.006246, 0.009323, -0.032162, 0.068627, -0.015666, 0.020901, 0.052843, -0.047597, 0.002801, 0.108306, 0.127209, 0.044044, 0.038871, -0.014302, 0.009052, 0.073733, 0.066523, -0.050217, -0.075092, -0.036616, -0.060763, -0.054827, 0.130590, 0.101914, -0.024288, 0.070100, -0.022618, -0.087589, -0.064977, 0.087510, -0.021875, -0.007797, -0.081755, 0.000220, 0.002258, 0.030162, 0.084349, -0.014868, -0.013999, -0.052294, 0.119939, 0.053280},
  {0.008082, -0.033812, 0.057837, 0.027361, 0.102228, 0.002236, -0.023374, -0.049211, 0.040673, 0.046669, 0.056589, -0.035954, -0.018645, 0.064512, -0.081438, 0.088504, -0.111421, 0.096006, 0.050988, -0.040828, 0.058519, -0.054120, -0.052471, -0.082019, -0.026431, -0.051623, 0.052575, -0.026070, -0.068257, -0.040207, 0.135337, 0.015977, 0.026117, 0.103165, -0.069419, 0.069449, 0.080399, 0.063530, -0.081193, 0.037638, -0.039413, -0.006407, 0.060028, 0.084861, -0.082634, 0.104475, 0.035670, 0.035157, -0.010900, 0.035389, 0.049495, 0.085503, 0.030041, 0.032664, -0.000486, -0.047744, -0.048300, 0.040283, 0.090807, -0.121242, -0.116541, 0.096660, -0.030474, 0.021464, -0.049667, 0.074004, 0.019208, 0.094013, -0.076050, 0.110640, 0.131743, -0.038262, -0.006467, 0.050766, 0.062260, 0.043928, -0.038370, -0.073502, 0.075971, -0.037336, 0.004843, -0.010421, 0.022439, -0.108069, -0.024345, 0.027352, -0.032265, 0.099741, -0.100943, -0.084315, 0.040856, 0.037886, 0.006318, -0.046464, 0.000976, 0.027659, 0.072633, -0.012842, 0.042702, -0.015365, 0.045822, -0.005599, 0.096983, -0.037145, 0.001250, -0.069154, 0.059457, 0.105382, 0.075364, -0.042519, -0.069467, 0.097400, -0.050119, -0.013191, 0.120689, -0.008890, -0.003704, 0.079837, -0.071365, -0.024044, -0.075124, -0.024034, 0.093969, 0.048813, -0.082334, 0.113423, 0.076356, 0.112208},
  {-0.017964, -0.008288, -0.099090, 0.043763, -0.065947, 0.101982, -0.003406, 0.064852, 0.049024, 0.048061, 0.033822, 0.110334, -0.054514, 0.044623, -0.000241, -0.040096, -0.056603, 0.025801, -0.081469, 0.010609, 0.046707, -0.010133, -0.085499, 0.067128, 0.032105, -0.083549, 0.053386, -0.026321, -0.055802, -0.101182, 0.060846, -0.022487, 0.007111, 0.078686, 0.009986, 0.098842, 0.082405, 0.022590, -0.079282, 0.030567, -0.034760, 0.088175, 0.013954, -0.039734, 0.071458, -0.032514, 0.010656, -0.021545, -0.037568, 0.045261, 0.007304, -0.012497, -0.056860, -0.031918, -0.055254, 0.052850, -0.068817, 0.063465, 0.080251, 0.028937, -0.019266, -0.023250, -0.010096, 0.062482, 0.052438, -0.012573, 0.008045, 0.017655, 0.079747, -0.042856, 0.098737, -0.068038, 0.033464, 0.073482, 0.063466, -0.012993, 0.068846, -0.026523, -0.019250, -0.001555, -0.051041, 0.054392, 0.007670, 0.019693, -0.044077, -0.072955, -0.040531, 0.022317, -0.072667, 0.032770, -0.017821, -0.013979, 0.051616, 0.068586, 0.095481, 0.033688, 0.059659, 0.105195, 0.094202, 0.083863, 0.101941, 0.044814, -0.008863, 0.031173, 0.112663, 0.027545, 0.070619, -0.066571, -0.038043, -0.027398, -0.031617, 0.010704, 0.049892, 0.049678, 0.056148, -0.008759, 0.021914, 0.133368, 0.120594, -0.065845, 0.066545, 0.015812, 0.097632, 0.041000, -0.028968, -0.027440, 0.004788, -0.072736},
  {-0.015174, -0.019353, -0.032071, -0.014601, 0.053863, 0.056742, 0.095071, 0.080336, -0.064483, 0.076064, -0.049995, 0.126154, 0.077213, -0.023201, 0.089209, 0.119962, 0.080493, 0.032324, 0.057599, 0.099068, 0.133541, -0.020757, 0.017441, 0.121227, 0.001476, -0.083949, 0.080334, -0.012253, -0.106041, 0.121451, 0.061119, -0.064587, -0.019570, 0.106665, 0.080297, 0.074238, 0.017543, -0.019164, 0.056932, 0.113674, 0.073742, -0.022063, -0.016496, 0.091873, 0.057523, 0.122909, -0.002442, -0.063174, -0.001153, 0.105839, 0.004823, -0.097358, -0.075635, 0.073761, -0.009163, -0.075034, 0.035707, -0.020547, -0.026143, 0.083190, -0.031211, -0.075406, -0.068667, 0.104506, 0.029252, -0.055341, 0.047016, 0.066012, 0.039826, 0.023460, 0.059468, 0.005498, 0.112168, 0.093253, 0.010257, 0.002841, -0.025322, 0.053481, -0.046841, 0.076922, -0.016790, 0.003230, 0.065023, 0.081607, 0.115261, 0.068160, 0.075533, 0.005505, 0.111530, 0.148040, -0.063803, 0.021234, 0.069237, 0.119542, 0.115345, -0.016295, 0.026630, -0.018070, 0.084598, 0.068330, 0.033254, 0.056568, -0.078570, 0.026944, 0.030305, 0.081057, -0.023289, -0.059852, -0.029486, -0.000919, 0.115022, 0.072982, -0.032108, 0.034628, 0.099297, 0.133364, -0.014351, 0.081552, 0.030546, 0.014612, 0.021870, -0.028416, -0.040678, -0.016720, 0.140214, -0.001183, -0.074685, 0.020700},
  {-0.006172, -0.027227, -0.104442, 0.056872, -0.042705, -0.072314, 0.120929, 0.119586, -0.068524, 0.017016, -0.001890, 0.124064, -0.041475, 0.001681, -0.048000, -0.063178, 0.022706, -0.016909, 0.050008, -0.064554, 0.044443, 0.070708, 0.006294, 0.003091, 0.025249, -0.059314, -0.055689, -0.086096, -0.049451, 0.034985, -0.037608, -0.064542, 0.128625, 0.122968, -0.064017, 0.077048, 0.008607, -0.048951, 0.116905, -0.080157, 0.119004, -0.064560, 0.073184, 0.101077, 0.054213, 0.038298, 0.035079, -0.048179, -0.032269, -0.000983, 0.104384, -0.099976, -0.057155, -0.060292, 0.066766, 0.035475, -0.059009, -0.002994, 0.044077, 0.076746, -0.000544, -0.008028, -0.048431, -0.041711, 0.051870, -0.082856, 0.060389, 0.053145, 0.089693, 0.023081, 0.070235, -0.115285, 0.025583, 0.062411, 0.088141, 0.068773, -0.015064, -0.028231, -0.006092, -0.017453, -0.056319, 0.045263, 0.034206, 0.042752, -0.014404, -0.038852, 0.058039, 0.059117, -0.073248, 0.071794, 0.026810, 0.087203, 0.025075, 0.119495, -0.026457, 0.045903, 0.053447, -0.008855, 0.029235, -0.006184, 0.103230, 0.000820, -0.105306, -0.065706, 0.062363, 0.058950, -0.028298, -0.002719, 0.022043, 0.020903, 0.061375, -0.005460, -0.032113, 0.080329, 0.078135, 0.119421, -0.023640, 0.066106, 0.091247, 0.022494, 0.016375, -0.100351, -0.079611, -0.046663, 0.137074, -0.004098, -0.060862, 0.017313},
  {0.015700, 0.021584, -0.019457, 0.045909, -0.019789, -0.003388, 0.075756, 0.007690, 0.058874, -0.048321, 0.066824, 0.041989, -0.068708, -0.065402, 0.119905, 0.027483, 0.051694, -0.121941, 0.001559, 0.013578, -0.017372, -0.020222, 0.053791, -0.052445, 0.016681, 0.070262, 0.096911, 0.072686, 0.080770, 0.060109, -0.079819, 0.127964, -0.085544, 0.077793, 0.045113, 0.060718, 0.083095, 0.013852, 0.068440, 0.071859, -0.041266, 0.020871, 0.081340, 0.102426, -0.028149, 0.091873, 0.020166, 0.077108, -0.028391, 0.002429, -0.106697, -0.072851, 0.137752, 0.039605, 0.078289, -0.018576, 0.071550, -0.102529, -0.072966, -0.002789, 0.113295, -0.029475, -0.035945, 0.006792, -0.004445, 0.061510, 0.108571, -0.058171, -0.052785, -0.050155, -0.037688, -0.013401, -0.038217, 0.044982, 0.047963, 0.076908, -0.028140, 0.083889, 0.046424, 0.015423, 0.072673, 0.052489, 0.113913, 0.003701, 0.038157, 0.126110, -0.068092, -0.071977, 0.085403, -0.026306, 0.093028, -0.008108, -0.022575, 0.079775, 0.076828, -0.003491, -0.043769, 0.002142, -0.045929, -0.058708, 0.023722, -0.024953, 0.051990, 0.050269, 0.049664, -0.055359, -0.016369, 0.113685, -0.101340, 0.079529, -0.088664, -0.100873, 0.117194, -0.066078, 0.060807, -0.001978, 0.039149, 0.032877, 0.020100, -0.042101, -0.054341, 0.080110, -0.056237, -0.109587, 0.014001, -0.020864, 0.085598, 0.023533},
  {-0.082856, 0.018307, -0.005866, 0.022097, -0.034587, -0.077277, -0.054717, 0.023723, -0.098514, 0.101879, -0.060289, 0.088297, 0.020471, 0.038288, 0.086537, -0.012153, 0.095968, 0.076086, -0.046225, -0.009823, -0.039718, -0.025019, -0.085512, -0.023017, -0.056594, -0.010685, 0.013533, 0.079844, 0.042980, -0.035819, 0.019625, 0.084376, 0.090947, -0.007718, 0.034465, -0.026882, 0.055184, -0.068557, 0.055990, 0.085959, -0.023222, 0.090325, -0.031805, -0.013126, 0.063122, -0.091940, 0.054781, -0.036386, 0.025336, 0.014638, 0.063728, -0.080586, 0.099885, 0.041139, -0.044231, 0.003765, 0.095143, 0.073207, 0.074525, 0.123152, -0.030423, -0.041610, -0.060036, 0.089025, 0.025282, -0.086866, 0.009403, 0.012542, -0.063853, -0.003757, 0.084942, -0.064864, -0.043975, -0.000777, -0.058388, -0.054858, 0.031408, 0.057985, -0.079126, 0.097975, -0.029723, 0.005511, 0.101177, -0.050870, 0.075607, -0.064414, -0.009915, 0.069187, -0.079117, 0.004995, 0.068248, 0.005207, -0.001513, -0.002919, -0.052481, -0.065321, -0.016869, -0.101265, 0.022510, 0.012998, -0.069658, -0.044506, -0.091032, -0.037130, 0.062278, 0.028927, -0.014079, -0.079934, 0.064047, -0.011259, 0.014276, -0.058902, -0.007276, 0.050656, -0.070703, -0.067015, 0.094443, -0.082802, 0.009857, 0.047404, -0.011324, 0.048107, -0.099294, 0.026718, 0.025997, -0.008297, -0.066368, -0.011941},
  {0.118969, -0.001757, -0.025465, 0.055870, 0.038922, 0.064499, 0.004521, 0.093641, -0.113830, -0.054345, -0.095439, 0.053871, 0.088698, 0.084355, 0.035816, 0.092277, 0.087951, 0.073843, 0.002016, 0.040892, 0.041804, 0.021990, 0.015565, -0.105995, -0.081572, -0.094032, -0.084200, 0.069807, -0.049872, 0.070459, 0.087567, -0.087689, 0.113740, 0.040652, 0.035544, 0.070660, -0.062185, 0.031167, 0.051886, -0.014322, 0.056078, -0.098594, -0.007896, -0.057693, 0.093407, 0.084190, -0.063578, 0.127019, -0.023303, 0.054211, 0.101787, 0.089944, -0.027631, -0.020459, -0.012522, 0.041026, -0.003209, -0.017660, -0.036054, -0.045138, 0.055194, 0.121884, 0.011568, -0.008979, 0.099625, 0.022588, -0.095975, -0.032323, 0.017739, -0.065585, -0.084143, 0.011956, 0.038276, 0.115431, -0.010559, -0.083964, -0.055818, 0.078709, 0.096155, 0.099841, 0.042476, 0.033035, -0.055959, -0.016981, 0.015329, -0.025422, -0.024834, 0.015220, 0.097513, 0.066040, 0.003372, -0.021727, 0.111248, 0.064034, -0.070227, 0.011109, 0.133632, 0.118563, -0.033294, 0.023929, 0.006333, 0.051209, -0.002542, -0.023594, -0.072786, 0.106834, -0.036545, -0.048719, 0.032181, 0.032753, 0.046076, 0.071069, -0.033842, 0.075357, 0.001113, -0.044664, 0.046959, -0.022554, -0.100866, 0.094971, -0.040949, 0.036376, 0.033952, -0.048754, 0.076361, -0.021245, 0.053608, -0.052428},
  {0.098449, -0.036942, -0.016983, 0.125931, 0.036443, 0.050912, 0.052564, 0.108928, -0.031168, 0.028760, -0.092210, 0.004002, -0.062904, -0.026933, -0.031076, 0.029161, -0.035552, 0.060195, 0.111978, -0.011053, -0.044641, -0.039901, 0.001754, 0.009136, -0.067325, -0.004584, 0.007315, -0.025551, 0.031664, -0.070607, -0.003758, -0.111752, 0.009457, 0.065915, 0.047918, 0.009709, -0.053122, -0.098936, 0.033242, -0.102189, -0.014140, 0.031384, 0.050097, 0.043372, 0.013757, 0.001946, -0.119292, 0.081541, 0.059059, 0.032429, 0.054577, 0.049860, 0.013441, 0.077742, -0.008089, 0.016737, 0.027472, -0.074765, -0.038096, -0.005661, -0.058953, -0.032068, -0.097178, -0.001688, 0.051225, -0.059439, -0.055210, -0.004123, -0.032406, -0.006476, 0.022204, -0.001119, 0.114829, 0.035112, -0.022167, 0.052211, -0.079629, -0.002255, 0.017445, 0.077452, -0.007092, -0.021734, 0.022450, 0.041641, -0.087640, -0.005352, -0.070206, -0.059571, 0.052600, -0.088002, 0.034183, 0.002208, -0.046183, 0.092915, -0.012775, 0.113671, 0.093897, 0.066406, -0.103109, 0.021078, 0.032384, 0.014190, -0.046336, -0.072891, 0.041895, 0.065874, -0.020726, -0.049946, -0.025952, 0.085346, -0.001605, 0.114258, 0.031876, -0.108045, 0.064107, 0.026680, -0.118896, 0.112339, -0.077725, 0.072275, -0.029309, 0.017042, 0.103770, 0.086712, 0.057247, -0.017584, 0.026401, -0.000265},
  {-0.088415, -0.109069, -0.001766, -0.075570, -0.012641, -0.062673, -0.003611, 0.001335, 0.047702, 0.019859, 0.030893, -0.042817, 0.032667, 0.077380, -0.006607, -0.003243, 0.056389, 0.008978, -0.010008, -0.041184, 0.014141, -0.082537, 0.016961, -0.007865, 0.051337, -0.015897, -0.021623, 0.036013, 0.046922, 0.057968, -0.100666, 0.013844, 0.075496, -0.090008, -0.039860, -0.077756, 0.010110, 0.049503, -0.058292, 0.029450, -0.068257, -0.071596, -0.002614, 0.015296, -0.022240, 0.002441, 0.008672, 0.003049, -0.079241, 0.013981, 0.019620, 0.019073, -0.055488, -0.002151, -0.013333, -0.004473, 0.041067, -0.101190, 0.058952, -0.043940, -0.076372, -0.088958, -0.088301, -0.078160, -0.032673, 0.010634, 0.016316, 0.048374, -0.055834, -0.083871, -0.062029, -0.056857, 0.067532, 0.027549, -0.021621, -0.078229, -0.047962, -0.084046, -0.059481, 0.056390, -0.019906, 0.037321, -0.022386, 0.048757, 0.050841, -0.053228, 0.013822, -0.110449, 0.026943, -0.040295, -0.044958, -0.064169, -0.095627, -0.074010, -0.046852, 0.014193, 0.035292, -0.016772, 0.003729, 0.039102, -0.095542, -0.048983, 0.090951, 0.061195, -0.056710, -0.062675, -0.016122, 0.037195, 0.017542, -0.044609, 0.058453, -0.006372, -0.066870, 0.012628, 0.034471, -0.055929, -0.085173, -0.031320, -0.054693, -0.026514, -0.026304, -0.055667, 0.017560, -0.049483, -0.028412, 0.072953, -0.091761, 0.021867},
  {0.054343, 0.122682, 0.126127, 0.040629, 0.044912, 0.098469, 0.002554, -0.008440, 0.079405, 0.010613, 0.061340, 0.021392, -0.017658, 0.057571, 0.125175, 0.078713, -0.084031, 0.041702, -0.011364, 0.085538, 0.027100, 0.019979, -0.018447, -0.068909, 0.099995, 0.150913, 0.083489, 0.038571, 0.069592, -0.031092, -0.103924, 0.046568, 0.004268, -0.090019, 0.125575, -0.026098, 0.103457, 0.042473, -0.031924, 0.119244, -0.051131, 0.084266, -0.018746, -0.030875, -0.037791, -0.031826, 0.057313, -0.071106, 0.011156, -0.097665, -0.020395, -0.044106, 0.005637, -0.000811, -0.060825, 0.030868, -0.041672, -0.108314, -0.115033, -0.088132, -0.022958, 0.028624, 0.013942, 0.023074, 0.018212, 0.066881, 0.091942, 0.046077, 0.012652, -0.063600, -0.062522, -0.024418, -0.043641, -0.002426, -0.020469, 0.102120, 0.046712, -0.010439, -0.034924, -0.038451, 0.019915, -0.054640, 0.029918, 0.121744, 0.008013, 0.068053, -0.088568, -0.093766, -0.047912, 0.020512, 0.010830, -0.024662, 0.013326, -0.016332, -0.038429, 0.038117, -0.116950, -0.050976, -0.039379, 0.054717, 0.093340, -0.070410, 0.001180, 0.128097, 0.027100, 0.052592, -0.027841, 0.139442, 0.049856, 0.055796, -0.054375, -0.094287, 0.017432, 0.021773, 0.021986, -0.003821, 0.071636, -0.097518, 0.000950, -0.025394, 0.066321, 0.005037, 0.027087, -0.039601, -0.053044, 0.020325, -0.022134, 0.071737},
  {0.034195, -0.018007, -0.049903, 0.022781, 0.087018, 0.069660, 0.016808, -0.040864, 0.037317, 0.061677, -0.014765, 0.070008, 0.064768, 0.137087, 0.059293, -0.005417, -0.028968, 0.041794, 0.048484, -0.029155, -0.090575, -0.020756, -0.051357, 0.013576, 0.041082, -0.000789, 0.055179, 0.036637, -0.001831, -0.051240, 0.097169, 0.021079, 0.016404, 0.052243, 0.009147, 0.017422, -0.019029, 0.019765, 0.067226, -0.043258, 0.025983, 0.092469, 0.059402, 0.037870, 0.094959, -0.030358, -0.000133, 0.100347, 0.006143, 0.057437, 0.049373, 0.070619, 0.002838, 0.057259, 0.019074, 0.099273, 0.093109, 0.066373, 0.023030, 0.096876, 0.042026, 0.102290, -0.093269, -0.038519, 0.093297, -0.073842, 0.023770, -0.086950, 0.118095, -0.002925, 0.058444, -0.020637, -0.061577, 0.015824, -0.024855, -0.021403, 0.047774, 0.120431, 0.145173, 0.045990, -0.057147, 0.003735, 0.053038, -0.050996, -0.031184, 0.045070, -0.026102, -0.038295, 0.038009, -0.010836, -0.098642, 0.006549, 0.055781, 0.078556, -0.086990, 0.073371, 0.092431, -0.042455, -0.065641, 0.031248, -0.016335, 0.047604, -0.025109, 0.056438, -0.027555, 0.064357, -0.038099, 0.014304, 0.033481, 0.037215, 0.059722, 0.006444, -0.021192, -0.023024, -0.011443, -0.029853, -0.087690, 0.086155, -0.012642, 0.139515, 0.063147, -0.058187, 0.004142, 0.116643, 0.028473, -0.020414, 0.083517, -0.054967},
  {0.029210, 0.041733, -0.070058, -0.015282, -0.038983, -0.001841, -0.081052, 0.076205, -0.006074, -0.047815, -0.005746, 0.009110, 0.033250, -0.030212, -0.051378, 0.023098, 0.131596, 0.078643, -0.012674, 0.086879, -0.085353, -0.019686, 0.050462, -0.053064, -0.005069, 0.045280, -0.066532, 0.072802, -0.044989, 0.066162, 0.066728, 0.009194, -0.050626, -0.082294, -0.041377, -0.022024, 0.036667, 0.066205, -0.101045, -0.020232, -0.053973, -0.103098, 0.063328, 0.010761, -0.065668, 0.036621, -0.018009, -0.102591, -0.007999, 0.101803, -0.000443, 0.018723, 0.063969, 0.107947, 0.017592, -0.063868, -0.001713, -0.043169, -0.027954, 0.109321, 0.005879, -0.056391, 0.045994, -0.007162, -0.055930, -0.010187, -0.074363, -0.030917, -0.063783, -0.000800, 0.030438, 0.016830, 0.058634, -0.100605, 0.039006, -0.039014, -0.105517, -0.036047, -0.006610, -0.029141, -0.001149, -0.071770, -0.076817, -0.040968, 0.022638, -0.059358, -0.053137, 0.036371, 0.005372, -0.012242, -0.102084, -0.039049, -0.084851, 0.009699, 0.010740, -0.002619, -0.073624, -0.106502, -0.067563, -0.009701, 0.059853, -0.073842, -0.084421, -0.069732, 0.053484, -0.083020, 0.009755, 0.029613, -0.031440, -0.094488, 0.111983, -0.029514, -0.101727, -0.050550, 0.020591, -0.080062, -0.035988, 0.019424, 0.000709, 0.021094, 0.038903, 0.101399, 0.059226, 0.039852, -0.005767, 0.065461, 0.020120, -0.060924},
  {0.020452, 0.017671, -0.020434, 0.029310, 0.097677, -0.100227, -0.055195, -0.039103, 0.103864, 0.035648, 0.061871, 0.109917, 0.105571, -0.061714, 0.048695, 0.082507, -0.016707, -0.021109, -0.065023, 0.085428, -0.019917, -0.014668, 0.016136, -0.031704, -0.068530, 0.074486, 0.134061, 0.051856, 0.019336, 0.055771, -0.001350, 0.056834, 0.000594, -0.069333, 0.041863, -0.035760, -0.128761, 0.055885, -0.036118, 0.080626, 0.036640, 0.074012, -0.035345, -0.030006, -0.087131, -0.097841, 0.108646, 0.040803, -0.017064, -0.029361, 0.085050, -0.033757, 0.120384, 0.004511, -0.041766, 0.009816, 0.059316, 0.070436, 0.122549, -0.040329, 0.007783, 0.033050, 0.113101, -0.007535, -0.026634, -0.018430, -0.075940, 0.011978, 0.002186, -0.096733, 0.065615, 0.038442, 0.027322, -0.074925, -0.031897, -0.020372, 0.046482, 0.076217, 0.016739, -0.005931, 0.037677, -0.002807, 0.071661, 0.097050, 0.055221, 0.061342, -0.008256, 0.079084, -0.000517, 0.088832, 0.056724, 0.013980, -0.004087, 0.076623, -0.043889, -0.021950, 0.011738, -0.033380, -0.048951, -0.008742, -0.067226, 0.022456, 0.105495, -0.032699, 0.072978, 0.083818, 0.127556, 0.031135, -0.039802, 0.038429, -0.006048, -0.081167, -0.009402, -0.029893, 0.007236, -0.012054, 0.132130, -0.049589, -0.068344, 0.008662, 0.133994, 0.008018, 0.054661, -0.038277, 0.030027, -0.041109, 0.017520, 0.107061},
  {0.010078, 0.068568, 0.076842, 0.034021, 0.047911, -0.016589, 0.029434, 0.081473, -0.034561, 0.108910, 0.109577, -0.087523, -0.117896, -0.062171, 0.070975, 0.027079, -0.007411, 0.044131, 0.029736, -0.091838, 0.075376, -0.002946, 0.029649, -0.084774, -0.090670, -0.017874, 0.058206, 0.040276, -0.032138, -0.047429, 0.017570, 0.022963, -0.058811, 0.011821, 0.065113, -0.087632, -0.042345, 0.036220, 0.134739, 0.001040, 0.070971, -0.056257, 0.070568, -0.024839, 0.108707, 0.054969, 0.071268, -0.065451, 0.012256, 0.086922, 0.056062, -0.091151, 0.001820, 0.018685, 0.111836, -0.013616, -0.091258, 0.072966, 0.021197, -0.120330, -0.076970, 0.023082, 0.102439, -0.059416, -0.003947, 0.031634, -0.067921, 0.083603, 0.075851, 0.030049, 0.065513, 0.089110, 0.039891, -0.019814, 0.057533, -0.040352, -0.042611, -0.069435, 0.050015, 0.058699, -0.022789, -0.067030, 0.030956, 0.145245, -0.058362, 0.067021, -0.015061, 0.086680, 0.017621, -0.067377, 0.017914, 0.071444, -0.027975, 0.033266, -0.010668, 0.061902, 0.056953, 0.030518, -0.030091, 0.002605, -0.010851, 0.067792, 0.018211, 0.037997, -0.091785, 0.132495, 0.015516, 0.097557, -0.040626, 0.096225, -0.047837, 0.039694, 0.064649, -0.046023, -0.093718, 0.126301, 0.013896, -0.012268, -0.009022, -0.005703, 0.061050, 0.065753, -0.060447, -0.073933, -0.064808, 0.063877, 0.019540, 0.123839},
  {0.088445, 0.030900, 0.027512, -0.007765, -0.039146, -0.037117, 0.032332, -0.036158, 0.016016, -0.111791, -0.103532, 0.010008, -0.078447, -0.107659, 0.079508, 0.052624, -0.044121, -0.037960, 0.067155, -0.040747, 0.108065, 0.077712, 0.041482, -0.053282, 0.008515, -0.064718, -0.013414, -0.006624, -0.090052, 0.064245, -0.045627, -0.119980, 0.012676, -0.035705, 0.057382, -0.060623, 0.064526, 0.046638, 0.032585, 0.010211, 0.073311, -0.032094, 0.062222, -0.025828, 0.122646, 0.077681, 0.088348, 0.045115, 0.019941, 0.050992, 0.022383, -0.076763, -0.013777, -0.016596, 0.081730, -0.037900, -0.103888, 0.029436, -0.005972, 0.024398, -0.050856, -0.014154, 0.000481, 0.030553, 0.010754, 0.106237, -0.026220, -0.017285, -0.001136, -0.009583, -0.014823, -0.053372, 0.006403, 0.115969, 0.027490, 0.098336, -0.091265, 0.046356, -0.020673, 0.116596, 0.039762, 0.018087, -0.081284, 0.011666, -0.044251, 0.119812, -0.036426, 0.046543, -0.008792, 0.027153, 0.004292, 0.105825, 0.066970, -0.043605, -0.011958, 0.069852, 0.019073, 0.005949, 0.058194, -0.071404, -0.047633, 0.069201, -0.103188, -0.031074, 0.013792, 0.011298, 0.011376, -0.072171, 0.045199, 0.118470, -0.030238, 0.013013, -0.042482, -0.048105, 0.055993, 0.115539, -0.103722, -0.063255, 0.027421, -0.004398, -0.035633, -0.034606, -0.039422, -0.096918, 0.021752, -0.035883, 0.064226, 0.027871},
  {0.049503, -0.115877, -0.029962, 0.003780, 0.054608, -0.063461, -0.038079, 0.076200, -0.055267, -0.066991, -0.041994, 0.096906, 0.003645, -0.003619, -0.064035, 0.089828, -0.042493, 0.006536, 0.020695, 0.043988, 0.095526, 0.040531, -0.020996, 0.010627, -0.021178, -0.114384, 0.015987, -0.064745, 0.015788, -0.007145, 0.039139, -0.109737, 0.009765, -0.033342, 0.037746, -0.052199, -0.036948, -0.029767, 0.073848, 0.059843, 0.057901, -0.085066, -0.055761, -0.045923, 0.078505, 0.097475, 0.012052, 0.071303, -0.038595, -0.018250, 0.081115, -0.043992, -0.052629, -0.065369, 0.017911, 0.020650, -0.102138, 0.113747, 0.068716, -0.053353, 0.059171, -0.032402, -0.032274, 0.077182, -0.006210, 0.011048, 0.004927, 0.129934, -0.014348, 0.112386, 0.031658, -0.074214, -0.034606, -0.033072, 0.038588, 0.008920, -0.031924, -0.010321, 0.076495, -0.008489, 0.086849, 0.019115, 0.028525, 0.011070, -0.038266, -0.038308, -0.008271, -0.010597, -0.038502, -0.014752, 0.033747, 0.085776, 0.087433, 0.058042, 0.050397, 0.005027, 0.031091, 0.069713, -0.039582, 0.054424, 0.047774, 0.085718, -0.100018, -0.095875, 0.040721, 0.065861, 0.033688, 0.002823, 0.041493, 0.107170, -0.030852, 0.047632, -0.003373, -0.054363, 0.004007, 0.049255, 0.038316, -0.055103, -0.060269, -0.072498, -0.019947, -0.097067, -0.078648, -0.114905, -0.054391, 0.081780, -0.006401, 0.011825},
  {-0.069039, -0.045002, -0.025644, 0.002355, 0.026784, 0.027896, -0.031065, 0.091395, 0.009020, 0.115535, 0.085635, 0.055913, -0.043165, -0.026433, -0.104625, 0.022009, -0.081417, 0.078004, -0.061419, 0.046487, -0.074493, 0.092787, 0.066076, 0.039420, -0.050935, 0.082798, -0.096426, -0.045834, -0.012757, -0.004900, 0.050560, 0.020915, -0.053674, 0.023970, -0.001312, 0.001065, -0.080903, 0.094578, 0.044969, 0.014483, 0.114136, 0.004815, 0.008970, 0.072262, -0.044704, 0.047817, 0.122009, -0.070028, 0.033865, 0.038264, 0.142380, 0.041185, 0.002239, -0.032626, -0.041087, -0.142059, -0.043657, 0.083991, 0.002892, 0.086633, 0.016301, -0.078054, -0.030786, 0.100320, -0.117766, 0.088960, -0.090776, 0.074759, 0.134122, 0.079616, 0.040465, -0.127402, 0.087650, -0.088383, 0.021453, 0.129476, -0.004286, -0.101989, 0.021329, 0.142576, -0.009892, 0.055589, 0.059307, -0.098258, -0.025612, -0.057462, 0.061648, 0.140142, -0.119014, -0.103882, 0.105786, 0.065171, 0.057304, 0.056183, 0.097408, -0.039174, 0.131180, -0.038182, 0.083347, 0.000550, 0.080920, 0.015941, -0.029103, 0.003926, 0.005317, 0.015176, 0.080752, -0.000826, -0.051802, 0.119406, 0.076053, 0.055676, -0.089857, 0.114300, -0.061111, 0.082769, 0.094627, 0.036483, -0.053619, -0.068623, 0.060544, -0.000039, 0.092394, 0.111146, 0.018419, 0.120359, -0.022085, 0.040108},
  {-0.123160, -0.021522, 0.097281, -0.038653, 0.074212, -0.004342, -0.085139, 0.011482, -0.035142, -0.042323, 0.067694, 0.068719, -0.004162, -0.073936, 0.102044, 0.112501, 0.030380, -0.052190, -0.004124, 0.029669, 0.078632, 0.094382, -0.049010, -0.085630, 0.079579, 0.078041, 0.102974, 0.062502, 0.061922, -0.080747, -0.106769, 0.130524, 0.061023, -0.057234, -0.015827, 0.069341, 0.118615, 0.091403, 0.001104, 0.073093, -0.028002, 0.062347, 0.005840, 0.042619, -0.100785, 0.009729, 0.127074, -0.025714, -0.025562, -0.001855, 0.091936, 0.044371, 0.126018, -0.083288, 0.112731, -0.004514, 0.073656, -0.033547, -0.024240, -0.087292, -0.072936, -0.074789, 0.069022, 0.008917, 0.025703, -0.014707, 0.035475, 0.134480, -0.031913, -0.001121, 0.094543, 0.089520, 0.062830, -0.094361, 0.090683, -0.053205, -0.019830, 0.000675, -0.099144, -0.031597, 0.100019, -0.080729, 0.109302, 0.115780, 0.026257, -0.081192, 0.059143, 0.012395, -0.062613, -0.057838, 0.154641, 0.046510, -0.011999, 0.014254, -0.020556, 0.006502, 0.005077, 0.058734, 0.093300, -0.020202, -0.021117, 0.018864, 0.072663, 0.061326, 0.093915, 0.048608, 0.088174, 0.141273, -0.080940, -0.015519, -0.039860, 0.055477, 0.118474, 0.086396, 0.028525, 0.034138, 0.135316, 0.077706, 0.015561, -0.099628, 0.103259, 0.056477, 0.009057, 0.032997, -0.073788, -0.058417, -0.052087, 0.112155},
  {-0.078852, 0.060490, 0.106135, -0.093590, -0.039932, 0.050738, 0.031122, -0.016085, 0.028229, 0.086710, 0.004658, 0.019851, -0.055042, -0.043594, 0.026400, -0.064398, -0.057073, -0.071778, -0.014320, -0.043551, 0.091894, 0.055838, 0.033723, -0.046826, 0.018088, 0.028695, 0.110100, -0.041873, 0.074773, 0.004424, 0.036070, 0.009937, 0.030152, -0.014958, 0.088713, -0.007093, 0.026255, 0.098176, -0.040723, 0.045111, -0.014647, 0.079260, -0.060856, 0.016421, 0.000546, 0.006885, -0.008986, -0.111621, 0.050053, 0.005395, 0.033358, -0.067327, 0.095411, -0.023319, 0.106651, 0.012372, 0.052532, 0.056930, 0.056341, -0.076538, 0.003691, 0.008686, 0.056579, 0.052813, -0.011353, 0.007020, 0.044983, 0.074868, -0.023314, 0.093468, 0.115076, 0.116260, 0.095001, 0.020454, 0.097648, 0.088737, 0.103116, -0.072213, -0.010904, 0.042114, -0.006501, -0.033778, 0.100765, 0.003397, 0.049963, 0.016844, -0.066094, 0.065277, 0.094480, -0.064438, 0.122686, 0.088620, -0.042854, 0.040813, 0.091767, -0.013565, 0.028994, 0.029533, -0.009416, 0.012289, 0.119676, -0.025338, 0.088770, 0.074883, -0.000892, 0.045794, 0.104877, -0.005978, -0.054169, 0.020118, -0.076123, -0.042357, 0.070687, 0.031503, -0.035766, -0.018282, 0.082129, 0.067929, 0.037832, 0.003933, 0.071426, -0.052699, -0.026661, -0.013842, 0.091290, 0.116865, -0.084967, 0.046467},
  {-0.051172, 0.025549, -0.056709, 0.096464, 0.041564, 0.052671, 0.128878, 0.078728, 0.051471, -0.045821, -0.102799, 0.058786, -0.039392, -0.037462, -0.019524, 0.017538, -0.032504, -0.068990, -0.037684, -0.045415, -0.004108, 0.107993, -0.058042, 0.038057, 0.119312, -0.070587, -0.027099, 0.056501, 0.051323, 0.059085, -0.066274, 0.078017, -0.029659, 0.032791, -0.029221, -0.056227, 0.089679, -0.008462, 0.042272, 0.026452, 0.026740, 0.073940, 0.023394, 0.069783, 0.056333, 0.020958, 0.059606, 0.109826, -0.000196, 0.045541, -0.051058, 0.060803, -0.057017, 0.078344, 0.054218, -0.019588, 0.085984, 0.095281, 0.065935, 0.033657, -0.020736, -0.015660, -0.074324, 0.089250, 0.043313, 0.006309, -0.037145, 0.001407, 0.073509, 0.010858, 0.083461, -0.058634, -0.048968, 0.058655, 0.063359, 0.002852, 0.018883, 0.140726, -0.037239, 0.039248, -0.020859, 0.056682, 0.030039, 0.073194, 0.112632, 0.017192, 0.039368, 0.009282, 0.105037, -0.026572, -0.017018, 0.063806, 0.076330, 0.060410, -0.043460, -0.029746, 0.039455, 0.014146, 0.021926, 0.094487, 0.109293, 0.069459, -0.112178, 0.004058, -0.009266, 0.105383, -0.073784, -0.100578, 0.081392, 0.009497, 0.089193, 0.008533, 0.075437, -0.027833, 0.078912, 0.122406, 0.038644, -0.104168, 0.023021, 0.040115, -0.072991, 0.018630, 0.026920, -0.031393, 0.095942, 0.022888, -0.032862, -0.065576},
  {-0.009330, 0.077103, 0.004648, -0.108795, 0.023190, -0.016161, 0.001785, -0.069124, -0.009759, 0.047217, 0.038677, -0.045286, -0.016114, 0.023963, 0.012266, 0.029330, -0.034953, 0.047677, -0.005652, 0.019715, 0.019523, -0.068372, 0.057097, 0.018579, 0.015037, 0.062280, 0.017069, 0.070326, 0.093351, -0.026064, -0.051101, -0.042710, -0.072554, -0.064644, 0.010895, -0.039693, 0.072525, 0.004033, 0.024303, -0.047947, -0.041016, 0.075195, -0.000022, -0.086399, -0.077474, 0.043421, -0.049950, -0.088412, 0.061176, 0.006589, 0.045615, 0.082932, 0.038083, -0.076348, 0.102869, -0.107877, -0.105916, 0.000390, 0.078028, -0.097758, 0.019187, -0.006928, 0.128552, 0.094790, -0.011946, 0.126805, -0.082461, -0.034811, 0.008416, 0.009473, 0.104932, 0.099042, 0.027921, -0.078540, 0.001946, -0.000427, -0.084382, -0.102457, -0.100476, -0.079974, 0.131187, -0.008286, 0.080449, 0.000309, -0.003495, -0.039889, 0.046679, 0.028768, -0.131747, -0.019055, -0.027480, -0.010542, 0.027200, -0.059091, -0.015599, 0.123212, 0.040889, 0.040420, -0.019498, -0.031517, -0.048898, 0.095336, -0.016887, -0.073631, -0.030472, -0.073676, 0.011155, -0.021576, 0.005179, 0.066814, 0.083260, -0.014764, 0.010076, 0.059768, -0.008643, 0.020485, -0.038101, 0.092384, 0.009130, -0.114200, -0.037504, 0.101126, -0.063324, -0.021717, -0.087543, 0.040507, 0.043540, -0.037781},
  {-0.018287, -0.006137, -0.093788, 0.119583, -0.038377, -0.088232, -0.043411, -0.054782, 0.072641, 0.052450, 0.070464, 0.044892, -0.047423, -0.034008, -0.115407, -0.079521, -0.010861, -0.109224, 0.101562, 0.012521, 0.065048, 0.051904, -0.025254, -0.034265, 0.082911, -0.019646, -0.029562, -0.094586, -0.089693, -0.033615, 0.068019, -0.026511, -0.007094, 0.123566, -0.007195, 0.056565, -0.016293, 0.001914, 0.011669, 0.065080, 0.080778, 0.017350, 0.043997, 0.083636, 0.029947, 0.023534, -0.048817, 0.030926, -0.035681, -0.080490, 0.000401, -0.087736, 0.051289, -0.005591, 0.030329, 0.038926, 0.085553, 0.034122, 0.076255, 0.126933, -0.026611, 0.052659, -0.073114, -0.076230, 0.044593, -0.061546, 0.042441, -0.073745, 0.046350, -0.050541, 0.051229, -0.110154, -0.072679, -0.015092, 0.077865, 0.086312, -0.039526, 0.028816, -0.007483, -0.015490, -0.099357, -0.055139, 0.007840, 0.026164, -0.096858, -0.005075, -0.055213, -0.055782, 0.066826, -0.038158, -0.036450, -0.006353, 0.105037, 0.043867, -0.108937, -0.003274, 0.005631, -0.020760, -0.011420, 0.045254, 0.103478, 0.092634, 0.007054, -0.020739, 0.067251, 0.048122, -0.038065, 0.029544, 0.019547, 0.007378, -0.066439, 0.052788, -0.044519, 0.014571, -0.095738, 0.037172, -0.055660, 0.028501, 0.082964, 0.023105, 0.087505, -0.049392, -0.091264, -0.007561, 0.120806, -0.044400, 0.034584, -0.035234},
}