Layer: fc3.weight
Shape: torch.Size([7, 64])
Values:
{
  {-0.056290, -0.062041, -0.024118, 0.011778, -0.181532, -0.015853, 0.101358, -0.014193, -0.125749, 0.043158, 0.084497, -0.164061, -0.137573, -0.105355, -0.125715, 0.057642, -0.034754, -0.106704, 0.125682, 0.095168, -0.190853, 0.084986, 0.119792, 0.159508, 0.089906, 0.122521, 0.018734, -0.065752, 0.144458, -0.016636, 0.018901, -0.115682, -0.082281, 0.129539, -0.105166, -0.114991, -0.126360, -0.096562, -0.082157, -0.028593, 0.160573, -0.166217, -0.001486, 0.045805, 0.051826, -0.029843, 0.154973, 0.018629, -0.115412, -0.155363, -0.115563, 0.157084, -0.022815, -0.106649, -0.009988, -0.122024, -0.002928, -0.093193, -0.164957, 0.072572, 0.079273, 0.030151, -0.123153, -0.040660},
  {-0.056306, -0.054768, -0.005885, -0.149771, 0.085629, 0.176929, -0.016539, 0.050863, -0.076433, -0.091512, -0.132967, -0.130764, -0.156634, -0.156945, -0.039941, -0.067047, -0.027663, 0.033321, -0.004725, -0.101758, 0.123229, -0.017146, 0.128700, -0.053982, -0.024522, -0.065049, -0.052026, -0.091510, 0.129094, 0.141492, -0.007449, 0.127296, 0.114315, 0.056471, 0.171599, 0.100773, 0.151266, -0.107089, 0.159904, -0.017400, 0.102759, 0.069733, -0.138914, -0.044572, 0.031079, -0.168263, -0.104228, 0.130060, 0.128059, -0.115630, -0.073478, -0.031120, 0.045327, 0.154855, 0.149579, -0.175907, -0.076840, 0.000473, -0.086841, 0.005393, -0.142220, 0.053533, -0.040160, -0.020409},
  {-0.040726, 0.052413, -0.125295, -0.132366, 0.136645, -0.048324, -0.035279, 0.035682, 0.130474, -0.084717, -0.076420, 0.085077, 0.138904, -0.161360, 0.028112, -0.118161, 0.041551, -0.176057, 0.062735, 0.012946, -0.152860, -0.118696, -0.041030, -0.054274, -0.104470, 0.054114, -0.030583, 0.013381, -0.146881, 0.079419, 0.175100, 0.069266, -0.088372, -0.057263, -0.060048, -0.175166, 0.116248, 0.141509, -0.079421, -0.067695, -0.010740, 0.023616, -0.027869, -0.133744, -0.191808, -0.162646, 0.172150, 0.009449, -0.147031, -0.137399, -0.022764, 0.146940, -0.173205, -0.089059, 0.158077, 0.151077, -0.099198, -0.163765, -0.053847, 0.173618, 0.118883, -0.083066, 0.144991, -0.167887},
  {-0.039470, 0.118517, -0.040192, 0.160885, -0.195965, -0.044865, 0.006227, -0.152082, -0.106687, -0.154176, -0.001437, -0.170493, 0.079531, -0.021392, -0.045469, -0.141351, 0.100192, 0.174762, -0.058598, -0.075457, -0.106008, -0.053513, 0.140914, -0.158349, 0.129967, -0.094556, 0.018565, 0.166744, -0.177439, 0.066185, -0.062650, 0.048949, 0.081307, -0.122717, -0.033342, 0.063683, -0.033130, -0.132420, 0.051302, -0.137164, -0.123049, -0.116794, -0.058263, 0.121998, 0.030914, 0.139517, -0.096929, 0.055214, -0.022362, -0.028826, 0.051128, -0.123512, 0.051095, -0.019432, 0.010121, -0.069079, -0.119101, 0.013321, 0.126508, -0.032028, 0.013211, 0.008531, -0.078856, 0.126812},
  {0.151970, -0.027268, 0.175457, -0.120611, -0.112431, 0.039044, -0.080923, 0.129567, -0.080838, 0.135134, -0.132613, -0.058921, -0.067354, 0.022030, 0.088730, -0.085022, -0.145769, -0.046675, 0.053464, -0.027480, 0.002855, -0.113863, 0.100476, 0.120881, 0.056608, -0.021504, 0.128397, -0.115380, 0.095424, 0.025430, 0.003830, -0.141175, -0.154299, -0.004798, -0.014089, -0.154972, 0.022807, -0.069385, -0.123959, 0.161413, -0.065027, 0.117329, 0.146685, 0.011165, -0.179155, -0.091759, -0.157762, -0.044146, 0.102602, 0.122948, 0.028549, -0.036906, 0.155639, -0.069729, -0.109352, -0.179245, -0.106734, -0.092773, -0.072451, -0.055802, -0.102271, -0.104677, -0.061104, -0.060532},
  {0.017045, 0.023309, -0.142420, 0.009353, 0.140257, 0.093849, -0.120551, -0.206669, 0.054058, -0.122360, 0.020507, 0.119671, 0.072524, 0.015485, 0.149943, 0.132318, -0.116584, -0.145665, 0.068308, -0.067881, 0.093603, -0.184337, -0.129174, 0.002732, -0.010392, -0.191898, -0.158098, 0.078865, -0.014870, -0.058780, 0.018310, 0.158718, -0.204208, -0.052373, -0.158687, 0.150286, 0.066837, -0.015995, -0.238504, -0.152809, -0.162908, 0.127745, -0.099964, -0.034574, 0.030683, 0.045550, -0.002201, -0.119381, 0.156028, 0.043637, -0.060736, -0.119263, -0.011693, 0.070248, -0.102871, 0.121220, 0.137261, 0.071397, -0.109580, -0.135213, -0.078363, 0.031269, -0.043818, 0.072293},
  {-0.154345, -0.138660, -0.111207, 0.001314, -0.038779, -0.098124, 0.014712, 0.051408, 0.142862, 0.068535, 0.166612, 0.068540, -0.083675, -0.000377, -0.106875, 0.117173, -0.082871, -0.074461, -0.020895, 0.078155, 0.073694, 0.073871, -0.162098, -0.212421, -0.211612, -0.081315, 0.150859, 0.017240, 0.127120, -0.172748, 0.117175, -0.131648, -0.064682, -0.155618, 0.173047, -0.064630, 0.082935, -0.039423, 0.125986, 0.104521, 0.022456, -0.047723, 0.102865, 0.031157, -0.012190, 0.044784, -0.197853, 0.039028, -0.014336, -0.087635, 0.007592, -0.090434, -0.182922, -0.058227, 0.009941, 0.124501, 0.044576, 0.105636, 0.196311, 0.091641, 0.026005, -0.036041, 0.079709, -0.118715},
}