Layer: fc3.weight
Shape: torch.Size([3, 64])
Values:
{
  {0.026776, -0.099617, 0.065104, 0.135808, -0.027739, 0.011478, 0.108096, 0.140340, 0.021178, -0.127740, 0.144052, 0.015312, -0.029383, -0.004415, 0.181714, 0.090160, 0.060939, -0.105594, 0.194839, 0.182998, 0.104059, 0.147370, -0.125563, -0.099471, 0.098904, -0.152514, 0.090002, 0.025879, 0.093775, 0.105879, 0.173232, -0.172836, 0.088996, -0.022387, 0.043544, 0.070144, 0.148811, -0.164201, 0.123201, -0.115268, -0.131009, 0.079158, -0.096817, -0.102390, 0.106426, -0.067295, -0.168809, -0.079791, 0.076269, 0.045830, -0.087816, -0.018775, -0.159262, -0.082410, 0.056631, -0.093766, -0.043556, -0.101602, -0.100062, 0.044146, -0.111999, 0.089616, 0.119027, -0.113456},
  {0.004516, 0.150623, -0.103651, 0.026070, -0.141180, -0.177505, -0.140010, -0.159337, -0.038314, 0.172828, -0.126691, -0.023357, 0.173799, 0.012464, -0.136878, -0.003276, 0.009247, -0.020212, -0.073106, -0.040750, 0.036311, 0.066318, -0.162094, -0.119809, -0.179938, -0.056629, -0.153065, -0.127003, -0.162025, 0.012025, -0.026501, -0.051695, 0.000051, -0.054791, 0.086372, -0.042767, -0.078115, 0.130748, -0.151619, 0.029513, -0.029569, -0.148013, 0.143180, 0.117172, -0.179391, 0.041378, 0.156589, 0.135098, -0.095161, -0.161557, 0.057969, 0.149341, -0.032444, 0.141638, 0.036657, -0.173761, -0.071084, 0.164375, 0.034735, -0.118772, 0.041119, 0.038325, 0.107868, -0.009807},
  {-0.129449, -0.174835, 0.081583, 0.013590, -0.112729, 0.050911, 0.040088, -0.044320, 0.116279, -0.160895, -0.039188, 0.168488, -0.194681, 0.126849, -0.010644, -0.172435, -0.152841, 0.142382, -0.073395, -0.107406, 0.002725, -0.103598, 0.109097, 0.043586, 0.031962, 0.028804, 0.088856, 0.108522, 0.154196, 0.089001, -0.139829, 0.171713, -0.133556, 0.070467, -0.160225, -0.097218, -0.128096, 0.130196, 0.012360, -0.090034, -0.043898, 0.160357, -0.109953, -0.100896, 0.130185, 0.143675, -0.021894, -0.028765, -0.105049, -0.102009, -0.006058, 0.123749, 0.129465, -0.084520, -0.149438, 0.066005, 0.124698, 0.087185, -0.014287, -0.151128, -0.147854, 0.031353, -0.120133, 0.037737},
}