Layer: fc3.weight
Shape: torch.Size([7, 64])
Values:
{
  {0.149767, 0.127617, 0.040153, 0.063528, -0.058853, -0.152266, -0.066256, 0.005083, -0.064875, 0.033522, -0.058198, 0.064921, -0.067351, -0.172854, 0.095731, -0.039259, 0.078514, 0.108927, 0.120817, -0.100876, -0.098611, 0.161819, -0.083050, -0.090905, 0.105140, -0.017701, 0.016052, -0.104197, -0.043647, 0.108922, -0.102867, 0.039864, -0.091971, -0.121422, 0.149425, 0.126467, -0.029893, -0.115605, -0.025562, 0.012863, -0.104549, -0.132249, 0.049702, -0.009369, 0.002518, 0.114029, -0.097346, -0.040955, 0.045414, 0.079737, 0.055818, 0.098955, 0.090734, -0.176241, 0.105304, -0.041985, -0.008469, 0.085869, -0.074389, -0.173468, 0.051257, -0.156286, -0.124705, 0.124855},
  {-0.041314, 0.078308, -0.002531, 0.069155, 0.147230, -0.119750, -0.026687, -0.151444, -0.105888, -0.117517, 0.071048, 0.153422, -0.093180, -0.006989, 0.035979, 0.153586, -0.012528, -0.054057, -0.111959, 0.062823, 0.064341, 0.037684, 0.057326, -0.059073, 0.080070, -0.068107, -0.154815, 0.028152, -0.035048, -0.002315, 0.084526, 0.068651, 0.149996, 0.043896, -0.146793, 0.128865, 0.136714, -0.099028, 0.141392, -0.027019, 0.053328, -0.064476, 0.151756, -0.071861, -0.082877, 0.110533, 0.040102, -0.070237, 0.041254, 0.140096, 0.161656, -0.144847, -0.088302, 0.003798, 0.027799, -0.023473, -0.032947, 0.167208, 0.149617, 0.037608, -0.041993, -0.061340, -0.110138, -0.068507},
  {-0.030747, 0.027610, 0.059419, 0.068700, -0.002754, 0.162987, 0.081673, 0.068893, -0.113846, 0.135620, -0.155331, 0.010737, 0.124162, -0.172928, -0.077164, 0.103598, 0.139749, 0.151052, 0.147733, -0.074710, -0.172477, -0.060877, 0.162311, -0.123065, -0.067053, -0.025299, -0.088019, -0.058685, -0.014010, 0.095546, -0.077547, -0.124265, -0.017220, -0.106324, -0.054671, -0.100260, 0.056631, -0.178734, -0.063532, 0.088555, 0.120080, 0.069149, -0.129564, 0.088894, 0.104528, -0.071309, -0.108191, -0.143838, 0.047151, -0.182223, 0.078348, 0.056791, -0.114284, 0.161131, -0.130089, -0.152819, -0.200748, -0.042207, -0.126337, 0.052680, 0.086851, 0.005104, 0.051026, 0.000506},
  {0.127679, -0.080498, -0.111565, -0.152974, -0.056990, 0.120362, 0.126831, 0.035957, -0.092546, 0.027942, 0.030431, 0.044426, -0.079861, -0.061364, 0.124042, 0.127016, -0.089623, -0.078964, 0.012246, -0.054719, 0.145972, -0.066099, -0.108167, 0.160086, 0.002007, -0.127311, 0.033878, 0.191698, -0.077178, -0.105730, 0.147718, 0.112982, -0.052315, 0.127019, 0.133016, -0.005317, 0.157471, 0.097842, -0.095750, -0.120862, -0.044035, 0.076828, -0.144356, 0.084776, -0.163558, -0.065797, -0.111973, -0.061723, -0.030446, -0.084196, -0.008141, 0.039494, 0.021516, -0.026558, -0.167610, -0.085134, -0.089333, 0.150871, -0.056160, -0.059355, 0.010461, -0.056384, -0.060240, 0.115195},
  {0.010149, 0.061792, -0.089690, -0.003567, 0.161054, -0.075389, 0.009941, -0.156263, 0.141991, 0.068275, 0.015678, -0.112328, -0.153792, 0.128289, 0.058733, -0.070231, 0.057569, 0.002422, -0.086327, -0.129834, 0.144374, -0.015862, -0.020486, -0.165750, -0.133550, 0.017260, -0.119578, -0.153337, 0.114648, 0.072104, -0.007197, -0.056488, -0.149195, -0.074711, -0.111044, -0.126660, -0.093685, 0.070963, -0.132529, 0.040438, 0.146319, 0.068438, -0.141859, -0.125959, 0.066093, 0.040510, -0.039100, 0.102518, -0.140519, 0.129574, -0.036493, -0.042931, -0.124308, -0.162719, -0.126288, 0.021490, -0.036209, -0.106703, -0.156057, 0.069990, -0.029499, 0.084350, -0.142890, -0.037827},
  {0.025611, 0.117229, -0.178981, -0.107012, -0.136499, 0.068027, 0.080235, 0.142579, 0.092037, -0.133780, 0.022863, -0.149069, 0.151959, -0.163235, -0.114749, -0.139391, -0.161521, -0.168898, -0.156870, -0.161374, -0.098656, 0.015218, -0.008676, -0.090144, -0.099157, -0.037657, 0.177561, 0.110433, 0.036242, -0.144770, -0.079453, -0.069984, 0.092454, 0.087215, 0.140687, -0.102592, -0.201917, 0.048701, 0.084995, -0.162243, 0.066877, 0.038248, -0.160827, 0.007304, 0.007251, 0.139542, -0.181738, -0.081465, -0.194653, 0.089524, -0.171736, -0.029734, -0.012631, -0.183111, -0.100774, 0.105594, 0.150332, -0.088975, -0.115560, 0.080678, -0.147957, 0.135097, 0.078291, -0.046742},
  {-0.135405, -0.049653, 0.044206, -0.125559, -0.179764, -0.029493, -0.138688, 0.006964, 0.031755, 0.140260, 0.057906, -0.083332, -0.014737, -0.027127, -0.085707, 0.059092, -0.050995, 0.138620, 0.132431, 0.141893, -0.127970, -0.045990, 0.079454, -0.132242, -0.045024, 0.098850, -0.107547, -0.057694, -0.156831, -0.116792, 0.133413, 0.006623, 0.081118, 0.166743, -0.007823, 0.167746, -0.049273, -0.162136, 0.003221, 0.044687, -0.048097, -0.113242, -0.032671, 0.089689, -0.038077, -0.118469, 0.170658, -0.189390, 0.045160, 0.060998, 0.067268, -0.148838, 0.150630, -0.094962, -0.114492, 0.066567, 0.013117, 0.034726, 0.100534, 0.104346, -0.100549, 0.140736, 0.016228, -0.106461},
}