Layer: fc2.weight
Shape: torch.Size([64, 128])
Values:
{
  {-0.018618, 0.078344, 0.096111, 0.093091, -0.092376, -0.048852, -0.041669, 0.107089, -0.038028, 0.092771, -0.110378, 0.205793, -0.218396, -0.124629, 0.116851, -0.019217, -0.057696, 0.105884, 0.117972, 0.046428, 0.133308, -0.002548, -0.056657, 0.076480, -0.169759, 0.056502, -0.038897, 0.061452, -0.057551, 0.072155, 0.021471, -0.208573, 0.001796, -0.065741, 0.022115, 0.157457, 0.006135, 0.163239, 0.135834, -0.070740, 0.069334, 0.011279, 0.241161, 0.386221, 0.093452, -0.023480, 0.075209, 0.171534, 0.110519, -0.093485, -0.365504, -0.045657, -0.035232, 0.033291, 0.075447, -0.077161, 0.116897, 0.026497, 0.016236, -0.152759, -0.066832, 0.187007, 0.010970, 0.224360, 0.002121, 0.063494, -0.315990, 0.122291, 0.156101, 0.230332, -0.043676, -0.063942, 0.171448, 0.020915, -0.133893, -0.071988, -0.072340, 0.098117, -0.002442, -0.067569, -0.014581, -0.134174, 0.109538, 0.088128, 0.263448, 0.172718, 0.031089, -0.045161, -0.054784, -0.049280, 0.131638, -0.039059, 0.044082, 0.178233, -0.045133, 0.060677, -0.023010, -0.088432, -0.046173, -0.061236, 0.164430, 0.090091, -0.003974, -0.051665, 0.056625, -0.002684, -0.173913, -0.002414, 0.209695, 0.023506, 0.108202, 0.130335, 0.046124, -0.165087, 0.067820, 0.040300, 0.031655, 0.032325, 0.028634, 0.231034, -0.001003, 0.206667, -0.224282, 0.029289, 0.144618, -0.533176, 0.254218, 0.012021},
  {0.080887, 0.096963, 0.012453, 0.059878, -0.229027, 0.031698, 0.256277, -0.054150, -0.078255, 0.136530, 0.105017, 0.368374, 0.022404, 0.196273, -0.052278, 0.040913, 0.056234, 0.084338, -0.032612, 0.086934, 0.068050, 0.188217, -0.188322, -0.252205, 0.005442, -0.042489, -0.048427, -0.333010, -0.060825, 0.004403, -0.114933, 0.090813, -0.082738, 0.073650, -0.004690, 0.066123, 0.050337, -0.141928, -0.079894, -0.014863, 0.080165, 0.031408, -0.009151, -0.125130, 0.410563, 0.158381, -0.204135, -0.062030, -0.032320, 0.174784, 0.072449, -0.077495, 0.049142, -0.009636, 0.005176, -0.073777, -0.050027, -0.072746, -0.142581, 0.350538, 0.171432, -0.192192, -0.275550, 0.098149, 0.299070, -0.028481, 0.082439, -0.138005, 0.214691, 0.217174, -0.114538, -0.001091, 0.047070, 0.317069, -0.096067, -0.019073, 0.031727, -0.080033, -0.113255, 0.256229, 0.119435, 0.069829, -0.006920, 0.044644, -0.001634, 0.023633, 0.213764, -0.115755, -0.056356, -0.055590, -0.187511, -0.084992, 0.020478, -0.297432, -0.178700, 0.293413, 0.126139, -0.005799, 0.090265, -0.110289, -0.017786, 0.097465, -0.056652, -0.014958, 0.139242, 0.199341, -0.021773, 0.108863, 0.119335, 0.034084, -0.107957, -0.104632, -0.063804, 0.003084, 0.017278, 0.022401, 0.043793, 0.112883, 0.103481, 0.150677, 0.200992, -0.164821, -0.257594, -0.022470, 0.017287, 0.108392, -0.235639, -0.107683},
  {0.195845, -0.039467, 0.070953, -0.096272, 0.157016, 0.005425, -0.303341, 0.009767, -0.006115, -0.077443, 0.064259, 0.068963, -0.222789, 0.054026, 0.017432, -0.054224, -0.006058, 0.046473, 0.097263, -0.118033, -0.012494, 0.026661, 0.204777, 0.046850, 0.010214, 0.218627, -0.096638, 0.220139, 0.065708, 0.017893, -0.004208, 0.244113, 0.139904, -0.021287, 0.149395, 0.099291, 0.048437, -0.043621, -0.093702, 0.062724, 0.011681, 0.090316, -0.087726, 0.019682, -0.242806, -0.087566, 0.131251, -0.023861, -0.004670, 0.108400, 0.088240, 0.217331, 0.085145, 0.129736, 0.102751, -0.052355, 0.015733, -0.013594, -0.070720, -0.032790, -0.070127, 0.089032, -0.065080, -0.076639, -0.043329, 0.089948, 0.072866, -0.104519, 0.079631, -0.025911, -0.117255, -0.032370, -0.102206, -0.265672, 0.325635, 0.113263, 0.030621, -0.013286, -0.168921, 0.208420, -0.044715, 0.170369, -0.044985, -0.186331, -0.093190, -0.045579, 0.062403, -0.086216, -0.042314, 0.003049, -0.028275, 0.065623, 0.100759, 0.055518, 0.181182, 0.105246, 0.074655, 0.100166, 0.228020, 0.178203, 0.003742, -0.046716, -0.045351, 0.105920, -0.096092, -0.052431, 0.127470, -0.156366, -0.001195, 0.150086, 0.033073, -0.173074, -0.090180, 0.225713, -0.056479, 0.031526, -0.003524, -0.014743, 0.161376, -0.108773, -0.045700, -0.131642, 0.010034, 0.126886, -0.064628, 0.003758, -0.038335, 0.187005},
  {-0.051771, -0.014680, 0.035441, 0.033194, 0.058593, 0.023676, -0.022381, -0.007848, -0.013159, -0.025470, -0.046057, 0.040274, -0.027589, 0.049672, 0.028692, 0.047206, -0.082667, -0.066500, -0.049230, 0.019677, -0.067328, 0.007413, -0.056919, 0.030169, 0.086743, 0.068557, -0.017961, -0.085233, -0.060972, -0.042194, 0.019672, 0.014144, 0.006813, -0.018103, -0.021628, 0.045121, -0.019930, 0.042024, 0.008431, 0.026647, 0.071399, 0.037748, -0.071413, 0.002699, -0.067096, 0.028846, -0.049079, -0.081419, -0.048892, -0.068365, -0.066099, -0.003368, -0.018866, 0.063418, -0.083836, 0.053182, -0.079566, -0.098765, 0.028013, 0.006203, -0.001308, -0.000611, -0.043274, -0.089287, -0.062148, 0.065869, -0.009258, -0.048784, -0.057682, -0.064131, 0.017692, -0.015345, -0.087410, -0.101690, -0.057080, 0.045708, -0.117861, -0.003275, -0.020778, -0.078118, 0.045048, -0.028944, -0.026832, -0.003728, -0.014713, -0.022120, 0.008078, -0.083436, 0.069857, -0.023407, 0.014614, -0.054087, -0.061542, -0.046783, 0.076690, -0.028359, 0.017468, -0.079711, -0.019125, -0.037197, -0.014172, 0.067035, -0.035835, -0.070707, 0.014319, 0.060311, 0.051589, -0.088908, -0.066499, -0.081967, 0.056880, -0.009547, -0.104957, -0.047447, 0.029818, 0.065653, -0.105157, -0.046335, 0.047968, -0.004463, -0.053378, -0.090389, 0.072429, -0.025906, -0.112600, 0.007536, -0.105081, -0.059835},
  {0.144073, -0.033294, -0.028298, -0.107423, 0.013007, 0.090215, 0.140034, 0.078024, -0.186665, 0.201346, 0.258841, 0.453043, 0.122982, 0.158207, 0.077857, -0.071482, -0.005743, 0.102551, -0.048605, -0.004387, 0.003174, -0.035648, -0.065995, -0.180865, -0.023942, 0.177829, 0.080069, 0.055099, 0.245745, -0.023299, 0.062270, 0.210799, -0.252273, 0.107465, 0.040296, 0.118560, 0.243622, -0.109252, -0.056859, -0.140056, 0.029049, -0.010774, -0.153809, 0.019317, 0.082550, 0.191933, -0.109127, 0.178790, 0.000009, 0.057431, -0.067486, 0.397235, 0.170167, 0.083898, 0.091130, -0.002754, -0.097723, 0.037092, 0.028928, -0.131441, 0.022039, -0.308300, -0.053549, -0.078153, 0.629343, 0.219235, -0.290297, -0.052762, 0.243035, 0.104934, -0.159110, -0.096030, 0.002594, 0.041777, -0.012298, 0.045224, 0.136516, 0.055961, -0.159518, 0.089839, -0.047047, 0.212664, 0.120618, 0.043056, 0.055266, -0.019152, 0.063232, -0.181013, -0.063724, 0.033400, -0.135995, 0.134961, 0.152874, -0.095628, -0.183050, 0.190038, 0.117142, 0.083659, 0.123823, 0.223463, -0.004666, 0.004069, 0.128156, -0.193563, 0.006384, -0.185333, 0.168712, 0.103519, 0.111162, 0.022842, -0.024718, -0.111938, -0.002775, 0.106335, -0.117891, 0.072400, 0.020067, 0.187506, 0.039791, -0.050996, 0.160221, 0.086576, -0.085424, 0.018222, -0.036460, 0.032114, -0.139869, 0.117196},
  {-0.021082, 0.063083, 0.030314, 0.016941, -0.128041, 0.050322, -0.052806, 0.186530, -0.098142, 0.183366, 0.195564, 0.159627, -0.166664, -0.284346, 0.136740, 0.081831, -0.074906, -0.026753, 0.138001, 0.084672, -0.023531, -0.264888, -0.014485, 0.369052, -0.033367, -0.007043, 0.065299, -0.012752, 0.110032, 0.006928, 0.114110, 0.212560, -0.185047, 0.133714, -0.072215, 0.126368, -0.159586, 0.166849, -0.014780, -0.078618, 0.257965, -0.177635, 0.082070, 0.074865, -0.201820, 0.028217, 0.203590, -0.058844, 0.070742, -0.188459, -0.066213, -0.202952, 0.014356, 0.026841, 0.118985, -0.008625, 0.069760, -0.101676, 0.137643, -0.247166, -0.016676, 0.061082, 0.165334, 0.144097, 0.203104, -0.011477, 0.092375, 0.101539, 0.007775, -0.019483, -0.477614, 0.164235, -0.005721, -0.230033, 0.141182, -0.012940, 0.133760, -0.196164, -0.145403, 0.150413, -0.164278, 0.189399, 0.084801, 0.187885, 0.139458, -0.083127, 0.018759, -0.246372, -0.153572, -0.197628, 0.134117, -0.068532, -0.078644, -0.061713, -0.006291, 0.104038, -0.182915, -0.084942, 0.187296, 0.209973, 0.072771, -0.028239, 0.075322, 0.183911, -0.045465, 0.041849, -0.003977, -0.294190, -0.133120, 0.072551, 0.332139, -0.089874, -0.018708, -0.006543, -0.042596, 0.059391, -0.044738, -0.121814, 0.108373, -0.010104, -0.042888, 0.096088, 0.355008, -0.059174, 0.043812, 0.280085, 0.028318, 0.067238},
  {0.126295, 0.012472, 0.150131, -0.006249, 0.018082, -0.014240, 0.038935, -0.295150, 0.017324, 0.083582, -0.232695, -0.477823, 0.251851, 0.138692, -0.001737, 0.037749, -0.035865, -0.017609, 0.032288, -0.030039, 0.113636, 0.202429, 0.222634, 0.141102, 0.283678, 0.031751, -0.043989, 0.248954, 0.058273, 0.045058, -0.061817, 0.043248, 0.173758, -0.107532, 0.063628, -0.080516, -0.085698, 0.090942, -0.126501, 0.055859, -0.220697, 0.091487, 0.046116, 0.017495, 0.108716, 0.096338, -0.067477, 0.026608, 0.074560, -0.016865, 0.298283, 0.226309, 0.126836, -0.111217, 0.013356, -0.038075, 0.027469, -0.037014, -0.000100, -0.001556, -0.033001, 0.003939, 0.160295, -0.146656, -0.184293, -0.085040, 0.158928, 0.009421, 0.000798, -0.055165, 0.201283, -0.153217, -0.058282, -0.135572, -0.063128, 0.018997, 0.198105, 0.179742, 0.114462, -0.214775, 0.123494, -0.017920, -0.102521, -0.163965, -0.276677, 0.011269, -0.145939, 0.155713, 0.038819, 0.169291, 0.021135, 0.000241, 0.148298, 0.141489, 0.233194, -0.019299, 0.165976, -0.023361, 0.103568, -0.061642, 0.051744, 0.005788, -0.062746, 0.083994, -0.044863, -0.084910, 0.191392, 0.063415, -0.196460, 0.024204, -0.142318, 0.202052, 0.069078, -0.067881, 0.132715, 0.045064, 0.101063, 0.016240, 0.048200, -0.084527, -0.038667, -0.170609, 0.008616, -0.034418, 0.096399, 0.200481, 0.012308, 0.146955},
  {0.109295, 0.169490, 0.102677, -0.019581, -0.063488, 0.041073, -0.295443, 0.069077, -0.211678, 0.071507, -0.080278, 0.078890, -0.503146, 0.124287, 0.068652, 0.065237, -0.001144, -0.027692, -0.046025, 0.155240, 0.082878, 0.106686, -0.188616, -0.421446, -0.007374, -0.008664, -0.434474, -0.126725, -0.109633, 0.027013, 0.051515, -0.003861, 0.203655, -0.066734, 0.148986, -0.043169, -0.022500, 0.072435, -0.004892, -0.040964, 0.090012, 0.007889, -0.077063, -0.044246, -0.175410, 0.075553, -0.079356, -0.027734, -0.016281, 0.138272, 0.234259, -0.009513, 0.002615, 0.061417, 0.032110, -0.019462, 0.015356, 0.023301, -0.297683, 0.168707, 0.090995, -0.090198, -0.288776, -0.105188, -0.101953, -0.007691, 0.177171, -0.115376, 0.080025, 0.047647, 0.042088, -0.065807, -0.047824, 0.056849, -0.103931, -0.050442, -0.218918, -0.105992, 0.086877, 0.164889, -0.590165, 0.076412, 0.108922, -0.167230, 0.055286, 0.073430, 0.048248, -0.200437, 0.008370, 0.167861, 0.241549, 0.136155, -0.069999, -0.102794, -0.087343, 0.106905, 0.080203, -0.357028, 0.049577, 0.020596, 0.087227, 0.104106, 0.115064, -0.049483, 0.228018, 0.290554, -0.148815, -0.308046, 0.134672, -0.025408, 0.006537, -0.186217, 0.118182, 0.084232, 0.020432, -0.041132, -0.024069, -0.003459, 0.097307, -0.023200, 0.062972, -0.403634, -0.213753, 0.082289, -0.047464, 0.289793, -0.107826, 0.080540},
  {0.221099, -0.003053, 0.129108, -0.012825, -0.089238, 0.015786, 0.027200, -0.032635, 0.066803, 0.012632, 0.026628, -0.302421, 0.172224, -0.087895, 0.049857, 0.021944, 0.075658, 0.029038, 0.064605, 0.128583, 0.092235, 0.152917, 0.214630, 0.199354, 0.033584, -0.039976, -0.090155, 0.135128, -0.000361, -0.023957, 0.046499, -0.014064, -0.069510, 0.101975, -0.049572, -0.007181, -0.087277, 0.271063, -0.102691, 0.137619, 0.030108, 0.012443, 0.083078, 0.190172, 0.015593, -0.253875, 0.114845, -0.199321, 0.151420, 0.094724, 0.234225, -0.122438, 0.113392, -0.030847, 0.027587, 0.013619, 0.095274, 0.065496, -0.073924, 0.195425, 0.030663, 0.421520, 0.172808, -0.105099, -0.283534, -0.097075, 0.068308, 0.105946, 0.054889, -0.032766, 0.319065, 0.046261, 0.018771, 0.047797, -0.073212, 0.124782, 0.271793, 0.118428, 0.008258, -0.094183, 0.006704, 0.025668, -0.102032, -0.215454, -0.045167, 0.009373, -0.023250, 0.115953, -0.001574, 0.054237, 0.087821, -0.135813, 0.016562, -0.055668, 0.123724, -0.208163, -0.062534, -0.039816, 0.079308, -0.253578, -0.046818, 0.049136, 0.066261, 0.033804, -0.053673, -0.087465, -0.131738, 0.065765, -0.130409, 0.077551, -0.111561, -0.067608, -0.102040, -0.101448, 0.002993, 0.066696, -0.100075, -0.062575, 0.036001, -0.089616, 0.079297, 0.116280, -0.140509, -0.066652, 0.003159, -0.139803, 0.103310, 0.088284},
  {-0.005786, -0.054154, 0.096007, -0.002696, -0.045040, 0.087579, -0.144044, 0.196815, -0.266722, 0.196954, 0.059340, 0.302847, -0.304268, -0.211114, 0.091087, -0.037397, 0.041676, 0.105440, 0.038569, 0.139213, 0.053757, -0.194235, 0.020700, -0.099331, -0.297257, -0.013006, -0.069121, 0.003616, -0.005117, 0.030599, 0.072437, -0.056170, -0.302284, -0.113052, -0.045223, 0.112189, -0.034335, 0.054254, 0.096421, 0.008631, 0.041311, -0.035582, 0.081119, 0.342245, -0.189551, 0.221352, 0.002969, 0.166642, 0.059103, -0.130453, -0.285809, 0.159046, 0.134110, 0.090458, 0.134920, -0.056020, -0.020598, 0.069454, 0.030955, -0.461826, -0.168072, 0.209716, 0.222199, 0.008551, 0.332509, 0.116060, 0.075264, 0.048058, 0.146232, 0.280548, -0.250799, -0.178083, -0.035574, -0.218239, 0.004719, -0.188732, 0.042549, 0.061623, -0.082973, 0.191121, -0.260087, 0.041410, 0.048281, 0.315382, 0.192709, 0.133333, 0.042114, -0.222867, -0.120319, -0.121053, -0.062749, 0.029929, -0.100939, -0.044790, 0.045599, 0.322619, 0.056640, -0.017146, -0.155922, 0.288611, 0.166545, -0.011190, 0.011062, 0.071428, 0.161196, -0.122169, 0.000025, -0.113377, 0.280295, 0.088531, 0.147203, 0.044455, 0.072770, -0.122699, 0.135782, 0.138509, 0.118890, 0.081432, 0.041836, 0.224155, -0.002125, 0.087402, -0.022082, 0.088602, 0.164021, -0.012676, 0.200931, 0.012539},
  {0.193408, 0.170433, 0.163217, 0.053186, -0.101785, 0.075863, 0.233307, -0.154251, 0.054511, 0.329250, -0.052739, 0.076419, 0.158837, 0.204094, 0.027259, 0.023420, 0.034287, 0.093359, 0.109864, 0.085029, 0.079730, 0.346518, -0.061402, 0.110475, 0.263453, 0.137945, -0.216148, -0.138025, -0.125381, 0.148688, -0.083337, -0.171240, 0.022422, -0.160465, 0.112578, 0.074539, 0.035594, 0.219839, -0.008551, -0.030035, -0.172416, 0.011397, -0.039789, -0.181795, 0.299507, -0.013812, 0.112544, 0.037038, -0.030990, 0.201054, 0.072058, 0.060680, 0.007062, 0.081614, -0.024722, 0.066111, 0.066451, 0.060441, -0.161382, 0.371646, -0.093561, -0.264604, 0.036150, -0.070603, 0.069563, -0.101390, -0.146363, -0.019795, 0.062282, 0.086388, 0.131398, 0.141177, 0.019501, 0.210100, -0.279598, -0.117439, -0.172115, 0.079256, 0.091541, -0.211236, 0.188372, -0.022574, -0.117472, -0.194809, -0.086704, -0.075996, -0.047467, -0.032659, 0.123221, 0.061829, 0.096154, 0.110164, -0.017309, -0.051627, -0.010553, 0.052923, 0.144440, 0.120359, 0.121487, -0.393253, 0.144671, 0.137105, -0.040497, 0.032248, 0.143687, -0.124285, 0.119565, 0.130658, -0.163316, 0.058427, -0.433020, 0.080014, 0.102309, 0.030864, -0.013204, 0.040609, 0.071631, 0.091128, 0.139391, 0.049905, 0.156896, -0.003284, -0.234546, -0.129334, -0.003414, -0.024177, -0.022938, 0.163692},
  {0.210024, 0.099825, 0.153159, -0.049209, 0.029228, 0.094080, -0.289572, -0.024518, 0.032364, -0.014928, -0.006057, -0.038766, -0.338173, 0.231092, -0.010620, -0.058895, 0.040250, 0.060733, 0.112743, 0.095277, -0.045479, 0.177693, 0.009871, -0.281272, -0.111250, 0.139439, -0.419826, -0.039732, 0.227121, 0.102411, -0.015400, 0.113554, 0.200438, 0.057544, 0.019635, 0.060620, 0.012356, -0.015815, -0.113674, 0.192194, 0.091034, 0.065942, -0.037589, -0.135962, -0.084261, -0.119823, 0.066701, 0.051773, 0.057419, 0.206562, 0.157481, 0.036636, 0.004443, 0.038583, 0.087153, 0.056915, 0.002455, 0.137305, -0.294052, -0.016520, 0.092550, 0.257385, -0.011859, -0.136625, -0.005226, 0.057889, 0.018038, -0.087524, 0.022136, -0.048356, 0.089296, -0.149248, -0.032126, -0.207457, 0.052605, 0.144349, -0.337994, -0.056343, -0.073472, 0.191088, -0.194698, 0.118718, 0.131462, -0.302972, -0.103958, -0.033534, 0.043626, -0.156900, 0.020000, 0.050217, 0.138743, 0.000314, 0.003480, -0.134705, -0.054892, -0.005358, 0.063297, -0.202561, -0.047654, 0.031233, -0.054486, 0.073643, 0.102101, -0.000888, 0.004928, 0.032002, 0.115759, -0.137819, -0.062041, 0.100236, -0.082500, -0.236575, -0.005212, 0.134655, 0.078850, 0.157778, 0.109942, 0.000023, 0.091370, -0.136692, 0.128309, -0.315233, -0.227222, -0.025431, 0.006303, -0.171624, -0.119367, 0.160773},
  {-0.124809, 0.012438, 0.044573, -0.074141, 0.215361, -0.038468, -0.190167, 0.037558, 0.005620, 0.076039, 0.033485, -0.026996, 0.329474, 0.149480, -0.042850, -0.024654, -0.034734, 0.008416, -0.093437, -0.034420, 0.030650, -0.056655, -0.126961, 0.197954, -0.009392, 0.040432, 0.174803, 0.096114, 0.252178, 0.009808, -0.091501, 0.124288, -0.050951, -0.006020, 0.002297, -0.037646, 0.141585, 0.044324, 0.010191, -0.069214, 0.012852, 0.212883, 0.018162, 0.062816, -0.146887, 0.312596, -0.076701, 0.220462, 0.065591, 0.073400, 0.106428, 0.278351, 0.025431, 0.009759, -0.101690, -0.041914, -0.064401, 0.030284, -0.024296, -0.147687, -0.025298, -0.164976, 0.177020, 0.045662, 0.268417, -0.096981, 0.020929, -0.008644, 0.033600, -0.053853, 0.072692, 0.068306, 0.029979, -0.083590, 0.013371, 0.101165, 0.145029, -0.005998, 0.013108, 0.035193, 0.018160, 0.066301, -0.056019, 0.281417, -0.002111, 0.036608, 0.044366, 0.096528, 0.155231, 0.143975, -0.015265, 0.171764, 0.081101, 0.118847, -0.091788, 0.043372, 0.073208, 0.297531, -0.046181, 0.150168, -0.051046, -0.108389, -0.015072, -0.018211, 0.017591, 0.110269, 0.243615, 0.155377, -0.084311, 0.030019, 0.107652, 0.162535, 0.119495, 0.256091, -0.005405, 0.027028, 0.044838, 0.017085, 0.013683, -0.053262, 0.028555, 0.007215, 0.439722, 0.000570, 0.053465, 0.451006, -0.117956, -0.015800},
  {0.038726, -0.073796, 0.035924, -0.071446, 0.230193, 0.087155, -0.320627, 0.036163, 0.019284, -0.088633, -0.055344, -0.117265, -0.012430, 0.115122, 0.071980, 0.066187, 0.013663, 0.103810, -0.026280, -0.091652, 0.092283, -0.092759, 0.125852, 0.081598, -0.093713, 0.144036, -0.032459, 0.137379, 0.229705, -0.088010, 0.113811, 0.230986, 0.071577, 0.028370, 0.077680, -0.049323, 0.070785, -0.007738, -0.030032, 0.123873, 0.161661, 0.116539, -0.097223, 0.153304, -0.353628, 0.038710, 0.003442, 0.167839, 0.004714, -0.090676, 0.051152, 0.328786, 0.030544, -0.062321, 0.088274, 0.043418, -0.080991, 0.101979, 0.084818, -0.197448, 0.069184, 0.226426, 0.118249, -0.121998, -0.008851, 0.062531, 0.003644, -0.088895, -0.001592, 0.043793, 0.056804, -0.098923, 0.003900, -0.231017, 0.084782, 0.050644, 0.100891, -0.059784, -0.065768, 0.118823, -0.206562, 0.131645, 0.104722, -0.030149, 0.103005, 0.010302, -0.011977, 0.089073, 0.104021, 0.067114, 0.047236, 0.120398, 0.198723, 0.118232, 0.066841, -0.034585, 0.007482, 0.039788, -0.006662, 0.308575, -0.080147, -0.010581, -0.017624, -0.179742, -0.028256, 0.011752, -0.024147, -0.022269, 0.080438, 0.030023, 0.162746, 0.003128, 0.030143, 0.036819, 0.052210, 0.048684, 0.091930, -0.046105, -0.023294, -0.177873, -0.017510, 0.046383, 0.141731, 0.112664, 0.006643, 0.120020, 0.010658, -0.016363},
  {-0.096714, -0.038851, -0.129719, -0.095511, 0.186995, 0.055505, -0.000970, -0.027271, 0.244162, -0.007151, -0.028595, 0.153577, -0.049929, 0.147844, -0.062376, 0.054119, -0.013545, 0.092739, -0.084339, 0.024576, 0.038283, 0.005672, -0.005822, -0.142430, 0.009021, 0.108749, 0.122222, 0.039912, 0.086871, -0.039491, 0.006435, 0.236925, 0.175436, 0.154618, 0.039654, -0.040437, 0.005297, -0.187964, 0.086694, -0.037482, -0.015263, 0.173191, 0.036930, -0.184695, 0.027219, 0.051727, -0.046343, 0.104061, -0.124818, 0.084837, 0.049195, 0.045304, -0.062738, 0.031182, -0.089151, -0.081471, -0.121506, 0.087377, 0.125215, 0.021488, 0.189084, -0.355010, -0.104616, 0.097888, 0.230383, 0.041700, 0.224004, -0.118881, 0.007909, -0.037741, -0.131865, 0.161771, 0.029841, 0.109715, 0.207747, 0.034786, -0.076045, -0.058138, -0.029320, 0.234047, -0.081760, 0.165332, 0.027677, 0.111620, -0.055900, 0.089591, 0.130267, -0.040532, 0.066793, 0.088764, 0.030966, 0.208513, -0.004277, -0.103992, -0.102614, 0.100526, 0.037121, 0.119698, -0.053482, 0.298450, -0.013354, -0.104526, 0.006991, -0.088921, -0.037261, 0.067167, 0.212593, -0.015682, 0.154181, -0.011562, 0.010845, -0.009749, 0.113181, 0.049998, -0.017177, -0.086029, -0.014583, -0.095611, 0.054311, 0.029752, -0.076912, -0.123865, 0.162151, 0.011144, -0.032295, 0.325107, -0.119360, -0.019455},
  {-0.117471, 0.117604, 0.123529, 0.123292, -0.010117, 0.008916, -0.165085, 0.016400, -0.048362, -0.023880, -0.176610, -0.213572, -0.096337, -0.015691, -0.041860, 0.000145, -0.004184, 0.112376, 0.036281, 0.178281, 0.145430, 0.058867, 0.006772, -0.258755, -0.067659, -0.168091, -0.280022, -0.012074, -0.194522, 0.042369, 0.005086, -0.083531, 0.130166, 0.049716, 0.000795, 0.001130, -0.032350, 0.005780, 0.006886, 0.127866, 0.127607, -0.068663, 0.220688, 0.255496, -0.185535, 0.220694, -0.023286, -0.012835, 0.132561, 0.047746, 0.179232, -0.101985, 0.115167, -0.000543, -0.005757, -0.083197, 0.109571, 0.142785, 0.022154, 0.027167, 0.127384, 0.362544, 0.204103, 0.009023, -0.315941, -0.099741, 0.355306, 0.103368, -0.120966, 0.090846, 0.212583, -0.058992, -0.100226, 0.195412, -0.045907, -0.040692, -0.135590, 0.053799, 0.223257, 0.100903, -0.168851, -0.148131, 0.022142, 0.114973, 0.003195, 0.179718, 0.089719, 0.043374, 0.198560, 0.093857, 0.075504, -0.036305, -0.119794, 0.165666, 0.036617, 0.038654, 0.097479, -0.213220, -0.286841, -0.003921, 0.045601, -0.033698, 0.094463, -0.089313, 0.238579, 0.247445, -0.145696, -0.051477, 0.101855, 0.023378, 0.268091, 0.031081, 0.150643, -0.152987, 0.057522, 0.037351, 0.104206, -0.055591, -0.097987, 0.050287, -0.064136, -0.070778, -0.307721, 0.128810, 0.104555, -0.094662, -0.058380, -0.069469},
  {0.066148, 0.088215, -0.046090, 0.116970, -0.015589, 0.138782, 0.150454, -0.094247, -0.042341, 0.156247, 0.043630, 0.224518, -0.008824, 0.150015, -0.075521, 0.035662, 0.009535, 0.082887, 0.127583, 0.090752, 0.098745, 0.162579, -0.186881, -0.286501, -0.055097, -0.143778, -0.025864, -0.145677, -0.166181, 0.100787, -0.009107, -0.257184, 0.032242, -0.050878, 0.047540, 0.007045, 0.094926, -0.154146, 0.045186, -0.020966, -0.105561, 0.044694, -0.032020, -0.147459, 0.298351, 0.044627, -0.140635, 0.044885, -0.040112, 0.139709, 0.013573, -0.095768, 0.106932, 0.187559, 0.015555, 0.041256, 0.016819, 0.039511, -0.190700, 0.342544, 0.167416, -0.235103, -0.212336, 0.046324, 0.130490, -0.027300, -0.130478, -0.070939, 0.204126, -0.008106, -0.034479, 0.004656, 0.091944, 0.427835, -0.071203, -0.027868, -0.201997, 0.164664, -0.008972, 0.072673, 0.105496, 0.056229, 0.101563, -0.046834, 0.090264, -0.001137, 0.200143, 0.046866, -0.034898, 0.083189, -0.221737, -0.004345, -0.069587, -0.124474, -0.238404, 0.079690, 0.025335, 0.016154, -0.118497, -0.281647, 0.053830, 0.045326, -0.094058, 0.014916, 0.222868, 0.096650, -0.045234, 0.220892, 0.203553, 0.048578, -0.331482, -0.028125, -0.056082, -0.084459, -0.027003, 0.061145, -0.031344, 0.121869, 0.050304, 0.188539, 0.142958, 0.023116, -0.166239, -0.070027, 0.018628, -0.220239, -0.066736, -0.080335},
  {0.139577, 0.102549, 0.066959, 0.101411, -0.055480, -0.042269, 0.191348, 0.128333, -0.080066, 0.242608, 0.105243, 0.061968, -0.031220, -0.101623, -0.054745, 0.034903, -0.081127, 0.064846, 0.004464, -0.056403, -0.145179, 0.174143, 0.067737, -0.108661, 0.206374, 0.147322, 0.088976, -0.047140, -0.075419, 0.093303, 0.107377, 0.234323, -0.163733, 0.141766, 0.098801, 0.111589, -0.129830, 0.009831, -0.160728, 0.086724, -0.060509, -0.025054, -0.165483, -0.044410, 0.148242, -0.218657, 0.039180, -0.105559, 0.121071, 0.111919, 0.232077, 0.080220, 0.004306, -0.017338, 0.092341, 0.000696, -0.129378, -0.023050, -0.070597, 0.240841, -0.044256, -0.138752, -0.130979, -0.212506, -0.083013, 0.032130, 0.263379, 0.089327, 0.212682, 0.098901, -0.209208, 0.078105, -0.037229, 0.179604, 0.225492, -0.045086, 0.339554, -0.035310, -0.085590, 0.308823, 0.047195, 0.206019, 0.121205, -0.060418, -0.234269, -0.125448, 0.056956, -0.199955, -0.169882, -0.085499, -0.251305, -0.004648, -0.134115, -0.286525, 0.173153, 0.203453, -0.067839, -0.078538, 0.132711, -0.046010, 0.180375, 0.152361, 0.100253, 0.152526, 0.135264, 0.001177, -0.060471, -0.150921, 0.080358, -0.027732, -0.112711, -0.166165, -0.027535, -0.031590, -0.031740, 0.066236, 0.085298, 0.085670, 0.150811, -0.209336, 0.130982, -0.047926, -0.141440, 0.081108, -0.145966, 0.283863, -0.077114, 0.028628},
  {-0.058178, -0.083214, -0.051521, 0.035776, -0.099483, 0.047635, -0.064435, -0.131120, 0.136660, -0.130128, 0.037252, 0.015609, -0.029652, 0.094841, -0.152932, -0.041949, 0.053402, -0.092771, -0.017695, -0.043885, -0.032846, -0.033196, 0.086135, -0.033594, -0.055188, -0.041044, 0.034910, -0.030027, -0.020832, -0.000847, 0.032797, 0.083832, 0.072959, -0.090525, -0.143389, -0.004417, 0.076306, -0.118155, 0.008067, -0.067642, -0.272579, 0.089040, -0.009220, -0.175789, 0.162010, 0.131410, -0.059199, 0.020837, -0.025509, 0.050038, -0.037130, -0.134892, 0.069716, -0.174184, -0.164693, 0.009774, -0.002614, 0.058276, -0.021762, 0.051300, -0.025678, -0.079001, -0.032532, 0.090151, 0.042727, 0.060693, -0.183056, -0.026074, -0.134153, 0.107474, -0.047653, -0.066324, 0.036962, 0.043649, 0.032470, -0.042189, -0.037868, -0.008588, 0.060736, -0.051495, 0.073054, -0.050556, -0.057831, 0.022518, 0.115188, -0.010852, 0.102073, -0.019669, 0.109557, 0.029839, -0.114537, -0.097017, 0.036584, 0.133665, -0.002830, 0.027707, -0.117760, 0.238693, -0.018462, -0.174058, -0.113433, -0.028844, -0.062729, -0.071056, 0.084570, 0.002387, 0.231858, 0.097465, -0.001457, -0.022140, -0.213686, -0.010915, 0.017289, 0.133955, 0.043844, -0.105194, 0.053522, 0.031401, -0.045820, 0.079677, -0.198300, -0.066357, -0.051906, 0.108317, -0.013821, 0.098444, -0.054237, -0.024085},
  {0.022942, 0.034952, -0.030369, -0.057837, 0.074906, 0.010467, 0.193660, 0.077686, 0.010899, 0.143139, 0.248701, 0.192247, 0.141357, -0.020996, 0.075600, 0.058733, -0.068230, 0.129449, 0.021082, -0.020391, 0.050020, 0.098632, -0.129749, -0.205735, 0.107449, -0.140219, 0.089281, -0.225580, -0.004985, 0.036655, -0.021823, 0.003395, -0.156283, 0.177383, 0.101778, -0.071488, 0.091037, 0.004167, -0.036257, 0.024667, 0.028011, 0.041829, -0.012682, -0.075611, 0.176340, 0.253544, -0.125733, -0.009406, -0.015073, 0.147040, 0.163286, 0.067875, 0.049038, 0.092269, -0.103437, 0.053199, 0.078342, 0.079572, -0.093206, 0.265013, 0.173738, -0.291270, 0.030300, 0.040429, 0.301870, -0.058074, 0.038482, -0.166597, 0.126860, -0.005746, 0.162896, 0.088828, 0.005520, 0.361019, -0.001693, 0.109318, 0.088856, 0.073044, 0.012819, 0.007055, -0.082329, 0.080948, 0.115244, 0.241092, -0.044624, 0.125561, 0.213453, 0.142664, -0.042154, 0.049908, -0.124148, 0.069338, -0.107521, -0.071820, -0.297723, 0.109019, 0.040366, 0.139177, -0.089639, -0.019821, -0.040767, 0.114835, -0.088544, -0.128395, 0.090843, 0.244064, 0.009684, 0.244427, 0.150293, 0.015937, -0.069318, -0.024556, 0.075485, 0.101748, 0.060537, -0.091964, -0.004454, 0.026593, 0.027174, 0.127419, 0.123073, 0.101999, -0.036304, -0.057062, 0.120001, 0.177540, -0.025206, -0.110302},
  {-0.009631, -0.079564, 0.063860, -0.095247, -0.073194, 0.029765, 0.009179, 0.025065, 0.060027, 0.041402, -0.093285, -0.131849, -0.040117, 0.028891, -0.048914, 0.023955, 0.038390, -0.075421, 0.050156, -0.084501, 0.044486, 0.003246, 0.006213, 0.011673, -0.097736, -0.103238, 0.075776, 0.043979, -0.001033, 0.003343, 0.040984, -0.025733, -0.067079, -0.058416, 0.028609, -0.070153, -0.005730, -0.058880, -0.062264, -0.033035, 0.008862, 0.060259, 0.011027, -0.061146, -0.032856, -0.063000, -0.078509, -0.054418, -0.097380, -0.048354, -0.109380, 0.036986, -0.034278, -0.113530, -0.011343, -0.004128, 0.047307, -0.100728, -0.011992, 0.052226, 0.059924, 0.054320, 0.022883, 0.071321, 0.043562, -0.081834, 0.017956, -0.023466, -0.018471, 0.035370, -0.080222, 0.033059, 0.032522, 0.037228, -0.089374, -0.079764, 0.005412, 0.035546, 0.060897, 0.038048, -0.067898, -0.010330, 0.071846, 0.066196, -0.053686, -0.024805, 0.026113, -0.083102, -0.049273, 0.054242, -0.019615, -0.047171, -0.018962, 0.006127, -0.008664, 0.082016, 0.064276, 0.053965, -0.036102, 0.071794, -0.066568, -0.066681, 0.003444, -0.042310, -0.018326, 0.008539, -0.075423, -0.039633, -0.110124, 0.046773, -0.058425, 0.018214, -0.109823, 0.069134, -0.081772, 0.011823, 0.055251, -0.047023, -0.097587, -0.050091, -0.067000, -0.077454, -0.052253, 0.016255, -0.046307, -0.016012, 0.010557, -0.079058},
  {-0.096168, -0.127024, -0.114081, 0.061028, 0.064726, -0.135505, -0.076472, 0.230760, 0.007534, -0.070633, 0.188887, 0.475396, -0.136207, -0.163889, 0.036516, -0.071323, 0.010922, 0.055846, -0.013575, -0.030237, -0.026133, -0.250246, -0.016516, 0.011426, -0.123417, -0.033282, 0.315458, -0.061921, 0.060029, -0.083750, 0.065485, -0.067930, -0.036657, 0.126492, 0.000550, -0.025884, 0.091363, 0.089982, 0.149199, 0.087010, 0.156468, -0.045475, 0.000921, 0.198778, -0.129026, 0.080954, 0.078524, 0.034584, 0.050323, -0.211600, -0.049787, -0.292508, -0.102716, -0.057967, 0.034866, 0.025607, 0.118656, 0.105163, 0.179144, 0.079538, 0.092296, 0.031431, 0.090604, 0.166585, 0.068524, -0.083162, 0.055833, 0.162022, -0.091752, -0.119067, -0.346558, 0.133811, 0.053932, 0.229186, 0.121938, 0.141368, 0.160096, -0.261304, -0.066999, 0.028551, 0.081889, 0.049445, 0.037936, 0.164882, 0.222510, 0.128926, 0.126790, -0.002962, 0.041281, 0.015812, -0.024692, -0.052169, -0.059790, 0.073587, -0.083137, 0.030336, -0.206564, 0.127965, -0.022960, 0.327335, 0.043897, 0.084482, -0.065322, 0.028764, 0.053544, 0.153069, -0.150631, -0.047282, 0.087724, -0.008926, 0.287043, -0.061505, -0.043058, 0.083039, -0.009633, 0.070253, 0.016701, -0.044555, -0.017482, 0.162087, 0.028727, 0.192594, 0.249749, -0.031828, 0.093425, -0.097427, 0.051952, 0.074120},
  {0.021586, -0.059906, 0.012524, -0.097122, -0.112868, 0.042024, 0.148239, -0.045869, -0.053860, 0.041089, 0.278615, 0.225896, 0.419147, 0.101996, 0.116010, -0.070348, 0.004487, 0.011463, -0.023283, 0.003100, 0.108349, -0.038826, -0.203368, 0.207406, 0.185428, 0.026648, 0.058293, -0.100807, 0.299646, -0.084810, 0.013301, 0.157492, -0.177190, 0.177068, -0.069814, -0.016649, 0.131453, 0.124043, -0.103677, 0.000682, 0.052326, 0.099764, -0.039187, 0.046462, 0.032156, 0.180292, -0.005993, 0.077468, -0.001166, -0.032414, 0.048822, 0.239489, 0.084442, 0.126617, 0.083169, 0.056595, 0.023383, 0.096878, -0.041827, 0.056231, 0.058902, -0.128063, 0.134961, -0.055904, 0.539584, 0.000176, -0.177268, -0.164776, 0.016683, -0.026318, 0.127002, -0.016864, -0.109635, 0.217658, -0.110841, 0.188025, 0.064595, 0.026031, 0.010086, 0.004888, 0.088263, 0.072127, -0.021648, 0.205235, -0.077221, 0.033550, 0.180568, 0.073885, -0.088851, 0.048737, 0.109650, -0.021977, -0.039001, -0.047737, -0.267350, 0.055585, 0.028401, 0.135571, 0.131354, -0.002209, -0.013922, -0.075719, -0.008316, -0.154558, 0.109991, 0.126717, 0.074210, 0.307334, -0.108891, -0.062670, 0.067417, 0.002975, 0.009825, 0.146323, -0.021277, 0.023122, 0.101038, 0.088915, 0.036456, 0.112405, 0.127273, 0.077503, 0.141853, 0.024339, -0.070971, 0.302661, -0.031775, -0.032971},
  {-0.027073, -0.030176, 0.004197, 0.057984, 0.047112, 0.145179, 0.011805, -0.095733, 0.432697, -0.130859, -0.130613, -0.245827, -0.285862, 0.118063, 0.076264, 0.038951, 0.021634, -0.040013, -0.011796, -0.026981, 0.081906, 0.264622, 0.072212, -0.059992, 0.074033, 0.105186, -0.095868, 0.064524, -0.292161, 0.136708, 0.124121, -0.251792, 0.209484, -0.113309, -0.003620, 0.056192, -0.055736, -0.210524, 0.112880, 0.031854, -0.083086, 0.074617, 0.082513, -0.053422, 0.263398, -0.227985, 0.072102, -0.016833, 0.007218, 0.204565, 0.108820, 0.011797, 0.114947, -0.004486, -0.036493, 0.010424, -0.006857, 0.118175, -0.070647, 0.235271, 0.024386, 0.214312, -0.277727, 0.055489, -0.367881, 0.066621, -0.213730, 0.197615, -0.083963, 0.095029, 0.186004, -0.016325, 0.121038, -0.085437, -0.016470, -0.105436, -0.166854, -0.006430, 0.056833, 0.050751, 0.219640, -0.167241, 0.008706, -0.351979, 0.055488, 0.113333, -0.014538, 0.157209, 0.048753, -0.084000, -0.021367, -0.032159, -0.053518, 0.032090, 0.032639, -0.068154, -0.011974, -0.140052, -0.036013, -0.152799, 0.052975, -0.066865, 0.175215, 0.063824, 0.122817, 0.115999, -0.009024, 0.124842, 0.064357, 0.095685, -0.131615, -0.034153, 0.145357, -0.113456, 0.045759, 0.118413, -0.041303, -0.097803, 0.068685, -0.067524, 0.112067, 0.025455, -0.070566, 0.018468, -0.011749, -0.507174, 0.074411, 0.047666},
  {-0.083294, 0.027781, 0.065998, -0.006290, 0.047691, 0.171463, 0.041172, 0.123692, -0.351052, 0.334080, -0.039441, 0.475632, -0.174173, -0.075597, -0.037002, 0.025792, 0.074859, 0.094999, 0.039122, 0.005220, 0.067915, -0.097326, -0.091537, -0.149097, -0.137264, 0.061055, -0.015962, -0.139516, -0.040753, 0.069403, 0.080712, 0.044029, -0.285089, 0.040446, 0.066959, 0.120432, 0.103538, 0.045391, 0.023249, 0.008139, 0.024692, -0.019854, -0.011287, 0.318067, -0.011924, 0.409120, -0.022263, 0.201653, 0.100984, -0.086470, -0.294464, 0.163680, 0.134821, 0.032902, -0.021790, 0.061108, 0.104968, 0.031686, -0.029386, -0.227030, -0.156957, -0.191866, 0.016464, 0.131155, 0.617188, 0.149714, 0.157020, -0.042190, 0.181035, 0.234127, -0.229612, -0.137150, -0.120771, -0.066758, -0.243556, -0.158728, 0.027629, 0.197657, 0.022804, 0.227166, -0.120974, 0.098663, 0.081158, 0.333121, 0.156231, 0.118070, 0.015906, -0.188162, -0.009220, 0.067876, -0.067712, 0.099260, -0.078580, -0.006348, -0.060021, 0.376344, 0.011855, 0.009144, -0.096635, 0.204686, 0.144937, 0.130799, 0.006008, -0.067433, 0.264824, -0.134081, 0.030322, 0.095494, 0.370658, 0.033454, 0.087519, 0.069408, 0.010139, -0.064837, 0.119316, 0.032155, 0.198074, 0.184963, -0.056233, 0.151932, -0.063989, 0.004515, -0.007798, 0.040312, -0.022266, 0.215835, 0.032416, 0.017877},
  {-0.008873, 0.060917, 0.044606, 0.137699, 0.047690, 0.043884, 0.263594, 0.025129, -0.082826, -0.030221, 0.028216, -0.184056, 0.315837, -0.114687, 0.027351, -0.027752, -0.034884, 0.086568, -0.034979, 0.056027, -0.063886, 0.054423, 0.208085, 0.462587, 0.181461, 0.050884, 0.176310, 0.290337, -0.140776, 0.072447, 0.050007, 0.091514, -0.235809, 0.151439, -0.051676, -0.061638, -0.074307, 0.182290, 0.043333, 0.092672, 0.011396, -0.042432, 0.187788, 0.160720, 0.092771, 0.096188, 0.032873, 0.034430, 0.125223, -0.004712, 0.053116, -0.028899, 0.031970, -0.074169, 0.097598, -0.038639, 0.084944, -0.048431, 0.241279, -0.170531, -0.153943, 0.147458, 0.288705, 0.121053, -0.053148, -0.027838, 0.114353, 0.195750, -0.050557, -0.015265, 0.137713, -0.037882, -0.022188, -0.062067, -0.003633, 0.080707, 0.344184, 0.188076, 0.086569, -0.006497, 0.243070, -0.009986, 0.007041, 0.228807, 0.020353, 0.061336, -0.014081, 0.052049, 0.021042, -0.002839, -0.135664, 0.057538, -0.090690, 0.097156, 0.321803, 0.015808, 0.006036, 0.153808, 0.042349, 0.016661, 0.102308, 0.061284, 0.073729, 0.180987, -0.071216, -0.153100, -0.031675, -0.053821, 0.082489, -0.040647, -0.034334, 0.279634, -0.006865, -0.151758, -0.034094, 0.007324, 0.008013, 0.053506, -0.037929, -0.000550, 0.002413, 0.139537, 0.138147, 0.002451, -0.076017, 0.167257, 0.220325, -0.007724},
  {0.021085, -0.123087, -0.183626, 0.064064, -0.065018, -0.155355, 0.050646, -0.024925, 0.051267, -0.079178, 0.071936, -0.022785, -0.031262, -0.202560, -0.026414, 0.036880, 0.077669, -0.088410, -0.089143, -0.038712, 0.027082, -0.171527, 0.006355, 0.042232, -0.071689, -0.147941, -0.085509, 0.027778, 0.007249, -0.157121, -0.063679, 0.027414, -0.142085, 0.141837, -0.179062, -0.022068, 0.028333, 0.013971, 0.029203, 0.071496, -0.071447, -0.006744, 0.070320, -0.035765, -0.046393, -0.124491, 0.074302, -0.142123, -0.020935, -0.033140, 0.040077, -0.043096, -0.025864, 0.055130, 0.030340, 0.078152, -0.038806, -0.077852, 0.052799, -0.127603, 0.099468, 0.206737, -0.089802, 0.018855, 0.159667, 0.006424, 0.102164, -0.016363, -0.017889, -0.062775, -0.045762, 0.076950, 0.053160, 0.092381, 0.102697, 0.093549, -0.002226, 0.018732, 0.039240, -0.006315, 0.030333, -0.100121, -0.069193, -0.074929, -0.079022, 0.085614, -0.009855, -0.012198, -0.097107, -0.202153, 0.102174, -0.047019, -0.047862, -0.123368, -0.083494, -0.148663, -0.025574, 0.033339, -0.012626, -0.000469, -0.046128, -0.108448, -0.146486, -0.109464, 0.039098, -0.002206, -0.009797, 0.001666, -0.001561, -0.041390, -0.043733, -0.139029, -0.061975, 0.055510, -0.156670, -0.109190, -0.132148, -0.081120, -0.119866, 0.094223, 0.012867, 0.062257, -0.044388, -0.025948, -0.099031, -0.058162, 0.036240, -0.030542},
  {-0.044159, 0.157265, -0.017349, 0.073619, -0.038128, -0.033259, -0.122575, -0.101697, 0.347244, -0.039337, -0.086584, -0.027905, -0.316143, 0.079736, 0.109548, -0.046939, -0.043677, -0.067528, 0.031725, -0.028687, -0.107721, -0.277315, -0.029292, -0.026114, -0.098036, 0.215580, -0.181142, 0.079878, -0.008063, 0.042489, 0.052442, 0.097210, 0.277620, -0.194128, -0.090356, 0.054376, -0.000696, 0.128394, 0.018269, -0.134126, -0.174863, 0.209961, 0.160702, -0.561690, 0.174964, -0.010896, 0.246945, -0.168598, 0.036121, 0.106100, -0.160674, -0.161198, -0.073617, -0.028473, 0.127249, -0.069422, -0.028699, -0.054744, 0.041316, 0.217432, -0.075106, -0.150541, -0.081941, 0.121028, -0.076056, 0.032493, -0.187681, 0.140521, -0.297380, -0.008446, -0.049213, 0.238549, 0.185882, -0.322338, 0.111398, 0.081555, -0.138196, -0.090692, -0.030620, -0.259634, 0.116971, -0.046040, -0.157594, -0.292456, -0.030186, 0.001910, -0.254019, -0.088864, 0.152901, -0.070638, 0.370512, 0.089018, 0.099712, 0.085911, 0.107120, -0.192400, -0.172634, 0.073633, 0.059427, -0.119724, 0.121040, 0.000453, 0.091229, 0.015753, 0.017667, -0.039674, 0.210359, -0.150752, -0.247995, 0.089378, -0.154495, 0.084559, 0.005485, 0.242301, 0.095573, 0.045764, 0.081444, -0.074360, 0.072590, -0.010878, 0.088613, -0.058841, 0.157973, 0.016026, 0.054234, -0.199372, -0.030402, 0.124576},
  {-0.121660, 0.014601, -0.098016, 0.077271, 0.122538, -0.020946, -0.146142, 0.124241, 0.182427, -0.046942, 0.128769, 0.370302, -0.282106, 0.043431, 0.114228, 0.010826, 0.038365, -0.021292, 0.050944, -0.072117, -0.015708, -0.268981, -0.163199, -0.191447, -0.174191, 0.059434, 0.087941, -0.017103, 0.016099, 0.097480, -0.020225, -0.009672, 0.016131, -0.057052, -0.063553, 0.078088, 0.106644, -0.160664, 0.113730, -0.098027, 0.011760, 0.105012, 0.152664, -0.087210, -0.096778, 0.089305, 0.119792, 0.197366, -0.034008, -0.072582, -0.365419, 0.040642, -0.102178, 0.041321, 0.100464, 0.068144, 0.038268, 0.105618, -0.026355, -0.063381, 0.082150, -0.169999, -0.203772, 0.127516, 0.423717, 0.127121, -0.221050, 0.007915, 0.000661, 0.060620, -0.289569, 0.036167, 0.186845, -0.004644, -0.100614, -0.102924, -0.367999, -0.050417, -0.075083, 0.090739, -0.088329, 0.038290, -0.026186, 0.177213, 0.225544, 0.071633, 0.066462, -0.094452, 0.094277, 0.141451, 0.289580, -0.039218, 0.102504, 0.019316, -0.118122, 0.078534, -0.024346, 0.086346, 0.012556, 0.100468, 0.089928, -0.066297, 0.023127, -0.161542, -0.121598, 0.184600, -0.033127, 0.014418, 0.093351, -0.026774, 0.204799, -0.050328, 0.089959, 0.074367, 0.031781, -0.031606, -0.030284, 0.064502, 0.124137, 0.182374, 0.058119, 0.026171, 0.210888, 0.018942, 0.096703, -0.330494, 0.103737, 0.019804},
  {-0.030751, 0.090779, 0.073315, 0.069937, -0.096267, -0.168837, 0.464915, -0.137607, 0.182366, 0.017918, 0.129473, -0.034568, 0.546384, 0.038383, -0.061141, 0.067672, 0.019584, -0.047849, 0.017250, 0.106079, 0.077900, 0.158305, 0.116109, 0.267420, 0.275012, -0.107534, 0.240080, 0.094053, -0.036832, -0.069992, 0.008061, -0.034130, 0.023375, 0.119125, -0.098555, -0.007828, 0.012283, 0.172940, -0.086939, -0.028058, -0.112043, -0.039257, 0.060347, -0.082767, 0.265073, -0.102954, -0.023127, -0.039134, -0.080278, 0.002464, 0.106010, -0.014534, -0.102020, 0.037992, 0.020201, -0.071928, 0.091159, -0.130857, 0.203402, 0.355323, 0.157529, -0.080735, 0.002926, -0.052351, -0.128715, -0.076912, -0.099237, 0.050639, 0.012801, -0.134867, 0.276339, 0.247035, 0.023791, 0.359202, 0.048495, 0.223632, 0.213282, 0.063401, 0.163583, -0.207510, 0.352191, 0.050519, -0.120355, -0.005913, 0.030442, 0.050289, -0.029497, 0.245247, 0.064350, 0.134343, -0.095875, -0.098339, 0.020937, 0.118752, 0.082420, -0.080683, 0.080817, 0.195794, 0.194378, -0.152418, -0.018970, 0.000552, -0.104993, 0.172790, -0.143260, -0.079243, 0.062399, 0.257895, -0.225944, 0.051853, -0.100834, 0.218185, 0.052824, 0.150566, 0.060906, -0.029879, -0.121203, 0.062087, -0.031062, 0.080542, 0.028866, 0.250759, 0.179977, -0.064951, 0.048726, 0.089103, 0.142514, 0.058783},
  {0.074859, -0.008166, -0.029257, 0.008628, -0.079146, 0.079570, 0.028906, 0.019920, -0.005076, -0.013430, 0.127230, 0.262670, -0.252729, 0.098069, 0.142578, 0.045958, -0.022417, 0.036524, -0.015197, -0.049534, 0.113469, 0.053963, -0.121185, -0.289547, -0.076065, -0.031707, -0.135536, -0.104941, 0.021645, -0.026528, -0.023579, -0.025559, 0.149638, -0.097602, -0.028496, 0.137698, 0.016898, 0.057735, 0.010773, 0.052312, 0.050097, -0.006851, -0.033449, -0.150202, 0.070255, -0.050715, 0.091215, -0.049037, -0.099062, 0.230054, -0.084884, -0.005296, 0.051796, 0.033041, 0.129239, -0.062403, -0.089101, -0.052797, -0.122789, 0.341316, 0.158285, 0.025920, -0.187072, -0.015546, 0.080875, 0.130519, -0.288468, 0.041074, 0.189001, 0.030934, -0.073086, 0.152383, 0.187640, 0.044255, -0.059866, 0.140569, -0.400690, -0.119477, 0.057121, 0.142333, 0.044194, 0.039447, 0.181471, -0.220879, -0.023537, 0.071433, 0.003286, -0.009232, 0.051314, -0.005987, 0.094651, -0.131034, -0.081976, -0.129286, -0.078728, 0.124342, -0.096261, 0.055351, -0.005710, -0.005485, 0.107443, 0.096836, 0.032024, 0.075559, 0.081599, 0.250611, -0.039126, 0.153442, -0.017383, 0.125523, -0.037721, -0.144237, -0.017836, 0.047672, -0.082159, 0.058886, -0.055148, -0.009501, 0.058039, 0.075407, 0.258313, 0.069603, -0.130704, -0.001314, 0.113946, -0.307156, -0.060035, 0.012221},
  {-0.010522, 0.050059, -0.069079, 0.029107, 0.076259, 0.030555, -0.042038, -0.029755, -0.030354, -0.082202, -0.030406, 0.076645, -0.071374, -0.038447, -0.037950, -0.020563, 0.019736, -0.072002, -0.060534, 0.046274, 0.001231, -0.081392, -0.037994, -0.003280, 0.047325, -0.017474, -0.042856, -0.042396, -0.089121, 0.018970, 0.028023, -0.053195, 0.063829, -0.044690, -0.034249, 0.006967, -0.080720, -0.069407, 0.004664, -0.045064, 0.075877, -0.103299, 0.010341, 0.048690, 0.078306, 0.038173, -0.016938, 0.053932, -0.007679, -0.031609, 0.017203, -0.087449, -0.046082, -0.022502, -0.033652, 0.052400, -0.073860, 0.001325, 0.050955, -0.033671, 0.013256, 0.071891, 0.035128, -0.076837, 0.038915, 0.002023, 0.083912, -0.024438, -0.087663, -0.098319, -0.073064, -0.020409, -0.041756, -0.037789, 0.004093, -0.014073, 0.003360, 0.067255, -0.040849, 0.057947, 0.066050, 0.026829, -0.020842, 0.045069, -0.053291, -0.000567, -0.040219, 0.004836, 0.042135, 0.023998, -0.017915, -0.054812, -0.023266, 0.015037, -0.044380, 0.083564, 0.041340, -0.083648, -0.039109, -0.084494, -0.069984, 0.016115, -0.018011, -0.007103, -0.103645, 0.023469, 0.005482, -0.058408, -0.062061, -0.063294, 0.043519, -0.093449, -0.058969, -0.075693, 0.036410, 0.014485, -0.078966, -0.063875, -0.059978, 0.037277, -0.065669, -0.010425, 0.004251, -0.022163, -0.046465, 0.030988, 0.014066, 0.033342},
  {-0.001311, -0.032367, 0.112998, -0.021449, 0.193436, 0.027472, -0.346325, 0.062142, 0.106718, -0.194962, 0.005508, -0.016561, 0.010176, 0.090868, 0.004241, -0.058194, -0.086180, -0.055610, -0.028072, 0.043831, 0.086548, -0.171674, 0.019767, 0.162481, 0.016524, -0.030425, -0.010693, 0.204982, 0.191185, 0.040748, 0.110885, 0.210472, 0.146996, -0.074612, -0.044248, 0.012773, -0.050195, 0.092519, 0.108228, 0.052438, 0.211086, 0.068037, 0.069146, -0.037433, -0.206208, 0.017045, -0.000060, 0.063738, 0.123742, -0.025079, 0.114525, 0.022852, 0.075106, -0.054770, 0.090857, -0.032987, 0.061148, 0.104977, 0.119286, -0.137592, 0.040184, 0.263029, 0.010416, -0.010715, 0.008350, -0.071132, 0.065332, 0.008120, -0.134195, 0.037781, 0.141304, -0.020579, 0.026413, -0.220633, 0.171895, 0.003660, -0.067436, -0.176600, 0.056018, -0.029242, -0.008289, -0.001394, -0.106162, 0.073788, -0.005410, -0.032559, 0.027977, 0.093199, 0.142986, 0.166836, 0.296075, 0.183062, 0.212291, 0.264488, -0.037182, -0.020896, -0.005348, 0.047605, 0.014125, 0.208603, -0.081433, -0.049503, 0.006407, -0.087210, -0.003801, 0.234360, 0.083184, -0.088568, -0.210913, 0.027979, 0.262513, 0.087328, -0.003739, 0.077273, 0.025562, 0.097384, 0.041338, -0.088031, 0.025703, -0.090408, 0.033799, -0.148192, 0.256289, -0.009922, 0.016588, 0.194908, -0.035001, -0.020284},
  {0.090127, -0.001694, -0.071780, -0.027528, -0.141148, -0.120994, 0.151762, 0.084470, 0.272572, -0.238802, 0.138873, -0.096976, 0.159142, 0.104596, 0.095837, 0.000792, 0.081797, 0.019253, 0.120958, -0.080325, -0.036666, 0.016850, 0.079756, 0.265030, 0.111619, 0.064463, 0.129803, 0.051270, 0.146221, 0.049478, 0.006192, 0.221808, 0.153283, 0.251667, -0.082166, 0.026552, 0.024143, 0.124849, -0.140754, 0.009907, 0.155480, 0.020706, 0.036799, -0.247111, 0.151688, -0.316893, 0.078906, -0.135396, 0.066738, 0.134313, 0.334847, -0.062321, -0.024555, 0.091129, 0.031005, 0.003539, -0.000782, -0.061645, 0.164566, 0.223059, 0.201169, 0.053602, 0.036432, -0.036030, -0.379333, -0.128914, -0.118186, 0.006240, -0.137491, -0.201183, 0.222933, 0.189554, 0.079650, 0.098980, 0.153894, 0.328070, 0.151324, -0.115139, 0.116041, -0.049623, 0.197719, 0.125079, 0.018366, -0.210901, -0.066371, -0.050117, 0.153738, 0.161635, -0.050614, -0.031065, 0.218946, -0.026556, 0.058722, 0.158319, 0.060448, -0.249816, -0.074716, 0.177581, 0.346743, -0.056624, 0.000122, 0.051509, -0.004353, 0.135500, -0.241736, 0.201037, 0.082235, 0.114778, -0.382256, 0.057363, 0.151698, 0.050003, 0.056328, 0.208735, 0.069047, 0.098204, -0.164384, -0.140969, -0.003746, -0.124723, 0.077295, 0.023611, 0.323270, 0.084775, -0.067206, 0.120260, -0.027232, 0.040447},
  {0.030673, -0.089545, 0.021837, 0.086290, 0.032775, -0.025157, -0.320151, 0.153841, 0.098662, -0.034813, -0.007126, -0.130916, -0.434574, 0.004879, 0.085396, 0.011381, 0.057061, 0.090856, -0.035569, -0.069930, -0.003176, 0.023658, 0.078162, -0.043408, -0.091930, 0.003080, -0.224727, 0.091201, -0.038272, -0.058993, 0.046451, 0.018946, 0.063852, -0.017671, -0.047846, 0.116933, -0.116971, -0.032057, 0.075115, 0.195802, 0.223404, -0.118559, -0.022058, 0.188723, -0.364944, -0.073155, 0.134968, -0.094022, 0.085409, -0.035864, -0.009062, -0.117757, -0.032966, 0.069730, 0.126007, 0.062153, 0.004408, 0.047077, 0.053830, -0.045418, 0.099143, 0.573830, -0.087298, 0.028920, -0.119470, 0.020705, 0.252088, 0.002819, -0.019114, 0.163067, -0.270474, -0.053766, 0.034468, -0.244796, 0.255197, 0.008134, -0.032079, -0.205299, -0.053411, 0.126474, -0.289144, 0.041081, -0.019144, -0.057827, 0.183978, 0.114086, -0.051298, 0.045672, -0.014518, -0.065655, 0.023194, -0.117053, -0.021117, 0.101650, 0.249134, 0.055768, -0.050396, -0.219726, -0.030099, 0.247404, 0.043064, 0.043324, -0.018569, 0.077027, 0.010809, 0.161615, -0.076206, -0.255509, 0.163473, 0.051826, 0.286160, -0.002520, -0.029850, -0.029810, 0.004890, 0.082869, 0.067823, 0.028525, 0.067829, -0.180671, 0.091065, -0.045214, 0.031782, 0.115992, 0.060442, -0.071680, 0.048806, 0.042255},
  {-0.129173, -0.049576, 0.164982, 0.115662, 0.136716, 0.048107, 0.018734, -0.038085, -0.020157, 0.100732, -0.014847, -0.067961, 0.105376, -0.005857, -0.009976, 0.056929, -0.082546, 0.060222, 0.008862, 0.072628, 0.018554, 0.132333, -0.110235, 0.186634, 0.018390, -0.083245, -0.098827, 0.080760, 0.003741, 0.048538, 0.074350, -0.153218, 0.049033, -0.135783, 0.033115, -0.065403, 0.049644, 0.025197, 0.001082, -0.086262, -0.082680, 0.035683, 0.048667, 0.223526, 0.089483, 0.220200, -0.005681, 0.167020, 0.002739, -0.056952, -0.025555, 0.234279, 0.033607, 0.032012, 0.077776, -0.026497, 0.050262, 0.052226, -0.028672, -0.006594, -0.029869, 0.052376, 0.173754, 0.060063, 0.164299, -0.062276, -0.033939, 0.061081, -0.028390, 0.108626, 0.221175, 0.020806, 0.078719, 0.126614, -0.327227, 0.001578, 0.039967, 0.295111, 0.093264, -0.250249, 0.145441, -0.159739, -0.009496, 0.345362, 0.000133, 0.030313, -0.062102, 0.110865, 0.072636, 0.203245, 0.164880, 0.165764, 0.022429, 0.203882, 0.052549, -0.031066, 0.176443, 0.069390, -0.046235, -0.135722, -0.040133, -0.005791, -0.009056, -0.066382, 0.104096, 0.001437, -0.099433, 0.113072, -0.012387, 0.017770, -0.120447, 0.286319, 0.175935, -0.123279, 0.142235, 0.109643, 0.162887, 0.099486, 0.047965, 0.207368, -0.067362, 0.095927, -0.092364, 0.098301, 0.183923, -0.065018, 0.127470, -0.062587},
  {-0.108274, -0.040292, 0.071723, -0.032894, 0.241949, 0.022653, -0.280237, -0.106934, 0.289435, -0.136243, -0.163666, -0.264345, -0.112909, 0.128691, 0.111738, 0.055496, -0.042784, 0.065533, -0.060074, -0.021661, 0.168103, 0.058456, 0.039003, -0.010608, -0.156021, 0.006425, -0.144010, 0.204785, -0.031939, 0.018103, 0.130039, -0.107862, 0.313086, -0.167188, -0.050674, 0.009200, 0.052328, -0.090230, 0.179127, 0.098285, -0.040556, 0.184141, 0.192136, 0.113168, -0.004719, -0.188913, 0.081410, 0.259019, 0.123604, 0.006745, -0.223893, 0.063325, -0.084288, 0.036218, 0.015660, 0.040172, 0.149659, 0.158139, -0.074739, -0.045433, 0.208902, 0.332953, 0.006104, 0.085421, -0.273656, 0.084050, -0.315558, 0.047287, 0.007269, 0.032883, 0.048777, 0.051374, 0.260119, -0.075028, -0.141117, -0.042303, -0.352354, -0.011698, 0.029124, -0.128759, 0.115142, -0.169900, 0.158460, -0.114612, 0.196299, 0.157339, -0.115955, 0.258911, 0.198770, 0.181169, 0.037206, 0.069362, 0.133688, 0.262905, 0.136651, -0.120564, -0.048492, -0.023657, 0.033723, 0.091207, 0.084802, 0.070640, 0.018573, -0.043371, -0.180536, -0.098418, -0.007212, 0.068651, 0.065072, 0.059595, 0.097244, 0.206351, 0.161722, -0.212918, 0.046552, 0.124485, 0.000006, 0.120430, 0.102679, 0.000570, -0.030511, 0.258261, -0.009808, 0.091541, 0.177269, -0.439129, 0.209663, -0.017175},
  {-0.132377, 0.123372, 0.101812, 0.069740, 0.233921, 0.041022, -0.341720, -0.002244, -0.073166, 0.059197, -0.127548, -0.064490, -0.352752, 0.075576, -0.000007, -0.040191, 0.075000, 0.124653, -0.018294, 0.055660, 0.071964, -0.131819, -0.119156, -0.230867, -0.179565, 0.124641, -0.166557, 0.125261, -0.066880, 0.010401, 0.072813, 0.082617, 0.254191, -0.234910, 0.066346, 0.073140, 0.030350, -0.030859, 0.158927, -0.064539, 0.036843, 0.099587, 0.196463, 0.087948, -0.350084, 0.289687, -0.060179, 0.300390, 0.022214, 0.080264, -0.266571, 0.029144, 0.041630, -0.078718, 0.059315, 0.021956, 0.014166, 0.044331, -0.107984, -0.129853, -0.032141, 0.079858, 0.010578, 0.153263, 0.086044, 0.073941, 0.183670, 0.107660, 0.093866, 0.200272, 0.006337, -0.020914, 0.075408, -0.252178, -0.075174, -0.194083, -0.198059, -0.101940, -0.072859, -0.015219, -0.199886, -0.118001, 0.043687, 0.237135, 0.166639, 0.146634, -0.088897, -0.001195, 0.227692, 0.221638, 0.121457, 0.209550, 0.117028, 0.119356, 0.011616, 0.001820, 0.023088, -0.021577, -0.166572, 0.114196, 0.025112, 0.117825, 0.115007, -0.120222, 0.136765, 0.052225, 0.075411, -0.201126, 0.154786, 0.051368, 0.015667, 0.065952, 0.126611, -0.180848, 0.002147, -0.046461, 0.123924, 0.049129, 0.067974, -0.006246, -0.121787, -0.190296, 0.041063, 0.085950, 0.139723, -0.045386, -0.092832, 0.117952},
  {0.106770, 0.102375, -0.021641, 0.098695, -0.110995, 0.075484, 0.063730, -0.009612, 0.103490, 0.054220, -0.001929, -0.114911, -0.179599, -0.133292, 0.139737, 0.087904, -0.016458, 0.021974, 0.137759, 0.019942, 0.098129, -0.034282, 0.262611, 0.074561, 0.019954, -0.101280, -0.112609, 0.097725, -0.148572, 0.030732, 0.135398, -0.075404, 0.125203, 0.086093, 0.019043, 0.072187, -0.125357, 0.207370, 0.123879, 0.100128, 0.030726, 0.008939, 0.124675, 0.154878, -0.049847, -0.309384, 0.181452, -0.157746, 0.113734, -0.012666, 0.041665, -0.305096, -0.108794, 0.005781, 0.146388, 0.066633, 0.131298, 0.039572, 0.201188, 0.012278, 0.125664, 0.463571, 0.092634, 0.095047, -0.540007, 0.034802, 0.071059, 0.156102, -0.099507, -0.035392, -0.088055, 0.083060, 0.129444, -0.120930, 0.021103, -0.069308, -0.084707, -0.079606, 0.043315, -0.088225, 0.115752, -0.127037, 0.038381, -0.074685, 0.105215, 0.113078, -0.096933, 0.045485, -0.022861, -0.035978, 0.090329, -0.134448, 0.032450, 0.117483, 0.163612, -0.037483, -0.144909, -0.183557, 0.015069, 0.023949, 0.061263, 0.046578, 0.086715, 0.219132, -0.015341, 0.115023, -0.205854, -0.149717, 0.086371, 0.068744, 0.184378, -0.028721, 0.110097, -0.038398, 0.023300, 0.021041, -0.066989, -0.013169, 0.033143, 0.128350, 0.072418, 0.136313, -0.079002, 0.014908, 0.021961, -0.298628, 0.224389, 0.015622},
  {-0.196190, -0.239873, -0.126426, -0.016497, 0.161808, -0.021003, -0.015880, 0.079865, 0.261289, -0.165275, -0.083300, -0.317178, -0.279672, 0.152815, -0.018947, -0.052213, 0.064487, -0.140087, -0.125222, -0.188774, -0.254119, -0.232184, 0.023657, 0.103176, 0.136586, -0.018593, 0.111105, 0.132711, -0.231198, -0.061878, 0.014088, 0.065858, 0.107296, 0.044823, -0.074479, -0.011504, 0.033416, -0.173529, -0.030579, 0.067161, -0.216338, -0.058394, 0.104122, -0.301133, 0.035067, 0.016684, 0.068312, 0.107797, 0.119729, -0.090270, 0.010995, -0.144565, -0.089927, -0.206351, -0.000445, -0.023054, 0.045728, -0.016220, 0.176573, -0.052943, 0.020133, -0.048252, -0.205707, 0.009722, -0.235961, -0.036230, 0.089185, 0.069860, 0.027044, -0.092199, -0.229323, 0.066926, -0.066860, 0.000108, 0.107404, -0.156066, 0.154216, -0.340632, -0.116301, -0.060173, 0.236807, 0.006139, -0.122986, -0.186349, -0.134955, -0.053741, -0.440664, -0.046619, 0.008733, 0.060888, 0.109658, -0.178587, 0.101797, 0.086139, 0.189281, -0.228523, -0.037202, 0.070062, 0.020070, -0.000657, 0.018049, -0.267772, 0.128036, 0.064835, -0.242568, -0.193752, 0.107810, -0.108516, 0.022177, -0.000955, -0.100752, -0.183112, -0.050185, 0.063258, -0.000490, -0.001006, 0.118669, -0.165752, -0.118286, -0.097392, -0.101482, -0.051014, 0.322476, 0.194313, -0.127997, -0.159326, 0.014460, -0.083218},
  {-0.023637, -0.054665, -0.067223, -0.071859, 0.208697, 0.133056, -0.000802, -0.015969, 0.345664, -0.211540, -0.122531, -0.320517, 0.127988, 0.273795, 0.020084, 0.074245, 0.022654, -0.001831, -0.023633, -0.029282, 0.040531, 0.100918, 0.165287, -0.323372, -0.054483, 0.132101, -0.094786, 0.187668, 0.273258, -0.000453, 0.030880, 0.104715, 0.320642, 0.113931, 0.050370, 0.112056, 0.197768, -0.291449, 0.113207, -0.087307, 0.064129, 0.230360, -0.022390, -0.154245, -0.010222, -0.262902, 0.045534, 0.137941, -0.146729, 0.073186, 0.004509, 0.292612, 0.129601, 0.124437, 0.047185, -0.079202, -0.058722, 0.140061, -0.004736, 0.142348, 0.027208, -0.038622, -0.142963, -0.053126, -0.429256, 0.209341, -0.306401, -0.136397, -0.033533, -0.015988, 0.146799, 0.046216, 0.148545, -0.088269, 0.174757, 0.142162, -0.082554, -0.012152, 0.009943, 0.026093, 0.242345, 0.057381, 0.088930, -0.413176, -0.116409, 0.047751, 0.057742, 0.154647, 0.020358, 0.178926, -0.171353, 0.073555, 0.255455, 0.100467, 0.032046, -0.042502, 0.059715, -0.064189, -0.016480, -0.000647, 0.066544, -0.090635, 0.075377, -0.161257, -0.151477, -0.218114, 0.291885, 0.185831, -0.100738, 0.120135, -0.051479, -0.050639, -0.056537, 0.148242, -0.055783, -0.034064, 0.137347, 0.081952, 0.109809, -0.146038, 0.117701, 0.010040, -0.158016, 0.108284, 0.083612, -0.314584, -0.106717, 0.015530},
  {-0.041796, 0.018566, -0.144604, -0.027630, 0.200872, -0.044491, 0.204134, -0.013922, 0.091029, -0.141420, 0.032939, -0.118517, 0.458762, 0.131777, -0.015524, 0.026201, -0.029268, 0.069903, -0.115418, -0.056461, 0.026776, -0.027488, 0.177830, -0.130979, 0.116453, 0.076692, 0.395375, 0.103748, -0.063296, -0.005848, 0.013507, -0.006772, 0.050771, 0.116381, 0.011304, 0.069705, 0.030550, -0.268982, 0.119951, -0.031161, -0.043794, 0.033956, 0.044515, -0.123066, 0.126660, -0.021323, -0.152998, -0.007476, -0.155646, 0.026740, 0.068697, -0.034728, 0.017957, 0.020498, -0.084961, 0.044504, -0.014741, -0.020842, 0.208955, 0.151892, 0.130563, -0.236102, -0.127850, 0.090816, -0.260886, -0.058918, -0.017733, -0.056762, 0.030115, -0.122756, 0.156378, 0.041935, -0.036429, 0.200462, 0.056467, 0.084029, 0.338705, 0.060357, 0.072691, 0.082335, 0.192369, 0.064736, 0.018701, 0.149978, -0.081946, 0.065016, 0.014746, 0.289891, 0.134851, 0.136905, -0.363132, 0.109751, 0.152755, 0.044362, 0.100688, -0.097105, 0.058227, 0.254778, -0.053026, 0.138227, -0.018019, -0.058264, -0.115268, 0.016412, -0.113091, -0.112354, 0.079271, 0.233823, 0.049552, 0.040851, 0.030612, 0.239883, 0.004551, 0.134416, -0.063153, -0.019649, 0.065363, 0.093389, -0.077214, 0.017076, -0.132959, 0.087910, 0.200536, 0.135365, -0.083687, 0.177223, -0.033856, -0.036241},
  {0.038825, 0.146886, 0.104228, -0.053234, 0.046416, 0.050634, -0.200094, -0.023127, -0.090718, 0.048357, -0.075494, -0.020136, -0.143584, 0.167418, 0.026511, 0.088647, 0.008039, -0.015383, 0.015844, -0.014609, 0.006292, 0.020234, -0.142496, -0.396043, -0.000439, 0.077819, -0.222365, -0.201631, 0.183364, 0.000289, 0.024369, 0.160066, 0.273315, -0.007806, 0.136185, 0.035299, 0.102731, -0.077038, 0.001390, 0.118065, 0.134527, 0.064629, -0.146250, -0.137678, -0.050981, 0.052673, -0.039780, 0.015001, 0.001086, 0.185986, 0.260766, 0.076977, 0.036547, 0.136722, -0.019858, -0.042616, -0.051183, 0.012062, -0.285310, 0.135146, 0.127200, -0.138019, -0.169557, -0.035859, -0.128847, 0.016817, 0.226815, -0.131135, 0.026374, 0.057652, -0.016890, 0.077106, 0.092759, -0.017697, 0.001512, 0.010323, -0.233273, -0.069244, -0.069118, 0.211914, -0.267214, 0.024053, -0.004042, -0.130595, 0.012822, -0.011592, 0.119901, -0.072892, -0.022123, 0.037699, -0.037521, 0.170048, -0.038162, -0.153319, -0.169490, 0.162101, -0.041774, -0.261632, -0.100920, 0.070182, -0.041188, 0.137512, -0.019015, 0.036571, 0.004159, 0.183812, -0.081563, -0.092060, -0.002587, 0.021894, -0.108454, -0.289461, 0.080760, 0.104598, 0.105403, 0.098289, -0.004650, -0.016092, 0.155970, -0.151715, 0.162514, -0.281858, -0.272657, -0.025305, 0.045416, 0.260965, -0.212910, 0.111778},
  {0.178541, 0.010190, 0.092303, 0.074022, -0.143603, 0.055609, 0.224092, 0.110814, -0.146933, 0.163831, -0.032148, -0.111179, -0.178961, -0.096914, 0.113963, 0.058163, -0.012230, 0.078665, 0.164764, 0.077106, -0.039545, 0.264917, 0.062771, 0.004898, 0.028704, 0.207859, -0.166835, 0.060743, -0.221767, 0.112664, 0.102729, 0.037113, -0.039853, 0.127966, 0.168362, 0.022946, -0.150943, 0.082185, -0.144612, 0.028241, -0.085233, -0.131902, -0.094150, -0.038472, 0.082444, -0.138937, 0.054753, -0.201731, 0.050651, 0.123573, 0.001964, -0.163718, 0.070308, 0.086598, 0.057893, -0.010377, -0.035666, 0.042702, -0.061271, 0.172890, -0.216415, 0.168417, -0.031892, -0.176269, -0.110520, 0.048450, 0.200366, 0.132006, 0.188107, 0.041170, -0.095018, 0.069376, -0.047477, -0.073284, 0.121953, -0.122981, 0.268398, 0.087913, -0.057470, 0.162718, -0.028574, 0.147005, -0.030625, -0.231587, -0.130705, -0.082266, -0.138564, -0.196113, -0.124636, -0.240805, -0.025997, -0.172117, -0.224896, -0.281243, 0.138842, 0.109884, -0.076618, -0.182058, 0.036657, -0.132063, 0.161963, 0.159476, 0.177046, 0.140684, 0.115973, -0.150366, 0.029120, -0.291439, -0.030057, 0.150448, -0.191302, -0.277001, -0.034644, -0.019593, 0.084769, 0.158118, 0.116165, 0.136594, 0.034622, -0.138643, 0.016159, -0.039172, -0.230923, -0.027571, -0.074839, -0.009837, -0.032696, 0.037892},
  {0.054100, -0.025210, -0.088312, -0.071066, 0.079783, 0.039125, -0.073184, 0.131422, 0.359494, -0.059691, 0.078552, 0.016917, -0.203396, 0.056146, -0.038572, -0.048588, 0.063148, 0.093565, 0.022049, -0.058082, 0.036399, -0.063694, 0.150487, -0.145428, -0.108079, 0.037902, -0.040033, 0.101306, 0.163433, 0.048927, 0.036345, 0.255947, 0.070988, 0.149282, -0.029530, -0.009235, 0.004018, -0.062698, -0.073707, 0.157011, 0.271826, 0.112749, -0.099058, -0.086857, -0.145806, -0.196104, 0.013808, 0.040896, -0.056914, 0.059252, 0.174901, 0.012275, 0.095861, 0.096023, 0.094865, 0.070955, -0.021718, 0.120663, 0.116956, 0.001676, 0.196522, 0.227566, -0.064777, -0.139676, -0.061139, 0.032779, -0.057692, -0.170108, 0.021828, -0.110966, -0.145702, 0.190363, 0.010221, -0.089080, 0.321028, 0.210244, -0.092757, -0.295463, -0.077396, 0.116192, -0.219812, 0.087277, 0.100821, -0.107326, 0.074120, -0.035108, 0.206219, -0.042681, 0.012742, 0.102015, 0.038105, 0.080674, 0.143455, 0.061650, 0.052202, -0.025885, -0.019822, -0.089498, 0.070116, 0.087231, -0.048673, -0.022127, -0.034616, -0.016362, -0.155911, 0.267539, 0.060794, -0.068910, -0.131422, 0.136342, 0.089003, -0.218087, -0.106329, 0.141743, -0.007408, -0.027224, -0.042262, -0.045063, -0.032154, -0.212704, 0.027600, -0.034129, 0.147450, 0.053226, 0.006986, 0.049082, 0.019649, 0.025977},
  {0.072081, 0.038429, 0.034035, 0.046822, 0.079765, 0.056360, 0.324162, -0.042633, 0.006170, -0.072348, 0.000567, 0.044937, 0.501035, 0.174221, -0.026546, 0.016890, -0.029790, -0.015530, 0.077168, -0.020436, -0.053660, 0.026565, 0.031384, 0.192778, 0.125554, 0.175228, 0.292786, 0.205017, 0.172335, 0.054251, 0.052190, 0.053163, -0.042079, 0.011590, 0.130724, 0.041400, 0.217232, -0.161723, -0.008319, -0.045170, -0.168169, 0.101056, -0.075135, -0.127840, 0.304053, 0.017450, -0.043477, 0.181450, -0.063695, 0.058399, -0.169910, 0.239024, 0.054263, -0.067025, 0.067504, 0.059266, -0.047255, -0.010616, 0.036784, -0.064502, 0.024440, -0.275056, 0.074030, -0.055498, 0.165465, 0.009712, -0.466090, -0.104525, 0.168041, -0.051333, 0.075524, 0.042341, 0.027123, 0.064038, -0.148384, 0.139355, 0.229501, 0.314855, -0.014897, -0.169296, 0.458408, 0.067604, 0.076947, -0.140009, -0.115528, 0.000145, -0.032953, 0.047716, 0.102978, 0.170386, -0.148273, 0.089438, 0.094927, -0.013022, 0.020091, -0.118512, 0.152130, 0.227531, 0.074777, -0.049600, 0.096827, -0.091875, 0.037934, -0.090464, -0.152006, -0.257472, 0.233892, 0.283041, -0.109519, -0.090781, -0.122357, 0.168449, -0.010600, 0.020290, -0.063509, -0.080320, 0.056968, 0.162263, 0.048667, 0.080732, -0.093162, 0.242293, 0.145616, -0.044114, -0.028490, -0.070964, 0.184220, -0.107602},
  {0.254522, 0.044294, 0.076674, -0.044489, 0.038560, 0.182867, -0.114105, 0.158161, -0.202649, 0.158941, 0.000229, -0.022045, 0.043881, -0.010843, -0.024621, 0.023127, -0.062077, 0.046899, 0.105816, -0.019969, -0.033972, -0.065715, 0.012630, 0.117807, 0.030823, 0.192925, -0.068709, 0.069516, 0.203192, 0.022985, 0.055507, 0.170607, -0.166893, 0.055674, 0.146106, -0.038923, -0.067166, 0.124334, -0.088212, 0.056913, 0.199500, -0.062379, -0.074681, 0.271467, -0.263749, 0.059180, -0.010886, -0.036238, -0.017865, -0.070678, 0.001750, 0.359272, 0.170317, -0.044913, 0.046012, -0.056489, 0.025775, 0.068609, -0.057156, -0.315204, -0.114659, 0.251025, 0.155258, -0.064940, 0.197981, 0.030234, 0.105546, 0.059319, 0.071982, 0.005501, 0.001715, -0.221948, -0.152496, -0.183427, -0.063892, 0.031436, 0.234832, 0.037166, -0.132444, 0.088943, -0.119451, 0.050627, -0.005817, 0.039697, 0.104162, 0.005880, 0.070101, -0.314406, -0.108958, -0.075170, 0.047309, 0.039038, -0.094957, 0.025453, 0.132203, 0.141430, 0.062150, -0.034449, 0.115459, 0.120950, -0.074929, 0.086499, 0.147516, 0.026158, -0.051429, -0.024882, -0.028074, -0.241803, 0.130519, 0.103530, 0.037095, -0.063233, -0.006928, -0.029942, 0.078052, 0.101718, -0.029705, 0.113317, 0.101161, 0.005788, -0.012370, -0.077964, 0.002364, 0.116642, -0.077779, 0.068045, -0.075736, 0.005444},
  {-0.153859, 0.112158, 0.044829, 0.138920, -0.050444, -0.166972, 0.114932, 0.058363, 0.200589, -0.210356, -0.024825, -0.241915, 0.040609, 0.046245, -0.015051, -0.059613, 0.008350, -0.082080, -0.007597, 0.118425, -0.006012, 0.090448, 0.079134, 0.150849, 0.185963, -0.111184, 0.054222, -0.053469, -0.092840, 0.017892, 0.059345, -0.055074, 0.128475, 0.032187, -0.137794, 0.005703, -0.159759, 0.137645, 0.002214, -0.018564, 0.032029, 0.032261, 0.197339, -0.158663, 0.126692, -0.235669, 0.157576, -0.121912, 0.139467, -0.024132, 0.311374, -0.399654, -0.015290, -0.069922, 0.050027, -0.020238, 0.094070, -0.072915, 0.095735, 0.144220, 0.091076, 0.036236, -0.119781, 0.077772, -0.541217, -0.150797, 0.169523, 0.124761, -0.181116, -0.174757, 0.136226, 0.229695, 0.076072, 0.027446, 0.177013, 0.197474, -0.210399, -0.078332, 0.078312, -0.181459, 0.044179, -0.022190, -0.160576, -0.024540, 0.031305, 0.095263, -0.013034, 0.143527, 0.028437, 0.067993, 0.262276, 0.001532, 0.097679, 0.195123, 0.077666, -0.279378, -0.187799, 0.017529, 0.090447, 0.082335, 0.086370, 0.043384, 0.013399, 0.128997, -0.120611, 0.267228, -0.058421, 0.052288, -0.153504, -0.008926, 0.224571, 0.002393, 0.126974, 0.165633, -0.045681, -0.060368, -0.159631, -0.195812, 0.118176, 0.080881, 0.004073, 0.044522, 0.282879, 0.118858, 0.036734, 0.036948, 0.112928, -0.047571},
  {0.022600, 0.158033, 0.123724, 0.152990, -0.181995, -0.133969, 0.193234, -0.095668, 0.024531, 0.094705, 0.006877, -0.187011, -0.113410, -0.062292, 0.048651, 0.045400, 0.040617, 0.046295, 0.066858, 0.170576, 0.057374, 0.134940, 0.060504, 0.174041, 0.147764, -0.001945, -0.162562, -0.108524, -0.274231, -0.058998, 0.028801, 0.064446, 0.180533, 0.151877, 0.040602, 0.089011, -0.269425, 0.268035, -0.064352, 0.117488, -0.031521, -0.104156, 0.047893, -0.069716, 0.153813, -0.040244, -0.044407, -0.298047, 0.079651, -0.042594, 0.357159, -0.373580, -0.077372, 0.101880, -0.077936, -0.020702, 0.102118, -0.113285, 0.110706, 0.240154, 0.042984, 0.038203, -0.022172, -0.001416, -0.480698, -0.179710, 0.306613, 0.057390, -0.131826, 0.167898, -0.017227, 0.182778, 0.018356, 0.188035, 0.205352, 0.009050, 0.049000, 0.024213, 0.168753, 0.029820, 0.027175, -0.023589, -0.147859, -0.143743, -0.152744, 0.016677, 0.008380, -0.038471, -0.087170, -0.019236, 0.131808, -0.098138, -0.083801, 0.078534, 0.184457, 0.030799, -0.136299, -0.247758, -0.010584, -0.241289, 0.069244, 0.140334, 0.053083, 0.235802, 0.238128, 0.184090, -0.154863, -0.080489, -0.126247, 0.010788, -0.011493, -0.145698, 0.059678, -0.024150, 0.093298, 0.020361, 0.024745, -0.010637, 0.101006, 0.025851, 0.100803, -0.056079, -0.080478, -0.031800, -0.061691, 0.198753, 0.004829, 0.092056},
  {0.235911, 0.107560, -0.044382, -0.066116, -0.137925, 0.099482, -0.234248, 0.136971, 0.068604, -0.090723, 0.072904, 0.026007, -0.282485, 0.004323, -0.010858, -0.014525, -0.053566, 0.037171, -0.027782, 0.060938, -0.008994, -0.037548, 0.119405, -0.159203, -0.005586, 0.102684, -0.204594, -0.044217, 0.137629, 0.047914, 0.063941, 0.058804, 0.202383, 0.143220, 0.091660, 0.034407, -0.002694, 0.126841, 0.024552, 0.221411, 0.024530, -0.004579, -0.130744, -0.089214, -0.196199, -0.236327, 0.196319, -0.073694, 0.064744, 0.067128, 0.160633, -0.029757, 0.003522, 0.118853, 0.119403, 0.050706, 0.044210, -0.033210, -0.109809, 0.168849, 0.120901, 0.198516, -0.137687, -0.047388, -0.204635, 0.017721, 0.023798, 0.047271, 0.094057, -0.040918, -0.235172, 0.112216, 0.104473, -0.166331, 0.398009, 0.056391, -0.160809, -0.219096, -0.117644, 0.187056, -0.140783, 0.065689, 0.142279, -0.269800, -0.022062, -0.000480, 0.011949, -0.116852, -0.052823, -0.117290, 0.043194, -0.079198, -0.049118, -0.112687, 0.100317, 0.036184, -0.106158, -0.191840, 0.043943, 0.050823, 0.098277, 0.043544, -0.052484, 0.169362, 0.087179, 0.080199, 0.020085, -0.195131, -0.119926, 0.111412, 0.039494, -0.282787, 0.070044, 0.142187, 0.044516, 0.113571, 0.004256, 0.046109, 0.101496, -0.197205, 0.173109, -0.192331, 0.000498, 0.083253, -0.063990, -0.204812, -0.017069, 0.146471},
  {-0.083097, 0.042187, 0.106426, 0.134811, 0.076876, 0.122124, 0.097076, -0.173879, -0.101757, 0.037319, -0.305031, -0.393500, 0.306131, 0.088670, 0.113815, -0.055438, -0.075759, 0.101540, 0.093350, 0.099974, 0.072527, 0.194796, 0.036046, 0.176648, 0.275027, 0.118867, -0.149075, 0.036877, 0.019639, 0.076900, -0.077485, -0.143006, -0.053884, -0.144105, 0.077668, -0.029037, 0.036255, 0.013574, -0.055411, 0.021527, -0.154871, -0.019947, 0.115801, 0.192801, 0.146330, 0.102098, 0.038277, 0.114177, -0.066532, 0.043273, 0.111500, 0.248629, 0.027103, -0.012594, -0.093398, -0.044832, 0.121579, -0.003606, -0.148352, -0.149365, -0.018705, -0.061975, 0.153251, 0.016078, -0.194186, -0.093938, -0.098056, -0.009324, -0.077129, 0.023801, 0.425608, -0.209882, 0.006641, 0.004775, -0.305387, -0.076578, -0.021439, 0.466525, 0.148469, -0.267473, 0.187915, -0.171746, -0.044158, 0.145992, -0.065360, 0.067091, -0.190348, 0.067586, 0.222815, 0.119687, -0.090145, 0.074225, 0.123859, 0.011652, 0.109282, -0.026280, 0.153653, -0.059845, -0.187657, -0.259046, 0.010972, -0.005026, 0.005656, 0.020649, 0.110485, -0.160069, -0.026025, 0.102720, 0.112103, 0.127209, -0.225746, 0.264885, 0.124777, -0.145018, 0.188549, 0.112798, 0.179386, 0.062810, 0.026068, 0.024232, 0.029455, -0.078389, -0.044067, -0.023615, 0.062073, 0.102642, 0.048492, 0.074293},
  {-0.084376, 0.140038, 0.056474, -0.013000, 0.074646, 0.128598, -0.353832, 0.042681, 0.273799, -0.061499, -0.008312, 0.061598, -0.287572, 0.306618, -0.000667, -0.042978, 0.010627, 0.079636, 0.079031, -0.082738, 0.162501, -0.088185, -0.221258, -0.287635, -0.220045, 0.050227, -0.214139, -0.087120, -0.039216, 0.022166, -0.049884, 0.000998, 0.320514, -0.231480, 0.021206, 0.093298, 0.094747, -0.099524, 0.104327, -0.051385, -0.078808, 0.255650, 0.131662, -0.088026, -0.135955, -0.062888, 0.023001, 0.265170, -0.105219, 0.130298, -0.120185, 0.083950, 0.061628, 0.032861, 0.012694, -0.023887, -0.025992, 0.054078, -0.170885, 0.042327, 0.105507, -0.213738, -0.273413, 0.065719, 0.045491, 0.143415, -0.263774, -0.105365, -0.008495, 0.055235, -0.153469, -0.123365, 0.088414, -0.142892, -0.086740, -0.045845, -0.412596, -0.153182, 0.044908, -0.014458, -0.074701, -0.083505, 0.092531, -0.224715, 0.062663, 0.087103, 0.004884, 0.027180, 0.087694, 0.229425, 0.130549, 0.107843, 0.261149, 0.190823, -0.187288, -0.008000, 0.043987, 0.004322, 0.006268, 0.091127, 0.127563, 0.042033, 0.027158, -0.047663, -0.035201, 0.019317, 0.172590, -0.099883, 0.084413, -0.023869, 0.022908, -0.009112, 0.204459, 0.049716, 0.082045, -0.030116, 0.135820, -0.072678, 0.083480, 0.118434, -0.041865, -0.029026, -0.182308, 0.112802, 0.020490, -0.425440, 0.036408, 0.040394},
  {-0.046246, -0.028080, 0.046055, -0.064502, -0.125357, 0.147299, -0.043183, -0.094746, -0.024757, 0.180534, -0.043145, 0.171368, 0.069919, 0.121634, 0.114841, -0.036164, -0.000412, 0.022416, 0.099902, 0.158985, 0.132343, 0.033031, -0.201871, 0.101477, -0.064380, 0.081997, -0.266470, -0.132899, 0.109428, 0.055106, 0.024565, 0.011188, -0.044423, -0.181842, 0.047641, 0.109458, 0.085250, 0.041348, 0.029140, 0.011787, 0.001465, 0.136749, 0.016759, 0.167275, 0.000879, -0.071727, 0.067122, 0.231329, -0.034717, -0.034450, -0.147519, 0.282562, -0.022855, 0.033800, 0.107019, -0.087169, -0.077183, -0.004511, -0.084571, -0.094918, -0.075409, 0.052211, 0.001012, -0.074146, 0.417391, 0.059169, -0.299017, 0.000881, 0.176303, 0.120335, -0.048850, -0.083688, 0.100404, -0.112933, -0.239068, -0.035539, -0.382838, 0.071199, 0.032071, -0.147596, -0.003967, 0.018831, -0.004055, 0.037861, 0.031201, 0.073825, -0.116174, -0.066794, -0.029690, 0.053758, 0.218749, -0.050292, 0.052544, 0.021691, -0.191590, 0.096069, -0.036987, -0.017132, 0.006543, -0.114140, 0.063111, 0.028752, 0.158020, -0.107524, 0.060666, -0.052011, -0.030186, -0.019964, -0.016742, 0.116626, -0.001710, -0.004783, 0.116324, -0.071127, 0.115010, 0.153631, 0.026949, 0.020697, 0.086168, 0.215198, 0.036281, 0.042921, -0.051506, -0.025065, 0.119609, -0.078784, 0.111215, 0.157847},
  {0.060004, 0.054748, 0.043834, 0.094966, 0.037056, 0.184227, 0.198489, -0.081211, 0.005971, 0.112932, -0.062149, -0.051730, 0.292830, 0.191094, 0.138700, -0.014680, -0.016635, 0.110302, 0.122509, -0.000793, -0.038654, 0.159259, -0.004846, 0.101273, 0.112394, 0.182095, 0.044628, 0.052105, 0.161375, 0.063145, 0.100366, -0.067536, -0.029034, -0.165173, 0.205817, 0.107055, 0.141554, -0.049157, -0.068667, -0.178622, -0.151863, 0.197339, -0.022308, -0.088697, 0.195354, -0.096011, 0.090131, 0.167024, -0.113472, 0.144325, -0.069810, 0.395161, 0.057779, -0.089779, 0.052487, 0.013285, -0.028441, 0.063176, -0.081547, -0.072130, -0.120113, -0.252651, 0.104416, 0.048469, 0.241374, 0.088187, -0.318789, -0.067547, 0.162921, -0.103659, 0.096484, -0.128764, 0.143293, -0.086677, -0.209869, 0.046090, 0.114914, 0.259613, -0.091708, -0.271938, 0.311832, -0.003389, -0.003896, -0.251304, -0.131746, 0.022881, -0.097864, 0.046438, 0.059693, 0.122763, -0.000029, 0.166738, 0.102599, -0.057097, -0.047205, -0.128114, 0.148437, 0.237418, 0.113486, -0.161159, 0.069729, -0.027279, 0.034702, -0.030807, -0.002950, -0.316574, 0.207709, 0.165769, -0.099147, 0.086440, -0.322046, 0.021692, -0.080951, 0.106133, 0.039947, 0.082873, 0.015177, 0.138905, 0.026367, 0.042800, 0.104250, 0.197221, -0.145351, -0.131596, 0.126996, -0.112220, -0.008038, -0.004472},
  {0.002008, -0.022131, -0.140792, -0.026171, 0.251056, 0.013480, 0.329154, -0.030460, 0.176581, -0.215704, -0.059406, 0.116293, 0.214502, 0.040385, -0.012837, -0.007490, 0.057836, 0.066870, 0.010190, -0.178850, 0.065455, -0.101822, 0.067093, -0.114470, 0.165202, 0.110488, 0.381412, 0.068586, 0.132414, 0.044225, 0.060964, 0.072843, -0.026555, 0.136613, 0.111477, 0.051057, 0.147099, -0.312072, 0.133601, 0.024409, 0.032642, 0.154389, 0.068402, -0.184196, 0.207163, -0.080973, -0.041154, -0.004308, -0.052479, 0.134327, -0.199538, -0.009353, -0.011190, -0.035729, -0.025023, 0.048940, -0.010173, 0.063056, 0.189923, 0.090978, 0.192936, -0.188777, -0.075760, 0.104562, -0.116529, 0.129156, -0.305604, -0.067133, -0.005919, -0.161064, 0.005274, 0.172210, 0.049570, 0.227485, 0.044558, 0.170127, 0.228609, 0.132393, -0.036936, 0.061748, 0.175790, 0.085283, 0.061737, 0.093648, 0.048437, 0.020799, 0.032582, 0.206361, 0.102095, 0.124441, -0.173296, 0.058792, 0.076242, 0.053130, -0.002752, -0.115437, 0.134510, 0.210639, 0.160004, 0.040110, 0.016414, 0.000226, -0.074536, -0.106926, -0.233722, -0.048569, 0.081095, 0.193822, 0.119105, -0.102182, -0.215649, 0.106428, -0.128016, 0.068201, -0.142661, -0.071109, -0.088123, 0.092834, 0.088793, 0.074935, -0.026404, 0.284083, 0.218880, 0.031641, -0.060820, -0.124596, 0.082446, -0.153729},
  {0.098202, -0.052913, -0.051174, 0.117075, 0.073890, -0.062692, 0.122640, 0.105645, -0.014575, -0.040489, -0.044456, -0.015357, -0.276762, -0.157043, -0.000909, 0.048221, 0.064698, 0.136362, 0.037383, 0.112301, -0.028230, 0.166297, 0.045900, -0.114765, -0.047230, -0.050332, -0.159348, -0.039215, -0.290051, 0.079287, 0.061109, -0.078769, 0.059318, 0.067457, -0.052635, 0.088564, -0.120578, 0.168820, 0.133671, 0.230771, 0.148705, -0.180709, 0.122654, 0.165616, -0.114576, -0.083191, -0.013365, -0.178918, 0.153183, 0.045455, 0.018908, -0.291816, -0.011934, -0.036983, 0.006258, -0.002634, -0.035712, 0.028434, -0.009725, 0.002823, 0.015925, 0.395724, 0.006573, -0.070681, -0.301633, 0.095160, 0.423844, -0.022922, -0.040893, 0.199969, 0.033938, -0.072197, 0.114008, 0.015369, -0.023955, -0.101837, -0.050854, -0.119566, 0.083024, 0.112532, -0.286173, -0.042277, 0.069305, 0.193223, 0.188248, 0.101000, 0.021062, -0.040797, -0.135208, -0.167912, 0.032297, -0.243598, -0.197590, 0.097547, 0.320434, 0.022786, -0.079877, -0.235099, -0.132923, 0.069959, -0.034326, 0.049927, 0.012729, 0.128533, 0.017546, 0.052065, -0.400837, -0.265263, 0.190775, 0.138633, 0.304407, 0.039326, -0.062195, -0.121594, 0.125750, 0.104715, 0.003775, -0.043088, 0.019973, -0.076826, -0.025709, -0.016276, -0.157323, 0.010135, 0.144707, 0.133192, 0.116421, -0.075878},
  {0.186510, -0.070882, 0.016364, 0.005314, 0.166201, 0.002254, 0.177665, 0.075135, -0.152739, 0.107914, -0.119175, -0.184480, -0.053331, -0.124364, -0.053219, -0.053183, -0.018247, 0.088028, 0.003573, -0.099771, -0.082333, 0.179744, 0.038460, 0.021938, 0.169321, 0.035696, -0.003695, 0.057510, -0.033594, 0.130612, 0.096692, 0.196949, 0.038546, 0.081026, -0.013126, 0.094803, 0.001291, -0.058498, -0.036590, 0.240163, -0.097181, -0.028997, -0.159603, 0.063711, -0.111016, -0.086137, 0.034881, -0.063102, 0.120940, 0.018514, 0.084564, -0.169253, 0.157028, 0.078893, -0.004368, 0.059180, 0.016771, 0.069022, -0.058313, 0.092442, -0.047082, 0.142925, 0.021356, -0.076770, -0.152700, 0.130735, 0.297615, 0.058925, 0.041762, 0.083722, -0.155659, -0.001181, -0.001951, 0.090407, 0.015628, -0.057203, 0.364654, -0.040641, 0.090567, 0.300528, -0.074190, 0.018142, 0.108426, -0.084672, -0.033279, 0.061058, -0.086399, -0.121385, -0.007191, -0.096230, -0.269511, 0.048990, -0.010300, -0.191829, 0.228906, 0.025145, -0.055526, -0.209413, -0.077058, -0.007912, 0.113151, -0.011897, 0.024141, 0.023718, -0.028062, -0.037537, -0.062126, -0.207597, 0.099518, 0.030518, -0.051690, -0.180573, -0.039625, -0.143729, -0.029680, -0.036840, 0.041644, 0.093451, -0.024764, -0.257682, -0.094034, -0.056192, -0.067719, 0.017659, -0.064842, 0.306182, -0.001373, 0.072906},
  {-0.073604, 0.079880, 0.075979, 0.083070, -0.054302, -0.007339, -0.102332, 0.091642, -0.188038, 0.192845, 0.107610, 0.449879, -0.333939, 0.014283, 0.074312, 0.036711, 0.026091, -0.018478, 0.051843, -0.063618, -0.006999, -0.198181, -0.207751, 0.162137, -0.231268, 0.025354, -0.046266, -0.046651, 0.089418, 0.159133, 0.108909, -0.047161, -0.140696, -0.139121, -0.037129, 0.129856, 0.064548, 0.059941, 0.135852, -0.104304, 0.040017, 0.098836, 0.128111, 0.254850, -0.190946, 0.232022, 0.091870, 0.160361, 0.058140, 0.029377, -0.382722, 0.127048, -0.047272, 0.071808, 0.025502, -0.044276, 0.104757, 0.098569, 0.068184, -0.346693, -0.125030, -0.142338, 0.035116, 0.203781, 0.573541, 0.171900, -0.099763, 0.068160, -0.003511, 0.139854, -0.136984, -0.097691, 0.048906, -0.094532, -0.191596, -0.140345, -0.095136, -0.026765, -0.075379, 0.066348, -0.040344, 0.050220, -0.050522, 0.242259, 0.269170, 0.084697, -0.045843, -0.323300, -0.036717, -0.089955, 0.259730, -0.002781, 0.081239, 0.084412, -0.102634, 0.214882, -0.079547, 0.143900, 0.092713, 0.209842, -0.014973, 0.047392, 0.141825, -0.058912, -0.100946, -0.036879, 0.027296, 0.020170, 0.173442, -0.038998, 0.238536, 0.013827, 0.193547, -0.007196, -0.015943, 0.123500, -0.061945, 0.124653, 0.027453, 0.214286, 0.005657, -0.049666, 0.152173, 0.005402, -0.017692, -0.035333, 0.179055, 0.067107},
  {0.199628, 0.050294, 0.032873, -0.065086, 0.063988, 0.022324, 0.118025, 0.091936, -0.130322, -0.003794, -0.079836, -0.341439, 0.066464, -0.000748, 0.081105, 0.045814, -0.077640, 0.132936, -0.015831, 0.061011, 0.042934, 0.227806, 0.083295, -0.152693, 0.058364, 0.025400, -0.124265, 0.102110, 0.090523, 0.105134, 0.081366, -0.023008, 0.062730, 0.147598, 0.074243, 0.111255, 0.103534, -0.188355, -0.179797, 0.157430, 0.031036, 0.017930, -0.069595, -0.057584, 0.110770, -0.153095, -0.003513, -0.090799, -0.056705, 0.138157, 0.185254, 0.124881, 0.146319, 0.047098, 0.011413, -0.089119, -0.028487, 0.084769, -0.118597, 0.072404, 0.064343, 0.068776, 0.062020, -0.176452, -0.396180, 0.076632, 0.061149, -0.089142, 0.122295, 0.063347, -0.009819, -0.082440, -0.070733, 0.260503, -0.008717, -0.008400, 0.208641, -0.007305, -0.009911, 0.072813, 0.105785, 0.113019, 0.192061, -0.211903, -0.054406, 0.000076, 0.000781, -0.016511, 0.077645, -0.064319, -0.277816, -0.100433, 0.059498, -0.191296, 0.019433, 0.015638, 0.066985, -0.004074, 0.043845, 0.017765, -0.043695, 0.086579, 0.007767, -0.004697, -0.028196, -0.152441, 0.067042, 0.010961, 0.125660, 0.017460, -0.242925, -0.137052, -0.114535, -0.020609, -0.002986, 0.013758, -0.001943, 0.163473, 0.085070, -0.178335, 0.070883, 0.031124, -0.300425, 0.000194, 0.070362, -0.254842, -0.067560, 0.006855},
  {-0.066007, -0.001351, 0.074733, 0.004192, -0.007396, -0.151511, -0.122659, -0.091263, 0.034139, 0.033849, 0.096316, 0.025697, 0.184064, -0.041757, 0.041807, 0.046916, 0.026152, -0.042475, 0.062373, 0.157194, 0.056725, -0.116860, -0.070733, 0.188260, -0.042074, -0.157213, 0.127155, 0.084635, 0.030966, 0.005299, 0.020945, -0.019203, -0.157973, -0.118449, 0.038417, -0.076710, -0.068969, 0.167428, 0.008960, 0.040223, 0.008043, 0.140229, 0.084345, 0.122177, -0.161335, 0.217593, 0.072290, 0.190356, 0.113683, -0.107652, -0.007472, 0.159900, 0.003075, 0.040111, 0.067464, -0.015765, 0.097465, -0.027744, 0.109448, -0.154657, 0.095274, 0.122876, 0.108861, 0.113142, 0.270982, -0.075109, -0.062815, -0.055077, -0.032220, 0.096097, 0.228102, -0.001837, 0.017224, 0.071514, -0.149049, 0.038274, -0.015717, 0.068884, -0.011658, -0.123561, -0.096485, -0.039717, -0.092531, 0.361505, 0.107755, 0.125944, -0.013407, 0.118885, 0.073980, 0.165827, 0.203045, 0.093093, 0.079699, 0.167601, -0.100097, -0.150742, 0.011185, 0.191862, -0.057800, 0.043317, -0.044329, -0.118056, 0.050872, -0.137761, 0.072288, 0.060787, -0.019947, 0.124390, -0.050102, -0.050871, 0.297075, 0.248991, 0.096031, 0.162537, 0.137200, 0.021084, 0.056954, -0.059269, -0.004233, 0.227489, -0.063516, -0.022570, 0.202597, -0.012459, 0.182543, 0.087713, 0.085876, 0.023339},
  {-0.059973, 0.063192, 0.087403, 0.141219, 0.180191, 0.070652, -0.020941, -0.103720, -0.054573, -0.037016, -0.215376, -0.314643, 0.154753, 0.033755, -0.082432, -0.069195, 0.078471, 0.096104, 0.033442, -0.048549, -0.008980, -0.008964, 0.178947, 0.090991, 0.101426, 0.141243, 0.125714, 0.259949, -0.162058, 0.064933, -0.008767, -0.049631, 0.183194, -0.067844, 0.091157, 0.002119, -0.049828, -0.132413, 0.116018, -0.126135, 0.020695, 0.066803, 0.187853, 0.263931, -0.114592, 0.080086, -0.058889, 0.124097, 0.089121, -0.027917, -0.184698, 0.014601, 0.112935, 0.000761, -0.039135, 0.029523, 0.059719, 0.081444, 0.118790, -0.286374, -0.068212, 0.037089, 0.172418, 0.131458, -0.121772, -0.063238, 0.185056, 0.151773, -0.057371, 0.101142, 0.080222, -0.135662, 0.021855, -0.186465, -0.111651, -0.168046, 0.258817, 0.174025, 0.102821, -0.022386, 0.117234, -0.058671, 0.078640, 0.154124, 0.033937, 0.144012, -0.095237, 0.193683, 0.160218, 0.170654, -0.156413, 0.214713, 0.199837, 0.230642, 0.275537, -0.047063, 0.202443, 0.133010, -0.064138, 0.087336, 0.058673, -0.096625, 0.082236, 0.038136, 0.052196, -0.288308, 0.130687, -0.152926, 0.180741, 0.078185, -0.033519, 0.306647, 0.025482, -0.041130, 0.108687, 0.024866, 0.103368, 0.055847, 0.025272, -0.103238, -0.200026, -0.056064, 0.208413, 0.122070, 0.115785, 0.187245, 0.162401, 0.073197},
  {-0.134066, 0.100840, 0.031350, 0.116865, 0.000713, 0.152032, 0.160707, -0.104436, -0.156034, 0.064023, -0.109629, -0.059298, -0.148900, 0.095259, 0.049570, -0.004518, -0.026767, 0.131546, 0.115352, 0.122173, 0.111905, 0.079790, -0.134328, -0.294586, -0.073655, -0.087781, -0.115240, -0.118318, -0.214028, 0.104428, 0.059574, -0.341868, 0.118393, -0.216535, 0.151746, 0.098316, 0.128443, -0.225159, 0.069165, -0.078579, -0.148482, 0.054410, 0.111568, -0.001925, 0.168801, 0.042547, -0.145878, 0.012355, -0.086194, 0.041126, -0.185283, 0.006041, 0.083112, 0.067209, -0.075644, 0.016145, 0.056597, 0.127221, -0.112483, 0.100116, 0.004730, 0.106209, -0.136071, 0.026813, -0.067735, 0.119621, -0.024988, -0.088010, 0.074153, 0.150238, 0.057582, -0.155983, 0.095984, 0.213776, -0.294228, -0.165237, -0.164262, 0.183405, 0.087292, 0.055113, 0.015382, -0.152798, 0.084354, 0.070348, 0.031533, 0.053127, 0.066777, 0.039036, 0.025361, -0.042601, -0.082777, -0.092005, 0.043073, 0.032421, -0.081981, -0.003652, 0.085935, 0.037986, -0.174986, -0.216194, 0.115111, 0.119367, 0.016545, 0.039940, 0.075840, -0.137729, -0.119712, 0.097021, 0.250305, -0.071995, -0.171120, 0.009339, 0.000130, -0.386038, 0.008106, -0.050728, 0.093417, 0.099635, 0.018644, 0.139729, -0.021304, 0.112095, -0.283263, 0.065461, 0.114604, -0.382809, 0.037956, -0.042161},
  {-0.035585, -0.076154, 0.053886, 0.049232, 0.026099, -0.029137, 0.095107, -0.086158, -0.002702, 0.015889, -0.058724, -0.029486, -0.044350, 0.052385, 0.063077, 0.010642, 0.059917, 0.025682, 0.018384, 0.039300, -0.100327, -0.065110, 0.062655, -0.114638, -0.064407, -0.043989, 0.007082, 0.021821, 0.025493, 0.051302, -0.034572, 0.000530, 0.000731, 0.037509, -0.055885, -0.094828, 0.088676, 0.041246, 0.003967, 0.003641, -0.009508, 0.054306, -0.028566, -0.026124, -0.012890, -0.050639, -0.090257, 0.049917, -0.085561, -0.057350, -0.069995, -0.033298, -0.036216, -0.053653, -0.034243, 0.077079, 0.037636, 0.013289, -0.046018, 0.014436, 0.011483, -0.084868, -0.075096, -0.092159, 0.020965, 0.000688, -0.001754, 0.019454, -0.082558, -0.012562, 0.040448, 0.007110, -0.076960, -0.034448, -0.035558, 0.043927, 0.023003, -0.036115, 0.028778, 0.053190, -0.038044, -0.042608, -0.065539, -0.051310, -0.098926, -0.001076, -0.047989, -0.041942, 0.013128, -0.102901, 0.015091, 0.055937, -0.065199, -0.037907, -0.088742, -0.027151, -0.097229, 0.009110, -0.081705, 0.032091, -0.069374, -0.067858, -0.068250, -0.057744, -0.038325, 0.068030, -0.070881, -0.008844, -0.074776, -0.080724, 0.064012, 0.041581, 0.023592, 0.021213, -0.059289, -0.086564, -0.048864, 0.018470, -0.046062, -0.010177, 0.011523, -0.022368, 0.032102, 0.001468, -0.100795, 0.034187, -0.119234, 0.023254},
  {0.145249, 0.065907, 0.005046, 0.005166, -0.115296, 0.035114, 0.374346, 0.063396, -0.100671, -0.028595, 0.070505, -0.008329, 0.259442, -0.092643, -0.109334, -0.011489, -0.002382, 0.090753, -0.015124, 0.012113, -0.024174, 0.145809, 0.257990, 0.167085, 0.216732, -0.067369, 0.232116, -0.064921, 0.000947, -0.069882, 0.051184, 0.210627, -0.368260, 0.300317, 0.115353, 0.067928, -0.047388, 0.235280, -0.293549, 0.136563, -0.025501, -0.250410, -0.140782, -0.025684, 0.254197, 0.057965, -0.023695, -0.425813, -0.034162, 0.102368, 0.288341, -0.173443, 0.114846, 0.083322, 0.097322, -0.038264, 0.017527, -0.100752, 0.261908, 0.233556, -0.012561, 0.027442, 0.207401, 0.014988, -0.271923, 0.034406, 0.429861, -0.054547, 0.008897, -0.097848, 0.082625, 0.204701, -0.212706, 0.317034, 0.230569, 0.167511, 0.573132, -0.037478, 0.145701, 0.110581, 0.149040, 0.080715, 0.110977, -0.027736, -0.158285, -0.074979, 0.169785, 0.040907, -0.235343, -0.156936, -0.195036, 0.002091, -0.145248, -0.406611, 0.029767, 0.059484, -0.066916, -0.014954, 0.041338, -0.033963, -0.037041, 0.061297, -0.050494, 0.255666, 0.245214, 0.042469, 0.040991, 0.137545, -0.003231, -0.061198, 0.002650, -0.056146, -0.029345, 0.200535, -0.033679, 0.035617, 0.079683, -0.033751, 0.033842, 0.089195, 0.047638, -0.024295, -0.113793, -0.054436, -0.157772, 0.392764, 0.038910, -0.054922},
}